solver_type L2R_L2LOSS_SVC_DUAL
nr_class 2
label 1 0
nr_feature 179
bias -1
w
-0.02023465478981488 
0 
0 
0 
-0.004805212008803858 
0 
-0.001877547940241697 
0 
0 
0 
0 
0 
0 
0 
0 
0 
0 
0 
0 
0 
0 
0 
0 
0 
0 
0 
0 
0 
0 
0 
0 
0 
0 
0 
0 
0 
0 
0 
0 
0 
0 
-0.002559806630380542 
0 
0 
0 
0 
-0.003350035251576355 
0 
0 
0 
0 
-0.002576921938486593 
-0.00151840736232502 
0 
-0.002643339983685318 
-0.003364853572655576 
0 
0 
0 
0 
0 
0 
0 
0 
0 
0 
0 
0 
0 
0 
0 
0 
0 
0 
0 
0 
-0.002263415059726435 
-0.002388994723066542 
0 
0 
-0.002432966237233108 
-0.004617940587365796 
0 
0 
0 
-0.01611100234110486 
0 
0 
0 
0 
0 
0 
0 
-0.01181434493630796 
0 
0 
0 
0 
0 
0 
-0.002930907051283545 
-0.003210895645589171 
-0.003719794681855112 
-0.003320079902445242 
-0.004080855724355016 
-0.003510375538498086 
-0.005050108323114498 
-0.003603470352138067 
-0.005050108323114498 
-0.003802770702459372 
-0.006058566636246666 
-0.006017147888275957 
-0.007894274677549704 
-0.006017147888275957 
-0.02604676300149755 
-0.01566358766072357 
0 
0 
0 
0 
0 
0 
-0.01644798163983129 
0 
0.03546570193793177 
0 
0 
0 
0 
0.005390634818906475 
0 
0 
0 
0 
0.005996804698679539 
-0.05910471882566852 
-0.01168843129905494 
-0.02490945966084565 
-0.02603139382573191 
-0.0293222748353531 
-0.06123387388296816 
-0.02603139382573191 
-0.01792266361667096 
-0.02490945966084565 
-0.02603139382573191 
-0.02603139382573191 
0 
-0.0293222748353531 
-0.02230311831504898 
-0.03408940187125205 
-0.03408940187125205 
-0.02095208331333873 
-0.0135560773752707 
-0.0135560773752707 
-0.01070077229310153 
-0.0135560773752707 
-0.0135560773752707 
-0.0135560773752707 
-0.0135560773752707 
-0.0135560773752707 
-0.0135560773752707 
-0.01025178260522949 
-0.01298728301325855 
-0.007399255441776731 
-0.01298728301325855 
-0.01298728301325855 
-0.01177671287743427 
-0.01298728301325855 
-0.01298728301325855 
-0.01298728301325855 
-0.01298728301325855 
-0.04712661499143853 
-0.04712661499143853 
-0.04712661499143853 
0.05629248509215724 
0.05629248509215724 
0.05629248509215724 
0.05629248509215724 
0.05629248509215724 
