solver_type L2R_L2LOSS_SVC_DUAL
nr_class 2
label 1 2
nr_feature 2285
bias -1
w
0.1142123848752988 
0 
0.03549109396769957 
0.01145771735789739 
0.01237867001873971 
0.006276323332575193 
0.001778667863077942 
0 
0.04773551886851144 
0 
0 
0 
0 
0 
0 
0 
0 
0 
0 
0 
0 
0 
0.02555030062619928 
0 
0.01968245708223431 
-0.001949444595892001 
0 
0 
0 
0 
-0.01986059427587003 
-0.003645326335930029 
0.01114889441843688 
0 
0.000923436675313795 
0.01114464329493418 
0 
0.0138521221031805 
0.0001539738782839235 
0 
0.0005931634974663165 
0 
0 
0 
0.000155471945176506 
0.0006767693779736068 
0.004345507440590217 
0 
0.0009758516968057309 
0 
0 
0 
-0.004659551313341502 
0.002688062346383333 
0 
0 
0.006485595409697199 
0 
0 
0 
0 
0 
0 
0 
0 
0.01240857462534901 
0.0006134189180270662 
0.01935042312216639 
0 
0.01107248802359993 
0 
0 
0.01450796105044788 
0.005737668165611906 
0 
0.005783969842357275 
0 
0 
0 
0 
0 
0 
0 
0 
0 
0 
0.02290290558117132 
0.08505600325249156 
0.02007085571777562 
0.02668580309795717 
0 
0.1168466663571845 
0 
0.03620955064863566 
0.006274628835227453 
0 
0 
0 
2.168404344971009e-19 
-0.005892211577164926 
0.003796643885039878 
6.505213034913027e-19 
0 
-4.336808689942018e-19 
0 
1.301042606982605e-18 
0 
0.01698723396842875 
0 
0 
-0.005892211577164926 
0 
0 
0 
0 
0.01447053408242843 
0.03961815808054851 
0.00352549565336638 
0 
0 
0.003709937953968925 
0.00352549565336638 
0.01380881733505961 
0.01723553838477432 
2.168404344971009e-19 
0.07215403706764931 
0.03875192662570825 
0.01137552414564753 
0 
0 
0 
0 
0 
0 
0 
0 
0 
0.01618156410624219 
-0.003017308721864046 
0 
0 
0 
0 
-0.004768892099386199 
0 
0 
0.02885226083426984 
0.06783945130452092 
0 
0 
0 
-0.006630953117820931 
0.006459796239467588 
0 
0 
0 
0 
0 
0 
2.710505431213761e-19 
0 
0.007698913623384326 
0 
0 
0 
0 
0 
0 
0 
0 
0 
0 
0 
0 
0 
0 
0 
0 
0 
0 
0 
0 
0 
0.01464269128589872 
0.04506665615451586 
0.005709562803770507 
0 
0 
0 
0.01225104838894255 
0 
0 
0 
0 
0 
0 
0 
0 
0.00781949739292837 
0 
0 
0 
0 
0.008391512912476551 
0.02594717011173836 
0.01127883342626407 
0 
0 
0 
0 
0 
0 
0 
0 
0 
0 
0 
0 
0 
0.01005327717270704 
0 
0.1273018600379962 
0 
0 
0 
0 
0 
0 
0 
0 
0 
0 
0 
0 
0.0104527034929269 
0 
0 
0 
0.04899193191914024 
0.05202589533523564 
0 
0 
0 
0 
-0.006630953117820931 
0 
0 
0 
0 
0 
0 
0 
0 
0 
0 
-0.008345373398510963 
0.00582902404967382 
0 
0 
0 
0 
0.001956827469032261 
0 
0 
0 
0 
0 
0 
0 
0 
0.01411183267821695 
0 
0.01478022378866448 
0 
0 
0 
0 
0 
0 
0.01538644904270901 
0 
0 
0 
0 
0 
-0.005759745843267099 
0 
0.01020290615938583 
0 
0 
0 
0 
0 
0 
0 
0.008056197270805702 
-0.02365707010390998 
0 
-0.007272921778874159 
0.04586269067642292 
0 
0 
0.01833903741950402 
0 
0 
0 
0 
0 
0 
0.01449747247462769 
0 
0 
0 
-6.722053469410127e-18 
0 
0 
0 
0 
0 
-0.005336961470560941 
0 
-0.005530632908830913 
0 
0 
0 
0 
0 
0.01011971505376817 
0 
0 
0 
0 
0 
0 
0 
0 
0 
0 
0 
0 
0 
0 
0 
-0.003332254714010427 
0 
0 
0 
0 
0 
0 
0 
0 
0 
0 
0.007991669406250963 
0 
0 
0 
0 
0 
0 
0 
0 
0 
0 
0 
0 
0 
0 
0 
0 
0.01911702432455834 
0.02045935624847404 
0 
0.02045935624847404 
0 
0.005278793954219998 
0 
0 
0 
0 
0 
0 
0 
0 
0 
0 
0 
0 
0 
0 
0 
0 
0 
0 
0 
0 
0 
0 
0 
0 
0 
0 
0.01323112471930371 
0 
0 
0 
0 
0 
0 
0 
0 
0 
0 
0 
0.01182279589012079 
0 
0 
0 
0 
0 
0 
0 
0 
0 
0 
0 
0 
0 
0 
0 
0 
0 
0 
0 
0 
0 
0 
0 
0 
0 
0 
0 
0 
0 
0 
0 
0 
0 
0.0484712110276057 
0 
0 
0 
0 
0 
0 
0 
0 
0 
0 
0 
0 
0 
0 
0 
0 
0 
0 
0 
0 
0 
0 
0 
0 
0.005846392773290955 
0 
0 
0 
0 
0 
0 
0 
0 
0 
0 
0 
0.04408049938490669 
0 
0 
0 
0 
0.03558707059847255 
0 
0 
0 
0 
0 
0 
-0.02482384702636905 
0 
0 
0 
0 
0 
0 
0 
0 
0 
0 
0 
0 
0 
0 
0 
0 
0 
0 
0 
0 
0 
0.00126787860820414 
0 
0 
0 
0 
0 
0 
0 
0 
0 
0 
0 
0 
0 
0 
0 
0 
0 
0 
0 
0 
0 
0 
0 
0.0476749226667472 
0.0476749226667472 
0.0476749226667472 
0 
0 
0 
0.04768078697467636 
0.04768078697467636 
0.04768078697467636 
0 
0 
0 
0 
0 
0 
0 
0 
0 
0 
0 
0 
0 
0 
0 
0 
0 
0 
0 
0 
0 
0 
0.0186922503175556 
0 
0.002021058642183791 
0 
0 
0 
0 
0 
0 
0 
0 
0 
0 
0.00181059810917665 
-0.004235898961470654 
0.001937470447262867 
0.02075163249004805 
0.001937470447262867 
0.001937470447262867 
0.001937470447262867 
0.001720582889281694 
0 
0 
0 
0 
0 
0 
0 
0 
0 
0 
0 
0 
0 
0 
0 
0 
-0.02587755908114236 
8.673617379884035e-19 
-0.01977816794608675 
-0.02587755908114236 
-0.08129098319633624 
0.06727398940594005 
0.06037469528632326 
0 
0 
0 
0 
0 
0 
0 
0 
9.75781955236954e-19 
0 
0 
0 
0 
0 
0 
0 
0 
0 
0 
0 
0 
0 
0 
0 
0 
0 
0 
0 
0 
0 
0 
0 
0 
0 
0 
0 
0 
0 
0 
0 
0 
0 
0 
-0.02223275865252668 
0 
0 
0.00465248775572941 
0 
0 
0 
0 
0 
0 
0 
0 
0 
0 
0 
0 
0 
0 
0 
0 
0 
0 
0 
0 
0 
0 
0 
0 
0 
0 
0 
0 
0 
0 
0 
0 
0 
0 
0 
0 
0 
0 
0 
0 
0 
0 
0 
0.02096781866601973 
0 
0 
0 
0 
0 
0 
0 
0.01911812711303371 
0.02292342456394892 
0.02004923317505318 
0.001877439883866948 
0 
0 
0 
0.05338236032851305 
0 
0 
0 
0 
-0.007782550385093978 
-0.007782550385093978 
-0.007782550385093978 
-0.007782550385093978 
-0.007782550385093978 
-0.007782550385093978 
-0.007782550385093978 
-0.007782550385093978 
-0.007782550385093978 
-0.007782550385093978 
-0.007782550385093978 
-0.007782550385093978 
0 
-0.007782550385093978 
-0.007782550385093978 
-0.007782550385093978 
-0.007782550385093978 
-0.007782550385093978 
-0.007782550385093978 
-0.007782550385093978 
-0.007782550385093978 
-0.007782550385093978 
0 
0 
0 
0 
0 
0 
0 
0 
0 
0.01571646029735904 
0.01678424352694375 
0 
0 
0 
0.0249314894821159 
0 
0 
0 
0 
0 
0 
0 
0 
0 
0 
0 
0 
0 
0 
0 
0 
0 
0 
0 
0 
0 
0 
0 
0 
0 
0 
0 
0 
0 
0 
0 
0.02146377099080039 
0.008018013087829526 
0.008018013087829526 
0 
0 
0 
0 
0 
0 
0 
0 
0 
0 
0 
0 
0 
0 
0 
0 
0 
0 
0 
0 
0 
0 
0 
0 
0 
0 
0 
0 
0 
0 
0 
0 
0.01760471507874512 
0 
0 
0 
0 
0 
0 
0 
0 
0 
0 
0 
0 
0 
0 
0 
0.01114084536904141 
0.01114084536904141 
0.01114084536904141 
0 
0 
-1.084202172485504e-19 
0 
0 
0 
0 
0.001432673085919589 
0 
0 
0.001262174357134704 
0 
0.001262174357134704 
-0.03134546255796439 
0 
0 
0.01942782533469785 
0 
0 
0 
0 
0 
0 
0 
0 
0 
0 
0 
0 
0 
0 
0 
0 
0 
0 
0 
0 
0 
0 
0 
0 
0 
0 
0 
0 
0 
0 
0 
0.04255776372020587 
0 
0 
0 
0 
0 
0 
0 
0 
0 
0 
0 
0 
0 
0 
0 
0 
0 
0 
0 
0 
0 
0 
0 
0 
0 
0 
0 
0 
0 
0 
0 
0 
0 
0 
0 
0 
0 
0 
0 
0 
0 
0 
0 
0 
0 
0 
0 
0 
0 
0 
0 
0.005725098783978357 
0 
0 
0 
0 
0 
0 
0 
0 
0 
0 
0 
0 
0 
0 
0 
0 
0 
0 
0 
0 
0 
0 
0 
0 
0 
0 
0 
0 
0 
0 
0 
0 
0 
0 
0 
0 
0 
0 
0 
0 
0 
0 
0.001668277971898449 
0 
0 
0 
0 
0 
0 
0 
5.421010862427522e-19 
0 
0 
0 
0 
0 
0 
0 
0 
0 
0 
0 
0 
0 
0 
0 
0 
0 
0 
0 
0 
0 
0 
0 
0 
0 
0 
0 
0 
0 
0 
0 
0.07580209330229037 
0.0134860373547856 
0.01585562030653006 
0.07580209330229037 
0.07580209330229037 
0.018609265022679 
0.018609265022679 
0.018609265022679 
-0.03655271628759874 
-0.03655271628759873 
0.04413827870893332 
0.004457027407561535 
0.004895890564742239 
0.03167094965760556 
0 
0 
0 
0.01030550665991481 
0.0123187722343527 
0.0110276347337705 
0.02362885818367007 
0 
0 
0 
0 
0 
0 
0.01104741631200339 
0 
0 
0 
0 
0 
0 
0 
0 
0 
0 
0 
0 
0 
0 
0 
0 
0 
0 
0 
0.02078917306374448 
0.001741663358837895 
0.001741663358837895 
0 
0 
0 
0.01291856133368317 
0 
0 
0 
0 
0 
0 
0 
0 
0 
0 
0 
0 
0 
0 
0 
0 
0 
0 
0 
0 
0 
0 
0 
0 
0 
0 
0 
0 
0 
0 
0 
0 
0 
0 
0 
0 
0 
0 
0 
0 
0 
0 
0 
0 
0 
0 
0 
0 
0 
0 
0 
0 
0 
0 
0 
0 
0 
0 
0 
0 
0 
0 
0 
0 
0 
0 
0 
0 
0 
0 
0 
0 
0 
0.02461742113410887 
0 
0 
0.05102463690500801 
0 
0 
0 
0 
0 
0 
0 
0 
0 
0 
0 
0 
0 
0 
0 
0 
0 
0 
0 
0 
0 
0 
0 
0 
0 
0 
0 
0 
0.03914962625185062 
0 
0 
0 
0 
0.05936082788613849 
0.05936082788613849 
0.05936082788613849 
0 
0 
0 
0 
0 
0 
0 
0 
0 
0 
0.005944210736491112 
0.005944210736491112 
0 
0 
0 
0 
0 
0 
0 
0 
0 
0 
0 
0 
0 
0 
0 
0 
0 
0 
0 
0 
0 
0 
0 
0 
0 
0 
0 
0 
0 
0 
0 
0 
0 
0 
0 
0 
0 
0 
0 
0 
0.004521502920833547 
0 
0 
0 
0 
0 
0 
0 
0 
0 
0 
0 
0 
0 
0 
0 
0 
0 
0 
0 
0 
0 
0 
0 
0 
0 
0 
0 
0 
0 
0 
0 
0 
0 
0 
0 
0 
0 
0 
0 
0 
0 
0 
0 
0 
0 
0 
0 
0 
0 
0 
0 
0 
0 
0 
0 
0 
0 
0 
0.02564833541846519 
0.02185310743837029 
0 
0 
0 
0 
0 
0 
0 
0 
0 
0 
0.0299532030311713 
0.03233708706840026 
9.75781955236954e-19 
1.084202172485504e-18 
1.084202172485504e-18 
0.01554384824720573 
0 
0 
0 
0 
0 
0 
0 
0 
0 
0 
0 
0 
0 
0 
0 
0 
0 
0 
0 
0 
0 
0 
0 
0 
0.008439509608387389 
0 
0 
0 
0 
0 
0 
0 
0 
0 
0 
0 
0 
0 
0 
0 
0 
0 
0 
0 
0 
0 
0.00715435695879057 
0.03914962625185062 
0 
0 
0 
0 
0 
0 
0 
0 
0 
0 
0 
0 
0 
0 
0 
0 
0 
-1.301042606982605e-18 
-1.301042606982605e-18 
0 
0 
0 
0 
0 
0 
0 
0 
0 
0 
0 
0 
0 
0 
0 
0 
0 
0 
0 
0 
0 
0 
0 
0 
0 
0 
0 
0 
0 
0 
0 
0 
0 
0 
0 
0 
0 
0 
0 
0 
0 
0 
0 
0 
0 
0 
0 
0.008056197270805702 
0 
0 
0 
0 
0 
0 
0 
0 
0 
0 
0 
0 
0 
0 
0 
0 
0 
0 
0 
0 
0 
0 
0.008056197270805702 
0.008056197270805702 
0.008056197270805702 
0.007528649309867824 
0.008056197270805702 
0.008056197270805702 
0.008056197270805702 
0.008056197270805702 
0.008056197270805702 
0 
0 
0 
0 
0 
0 
0 
0 
0 
0 
0 
0 
0 
0 
0 
0 
0 
0 
0 
0 
0 
0.02623582275313801 
0 
0 
0 
0 
0 
0 
0 
0 
0 
0 
0 
0 
0 
0 
0 
0 
0 
0 
0 
0 
0.03402885677118953 
0 
0 
0 
0 
0 
0 
0 
0 
0 
0 
0 
0 
0 
0 
0 
0 
0 
0 
0 
0 
0 
0 
0 
0 
0 
0 
0 
0 
0 
0 
0 
0 
0 
0 
0 
0 
0 
0 
0 
0 
0 
0 
0 
0 
0 
0 
0 
0 
0 
0 
0 
0 
0 
0 
0 
0 
0 
0 
0 
0 
0 
0 
0 
0 
0 
0 
0 
0 
0 
0 
0 
0 
0 
0 
0 
0 
0 
0 
0 
0 
0 
0 
0 
0 
0 
0 
0 
0 
0 
0 
0 
0 
0 
0 
0 
-0.002507548693291697 
0 
0 
0 
0 
0.004645811582859145 
0 
0 
0 
0 
0 
0 
0 
0 
0 
0 
0 
0 
0 
0 
0 
0.01107541142779788 
0 
0 
0 
0.01107541142779788 
0 
0 
0 
0 
0 
0 
0 
0 
0 
0 
0 
0 
0 
0 
0 
0 
0 
0 
0 
0 
0 
0 
0 
0 
0 
0 
0 
0 
0 
0.01803065951681117 
0 
0 
0 
0 
0 
0 
0 
0 
0 
0 
0 
0 
0 
0 
0 
0 
0 
-0.005169054240496902 
0 
0 
0 
0 
0 
0 
0 
0 
0 
0 
0 
0 
0 
0 
0 
0 
0 
0 
0 
0 
0 
0.01663303770343306 
0 
0 
0 
0 
0 
0 
0 
0 
0 
0 
0 
0 
0 
0 
0 
0 
0 
0 
0 
0 
0 
0 
0 
0 
0 
0 
0 
0 
0 
0 
0 
0 
0 
0 
0 
0 
0 
0 
0 
0 
0 
0 
0 
0 
0 
0 
0 
0 
0 
0 
0 
0.001956827469032261 
0 
0 
0 
0 
0 
0 
0 
0 
0 
0 
0 
0 
0 
0 
0 
0 
0 
0 
0 
0 
0 
0 
0 
0 
0 
0 
0 
0 
0 
0 
0 
0 
0 
0 
0 
0 
0 
0 
0.009811267835030637 
0 
0 
0 
0 
0 
0 
0 
0 
0.02243707689911015 
0 
0 
0 
0 
0 
0 
0 
0 
0 
0 
0 
0 
0 
0 
0 
0 
0 
0 
0 
0 
0 
0 
0 
0 
0 
0 
0 
0 
0 
0 
0 
0 
0 
0 
0 
0 
0 
0 
0 
0 
0 
0 
0 
0 
0 
0 
0 
0 
0 
0 
0 
0 
0 
0 
0 
0 
0 
0 
0 
0 
0 
0 
0 
0 
0 
0 
0 
0 
0 
0 
0 
0 
0 
0 
0.01107541142779788 
0 
0 
0 
0 
0 
0 
0 
0 
0 
0 
0.01663303770343306 
0 
0 
0 
0 
0.0130274648728586 
0 
0 
0 
0 
0 
0 
0 
0 
0 
0 
0 
0 
0 
0 
0 
0 
0 
0 
0 
0 
0 
0 
0 
0 
0 
0 
0 
0 
0 
0 
0 
0 
0 
0 
0 
0 
0 
0 
0 
0 
0 
0 
0 
0 
0 
0 
0 
0 
0 
0 
0 
0 
0 
0 
0 
0 
0 
0 
0 
0 
0 
0 
0 
0 
0 
0 
0 
0 
0 
0 
0 
0 
0 
0 
0 
0 
0 
0 
0 
0 
0 
0 
0 
0 
0 
0 
0 
0 
0.02208155794572061 
0 
0 
0 
0 
0 
0 
0 
0 
0 
0 
0 
0 
0 
0 
0 
0 
0 
0 
0 
0 
0 
0 
0 
0 
0 
0 
0 
0 
0 
0 
0 
0 
0 
0 
0 
0 
0 
0 
0 
0 
0 
0 
0 
0 
0 
0 
0 
0 
0 
0 
0 
0 
0 
0 
0 
0 
0 
0 
0 
0 
0 
0 
0 
0 
0 
0.01468661406928261 
0.01468661406928261 
0.01468661406928261 
0 
0 
0 
0 
0 
0 
0 
0 
0 
0 
0 
0 
0 
0 
0 
0 
0 
0 
0 
0 
0 
0 
0 
0 
0 
0 
0 
0 
0 
0 
0 
0 
0 
0 
0 
0 
0 
0 
0 
0 
0 
-2.168404344971009e-19 
-2.168404344971009e-19 
0 
0 
0 
0.001483946458168823 
0 
0 
0 
0 
0 
0 
0 
0 
0 
0 
0 
0 
0 
0 
0 
0 
0 
0 
0 
0 
0 
0 
0 
0 
0 
0 
0 
0 
0.02362885818367007 
0.02362885818367007 
0 
0 
0 
0 
0 
0 
0 
0 
0 
0 
0 
0 
8.021373260541671e-05 
0 
0 
0 
0 
0 
0 
0 
0 
0 
0 
0 
0 
0 
0 
0 
0 
0 
0 
0 
0 
0 
0 
0 
0 
0 
0 
0 
0 
0 
0 
0 
0 
0 
0 
0 
0 
0 
0 
0 
0 
0 
0 
0 
0 
0 
0 
0 
0 
-0.007782550385093978 
-0.007782550385093978 
-0.007782550385093978 
0 
0.04594873971341707 
0 
0 
0 
0 
0 
0 
0 
0 
0 
0 
0.08072467706935466 
0.0598860828207524 
-0.03134546255796439 
0 
0 
0 
0 
0 
0 
0 
0 
0 
0 
0 
0 
0 
0 
0 
0 
0 
0 
0 
0 
0 
0 
0 
0 
0 
0 
0 
0 
0 
0 
0 
0 
0 
0.008056197270805702 
0 
0 
0 
0 
0 
0 
0 
0 
0 
0 
0 
0 
0 
0 
0 
0 
0 
0 
0 
0 
0 
0 
0 
0 
0 
0 
0 
0 
0 
0 
0 
0 
0 
0 
0 
0 
0.06265327194296626 
