solver_type L2R_L2LOSS_SVC_DUAL
nr_class 2
label 1 0
nr_feature 2090
bias -1
w
-0.04396615466620429 
0 
-0.00726160300652891 
-0.0178027416766481 
0 
-0.009510376398041224 
0 
0 
-0.005016904459150033 
0 
0 
0 
0 
0 
0 
0 
0 
0 
0 
0 
0 
0 
0 
0 
-0.01935415581673296 
0 
0 
0 
0 
0 
0 
0 
0 
0 
0 
-0.009210783271153742 
0 
0 
0 
0 
0.04106024391861531 
0 
0 
0 
0 
0.0526655502487284 
0 
0 
0 
0 
0 
0 
-0.02518096975363342 
-0.00931358927484765 
0 
-0.01270455619322189 
-0.007051508291676581 
0 
0 
0 
0 
0 
0 
0 
0 
0 
0 
0 
0 
0 
0 
0 
0 
0 
0 
0 
-0.007578968614138795 
-0.01438871169654819 
-0.014366695804408 
0 
-0.001296958419962653 
-0.01496859160934017 
-0.01831434424962339 
0 
0 
0 
-0.001956419664790927 
-0.003293584786591578 
0 
-0.00471461554426741 
0 
0 
0 
0.01298320257038461 
0.0003196526602736961 
0 
0 
0 
0.02008058331557567 
-0.02997105290472262 
-0.02868803127257923 
-0.01349776867241825 
-0.01497668963901136 
-0.01808846249746348 
-0.01497668963901136 
-0.01949633842162617 
-0.01621683337195149 
-0.02574038659908594 
-0.01621683337195149 
-0.02224852688937909 
-0.03184246540686704 
-0.03264979038470084 
0.09940245319304923 
0.1410525158299452 
0.1077125281862893 
-0.003874494160234763 
0 
-0.008706578372788217 
0 
0 
0 
-0.008706578372788217 
-0.02990522383540786 
0 
0.00693622010904455 
0 
0 
0 
-0.06900423223567853 
0.0006552118472400976 
-0.03209331994845274 
-0.04569876071658171 
0.0008285447615416742 
0.0008493630907675349 
-0.009804083487717077 
-0.01628260134609781 
-0.005316629626388352 
-0.02001393066546202 
-0.01373832912966926 
0 
0 
0 
0 
-0.01630798031737785 
0 
0 
-0.02971897094281424 
-0.03234641463823534 
0 
0 
0 
0 
0 
0 
0 
0 
0 
0 
0 
-0.001396053416771831 
0 
0 
0 
0 
0 
0 
0 
0 
0 
0 
0 
0 
-0.05518302350366054 
-0.05518302350366054 
0 
0 
0 
0 
0 
0 
0 
0 
0 
-0.0002164447454958351 
0.01149305268015212 
0.01405320918634964 
0 
0 
0 
-0.008802944886640266 
0 
0 
0 
0 
0 
0 
0 
0 
-0.006211763745790349 
0 
0 
0 
0 
-0.003209238091283277 
0 
-0.004313460782857 
0 
0 
0 
-0.01383363038721236 
0 
0 
0 
0 
0 
0 
0 
0 
0 
0 
0 
0 
0 
0 
0 
0 
0 
0 
0 
0 
0 
0 
0 
0 
0 
0 
0 
0 
0 
0 
0 
0 
0 
0 
0 
0 
0 
0 
0 
0 
0 
0 
0 
0 
0 
0 
0 
0 
0 
0 
0 
0 
0 
0 
0 
0 
0 
0 
0 
0 
-0.005571222211962962 
-0.007298597977423775 
-0.005835096896825962 
0 
0 
0 
0 
0 
0 
0 
0.002493921340033706 
0 
0 
0 
0 
0 
0 
-0.0140735570819042 
0 
0 
0 
0 
0 
0 
0 
0 
-0.001570369276882159 
0 
0 
0 
0 
0 
-0.007971138421873473 
0 
0 
0 
0 
0 
0 
0 
0 
0 
0 
0 
0 
0 
0 
0 
0 
-0.004940555958031626 
0 
-0.005119842352269865 
0 
0 
0 
0 
0 
0 
0 
0 
0 
0 
0 
0 
0 
0 
0 
0 
0 
0 
-0.002122281966155989 
0 
0 
0 
0 
0 
0 
0 
0 
0 
0 
0 
0 
0 
0 
0 
0 
0 
0 
0 
0 
0 
0 
0 
0 
0 
0 
0 
0 
0 
0 
0 
0 
0 
0 
0 
0 
0 
-0.01088396633951817 
0 
0 
0 
0 
0 
0 
0 
0 
0 
0 
0.0187681595212228 
0 
0 
0 
0 
0 
0 
0 
0 
0 
0 
0 
0 
0 
-0.02163594330528296 
0 
0 
0 
0 
0 
0 
0 
0 
0 
0 
0 
0 
-0.01005422326244749 
0 
0 
0 
-0.01119619972122483 
0 
0 
0 
0 
0 
0 
0 
0 
0 
0 
0 
0 
0 
0 
0 
0 
0 
0 
0 
0 
0 
0 
0 
0 
0 
0 
0 
0 
0 
0 
0 
0 
0 
0 
0 
0 
0 
0 
0 
0 
0 
0 
0 
0 
0 
-0.01155249638036073 
0 
0 
0 
0 
0 
0 
0 
0 
0 
0 
0 
0 
0 
0 
0 
0 
0 
0 
0 
0 
0 
0 
0 
0 
0 
0 
0 
0 
0 
0 
0 
0 
0 
0 
0 
0 
0 
0 
0 
0 
0 
0 
0 
0 
0 
0 
0 
0 
0 
0 
0 
0 
0 
0 
0 
0 
0 
0 
0 
0 
0 
0 
0 
0 
0 
0 
0 
0 
0 
0 
0 
0 
0 
0 
-0.02948429066604073 
-0.02948429066604073 
0 
0 
0 
0 
0 
0 
0 
0 
0 
0 
0 
0 
0 
0 
0 
0 
0 
0 
0 
0 
0 
0 
0 
0 
0 
0 
0 
0 
0 
0 
0 
0 
-0.004414680226716356 
0 
0 
0 
0 
0 
0 
0 
0 
0 
0 
0 
0 
0 
0 
0 
0 
0 
0 
0 
0.03378896952717977 
0 
0 
0 
0 
0 
0 
0 
0 
0 
0 
0 
0 
0 
0 
0 
0 
0 
0 
0 
0 
0 
0 
0 
0 
0 
0 
0 
0 
0 
0 
0 
0 
0 
0 
0 
0 
0 
0 
0 
0 
0 
0 
0 
0 
0 
0 
0 
0 
0 
0 
0 
0 
0 
0 
0 
0 
0 
0 
0 
0 
0 
0 
0 
0 
0 
0 
-0.02297895827475812 
0 
0 
0 
0 
0 
0 
0 
0 
0 
0 
0 
0 
0 
0 
0 
0 
0 
0 
0 
0 
0 
0 
0 
0 
0 
0 
0 
0 
0 
0 
0 
0 
0 
0 
0 
0 
0 
0 
0 
0 
0 
0 
0 
0 
0 
0 
0 
0 
0 
0 
0 
0 
0 
0 
-0.01295275287246915 
0.002432794036428709 
-0.01118163362997986 
0.002737807865452619 
0 
0 
0 
-0.01838342721974321 
0 
0 
0 
0 
0 
0 
0 
0 
0 
0 
0 
0 
0 
0 
0 
0 
0 
0 
0 
0 
0 
0 
0 
0 
0 
0 
0 
-0.002250695438171801 
0 
0 
0 
0 
0 
0 
0 
-0.001896385004257365 
0 
0 
0 
0 
0 
0 
0 
0 
0 
0 
0 
0 
0 
0 
0 
0 
0 
0 
0 
0 
0 
0 
0 
0 
0 
0 
0 
0 
0 
0 
0 
0 
0 
0 
0 
0 
-0.005746937527444488 
0 
0 
0 
0 
0 
0 
0 
0 
0 
0 
0 
0 
0 
0 
0 
0 
0 
0 
0 
0 
0 
0 
0 
0 
0 
0 
0 
0 
0 
0 
0 
0 
0 
0 
0 
0 
0 
0 
0 
0 
0 
0 
0 
0 
0 
-0.03283379030461658 
0 
0 
0 
0 
0 
0 
0 
0 
0 
0 
0 
0 
0 
0 
0 
0 
0 
0 
0 
0 
0 
0 
0 
0 
0 
0 
0 
0 
0 
0 
0 
0 
0 
0 
0 
0 
0 
0 
0 
0 
0 
0 
0 
0 
0 
0 
0 
0 
0 
0 
0 
0 
0 
0 
0 
-0.02102883014941789 
0 
0 
0 
0 
0 
0 
0 
0 
0 
-0.002545738815307989 
0 
0 
0 
0 
0 
0 
0 
0 
0 
0 
0 
0 
0 
0 
0 
0 
0 
0 
0 
0 
0 
0 
0 
0 
0 
0 
0 
0 
0 
0 
0 
0 
0 
0 
0 
0 
0 
0 
0 
0 
0 
0 
0 
0 
0 
0 
0 
0 
0 
0 
0 
0 
0 
0 
0 
0 
0 
0 
0 
0 
0 
0 
0 
0 
0 
0 
0 
0 
0 
0 
0 
0 
0 
0 
0 
0 
0 
0 
0 
0 
0 
0 
0 
-0.01466173123039102 
0 
0 
0 
0 
0 
0 
0 
0 
0 
0 
0 
0 
0 
0 
0 
0 
0 
0 
0 
0 
0 
0 
0 
0 
0 
0 
0 
0 
0 
0 
0 
0 
0 
0 
0 
0 
0 
0 
0 
0 
0 
0 
0 
0 
0 
0 
0 
0 
-0.02526208212809886 
-0.02696609598747178 
0.02783572782918958 
0 
0 
0 
0 
0 
0 
0 
0 
0 
0 
0 
0 
0 
0 
0 
-0.01439473693435335 
-0.004785120122403928 
0 
0 
0 
0 
0 
0 
0 
0 
0 
0 
0 
0 
0 
0 
0 
0 
0 
0 
0 
0 
0 
0 
0 
0 
0 
0 
0 
0 
0 
0 
0 
0 
0 
0 
0 
0 
0 
0 
0 
0.002853576128901466 
0 
0 
0 
0 
0 
0 
0 
0 
0 
0 
0 
0 
0 
0 
0 
0 
0 
0 
0 
0 
0 
0 
0 
0 
0 
0 
0 
0 
0 
0 
0 
0 
0 
0 
0 
0 
0 
0 
0 
0 
0 
0 
0 
0 
0 
0 
0 
0 
0 
0 
0 
0 
0 
0 
0 
0 
0 
0 
0 
0 
0 
-0.00526395885631106 
-0.004799317997854255 
-0.03783574592160838 
0 
0 
0 
0 
0 
0 
0 
0 
0 
0 
0 
0 
0 
0 
0 
0 
0 
0 
0 
0 
0 
0 
-0.002103312032678185 
0 
-0.002250695438171801 
0 
0 
0 
0 
0 
0 
0 
0 
0 
0 
0 
0 
0 
0 
0 
0 
0 
0 
0 
0 
0 
0 
0 
0 
-0.006732721835283933 
0 
0 
0 
0 
0 
0 
-0.0142747651991036 
0 
0 
0 
0 
0 
0 
0 
0 
0 
0 
0 
0 
0 
0 
0 
0 
-0.01387331338168133 
0 
0 
0 
0 
0 
0 
0 
0 
0 
0 
0 
0 
0 
0 
0 
0 
0 
0 
0 
0 
0 
0 
0 
0 
0 
0 
0 
0 
0 
0 
0 
0 
0 
0 
0 
0 
0 
0 
0 
0 
0 
0 
0 
0 
0 
0 
0 
0 
0 
0 
0 
0 
0 
0 
0 
0 
0 
0 
0 
0 
0 
0 
0 
0 
0 
0 
-0.03514631350571421 
0 
0 
0 
0 
0 
0 
0 
0 
0 
0 
0 
0 
0 
0 
0 
0 
0 
0 
0 
0 
0 
0 
0 
0 
0 
0 
0 
0 
0 
0 
0 
0 
0 
0 
0 
0 
0 
0 
0 
0 
0 
0 
0 
0 
0 
0 
0 
0 
0 
0 
0 
0 
0 
0 
0 
0 
0 
0 
0 
0 
0 
0.03555669692988737 
0 
0 
0 
0 
0 
-0.009120676725321282 
0 
0 
0 
0 
0 
0 
0 
0 
0 
0 
0 
0 
0 
0 
0 
0 
0 
0 
0 
0 
0 
0 
0 
0 
0 
0 
0 
0 
0 
0 
0 
0 
0 
0 
0 
0 
0 
0 
0 
0 
0 
0 
0 
0 
0 
0 
0 
0 
0 
0 
0 
0 
0 
0 
0 
0 
0 
0 
0 
0 
0 
0 
0 
0 
0 
0 
0 
0 
0 
0 
0 
0 
0 
0 
0 
0 
0 
0 
0 
0 
0 
0 
0 
0 
0 
0 
0 
0 
0 
0 
0 
0 
0 
0 
0 
0 
0 
0 
0 
0 
0 
0 
0 
0 
0 
0 
0 
0 
0 
0 
0 
0 
0 
0 
0 
0 
0 
0 
0 
0 
0 
0 
0 
0 
0 
0 
0 
0 
0 
0 
0 
0 
0 
0 
0 
0 
0 
0 
0 
0 
-0.002892130815953867 
0 
0 
0 
0 
0 
0 
0 
0 
0 
0 
0 
0 
0 
0 
0 
0 
0 
0 
0 
0 
0 
0 
0 
0 
0 
0 
0 
0 
0 
0 
0 
0 
0 
0 
0 
0 
0 
0 
0 
0 
0 
0 
0 
0 
0 
0 
0 
0 
0 
0 
0 
0 
0 
0 
0 
0 
0 
0 
0 
0 
0 
0 
0 
0 
0 
0 
0 
0 
0 
0 
0 
0 
0 
0 
0 
0 
0 
0 
0 
0 
0 
0 
0 
0 
0 
0 
0 
0 
0 
0 
0 
0 
0 
0 
0 
0 
0 
0 
-0.006219791945923711 
0 
0 
0 
0 
0.001540653132303808 
0 
0 
0 
0 
0 
0 
0 
0 
-0.01565676138259181 
-0.01565676138259181 
-0.01565676138259181 
-0.01565676138259181 
-0.01565676138259181 
-0.01565676138259181 
-0.01565676138259181 
0 
-0.01486179929524067 
-0.009597840438929611 
-0.0117011524716078 
0 
0 
-0.01486179929524067 
-0.01486179929524067 
-0.01027038088337931 
-0.01027038088337931 
-0.01027038088337931 
-0.01027038088337931 
0 
0 
0 
0 
0 
0 
0 
0 
0 
0 
0 
0 
0 
0 
0 
0.03804822790589686 
0.03804822790589686 
0 
0 
0 
0 
0 
0 
0 
0 
0 
0 
0 
0 
0 
0 
0 
0 
0 
0 
0 
0 
0 
0 
0 
0 
0 
0 
0 
0 
0 
0 
0 
0 
0 
0 
0 
0 
0 
0 
0 
0 
0 
0 
0 
0 
0 
0 
0 
0 
0 
0 
0 
0 
0 
0 
0 
0 
0 
0 
0 
0 
0 
0 
0 
0 
0 
0 
0 
0 
0 
0 
0 
0 
0 
0 
0 
0 
-0.007204497519019202 
-0.007204497519019202 
-0.007204497519019202 
-0.007204497519019202 
-0.007204497519019202 
-0.007204497519019202 
-0.007204497519019202 
-0.007204497519019202 
-0.007204497519019202 
-0.007204497519019202 
-0.007204497519019202 
0 
0 
0 
0 
0 
0 
0 
0.02478935883352602 
-0.0215760760250067 
0 
0.002853576128901466 
0.003002865816907896 
0.003002865816907896 
0.02478935883352602 
0 
0.02478935883352602 
0 
-0.0215760760250067 
-0.0215760760250067 
0 
0 
0 
0 
0 
0 
0 
0 
0 
0 
0 
0 
0 
0 
0 
0 
0 
0 
0 
0 
0 
0 
0 
0 
0 
0 
-0.02661366117204653 
-0.02661366117204653 
-0.03155031563019761 
-0.03155031563019761 
-0.02242108374172335 
0 
0 
0 
0 
0 
0 
0 
0 
0 
0 
0 
0 
0 
0 
0 
0 
0 
0 
0 
0 
0 
0 
0 
0 
0 
0 
0 
0 
0 
0 
0 
0 
0 
0 
0 
0 
0 
0 
0 
0 
0 
0 
0 
-0.002892130815953867 
0 
0 
0 
0 
0 
0 
0 
0 
0 
0 
0 
0 
0 
0 
0 
0 
0 
0 
0 
0 
0 
0 
0 
0 
-0.002250695438171801 
-0.002250695438171801 
-0.002250695438171801 
-0.002250695438171801 
-0.002250695438171801 
-0.002250695438171801 
-0.002250695438171801 
-0.002250695438171801 
-0.002250695438171801 
0 
0 
0 
-0.01665671452690522 
0 
0 
0 
0 
0 
0 
0 
0 
0 
0 
0 
0 
0 
0 
-0.0215760760250067 
-0.0215760760250067 
0.02478935883352602 
0.02478935883352602 
0 
0 
0 
0 
0 
0 
0 
0 
0 
0 
0 
0 
0 
0 
0 
0 
0 
0 
0 
0 
0 
0 
0 
0 
0 
0 
0 
0 
0 
0 
0 
0 
0 
0 
0 
0 
0 
0 
0 
0 
0 
0 
0 
0 
0 
0 
0 
0 
0 
0 
0 
0 
0 
0 
0 
0 
0 
0 
0 
0 
0 
0 
0 
0 
0 
0 
0 
0 
0 
0 
0 
0 
0 
0 
0 
0 
0 
0 
0 
0 
0 
0 
0 
0 
0 
0 
0 
0 
0 
0 
0 
0 
0 
0 
0 
0 
0 
0 
0 
0 
0 
0 
0 
0 
0 
0 
0 
0 
0 
0 
0 
0 
0 
0 
0 
-0.002636847258126837 
0 
0 
0 
0 
0 
0 
0 
0 
0 
0 
0 
0 
-0.002748346400161313 
0 
0 
-0.002748346400161313 
-0.002748346400161313 
-0.00309478837801115 
-0.00309478837801115 
-0.00309478837801115 
-0.00309478837801115 
-0.01935851084466144 
-0.00309478837801115 
-0.00309478837801115 
-0.00309478837801115 
0 
0 
0 
0 
0 
0 
-0.05089334281211096 
0 
0 
0 
0 
0 
0 
-0.07389633631805601 
0 
0 
0 
0 
0 
0 
0 
0 
0 
0 
0 
0 
0 
0 
0 
0 
0 
0 
0 
0 
0 
0 
0 
0 
0 
-0.01514782207692199 
-0.01620926116385832 
-0.01620926116385832 
-0.01514782207692199 
-0.01620926116385832 
-0.01620926116385832 
-0.01620926116385832 
-0.01620926116385832 
-0.01782388481508371 
-0.01782388481508371 
