solver_type L2R_L2LOSS_SVC_DUAL
nr_class 56
label 1 2 3 4 5 6 7 8 9 10 11 12 13 14 15 16 17 18 19 20 21 22 23 24 25 26 27 28 29 30 31 32 33 34 35 36 37 38 39 40 41 42 43 44 45 46 47 48 49 50 51 52 53 54 55 56
nr_feature 180
bias -1
w
-0.1927428783552386 -0.1923049777877241 -0.1925888986815648 -0.196048807969901 -0.195623867322033 -0.1958965267469854 -0.1937777614989127 -0.1938046514311021 -0.1944103145389489 -0.1563970077708106 -0.1918325448623436 -0.1915893104779064 -0.196105227853517 -0.1960497892406456 -0.1856449389217989 -0.18582156579882 -0.198931815301702 -0.2494097858081585 -0.2679333576207709 -0.2693779455475083 -0.2966283876466497 -0.2852883696961638 -0.2719831603758988 -0.2235005438010824 -0.2677776241869521 -0.2871425111393076 -0.287645785174622 -0.3151219053642567 -0.3059496916978927 -0.2902675018395208 -0.2213115923897024 -0.2686919228623108 -0.2874338175214381 -0.2903173774399884 -0.3184201889627055 -0.305503123891796 -0.2917179093412445 -0.1953504708785312 -0.2758517601473128 -0.2934438853645991 -0.2964293607162475 -0.3225455952470493 -0.311358769891967 -0.2968952140403475 -0.2670360889846951 -0.2716026958397852 -0.2734918779015206 -0.2965754889507997 -0.2866550252645718 -0.2750058053196681 -0.1835720959101575 -0.1883901832114881 -0.1918455792913759 -0.1894197221295414 -0.1930232847921432 -0.1539091669218555 
0 0 0 0 0 0 0 0 0 0 0 0 0 0 0 0 0 0 0 0 0 0 0 0 0 0 0 0 0 0 0 0 0 0 0 0 0 0 0 0 0 0 0 0 0 0 0 0 0 0 0 0 0 0 0 0 
-0.03135179156341308 -0.03123610995276599 -0.03131407156501774 -0.03200997660973508 -0.03193254987180566 -0.03198848259252252 -0.03154532119461355 -0.03156058903577071 -0.03168141914836106 -0.02431590859336189 -0.03117900069035999 -0.03112255099480078 -0.03203738799949777 -0.03203994647073681 -0.02975332261612283 -0.02979699757289152 -0.03183466039468656 -0.04144103354950333 -0.04357772379232699 -0.04389602453740356 -0.05005255027245643 -0.04756353571870354 -0.04446495274543814 -0.03819835706473745 -0.0449283778366435 -0.04697530668299001 -0.04712989124397233 -0.05316545543228709 -0.05113639474000448 -0.04759112279192398 -0.0382614290689243 -0.045089512551822 -0.04697779550088787 -0.04755674017612933 -0.05370470631084294 -0.05101378227815684 -0.04799009513064861 -0.03198979143258605 -0.04637057321088359 -0.04815272128405503 -0.04876986945991831 -0.05455853394208022 -0.05220511210865995 -0.04904086521627622 -0.04290342821221016 -0.05334543176759711 -0.05386888659318019 -0.0593116415303749 -0.0569476579220389 -0.05416977492927733 -0.03521966212865438 -0.0330107336150017 -0.0328627774186308 -0.03451669443475602 -0.03387016453931212 -0.02347281282192525 
-0.02341819959443768 -0.02333755239258811 -0.02339017655718957 -0.0239367062302894 -0.02387465702205599 -0.02392013748080346 -0.02355860676047028 -0.02356167650887707 -0.02366213419466203 -0.01717699811883434 -0.02328900805573303 -0.02324808617432968 -0.02395510687010061 -0.02396585474811851 -0.02200116178515213 -0.02204535968220404 -0.02407600360049507 -0.02907335749590609 -0.03083695794148233 -0.03109133561154261 -0.03606371111833574 -0.03405429070672533 -0.03155181326911479 -0.02936654599012613 -0.03199218015213698 -0.03384525047247169 -0.03398459555006342 -0.03894615309781705 -0.03726956523507328 -0.03436345945628516 -0.02889875201184871 -0.03210172942201273 -0.03383511700079349 -0.03432759678748856 -0.03936608413187612 -0.03719122168208039 -0.0346791591215099 -0.0242802715627603 -0.03349733468341468 -0.03503485112959546 -0.03557060287827021 -0.04037644473963425 -0.03845879312701063 -0.03580180454157945 -0.0368774879707193 -0.03891702413278665 -0.03929892614397433 -0.04374231021057291 -0.04183676889185035 -0.03957188527456291 -0.02056991357148502 -0.02532135734119072 -0.025284541689418 -0.02186963399153485 -0.02290990726809173 -0.02639730581291088 
-0.07607403876903257 -0.07563357098073251 -0.07579314151038201 -0.07983699440549151 -0.07965763443325279 -0.07996114203706972 -0.07644727089301746 -0.07625803025508768 -0.07673621853504818 0.002063517906773897 -0.07555335326787536 -0.07521158098776214 -0.08099967877974884 -0.08075346212835947 -0.05524122279559777 -0.05545016562296456 -0.08176812177437734 -0.0498349223978029 -0.04361280481471822 -0.04891167438442246 -0.11195794698429 -0.08910713865401322 -0.05479019983451901 -0.06975745806667373 -0.04357373761136934 -0.03735591653412056 -0.04289069986222656 -0.1052010072964155 -0.08240602890004928 -0.04847435220486436 -0.07004455893074539 -0.04362900337032415 -0.03727816245691686 -0.04286926592566023 -0.1051634458840965 -0.08242474971870586 -0.04870126427319317 -0.08160559157368494 -0.04267651415196989 -0.03642085606385186 -0.04181973455148799 -0.102089540426389 -0.080417973192859 -0.04776134034290519 -0.04521891047818995 -0.03805698707783798 -0.04338218658823906 -0.1012369637680119 -0.07948130395344138 -0.04908041281926359 -0.08619326471107934 -0.08737494932310315 -0.08696897205397032 -0.08687575982450607 -0.08573312625509398 -0.09271396701849555 
-0.01426714816283135 -0.01457899741058533 -0.01415442397973106 -0.04252977792464083 -0.0426700064752196 -0.04266519649113634 -0.04345497744194247 -0.04348291515084076 -0.04342513691516174 -0.04070053335641993 -0.0427704815476706 -0.04267889992935385 -0.04188397790263421 -0.04148929247575422 -0.03936513746929514 -0.03982521382369726 -0.04009387157430286 -0.1005013624183068 -0.09155753395816751 0.04829632461952437 -0.09451309867916585 -0.09509359424734949 -0.09080416063617726 -0.05812424087985183 -0.09209090602983168 -0.08248366708960569 0.05934276081921071 -0.08515548887572642 -0.08628736901100235 -0.08339770202322522 -0.05843379293321648 -0.09461618550801836 -0.0831104544524356 0.05708041442985927 -0.08665823373614047 -0.0861988202192123 -0.08257595888032554 -0.04818550314685593 -0.09580844991720647 -0.08620774599361491 0.0541087513280043 -0.08981919199827228 -0.08934858464776242 -0.0860006939543021 -0.08059754298211474 -0.0946727692356869 0.04500600875509012 -0.09777595519629917 -0.09887328055216865 -0.09608020353121388 -0.0428734893736204 -0.04161894884431865 -0.04105501080451621 -0.0431637120221213 -0.04275727662004576 -0.04371480757225004 
-0.02370410531907174 -0.02384325561342578 -0.02377618730250342 -0.03235802647828186 -0.03224526754092209 -0.03235822536167109 -0.02497483455824188 -0.02486158156013769 -0.0252348677231398 -0.08569801967278461 -0.05095889511665573 -0.0509836839894189 -0.04905402493173329 -0.04903111911984025 -0.05910449604934964 -0.05924865482504634 -0.04504365126451305 -0.04987235336352417 -0.04050311546299747 -0.04936852128542326 -0.0124512901322702 -0.02136736352500258 -0.05908779203576978 -0.04524812301225435 -0.0434382397766178 -0.03427295720094223 -0.04338497786966781 -0.007892133142957865 -0.01568906472876401 -0.05270403769684322 -0.045190973714874 -0.04356733099133613 -0.03411399317999664 -0.04339315566940414 -0.007798674035643211 -0.01592878557460541 -0.05300746824103148 -0.04707490282467793 -0.04226300282572251 -0.03289465877468605 -0.04192416236290711 -0.007685370661745259 -0.0150933210954787 -0.05162731968058343 -0.04548598922374059 -0.03450022463606112 -0.043319714915482 -0.01100245620736491 -0.01760978985398132 -0.05271367652928138 -0.04793336984243408 -0.04726908498908512 -0.0474451611739865 -0.04731019304659501 -0.04735643683532476 -0.05082223301615258 
0.1395265572332633 -0.05990519614624006 -0.06011352746229047 -0.01403784348761811 -0.01411053548988011 -0.01399844281097342 -0.01487613994312877 -0.01489832369343526 -0.01506371413339406 -0.0216948440363148 -0.01360183353945404 -0.01364911918291093 -0.01302496345690254 -0.01300384875906621 -0.0155467054743582 -0.01510857705290493 -0.01209054251084017 -0.01183950767109344 -0.01269907660483846 -0.02033538720599387 -0.006170514485050156 -0.008323409457604902 -0.01039604241649783 -0.01274895845767881 -0.009874141827962703 -0.01093834474056641 -0.01867232319492074 -0.004464996664428518 -0.006744963008538662 -0.008706031758889137 -0.01265967584716592 -0.009756770699781427 -0.0108788139063037 -0.0187242254973203 -0.004314657877860715 -0.006709102686098125 -0.008408953647312223 -0.01286417675407522 -0.00967099764292103 -0.01074760587399766 -0.01845861057983749 -0.004459174042702254 -0.006653157953755616 -0.008454950537375707 -0.0110318744130549 -0.01079311214181956 -0.01849163497607774 -0.004970389954756593 -0.006926091010820033 -0.008396743304114822 -0.01270152055765147 -0.01266642339158909 -0.01258609513083007 -0.01297285131154287 -0.0127107153637686 -0.01508707182729344 
-0.03135179156341308 -0.03123610995276599 -0.03131407156501774 -0.03200997660973508 -0.03193254987180566 -0.03198848259252252 -0.03154532119461355 -0.03156058903577071 -0.03168141914836106 -0.02431590859336189 -0.03117900069035999 -0.03112255099480078 -0.03203738799949777 -0.03203994647073681 -0.02975332261612283 -0.02979699757289152 -0.03183466039468656 -0.04144103354950333 -0.04357772379232699 -0.04389602453740356 -0.05005255027245643 -0.04756353571870354 -0.04446495274543814 -0.03819835706473745 -0.0449283778366435 -0.04697530668299001 -0.04712989124397233 -0.05316545543228709 -0.05113639474000448 -0.04759112279192398 -0.0382614290689243 -0.045089512551822 -0.04697779550088787 -0.04755674017612933 -0.05370470631084294 -0.05101378227815684 -0.04799009513064861 -0.03198979143258605 -0.04637057321088359 -0.04815272128405503 -0.04876986945991831 -0.05455853394208022 -0.05220511210865995 -0.04904086521627622 -0.04290342821221016 -0.05334543176759711 -0.05386888659318019 -0.0593116415303749 -0.0569476579220389 -0.05416977492927733 -0.03521966212865438 -0.0330107336150017 -0.0328627774186308 -0.03451669443475602 -0.03387016453931212 -0.02347281282192525 
-0.07341408843778602 -0.07331882076291746 -0.07331184897398925 -0.07629140820493235 -0.07604158836916627 -0.07639218408854713 -0.07385160867370466 -0.07357942955710997 -0.07410161328239345 0.01404235989337249 -0.07278222062942297 -0.07274213565519944 -0.07700780787266846 -0.07685709663354992 -0.06003510854862584 -0.06028990222353987 -0.1133813175634606 -0.01436285891135176 -0.01302307123806229 -0.01658017488058311 -0.05895076554571135 -0.04357276520049341 -0.02031373557300386 -0.05455784688742914 -0.08944983219756611 -0.08882135753561678 -0.09241670277940968 -0.1343647612229499 -0.119288310218164 -0.09593322092436794 -0.05460714777437955 -0.08922832697351071 -0.08874744830281088 -0.0923957443135975 -0.1347016768350442 -0.1189577587517106 -0.09654590125915347 -0.07168098253237241 -0.08587739571871006 -0.08490478051669634 -0.08869638326606567 -0.1292747885519363 -0.114412496904639 -0.09214702431419712 -0.07387260934805076 -0.07888024437805215 -0.08236436567005584 -0.1187019183848406 -0.1065944053685895 -0.08586590306169706 -0.08036701627860235 -0.08168507755366554 -0.08171672039200109 -0.0787423872313637 -0.07897911238444888 -0.08660311973716457 
-0.07607403876903257 -0.07563357098073251 -0.07579314151038201 -0.07983699440549151 -0.07965763443325279 -0.07996114203706972 -0.07644727089301746 -0.07625803025508768 -0.07673621853504818 0.002063517906773897 -0.07555335326787536 -0.07521158098776214 -0.08099967877974884 -0.08075346212835947 -0.05524122279559777 -0.05545016562296456 -0.08176812177437734 -0.0498349223978029 -0.04361280481471822 -0.04891167438442246 -0.11195794698429 -0.08910713865401322 -0.05479019983451901 -0.06975745806667373 -0.04357373761136934 -0.03735591653412056 -0.04289069986222656 -0.1052010072964155 -0.08240602890004928 -0.04847435220486436 -0.07004455893074539 -0.04362900337032415 -0.03727816245691686 -0.04286926592566023 -0.1051634458840965 -0.08242474971870586 -0.04870126427319317 -0.08160559157368494 -0.04267651415196989 -0.03642085606385186 -0.04181973455148799 -0.102089540426389 -0.080417973192859 -0.04776134034290519 -0.04521891047818995 -0.03805698707783798 -0.04338218658823906 -0.1012369637680119 -0.07948130395344138 -0.04908041281926359 -0.08619326471107934 -0.08737494932310315 -0.08696897205397032 -0.08687575982450607 -0.08573312625509398 -0.09271396701849555 
0.01489365949613312 0.01420325619270632 0.01498131418575694 -0.03340121242195439 -0.03349506680758747 -0.0333980824258658 -0.03533970573451189 -0.0353908316096609 -0.0351494811066972 -0.05168522445859671 -0.03229666851154766 -0.03223849778214514 -0.03096658954555215 -0.03096011211073526 -0.036636051880081 -0.03653718960878088 -0.02862655400558503 -0.02786367039987213 -0.03007859060901335 -0.04847179212609167 -0.01457468023644323 -0.01962677004221568 -0.02469437884058076 -0.03022451044348091 -0.02351853279985821 -0.02602820868534017 -0.04427806157937534 -0.01061952385658163 -0.0158025231121128 -0.02052957095246679 -0.03020111917762107 -0.02343110921175279 -0.02601692157802783 -0.04460611597745154 -0.01043489819399469 -0.01583000301757105 -0.0203554375072138 -0.03051785261896608 -0.02306363021145542 -0.02555781045913405 -0.04386488186327512 -0.01046890015914632 -0.01557165376700169 -0.02003227370806167 -0.0260940837864215 -0.02577623628576846 -0.04400782270258148 -0.01170340420038785 -0.01651620085778655 -0.02011988421170757 -0.03040066296814068 -0.02986097520874038 -0.03004110672974864 -0.03025259244181211 -0.03005846569467488 -0.0321358331362968 
0.01489365949613312 0.01420325619270632 0.01498131418575694 -0.03340121242195439 -0.03349506680758747 -0.0333980824258658 -0.03533970573451189 -0.0353908316096609 -0.0351494811066972 -0.05168522445859671 -0.03229666851154766 -0.03223849778214514 -0.03096658954555215 -0.03096011211073526 -0.036636051880081 -0.03653718960878088 -0.02862655400558503 -0.02786367039987213 -0.03007859060901335 -0.04847179212609167 -0.01457468023644323 -0.01962677004221568 -0.02469437884058076 -0.03022451044348091 -0.02351853279985821 -0.02602820868534017 -0.04427806157937534 -0.01061952385658163 -0.0158025231121128 -0.02052957095246679 -0.03020111917762107 -0.02343110921175279 -0.02601692157802783 -0.04460611597745154 -0.01043489819399469 -0.01583000301757105 -0.0203554375072138 -0.03051785261896608 -0.02306363021145542 -0.02555781045913405 -0.04386488186327512 -0.01046890015914632 -0.01557165376700169 -0.02003227370806167 -0.0260940837864215 -0.02577623628576846 -0.04400782270258148 -0.01170340420038785 -0.01651620085778655 -0.02011988421170757 -0.03040066296814068 -0.02986097520874038 -0.03004110672974864 -0.03025259244181211 -0.03005846569467488 -0.0321358331362968 
0.1395265572332633 -0.05990519614624006 -0.06011352746229047 -0.01403784348761811 -0.01411053548988011 -0.01399844281097342 -0.01487613994312877 -0.01489832369343526 -0.01506371413339406 -0.0216948440363148 -0.01360183353945404 -0.01364911918291093 -0.01302496345690254 -0.01300384875906621 -0.0155467054743582 -0.01510857705290493 -0.01209054251084017 -0.01183950767109344 -0.01269907660483846 -0.02033538720599387 -0.006170514485050156 -0.008323409457604902 -0.01039604241649783 -0.01274895845767881 -0.009874141827962703 -0.01093834474056641 -0.01867232319492074 -0.004464996664428518 -0.006744963008538662 -0.008706031758889137 -0.01265967584716592 -0.009756770699781427 -0.0108788139063037 -0.0187242254973203 -0.004314657877860715 -0.006709102686098125 -0.008408953647312223 -0.01286417675407522 -0.00967099764292103 -0.01074760587399766 -0.01845861057983749 -0.004459174042702254 -0.006653157953755616 -0.008454950537375707 -0.0110318744130549 -0.01079311214181956 -0.01849163497607774 -0.004970389954756593 -0.006926091010820033 -0.008396743304114822 -0.01270152055765147 -0.01266642339158909 -0.01258609513083007 -0.01297285131154287 -0.0127107153637686 -0.01508707182729344 
0.1395265572332633 -0.05990519614624006 -0.06011352746229047 -0.01403784348761811 -0.01411053548988011 -0.01399844281097342 -0.01487613994312877 -0.01489832369343526 -0.01506371413339406 -0.0216948440363148 -0.01360183353945404 -0.01364911918291093 -0.01302496345690254 -0.01300384875906621 -0.0155467054743582 -0.01510857705290493 -0.01209054251084017 -0.01183950767109344 -0.01269907660483846 -0.02033538720599387 -0.006170514485050156 -0.008323409457604902 -0.01039604241649783 -0.01274895845767881 -0.009874141827962703 -0.01093834474056641 -0.01867232319492074 -0.004464996664428518 -0.006744963008538662 -0.008706031758889137 -0.01265967584716592 -0.009756770699781427 -0.0108788139063037 -0.0187242254973203 -0.004314657877860715 -0.006709102686098125 -0.008408953647312223 -0.01286417675407522 -0.00967099764292103 -0.01074760587399766 -0.01845861057983749 -0.004459174042702254 -0.006653157953755616 -0.008454950537375707 -0.0110318744130549 -0.01079311214181956 -0.01849163497607774 -0.004970389954756593 -0.006926091010820033 -0.008396743304114822 -0.01270152055765147 -0.01266642339158909 -0.01258609513083007 -0.01297285131154287 -0.0127107153637686 -0.01508707182729344 
0.01489365949613312 0.01420325619270632 0.01498131418575694 -0.03340121242195439 -0.03349506680758747 -0.0333980824258658 -0.03533970573451189 -0.0353908316096609 -0.0351494811066972 -0.05168522445859671 -0.03229666851154766 -0.03223849778214514 -0.03096658954555215 -0.03096011211073526 -0.036636051880081 -0.03653718960878088 -0.02862655400558503 -0.02786367039987213 -0.03007859060901335 -0.04847179212609167 -0.01457468023644323 -0.01962677004221568 -0.02469437884058076 -0.03022451044348091 -0.02351853279985821 -0.02602820868534017 -0.04427806157937534 -0.01061952385658163 -0.0158025231121128 -0.02052957095246679 -0.03020111917762107 -0.02343110921175279 -0.02601692157802783 -0.04460611597745154 -0.01043489819399469 -0.01583000301757105 -0.0203554375072138 -0.03051785261896608 -0.02306363021145542 -0.02555781045913405 -0.04386488186327512 -0.01046890015914632 -0.01557165376700169 -0.02003227370806167 -0.0260940837864215 -0.02577623628576846 -0.04400782270258148 -0.01170340420038785 -0.01651620085778655 -0.02011988421170757 -0.03040066296814068 -0.02986097520874038 -0.03004110672974864 -0.03025259244181211 -0.03005846569467488 -0.0321358331362968 
-0.06036094344632154 0.1392553759120481 -0.06018504807717733 -0.01402973240799095 -0.0141209557125822 -0.01423584772575484 -0.01489327469758412 -0.01491585472018679 -0.01475245545772712 -0.02169232513140496 -0.01358005915859811 -0.01351399769716983 -0.01291841857336849 -0.01309640216222514 -0.01530541459971312 -0.01557548051120381 -0.01201300891294957 -0.01189400871662231 -0.01249660346419533 -0.02040482800898856 -0.006150728170230679 -0.008187084595286295 -0.01037948769209578 -0.01271359229197211 -0.009887491312452337 -0.01100346935907467 -0.01862771176200369 -0.004517957063291713 -0.006506447379806125 -0.008538304959228266 -0.01269854178351319 -0.009888132228704775 -0.01088667060355604 -0.01879171340900545 -0.004388749062580313 -0.006649719233380005 -0.008646016552155793 -0.0129079158613108 -0.009792929609794993 -0.01077808295607956 -0.01850467963102135 -0.004326158172761211 -0.006520611798056619 -0.008428675465351769 -0.01090579114684863 -0.01089749597497419 -0.01845343334996917 -0.004915282114996656 -0.006966141279898557 -0.008616572973550242 -0.0128070184436167 -0.01258106116584379 -0.01266286352851014 -0.01261388952887589 -0.01257158540455738 -0.01292341658977506 
-0.06036094344632154 0.1392553759120481 -0.06018504807717733 -0.01402973240799095 -0.0141209557125822 -0.01423584772575484 -0.01489327469758412 -0.01491585472018679 -0.01475245545772712 -0.02169232513140496 -0.01358005915859811 -0.01351399769716983 -0.01291841857336849 -0.01309640216222514 -0.01530541459971312 -0.01557548051120381 -0.01201300891294957 -0.01189400871662231 -0.01249660346419533 -0.02040482800898856 -0.006150728170230679 -0.008187084595286295 -0.01037948769209578 -0.01271359229197211 -0.009887491312452337 -0.01100346935907467 -0.01862771176200369 -0.004517957063291713 -0.006506447379806125 -0.008538304959228266 -0.01269854178351319 -0.009888132228704775 -0.01088667060355604 -0.01879171340900545 -0.004388749062580313 -0.006649719233380005 -0.008646016552155793 -0.0129079158613108 -0.009792929609794993 -0.01077808295607956 -0.01850467963102135 -0.004326158172761211 -0.006520611798056619 -0.008428675465351769 -0.01090579114684863 -0.01089749597497419 -0.01845343334996917 -0.004915282114996656 -0.006966141279898557 -0.008616572973550242 -0.0128070184436167 -0.01258106116584379 -0.01266286352851014 -0.01261388952887589 -0.01257158540455738 -0.01292341658977506 
-0.06036094344632154 0.1392553759120481 -0.06018504807717733 -0.01402973240799095 -0.0141209557125822 -0.01423584772575484 -0.01489327469758412 -0.01491585472018679 -0.01475245545772712 -0.02169232513140496 -0.01358005915859811 -0.01351399769716983 -0.01291841857336849 -0.01309640216222514 -0.01530541459971312 -0.01557548051120381 -0.01201300891294957 -0.01189400871662231 -0.01249660346419533 -0.02040482800898856 -0.006150728170230679 -0.008187084595286295 -0.01037948769209578 -0.01271359229197211 -0.009887491312452337 -0.01100346935907467 -0.01862771176200369 -0.004517957063291713 -0.006506447379806125 -0.008538304959228266 -0.01269854178351319 -0.009888132228704775 -0.01088667060355604 -0.01879171340900545 -0.004388749062580313 -0.006649719233380005 -0.008646016552155793 -0.0129079158613108 -0.009792929609794993 -0.01077808295607956 -0.01850467963102135 -0.004326158172761211 -0.006520611798056619 -0.008428675465351769 -0.01090579114684863 -0.01089749597497419 -0.01845343334996917 -0.004915282114996656 -0.006966141279898557 -0.008616572973550242 -0.0128070184436167 -0.01258106116584379 -0.01266286352851014 -0.01261388952887589 -0.01257158540455738 -0.01292341658977506 
-0.0603604710591123 -0.06141675917343342 0.1392143934811067 -0.01410571046430017 -0.01406029827737664 -0.01393504380432359 -0.01485146651139975 -0.01487125566985795 -0.01456452873169206 -0.0218720119701439 -0.01359676624407929 -0.01354209410459736 -0.01315588275078649 -0.01299083527301429 -0.01540556325539928 -0.01544879955171847 -0.01204112034211927 -0.01144791762632463 -0.01278237291393552 -0.02046159817691733 -0.00608114811576843 -0.008270803789051529 -0.01040426950967899 -0.01269974461610525 -0.00993351103589034 -0.01092211564204755 -0.01860665929293141 -0.004425548183878906 -0.006701288453753763 -0.008676862299657548 -0.01277454328162769 -0.009939857829121539 -0.01108419382074702 -0.01880496581879422 -0.0044719815488277 -0.006628573804499831 -0.008646363157183052 -0.01276058462189896 -0.009656844446200945 -0.01074430321718378 -0.01842171200383762 -0.004432988087028827 -0.006487427126821773 -0.008409671882916532 -0.01100943989010357 -0.01085517436641553 -0.01862041491048903 -0.004891366874027748 -0.006961575635588238 -0.008390601031361477 -0.01287617137061557 -0.01245580125612655 -0.01268176615020412 -0.01261101162618209 -0.01267034194615836 -0.01256509537163529 
-0.0603604710591123 -0.06141675917343342 0.1392143934811067 -0.01410571046430017 -0.01406029827737664 -0.01393504380432359 -0.01485146651139975 -0.01487125566985795 -0.01456452873169206 -0.0218720119701439 -0.01359676624407929 -0.01354209410459736 -0.01315588275078649 -0.01299083527301429 -0.01540556325539928 -0.01544879955171847 -0.01204112034211927 -0.01144791762632463 -0.01278237291393552 -0.02046159817691733 -0.00608114811576843 -0.008270803789051529 -0.01040426950967899 -0.01269974461610525 -0.00993351103589034 -0.01092211564204755 -0.01860665929293141 -0.004425548183878906 -0.006701288453753763 -0.008676862299657548 -0.01277454328162769 -0.009939857829121539 -0.01108419382074702 -0.01880496581879422 -0.0044719815488277 -0.006628573804499831 -0.008646363157183052 -0.01276058462189896 -0.009656844446200945 -0.01074430321718378 -0.01842171200383762 -0.004432988087028827 -0.006487427126821773 -0.008409671882916532 -0.01100943989010357 -0.01085517436641553 -0.01862041491048903 -0.004891366874027748 -0.006961575635588238 -0.008390601031361477 -0.01287617137061557 -0.01245580125612655 -0.01268176615020412 -0.01261101162618209 -0.01267034194615836 -0.01256509537163529 
-0.0603604710591123 -0.06141675917343342 0.1392143934811067 -0.01410571046430017 -0.01406029827737664 -0.01393504380432359 -0.01485146651139975 -0.01487125566985795 -0.01456452873169206 -0.0218720119701439 -0.01359676624407929 -0.01354209410459736 -0.01315588275078649 -0.01299083527301429 -0.01540556325539928 -0.01544879955171847 -0.01204112034211927 -0.01144791762632463 -0.01278237291393552 -0.02046159817691733 -0.00608114811576843 -0.008270803789051529 -0.01040426950967899 -0.01269974461610525 -0.00993351103589034 -0.01092211564204755 -0.01860665929293141 -0.004425548183878906 -0.006701288453753763 -0.008676862299657548 -0.01277454328162769 -0.009939857829121539 -0.01108419382074702 -0.01880496581879422 -0.0044719815488277 -0.006628573804499831 -0.008646363157183052 -0.01276058462189896 -0.009656844446200945 -0.01074430321718378 -0.01842171200383762 -0.004432988087028827 -0.006487427126821773 -0.008409671882916532 -0.01100943989010357 -0.01085517436641553 -0.01862041491048903 -0.004891366874027748 -0.006961575635588238 -0.008390601031361477 -0.01287617137061557 -0.01245580125612655 -0.01268176615020412 -0.01261101162618209 -0.01267034194615836 -0.01256509537163529 
-0.008702016353356873 -0.007844952827444315 -0.008991605655848202 0.1379400926658949 -0.06068607857592303 -0.06143002625993429 -0.008665391171154507 -0.009206731519726207 -0.009803001926617053 -0.01344169319288568 -0.00749230317473409 -0.007884379496330907 -0.00729053108779861 -0.007269995630129969 -0.009349009606950837 -0.008891498415340485 -0.006967345043592278 -0.01479595918225285 -0.006024319207581261 -0.005312578356669472 -0.001620241470509872 -0.003299351812473855 -0.004548626137745783 -0.007015228695832628 -0.0135612003711832 -0.004989371105415896 -0.004271474772002023 -0.0005555580845004594 -0.002185761018577713 -0.003523558636325497 -0.006870146765318144 -0.01388687043129856 -0.005015125950859027 -0.004257603287024616 -0.0005587245705849276 -0.002118734406855839 -0.003581028179155302 -0.007345646503108171 -0.01366695330691535 -0.004723930144900891 -0.004007590245453974 -0.000607413289742516 -0.001932073266855071 -0.003312907203257855 -0.01201562982050906 -0.006037823517678049 -0.005310303905139666 -0.002089992168984232 -0.003416240313571753 -0.004500313925761894 -0.007717443399014922 -0.006958815329377381 -0.007446134235125776 -0.007499240515393292 -0.007214013560748384 -0.008635577156739353 
-0.02083006566136063 -0.02004621307743299 -0.02088042710459975 0.01224084182040135 0.01231157951537151 0.01207963191656783 -0.0207635514709988 -0.02057391052735776 -0.0212354889463011 -0.03198774621034462 -0.01870431979357593 -0.01876215144367785 -0.01802650090585751 -0.01819106747926431 -0.02184725753471487 -0.02199474235850997 -0.01656247311702636 -0.03526113773712948 -0.0142720185110031 -0.01253011109417576 -0.003713244116098757 -0.007223952516697259 -0.01054427057800757 -0.01649653245214801 -0.0324914965728769 -0.01189666908790013 -0.01029571590345112 -0.001470172322649892 -0.004939583084695339 -0.008428839185113604 -0.01634246941658923 -0.03271335639160532 -0.01198323790058693 -0.01013562085128354 -0.001511631088258682 -0.004966102785220444 -0.008258219949385741 -0.01723517069745761 -0.0323290407713905 -0.0114539488037997 -0.009631475123880143 -0.001304063454396664 -0.004607058412939896 -0.008001270565731397 -0.02868284450776228 -0.01445429255916029 -0.01283878747964218 -0.005150892396348129 -0.008129834160764826 -0.01094340963244295 -0.01759933521076654 -0.01733383350004228 -0.0175629954136096 -0.01711857360222801 -0.01743025898494711 -0.01894435769312193 
-0.0510741381208121 -0.04996748479035897 -0.05111472945000371 -0.03341220772279242 -0.03324995289708069 -0.03344980159030581 -0.05006231746738902 -0.04982993833111394 -0.05023586583890302 -0.03270647454165185 -0.05092105483674352 -0.0507143686731345 -0.04983052888428548 -0.04996663433287173 -0.04283811201790979 -0.04285326796565755 -0.04849243004802494 0.09883990789782814 -0.136137857564075 -0.1345425489809051 -0.1503572854926955 -0.1471840241637138 -0.1380019038952264 -0.0773684154768231 0.1103296987565141 -0.1248935818933784 -0.125030553618278 -0.1391252737593515 -0.1366942829393656 -0.1265461961243985 -0.07934191095368748 0.1123865689384184 -0.1239466516965159 -0.1256370082809733 -0.1394879311013194 -0.1360736747740207 -0.1277612055515661 -0.06157434689919528 0.1056935283338801 -0.1301739424120485 -0.1310307606185282 -0.1440930069069368 -0.1415648717035376 -0.1331695462801513 0.06006363828911013 -0.1068651424720843 -0.1074523731495081 -0.1186471848415652 -0.1177633155432422 -0.1094260116631363 -0.05207826354360125 -0.04764707680940077 -0.04883539780702079 -0.05260474003469662 -0.0501437821784352 -0.0524919477942139 
-0.02083006566136063 -0.02004621307743299 -0.02088042710459975 0.01224084182040135 0.01231157951537151 0.01207963191656783 -0.0207635514709988 -0.02057391052735776 -0.0212354889463011 -0.03198774621034462 -0.01870431979357593 -0.01876215144367785 -0.01802650090585751 -0.01819106747926431 -0.02184725753471487 -0.02199474235850997 -0.01656247311702636 -0.03526113773712948 -0.0142720185110031 -0.01253011109417576 -0.003713244116098757 -0.007223952516697259 -0.01054427057800757 -0.01649653245214801 -0.0324914965728769 -0.01189666908790013 -0.01029571590345112 -0.001470172322649892 -0.004939583084695339 -0.008428839185113604 -0.01634246941658923 -0.03271335639160532 -0.01198323790058693 -0.01013562085128354 -0.001511631088258682 -0.004966102785220444 -0.008258219949385741 -0.01723517069745761 -0.0323290407713905 -0.0114539488037997 -0.009631475123880143 -0.001304063454396664 -0.004607058412939896 -0.008001270565731397 -0.02868284450776228 -0.01445429255916029 -0.01283878747964218 -0.005150892396348129 -0.008129834160764826 -0.01094340963244295 -0.01759933521076654 -0.01733383350004228 -0.0175629954136096 -0.01711857360222801 -0.01743025898494711 -0.01894435769312193 
-0.02083006566136063 -0.02004621307743299 -0.02088042710459975 0.01224084182040135 0.01231157951537151 0.01207963191656783 -0.0207635514709988 -0.02057391052735776 -0.0212354889463011 -0.03198774621034462 -0.01870431979357593 -0.01876215144367785 -0.01802650090585751 -0.01819106747926431 -0.02184725753471487 -0.02199474235850997 -0.01656247311702636 -0.03526113773712948 -0.0142720185110031 -0.01253011109417576 -0.003713244116098757 -0.007223952516697259 -0.01054427057800757 -0.01649653245214801 -0.0324914965728769 -0.01189666908790013 -0.01029571590345112 -0.001470172322649892 -0.004939583084695339 -0.008428839185113604 -0.01634246941658923 -0.03271335639160532 -0.01198323790058693 -0.01013562085128354 -0.001511631088258682 -0.004966102785220444 -0.008258219949385741 -0.01723517069745761 -0.0323290407713905 -0.0114539488037997 -0.009631475123880143 -0.001304063454396664 -0.004607058412939896 -0.008001270565731397 -0.02868284450776228 -0.01445429255916029 -0.01283878747964218 -0.005150892396348129 -0.008129834160764826 -0.01094340963244295 -0.01759933521076654 -0.01733383350004228 -0.0175629954136096 -0.01711857360222801 -0.01743025898494711 -0.01894435769312193 
-0.02083006566136063 -0.02004621307743299 -0.02088042710459975 0.01224084182040135 0.01231157951537151 0.01207963191656783 -0.0207635514709988 -0.02057391052735776 -0.0212354889463011 -0.03198774621034462 -0.01870431979357593 -0.01876215144367785 -0.01802650090585751 -0.01819106747926431 -0.02184725753471487 -0.02199474235850997 -0.01656247311702636 -0.03526113773712948 -0.0142720185110031 -0.01253011109417576 -0.003713244116098757 -0.007223952516697259 -0.01054427057800757 -0.01649653245214801 -0.0324914965728769 -0.01189666908790013 -0.01029571590345112 -0.001470172322649892 -0.004939583084695339 -0.008428839185113604 -0.01634246941658923 -0.03271335639160532 -0.01198323790058693 -0.01013562085128354 -0.001511631088258682 -0.004966102785220444 -0.008258219949385741 -0.01723517069745761 -0.0323290407713905 -0.0114539488037997 -0.009631475123880143 -0.001304063454396664 -0.004607058412939896 -0.008001270565731397 -0.02868284450776228 -0.01445429255916029 -0.01283878747964218 -0.005150892396348129 -0.008129834160764826 -0.01094340963244295 -0.01759933521076654 -0.01733383350004228 -0.0175629954136096 -0.01711857360222801 -0.01743025898494711 -0.01894435769312193 
-0.02083006566136063 -0.02004621307743299 -0.02088042710459975 0.01224084182040135 0.01231157951537151 0.01207963191656783 -0.0207635514709988 -0.02057391052735776 -0.0212354889463011 -0.03198774621034462 -0.01870431979357593 -0.01876215144367785 -0.01802650090585751 -0.01819106747926431 -0.02184725753471487 -0.02199474235850997 -0.01656247311702636 -0.03526113773712948 -0.0142720185110031 -0.01253011109417576 -0.003713244116098757 -0.007223952516697259 -0.01054427057800757 -0.01649653245214801 -0.0324914965728769 -0.01189666908790013 -0.01029571590345112 -0.001470172322649892 -0.004939583084695339 -0.008428839185113604 -0.01634246941658923 -0.03271335639160532 -0.01198323790058693 -0.01013562085128354 -0.001511631088258682 -0.004966102785220444 -0.008258219949385741 -0.01723517069745761 -0.0323290407713905 -0.0114539488037997 -0.009631475123880143 -0.001304063454396664 -0.004607058412939896 -0.008001270565731397 -0.02868284450776228 -0.01445429255916029 -0.01283878747964218 -0.005150892396348129 -0.008129834160764826 -0.01094340963244295 -0.01759933521076654 -0.01733383350004228 -0.0175629954136096 -0.01711857360222801 -0.01743025898494711 -0.01894435769312193 
-0.008702016353356873 -0.007844952827444315 -0.008991605655848202 0.1379400926658949 -0.06068607857592303 -0.06143002625993429 -0.008665391171154507 -0.009206731519726207 -0.009803001926617053 -0.01344169319288568 -0.00749230317473409 -0.007884379496330907 -0.00729053108779861 -0.007269995630129969 -0.009349009606950837 -0.008891498415340485 -0.006967345043592278 -0.01479595918225285 -0.006024319207581261 -0.005312578356669472 -0.001620241470509872 -0.003299351812473855 -0.004548626137745783 -0.007015228695832628 -0.0135612003711832 -0.004989371105415896 -0.004271474772002023 -0.0005555580845004594 -0.002185761018577713 -0.003523558636325497 -0.006870146765318144 -0.01388687043129856 -0.005015125950859027 -0.004257603287024616 -0.0005587245705849276 -0.002118734406855839 -0.003581028179155302 -0.007345646503108171 -0.01366695330691535 -0.004723930144900891 -0.004007590245453974 -0.000607413289742516 -0.001932073266855071 -0.003312907203257855 -0.01201562982050906 -0.006037823517678049 -0.005310303905139666 -0.002089992168984232 -0.003416240313571753 -0.004500313925761894 -0.007717443399014922 -0.006958815329377381 -0.007446134235125776 -0.007499240515393292 -0.007214013560748384 -0.008635577156739353 
-0.008702016353356873 -0.007844952827444315 -0.008991605655848202 0.1379400926658949 -0.06068607857592303 -0.06143002625993429 -0.008665391171154507 -0.009206731519726207 -0.009803001926617053 -0.01344169319288568 -0.00749230317473409 -0.007884379496330907 -0.00729053108779861 -0.007269995630129969 -0.009349009606950837 -0.008891498415340485 -0.006967345043592278 -0.01479595918225285 -0.006024319207581261 -0.005312578356669472 -0.001620241470509872 -0.003299351812473855 -0.004548626137745783 -0.007015228695832628 -0.0135612003711832 -0.004989371105415896 -0.004271474772002023 -0.0005555580845004594 -0.002185761018577713 -0.003523558636325497 -0.006870146765318144 -0.01388687043129856 -0.005015125950859027 -0.004257603287024616 -0.0005587245705849276 -0.002118734406855839 -0.003581028179155302 -0.007345646503108171 -0.01366695330691535 -0.004723930144900891 -0.004007590245453974 -0.000607413289742516 -0.001932073266855071 -0.003312907203257855 -0.01201562982050906 -0.006037823517678049 -0.005310303905139666 -0.002089992168984232 -0.003416240313571753 -0.004500313925761894 -0.007717443399014922 -0.006958815329377381 -0.007446134235125776 -0.007499240515393292 -0.007214013560748384 -0.008635577156739353 
-0.02083006566136063 -0.02004621307743299 -0.02088042710459975 0.01224084182040135 0.01231157951537151 0.01207963191656783 -0.0207635514709988 -0.02057391052735776 -0.0212354889463011 -0.03198774621034462 -0.01870431979357593 -0.01876215144367785 -0.01802650090585751 -0.01819106747926431 -0.02184725753471487 -0.02199474235850997 -0.01656247311702636 -0.03526113773712948 -0.0142720185110031 -0.01253011109417576 -0.003713244116098757 -0.007223952516697259 -0.01054427057800757 -0.01649653245214801 -0.0324914965728769 -0.01189666908790013 -0.01029571590345112 -0.001470172322649892 -0.004939583084695339 -0.008428839185113604 -0.01634246941658923 -0.03271335639160532 -0.01198323790058693 -0.01013562085128354 -0.001511631088258682 -0.004966102785220444 -0.008258219949385741 -0.01723517069745761 -0.0323290407713905 -0.0114539488037997 -0.009631475123880143 -0.001304063454396664 -0.004607058412939896 -0.008001270565731397 -0.02868284450776228 -0.01445429255916029 -0.01283878747964218 -0.005150892396348129 -0.008129834160764826 -0.01094340963244295 -0.01759933521076654 -0.01733383350004228 -0.0175629954136096 -0.01711857360222801 -0.01743025898494711 -0.01894435769312193 
-0.008676792402426359 -0.0103493544911155 -0.008406637225543875 -0.06096456472185355 0.1380678930353902 -0.06123185041175173 -0.00870901422311811 -0.008034538625351301 -0.009536119063400111 -0.0134955270825584 -0.008064538282855133 -0.007937497697326332 -0.007978406522151395 -0.007607247454450704 -0.008787539053732397 -0.009805494480563729 -0.00691903611704881 -0.01525877871826788 -0.00599386860790154 -0.0054007774932616 -0.001576556986249562 -0.002888202475960511 -0.004289475980303901 -0.006994496094936229 -0.01396569213782454 -0.004955997829851439 -0.004388153985457733 -0.0006642201237554287 -0.002080822193233225 -0.003497984750886724 -0.006897709086364995 -0.01368736382270198 -0.0050923890948896 -0.004226660785163636 -0.0006222910940773563 -0.00206883135445048 -0.003289291316994697 -0.007358309559983857 -0.0135790465862431 -0.004797771237494059 -0.004076658511029238 -0.0004657878568905226 -0.001879155285140693 -0.003391968023417932 -0.01209809590046479 -0.006103150565835269 -0.005447374728308637 -0.002199313543966768 -0.003479961954192088 -0.004579728205792439 -0.007450046755564641 -0.007562582280052587 -0.00734007882028757 -0.008193324023922335 -0.007464054542715774 -0.006661971478036272 
-0.008676792402426359 -0.0103493544911155 -0.008406637225543875 -0.06096456472185355 0.1380678930353902 -0.06123185041175173 -0.00870901422311811 -0.008034538625351301 -0.009536119063400111 -0.0134955270825584 -0.008064538282855133 -0.007937497697326332 -0.007978406522151395 -0.007607247454450704 -0.008787539053732397 -0.009805494480563729 -0.00691903611704881 -0.01525877871826788 -0.00599386860790154 -0.0054007774932616 -0.001576556986249562 -0.002888202475960511 -0.004289475980303901 -0.006994496094936229 -0.01396569213782454 -0.004955997829851439 -0.004388153985457733 -0.0006642201237554287 -0.002080822193233225 -0.003497984750886724 -0.006897709086364995 -0.01368736382270198 -0.0050923890948896 -0.004226660785163636 -0.0006222910940773563 -0.00206883135445048 -0.003289291316994697 -0.007358309559983857 -0.0135790465862431 -0.004797771237494059 -0.004076658511029238 -0.0004657878568905226 -0.001879155285140693 -0.003391968023417932 -0.01209809590046479 -0.006103150565835269 -0.005447374728308637 -0.002199313543966768 -0.003479961954192088 -0.004579728205792439 -0.007450046755564641 -0.007562582280052587 -0.00734007882028757 -0.008193324023922335 -0.007464054542715774 -0.006661971478036272 
-0.008676792402426359 -0.0103493544911155 -0.008406637225543875 -0.06096456472185355 0.1380678930353902 -0.06123185041175173 -0.00870901422311811 -0.008034538625351301 -0.009536119063400111 -0.0134955270825584 -0.008064538282855133 -0.007937497697326332 -0.007978406522151395 -0.007607247454450704 -0.008787539053732397 -0.009805494480563729 -0.00691903611704881 -0.01525877871826788 -0.00599386860790154 -0.0054007774932616 -0.001576556986249562 -0.002888202475960511 -0.004289475980303901 -0.006994496094936229 -0.01396569213782454 -0.004955997829851439 -0.004388153985457733 -0.0006642201237554287 -0.002080822193233225 -0.003497984750886724 -0.006897709086364995 -0.01368736382270198 -0.0050923890948896 -0.004226660785163636 -0.0006222910940773563 -0.00206883135445048 -0.003289291316994697 -0.007358309559983857 -0.0135790465862431 -0.004797771237494059 -0.004076658511029238 -0.0004657878568905226 -0.001879155285140693 -0.003391968023417932 -0.01209809590046479 -0.006103150565835269 -0.005447374728308637 -0.002199313543966768 -0.003479961954192088 -0.004579728205792439 -0.007450046755564641 -0.007562582280052587 -0.00734007882028757 -0.008193324023922335 -0.007464054542715774 -0.006661971478036272 
-0.008921803118259394 -0.007116590796942521 -0.008965956731334709 -0.06151990552960407 -0.06183687669237952 0.137913951042641 -0.008842223839808023 -0.008735913235340632 -0.007473389436592109 -0.01345138490136257 -0.008059745415266568 -0.007867729505832474 -0.007491816555674024 -0.008091297347538051 -0.009448397554760247 -0.009074171700748793 -0.007025851388544329 -0.01446694114448054 -0.006002053964807643 -0.00510750587869325 -0.001491645347440594 -0.002933606173896955 -0.004475382941264789 -0.006819249267450848 -0.01349776168376268 -0.005075691553043368 -0.00434002435666242 -0.0006365016650092378 -0.001970269789144618 -0.003620940009641084 -0.006866593994839762 -0.01373054622726474 -0.005022849598386058 -0.004313248640724101 -0.0007276111824809002 -0.00208277174046004 -0.003556735376853345 -0.007057642890364924 -0.01357353315160204 -0.004940368339866932 -0.00407671574194178 -0.000573345116388661 -0.00200576968361423 -0.003397748311322066 -0.0121020199759552 -0.006109411906268762 -0.005452926360551042 -0.002214352217067271 -0.003368749189361894 -0.004737406838634895 -0.007053912895443649 -0.007364775703002632 -0.007389306370614422 -0.005921815725677812 -0.007329854669314726 -0.008622116669692141 
-0.008921803118259394 -0.007116590796942521 -0.008965956731334709 -0.06151990552960407 -0.06183687669237952 0.137913951042641 -0.008842223839808023 -0.008735913235340632 -0.007473389436592109 -0.01345138490136257 -0.008059745415266568 -0.007867729505832474 -0.007491816555674024 -0.008091297347538051 -0.009448397554760247 -0.009074171700748793 -0.007025851388544329 -0.01446694114448054 -0.006002053964807643 -0.00510750587869325 -0.001491645347440594 -0.002933606173896955 -0.004475382941264789 -0.006819249267450848 -0.01349776168376268 -0.005075691553043368 -0.00434002435666242 -0.0006365016650092378 -0.001970269789144618 -0.003620940009641084 -0.006866593994839762 -0.01373054622726474 -0.005022849598386058 -0.004313248640724101 -0.0007276111824809002 -0.00208277174046004 -0.003556735376853345 -0.007057642890364924 -0.01357353315160204 -0.004940368339866932 -0.00407671574194178 -0.000573345116388661 -0.00200576968361423 -0.003397748311322066 -0.0121020199759552 -0.006109411906268762 -0.005452926360551042 -0.002214352217067271 -0.003368749189361894 -0.004737406838634895 -0.007053912895443649 -0.007364775703002632 -0.007389306370614422 -0.005921815725677812 -0.007329854669314726 -0.008622116669692141 
-0.008921803118259394 -0.007116590796942521 -0.008965956731334709 -0.06151990552960407 -0.06183687669237952 0.137913951042641 -0.008842223839808023 -0.008735913235340632 -0.007473389436592109 -0.01345138490136257 -0.008059745415266568 -0.007867729505832474 -0.007491816555674024 -0.008091297347538051 -0.009448397554760247 -0.009074171700748793 -0.007025851388544329 -0.01446694114448054 -0.006002053964807643 -0.00510750587869325 -0.001491645347440594 -0.002933606173896955 -0.004475382941264789 -0.006819249267450848 -0.01349776168376268 -0.005075691553043368 -0.00434002435666242 -0.0006365016650092378 -0.001970269789144618 -0.003620940009641084 -0.006866593994839762 -0.01373054622726474 -0.005022849598386058 -0.004313248640724101 -0.0007276111824809002 -0.00208277174046004 -0.003556735376853345 -0.007057642890364924 -0.01357353315160204 -0.004940368339866932 -0.00407671574194178 -0.000573345116388661 -0.00200576968361423 -0.003397748311322066 -0.0121020199759552 -0.006109411906268762 -0.005452926360551042 -0.002214352217067271 -0.003368749189361894 -0.004737406838634895 -0.007053912895443649 -0.007364775703002632 -0.007389306370614422 -0.005921815725677812 -0.007329854669314726 -0.008622116669692141 
-0.01282271426312032 -0.012040526155461 -0.01269746754254854 -0.0118660094384696 -0.01173196759647847 -0.01195249452731414 0.1407516310985697 -0.05904587716381222 -0.05937302044294079 -0.01981734489493461 -0.01145427842629763 -0.0114631719708164 -0.01100371160409685 -0.01111417292386787 -0.01359865208361768 -0.0136073531556241 -0.01005998550529814 -0.005620355894500611 -0.007500948267410673 -0.006055930715554281 -0.0004396239275115991 -0.002547023497520904 -0.02369747114874753 -0.009415136274612315 -0.004590105122880761 -0.00611743666164828 -0.004942696930638536 8.673617379884035e-19 -0.001453424999284684 -0.02190649475173788 -0.009534580067858582 -0.004360057574989669 -0.00602561386753109 -0.00494835024459443 -1.13841228110978e-18 -0.001531176850420582 -0.02201787354153581 -0.01034853147501392 -0.003879210201706393 -0.0056234416285869 -0.004558919410055094 1.084202172485504e-19 -0.001268900529973994 -0.02151024538866868 -0.006328333101157622 -0.005389109888089874 -0.004048977661875859 -1.084202172485504e-19 -0.0009789618836444499 -0.02095505732944077 -0.01073421184282948 -0.01144623843795565 -0.01074895983459112 -0.01017563094560445 -0.01054354075855495 -0.01062713543696492 
-0.03037512410384741 -0.0306817330905415 -0.03052283734238123 -0.02840781356308224 -0.02821196520792766 -0.02825003831818414 0.01784513909391555 0.01788011252513139 0.01772851578776828 -0.04760497437310991 -0.02706124764934945 -0.02709955997807496 -0.02615113824451402 -0.02595796045479399 -0.03205690159277243 -0.03222911107240031 -0.02381184358331873 -0.01327299065663472 -0.01769476586163929 -0.01462409197613413 -0.0007857927289963494 -0.005881230702541947 -0.05527597326634321 -0.02259305127760091 -0.01053156488920587 -0.01457672505297676 -0.01188622663595706 2.927345865710862e-18 -0.003291450063745064 -0.0517771516721124 -0.02268296047180089 -0.01059487919536207 -0.01425793165287424 -0.01173079458937759 -1.089623183347932e-17 -0.003604670845653537 -0.05258671950817075 -0.02435945407190198 -0.009348616895819216 -0.01337847406204525 -0.01072587246022578 -4.282598581317743e-18 -0.002942244230017726 -0.05105262903072734 -0.01490154521427555 -0.01261921740363684 -0.00951341978843365 3.266159044612582e-18 -0.002329816156072618 -0.04968703337225674 -0.02542753627150366 -0.0252151298764823 -0.02507556169125276 -0.02510174460680089 -0.02505502529257763 -0.02677269700023546 
-0.03941119632360036 -0.03968695615464204 -0.03918601797923123 -0.03797709671655355 -0.03797040836962347 -0.03824879957150891 -0.01566600062385413 -0.01557010097550333 -0.01629776392328146 -0.03383105475153746 -0.03827243121780424 -0.03812712703325068 -0.03757183162886419 -0.03730518659107399 -0.03502585636102522 -0.0348512456148013 -0.03631989169405713 -0.09887179814561643 -0.08712982895788893 -0.08696949139657767 -0.09269861441337432 -0.09322438695701643 0.05595953270046271 -0.05422243560516007 -0.08930780853454921 -0.07929464174559132 -0.07923170976836227 -0.08504316089917009 -0.08413268054574058 0.06527611136368081 -0.05384215943150363 -0.08943324079606144 -0.08036806973613055 -0.07933321541081956 -0.08603524447289773 -0.08468557671050149 0.06411833917125115 -0.04418158888396712 -0.09340914507456204 -0.08322184734685652 -0.08287254773752174 -0.08920163506186554 -0.0870124971528131 0.06157014139925811 -0.07723614960689303 -0.09230380269247628 -0.09212613978607861 -0.09854389718134104 -0.0962238980833338 0.05014812456316738 -0.03902968249138959 -0.0372235453540298 -0.03742504331817619 -0.0392534554995514 -0.03802862512731261 -0.03888251259442087 
-0.03037512410384741 -0.0306817330905415 -0.03052283734238123 -0.02840781356308224 -0.02821196520792766 -0.02825003831818414 0.01784513909391555 0.01788011252513139 0.01772851578776828 -0.04760497437310991 -0.02706124764934945 -0.02709955997807496 -0.02615113824451402 -0.02595796045479399 -0.03205690159277243 -0.03222911107240031 -0.02381184358331873 -0.01327299065663472 -0.01769476586163929 -0.01462409197613413 -0.0007857927289963494 -0.005881230702541947 -0.05527597326634321 -0.02259305127760091 -0.01053156488920587 -0.01457672505297676 -0.01188622663595706 2.927345865710862e-18 -0.003291450063745064 -0.0517771516721124 -0.02268296047180089 -0.01059487919536207 -0.01425793165287424 -0.01173079458937759 -1.089623183347932e-17 -0.003604670845653537 -0.05258671950817075 -0.02435945407190198 -0.009348616895819216 -0.01337847406204525 -0.01072587246022578 -4.282598581317743e-18 -0.002942244230017726 -0.05105262903072734 -0.01490154521427555 -0.01261921740363684 -0.00951341978843365 3.266159044612582e-18 -0.002329816156072618 -0.04968703337225674 -0.02542753627150366 -0.0252151298764823 -0.02507556169125276 -0.02510174460680089 -0.02505502529257763 -0.02677269700023546 
-0.03037512410384741 -0.0306817330905415 -0.03052283734238123 -0.02840781356308224 -0.02821196520792766 -0.02825003831818414 0.01784513909391555 0.01788011252513139 0.01772851578776828 -0.04760497437310991 -0.02706124764934945 -0.02709955997807496 -0.02615113824451402 -0.02595796045479399 -0.03205690159277243 -0.03222911107240031 -0.02381184358331873 -0.01327299065663472 -0.01769476586163929 -0.01462409197613413 -0.0007857927289963494 -0.005881230702541947 -0.05527597326634321 -0.02259305127760091 -0.01053156488920587 -0.01457672505297676 -0.01188622663595706 2.927345865710862e-18 -0.003291450063745064 -0.0517771516721124 -0.02268296047180089 -0.01059487919536207 -0.01425793165287424 -0.01173079458937759 -1.089623183347932e-17 -0.003604670845653537 -0.05258671950817075 -0.02435945407190198 -0.009348616895819216 -0.01337847406204525 -0.01072587246022578 -4.282598581317743e-18 -0.002942244230017726 -0.05105262903072734 -0.01490154521427555 -0.01261921740363684 -0.00951341978843365 3.266159044612582e-18 -0.002329816156072618 -0.04968703337225674 -0.02542753627150366 -0.0252151298764823 -0.02507556169125276 -0.02510174460680089 -0.02505502529257763 -0.02677269700023546 
-0.01282271426312032 -0.012040526155461 -0.01269746754254854 -0.0118660094384696 -0.01173196759647847 -0.01195249452731414 0.1407516310985697 -0.05904587716381222 -0.05937302044294079 -0.01981734489493461 -0.01145427842629763 -0.0114631719708164 -0.01100371160409685 -0.01111417292386787 -0.01359865208361768 -0.0136073531556241 -0.01005998550529814 -0.005620355894500611 -0.007500948267410673 -0.006055930715554281 -0.0004396239275115991 -0.002547023497520904 -0.02369747114874753 -0.009415136274612315 -0.004590105122880761 -0.00611743666164828 -0.004942696930638536 8.673617379884035e-19 -0.001453424999284684 -0.02190649475173788 -0.009534580067858582 -0.004360057574989669 -0.00602561386753109 -0.00494835024459443 -1.13841228110978e-18 -0.001531176850420582 -0.02201787354153581 -0.01034853147501392 -0.003879210201706393 -0.0056234416285869 -0.004558919410055094 1.084202172485504e-19 -0.001268900529973994 -0.02151024538866868 -0.006328333101157622 -0.005389109888089874 -0.004048977661875859 -1.084202172485504e-19 -0.0009789618836444499 -0.02095505732944077 -0.01073421184282948 -0.01144623843795565 -0.01074895983459112 -0.01017563094560445 -0.01054354075855495 -0.01062713543696492 
-0.01282271426312032 -0.012040526155461 -0.01269746754254854 -0.0118660094384696 -0.01173196759647847 -0.01195249452731414 0.1407516310985697 -0.05904587716381222 -0.05937302044294079 -0.01981734489493461 -0.01145427842629763 -0.0114631719708164 -0.01100371160409685 -0.01111417292386787 -0.01359865208361768 -0.0136073531556241 -0.01005998550529814 -0.005620355894500611 -0.007500948267410673 -0.006055930715554281 -0.0004396239275115991 -0.002547023497520904 -0.02369747114874753 -0.009415136274612315 -0.004590105122880761 -0.00611743666164828 -0.004942696930638536 8.673617379884035e-19 -0.001453424999284684 -0.02190649475173788 -0.009534580067858582 -0.004360057574989669 -0.00602561386753109 -0.00494835024459443 -1.13841228110978e-18 -0.001531176850420582 -0.02201787354153581 -0.01034853147501392 -0.003879210201706393 -0.0056234416285869 -0.004558919410055094 1.084202172485504e-19 -0.001268900529973994 -0.02151024538866868 -0.006328333101157622 -0.005389109888089874 -0.004048977661875859 -1.084202172485504e-19 -0.0009789618836444499 -0.02095505732944077 -0.01073421184282948 -0.01144623843795565 -0.01074895983459112 -0.01017563094560445 -0.01054354075855495 -0.01062713543696492 
-0.03941119632360036 -0.03968695615464204 -0.03918601797923123 -0.03797709671655355 -0.03797040836962347 -0.03824879957150891 -0.01566600062385413 -0.01557010097550333 -0.01629776392328146 -0.03383105475153746 -0.03827243121780424 -0.03812712703325068 -0.03757183162886419 -0.03730518659107399 -0.03502585636102522 -0.0348512456148013 -0.03631989169405713 -0.09887179814561643 -0.08712982895788893 -0.08696949139657767 -0.09269861441337432 -0.09322438695701643 0.05595953270046271 -0.05422243560516007 -0.08930780853454921 -0.07929464174559132 -0.07923170976836227 -0.08504316089917009 -0.08413268054574058 0.06527611136368081 -0.05384215943150363 -0.08943324079606144 -0.08036806973613055 -0.07933321541081956 -0.08603524447289773 -0.08468557671050149 0.06411833917125115 -0.04418158888396712 -0.09340914507456204 -0.08322184734685652 -0.08287254773752174 -0.08920163506186554 -0.0870124971528131 0.06157014139925811 -0.07723614960689303 -0.09230380269247628 -0.09212613978607861 -0.09854389718134104 -0.0962238980833338 0.05014812456316738 -0.03902968249138959 -0.0372235453540298 -0.03742504331817619 -0.0392534554995514 -0.03802862512731261 -0.03888251259442087 
-0.01279407896665595 -0.01404044373787058 -0.01288818172662732 -0.01202032144246509 -0.01190454126699532 -0.0118060381430776 -0.05911173001142621 0.1407466274596683 -0.05852912740633233 -0.02024723508963925 -0.01134267660933235 -0.01132789763473413 -0.01117182680577917 -0.01084657528523578 -0.01337153176819517 -0.01377895244689915 -0.01006109338496893 -0.005897700713738207 -0.007405709668069096 -0.006121850661831877 -0.0002543366177059752 -0.002533519434527786 -0.02319273684953398 -0.009618481131210804 -0.004231266816545823 -0.006142930155458154 -0.00506041618383529 -5.421010862427522e-19 -0.001317779292731446 -0.02172923599880593 -0.009585467622334708 -0.004511938263879268 -0.006069391635557818 -0.004843681788329205 -8.131516293641283e-19 -0.001509641868294929 -0.02238484783537232 -0.01035582293278898 -0.004046381894912876 -0.005561716445381583 -0.004493266523024002 3.252606517456513e-18 -0.001113175802017138 -0.02150507990614798 -0.006170530804535011 -0.00526681620772529 -0.003902713989868035 -9.75781955236954e-19 -0.001029960560542104 -0.0209547102775404 -0.01036766035515349 -0.01070714818727579 -0.0103765103503357 -0.01107543994428491 -0.01053146397274556 -0.0119919412826431 
-0.01279407896665595 -0.01404044373787058 -0.01288818172662732 -0.01202032144246509 -0.01190454126699532 -0.0118060381430776 -0.05911173001142621 0.1407466274596683 -0.05852912740633233 -0.02024723508963925 -0.01134267660933235 -0.01132789763473413 -0.01117182680577917 -0.01084657528523578 -0.01337153176819517 -0.01377895244689915 -0.01006109338496893 -0.005897700713738207 -0.007405709668069096 -0.006121850661831877 -0.0002543366177059752 -0.002533519434527786 -0.02319273684953398 -0.009618481131210804 -0.004231266816545823 -0.006142930155458154 -0.00506041618383529 -5.421010862427522e-19 -0.001317779292731446 -0.02172923599880593 -0.009585467622334708 -0.004511938263879268 -0.006069391635557818 -0.004843681788329205 -8.131516293641283e-19 -0.001509641868294929 -0.02238484783537232 -0.01035582293278898 -0.004046381894912876 -0.005561716445381583 -0.004493266523024002 3.252606517456513e-18 -0.001113175802017138 -0.02150507990614798 -0.006170530804535011 -0.00526681620772529 -0.003902713989868035 -9.75781955236954e-19 -0.001029960560542104 -0.0209547102775404 -0.01036766035515349 -0.01070714818727579 -0.0103765103503357 -0.01107543994428491 -0.01053146397274556 -0.0119919412826431 
-0.01279407896665595 -0.01404044373787058 -0.01288818172662732 -0.01202032144246509 -0.01190454126699532 -0.0118060381430776 -0.05911173001142621 0.1407466274596683 -0.05852912740633233 -0.02024723508963925 -0.01134267660933235 -0.01132789763473413 -0.01117182680577917 -0.01084657528523578 -0.01337153176819517 -0.01377895244689915 -0.01006109338496893 -0.005897700713738207 -0.007405709668069096 -0.006121850661831877 -0.0002543366177059752 -0.002533519434527786 -0.02319273684953398 -0.009618481131210804 -0.004231266816545823 -0.006142930155458154 -0.00506041618383529 -5.421010862427522e-19 -0.001317779292731446 -0.02172923599880593 -0.009585467622334708 -0.004511938263879268 -0.006069391635557818 -0.004843681788329205 -8.131516293641283e-19 -0.001509641868294929 -0.02238484783537232 -0.01035582293278898 -0.004046381894912876 -0.005561716445381583 -0.004493266523024002 3.252606517456513e-18 -0.001113175802017138 -0.02150507990614798 -0.006170530804535011 -0.00526681620772529 -0.003902713989868035 -9.75781955236954e-19 -0.001029960560542104 -0.0209547102775404 -0.01036766035515349 -0.01070714818727579 -0.0103765103503357 -0.01107543994428491 -0.01053146397274556 -0.0119919412826431 
-0.01273567107200856 -0.01265862731946913 -0.01295332181652862 -0.01198215320640669 -0.01198469172227763 -0.01191074006798618 -0.05910813931656052 -0.05912483011236815 0.1402866578367694 -0.02004276555219126 -0.01137131801850296 -0.01142557764500512 -0.01084360556283045 -0.01081448419113299 -0.01350573880645562 -0.01330705346513324 -0.009944407521136307 -0.005240785218913694 -0.007435238470171557 -0.006286998010615092 -0.0002982028936675166 -0.002345260162570783 -0.02290275100975484 -0.009492988432235984 -0.004476070568933001 -0.006144605795348231 -0.005004762447776979 -2.710505431213761e-19 -0.001384670779944503 -0.02173952020690871 -0.00952007996095099 -0.004505389047943053 -0.00590744982399515 -0.005019590766789918 -7.589415207398531e-19 -0.001510537498133686 -0.02199471212130207 -0.01005256001696001 -0.003878227849668791 -0.005706869992246216 -0.004490594640587812 -1.301042606982605e-18 -0.00133288188227322 -0.02144512351583459 -0.006316235546017793 -0.005277443701615276 -0.004060212944148114 -1.328147661294743e-18 -0.000932767296734655 -0.02082644269313397 -0.01100363208904839 -0.009683927525204054 -0.0105356213491539 -0.01044307991105867 -0.01056015698289266 -0.01118486437553222 
-0.01273567107200856 -0.01265862731946913 -0.01295332181652862 -0.01198215320640669 -0.01198469172227763 -0.01191074006798618 -0.05910813931656052 -0.05912483011236815 0.1402866578367694 -0.02004276555219126 -0.01137131801850296 -0.01142557764500512 -0.01084360556283045 -0.01081448419113299 -0.01350573880645562 -0.01330705346513324 -0.009944407521136307 -0.005240785218913694 -0.007435238470171557 -0.006286998010615092 -0.0002982028936675166 -0.002345260162570783 -0.02290275100975484 -0.009492988432235984 -0.004476070568933001 -0.006144605795348231 -0.005004762447776979 -2.710505431213761e-19 -0.001384670779944503 -0.02173952020690871 -0.00952007996095099 -0.004505389047943053 -0.00590744982399515 -0.005019590766789918 -7.589415207398531e-19 -0.001510537498133686 -0.02199471212130207 -0.01005256001696001 -0.003878227849668791 -0.005706869992246216 -0.004490594640587812 -1.301042606982605e-18 -0.00133288188227322 -0.02144512351583459 -0.006316235546017793 -0.005277443701615276 -0.004060212944148114 -1.328147661294743e-18 -0.000932767296734655 -0.02082644269313397 -0.01100363208904839 -0.009683927525204054 -0.0105356213491539 -0.01044307991105867 -0.01056015698289266 -0.01118486437553222 
-0.01273567107200856 -0.01265862731946913 -0.01295332181652862 -0.01198215320640669 -0.01198469172227763 -0.01191074006798618 -0.05910813931656052 -0.05912483011236815 0.1402866578367694 -0.02004276555219126 -0.01137131801850296 -0.01142557764500512 -0.01084360556283045 -0.01081448419113299 -0.01350573880645562 -0.01330705346513324 -0.009944407521136307 -0.005240785218913694 -0.007435238470171557 -0.006286998010615092 -0.0002982028936675166 -0.002345260162570783 -0.02290275100975484 -0.009492988432235984 -0.004476070568933001 -0.006144605795348231 -0.005004762447776979 -2.710505431213761e-19 -0.001384670779944503 -0.02173952020690871 -0.00952007996095099 -0.004505389047943053 -0.00590744982399515 -0.005019590766789918 -7.589415207398531e-19 -0.001510537498133686 -0.02199471212130207 -0.01005256001696001 -0.003878227849668791 -0.005706869992246216 -0.004490594640587812 -1.301042606982605e-18 -0.00133288188227322 -0.02144512351583459 -0.006316235546017793 -0.005277443701615276 -0.004060212944148114 -1.328147661294743e-18 -0.000932767296734655 -0.02082644269313397 -0.01100363208904839 -0.009683927525204054 -0.0105356213491539 -0.01044307991105867 -0.01056015698289266 -0.01118486437553222 
-0.04532449512771081 -0.04543876186201117 -0.04534755332002831 -0.04416765151351282 -0.04379385328884818 -0.0440890946056072 -0.0447775340619621 -0.04512300692144608 -0.04508246092807942 0.0366701494249238 -0.04558455928596421 -0.0453962699021668 -0.04398663312080087 -0.04380692610568673 -0.05072590804592027 -0.05071741704923144 -0.03931387358330041 -0.1044682776977932 -0.08998387522074595 -0.09137020045908291 0.04326769249102196 -0.1006344631986082 -0.09285437186593039 -0.05568185668531972 -0.09790719229971893 -0.08429880919073283 -0.08402749718770514 0.05319034133689876 -0.09419397393452597 -0.086216944967984 -0.05558544391712656 -0.09835012320926943 -0.08417555107913346 -0.08562002668223201 0.05088034333610468 -0.09484544175233298 -0.08586377185893314 -0.04812722457085493 -0.1025733155146254 -0.08850438416868975 -0.08967528957312831 0.04822800139745328 -0.09955377122589634 -0.09067114218179555 -0.07912814142966297 -0.09877095188275617 -0.1005939217068931 0.03866289893184053 -0.1091695938452872 -0.1002653358434129 -0.04363305718663255 -0.0425492340532414 -0.04293875540901567 -0.04332100166174577 -0.04188071088803573 -0.04523489306079952 
-0.04532449512771081 -0.04543876186201117 -0.04534755332002831 -0.04416765151351282 -0.04379385328884818 -0.0440890946056072 -0.0447775340619621 -0.04512300692144608 -0.04508246092807942 0.0366701494249238 -0.04558455928596421 -0.0453962699021668 -0.04398663312080087 -0.04380692610568673 -0.05072590804592027 -0.05071741704923144 -0.03931387358330041 -0.1044682776977932 -0.08998387522074595 -0.09137020045908291 0.04326769249102196 -0.1006344631986082 -0.09285437186593039 -0.05568185668531972 -0.09790719229971893 -0.08429880919073283 -0.08402749718770514 0.05319034133689876 -0.09419397393452597 -0.086216944967984 -0.05558544391712656 -0.09835012320926943 -0.08417555107913346 -0.08562002668223201 0.05088034333610468 -0.09484544175233298 -0.08586377185893314 -0.04812722457085493 -0.1025733155146254 -0.08850438416868975 -0.08967528957312831 0.04822800139745328 -0.09955377122589634 -0.09067114218179555 -0.07912814142966297 -0.09877095188275617 -0.1005939217068931 0.03866289893184053 -0.1091695938452872 -0.1002653358434129 -0.04363305718663255 -0.0425492340532414 -0.04293875540901567 -0.04332100166174577 -0.04188071088803573 -0.04523489306079952 
-0.06816958728108904 -0.06834144834860377 -0.06820426758914994 -0.06642965501032837 -0.0658674497253055 -0.06631150274023873 -0.0673469391742353 -0.06786654214347922 -0.0678055595859037 0.2906565190514696 -0.06856073264927875 -0.06827753899104354 -0.0661573971707939 -0.06588711168791478 -0.0762934966226398 -0.07628072587388129 -0.05827822985017486 -6.938893903907228e-18 1.734723475976807e-18 -5.637851296924623e-18 -0.2405732313653542 -8.673617379884035e-19 1.301042606982605e-18 -0.03990754626657773 2.602085213965211e-18 1.040834085586084e-17 6.938893903907228e-18 -0.2362527704943497 -1.734723475976807e-18 3.469446951953614e-18 -0.04055425951344658 -3.469446951953614e-18 -6.071532165918825e-18 -5.204170427930421e-18 -0.2362628549320923 -8.673617379884035e-19 -8.673617379884035e-18 -0.05468940055267376 3.469446951953614e-18 6.938893903907228e-18 -6.938893903907228e-18 -0.2281069465985363 6.938893903907228e-18 2.168404344971009e-18 -1.431146867680866e-17 6.938893903907228e-18 1.734723475976807e-18 -0.2176768684095348 -5.204170427930421e-18 6.071532165918825e-18 -0.06044005689519751 -0.063995499924776 -0.06458135333550859 -0.06431049254411256 -0.06105978560532339 -0.06803482271496064 
-0.04532449512771081 -0.04543876186201117 -0.04534755332002831 -0.04416765151351282 -0.04379385328884818 -0.0440890946056072 -0.0447775340619621 -0.04512300692144608 -0.04508246092807942 0.0366701494249238 -0.04558455928596421 -0.0453962699021668 -0.04398663312080087 -0.04380692610568673 -0.05072590804592027 -0.05071741704923144 -0.03931387358330041 -0.1044682776977932 -0.08998387522074595 -0.09137020045908291 0.04326769249102196 -0.1006344631986082 -0.09285437186593039 -0.05568185668531972 -0.09790719229971893 -0.08429880919073283 -0.08402749718770514 0.05319034133689876 -0.09419397393452597 -0.086216944967984 -0.05558544391712656 -0.09835012320926943 -0.08417555107913346 -0.08562002668223201 0.05088034333610468 -0.09484544175233298 -0.08586377185893314 -0.04812722457085493 -0.1025733155146254 -0.08850438416868975 -0.08967528957312831 0.04822800139745328 -0.09955377122589634 -0.09067114218179555 -0.07912814142966297 -0.09877095188275617 -0.1005939217068931 0.03866289893184053 -0.1091695938452872 -0.1002653358434129 -0.04363305718663255 -0.0425492340532414 -0.04293875540901567 -0.04332100166174577 -0.04188071088803573 -0.04523489306079952 
-0.04532449512771081 -0.04543876186201117 -0.04534755332002831 -0.04416765151351282 -0.04379385328884818 -0.0440890946056072 -0.0447775340619621 -0.04512300692144608 -0.04508246092807942 0.0366701494249238 -0.04558455928596421 -0.0453962699021668 -0.04398663312080087 -0.04380692610568673 -0.05072590804592027 -0.05071741704923144 -0.03931387358330041 -0.1044682776977932 -0.08998387522074595 -0.09137020045908291 0.04326769249102196 -0.1006344631986082 -0.09285437186593039 -0.05568185668531972 -0.09790719229971893 -0.08429880919073283 -0.08402749718770514 0.05319034133689876 -0.09419397393452597 -0.086216944967984 -0.05558544391712656 -0.09835012320926943 -0.08417555107913346 -0.08562002668223201 0.05088034333610468 -0.09484544175233298 -0.08586377185893314 -0.04812722457085493 -0.1025733155146254 -0.08850438416868975 -0.08967528957312831 0.04822800139745328 -0.09955377122589634 -0.09067114218179555 -0.07912814142966297 -0.09877095188275617 -0.1005939217068931 0.03866289893184053 -0.1091695938452872 -0.1002653358434129 -0.04363305718663255 -0.0425492340532414 -0.04293875540901567 -0.04332100166174577 -0.04188071088803573 -0.04523489306079952 
-0.03318873693743673 -0.0326834486902885 -0.03311738751093529 -0.03227159520011839 -0.03214408377726317 -0.03217774259341392 -0.03292871905319322 -0.03315791490464833 -0.03260511596218275 -0.05079552870140647 0.006611471588565699 0.006682428382283508 -0.01191036178290449 -0.01192336843929333 -0.03702986608502884 -0.03721891341174021 -0.02982190098774036 -0.03613942800722363 -0.03603394073025618 -0.03488078076397377 -0.02226136309382045 -0.02701940536281729 -0.0337640616597626 -0.03293506054491808 -0.03183482963899552 -0.03145247904254055 -0.03045564191068709 -0.01783866307297231 -0.02245010103451398 -0.02927249161454145 -0.03291287853600244 -0.03177143943708776 -0.03150989275950392 -0.0303985509733438 -0.0178814461379009 -0.02253489857401188 -0.02932998070301722 -0.03223591815366297 -0.03157309475922745 -0.03139496151161242 -0.03022455918353566 -0.01822983181757708 -0.02264313337759187 -0.0292647055345113 -0.03246507626251202 -0.03262604068247822 -0.03159331304683317 -0.02037320586989216 -0.02460317628405517 -0.03054900303295691 -0.03170748136819308 -0.03176264177711154 -0.03119375195311531 -0.03183387365341589 -0.03140202901050241 -0.03350980251368776 
-0.03318873693743673 -0.0326834486902885 -0.03311738751093529 -0.03227159520011839 -0.03214408377726317 -0.03217774259341392 -0.03292871905319322 -0.03315791490464833 -0.03260511596218275 -0.05079552870140647 0.006611471588565699 0.006682428382283508 -0.01191036178290449 -0.01192336843929333 -0.03702986608502884 -0.03721891341174021 -0.02982190098774036 -0.03613942800722363 -0.03603394073025618 -0.03488078076397377 -0.02226136309382045 -0.02701940536281729 -0.0337640616597626 -0.03293506054491808 -0.03183482963899552 -0.03145247904254055 -0.03045564191068709 -0.01783866307297231 -0.02245010103451398 -0.02927249161454145 -0.03291287853600244 -0.03177143943708776 -0.03150989275950392 -0.0303985509733438 -0.0178814461379009 -0.02253489857401188 -0.02932998070301722 -0.03223591815366297 -0.03157309475922745 -0.03139496151161242 -0.03022455918353566 -0.01822983181757708 -0.02264313337759187 -0.0292647055345113 -0.03246507626251202 -0.03262604068247822 -0.03159331304683317 -0.02037320586989216 -0.02460317628405517 -0.03054900303295691 -0.03170748136819308 -0.03176264177711154 -0.03119375195311531 -0.03183387365341589 -0.03140202901050241 -0.03350980251368776 
-0.01543323782660764 -0.01479260799759883 -0.01513105218109146 -0.01490450998766426 -0.01455318210094764 -0.01471302293294925 -0.01521777030710811 -0.01536768906366005 -0.0152762803040971 -0.02344211776106247 0.1360828843259405 -0.06375412887055565 -0.03812859360238016 -0.03885198944951262 -0.01700411184707987 -0.01697703303341198 -0.01383883470458556 -0.01661286500319373 -0.01665150613035491 -0.01611254280576657 -0.01021368525563891 -0.01254851173463124 -0.01552463901269356 -0.01518407022585715 -0.01478813261279163 -0.01452874025840717 -0.01410270482615322 -0.008306742885410577 -0.01038478699140988 -0.01355034336948254 -0.01521675222229262 -0.01474689565586687 -0.01450433972789485 -0.014025869561834 -0.008282703617205896 -0.0103468049689205 -0.01352420790624223 -0.01476347564918276 -0.0145848346495658 -0.01453551593148361 -0.0139387096060787 -0.008475172693013793 -0.01049692835540521 -0.01351941495247997 -0.01500535948654555 -0.01506612822137948 -0.01459257286737116 -0.009444393501841437 -0.01139085445987104 -0.01410200085672499 -0.01446984155559652 -0.01530310054137994 -0.01441193151043044 -0.01486529510416898 -0.01448319630005098 -0.01403616906362049 
-0.03318873693743673 -0.0326834486902885 -0.03311738751093529 -0.03227159520011839 -0.03214408377726317 -0.03217774259341392 -0.03292871905319322 -0.03315791490464833 -0.03260511596218275 -0.05079552870140647 0.006611471588565699 0.006682428382283508 -0.01191036178290449 -0.01192336843929333 -0.03702986608502884 -0.03721891341174021 -0.02982190098774036 -0.03613942800722363 -0.03603394073025618 -0.03488078076397377 -0.02226136309382045 -0.02701940536281729 -0.0337640616597626 -0.03293506054491808 -0.03183482963899552 -0.03145247904254055 -0.03045564191068709 -0.01783866307297231 -0.02245010103451398 -0.02927249161454145 -0.03291287853600244 -0.03177143943708776 -0.03150989275950392 -0.0303985509733438 -0.0178814461379009 -0.02253489857401188 -0.02932998070301722 -0.03223591815366297 -0.03157309475922745 -0.03139496151161242 -0.03022455918353566 -0.01822983181757708 -0.02264313337759187 -0.0292647055345113 -0.03246507626251202 -0.03262604068247822 -0.03159331304683317 -0.02037320586989216 -0.02460317628405517 -0.03054900303295691 -0.03170748136819308 -0.03176264177711154 -0.03119375195311531 -0.03183387365341589 -0.03140202901050241 -0.03350980251368776 
-0.03318873693743673 -0.0326834486902885 -0.03311738751093529 -0.03227159520011839 -0.03214408377726317 -0.03217774259341392 -0.03292871905319322 -0.03315791490464833 -0.03260511596218275 -0.05079552870140647 0.006611471588565699 0.006682428382283508 -0.01191036178290449 -0.01192336843929333 -0.03702986608502884 -0.03721891341174021 -0.02982190098774036 -0.03613942800722363 -0.03603394073025618 -0.03488078076397377 -0.02226136309382045 -0.02701940536281729 -0.0337640616597626 -0.03293506054491808 -0.03183482963899552 -0.03145247904254055 -0.03045564191068709 -0.01783866307297231 -0.02245010103451398 -0.02927249161454145 -0.03291287853600244 -0.03177143943708776 -0.03150989275950392 -0.0303985509733438 -0.0178814461379009 -0.02253489857401188 -0.02932998070301722 -0.03223591815366297 -0.03157309475922745 -0.03139496151161242 -0.03022455918353566 -0.01822983181757708 -0.02264313337759187 -0.0292647055345113 -0.03246507626251202 -0.03262604068247822 -0.03159331304683317 -0.02037320586989216 -0.02460317628405517 -0.03054900303295691 -0.03170748136819308 -0.03176264177711154 -0.03119375195311531 -0.03183387365341589 -0.03140202901050241 -0.03350980251368776 
-0.03318873693743673 -0.0326834486902885 -0.03311738751093529 -0.03227159520011839 -0.03214408377726317 -0.03217774259341392 -0.03292871905319322 -0.03315791490464833 -0.03260511596218275 -0.05079552870140647 0.006611471588565699 0.006682428382283508 -0.01191036178290449 -0.01192336843929333 -0.03702986608502884 -0.03721891341174021 -0.02982190098774036 -0.03613942800722363 -0.03603394073025618 -0.03488078076397377 -0.02226136309382045 -0.02701940536281729 -0.0337640616597626 -0.03293506054491808 -0.03183482963899552 -0.03145247904254055 -0.03045564191068709 -0.01783866307297231 -0.02245010103451398 -0.02927249161454145 -0.03291287853600244 -0.03177143943708776 -0.03150989275950392 -0.0303985509733438 -0.0178814461379009 -0.02253489857401188 -0.02932998070301722 -0.03223591815366297 -0.03157309475922745 -0.03139496151161242 -0.03022455918353566 -0.01822983181757708 -0.02264313337759187 -0.0292647055345113 -0.03246507626251202 -0.03262604068247822 -0.03159331304683317 -0.02037320586989216 -0.02460317628405517 -0.03054900303295691 -0.03170748136819308 -0.03176264177711154 -0.03119375195311531 -0.03183387365341589 -0.03140202901050241 -0.03350980251368776 
-0.01543323782660764 -0.01479260799759883 -0.01513105218109146 -0.01490450998766426 -0.01455318210094764 -0.01471302293294925 -0.01521777030710811 -0.01536768906366005 -0.0152762803040971 -0.02344211776106247 0.1360828843259405 -0.06375412887055565 -0.03812859360238016 -0.03885198944951262 -0.01700411184707987 -0.01697703303341198 -0.01383883470458556 -0.01661286500319373 -0.01665150613035491 -0.01611254280576657 -0.01021368525563891 -0.01254851173463124 -0.01552463901269356 -0.01518407022585715 -0.01478813261279163 -0.01452874025840717 -0.01410270482615322 -0.008306742885410577 -0.01038478699140988 -0.01355034336948254 -0.01521675222229262 -0.01474689565586687 -0.01450433972789485 -0.014025869561834 -0.008282703617205896 -0.0103468049689205 -0.01352420790624223 -0.01476347564918276 -0.0145848346495658 -0.01453551593148361 -0.0139387096060787 -0.008475172693013793 -0.01049692835540521 -0.01351941495247997 -0.01500535948654555 -0.01506612822137948 -0.01459257286737116 -0.009444393501841437 -0.01139085445987104 -0.01410200085672499 -0.01446984155559652 -0.01530310054137994 -0.01441193151043044 -0.01486529510416898 -0.01448319630005098 -0.01403616906362049 
-0.01543323782660764 -0.01479260799759883 -0.01513105218109146 -0.01490450998766426 -0.01455318210094764 -0.01471302293294925 -0.01521777030710811 -0.01536768906366005 -0.0152762803040971 -0.02344211776106247 0.1360828843259405 -0.06375412887055565 -0.03812859360238016 -0.03885198944951262 -0.01700411184707987 -0.01697703303341198 -0.01383883470458556 -0.01661286500319373 -0.01665150613035491 -0.01611254280576657 -0.01021368525563891 -0.01254851173463124 -0.01552463901269356 -0.01518407022585715 -0.01478813261279163 -0.01452874025840717 -0.01410270482615322 -0.008306742885410577 -0.01038478699140988 -0.01355034336948254 -0.01521675222229262 -0.01474689565586687 -0.01450433972789485 -0.014025869561834 -0.008282703617205896 -0.0103468049689205 -0.01352420790624223 -0.01476347564918276 -0.0145848346495658 -0.01453551593148361 -0.0139387096060787 -0.008475172693013793 -0.01049692835540521 -0.01351941495247997 -0.01500535948654555 -0.01506612822137948 -0.01459257286737116 -0.009444393501841437 -0.01139085445987104 -0.01410200085672499 -0.01446984155559652 -0.01530310054137994 -0.01441193151043044 -0.01486529510416898 -0.01448319630005098 -0.01403616906362049 
-0.01525721156400439 -0.01600562010490153 -0.01548935683404033 -0.01485758712070462 -0.01521924249864966 -0.01490043447708975 -0.01518651182939755 -0.01532724936152486 -0.01526032613623236 -0.0235275584455789 -0.06394312442883394 0.1360145468401617 -0.03871701846852538 -0.03816775747722197 -0.01728113736745403 -0.0173382832722122 -0.01369425465868637 -0.01669854765930673 -0.01669761935883148 -0.01612734161203082 -0.01037842528790114 -0.01229262464908518 -0.01561411787439706 -0.01517109630800139 -0.01463794144502339 -0.01449069468255772 -0.01404828453289349 -0.008214142244410805 -0.0103351329345253 -0.01351429036204166 -0.01520933606823039 -0.01460902806730563 -0.01461740074182912 -0.01402331795146498 -0.008223710881644144 -0.01043658961538915 -0.01361280982072588 -0.01492685773656508 -0.01456099381435062 -0.01451255790494886 -0.01395293912433702 -0.008416719101754563 -0.01042417438568311 -0.01353031650601738 -0.01495717727956532 -0.01506564423374287 -0.01456575860640759 -0.009388198342889016 -0.01139503351019457 -0.01414339987447707 -0.01463541124252813 -0.01418092292795963 -0.01444207314223871 -0.01451610236107441 -0.01454795248570762 -0.01637269713669385 
-0.01525721156400439 -0.01600562010490153 -0.01548935683404033 -0.01485758712070462 -0.01521924249864966 -0.01490043447708975 -0.01518651182939755 -0.01532724936152486 -0.01526032613623236 -0.0235275584455789 -0.06394312442883394 0.1360145468401617 -0.03871701846852538 -0.03816775747722197 -0.01728113736745403 -0.0173382832722122 -0.01369425465868637 -0.01669854765930673 -0.01669761935883148 -0.01612734161203082 -0.01037842528790114 -0.01229262464908518 -0.01561411787439706 -0.01517109630800139 -0.01463794144502339 -0.01449069468255772 -0.01404828453289349 -0.008214142244410805 -0.0103351329345253 -0.01351429036204166 -0.01520933606823039 -0.01460902806730563 -0.01461740074182912 -0.01402331795146498 -0.008223710881644144 -0.01043658961538915 -0.01361280982072588 -0.01492685773656508 -0.01456099381435062 -0.01451255790494886 -0.01395293912433702 -0.008416719101754563 -0.01042417438568311 -0.01353031650601738 -0.01495717727956532 -0.01506564423374287 -0.01456575860640759 -0.009388198342889016 -0.01139503351019457 -0.01414339987447707 -0.01463541124252813 -0.01418092292795963 -0.01444207314223871 -0.01451610236107441 -0.01454795248570762 -0.01637269713669385 
-0.01525721156400439 -0.01600562010490153 -0.01548935683404033 -0.01485758712070462 -0.01521924249864966 -0.01490043447708975 -0.01518651182939755 -0.01532724936152486 -0.01526032613623236 -0.0235275584455789 -0.06394312442883394 0.1360145468401617 -0.03871701846852538 -0.03816775747722197 -0.01728113736745403 -0.0173382832722122 -0.01369425465868637 -0.01669854765930673 -0.01669761935883148 -0.01612734161203082 -0.01037842528790114 -0.01229262464908518 -0.01561411787439706 -0.01517109630800139 -0.01463794144502339 -0.01449069468255772 -0.01404828453289349 -0.008214142244410805 -0.0103351329345253 -0.01351429036204166 -0.01520933606823039 -0.01460902806730563 -0.01461740074182912 -0.01402331795146498 -0.008223710881644144 -0.01043658961538915 -0.01361280982072588 -0.01492685773656508 -0.01456099381435062 -0.01451255790494886 -0.01395293912433702 -0.008416719101754563 -0.01042417438568311 -0.01353031650601738 -0.01495717727956532 -0.01506564423374287 -0.01456575860640759 -0.009388198342889016 -0.01139503351019457 -0.01414339987447707 -0.01463541124252813 -0.01418092292795963 -0.01444207314223871 -0.01451610236107441 -0.01454795248570762 -0.01637269713669385 
-0.007622319002326994 -0.00753449731581517 -0.007223886769256013 -0.007368312107730704 -0.007675863268292401 -0.00741871268942961 -0.007519793509094701 -0.007542372952747572 -0.006223813683476815 -0.01167872887314946 -0.03169087649931437 -0.03170625610199348 0.1296650231869512 -0.06899554362230577 -0.008983504631193469 -0.008700291452139696 -0.006792754280698041 -0.008309738721347201 -0.008151978702659917 -0.007820495919003023 -0.004986479622531141 -0.006162165075280885 -0.007679937904311327 -0.007548614004052332 -0.007205721457706395 -0.007139486455608138 -0.006911801673154712 -0.004040416680038759 -0.005128898376580454 -0.006662945699482947 -0.007522742109935494 -0.00722137142820802 -0.00711703631039018 -0.006905053095507376 -0.004116878133669246 -0.005139915528270609 -0.006689881112710407 -0.007471928741448823 -0.007217088577794378 -0.007113566179847566 -0.00689875513839734 -0.004100431698628618 -0.005183275158583879 -0.00666246880549774 -0.007409430069908136 -0.007386893000911041 -0.007175751609030966 -0.00466160519425894 -0.00557187632617191 -0.006944010260287183 -0.00728382555301648 -0.006411237787845506 -0.007042204377330623 -0.007605224671818441 -0.007029652691676292 -0.008297156906478099 
-0.01325023122405866 -0.01254344560066665 -0.01322531326922297 -0.01295455564808289 -0.01279101342991183 -0.01297141107048908 -0.01318658025193182 -0.01320894965119154 -0.01267833534314094 -0.02028148729493275 -0.05535162115201456 -0.05537163680519608 0.05306556341890298 0.05320275087721132 -0.01474615657484617 -0.01494876648250083 -0.01194467296533328 -0.01452277990879673 -0.01436186568244515 -0.01393914611516008 -0.008881912507342403 -0.0109140039450752 -0.01355344600312363 -0.01323740119911553 -0.01272057555557454 -0.01261453822486655 -0.01216970047889937 -0.00709990195055406 -0.008998299717217665 -0.01169054916582755 -0.01314823799997628 -0.01270539624290257 -0.01259423524455989 -0.01218995209582479 -0.007164440429802021 -0.009045275880406585 -0.01169661783380951 -0.01297436600774123 -0.01264964351387382 -0.01251970582436764 -0.01211754044260742 -0.007247918163169467 -0.009055444787274061 -0.01169420564964251 -0.01301289703290705 -0.01305925341216708 -0.01266315510504239 -0.008139937755578325 -0.009792047696425563 -0.01219987886282511 -0.01284808178918537 -0.01258222735896024 -0.01244640664523299 -0.01275865728007378 -0.01254313304085402 -0.01388649747210408 
-0.007622319002326994 -0.00753449731581517 -0.007223886769256013 -0.007368312107730704 -0.007675863268292401 -0.00741871268942961 -0.007519793509094701 -0.007542372952747572 -0.006223813683476815 -0.01167872887314946 -0.03169087649931437 -0.03170625610199348 0.1296650231869512 -0.06899554362230577 -0.008983504631193469 -0.008700291452139696 -0.006792754280698041 -0.008309738721347201 -0.008151978702659917 -0.007820495919003023 -0.004986479622531141 -0.006162165075280885 -0.007679937904311327 -0.007548614004052332 -0.007205721457706395 -0.007139486455608138 -0.006911801673154712 -0.004040416680038759 -0.005128898376580454 -0.006662945699482947 -0.007522742109935494 -0.00722137142820802 -0.00711703631039018 -0.006905053095507376 -0.004116878133669246 -0.005139915528270609 -0.006689881112710407 -0.007471928741448823 -0.007217088577794378 -0.007113566179847566 -0.00689875513839734 -0.004100431698628618 -0.005183275158583879 -0.00666246880549774 -0.007409430069908136 -0.007386893000911041 -0.007175751609030966 -0.00466160519425894 -0.00557187632617191 -0.006944010260287183 -0.00728382555301648 -0.006411237787845506 -0.007042204377330623 -0.007605224671818441 -0.007029652691676292 -0.008297156906478099 
-0.007622319002326994 -0.00753449731581517 -0.007223886769256013 -0.007368312107730704 -0.007675863268292401 -0.00741871268942961 -0.007519793509094701 -0.007542372952747572 -0.006223813683476815 -0.01167872887314946 -0.03169087649931437 -0.03170625610199348 0.1296650231869512 -0.06899554362230577 -0.008983504631193469 -0.008700291452139696 -0.006792754280698041 -0.008309738721347201 -0.008151978702659917 -0.007820495919003023 -0.004986479622531141 -0.006162165075280885 -0.007679937904311327 -0.007548614004052332 -0.007205721457706395 -0.007139486455608138 -0.006911801673154712 -0.004040416680038759 -0.005128898376580454 -0.006662945699482947 -0.007522742109935494 -0.00722137142820802 -0.00711703631039018 -0.006905053095507376 -0.004116878133669246 -0.005139915528270609 -0.006689881112710407 -0.007471928741448823 -0.007217088577794378 -0.007113566179847566 -0.00689875513839734 -0.004100431698628618 -0.005183275158583879 -0.00666246880549774 -0.007409430069908136 -0.007386893000911041 -0.007175751609030966 -0.00466160519425894 -0.00557187632617191 -0.006944010260287183 -0.00728382555301648 -0.006411237787845506 -0.007042204377330623 -0.007605224671818441 -0.007029652691676292 -0.008297156906478099 
-0.01325023122405866 -0.01254344560066665 -0.01322531326922297 -0.01295455564808289 -0.01279101342991183 -0.01297141107048908 -0.01318658025193182 -0.01320894965119154 -0.01267833534314094 -0.02028148729493275 -0.05535162115201456 -0.05537163680519608 0.05306556341890298 0.05320275087721132 -0.01474615657484617 -0.01494876648250083 -0.01194467296533328 -0.01452277990879673 -0.01436186568244515 -0.01393914611516008 -0.008881912507342403 -0.0109140039450752 -0.01355344600312363 -0.01323740119911553 -0.01272057555557454 -0.01261453822486655 -0.01216970047889937 -0.00709990195055406 -0.008998299717217665 -0.01169054916582755 -0.01314823799997628 -0.01270539624290257 -0.01259423524455989 -0.01218995209582479 -0.007164440429802021 -0.009045275880406585 -0.01169661783380951 -0.01297436600774123 -0.01264964351387382 -0.01251970582436764 -0.01211754044260742 -0.007247918163169467 -0.009055444787274061 -0.01169420564964251 -0.01301289703290705 -0.01305925341216708 -0.01266315510504239 -0.008139937755578325 -0.009792047696425563 -0.01219987886282511 -0.01284808178918537 -0.01258222735896024 -0.01244640664523299 -0.01275865728007378 -0.01254313304085402 -0.01388649747210408 
-0.007463757631700494 -0.006746867166551121 -0.007833819478635734 -0.007381122521900558 -0.00688737004948947 -0.007349912714295995 -0.007493813186325805 -0.007496702465881071 -0.008211129778584287 -0.01141279809038452 -0.03132981984904486 -0.03133722910738032 -0.06924712233463674 0.1295696395231646 -0.007805760732083402 -0.008319655817136029 -0.006806876448479375 -0.008225200702608957 -0.008199751514664615 -0.008049946109539845 -0.005126039206513986 -0.006263995428282715 -0.007751364508511498 -0.007522854980022821 -0.007277314680703926 -0.007222820672864318 -0.006944034571007131 -0.004043190549822945 -0.005116133337538758 -0.006647351881536821 -0.007447209939649689 -0.007244382274118814 -0.007222154820208264 -0.006973840666650464 -0.004040209507765234 -0.005158600988178229 -0.006627325962090579 -0.007300061011855352 -0.007185187746027797 -0.007140769333856553 -0.006897694194590813 -0.004151699679139276 -0.005126819186635867 -0.006651991872309618 -0.007406429257338548 -0.007481745472462772 -0.007241908363300421 -0.004606136832302743 -0.005576878699635069 -0.006946185641822991 -0.007344383056654306 -0.007914281741155518 -0.007128676212837603 -0.006921169488383101 -0.007251355925104991 -0.007513341906705758 
-0.007463757631700494 -0.006746867166551121 -0.007833819478635734 -0.007381122521900558 -0.00688737004948947 -0.007349912714295995 -0.007493813186325805 -0.007496702465881071 -0.008211129778584287 -0.01141279809038452 -0.03132981984904486 -0.03133722910738032 -0.06924712233463674 0.1295696395231646 -0.007805760732083402 -0.008319655817136029 -0.006806876448479375 -0.008225200702608957 -0.008199751514664615 -0.008049946109539845 -0.005126039206513986 -0.006263995428282715 -0.007751364508511498 -0.007522854980022821 -0.007277314680703926 -0.007222820672864318 -0.006944034571007131 -0.004043190549822945 -0.005116133337538758 -0.006647351881536821 -0.007447209939649689 -0.007244382274118814 -0.007222154820208264 -0.006973840666650464 -0.004040209507765234 -0.005158600988178229 -0.006627325962090579 -0.007300061011855352 -0.007185187746027797 -0.007140769333856553 -0.006897694194590813 -0.004151699679139276 -0.005126819186635867 -0.006651991872309618 -0.007406429257338548 -0.007481745472462772 -0.007241908363300421 -0.004606136832302743 -0.005576878699635069 -0.006946185641822991 -0.007344383056654306 -0.007914281741155518 -0.007128676212837603 -0.006921169488383101 -0.007251355925104991 -0.007513341906705758 
-0.007463757631700494 -0.006746867166551121 -0.007833819478635734 -0.007381122521900558 -0.00688737004948947 -0.007349912714295995 -0.007493813186325805 -0.007496702465881071 -0.008211129778584287 -0.01141279809038452 -0.03132981984904486 -0.03133722910738032 -0.06924712233463674 0.1295696395231646 -0.007805760732083402 -0.008319655817136029 -0.006806876448479375 -0.008225200702608957 -0.008199751514664615 -0.008049946109539845 -0.005126039206513986 -0.006263995428282715 -0.007751364508511498 -0.007522854980022821 -0.007277314680703926 -0.007222820672864318 -0.006944034571007131 -0.004043190549822945 -0.005116133337538758 -0.006647351881536821 -0.007447209939649689 -0.007244382274118814 -0.007222154820208264 -0.006973840666650464 -0.004040209507765234 -0.005158600988178229 -0.006627325962090579 -0.007300061011855352 -0.007185187746027797 -0.007140769333856553 -0.006897694194590813 -0.004151699679139276 -0.005126819186635867 -0.006651991872309618 -0.007406429257338548 -0.007481745472462772 -0.007241908363300421 -0.004606136832302743 -0.005576878699635069 -0.006946185641822991 -0.007344383056654306 -0.007914281741155518 -0.007128676212837603 -0.006921169488383101 -0.007251355925104991 -0.007513341906705758 
-0.02704630873115859 -0.02681889505685632 -0.02653960435877553 -0.02590532627606975 -0.02605712051439095 -0.02610904561311195 -0.026977479241572 -0.02692088121479941 -0.02716472379497201 -0.04462572049915336 -0.02717299419018107 -0.02680122724280156 -0.02547528191548829 -0.02535124943052729 0.1449576122853936 -0.0550367838458208 -0.02272170513922622 1.951563910473908e-18 -1.734723475976807e-18 -4.336808689942018e-19 -3.469446951953614e-18 -0.09152800324521509 2.168404344971009e-19 -0.01323937685783966 -8.673617379884035e-19 1.734723475976807e-18 0 0 -0.09033378995408398 -1.734723475976807e-18 -0.01337353812269494 0 1.517883041479706e-18 3.035766082959412e-18 -1.029992063861229e-18 -0.09010729217228809 -5.204170427930421e-18 -0.02074731912764419 4.336808689942018e-19 1.734723475976807e-18 0 -4.336808689942018e-19 -0.0871291943016273 1.734723475976807e-18 -1.626303258728257e-18 -8.673617379884035e-19 8.673617379884035e-19 0 -0.08279986213403279 -1.301042606982605e-18 -0.0241127239612726 -0.02412242151219866 -0.02371880722951797 -0.02303915588092042 -0.02346329280585589 -0.02508130398148374 
-0.03633734865949254 -0.03687088295529325 -0.03627729374372062 -0.03598920475171721 -0.03577776641815315 -0.03560457071220001 -0.03577199703542047 -0.03614479977964806 -0.03563968508618501 -0.05200415976534065 -0.03677980648021131 -0.03703659032916725 -0.03596927211761932 -0.03626917714161736 -0.009343123019170636 -0.009053459638685635 -0.03481447374811433 -0.1043653405491371 -0.09045539955618345 -0.091033834301033 -0.1052065092375665 0.06001588660830622 -0.09323289167825242 -0.05367368755839287 -0.09620104785015676 -0.08412254723838784 -0.08461754334774872 -0.09734157021716762 0.06749252191218211 -0.08656059772561556 -0.05362196746939169 -0.09686378999337815 -0.08298399709889895 -0.08487428464473935 -0.09718560898839228 0.06846795000508049 -0.0864930575919837 -0.04226686394500759 -0.1013815921338242 -0.08919899390728592 -0.08915342078893827 -0.1009988771910858 0.06428351574533407 -0.09079207775807406 -0.07865304694541465 -0.09848667515557838 -0.09961190304043284 -0.1121942411171391 0.05431305685717625 -0.1006104191041591 -0.03750764221548485 -0.03583977063374569 -0.03741740154196798 -0.03750958453290973 -0.03685091965765873 -0.03750842410903173 
-0.03633734865949254 -0.03687088295529325 -0.03627729374372062 -0.03598920475171721 -0.03577776641815315 -0.03560457071220001 -0.03577199703542047 -0.03614479977964806 -0.03563968508618501 -0.05200415976534065 -0.03677980648021131 -0.03703659032916725 -0.03596927211761932 -0.03626917714161736 -0.009343123019170636 -0.009053459638685635 -0.03481447374811433 -0.1043653405491371 -0.09045539955618345 -0.091033834301033 -0.1052065092375665 0.06001588660830622 -0.09323289167825242 -0.05367368755839287 -0.09620104785015676 -0.08412254723838784 -0.08461754334774872 -0.09734157021716762 0.06749252191218211 -0.08656059772561556 -0.05362196746939169 -0.09686378999337815 -0.08298399709889895 -0.08487428464473935 -0.09718560898839228 0.06846795000508049 -0.0864930575919837 -0.04226686394500759 -0.1013815921338242 -0.08919899390728592 -0.08915342078893827 -0.1009988771910858 0.06428351574533407 -0.09079207775807406 -0.07865304694541465 -0.09848667515557838 -0.09961190304043284 -0.1121942411171391 0.05431305685717625 -0.1006104191041591 -0.03750764221548485 -0.03583977063374569 -0.03741740154196798 -0.03750958453290973 -0.03685091965765873 -0.03750842410903173 
-0.02704630873115859 -0.02681889505685632 -0.02653960435877553 -0.02590532627606975 -0.02605712051439095 -0.02610904561311195 -0.026977479241572 -0.02692088121479941 -0.02716472379497201 -0.04462572049915336 -0.02717299419018107 -0.02680122724280156 -0.02547528191548829 -0.02535124943052729 0.1449576122853936 -0.0550367838458208 -0.02272170513922622 1.951563910473908e-18 -1.734723475976807e-18 -4.336808689942018e-19 -3.469446951953614e-18 -0.09152800324521509 2.168404344971009e-19 -0.01323937685783966 -8.673617379884035e-19 1.734723475976807e-18 0 0 -0.09033378995408398 -1.734723475976807e-18 -0.01337353812269494 0 1.517883041479706e-18 3.035766082959412e-18 -1.029992063861229e-18 -0.09010729217228809 -5.204170427930421e-18 -0.02074731912764419 4.336808689942018e-19 1.734723475976807e-18 0 -4.336808689942018e-19 -0.0871291943016273 1.734723475976807e-18 -1.626303258728257e-18 -8.673617379884035e-19 8.673617379884035e-19 0 -0.08279986213403279 -1.301042606982605e-18 -0.0241127239612726 -0.02412242151219866 -0.02371880722951797 -0.02303915588092042 -0.02346329280585589 -0.02508130398148374 
-0.02704630873115859 -0.02681889505685632 -0.02653960435877553 -0.02590532627606975 -0.02605712051439095 -0.02610904561311195 -0.026977479241572 -0.02692088121479941 -0.02716472379497201 -0.04462572049915336 -0.02717299419018107 -0.02680122724280156 -0.02547528191548829 -0.02535124943052729 0.1449576122853936 -0.0550367838458208 -0.02272170513922622 1.951563910473908e-18 -1.734723475976807e-18 -4.336808689942018e-19 -3.469446951953614e-18 -0.09152800324521509 2.168404344971009e-19 -0.01323937685783966 -8.673617379884035e-19 1.734723475976807e-18 0 0 -0.09033378995408398 -1.734723475976807e-18 -0.01337353812269494 0 1.517883041479706e-18 3.035766082959412e-18 -1.029992063861229e-18 -0.09010729217228809 -5.204170427930421e-18 -0.02074731912764419 4.336808689942018e-19 1.734723475976807e-18 0 -4.336808689942018e-19 -0.0871291943016273 1.734723475976807e-18 -1.626303258728257e-18 -8.673617379884035e-19 8.673617379884035e-19 0 -0.08279986213403279 -1.301042606982605e-18 -0.0241127239612726 -0.02412242151219866 -0.02371880722951797 -0.02303915588092042 -0.02346329280585589 -0.02508130398148374 
-0.03633734865949254 -0.03687088295529325 -0.03627729374372062 -0.03598920475171721 -0.03577776641815315 -0.03560457071220001 -0.03577199703542047 -0.03614479977964806 -0.03563968508618501 -0.05200415976534065 -0.03677980648021131 -0.03703659032916725 -0.03596927211761932 -0.03626917714161736 -0.009343123019170636 -0.009053459638685635 -0.03481447374811433 -0.1043653405491371 -0.09045539955618345 -0.091033834301033 -0.1052065092375665 0.06001588660830622 -0.09323289167825242 -0.05367368755839287 -0.09620104785015676 -0.08412254723838784 -0.08461754334774872 -0.09734157021716762 0.06749252191218211 -0.08656059772561556 -0.05362196746939169 -0.09686378999337815 -0.08298399709889895 -0.08487428464473935 -0.09718560898839228 0.06846795000508049 -0.0864930575919837 -0.04226686394500759 -0.1013815921338242 -0.08919899390728592 -0.08915342078893827 -0.1009988771910858 0.06428351574533407 -0.09079207775807406 -0.07865304694541465 -0.09848667515557838 -0.09961190304043284 -0.1121942411171391 0.05431305685717625 -0.1006104191041591 -0.03750764221548485 -0.03583977063374569 -0.03741740154196798 -0.03750958453290973 -0.03685091965765873 -0.03750842410903173 
-0.03633734865949254 -0.03687088295529325 -0.03627729374372062 -0.03598920475171721 -0.03577776641815315 -0.03560457071220001 -0.03577199703542047 -0.03614479977964806 -0.03563968508618501 -0.05200415976534065 -0.03677980648021131 -0.03703659032916725 -0.03596927211761932 -0.03626917714161736 -0.009343123019170636 -0.009053459638685635 -0.03481447374811433 -0.1043653405491371 -0.09045539955618345 -0.091033834301033 -0.1052065092375665 0.06001588660830622 -0.09323289167825242 -0.05367368755839287 -0.09620104785015676 -0.08412254723838784 -0.08461754334774872 -0.09734157021716762 0.06749252191218211 -0.08656059772561556 -0.05362196746939169 -0.09686378999337815 -0.08298399709889895 -0.08487428464473935 -0.09718560898839228 0.06846795000508049 -0.0864930575919837 -0.04226686394500759 -0.1013815921338242 -0.08919899390728592 -0.08915342078893827 -0.1009988771910858 0.06428351574533407 -0.09079207775807406 -0.07865304694541465 -0.09848667515557838 -0.09961190304043284 -0.1121942411171391 0.05431305685717625 -0.1006104191041591 -0.03750764221548485 -0.03583977063374569 -0.03741740154196798 -0.03750958453290973 -0.03685091965765873 -0.03750842410903173 
-0.02705726881410885 -0.02622365055216617 -0.02665880455330372 -0.02575354154341892 -0.02610924119084881 -0.02617788889810437 -0.02705930483904844 -0.02587165037799927 -0.02714159544790492 -0.04442729413164378 -0.02713658895380643 -0.02687731450458681 -0.02569784865185347 -0.02543312190705497 -0.05488087876445966 0.1450251280932081 -0.02273007039124088 0 -8.673617379884035e-18 9.75781955236954e-19 -1.734723475976807e-18 -0.09148243619804097 5.204170427930421e-18 -0.01317736086574277 -3.469446951953614e-18 1.734723475976807e-18 -4.336808689942018e-18 0 -0.09028831563247179 0 -0.01329090266525311 -4.336808689942018e-19 -3.686287386450715e-18 0 0 -0.08998915311050228 0 -0.02105495631434392 -3.035766082959412e-18 -6.071532165918825e-18 8.673617379884035e-19 -8.023096076392733e-18 -0.08854228812341927 -8.673617379884035e-19 -6.505213034913027e-19 -3.686287386450715e-18 1.301042606982605e-18 -6.071532165918825e-18 -0.08255094974015259 2.602085213965211e-18 -0.02367932672133452 -0.02429959484810541 -0.02328838781637336 -0.02338091613677391 -0.02380945741498372 -0.02513409791819862 
-0.02705726881410885 -0.02622365055216617 -0.02665880455330372 -0.02575354154341892 -0.02610924119084881 -0.02617788889810437 -0.02705930483904844 -0.02587165037799927 -0.02714159544790492 -0.04442729413164378 -0.02713658895380643 -0.02687731450458681 -0.02569784865185347 -0.02543312190705497 -0.05488087876445966 0.1450251280932081 -0.02273007039124088 0 -8.673617379884035e-18 9.75781955236954e-19 -1.734723475976807e-18 -0.09148243619804097 5.204170427930421e-18 -0.01317736086574277 -3.469446951953614e-18 1.734723475976807e-18 -4.336808689942018e-18 0 -0.09028831563247179 0 -0.01329090266525311 -4.336808689942018e-19 -3.686287386450715e-18 0 0 -0.08998915311050228 0 -0.02105495631434392 -3.035766082959412e-18 -6.071532165918825e-18 8.673617379884035e-19 -8.023096076392733e-18 -0.08854228812341927 -8.673617379884035e-19 -6.505213034913027e-19 -3.686287386450715e-18 1.301042606982605e-18 -6.071532165918825e-18 -0.08255094974015259 2.602085213965211e-18 -0.02367932672133452 -0.02429959484810541 -0.02328838781637336 -0.02338091613677391 -0.02380945741498372 -0.02513409791819862 
