solver_type L2R_L2LOSS_SVC_DUAL
nr_class 2
label 1 2
nr_feature 2359
bias -1
w
0.07537112960571861 
0 
0.005185115060733762 
0.01367629509688168 
0.01960228021125959 
0 
0.007300662610239373 
0 
0 
0 
0 
0 
0 
0 
0 
0 
0 
0 
0 
0 
0 
0 
0 
0 
0.002391943157685947 
0 
0 
0 
0 
0 
0 
0 
0 
0 
0 
0 
0 
0 
0 
0 
0.006610882572469667 
0 
0 
0 
0 
0.001044436267769963 
0 
0 
0 
0.00112359933039477 
0 
0.001172410006853723 
0 
0.02073224883744942 
0 
0 
0.02989993732698449 
0 
0 
0 
0 
0 
0 
0 
0 
0 
0 
0 
0 
0 
0 
0 
0 
0 
0 
0 
0 
0.01245031416621323 
0.007455494720332828 
0 
0 
0.007761737717492789 
0.004630965861401307 
0 
0 
0 
0.02965968561220768 
0 
0.01718743702299503 
0 
0 
0 
0.003230178345650877 
0.02521894315441668 
0.006518546004056444 
0 
0 
0 
0.008362583339947266 
0 
0 
0.007536291710147036 
0.008300225784641461 
0.001411936809006148 
0.008300225784641461 
0 
0 
0 
0 
0 
0 
0 
0 
0 
0 
0.02033191486798677 
0.01432477081127513 
0 
0 
0 
0 
0 
0.02911307878028113 
0.003905168857950319 
0 
0.003999235099858003 
0 
0 
0 
0.02182093614789587 
0.01319274257913785 
0 
0 
0 
0 
0.01270252271331544 
0.06911594682292986 
0.05123194933566131 
0.03381594767728788 
0 
0.04383348712770906 
0.022913280646908 
0.0205019488255788 
0.0401689590408338 
0 
0 
0.09310073353149349 
0.006316459110489459 
0.01633613943719997 
0.01633613943719997 
0.005384254521190862 
0.006895138060372949 
0.02256338280151223 
0.005384254521190862 
0.005384254521190862 
0.005384254521190862 
0.007562683505159533 
0.005384254521190862 
0.005384254521190862 
0.02120470415891236 
0.003661832234998446 
0.009864827298957162 
0.03247178516021055 
0.004289954036908353 
0.003397402815971814 
0.004289954036908353 
0.003661832234998446 
0.01291352072095454 
0.03038630787905848 
0.01286289019569098 
0.01058740906456318 
0.01132929062043599 
0.01336622720395564 
0.01336622720395564 
0.005792889689711967 
0.00619880939960469 
0.00619880939960469 
0 
0 
0 
0 
0 
0 
0.01449391084878212 
0 
0 
0 
0 
0 
0 
0 
0.003424486323594868 
0 
0 
0 
0 
0 
0.003454987336955562 
0 
0 
0 
0 
0 
0.01148657386798494 
0 
0 
0 
0 
0 
0 
0 
0 
0.002676668727521084 
0 
0 
0 
0 
0.0007680686830874855 
0 
0 
0 
0 
0 
0 
0 
0.01057364688316662 
0 
0 
0 
0 
0 
0 
0.003885900264582283 
0.02283446971624174 
0 
0 
0 
0 
0 
0 
0 
0 
0 
0 
0.02639239830900706 
0.0146154403940183 
0 
0 
0 
0 
0 
0 
0 
0.00500677239308365 
0 
0 
0.0007150341361231167 
0 
0 
0 
0 
0 
0 
0 
0 
0 
0 
0 
0 
0 
0.00303005603220703 
0 
0 
0 
0 
0 
0 
0.005673337999860603 
0 
0 
0 
0 
0 
0 
0 
0 
0 
0.03645476245867948 
0 
0 
0 
0 
0 
0 
0 
0 
0 
0 
0 
0.01175735041098734 
0 
0 
0 
0 
0 
0 
0 
0 
0 
0 
0 
0 
0.004389328877911468 
0 
0 
0 
0 
0 
0 
0 
0 
0 
0 
0 
0 
0 
0.01128747225487305 
0 
0 
0 
0 
0 
0 
0 
0 
0.003885900264582283 
0 
0 
0 
0 
0.02578777466396905 
0 
0.01263874042093179 
0.01156225332237168 
0.01005016490990391 
0.01005016490990391 
0.01005016490990391 
0.01005016490990391 
0.01263874042093179 
0.01005016490990391 
0.01005016490990391 
0 
0.007144473397354524 
0.01177359021181352 
0.02158563967718451 
0 
0 
0 
0 
0 
0.01097828193315998 
0 
0 
0 
0 
0 
0 
0 
0 
0 
0 
0 
0 
0 
0 
0.02626446339639081 
0.02332432289733097 
0.01286937455925951 
0.0153937429121443 
0 
0 
0.02060895024320463 
0.02281228927375323 
0 
0 
0 
0 
0 
0 
0 
0 
0 
0 
0 
0 
0 
0 
0 
0 
0 
0 
0 
0 
0.008157965585440947 
0 
0 
0 
0 
0 
0 
0 
0 
0 
0 
0 
0 
0 
0 
0 
0 
0 
0 
0 
0 
0 
0 
0 
0 
0 
0 
0 
0 
0 
0 
0 
0 
0.007269142060664065 
0.008310571245395595 
0.01869459070415001 
0.01041832969875854 
0.009252063606907333 
0.01041832969875854 
0.01041832969875854 
0.01041832969875854 
0.01041832969875854 
0.02485063900604272 
0 
0 
0 
0 
0 
0.0007957253706646074 
0 
0 
0 
0 
0 
0 
0 
0 
0 
0 
0 
0 
0 
0 
0 
0 
0 
0 
0 
0 
0 
0 
0.01893923410582856 
0 
0 
0 
0 
0 
0 
0 
0 
0 
0 
0 
0 
0 
0 
0 
0 
0 
0 
0 
0 
0 
0 
0 
0 
0 
0 
0 
0 
0.008835934540506031 
0 
0 
0 
0 
0 
0 
0 
0.03358371800456966 
0.01297605729511817 
0.01710185341409097 
0.02684766150029216 
0.005634291926562616 
0.005265338794300303 
0.005634291926562616 
0.01812559474848559 
0.01458205416883634 
0 
0 
0 
0 
0.01969280338162239 
0 
0 
0 
0 
0 
0 
0 
0 
0 
0 
0 
0 
0.01726353632656371 
0.01760483698111333 
0 
0 
0 
0 
0 
0 
0 
0 
0 
0 
0 
0 
0 
0 
0 
0 
0 
0 
0 
0 
0 
0 
0 
0 
0 
0 
0 
0 
0 
0 
0 
0 
0 
0 
0 
0 
0.008273320443231945 
0.0117736658099895 
0 
0 
0 
0 
0 
0.02522996917284252 
0.02668850563462401 
0 
0 
0 
0 
0 
0 
0 
0 
0 
0 
0 
0 
0 
0 
0 
0 
0 
0 
0 
0 
0 
0 
0 
0 
0 
0 
0 
0 
0 
0 
0 
0 
0 
0 
0 
0 
0 
0 
0 
0 
0 
0 
0 
0 
0 
0 
0 
0 
0 
0 
0 
0 
0 
0 
0.00500677239308365 
0.00500677239308365 
0.004678911433617948 
0.01395599558213084 
0.00500677239308365 
0.00500677239308365 
0.00500677239308365 
0.00500677239308365 
0.00500677239308365 
0.00500677239308365 
0 
0 
0 
0 
0 
0 
0 
0 
0 
0 
0 
0 
0 
0 
0 
0 
0 
0 
0 
0 
0 
0 
0 
0 
0 
0 
0 
0 
0 
0 
0 
0 
0 
0 
0 
0 
0 
0 
0 
0 
0 
0 
0 
0 
0 
0 
0 
0 
0 
0 
0 
0 
0 
0 
0 
0 
0 
0 
0 
0 
0 
0 
0 
0 
0 
0 
0 
0 
0 
0 
0 
0 
0 
0 
0 
0 
0 
0 
0 
0 
0 
0 
0 
0 
0 
0 
0 
0 
0 
0 
0 
0 
0 
0 
0 
0 
0 
0 
0 
0 
0 
0 
0 
0 
0 
0 
0 
0 
0 
0 
0 
0 
0.004900850992270791 
0.005194819979247224 
0 
0 
0 
0 
0 
0.0117736658099895 
0 
0 
0 
0 
0 
0 
0 
0 
0 
0 
0 
0 
0 
0 
0 
0 
0 
0 
0 
0 
0 
0.004706807399217902 
0.004010333072639618 
0.004706807399217902 
0.004706807399217902 
0.004706807399217902 
0.004706807399217902 
0.004706807399217902 
0.004706807399217902 
0 
0 
0 
0 
0 
0 
0 
0 
0.004076675809114797 
0 
0 
0 
0 
0.004076675809114797 
0 
0 
0 
0 
0 
0 
0.01144249881670806 
0 
0 
0 
0 
0 
0 
0 
0 
0 
0 
0 
0 
0 
0 
0 
0 
0.006401377634208034 
0 
0 
0 
0 
0 
0 
0 
0 
0 
0 
0 
0 
0 
0 
0 
0 
0 
0 
0.00402570084816291 
0.004307789996745063 
0.004307789996745063 
0 
0 
0 
0 
0 
0 
0 
0 
0 
0 
0 
0 
0 
0 
0 
0 
0 
0 
0 
0 
0 
0 
0 
0 
0 
0 
0 
0 
0 
0 
0 
0 
0 
0 
0 
0 
0 
0 
0 
0 
0 
0 
0 
0.02096856950919343 
0.03005271717556113 
0.02808476019366557 
0 
0 
0 
0 
0 
0 
0.005472250101897144 
0.006142509340392479 
0.007196146915118073 
0.007196146915118073 
0 
-0.008399653675367984 
0.01063280200701293 
-0.03646938434033767 
0.01063280200701293 
0.00993652896040035 
0.01063280200701293 
0.01063280200701293 
0.01063280200701293 
0 
0 
0 
0 
0 
0 
0 
0 
0 
0 
0 
0 
0.008053472772731832 
0.008053472772731832 
0 
0 
0 
0 
0 
0 
0 
0 
0 
0 
0 
0 
0 
0.01025055508628576 
0 
0 
0.0170677362260061 
0.02234998928448845 
0.01083721272112104 
0.02084226336666916 
0.02084226336666916 
0.02084226336666916 
0.01083721272112104 
0.01083721272112104 
0 
0 
0 
0 
0 
0 
0 
0 
0 
0 
0 
0 
0 
0 
0 
0 
0 
0 
0 
0 
0 
0 
0 
0 
0 
0 
0 
0 
0 
0 
0 
0 
0 
0 
0 
0 
0 
0 
0 
0 
0.02680013082975215 
0.02680013082975215 
0 
0 
0 
0 
0 
0 
0 
0 
0 
0 
0 
0 
0 
0 
0 
0 
0.02095835786081966 
0.01759438671713722 
0.02523541355876434 
0.01759438671713722 
0.01759438671713722 
0 
0 
0 
0 
0 
0 
0 
0 
0 
0 
0 
0 
0 
0 
0 
0 
0 
0 
0 
0 
0 
0 
0 
0 
0 
0 
0.001055263184871485 
0.001055263184871485 
0 
0 
0 
0 
0 
0 
0 
0 
0 
0 
0 
0 
0 
0 
0 
0 
0 
0 
0 
0 
0 
0 
0 
0.006989851984343527 
0.006989851984343527 
0.006989851984343527 
0 
0 
0 
0 
0 
0 
0 
0 
0 
0 
0 
0 
0 
0 
0 
0 
0 
0 
0 
0 
0 
0 
0 
0 
0.06917908987615307 
0.003458547402878927 
0.02270198572199054 
0.003894513554260158 
0.003894513554260158 
0.003894513554260158 
0 
0.01130085722235505 
0 
0 
0 
0 
0 
0 
0 
0 
0 
0 
0 
0 
0 
0 
0 
0 
0 
-0.03349239257978347 
-0.02781589244287915 
0.01381839771076723 
-0.03349239257978347 
0.01381839771076723 
0.01381839771076723 
0.01534805041967361 
0 
0 
0 
0 
0 
0 
0 
0 
0 
0 
0 
0 
0 
0.004590559950604173 
0 
0 
0.01534805041967361 
0.01534805041967361 
0.01534805041967361 
0.01534805041967361 
0.01534805041967361 
0 
0 
0 
0 
0 
0 
0 
0 
0 
0 
0 
0 
0 
0 
0 
0 
0 
0 
0 
0 
0 
0 
0 
0 
0 
0 
0 
0 
0 
0 
0 
0 
0 
0 
0 
0 
0 
0 
0.01209273155985267 
0.005047837238746707 
0.004300900144588771 
0.005047837238746707 
0.005047837238746707 
0 
0 
0 
0 
0 
0.006528750904357957 
0 
0 
0 
0 
0 
0 
0 
0 
0 
0 
0 
0 
0 
0 
0 
0 
0 
0 
0 
0 
0 
0 
0 
0 
0 
0 
0 
0 
0 
0 
0 
0 
0 
0 
0 
0 
0 
0 
0 
0 
0 
0 
0 
0 
0 
0 
0 
0 
0 
0 
0 
0 
0 
0 
0 
0 
0 
0 
0 
0 
0 
0 
0 
0 
0 
0 
0 
0 
0 
0 
0 
0 
0 
0 
0 
0 
0 
0 
0.02639239830900706 
0.02639239830900706 
-0.04965767120971334 
-0.04409880910736638 
0 
0 
0 
0 
0 
0 
0 
0 
0 
0 
0 
0 
0 
0 
0 
0 
0 
0 
0 
0 
0 
0 
0 
0 
0 
0 
0 
0 
0 
0 
0 
0 
0 
0 
0 
0 
0 
0 
0 
0 
0 
0 
0 
0 
0 
0 
0.007048354268570672 
0.007417100908639733 
0 
0 
0 
0 
0 
0 
0 
0 
0.01154268572088957 
0.01154268572088957 
0.01154268572088957 
0.01154268572088957 
0 
0 
0 
0 
0 
0 
0.0114251462128358 
0.0110004253243869 
0.01202287216668961 
0.0114251462128358 
0 
0 
0 
0 
0 
0 
0 
0 
0 
0 
0 
0 
0 
0 
0 
0 
0 
0 
0 
0 
0 
0 
0 
0 
0 
0 
0 
0 
0 
0 
0 
0 
0 
0 
0 
0 
0 
0 
0 
0 
0 
0 
0 
0.01204113260154347 
0 
0.01204113260154347 
0.01204113260154347 
0.001198850077453532 
0.001198850077453532 
0 
0.001198850077453532 
0.001198850077453532 
0 
0 
0 
0 
0 
0 
0 
0 
0 
0 
0 
0 
0 
0 
0 
0 
0 
0 
0 
0 
0 
0 
0 
0 
0 
0 
0 
0 
0 
0 
0 
0 
0 
0 
0 
0 
0 
0 
0 
0 
0 
0 
0 
0 
0 
0 
0 
0 
0 
0 
0 
0 
0 
0 
0 
0 
0 
0 
0 
0 
0 
0 
0 
0 
0 
0 
0 
0 
0 
0 
0 
0 
0 
0 
0 
0 
0 
0 
0 
0 
0 
0 
0 
0 
0 
0 
0 
0 
0 
0 
0 
0 
0 
0 
0 
0 
0 
0 
0 
0 
0 
0 
0 
0 
0 
0 
0 
0 
0 
0 
0 
0 
0 
0 
0 
0 
0 
0 
0 
0 
0 
0 
0 
0 
0 
0 
0 
0 
0 
0 
0 
0 
0 
0 
0 
0 
0 
0 
0 
0 
0 
0 
0 
0 
0.009409324237137492 
0.009409324237137492 
0.009409324237137492 
0.009409324237137492 
0.009409324237137492 
0.009409324237137492 
0.001282855971180295 
0.02381472281335699 
0 
0 
0 
0 
0 
0 
0 
0 
0 
0.002708361791057475 
0.002708361791057475 
0.002708361791057475 
0.002708361791057475 
0.002708361791057475 
0 
0 
0 
0 
0 
0.01259858992338455 
0.01259858992338455 
0.01259858992338455 
0 
0 
0 
0 
0 
0 
0 
0 
0 
0 
0 
0 
0 
0 
0 
0 
0 
0 
0 
0 
0 
0 
0 
0 
0.02846460006770962 
0 
0 
0 
0 
0 
0 
0 
0 
0 
0 
0 
0 
0 
0 
0.02099643370739712 
0 
0 
0 
0 
0 
0 
0 
0 
0 
0 
0 
0 
0 
0 
0 
0 
0 
0 
0 
0 
0 
0 
0 
0 
0 
0 
0 
0 
0 
0 
0 
0 
0 
0 
0 
0 
0 
0 
0 
0 
0 
0 
0 
0 
0 
0 
0 
0 
0 
0 
0 
0 
0 
0 
0 
0 
0 
0 
0 
0 
0 
0 
0 
0 
0 
0 
0 
0 
0 
0 
0 
0 
0 
0 
0 
0 
0 
0 
0 
0 
0 
0 
0 
0 
0 
0 
0 
0 
0 
0 
0 
0 
0 
0 
0 
0 
0 
0 
0 
0 
0 
0 
0 
0 
0 
0 
0 
0 
0 
0 
0 
0 
0 
0 
0 
0 
0 
0 
0 
0 
0 
0 
0 
0 
0 
0 
0 
0 
0 
0 
0 
0 
0 
0 
0 
0 
0 
0 
0 
0 
0 
0 
0 
0 
0 
0 
0 
0 
0 
0 
0 
0 
0 
0 
0 
0 
0 
0 
0 
0 
0 
0 
0 
0 
0 
0 
0 
0 
0 
0 
0 
0 
0 
0 
0 
0 
0 
0 
0 
0 
0 
0 
0 
0 
0 
0 
0 
0 
0 
0 
0 
0 
0 
0 
0 
0 
0 
0 
0 
0 
0 
0 
0 
0 
0 
0 
0 
0 
0 
0 
0 
0 
0 
0 
0 
0 
0 
0 
0 
0 
0 
0 
0 
0 
0 
0 
0 
0 
0 
0 
0 
0 
0 
0 
0 
0 
0 
0 
0 
0 
0 
0 
0 
0 
0 
0 
0 
0 
0 
0 
0 
0 
0 
0 
0 
0 
0 
0 
0 
0 
0 
0 
0 
0 
0 
0 
0 
0 
0 
0 
0 
0 
0 
0 
0 
0 
0 
0 
0 
0 
0 
0 
0 
0 
0 
0 
0 
0 
0 
0 
0 
0 
0 
0 
0.003474198079361151 
0.003474198079361151 
0.003474198079361151 
0.003474198079361151 
0.003474198079361151 
0.003474198079361151 
0.003474198079361151 
0.003474198079361151 
0.003474198079361151 
0.003474198079361151 
0.003474198079361151 
0.003474198079361151 
0 
0 
0 
0 
0 
0 
0 
0 
0 
0 
0 
0 
0 
0 
0 
0 
0 
0 
0 
0 
0 
0 
0 
0 
0 
0 
0 
0 
0 
0 
0 
0 
0 
0 
0 
0 
0 
0 
0 
0 
0 
0 
0 
0 
0 
0 
0 
0 
0 
0 
0 
0 
0 
0 
0 
0 
0 
0 
0 
0 
0 
0 
0 
0 
0 
0 
0 
0 
0 
0 
0 
0 
0 
0 
0 
0 
0 
0 
0 
0 
0 
0 
0 
0 
0 
0 
0 
0 
0 
0 
0 
0 
0 
0 
0 
0 
0 
0 
0 
0 
0 
0 
0 
0 
0 
0 
0 
0 
0 
0 
0 
0 
0 
0 
0 
0 
0 
0 
0 
0 
0 
0 
0 
0 
0 
0 
0 
0 
0 
0 
0 
0 
0 
0 
0 
0 
0 
0 
0 
0 
0 
0 
0 
0 
0 
0 
0 
0 
0 
0 
0 
0 
0 
0 
0 
0 
0 
0 
0 
0 
0 
0 
0 
0 
0 
0 
0 
0 
0 
0 
0 
0 
0 
0 
0 
0 
0 
0 
0 
0 
0 
0 
0 
0 
0 
0 
0 
0 
0 
0 
0 
0 
0 
0 
0 
0 
0 
0 
0 
0 
0 
0 
0 
0 
0 
0 
0 
0 
0 
0 
0 
0 
0 
0 
0 
0 
0 
0 
0 
0 
0 
0.007039380640128616 
0 
0 
0 
0 
0 
0 
0 
0 
0 
0 
0 
0 
0 
0 
0 
0 
0 
0 
0 
0 
0 
0 
0 
0 
0 
0 
0 
0 
0 
0 
0 
0 
0 
0 
0 
0 
0 
0 
0 
0 
0 
0 
0 
0 
0 
0 
0 
0 
0 
0 
0 
0 
0 
0 
0 
0 
0 
0 
0 
0 
0 
0 
0 
0 
0 
0 
0 
0 
0 
0 
0 
0 
0 
0 
0 
0 
0 
0 
0 
0 
0 
0 
0 
0 
0 
0 
0 
0 
0 
0 
0 
0 
0 
0 
0 
0 
0 
0 
0 
0 
0 
0 
0 
0 
0 
0 
0 
0 
0 
0 
0 
0 
0 
0 
0 
0 
0 
0 
0 
0 
0 
0 
0 
0 
0 
0.004706807399217902 
0.004706807399217902 
0.004706807399217902 
0 
0 
0.007936832443391226 
0 
0 
0.01063718721026056 
0 
0 
0 
0 
0 
0 
0 
0 
0 
0 
0 
0 
0 
0 
0 
0 
0 
0 
0 
0 
0 
0 
0 
0 
0 
0 
0 
0 
0 
0 
0 
0 
0 
0 
0 
0 
0 
0 
0 
0 
0 
0 
0 
0.01381839771076723 
0 
0 
0 
0 
0 
0 
0 
0 
0 
0 
0 
0 
0 
0 
0 
0 
0 
0 
0 
0 
0 
0 
0 
0 
-0.04965767120971334 
0 
0 
0 
0 
0 
0 
0 
0.01063280200701293 
