solver_type L2R_L2LOSS_SVC_DUAL
nr_class 2
label 1 2
nr_feature 2359
bias -1
w
0.1306536487503847 
0 
0.03603759678050247 
0.01284471871656112 
0.00950967772469319 
0.00624610833889201 
0.001640516279364045 
0 
0.04645210328915166 
0 
0.002370244172408862 
0 
0 
0 
0 
0 
0 
0 
0 
0 
0 
0 
0.009922740570042787 
0 
0.01932765585798172 
0.001525422567828867 
0 
0 
0 
0 
-0.007969239190194774 
0.001776562379698868 
0.01586130716702441 
0 
0.0003365459005130506 
0.02668087762490396 
0 
0.009106286509585396 
-0.0005158856136142767 
0 
0.003655841196692627 
0 
0 
0 
-0.0005266438169657579 
0.003910722086710777 
0.008441340326251299 
0 
0.005618589821141887 
0 
0 
0 
-0.003244162562642075 
-0.001329603510164432 
0 
0.00175568256602064 
0.0009744701021867743 
0 
0 
0 
0 
0 
0 
0 
0 
0.003763958853089172 
0.005241293802922631 
0.008562231751898085 
0 
0.01249570463871827 
0 
0 
0.01651427054802634 
0.007946575506893405 
1.301042606982605e-18 
0.007946575506893405 
0 
0 
0 
0 
0 
0 
0 
0 
0 
0 
0.0254199002337614 
0.075359184671226 
0.02206719971297605 
0.02682019076433437 
0 
0.1109005680185656 
0 
0.01865500743635344 
0.007524728698019735 
0 
0 
0 
0.001592638574534161 
-0.006402287306900693 
0.008256328859367539 
3.388131789017201e-20 
0 
1.355252715606881e-20 
0 
3.388131789017201e-20 
0 
0.01718825481318742 
0 
0 
-0.004102389033697864 
0 
0 
0 
0 
0.01376199841530075 
0.03659560324220473 
0.003530948417423626 
0 
0 
0.003715675988650851 
0.003530948417423626 
0.01600310409175786 
0.0173823881511493 
0.001801437271789623 
0.07213143851926888 
0.04009706306985252 
0.01079759583887022 
0 
0 
0 
0 
0 
0 
0 
0 
0 
0.01998091376895475 
-0.0009682660990170992 
0 
0 
0 
0.001776651737058449 
-0.003139449504884239 
0 
0 
0.0146829060930388 
0.05623436221251857 
0 
0 
0 
-0.006785537355421393 
0.004974757045477719 
0 
0 
0 
0 
0 
0 
0 
0 
0.01347634993405567 
0 
0 
0 
0 
0 
0 
0 
0 
0 
0 
0.002521076585293569 
0.002521076585293569 
0.00286411286101444 
0 
0 
0 
0 
0 
0 
0 
0 
0.02044000189528503 
0.05219186674851249 
0.01112435516682357 
0 
0 
0 
0.01151996858593969 
0 
0 
0 
0 
0 
0 
0 
0 
0.01275381176251825 
0 
0 
0 
0 
0 
0.02247651116678004 
0 
0 
0 
0 
0 
0 
0 
0 
0 
0 
0 
0 
0 
0 
0.01029469520197733 
0 
0.1177513610469413 
0 
0 
0 
0 
0 
0 
0 
0 
0 
0 
0 
0 
0.004736411411045069 
0 
0 
0 
0.04836542799612509 
0.05400314049014485 
0 
0 
0 
0 
-0.007028382276677295 
0 
0 
0 
0 
0 
0 
0 
0 
0 
0 
-0.004213381980313262 
0.01138390199931667 
0 
0 
0 
0 
0.0007988449993625469 
0 
0 
0 
0 
0 
0 
0 
0 
0.007901094510555451 
0 
0.00832792637365851 
0 
0 
0 
0 
0 
0 
0.01507872218526087 
0 
0 
0 
0 
0 
-0.005978008056105271 
0 
0.01663617506456151 
0 
0 
0 
0 
0 
0 
0 
0.006527176599865826 
-0.01107971196349947 
0 
-0.008249001044350278 
0.0233404968183353 
0 
0 
0.01863432255163749 
0 
0 
0 
0 
0 
0 
0.02395082249090485 
0 
0 
0 
0.02989824843373121 
0 
0 
0 
0 
0 
-0.005978008056105271 
0 
-0.006402287306900693 
0 
0 
0 
0 
0 
0.01422264714644439 
0 
0 
0 
0 
0 
0 
0 
0 
0 
0 
0 
0 
0 
0 
0 
0.001602326328985722 
0 
0 
0 
0 
0 
0 
0 
0 
0 
0 
0.006154468687568455 
0 
0 
0 
0 
0 
0 
0 
0 
0 
0 
0 
0 
0 
0 
0 
0 
0.02016117801093792 
0.01997251807822818 
0 
0.01997251807822818 
0 
0.0070009474776639 
0 
0.001594616327723379 
0 
0 
0.002138396382743609 
0 
0 
0 
0 
0 
0 
0 
0 
0 
0 
0 
0 
0 
0 
0 
0 
0 
0 
0 
0 
0 
0.01363694167614519 
0 
0 
0 
0 
0 
0 
0 
0 
0 
0 
0 
0.01208018397819964 
0 
0 
0 
0 
0 
0 
0 
0 
0 
0 
0 
0 
0 
0 
0 
0 
0 
0 
0 
0 
0 
0.009778983352115984 
0 
0 
0 
0 
0 
0 
0 
0 
0 
0 
0 
0.02284960800078241 
0 
0 
0 
0 
0 
0 
0 
0 
0 
0 
0 
0 
0 
0 
0 
0 
0 
0 
0 
0 
0 
0 
0 
0 
-0.004474714070162944 
0 
0 
0 
0 
0 
0 
0 
0 
0 
0 
0 
0.05851179547574915 
0 
0 
0 
0 
0 
0 
0 
0 
0 
0 
0 
-0.01753709778796462 
0.002639747575433544 
0 
0 
0 
0 
0 
0 
0 
0 
0 
0 
0 
0 
0.003328430767330942 
0.003227672193314996 
0 
0 
0 
0 
0.003328430767330942 
0.003328430767330942 
0.002318693655867151 
0 
0 
0 
0 
0 
0 
0 
0 
0 
0.0102991512794872 
0 
0 
0 
0 
0 
0 
0 
0 
0 
0 
0 
0 
0 
0.04676844794609304 
0.04676844794609304 
0.04676844794609304 
0 
0 
0 
0.04678757760606328 
0.04678757760606328 
0.04678757760606328 
0 
0 
0.002404596353801321 
0 
0 
0 
0 
0 
0 
0 
0 
0 
0 
0 
0 
0 
0 
0 
0 
0 
0 
0 
0.02659405865548842 
0.01055726279986576 
0.004992401823940076 
0 
0 
0 
0 
0 
0 
0 
0 
0 
0 
0.003105598369934179 
-0.003645499200319356 
0.003323214043093956 
0.01229053784213869 
0.003323214043093956 
0.003323214043093956 
0.003323214043093956 
0.002951201257312558 
0 
0 
0 
0 
0 
0 
0 
0 
0 
0 
0 
0 
0 
0 
0 
0 
-0.01765314127952904 
0.03181134283213154 
-0.03212695946802513 
-0.03334392181168393 
-0.04380943899239773 
0.03244270659905154 
0.02318639419749057 
0 
0 
0 
0 
0 
0 
0 
0 
0 
0 
0 
0 
0 
0 
0 
0 
0 
0 
0 
0 
0 
0 
0 
0 
0 
0 
0 
0 
0 
0 
0 
0 
0 
0 
0 
0 
0 
0 
0 
0 
0 
0 
0 
-0.02519075384025588 
0 
0 
0.01031750299128163 
0 
0 
0 
0 
0 
0 
0 
0 
0 
0 
0 
0 
0 
0 
0 
0 
0 
0 
0 
0 
0 
0 
0 
0 
0 
0 
0 
0 
0 
0 
0 
0 
0 
0 
0 
0 
0 
0 
0 
0 
0 
0 
0 
0.02121594432490121 
0 
0 
0 
0 
0 
0 
0 
0.01777998085816587 
0.0212200452862651 
0.01846721337293552 
0.0006806385409755076 
0 
0 
0.02894872874147272 
0.05706849580809455 
0 
0 
0 
0 
-0.008249001044350278 
-0.008249001044350278 
-0.008249001044350278 
-0.008249001044350278 
-0.008249001044350278 
-0.008249001044350278 
-0.008249001044350278 
-0.008249001044350278 
-0.008249001044350278 
-0.008249001044350278 
-0.008249001044350278 
-0.007708827618298334 
0 
-0.008249001044350278 
-0.008249001044350278 
-0.008249001044350278 
-0.008249001044350278 
-0.008249001044350278 
-0.008249001044350278 
-0.008249001044350278 
-0.008249001044350278 
-0.008249001044350278 
0 
0 
0 
0 
0 
0 
0 
0 
0 
0.01689108313867483 
0.01717007409895456 
0 
0 
0 
0.02390559005505703 
0.01188805538294457 
0.01055726279986576 
0.007669719343130582 
0.007669719343130582 
0.01188805538294457 
0.01188805538294457 
0.01188805538294457 
0 
0 
0 
0 
0 
0 
0 
0 
0 
0 
0 
0 
0 
0 
0 
0 
0 
0 
0 
0 
0 
0 
0 
0 
0.019374325016652 
0.01061304844100988 
0.01061304844100988 
0.03422091986987988 
0 
0 
0 
0 
0 
0 
0 
0 
0 
0 
0 
0 
0 
0 
0 
0 
0 
0 
0 
0 
0 
0 
0 
0 
0 
0 
0 
0 
0 
0 
0 
0 
0 
0 
0 
0 
0 
0.009400437932602146 
0 
0 
0 
0 
0 
0 
0 
0 
0 
0.01480209153398386 
0.01480209153398386 
0.01480209153398386 
0 
0 
8.673617379884035e-19 
0 
0 
0 
0 
0.004701706309670371 
0 
0 
0.004230132680236433 
0 
0.004327419547612314 
-0.02149033072367749 
0 
0 
0.01302116401999819 
0 
0 
0 
0 
0 
0 
0 
0 
0 
0 
0 
0 
0 
0 
0 
0 
0 
0 
0 
0 
0 
0 
0 
0 
0 
0 
0 
0 
0 
0 
0 
0.04359659579710778 
0 
0 
0 
0 
0 
0 
0 
0 
0 
0 
0 
0 
0 
0 
0 
0 
0 
0 
0 
0 
0 
0 
0 
0 
0 
0 
0 
0 
0 
0 
0 
0 
0 
0 
0 
0 
0 
0 
0 
0 
0 
0 
0 
0 
0 
0 
0 
0 
0 
0 
0 
0.01497880294366699 
0 
0 
0 
0 
0 
0 
0 
0 
0 
0 
0 
0 
0 
0 
0 
0 
0 
0.01234816890099131 
0.01124818228522097 
0 
0 
0 
0 
0.003593330416527213 
0 
0 
0 
0 
0 
0.006340834587365038 
0.00587338944230434 
0 
0.004046286600106036 
0 
0 
0 
0 
0 
0 
0 
0 
0 
0.0006048099299966774 
0 
0 
0 
0 
0 
0 
0 
0 
0 
0 
0 
0 
0 
0 
0 
0 
0 
0 
0 
0 
0 
0 
0 
0 
0 
0 
0 
0 
0 
0 
0 
0 
0.03198001440394806 
0 
0 
0 
0 
0 
0 
0.08500244667162238 
0.01474634974917986 
0.01687295864436652 
0.08500244667162238 
0.08500244667162238 
0.01899987436524861 
0.01899987436524861 
0.01899987436524861 
-0.03898969089758492 
-0.07286485851961963 
0.04591024190243777 
0.005735360796861479 
0.01085728070632959 
0.02994604843140304 
0 
0 
0 
0.00793637909976154 
0.01339771619147996 
0.008492497526717822 
0.02826152927454114 
0.00714012658182995 
0.00714012658182995 
0.00587338944230434 
0 
0 
0 
0.01052532347054571 
0 
0 
0 
0 
0 
0 
0 
0 
0 
0 
0 
0 
0 
0 
0 
0 
0 
0 
0 
0.01659770028402956 
0 
0 
0 
0 
0 
0 
0 
0 
0 
0 
0 
0 
0 
0 
0 
0 
0 
0 
0 
0 
0 
0 
0 
0 
0 
0 
0 
0 
0 
0 
0 
0 
0 
0 
0 
0 
0 
0 
0 
0 
0 
0 
0 
0 
0 
0 
0 
0 
0 
0 
0 
0 
0 
0 
0 
0 
0 
0 
0 
0 
0 
0 
0 
0 
0 
0 
0 
0 
0 
0 
0 
0 
0 
0 
0 
0 
0 
0 
0 
0.02721129623386579 
0 
0 
0.04286406759544881 
0 
0 
0 
0 
0 
0 
0 
0 
0 
0 
0 
-0.0157714833807852 
-0.04736295262280675 
-0.04736295262280675 
0 
0 
0 
0 
0 
0 
0 
0 
0 
0 
0 
0 
0 
0 
0.03300444068255091 
0 
0 
0 
0 
0.07236903477019868 
0.07236903477019868 
0.07236903477019868 
0 
0 
0 
0 
0 
0 
0 
0 
0 
0 
0.007883449803732531 
0.007883449803732531 
0 
0 
0 
0.0400962220917537 
0 
0.0400962220917537 
0 
0 
0 
0 
0 
0 
0 
0 
0 
0 
0 
0 
0 
0 
0 
0 
0 
0 
0 
0 
0 
0 
0 
0.01978369986052503 
0.01978369986052503 
0 
0 
0 
0 
0 
0 
0 
0 
0 
0.002414915756823019 
0 
0 
0 
0 
0 
0 
0 
0 
0 
0 
0 
0 
0 
0 
0 
0 
0 
0 
0 
0 
0 
0 
0 
0 
0 
0 
0 
0 
0 
0 
0 
0 
0 
0 
0 
0 
0 
0.02116998445045106 
0 
0 
0 
0 
0 
0 
0 
0 
0 
0 
0 
0 
0 
0 
0 
0 
0 
0 
0 
0 
0.02503802351356793 
0.02133310442799815 
0 
0 
0 
0 
0 
0 
0 
0 
0 
0 
0.02714677143617562 
0.03056874953472757 
0 
0 
0 
0.01481093784006891 
0 
0 
0 
0 
0 
0 
0 
0 
0 
0 
0 
0 
0 
0 
0 
0 
0 
0 
0 
0 
0 
0 
0 
0 
0.006943010605739854 
0 
0 
0 
0 
0 
0 
0 
0 
0 
0 
0 
0 
0.004046286600106036 
0 
0 
0 
0 
0 
0 
0 
0 
0.006262372064764345 
0.03186407004203443 
0 
0 
0 
0 
0 
0 
0 
0 
0 
0 
0 
0 
0 
0 
0 
0 
0 
0.01103963008853623 
0.01103963008853623 
0.00286411286101444 
0 
0.00286411286101444 
0.00286411286101444 
0 
0 
0 
0 
0 
0 
0 
0 
0 
0 
0.0005747647761480824 
0 
0 
0 
0 
0 
0 
0 
0 
0 
0 
0 
0 
0 
0 
0 
0 
0 
0 
0 
0 
0 
0 
0 
0 
0 
0 
0 
0 
0 
0 
0 
0 
0.009732769804890556 
0.003064807147271565 
0.003064807147271565 
0.003064807147271565 
0.003064807147271565 
0.003064807147271565 
0.003064807147271565 
0.00286411286101444 
0 
0 
0 
0 
0 
0 
0 
0 
0 
0 
0 
0 
0 
0 
0 
0.007349957880602477 
0.007349957880602477 
0.007349957880602477 
0.00686865694387612 
0.007349957880602477 
0.007349957880602477 
0.007349957880602477 
0.007349957880602477 
0.007349957880602477 
0 
0 
0 
0 
0 
0 
0 
0 
0 
0 
0 
0 
0 
0 
0 
0 
0 
0 
0 
0 
0 
0.02476113779290244 
0 
0 
0 
0 
0 
0 
0 
0 
0 
0 
0 
0 
0 
0 
0 
0 
0 
0 
0 
0 
0.03056874953472757 
0 
0 
0 
0 
0 
0 
0 
0 
0 
0 
0 
0 
0 
0 
0 
0 
0 
0 
0 
0 
0 
0 
0 
0 
0 
0 
0 
0 
0 
0 
0 
0 
0 
0 
0 
0 
0 
0 
0 
0 
0 
0 
0 
0 
0 
0 
0 
0 
0 
0 
0 
0 
0 
0 
0 
0 
0 
0 
0 
0 
0 
0 
0 
0 
0 
0 
0 
0 
0 
0 
0 
0 
0 
0 
0 
0 
0 
0 
0 
0 
0 
0 
0 
0 
0 
0 
0 
0 
0 
0 
0 
0 
0 
0 
0 
-0.002740431003881755 
0 
0 
0 
0 
0.01053594365546336 
0 
0 
0 
0 
0 
0 
0 
0 
0 
0 
0 
0 
0 
0 
0 
0.01391240807232221 
0 
0 
0 
0.01391240807232221 
0 
0 
0 
0 
0 
0 
0 
0 
0 
0 
0 
0 
0 
0 
0 
0 
0 
0 
0 
0 
0 
0 
0 
0 
0 
0 
0 
0 
0 
0.01947427825819525 
0 
0 
0 
0 
0 
0 
0 
0 
0 
0 
0.0270735772906365 
0 
0 
0 
0 
0 
0 
-0.005398137544735581 
0 
0 
0 
0 
0 
0 
0 
0 
0 
0 
0 
0 
0 
0 
0 
0 
0 
0 
0 
0 
0 
0.01481093784006891 
0 
0 
0 
0 
0 
0 
0 
0 
0 
0 
0 
0 
0 
0 
0 
0 
0 
0 
0 
0 
0 
0 
0 
0 
0 
0 
0 
0 
0 
0 
0 
0 
0 
0 
0 
0 
0 
0 
0 
0 
0 
0 
0 
0 
0 
0 
0 
0 
0 
0 
0 
0.0007094193560646142 
0 
0 
0 
0 
0 
0 
0 
0 
0 
0 
0 
0 
0 
0 
0 
0 
0 
0 
0 
0 
0 
0 
0 
0 
0 
0 
0 
0 
0 
0 
0 
0 
0 
0 
0 
0 
0 
0 
0.0246835302046546 
0 
0 
0 
0 
0 
0 
0 
0 
0.02270258923387621 
0 
0 
0 
0 
0 
0 
0 
0 
0 
0 
0 
0 
0 
0 
0 
0 
0 
0 
0 
0 
0 
0 
0 
0 
0 
0 
0 
0 
0 
0 
0 
0 
0 
0 
0 
0 
0 
0 
0 
0 
0 
0 
0 
0 
0 
0 
0 
0 
0 
0 
0 
0 
0 
0 
0 
0 
0 
0 
0 
0 
0 
0 
0 
0 
0 
0 
0 
0 
0 
0 
0 
0 
0 
0 
0.01391240807232221 
0 
0 
0 
0 
0 
0 
0 
0 
0 
0 
0.01481093784006891 
0 
0 
0 
0 
0.007765759836332709 
0 
0 
0 
0 
0 
0 
0 
0 
0 
0 
0 
0 
0 
0 
0 
0 
0 
0 
0 
0 
0 
0 
0 
0 
0 
0 
0 
0 
0 
0 
0 
0 
0 
0 
0 
0 
0 
0 
0 
0 
0 
0 
0 
0 
0 
0 
0 
0 
0 
0 
0 
0 
0 
0 
0 
0 
0 
0 
0 
0 
0 
0 
0 
0 
0 
0 
0 
0 
0 
0 
0 
0 
0 
0 
0 
0 
0 
0 
0 
0 
0 
0 
0 
0 
0 
0 
0 
0 
0.02243710309275109 
0 
0 
0 
0 
0 
0 
0 
0 
0 
0 
0 
0 
0 
0 
0 
0 
0 
0 
0 
0 
0 
0 
0 
0 
0 
0 
0 
0 
0 
0 
0 
0 
0 
0 
0 
0 
0 
0 
0 
0 
0 
0 
0 
0 
0 
0 
0 
0 
0 
0 
0 
0 
0 
0 
0 
0 
0 
0 
0 
0 
0 
0 
0 
0 
0 
0.01395271451797877 
0.01395271451797877 
0.01395271451797877 
0 
0 
0 
0 
0 
0 
0 
0 
0 
0 
0 
0 
0 
0 
0 
0 
0 
0 
0 
0 
0 
0 
0 
0 
0 
0 
0 
0 
0 
0 
0 
0 
0 
0 
0 
0 
0 
0 
0 
0 
0 
-8.673617379884035e-19 
-8.673617379884035e-19 
0 
0 
0.005715741912129024 
0.004869973823167742 
0.03048632892321381 
0.03048632892321381 
0.03048632892321381 
0.03048632892321381 
0 
0 
0 
0 
0 
0 
0 
0 
0 
0 
0 
0 
0 
0 
0 
0 
0 
0 
0 
0 
0 
0 
0 
0 
0.02306751310831018 
0.02306751310831018 
0 
0 
0 
0 
0 
0 
0 
0 
0 
0 
0 
0 
0 
0 
0 
0 
0 
0 
0 
0 
0 
0 
0 
0 
0 
0 
0 
0 
0 
0 
0 
0 
0 
0 
0 
0 
0 
0 
0 
0 
0 
0 
0 
0 
0 
0 
0 
0 
0 
0 
0 
0 
0 
0 
0 
0 
0 
0 
0 
-0.04736295262280675 
0 
0 
0 
0 
0 
0 
0 
0 
0 
0 
0 
0 
0 
0.0400962220917537 
0 
0 
0 
0 
0 
0 
0 
0 
0.04004494141118344 
0 
0 
0 
0 
0.05030826788310633 
-0.02261463392217944 
0 
0 
0 
0 
0 
0 
0 
0 
0 
0 
0 
0 
0 
0 
0 
0 
0.01142786757506096 
0 
0.003064807147271565 
0.003064807147271565 
0 
-0.007708827618298334 
-0.008249001044350278 
-0.008249001044350278 
0 
0 
0 
0 
0 
0 
0 
0 
0 
0 
0 
0 
0 
0 
0 
0 
0 
0 
0 
0 
0 
0 
0 
0 
0.004046286600106036 
0 
0 
0 
0 
0 
0 
0 
0 
0 
0 
0 
0 
0 
0 
0 
0 
0 
0 
0 
0 
0 
0 
0 
0 
0.007349957880602477 
0 
0 
0 
0 
0 
0 
0 
0 
0 
0 
0 
0 
0 
0 
0 
0 
0 
0 
0 
0 
0 
0 
0 
0 
0 
0 
0 
0 
0 
0 
0 
0 
0 
0 
0 
0 
0 
0 
0 
0 
0 
0 
0 
0 
0 
0 
0 
0 
0 
0 
0.03894457113467196 
0 
0 
0 
0 
0 
0 
0 
0 
0 
0.03873632010057205 
