SVM-light Version V6.20
0 # kernel type
3 # kernel parameter -d 
1 # kernel parameter -g 
1 # kernel parameter -s 
1 # kernel parameter -r 
empty# kernel parameter -u 
575 # highest feature index 
36 # number of training documents 
2 # number of support vectors plus 1 
0 # threshold b, each following line is a SV (starting with alpha*y)
1 1:-0.34530327 3:-0.059478458 4:-0.047048338 5:-0.019132519 6:-0.01681627 7:-0.013056991 8:-1.6110881e-17 9:-0.040487144 10:-0.047048338 11:-1.2721488e-18 12:-0.019132519 13:-1.5144629e-18 14:4.2218566e-18 15:-1.2721488e-18 16:-0.037882157 17:-0.042129841 18:-0.017262187 19:-0.021232368 20:-0.047755968 21:-0.0211141 22:-0.0076750764 23:-0.0044701155 24:-0.047755968 25:-0.081448339 26:-0.081448339 27:-0.083168916 28:-0.024374904 29:-0.063902579 30:-0.017509671 31:-0.017509671 32:-0.067684434 33:-0.044853583 34:-0.02787767 35:0.013775104 36:0.006996152 37:0.0011929192 38:0.0020108663 39:-0.019652292 40:-0.0091813989 41:-0.035785347 42:-0.0042923102 43:0.007742872 44:0.007742872 45:-0.011836348 46:-0.011836348 47:-0.039115351 48:-0.011836348 49:-0.011836348 50:-0.0091813989 51:-0.059810694 52:-0.051157914 53:-0.031236872 54:-0.043652166 55:-0.038943831 56:-0.028252495 57:-0.051544789 58:-0.026921514 59:-0.033296715 60:-0.033296715 61:-0.012468291 62:-0.055231262 63:-0.017648779 64:-0.013246476 65:-0.012468291 66:-0.012468291 67:-0.012468291 68:-0.013246476 69:-0.013246476 70:-0.012854584 71:-0.012854584 72:-0.013726698 73:-0.012854584 74:-0.011362033 75:-0.050422385 76:-0.031444423 77:-0.031444423 78:-0.031444423 79:-0.031444423 80:-0.044330064 81:-0.044330064 82:-0.044330064 83:-0.020866409 84:-0.020866409 85:-0.020866409 86:-0.020866409 87:-0.020866409 88:-0.04737195 89:-0.044629168 90:-0.058981963 91:-0.051437967 92:-0.032340825 93:-0.0044176523 94:-1.2721488e-18 95:-0.012497199 96:-0.015416114 97:-1.5144629e-18 98:-1.2721488e-18 99:-0.0044442308 100:-0.029308433 101:-0.0044176523 102:-1.2721488e-18 103:-1.2721488e-18 104:-1.2721488e-18 105:-1.5144629e-18 106:-0.012497199 107:-1.2721488e-18 108:-1.2721488e-18 109:-1.2721488e-18 110:-1.2721488e-18 111:-1.2721488e-18 112:-0.015406854 113:-0.017003166 114:0.003149512 115:-0.0074199913 116:-0.0040518004 117:-1.2721488e-18 118:-0.055450071 119:-0.062815458 120:-1.2721488e-18 121:-0.007530448 122:-1.2721488e-18 123:-0.011653635 124:-1.2721488e-18 125:-0.010644519 126:-0.017195856 127:-1.2721488e-18 128:-1.2721488e-18 129:-1.2721488e-18 130:-1.2721488e-18 131:-0.032893132 132:-1.2721488e-18 133:-1.2721488e-18 134:-0.0074737482 135:-0.0035069769 136:-0.0025866986 137:-0.0030130884 138:-0.0087902118 139:-0.0030130884 140:-0.0030130884 141:-0.0025866986 142:-0.018444018 143:-0.072832897 144:-0.047886577 145:-0.0017337603 146:-0.0017337603 147:-0.0014884116 148:-0.047886577 149:-0.019609299 150:-0.02590115 151:-0.019609299 152:-0.015031296 153:-0.010552687 154:-0.013795665 155:-1.2721488e-18 156:-0.015660267 157:-0.0064296387 158:-0.0064296387 159:-0.0064296387 160:-0.0063043842 161:-1.2721488e-18 162:-1.2721488e-18 163:-1.2721488e-18 164:-1.2721488e-18 165:-0.0065544914 166:-0.013885459 167:-0.0065544914 168:-0.0065544914 169:-0.0065544914 170:-0.0065544914 171:-0.0065544914 172:-0.0065544914 173:-0.037546191 174:-0.025455933 175:-0.025455933 176:-0.025455933 177:-0.025455933 178:-0.018279351 179:-0.018279351 180:-0.018279351 181:-0.018279351 182:-0.03935317 183:-0.061182842 184:-0.03935317 185:-0.017252188 186:-0.009841782 187:-0.009841782 188:-0.009841782 189:-0.009841782 190:-0.009841782 191:-0.009841782 192:-0.010644519 193:-0.012399155 194:-0.012399155 195:-0.012399155 196:-0.012399155 197:-0.030404059 198:-0.030404059 199:-0.030404059 200:-0.030404059 201:-0.088322699 202:-1.2721488e-18 203:-1.2721488e-18 204:-1.2721488e-18 205:-1.2721488e-18 206:-0.0080070971 207:-1.2721488e-18 208:-1.2721488e-18 209:-0.0086668739 210:-0.013699007 211:-1.2721488e-18 212:-1.2721488e-18 213:-1.2721488e-18 214:-1.2721488e-18 215:-1.2721488e-18 216:-1.2721488e-18 217:-1.2721488e-18 218:-1.2721488e-18 219:-1.2721488e-18 220:-1.2721488e-18 221:-1.2721488e-18 222:-1.2721488e-18 223:-1.2721488e-18 224:-1.2721488e-18 225:-1.5144629e-18 226:-0.013699007 227:-1.5144629e-18 228:-0.044330064 229:-0.044330064 230:-0.044330064 231:-0.059999991 232:-0.007226096 233:-0.0062035131 234:-0.007226096 235:-0.007226096 236:-0.007226096 237:-0.007226096 238:-0.0062035131 239:-0.007226096 240:-0.007226096 241:-0.014590215 242:-0.029311838 243:-0.0066743949 244:-0.0066743949 245:-0.026094863 246:-0.043587193 247:-0.062859051 248:-0.01269613 249:-0.063988 250:0.16114099 251:0.030942857 252:0.030942857 253:0.030942857 254:0.030942857 255:0.13691629 256:0.005015335 257:-1.2484199e-17 258:-4.4752775e-18 259:-0.010456189 260:-0.010456189 261:-0.010512521 262:-0.0037404674 263:-0.0037404674 264:-0.014130116 265:-1.2721488e-18 266:-0.0037404674 267:-0.0037404674 268:-1.2721488e-18 269:-0.0056950874 270:-0.0056950874 271:-0.0056950874 272:-0.0056950874 273:-0.0056950874 274:-0.0056950874 275:-0.0056950874 276:-0.0056950874 277:-0.0056950874 278:-0.0056950874 279:-0.0056950874 280:-0.0048220837 281:-0.0080537805 282:-0.012297825 283:-0.0014430804 284:-0.0014430804 285:-0.0014430804 286:-0.0014430804 287:-0.042002805 288:-0.087277591 289:-0.068386689 290:-1.5144629e-18 291:4.2218566e-18 292:-0.016766913 293:-1.5144629e-18 294:-1.2721488e-18 295:-1.5144629e-18 296:-0.0091772228 297:-1.2721488e-18 298:-1.2721488e-18 299:-0.0055501112 300:-0.0043406151 301:-0.060024459 302:-0.009841782 303:-0.009841782 304:-0.009841782 305:-0.009841782 306:-0.009841782 307:-0.048755683 308:-0.055154968 309:-0.0079382798 310:-0.0079382798 311:-0.0079382798 312:-0.0079382798 313:-0.0068149138 314:-0.060785148 315:-0.010461126 316:-0.017357126 317:-0.0087717623 318:-0.0087717623 319:-0.0087717623 320:-0.067431867 321:-1.2721488e-18 322:-0.041800193 323:-1.5144629e-18 324:-1.5144629e-18 325:-8.9469809e-19 326:-1.2721488e-18 327:-1.2721488e-18 328:-0.020964956 329:-0.0029617252 330:-0.002542604 331:-0.0029617252 332:-0.0029617252 333:-0.0029617252 334:-0.0029617252 335:-0.0029617252 336:-0.0029617252 337:4.2218566e-18 338:-1.2721488e-18 339:-0.021406388 340:0.020880044 341:-0.001084526 342:-0.0012632986 343:-0.0055287569 344:-0.014949199 345:-0.0012632986 346:-0.0012632986 347:-0.0085772304 348:-0.008037529 349:-0.0093624294 350:-0.0093624294 351:-0.0093624294 352:-0.008037529 353:-1.3466686e-17 354:-1.3466686e-17 355:-1.3466686e-17 356:-1.3466686e-17 357:0.043047357 358:0.043047357 359:0.043047357 360:0.043047357 361:0.041670319 362:0.013824876 363:0.013824876 364:0.013824876 365:-0.017660296 366:-0.017660296 367:-0.017660296 368:-0.017660296 369:-0.019264247 370:-0.013724601 371:-0.013724601 372:-0.013724601 373:-0.013724601 374:-0.013724601 375:-0.0051768147 376:-0.0051768147 377:-0.0051768147 378:-0.0051768147 379:-0.0051768147 380:-0.0051768147 381:-0.0051768147 382:-0.0051768147 383:-0.0051768147 384:-0.0051768147 385:-0.0051768147 386:-0.077140577 387:-0.017110813 388:-0.017110813 389:-0.017110813 390:-0.017110813 391:-0.033313353 392:-0.024693521 393:-1.2721488e-18 394:-1.2721488e-18 395:-0.01721403 396:-0.024693521 397:-0.021174589 398:-0.022224333 399:-1.1139868e-17 400:-1.1139868e-17 401:-1.2484199e-17 402:-0.00053970201 403:-0.021952964 404:-1.2721488e-18 405:-1.2721488e-18 406:-1.2721488e-18 407:-1.2721488e-18 408:-1.2721488e-18 409:4.2218566e-18 410:-0.006464988 411:-0.006464988 412:-0.006464988 413:-0.006464988 414:0.12286237 415:-1.2721488e-18 416:-1.5144629e-18 417:-1.2721488e-18 418:-1.2721488e-18 419:-0.020064894 420:-1.2721488e-18 421:-1.5144629e-18 422:-1.2721488e-18 423:-1.2721488e-18 424:-0.028547421 425:-0.0012227811 426:-0.0012227811 427:0.026561219 428:0.026561219 429:0.026561219 430:0.026561219 431:0.0083590746 432:0.0083590746 433:0.0083590746 434:0.0083590746 435:0.0083590746 436:-0.078045376 437:-0.01888597 438:-0.01888597 439:-0.01888597 440:-0.012993507 441:-0.0083867013 442:-0.0097691603 443:-1.5144629e-18 444:4.2218566e-18 445:-0.014410859 446:-0.014410859 447:-0.012371542 448:-0.014410859 449:-0.014410859 450:-0.057143513 451:-0.0016898065 452:-0.0018044506 453:-1.2721488e-18 454:-1.2721488e-18 455:-1.2721488e-18 456:-1.2721488e-18 457:-1.2721488e-18 458:-1.5144629e-18 459:-1.2721488e-18 460:-1.2721488e-18 461:-1.2721488e-18 462:-1.2721488e-18 463:-1.2721488e-18 464:-1.2721488e-18 465:-1.2721488e-18 466:-1.2721488e-18 467:-1.2721488e-18 468:-1.2721488e-18 469:-1.2721488e-18 470:-1.2721488e-18 471:-1.2721488e-18 472:-1.2721488e-18 473:-1.2721488e-18 474:-1.2721488e-18 475:-1.5144629e-18 476:-1.2721488e-18 477:-1.2721488e-18 478:-1.2721488e-18 479:-1.2721488e-18 480:-1.2721488e-18 481:-1.2721488e-18 482:-1.2721488e-18 483:-1.2721488e-18 484:-1.2721488e-18 485:-1.2721488e-18 486:-1.2721488e-18 487:-1.2721488e-18 488:-1.2721488e-18 489:-1.2721488e-18 490:-1.5144629e-18 491:-1.2721488e-18 492:-1.2721488e-18 493:-1.2721488e-18 494:-1.2721488e-18 495:-1.2721488e-18 496:-1.5144629e-18 497:-1.5144629e-18 498:-1.2721488e-18 499:-1.2721488e-18 500:-1.2721488e-18 501:-1.5144629e-18 502:-1.2721488e-18 503:-1.2721488e-18 504:-0.047755968 505:-0.0044701155 506:-0.047755968 507:-0.051157914 508:-0.00062866614 509:-0.00062866614 510:-0.00062866614 511:-0.012916796 512:-0.00062866614 513:-0.00062866614 514:-0.00062866614 515:-0.00062866614 516:-0.00062866614 517:-0.00062866614 518:0.02085555 519:0.02085555 520:0.02085555 521:0.02085555 522:0.02085555 523:0.02085555 524:0.02085555 525:0.02085555 526:0.02085555 527:0.02085555 528:-0.0080116149 529:-0.0080116149 530:-0.0080116149 531:-0.013755742 532:-0.02375159 533:-0.02375159 534:-0.0080116149 535:-0.0080116149 536:-0.0080116149 537:-0.014596516 538:-0.014596516 539:-0.014596516 540:-0.014596516 541:-0.046710316 542:-1.2721488e-18 543:-1.5144629e-18 544:-1.5144629e-18 545:-0.046710316 546:-1.2721488e-18 547:-1.2721488e-18 548:-1.2721488e-18 549:-0.018471232 550:-0.01585732 551:-1.2721488e-18 552:-0.052664611 553:-0.060217358 554:-0.0087717623 555:-0.0097405463 556:-0.0087717623 557:-0.0087717623 558:-0.0097405463 559:-0.0087717623 560:-0.0088087637 561:-0.0088087637 562:-0.0088087637 563:-0.0025744101 564:-0.0025744101 565:-0.0025744101 566:-1.2721488e-18 567:-1.2721488e-18 568:-1.2721488e-18 569:-1.2721488e-18 570:-1.2721488e-18 571:-1.5144629e-18 572:-1.2721488e-18 573:-1.2721488e-18 574:-1.2721488e-18 #
