SVM-light Version V6.20
0 # kernel type
3 # kernel parameter -d 
1 # kernel parameter -g 
1 # kernel parameter -s 
1 # kernel parameter -r 
empty# kernel parameter -u 
3369 # highest feature index 
30 # number of training documents 
2 # number of support vectors plus 1 
0 # threshold b, each following line is a SV (starting with alpha*y)
1 1:-0.49880049 3:-0.03731849 4:-0.048490595 5:-0.011598833 6:-0.034448907 7:-0.016288491 8:-1.7827674e-17 9:-0.040107332 10:-0.0075224675 11:-0.026253946 12:-0.047228113 13:-0.049136683 14:-0.021771533 15:-0.018645193 16:-0.038836431 17:-0.050485276 18:-0.005079648 19:1.5686632e-17 20:-1.4589213e-18 23:-0.00874558 25:-0.006613235 26:-0.0008652457 27:-0.011762812 28:-2.6594113e-17 29:1.8978888e-18 30:-0.0022744345 31:-0.018440574 32:-0.053225908 33:-0.038906623 34:-0.022259036 35:-0.028420176 36:-0.019396173 37:-0.0016667615 40:-0.029718507 41:-0.0027661289 42:-0.027239725 43:-0.021788849 44:-0.035158236 45:-0.0029515619 46:-0.0027661289 47:-0.0013882789 48:-0.029262016 49:-0.021395119 50:-0.029331364 51:-0.018155938 52:-0.011692225 53:-0.026755637 54:-0.059264366 55:-0.0075750197 56:-0.0022370922 57:-0.0022370922 58:1.5686632e-17 59:-0.035328612 60:-0.017121868 61:-0.042827375 63:-0.029630395 65:-0.019856298 66:-0.03166588 67:-0.020896321 68:-0.017121868 70:-0.0029997372 72:-1.4589213e-18 76:-0.018278943 77:-0.018922012 78:-0.022251595 79:-0.02996801 80:-0.0073912651 81:-0.0051947022 82:-0.015002573 83:-0.015964258 84:-0.024066333 85:-0.027311968 86:-0.015567272 87:-2.6594113e-17 88:-0.0003123912 89:-0.0066495067 90:-1.4589213e-18 91:-0.00078361575 92:-2.7626977e-17 93:1.4158853e-18 94:-0.0017842242 95:-0.0020782615 96:-0.0014499454 97:-1.4589213e-18 98:-0.028024539 99:-0.035223797 100:-0.014056355 101:-0.026320111 102:-0.031963591 103:-0.052418098 104:-0.0033974843 105:-0.053748172 106:-0.0020271286 107:-0.0025501139 108:-0.0033974843 109:-0.0033974843 110:-0.016693497 111:-0.022148164 112:-0.0077351569 113:-0.0040472429 114:-0.048805766 115:-0.0080567654 116:-0.004506384 117:-0.0042951899 118:-0.0031840361 119:-1.4589213e-18 121:-0.048966348 122:-0.041676156 123:-0.019707439 124:-0.0053242864 125:-0.010651093 126:2.6787774e-17 127:-0.0040332298 128:-0.0048744767 129:-0.0053242864 131:-2.6594113e-17 132:-0.028488277 133:-0.0041399696 134:-0.014822587 135:-0.012848711 136:-0.020422302 137:-0.023165487 138:-0.023622928 140:-0.014436397 141:-0.027531788 142:-0.0023972807 143:-0.021320185 144:-0.012673955 150:2.8515672e-17 151:-0.025719121 152:1.8978888e-18 154:-1.4589213e-18 156:-1.0771917e-17 157:-0.014822587 158:-0.012848711 159:-0.012852931 160:-0.017840441 161:-0.041157804 162:-0.0079085054 163:-0.019098911 164:-0.0073352493 165:-0.0064500743 166:-0.001616928 168:2.6787774e-17 169:-0.014954478 170:0.0023558848 171:-0.014954478 172:-0.014954478 173:-0.0034866326 174:-0.039077818 175:-0.0016861984 176:-0.0047329525 177:-0.0016861984 178:-0.0017992361 179:-0.012974019 180:-0.0078365887 181:-0.0022654443 182:-0.0019721831 183:-0.027879542 184:-0.0044421479 185:-0.0052676024 188:-0.001419362 189:-0.0053062835 190:-0.0045117666 191:-0.0044133211 197:-1.0771917e-17 201:-0.0096951248 203:1.5686632e-17 204:-0.0095118238 205:-0.038677428 206:-0.022850262 207:-0.011358409 208:-0.026657922 209:-0.0021464671 210:2.8515672e-17 211:-0.0060895467 212:-0.010515096 213:-0.0033515645 214:-2.746344e-17 216:-0.010123674 217:4.6201326e-17 218:-0.0048844791 219:-0.01550988 220:-0.058997255 221:-0.00033962881 222:-0.00036916812 223:-1.4589213e-18 224:-0.0094486875 225:-0.016814658 226:-1.4589213e-18 227:-0.011100396 228:-0.00060378289 231:-1.0771917e-17 232:-0.024565926 233:2.6787774e-17 234:1.4158853e-18 235:-0.0034992418 236:-0.017153872 237:-0.013945326 238:-0.010744997 239:-0.021474637 240:-0.0015753864 241:-0.018719824 242:-0.012106706 243:-0.01511157 244:-0.0072767134 245:-0.019983193 246:-0.012518915 247:-0.002146472 248:-0.008462375 249:-0.002146472 250:-0.019335352 251:-0.025948383 252:-0.025948383 253:-0.025948383 254:0.0009551596 255:-1.0771917e-17 256:-0.019617124 257:-0.012421243 258:-0.0033015094 259:-1.5536005e-17 260:-0.0055631394 261:-0.0067028087 262:-0.001047598 263:-0.0010999261 264:-0.0011736619 265:-0.0010999261 266:-0.0011736619 267:-0.017927047 268:-0.022493649 269:-0.014493423 270:-0.0049223593 271:-0.014080204 272:-0.010013433 273:-0.0049223593 274:-0.0039667678 275:-0.0049223593 276:-0.0049223593 277:-0.0049223593 278:-0.0090286518 279:-0.03539671 280:-0.00039464657 281:1.7491993e-17 284:-0.031194611 285:-0.011543549 286:-0.00044864221 287:-0.038273778 289:-0.0031535469 290:-0.0033015094 291:-0.0033015094 294:-0.035841893 295:-1.5062609e-18 296:9.7347495e-18 297:-0.012340283 298:-0.010300458 299:-0.0092894025 300:-0.0092894025 301:-0.008705792 302:-0.011255993 303:-0.0092894025 304:-0.029847872 306:-0.0042257002 307:-0.0063207424 308:1.5686632e-17 309:-1.4589213e-18 310:-0.0024748221 311:-1.4589213e-18 312:-0.0092082219 313:-0.0046049794 314:1.5686632e-17 316:-0.011181713 317:-0.0062040961 318:-0.041839752 320:-1.0771917e-17 321:-1.4589213e-18 322:-1.4589213e-18 323:-0.00079524942 324:-0.0019217995 325:4.4350777e-17 326:-6.2587291e-17 327:-1.5062609e-18 328:-0.00033593833 329:4.6201326e-17 330:1.4158853e-18 331:-1.5062609e-18 333:-0.017067671 334:1.966316e-17 336:-1.4589213e-18 339:2.6787774e-17 341:-2.6594113e-17 342:-0.032294128 343:-1.4589213e-18 344:-0.0087846024 345:-1.0771917e-17 346:-0.00041967779 347:-0.027159268 348:-0.026877398 349:-0.033070263 350:-0.037960786 351:-0.017381923 352:2.6787774e-17 353:1.5686632e-17 354:-0.033784363 355:-0.0042971233 358:-1.4589213e-18 359:-1.4589213e-18 360:-1.0771917e-17 362:-1.0771917e-17 363:-1.4589213e-18 367:-0.011848284 368:1.4158853e-18 369:-0.011182457 370:-0.0087644486 371:-1.4589213e-18 372:-1.5062609e-18 373:-1.5062609e-18 375:-1.4589213e-18 376:-0.046000987 377:-0.012659715 378:-0.019217236 379:-0.022054931 380:-1.4589213e-18 381:2.6787774e-17 382:-0.012659715 383:-0.020122685 384:-0.0079211341 385:-0.0043233051 386:-0.026567809 387:-0.0079211341 391:-0.0014962403 393:-0.026567809 394:-0.0095133297 395:-0.030937118 398:-0.047142465 399:-0.026955603 400:-0.031347729 401:-0.029856386 402:-0.021351058 403:-0.021351058 404:-0.022417555 405:-0.025948383 406:-0.025948383 407:-0.025948383 408:2.6787774e-17 409:-0.0020064446 410:-0.020925298 411:-0.0016648442 412:-0.001616928 413:-0.0020064446 414:-0.0020064446 415:-0.0028077776 416:-0.017354583 417:-0.0028077776 418:-0.0028077776 419:-0.011687067 420:-0.0021533489 421:-1.4589213e-18 422:-0.010178393 423:2.6787774e-17 424:-0.026567809 425:-0.028348837 426:-0.026567809 427:-0.010474067 428:-0.0086022215 429:-0.0050709876 430:-0.0047139749 433:-0.0091587091 434:-1.4589213e-18 435:-0.020687548 436:-0.0070830463 437:-0.016060434 438:-0.00049117778 439:-0.00055838085 440:-0.0083836839 441:-0.0070830463 442:-0.0042795679 447:2.6787774e-17 448:1.8978888e-18 449:-0.038133889 450:-0.031002181 451:-0.027391106 452:-5.1168574e-18 453:-0.028614186 454:-0.015065962 455:-0.0076976009 457:-0.00074404693 458:-1.4589213e-18 459:-0.0050349422 461:-0.006051464 462:-0.010305945 463:-0.013608424 465:-0.0007532491 466:-0.0084835235 467:-1.4589213e-18 468:-1.4589213e-18 470:-1.4589213e-18 471:1.8978888e-18 472:-0.0025471977 473:-0.015555253 474:-5.1168574e-18 475:-0.0024999373 476:-5.1168574e-18 477:-5.1168574e-18 478:-5.1168574e-18 479:-5.1168574e-18 480:-5.1168574e-18 481:-6.2543101e-18 483:-1.0771917e-17 484:2.8515672e-17 485:-0.0097872643 486:-1.5062609e-18 487:2.6787774e-17 488:1.8978888e-18 490:-0.009915608 491:-0.02360105 499:-0.013672736 500:-0.010041432 501:-0.0034246389 502:-2.746344e-17 503:-1.4589213e-18 504:-1.0771917e-17 505:-0.018254753 506:-0.013835425 507:-0.0054796045 508:-0.010563275 509:-0.0086442642 510:-0.025834113 511:-0.011018373 512:2.8515672e-17 513:-0.007440283 514:4.4350777e-17 515:-2.746344e-17 516:-1.0802043e-18 517:-0.0062444173 518:-0.0062444173 519:-0.0069163996 520:-0.0069163996 522:-0.039141148 523:-1.0802043e-18 524:-0.00219467 525:-0.0027952334 526:-0.0038880995 527:-0.026567809 528:-0.028348837 529:-0.026567809 530:-0.0058886292 531:-0.011917314 532:-0.0079429355 534:-0.0045117666 536:-0.0058886292 540:-0.0012899915 541:-0.0080545433 542:1.8978888e-18 543:-1.5062609e-18 545:2.4833939e-17 546:2.4833939e-17 550:-0.0045117666 553:-0.0052011791 554:-2.746344e-17 555:-0.0024067014 556:1.5395007e-17 558:-0.0052011791 559:-1.4589213e-18 560:-0.019221174 561:-0.011532565 562:-0.010031128 563:-0.017656617 564:-0.016283941 565:-1.5062609e-18 567:-1.4589213e-18 568:-1.0771917e-17 569:-0.0075484887 570:-1.4589213e-18 571:-0.0011804827 575:-0.0057370621 576:-0.00050412974 584:-0.0057370621 586:-1.0771917e-17 589:-0.033380844 591:-0.0025590849 595:-0.0046717557 596:1.8978888e-18 600:-0.00039310704 601:1.8978888e-18 602:-2.746344e-17 603:-2.746344e-17 604:-0.00039310704 605:4.3098429e-17 606:-0.0014013832 608:-0.040278483 609:-0.0080061238 610:-1.5062609e-18 612:-0.0029694012 613:-1.4589213e-18 614:-6.2543101e-18 617:-0.024430105 618:1.5686632e-17 619:-0.033303779 620:-0.0020970425 621:-1.4589213e-18 624:-0.0055525796 625:1.8978888e-18 626:2.8515672e-17 627:4.6201326e-17 628:-1.0771917e-17 629:-0.0098220091 630:-0.0070617534 631:-0.0060589821 632:-0.006618096 633:1.5686632e-17 634:-0.024470996 635:-0.013913743 636:1.5686632e-17 639:-0.0079499967 640:-1.0771917e-17 641:-0.0036502867 643:-0.0080866329 644:-0.00041705646 645:-0.00035105745 646:-1.4589213e-18 647:-0.0057856645 648:-0.0041111493 649:-0.0060188798 650:-0.0041111493 651:-0.0041111493 652:-0.0041111493 653:-0.0041111493 654:-0.0013873394 655:-1.4589213e-18 656:1.8978888e-18 657:-1.4589213e-18 658:-0.00036984531 659:-0.014552988 660:-0.0012633987 661:-0.047411427 662:-0.0013480932 663:-0.0010863842 664:-0.0012633987 665:-0.0013480932 666:-0.034344256 668:-0.0047339178 669:-0.0045976699 670:-0.0020225744 671:-0.0023749943 672:-0.0021581617 673:-0.0043957555 674:-0.0021581617 675:-0.0020225744 676:-0.0020225744 677:-0.0023749943 678:-0.0021581617 679:-0.0021581617 680:-0.0021581617 681:-1.5062609e-18 683:-0.00109868 684:-0.0047379015 686:-1.4589213e-18 687:-1.4589213e-18 688:-1.0771917e-17 690:-1.4589213e-18 691:-0.0034510603 692:-0.0015709782 693:-0.0034510603 694:-0.0016762919 695:-0.0016762919 696:-0.0016762919 698:-1.4589213e-18 699:-0.00078361575 703:-0.017409338 719:-0.012883029 721:-1.4589213e-18 722:-1.0771917e-17 724:-0.0034428667 727:-0.017673563 728:-0.0080866329 729:-0.00050263008 730:-0.019575473 731:-0.0061367964 732:-1.4589213e-18 733:-1.4589213e-18 734:-1.0771917e-17 735:-0.0047816602 736:-0.025948383 737:-0.025948383 738:-0.025948383 739:-0.0057953382 740:-0.0061838403 741:-0.0061838403 742:-0.0061838403 743:-0.0032455549 744:-0.02450243 746:-0.017299714 749:-0.004287506 753:9.7347495e-18 755:-0.012004402 756:-0.0049223593 757:-0.012004402 760:-0.0003630686 763:-0.00044864221 768:-0.018582847 770:-1.4589213e-18 774:-1.4589213e-18 775:-0.0057056411 776:-0.0054414896 777:-0.0055849771 778:-0.0028801493 779:-0.0028801493 780:-0.0043575382 781:-1.4589213e-18 782:-0.0039649452 783:-0.0038508293 784:-0.00090010819 786:-0.011375088 787:-0.014987136 788:-0.013269193 789:1.8978888e-18 790:4.6201326e-17 791:1.8978888e-18 792:-1.4589213e-18 794:-0.008741539 795:-0.0031840361 796:-0.018189747 797:-0.0031840361 800:-0.0031840361 801:-0.0031840361 802:-0.0031840361 803:-0.0038781138 804:-0.0084441816 805:-0.010600716 809:-0.010600716 810:1.5686632e-17 814:1.5686632e-17 818:-1.4589213e-18 819:1.5686632e-17 820:-1.4589213e-18 824:-1.0771917e-17 825:-0.030934971 826:-0.0045340154 828:-1.4589213e-18 829:-0.0046374295 830:-0.0045182859 831:-1.4589213e-18 834:1.8978888e-18 839:-1.4589213e-18 840:-0.022308437 841:-0.0081194527 842:-1.0771917e-17 844:-1.4589213e-18 845:-1.4589213e-18 849:-1.0771917e-17 850:1.8978888e-18 851:-1.0771917e-17 852:-0.0053660739 853:-0.00047105213 854:-0.0038107072 857:-1.4589213e-18 858:-0.0071050678 859:-1.0771917e-17 860:-1.4589213e-18 861:-0.011684244 863:-1.4589213e-18 864:-0.0068102814 865:-0.039989803 866:-0.010076568 867:2.6787774e-17 868:-0.0069518066 870:-0.00087791303 871:-0.013893942 872:-0.00087791303 873:-0.00082275778 874:-0.00087791303 875:-0.00087791303 876:-0.00087791303 877:-0.00087791303 878:-0.00087791303 879:-0.00087791303 880:-0.00087791303 882:-1.4589213e-18 883:-1.0771917e-17 887:-1.0771917e-17 890:-0.0073780445 891:-0.005275182 892:-0.0055386801 893:-0.0056075007 895:-1.0771917e-17 896:-0.005246894 897:-1.0771917e-17 898:-1.4589213e-18 899:-1.4589213e-18 900:-1.0771917e-17 901:-1.0771917e-17 903:2.6787774e-17 905:-0.0018238601 908:-1.4589213e-18 909:-0.0018973877 910:-0.010255063 911:-0.0096928105 912:-0.0058718813 916:-0.014064688 917:-0.01648948 918:-0.021662183 919:-0.0081307283 920:-0.009005703 921:-1.4589213e-18 922:-1.0771917e-17 923:-0.0035629962 924:-1.4589213e-18 925:-0.013522683 926:-1.4589213e-18 927:-1.4589213e-18 928:-1.4589213e-18 929:-1.4589213e-18 930:-1.0771917e-17 931:-1.4589213e-18 932:-0.010958181 933:-1.4589213e-18 934:-1.4589213e-18 935:-0.0014777099 941:-0.0044373074 942:-0.0045688027 945:1.8978888e-18 946:-1.4589213e-18 947:-0.0020225744 949:-0.00058627228 954:-0.0077331765 955:-0.0071887379 956:-0.0081194527 957:-0.0086637568 958:-1.4589213e-18 959:-1.4589213e-18 961:-1.4589213e-18 962:-1.4589213e-18 963:-1.4589213e-18 968:-1.0771917e-17 970:-1.4589213e-18 971:-1.4589213e-18 972:-0.010003861 973:-1.4589213e-18 974:-0.0074983779 976:-0.0021047045 977:-0.0041748467 978:-0.0021047045 979:-0.0021047045 980:-0.0061757602 981:-0.0021047045 982:-0.0021047045 983:-0.0032662856 984:-2.746344e-17 985:-0.0042233826 986:-1.0771917e-17 987:-0.025528731 988:-0.02860076 989:-0.026803905 990:-1.4589213e-18 993:-0.0015034872 994:-0.0066171787 995:-0.0015034872 996:-0.0015034872 997:-0.0015034872 998:-0.0015034872 999:-0.011952293 1000:-0.011952293 1001:-5.1168574e-18 1002:-1.4589213e-18 1003:-0.00058627228 1006:-1.4589213e-18 1008:-1.0771917e-17 1009:-1.4589213e-18 1015:-0.0063875602 1016:-0.00047018018 1017:-0.00047018018 1018:-0.0063875602 1019:-0.00047018018 1020:-0.00047018018 1021:-0.00047018018 1022:-0.00047018018 1024:-1.4589213e-18 1025:-0.0086547583 1026:-0.0062833857 1027:-0.0062833857 1028:-0.0086547583 1029:-0.0086547583 1032:-0.0038880995 1033:-1.4589213e-18 1034:-0.039589927 1035:-0.0024762976 1036:-0.01696313 1037:-0.01696313 1038:-0.01696313 1039:-0.0028843577 1040:-0.0028843577 1041:-0.0028843577 1045:-0.0027045042 1047:-1.0771917e-17 1048:-1.0771917e-17 1051:-1.4589213e-18 1054:-0.014263393 1055:-1.0771917e-17 1056:-0.001047598 1058:-0.0042741247 1061:-0.019252248 1062:-0.018536329 1063:-0.019252248 1066:-0.0046519404 1068:-0.011891808 1069:-0.0047139749 1072:-1.0771917e-17 1074:-1.0771917e-17 1075:-1.4589213e-18 1076:-1.4589213e-18 1077:-0.005275182 1089:-1.4589213e-18 1095:-0.0011125344 1096:-1.4589213e-18 1097:-1.4589213e-18 1102:-0.0072362684 1105:-1.4589213e-18 1106:-1.4589213e-18 1108:-0.0044782804 1109:-1.0771917e-17 1110:-1.4589213e-18 1115:-0.0031816317 1116:-1.0771917e-17 1117:-0.025868284 1118:2.6787774e-17 1119:4.6201326e-17 1121:2.8515672e-17 1122:-1.7883016e-18 1123:-0.005112607 1124:-0.0048559909 1125:-0.0039132838 1126:1.8978888e-18 1127:1.5686632e-17 1128:-1.0771917e-17 1129:-1.0771917e-17 1130:1.5686632e-17 1131:1.5686632e-17 1132:-1.0771917e-17 1134:-0.0022582712 1138:-0.0022582712 1139:-0.0039395215 1140:-1.4589213e-18 1141:-0.016873211 1142:-1.4589213e-18 1143:-0.015200003 1144:-0.00058627228 1145:-0.016602637 1147:-1.4589213e-18 1151:-0.00058627228 1153:-0.013988173 1155:-1.4589213e-18 1159:-0.025368545 1160:-0.03295356 1161:-1.0771917e-17 1163:-0.037174881 1164:-0.0021581617 1165:-0.016103297 1168:-0.01619627 1170:-0.01619627 1171:-1.4589213e-18 1173:-0.013511234 1174:-0.0047174455 1175:-0.0035062549 1176:-0.018036792 1177:-0.0035062549 1178:-0.0035062549 1179:-0.0089277634 1180:-0.0035062549 1183:-1.0771917e-17 1185:-1.0771917e-17 1186:-1.4589213e-18 1187:-1.4589213e-18 1189:-0.0045541762 1190:-2.1176818e-18 1191:-0.0045541762 1192:-0.0045541762 1193:-0.0032004789 1194:-1.4589213e-18 1195:-0.0097510703 1196:-0.010404753 1197:-0.0097510703 1198:-0.010404753 1199:-0.0079720933 1201:-1.4589213e-18 1202:-0.033145484 1203:-0.0063849138 1204:-0.033145484 1205:-0.0051453928 1206:-0.0063849138 1207:-0.0063849138 1208:-0.0083156889 1209:-0.0046070935 1210:-0.0046070935 1211:-0.0046070935 1212:-0.016170818 1213:-0.016170818 1215:-1.4589213e-18 1216:-1.4589213e-18 1217:-0.01405219 1218:-0.026785925 1220:-3.0155335e-19 1221:-0.028306955 1222:-1.0771917e-17 1223:-1.0771917e-17 1225:-0.007531934 1226:-0.0070587369 1227:-0.007531934 1228:-0.007531934 1229:-0.0049900478 1232:-1.4589213e-18 1234:-0.0053242864 1243:-1.4589213e-18 1249:-1.4589213e-18 1252:1.5686632e-17 1253:-0.0047617704 1254:-1.4589213e-18 1257:-0.015335352 1258:-0.0097998343 1259:-1.4589213e-18 1261:-1.4589213e-18 1262:-0.022167159 1264:-1.0771917e-17 1267:-1.4589213e-18 1270:-0.012883749 1271:-0.0089697698 1272:-0.0027379214 1273:-1.0771917e-17 1274:1.5686632e-17 1275:-0.0003630686 1278:1.5686632e-17 1279:-0.020938145 1280:-0.0012938099 1282:-0.0012938099 1285:-0.020938145 1286:-0.0078393724 1287:-0.0078393724 1288:-0.0078393724 1289:-0.008311932 1290:-0.0087839225 1291:-1.0771917e-17 1296:-0.0011736619 1297:-0.0011736619 1298:-0.0011736619 1299:-0.0020951959 1300:-0.0020951959 1302:1.5686632e-17 1303:-0.0029515619 1304:-0.0234644 1305:-0.006620802 1306:-0.00082275778 1307:1.5686632e-17 1308:-1.4589213e-18 1309:-1.0771917e-17 1310:-0.037168268 1311:-0.0012633987 1312:-0.0010863842 1313:-0.02005964 1314:-0.02005964 1315:-0.02005964 1316:-1.4589213e-18 1320:-0.0021047045 1321:-0.0079895174 1322:-0.0093117952 1323:-0.0083116088 1331:-1.4589213e-18 1337:-0.0050709876 1342:-0.0077971458 1343:-0.0071384227 1344:-1.4589213e-18 1345:-1.4589213e-18 1346:-1.4589213e-18 1347:-1.4589213e-18 1348:-0.010973193 1349:-0.010973193 1350:-0.010973193 1352:-0.0034428667 1353:-0.0041789431 1354:-0.0034428667 1356:-1.4589213e-18 1357:-0.0041789431 1358:-1.4589213e-18 1359:-0.0018803889 1360:-0.0020064446 1361:-0.0020064446 1362:-0.0036988002 1364:-0.0014761414 1370:-1.4589213e-18 1371:-0.001727208 1372:-1.4589213e-18 1373:-1.4589213e-18 1374:-1.4589213e-18 1376:-1.5062609e-18 1379:-0.0056005493 1380:-0.0056005493 1381:-0.027774859 1382:-0.027774859 1383:-0.027774859 1384:-0.0053911428 1385:-0.00087791303 1386:-0.00087791303 1387:-0.00087791303 1388:-0.00087791303 1389:-0.0059549101 1391:-0.0021365064 1392:2.8515672e-17 1393:-0.0067596869 1394:-0.0059248079 1395:-0.0060236314 1396:-0.0059248079 1397:-0.0059248079 1398:-0.0059248079 1399:-0.0059248079 1400:-0.0060236314 1405:1.5686632e-17 1406:-0.007668362 1407:-0.0043105339 1408:-0.0055196299 1409:-0.0081644366 1410:-0.011556658 1411:-0.010830606 1412:-0.011556658 1413:-0.011556658 1414:-0.015386955 1415:-0.018544123 1417:-0.010128873 1418:-0.012692868 1419:1.5686632e-17 1420:1.8978888e-18 1422:-1.4589213e-18 1425:1.5686632e-17 1427:-0.040368114 1428:-0.0019921632 1429:-0.0021257119 1430:-0.0021257119 1431:-0.0061297077 1432:-0.0019921632 1433:-0.0023685433 1434:-0.0023685433 1435:-0.0023685433 1436:-1.4589213e-18 1438:-1.0771917e-17 1439:-1.4589213e-18 1441:-0.00050263008 1442:-0.0016809001 1443:-0.00050263008 1444:-0.00050263008 1445:-0.0016809001 1446:-0.00050263008 1447:-0.00050263008 1448:-0.00050263008 1449:-0.00050263008 1450:-0.00050263008 1451:-0.00050263008 1452:-0.00050263008 1453:-0.0084338821 1454:-0.0084338821 1455:-0.0084338821 1463:-0.016017897 1464:-0.0033974843 1465:-0.0033974843 1466:-0.0031840361 1467:-0.0031840361 1468:-0.013917471 1469:-0.013676795 1470:-0.0040783719 1471:-0.0040783719 1472:-0.0038221467 1473:-0.0040783719 1474:-0.0040783719 1475:-1.4589213e-18 1476:-0.0040467931 1478:-1.4589213e-18 1479:-1.4589213e-18 1480:-0.0024370176 1481:-0.0013805431 1482:-0.0013805431 1483:-0.0013805431 1484:-0.0013805431 1485:-0.0013805431 1486:-0.0052101044 1487:-0.0013805431 1488:-0.0013805431 1489:-0.0013805431 1492:-0.0011736619 1493:-0.0011736619 1494:-0.0011736619 1495:-0.0046519404 1496:2.8515672e-17 1498:-1.0771917e-17 1499:-0.0077895173 1500:-1.4589213e-18 1503:-1.4589213e-18 1505:-1.4589213e-18 1508:-0.013859498 1509:-0.0047170678 1510:-0.0044207163 1511:-0.013859498 1512:-0.013859498 1513:-0.0064888862 1514:-1.4589213e-18 1519:-1.4589213e-18 1521:-1.4589213e-18 1522:-0.0157992 1523:-0.015609291 1524:-0.017487653 1525:-0.017487653 1526:-1.4589213e-18 1527:-1.4589213e-18 1528:-0.00047105213 1529:-0.0041203592 1530:-0.00050263008 1531:-0.00047105213 1532:-0.00047105213 1533:-0.0060236314 1534:-1.4589213e-18 1537:-0.0043374784 1538:-0.0043374784 1539:-1.7883016e-18 1540:-1.7883016e-18 1541:-3.0155335e-19 1542:-0.029459445 1543:-0.0052509066 1544:-1.0771917e-17 1549:-0.00058627228 1555:-1.4589213e-18 1560:-0.00058627228 1562:-0.011078063 1564:-1.4589213e-18 1567:-1.4589213e-18 1568:-0.0047991131 1570:-0.007830957 1571:-0.007830957 1572:-0.007830957 1573:-0.007830957 1574:2.6787774e-17 1575:1.5686632e-17 1581:-0.0038481888 1583:-0.0038481888 1586:-0.0053925393 1587:-0.0053925393 1588:-0.0053925393 1589:-0.0053925393 1590:-0.0061612767 1593:-1.4589213e-18 1595:-0.0017907312 1597:-1.4589213e-18 1598:-0.0077295895 1599:-0.0077295895 1600:-0.0077295895 1601:-0.0077295895 1602:-0.0058199107 1603:-0.0062100599 1604:-0.0062100599 1605:-0.00050263008 1606:-0.011700859 1607:-0.011700859 1608:-0.011700859 1609:-0.0052844025 1610:-0.0052844025 1611:-0.0052844025 1612:-1.1085628e-17 1613:-0.0043936451 1614:-3.514609e-19 1615:-3.514609e-19 1617:-1.4589213e-18 1619:1.5686632e-17 1622:-1.4589213e-18 1623:-0.0036114487 1624:-0.0036114487 1631:-0.032444321 1632:-0.00047018018 1633:-0.00047018018 1634:-0.004716801 1636:-1.4589213e-18 1637:-0.0011736619 1638:-0.037234697 1646:-0.0048142225 1647:-0.0048142225 1648:-0.0048142225 1651:-1.4589213e-18 1652:-1.4589213e-18 1659:-0.0048744767 1664:-0.0048917686 1665:-0.0077719176 1666:-0.005219698 1667:-0.005219698 1668:-0.005219698 1674:1.8978888e-18 1675:-0.0092233978 1676:-0.0092233978 1677:-0.0027952334 1678:-1.0771917e-17 1680:1.8978888e-18 1682:1.5686632e-17 1686:-1.4589213e-18 1688:-1.4589213e-18 1689:-0.00087791303 1690:-0.0025273236 1691:-0.0025273236 1692:-0.0025273236 1698:-0.033380844 1701:-1.5062609e-18 1702:-0.025948383 1703:-0.025948383 1704:-0.025948383 1707:-0.017640283 1714:-1.4589213e-18 1717:-0.0025273236 1719:-0.029321646 1720:-0.027479503 1725:-1.4589213e-18 1726:-1.4589213e-18 1727:-0.017282018 1729:-0.0073892213 1730:-1.0771917e-17 1733:-3.514609e-19 1734:-3.514609e-19 1735:-3.514609e-19 1736:-3.514609e-19 1737:-3.514609e-19 1738:1.5686632e-17 1743:-1.0771917e-17 1745:-0.0070446688 1746:-1.4589213e-18 1747:-0.0047605382 1748:-1.4589213e-18 1753:-0.0041111493 1754:-0.0041111493 1755:-0.0041111493 1756:-0.0041111493 1757:-0.0049900478 1758:-0.0055905306 1759:-0.0055905306 1761:-0.0027031468 1766:-1.4589213e-18 1767:1.5686632e-17 1769:-1.4589213e-18 1771:-1.4589213e-18 1772:-0.027815104 1776:-1.4589213e-18 1777:-0.036561519 1778:-0.011373976 1779:-0.01192731 1780:-0.0038571679 1781:-0.0083618034 1782:-1.0771917e-17 1789:-1.4589213e-18 1798:-0.012280552 1800:-0.0010070015 1803:-0.008741118 1804:-0.0076882853 1805:-0.008741118 1806:-0.008741118 1807:-3.514609e-19 1808:-3.514609e-19 1809:-1.0771917e-17 1810:-1.4589213e-18 1811:-1.0771917e-17 1812:-0.0070691844 1820:-1.4589213e-18 1822:-0.0012938099 1823:-0.0013805431 1824:-0.0041689803 1825:-0.0041689803 1826:-0.0041689803 1827:-0.0041689803 1830:-1.4589213e-18 1831:-1.4589213e-18 1833:-0.0012322579 1836:-1.4589213e-18 1838:-1.4589213e-18 1845:-1.0771917e-17 1846:1.5686632e-17 1847:-1.1399338e-17 1853:-0.0060071209 1854:-0.0060134279 1857:-0.0059254295 1858:-0.0066384729 1859:-0.0066384729 1860:-0.0066384729 1861:-0.0066384729 1862:-0.0066384729 1863:-0.032464903 1864:-0.0025273236 1865:-0.025948383 1866:-0.025948383 1867:-0.025948383 1868:-0.010973193 1869:-0.010973193 1870:-0.010973193 1872:-1.4589213e-18 1873:-1.4589213e-18 1874:-0.0035434063 1875:-0.0033207904 1876:-0.0035434063 1877:-0.0035434063 1878:-0.0035434063 1879:-0.0035434063 1880:-0.0033207904 1881:-0.0035434063 1882:-0.0035434063 1883:-1.4589213e-18 1884:-1.4589213e-18 1887:-1.4589213e-18 1890:-0.0090323314 1900:-0.0055593639 1905:-1.0771917e-17 1908:-0.006450756 1909:-0.0068831956 1910:-0.0068831956 1911:-0.006450756 1912:-0.0063456958 1913:-0.0055386801 1914:-0.0059099765 1915:-0.0059099765 1916:-0.0059099765 1917:-0.0059099765 1918:-1.0771917e-17 1919:-0.0056812107 1920:-0.0056812107 1921:-0.0056812107 1922:-0.0056812107 1923:-0.0056812107 1924:-0.0056812107 1928:-0.031950608 1929:-0.0045813294 1930:-0.0045813294 1931:-0.0045813294 1933:-0.0055905306 1934:-0.0070446688 1935:-0.0055905306 1936:-0.0055905306 1937:-0.0052393032 1938:-0.0055905306 1939:-0.0073965536 1940:-0.0055905306 1941:-1.0771917e-17 1942:-1.4589213e-18 1943:-0.014694469 1948:-1.4589213e-18 1949:-0.0048744767 1955:-0.0048744767 1956:-0.0050924406 1957:-0.0050363983 1958:-0.0047199843 1959:-0.0050363983 1960:-0.0050363983 1961:-0.0050363983 1962:-0.0050363983 1963:-0.0047199843 1964:-0.0035434063 1965:-0.0027175194 1966:-0.0056812107 1967:-0.0050709876 1968:-0.0056812107 1969:-0.0056812107 1970:-0.01367139 1972:-0.0037069265 1973:-0.0037069265 1976:-0.0020970425 1977:-0.00050263008 1978:-0.0039298427 1979:-0.0049368655 1980:-0.0049368655 1981:-0.00043125643 1982:-0.00047105213 1983:-0.00047105213 1984:-0.00047105213 1985:-0.00044864221 1986:-0.00044864221 1987:-0.00047105213 1988:-0.00047105213 1989:-0.00047105213 1990:-0.00047105213 1993:1.5686632e-17 1994:-0.0058750506 1995:-0.0042741247 1996:-0.0045606494 1997:-0.0045606494 2004:-1.4589213e-18 2006:1.8978888e-18 2007:-0.006097611 2008:-0.006097611 2009:-0.006097611 2010:-0.006097611 2015:1.8978888e-18 2018:-0.0023210298 2019:-0.0023210298 2021:-0.0074871192 2022:-0.0074871192 2023:-1.4589213e-18 2024:-1.4589213e-18 2025:-1.4589213e-18 2028:-1.4589213e-18 2031:-0.0043780468 2032:-0.0023685433 2033:-1.0771917e-17 2034:-1.0771917e-17 2035:-0.02055978 2036:-0.02055978 2039:-0.0053826622 2047:-1.4589213e-18 2048:-0.015075949 2052:-5.4683181e-18 2054:-1.4589213e-18 2061:-1.4589213e-18 2072:-0.0096747847 2073:-0.0048142225 2074:-0.010158045 2075:-0.0048142225 2076:-0.0048142225 2077:-0.0048142225 2078:-0.0048142225 2081:-0.0085083218 2082:-0.0090786945 2084:-1.4589213e-18 2088:-0.0087175565 2089:-0.011430072 2090:-0.00058627228 2091:-0.0027435226 2092:-0.0098437592 2093:-0.019354159 2106:-0.00047105213 2107:-0.0056307665 2115:-1.4589213e-18 2117:-1.4589213e-18 2118:-0.0025273236 2119:-0.0025273236 2120:-0.0025273236 2121:-0.0060247877 2122:-0.008816774 2126:-0.00055838085 2127:-0.00055838085 2128:-3.514609e-19 2129:-1.4589213e-18 2137:-1.1085628e-17 2139:-0.0044662552 2140:-1.4589213e-18 2141:-1.4589213e-18 2144:-0.0053826622 2145:-0.0053826622 2157:-0.006469036 2158:-0.006469036 2159:-0.006469036 2160:-0.0021581617 2161:-0.0021581617 2162:-0.0021581617 2163:-0.0021581617 2164:-0.0021581617 2172:-1.4589213e-18 2173:-0.025948383 2174:-0.025948383 2175:-0.025948383 2191:-0.0090717822 2192:-0.010933173 2193:-0.010933173 2194:-0.0038571679 2195:-0.0038571679 2196:-0.0038571679 2197:-0.0038571679 2198:-0.0038571679 2199:-0.0038571679 2203:-1.0771917e-17 2217:0.025710355 2218:-0.0066356841 2219:-0.0066356841 2220:-0.0063199969 2221:-0.0063199969 2223:-1.4589213e-18 2224:-0.0056812107 2225:-0.037813909 2228:-0.0060082367 2229:-0.0012032936 2230:-0.00047018018 2231:-0.00040341442 2232:-1.4589213e-18 2233:-1.1085628e-17 2239:-0.0056812107 2240:-0.016260467 2241:-0.026619403 2242:-0.016260467 2243:-0.016260467 2246:-1.4589213e-18 2248:-0.0053468104 2250:-1.4589213e-18 2254:-1.4589213e-18 2255:-1.4589213e-18 2256:-0.0042036152 2257:-0.0042036152 2258:-0.0042036152 2261:-0.017027808 2262:-0.017027808 2269:-1.4589213e-18 2271:1.8978888e-18 2272:-1.4589213e-18 2274:-1.4589213e-18 2275:-1.4589213e-18 2276:-0.00050263008 2277:-0.00050263008 2278:-0.00050263008 2279:-0.00050263008 2280:-0.00050263008 2281:-0.00050263008 2282:-0.00050263008 2283:-1.0771917e-17 2284:-1.0771917e-17 2285:-0.001790931 2287:-0.0011282043 2288:-0.001007023 2289:-0.0011282043 2290:-0.0011282043 2291:-0.0049223593 2292:-1.4589213e-18 2293:-0.00058627228 2296:-1.4589213e-18 2297:-0.00058627228 2304:1.5686632e-17 2306:-0.01087007 2307:-0.011598767 2308:-0.01087007 2309:-0.016050452 2325:-0.0040460364 2326:-0.0040460364 2327:-0.0040460364 2328:-0.019549491 2331:-1.4589213e-18 2333:-1.4589213e-18 2340:-1.4589213e-18 2343:-1.4589213e-18 2346:-1.4589213e-18 2347:-0.030642984 2361:-1.4589213e-18 2363:-0.02504693 2364:-0.026726002 2365:-0.026726002 2366:-0.0058644838 2367:-0.010807635 2368:-0.0025273236 2369:-0.0025273236 2375:-0.0012938099 2376:-0.0013805431 2377:-0.0013805431 2378:-0.0013805431 2379:-1.4589213e-18 2380:-0.0006255742 2381:-0.0006255742 2382:-0.0006255742 2383:-0.0006255742 2384:-0.0006255742 2385:-0.0006255742 2386:-0.0006255742 2387:-0.0006255742 2388:-0.0039035319 2389:-0.001047598 2390:-0.0011736619 2391:-0.0011736619 2393:-1.4589213e-18 2401:-1.0771917e-17 2402:-1.4589213e-18 2406:-0.003845552 2407:-0.00087791303 2408:-0.00082275778 2410:-1.0771917e-17 2411:-0.017612949 2412:-0.017612949 2413:-0.017612949 2414:-1.4589213e-18 2418:-1.4589213e-18 2419:-0.0006255742 2420:-1.4589213e-18 2428:-0.0053242864 2429:-0.0050709876 2431:-0.0011736619 2438:-1.4589213e-18 2439:-1.0771917e-17 2443:-0.0079198629 2444:-0.025948383 2445:-0.025948383 2446:-0.025948383 2447:-0.015857195 2448:-0.015857195 2449:-0.015857195 2450:-0.0097154044 2452:-0.0097154044 2456:-0.016602637 2458:-0.01947994 2459:-0.0047605382 2461:-0.011941714 2462:-0.011941714 2463:-0.011941714 2464:-0.011941714 2467:-0.0072618779 2468:-0.0077486923 2469:-0.0077486923 2471:-1.0771917e-17 2472:-1.0771917e-17 2473:-1.4589213e-18 2474:-1.4589213e-18 2478:-1.4589213e-18 2482:-0.0051407246 2483:-0.0057593393 2486:-1.0771917e-17 2487:-1.4589213e-18 2488:-1.4589213e-18 2489:-0.0026320189 2490:-0.0026320189 2491:-0.0024666612 2492:-0.0026320189 2493:-0.0026320189 2494:-1.4589213e-18 2496:-1.4589213e-18 2501:-1.4589213e-18 2502:-1.4589213e-18 2505:-5.1168574e-18 2507:-1.0771917e-17 2508:-1.4589213e-18 2510:-1.4589213e-18 2513:-0.0096977279 2514:-0.0024766249 2515:-0.0024766249 2516:-0.0024766249 2517:-0.0096977279 2519:-1.0771917e-17 2520:-0.02209769 2521:-0.02209769 2522:-0.023201482 2523:-0.0033207904 2533:-1.4589213e-18 2534:-0.009596155 2535:-0.009596155 2536:-0.009596155 2537:-0.009596155 2540:-0.00044864221 2541:-1.7883016e-18 2547:-0.012512817 2548:-0.012512817 2551:-0.010973193 2552:-0.010973193 2553:-0.010973193 2554:-0.0056812107 2555:-0.0056812107 2556:-0.0056812107 2557:-0.0056812107 2564:-0.0049223593 2565:-0.0049223593 2566:-0.018169302 2568:-0.0052681109 2571:-1.4589213e-18 2572:-0.0020064446 2573:-0.0020064446 2574:-0.0020064446 2575:-1.4589213e-18 2577:-1.4589213e-18 2579:-0.0025748848 2580:-0.0025748848 2581:-0.0025748848 2582:-0.0024131166 2583:-0.0025748848 2589:-0.002349312 2590:-0.002349312 2596:-1.4589213e-18 2600:-0.0053242864 2601:-0.014658128 2602:-0.0006255742 2603:-0.0006255742 2604:-0.0006255742 2605:-0.0062833857 2606:-0.0062833857 2607:-1.4589213e-18 2608:-1.4589213e-18 2609:-1.4589213e-18 2617:-0.0052011791 2622:-1.4589213e-18 2623:-0.0026320189 2624:-0.0024666612 2627:-1.4589213e-18 2629:-1.4589213e-18 2631:-1.4589213e-18 2632:-1.4589213e-18 2633:-1.4589213e-18 2634:-1.4589213e-18 2636:-1.4589213e-18 2643:-0.012108183 2644:-0.0055905306 2651:-0.0028801493 2655:-1.0771917e-17 2665:-1.0771917e-17 2668:-1.4589213e-18 2672:-1.0771917e-17 2677:-1.4589213e-18 2680:-1.4589213e-18 2681:-1.4589213e-18 2683:-1.4589213e-18 2684:-1.4589213e-18 2689:-1.4589213e-18 2709:-0.0006255742 2710:-0.0006255742 2711:-0.0006255742 2712:-0.0006255742 2713:-0.0006255742 2714:-0.0006255742 2715:-0.0006255742 2716:-0.0006255742 2718:-1.4589213e-18 2719:-1.4589213e-18 2720:-1.0771917e-17 2721:-0.03411511 2735:-0.00047018018 2736:-0.0057052448 2737:-0.0057052448 2738:-0.0011736619 2741:-0.0030299535 2742:-0.0030299535 2743:-0.0033318235 2748:-0.0096078441 2749:-0.0059248079 2750:-0.0059248079 2751:-1.4589213e-18 2757:-0.025948383 2758:-0.025948383 2759:-0.025948383 2760:-1.0771917e-17 2769:-1.4589213e-18 2777:-1.4589213e-18 2779:-1.4589213e-18 2781:-1.4589213e-18 2785:-1.4589213e-18 2792:-0.0029515619 2793:-0.0029515619 2794:-0.0029515619 2795:-0.0027661289 2796:-0.0029515619 2797:-0.0029515619 2798:-0.0029515619 2799:-0.0029515619 2800:-0.0029515619 2801:-0.0029515619 2802:-0.0029515619 2803:-0.0029515619 2813:-1.4589213e-18 2828:-0.0026073346 2829:-0.0018507233 2830:-0.0018507233 2831:-0.026781213 2832:-0.030003959 2833:-0.026781213 2834:-1.0771917e-17 2835:-0.014054268 2836:-0.014996423 2837:-0.014054268 2841:-0.0062576211 2842:-0.0062576211 2843:-0.0062576211 2851:-0.0010999261 2853:-1.4589213e-18 2854:-0.0082225492 2861:-0.003073226 2862:-0.003073226 2863:-0.003073226 2864:-0.003073226 2865:-0.003073226 2866:-0.003073226 2867:-0.003073226 2868:-1.4589213e-18 2869:-0.028348837 2872:-0.0038294748 2873:-0.0049900478 2874:-0.0052393032 2875:-0.0052393032 2876:-0.0052393032 2884:-1.4589213e-18 2885:-1.4589213e-18 2896:-0.0042652297 2898:-0.010853594 2899:-0.010853594 2900:-0.010853594 2903:-0.018847113 2907:-1.4589213e-18 2910:-0.0098780813 2911:-0.0055905306 2912:-0.0055905306 2913:-0.0055905306 2914:-0.0055905306 2915:-0.0055905306 2919:-1.4589213e-18 2925:-0.014830878 2926:-0.011535897 2927:-0.015571688 2928:-0.01081115 2929:-0.011535897 2930:-0.011535897 2931:-0.008797776 2932:-0.0091177803 2933:-0.0091177803 2934:-0.010214979 2939:0.026436234 2940:-3.514609e-19 2941:-1.4589213e-18 2950:-0.0021047045 2951:-0.0020515749 2952:-0.0020515749 2953:-0.0020515749 2954:-0.00050263008 2955:-0.005077194 2956:-0.005077194 2958:-0.0016555317 2959:-0.0016555317 2960:-0.0016555317 2962:-0.0050839595 2963:-0.0050839595 2964:-0.0050839595 2965:-0.0050839595 2966:-0.0050839595 2967:-0.0050839595 2968:-0.0050839595 2970:-1.4589213e-18 2977:-1.4589213e-18 2981:-1.4589213e-18 2991:-5.1168574e-18 2992:-0.0063511836 2993:-0.0059521683 2994:-0.0063511836 3010:-0.0040783719 3011:-0.0040783719 3012:-0.0040783719 3029:-1.4589213e-18 3043:-0.00050263008 3044:-0.00050263008 3045:-0.00050263008 3046:-0.00050263008 3063:-0.0072668227 3064:-0.0039078668 3065:-0.0039078668 3066:-0.0039078668 3067:-0.0039078668 3073:-1.4589213e-18 3075:-0.00050263008 3081:-0.010366696 3082:-0.007080521 3083:-0.00050263008 3084:-0.00050263008 3085:-0.00050263008 3091:-0.022707008 3092:-0.018004341 3093:-0.018004341 3094:-0.018004341 3097:-1.4589213e-18 3100:-0.010579593 3101:-0.010579593 3102:-0.010579593 3114:-1.4589213e-18 3134:-0.0042996551 3135:-0.0042996551 3142:-0.0086249346 3143:-0.0086249346 3144:-0.0086249346 3149:-1.4589213e-18 3151:-1.4589213e-18 3153:-1.4589213e-18 3156:-0.0077486923 3157:-0.0077486923 3158:-0.0077486923 3159:-1.4589213e-18 3161:-0.012295241 3162:-0.012295241 3163:-0.012295241 3164:-1.4589213e-18 3170:-0.010803279 3179:-1.4589213e-18 3181:-0.0011736619 3182:-0.015215931 3183:-0.015215931 3189:-0.0011282043 3190:-0.0011282043 3191:-0.0011282043 3192:-0.014933381 3193:-0.014933381 3194:-0.014933381 3202:-1.4589213e-18 3217:-2.1176818e-18 3218:-0.0050796708 3219:-0.0050796708 3220:-0.0050796708 3221:-0.0050796708 3248:-0.0033318235 3250:-3.514609e-19 3251:-3.514609e-19 3259:-0.003955428 3260:-0.003955428 3262:-0.0020061173 3263:-0.0020061173 3267:-0.010874933 3268:-0.010874933 3269:-0.010874933 3283:-0.0056812107 3284:-0.0056812107 3285:-0.0056812107 3286:-0.008906669 3289:-0.0021581617 3302:-0.0034333519 3305:-0.013351639 3306:-0.0033974843 3307:-0.0033974843 3327:0.035674721 3328:0.040368114 3329:0.035674721 3330:0.040368114 3335:-0.0152714 3336:-0.0152714 3337:-0.0152714 3342:-0.0016438421 3343:-0.0016438421 3344:-0.0016438421 3349:-0.0021047045 3350:-0.01067449 3353:-0.012761732 3354:-0.0023018662 3355:-0.0023018662 3356:-0.0023018662 3357:-0.0023018662 3358:-0.0023018662 3359:-0.0023018662 3360:-0.0090786945 3361:-0.0090786945 3362:-0.0090786945 3365:-0.0056812107 3366:-0.0056812107 3367:-0.0056812107 #
