SVM-light Version V6.20
0 # kernel type
3 # kernel parameter -d 
1 # kernel parameter -g 
1 # kernel parameter -s 
1 # kernel parameter -r 
empty# kernel parameter -u 
1289 # highest feature index 
31 # number of training documents 
2 # number of support vectors plus 1 
0 # threshold b, each following line is a SV (starting with alpha*y)
1 1:-0.2049367 3:-0.055761911 4:-0.032220181 5:-0.049082689 6:-0.018236261 7:-0.0092421016 8:-0.0092421016 9:-0.013069759 10:-0.032769829 11:-0.054672178 12:-0.0092421016 13:-0.0092421016 14:-0.0092421016 15:-0.0092421016 16:-0.013069759 17:-0.0092421016 18:-0.0092421016 19:-0.0092421016 20:-0.013069759 21:-0.021418689 22:-0.033052281 23:-0.017006202 24:-0.058780447 25:-0.032640811 26:-0.007022148 27:-0.016332533 28:-0.044307336 29:-0.0075122891 30:-0.018944759 31:-0.018480249 32:-0.030206816 33:-0.024948929 34:-0.012515076 35:-0.018854115 36:-0.026706643 37:-0.037503779 38:-0.012370441 39:-0.00873926 40:-0.026699994 41:-0.01911661 42:-0.0076603233 43:-0.007022148 48:-0.018944759 49:-0.0050419276 50:-0.0052154046 51:-0.023050508 52:-0.031134509 53:-0.018337144 54:-0.007148142 55:-0.012515076 56:-0.011585655 58:-0.0031423308 59:-0.010507599 60:-0.044529211 61:-0.04838524 62:-0.01972351 63:-0.01972351 64:-0.0046570902 65:-0.03564268 66:-0.03160904 67:-0.0075109731 68:-0.0073068668 69:-0.01972351 70:-0.0046570902 71:-0.0049269572 72:-0.0044231238 73:-2.4034223e-18 74:-0.002923019 75:-0.0039070989 76:-0.011999023 77:-7.210267e-18 78:-0.0043617198 79:-0.038998775 80:-0.02104627 81:-0.013669721 82:-0.0091858879 83:-0.078303255 84:-0.032405868 85:-0.032405868 86:-0.078303255 87:-0.032268025 88:-0.023312945 89:-0.030860772 90:-0.02185636 91:-0.015460053 92:-0.015460053 93:-0.015460053 94:-0.054710817 95:-0.0091858879 96:-0.015191367 97:-0.011092177 98:-0.018589009 99:-0.0070782346 100:-0.0096717868 101:-0.01032304 102:-0.011092177 103:-0.020573989 104:-0.02312861 106:-0.0076383343 107:-0.01948246 108:-0.018022753 109:-0.021129135 110:-0.016912008 112:-0.021939902 115:-0.031302869 116:-0.0047972309 117:-0.004403641 118:-0.041029409 119:-0.035896447 120:-0.040451784 121:-0.0098224124 122:-0.035013516 123:-0.010700324 124:-0.021773446 125:-0.010700324 126:-0.010700324 127:-0.011937394 128:-0.037961416 129:-0.018809432 130:-0.0078146756 131:-0.0032425469 132:-0.0084398352 133:-0.006184876 134:-0.0036174196 135:-0.0036174196 136:-0.023805786 137:-0.0036174196 138:-0.018809432 139:-0.0036174196 140:-0.0036174196 141:-0.0036174196 142:-0.0036174196 143:-0.0036174196 144:-0.0036174196 145:-0.0036174196 146:-0.0036174196 147:-0.018809432 148:-0.046042476 149:-0.017268084 150:-0.044515159 151:-0.010423662 152:-0.010423662 153:-0.0079821479 154:-0.0096496493 155:-0.010330704 156:-0.005836952 159:-0.016260304 160:-0.005836952 165:-0.016260304 166:-0.0076603233 167:-0.0040881964 168:-0.00533866 169:-0.0062229629 170:-0.00533866 171:-0.00533866 172:-0.00533866 173:-0.0062229629 174:-0.00533866 175:-0.00533866 176:-0.0047854153 177:-0.00533866 178:-0.00533866 179:-0.0083190333 180:-0.00533866 181:-0.017280675 182:-0.0072544757 183:-0.0058898209 184:-0.0066565545 185:-0.0058898209 186:-0.0058898209 187:-0.0058898209 188:0.033340909 189:-0.0058898209 190:-0.0058898209 191:-0.062408242 192:-0.0072544757 193:-0.0072544757 194:-0.0058898209 195:-0.0058898209 196:-0.0058898209 197:-0.0058898209 198:-0.0058898209 199:-0.0058898209 200:-0.0058898209 201:-0.0058898209 202:-0.0058898209 203:-0.0058898209 204:-0.062408242 205:-0.014047827 207:-0.0036330235 209:-0.0037848416 212:-0.014047827 217:-0.0036330235 222:-0.0037848416 229:-0.017266223 238:-0.00873926 240:-0.02854198 241:-0.014476443 242:-0.0049825786 243:-0.029636044 244:-0.010521905 245:-0.0049825786 246:-0.022171598 247:-0.015617861 248:-0.0049825786 249:-0.0049825786 250:-0.0049825786 251:-0.0049825786 252:-0.0049825786 253:-0.0049825786 254:-0.0049825786 255:-0.0049825786 256:-0.034963217 257:-0.031339981 258:-0.067905009 259:-0.051870555 260:-0.012973323 262:-0.012973323 267:-0.0509062 269:-0.02382791 270:-0.012428445 271:-0.033369713 274:-0.0080256872 275:-0.0002944124 276:-0.033369713 277:-0.033369713 280:-0.050665528 282:-0.023566635 285:-0.0073226639 286:-0.0095624598 287:-0.0095624598 288:-0.027557096 289:-0.021330988 290:-0.013239926 292:-0.023584124 293:-0.014000635 296:-0.041131157 297:-0.00066981162 299:-0.021233872 300:-0.042512067 302:-0.012895917 305:-0.014048533 308:-0.0067557693 309:-0.0067557693 310:-0.010793815 311:-0.0092211924 312:-0.0099082338 313:-0.0067557693 314:-0.0067557693 315:-0.012973323 316:-0.012973323 319:-0.012973323 320:-0.012973323 323:-0.0045721289 324:-0.0022927695 329:-0.0022927695 330:-0.0026837888 333:0.018926464 334:-0.012872681 335:0.018926464 336:-0.012872681 337:-0.012872681 338:-0.012872681 339:-0.012872681 340:-0.012872681 341:-0.039039563 342:-0.039039563 344:-0.033369713 346:-0.025528947 347:-0.013998153 348:-0.013998153 349:-0.013998153 350:-0.013998153 351:-0.013998153 352:-0.013998153 354:-0.0026837888 355:-0.011067081 356:-0.0088636195 357:-0.0072559174 358:-0.0029940631 359:-0.0093772449 360:-0.010961831 363:-0.033311073 365:-0.0050516766 366:-0.031583004 367:-0.031583004 368:-0.031583004 369:-0.031583004 370:-0.031583004 371:-0.014289696 376:-0.01427384 377:-0.011855134 378:-0.0016088662 390:-0.0043494035 395:-0.0052859257 396:-0.036779493 397:-0.022940567 398:-0.022940567 399:-0.020563239 400:-0.022940567 401:-0.022940567 403:-0.022552369 404:-0.011102463 405:-0.011102463 406:-0.022552369 407:-0.022552369 408:-0.021758361 409:-0.021758361 410:-0.017903373 411:-0.013601429 412:-0.013601429 413:-0.013601429 414:-0.013601429 416:-0.053094715 417:-0.053094715 419:-0.0049047475 420:-0.0049047475 421:-0.014450126 422:-0.0049047475 423:-0.0049047475 424:-0.0049047475 426:-0.0018829383 427:-0.0018829383 428:-0.0018829383 429:-0.0018829383 430:-0.0018829383 431:-0.0018829383 432:-0.0018829383 433:0.059282441 434:-0.0018829383 435:-0.0018829383 436:-0.0018829383 439:-0.001975016 444:-0.001975016 445:-0.0022033488 446:-0.0022033488 447:-0.0022033488 448:-0.0022033488 449:-0.001975016 450:-0.001975016 451:-0.0022033488 452:-0.0022033488 453:-0.0022033488 454:-0.0022033488 455:-0.0022033488 456:-0.0022033488 457:-0.0022033488 458:-0.0022033488 460:-0.010786877 461:-0.010786877 465:-0.0045721289 468:-0.011510731 472:-0.010786877 473:-0.010786877 474:-0.015566885 476:-0.004738146 477:-0.004738146 481:-0.013614056 482:-0.010245467 484:-0.010545244 485:-0.010545244 491:-0.021233872 492:-0.012033954 493:-0.012033954 494:-0.012033954 495:-0.0063574109 496:-0.0063574109 497:-0.0063574109 502:-0.0038543441 504:-0.0038543441 505:-0.00032072651 506:-0.0035381136 507:-0.0035381136 508:0.021004405 509:-0.015768368 510:-0.015768368 511:-0.015768368 513:-0.01427384 514:-0.015924048 515:-0.015924048 516:-0.01427384 517:-0.01427384 518:-0.015924048 519:-0.015924048 520:-0.015924048 521:-0.015924048 522:-0.0025374279 523:-0.0025374279 524:-0.0025374279 525:-0.0025374279 526:-0.0025374279 528:-0.0025374279 535:-0.0080895955 536:-0.0080895955 537:-0.0080895955 538:-0.0080895955 539:-0.0080895955 540:-0.0080895955 541:-0.0051007154 542:-0.0051007154 543:-0.0051007154 544:-0.0051007154 545:-0.0051007154 546:-0.0051007154 547:-0.0051007154 548:-0.0051007154 549:-0.0051007154 550:-0.0051007154 551:-0.0051007154 552:-0.0051007154 553:-0.0051007154 556:-0.017366583 557:-0.017366583 558:-0.017366583 559:-0.0509062 560:-0.0509062 561:-0.010550514 562:-0.011770264 563:-0.010550514 564:-0.010550514 565:-0.010550514 566:-0.010550514 570:-0.012600454 574:-0.014790904 575:-0.012354618 576:-0.012354618 577:-0.012354618 578:-0.012354618 579:-0.012354618 580:-0.012354618 581:-0.012354618 582:-0.0052358699 583:-0.0035381136 585:-0.0038543441 586:-0.0032437011 587:-0.0039421413 592:-0.010550514 593:-0.0049425182 594:-0.013614056 596:-0.032860797 597:-0.017128626 598:-0.014057199 599:-0.014057199 603:-0.030949876 604:-0.00066981162 606:-0.0024635964 609:-0.014473177 610:-0.014473177 611:-0.014473177 612:-0.014473177 613:-0.014473177 625:-0.004738146 632:-0.0066396976 633:-0.0059516267 634:-0.0066396976 635:0.059282441 636:0.059282441 637:0.059282441 638:-0.0050516766 639:-0.0050516766 640:-0.0050516766 641:-0.0050516766 642:-0.0050516766 643:-0.0050516766 644:-0.0019552906 645:-0.0019552906 646:-0.0019552906 647:-0.0019552906 648:-0.0019552906 649:-0.0019552906 650:-0.0019552906 651:-0.0058854381 652:-0.021533158 653:-0.0052859257 654:-0.0052859257 655:-0.0052859257 660:-0.0038170274 719:-0.011538687 777:-0.030949876 809:-0.0041014221 1190:-0.0022033488 1221:-0.011102463 1241:-0.0095203603 1243:-0.0015493329 1244:-0.039039563 1245:-0.013998153 1269:-0.011102463 1270:-0.013601429 1271:-0.053094715 1272:-0.0049047475 1273:-0.0018829383 1274:-0.0018829383 1275:-0.0022033488 1276:-0.0022033488 1277:-0.0022033488 1278:-0.0022744746 1280:-0.015768368 1281:-0.0025374279 1282:-0.0025374279 1283:-0.0025374279 1284:-0.0025374279 1285:-0.0025374279 1286:-0.0025374279 1287:-0.0025374279 1288:-0.0051007154 #
