SVM-light Version V6.20
0 # kernel type
3 # kernel parameter -d 
1 # kernel parameter -g 
1 # kernel parameter -s 
1 # kernel parameter -r 
empty# kernel parameter -u 
462 # highest feature index 
40 # number of training documents 
2 # number of support vectors plus 1 
0 # threshold b, each following line is a SV (starting with alpha*y)
1 1:-0.31330943 3:-0.020785213 4:-0.016874177 5:-0.039760087 6:-0.066218555 7:-0.020785213 8:-0.020785213 9:-0.020785213 10:-0.020785213 11:-0.069560736 12:-0.058922488 13:-0.020743353 14:0.011043482 15:-0.020777551 16:-0.017498119 17:-0.057456136 18:-0.017498119 19:-0.017498119 20:-0.017498119 21:-0.017498119 22:-0.017498119 23:-0.041043673 24:-0.0059535564 25:-0.0059535564 26:-0.073124491 27:-0.046780821 28:-0.0153234 29:-0.0059535564 30:-0.0059535564 31:-0.0059535564 32:-0.0059535564 33:-0.0059535564 34:-0.028623603 35:-0.036702063 36:-0.025342656 37:-0.028444735 38:-0.04357833 39:-0.016214201 40:-0.016214201 41:-0.016214201 42:-0.023450073 43:-0.043200567 44:-0.012180518 45:-0.017212896 46:-0.01621493 47:-0.012180518 48:-0.012180518 49:-0.019921072 50:-0.010348983 51:-0.010348983 52:-0.012057174 53:-0.011033173 54:-0.0094955862 55:-0.042042069 56:-0.022692639 57:-0.053070139 58:-0.0021099597 59:-0.0021099597 60:-0.0021099597 61:-0.0018693674 62:-0.0021099597 63:-0.0021099597 64:-0.053070139 65:-0.010677214 66:-0.010677214 67:-0.017824423 68:-0.047747746 69:-0.010677214 70:-0.010677214 71:-0.010677214 72:-0.010677214 73:-0.018442243 74:-0.047747746 75:-0.049042623 76:-0.026587175 77:-0.030926682 78:-0.011657519 79:-0.040408894 80:-0.0068854559 81:-0.017495709 82:-0.026587175 83:-0.011657519 84:-0.011657519 85:-0.020616552 86:-0.011657519 87:-0.0068854559 88:-0.064385802 89:-0.064385802 90:-0.064385802 91:-0.027285187 92:-0.043943249 93:-0.0090874545 94:-0.018522894 95:-0.0090874545 96:-0.0090874545 97:-0.0090874545 98:-0.0090874545 99:-0.046514019 100:-0.014250617 101:-0.036232267 102:-0.036232267 103:-0.010253956 104:-0.014250617 105:1.9506298e-18 106:-0.0087735308 107:1.9506298e-18 108:1.9506298e-18 109:1.9506298e-18 110:1.9506298e-18 111:1.9506298e-18 112:-0.010046383 113:-0.012108778 114:-0.077360734 115:-0.012108778 116:-0.012108778 117:-0.010046383 118:-0.081191465 119:-0.082285509 120:1.9506298e-18 121:-0.031212699 122:-0.043466207 123:-0.043466207 124:-0.043466207 125:-0.043466207 126:-0.087863691 127:-0.04227427 128:-0.029211376 129:0.025836801 130:0.013231114 131:-0.0065983199 132:1.9506298e-18 133:-0.023832997 134:-0.036138363 135:3.9237668e-18 136:-0.011453086 137:-0.015600968 138:1.9506298e-18 139:1.9506298e-18 140:-0.0091273431 141:-0.0084158937 142:1.9506298e-18 143:1.9506298e-18 144:1.9506298e-18 145:1.9506298e-18 146:1.9506298e-18 147:1.9506298e-18 148:1.9506298e-18 149:3.9237668e-18 150:3.9237668e-18 151:1.9506298e-18 152:1.9506298e-18 153:3.9237668e-18 154:1.9506298e-18 155:1.9506298e-18 156:-0.011453086 157:-0.015600968 158:1.9506298e-18 159:-0.021083111 160:-0.021083111 161:-0.049767863 162:-0.021083111 163:-0.021083111 164:-0.021083111 165:-0.049767863 166:-0.02531093 167:-0.02531093 168:-0.02531093 169:-0.011364278 170:0.034222513 171:0.050952893 172:0.034222513 173:0.041277062 174:0.016225858 175:-0.024264142 176:-0.0042145499 177:0.034222513 178:0.034222513 179:0.060392097 180:0.034222513 181:0.034222513 182:0.034222513 183:0.034222513 184:-0.024264142 185:-0.010044796 186:0.0041870344 187:0.0136093 188:0.0046079028 189:0.029162064 190:0.029162064 191:0.029162064 192:0.0041870344 193:0.0041870344 194:0.0041870344 195:0.029162064 196:0.029162064 197:0.029162064 198:0.029162064 199:0.029162064 200:0.029162064 201:0.029162064 202:0.029162064 203:0.029162064 204:-0.041009884 205:-0.041351132 206:-0.041351132 207:-0.041351132 208:-0.011600458 209:-0.014139335 210:-0.011600458 211:-0.011600458 212:-0.011600458 213:-0.011600458 214:-0.011600458 215:-0.0380776 216:-0.016919816 217:-0.0080899308 218:-0.0080899308 219:-0.0071674609 220:-0.023077412 221:-0.023077412 222:-0.023077412 223:-0.023077412 224:-0.023077412 225:-0.023077412 226:-0.012797572 227:-0.012797572 228:-0.014444652 229:-0.014444652 230:-0.014444652 231:1.9506298e-18 232:1.9506298e-18 233:1.9506298e-18 234:1.9506298e-18 235:1.9506298e-18 236:1.9506298e-18 237:1.9506298e-18 238:1.9506298e-18 239:-0.012598724 240:-0.0041457978 241:-0.019645225 242:-0.035103023 243:-0.012598724 244:-0.0041457978 245:-0.0041457978 246:-0.0041457978 247:-0.0041457978 248:-0.0041457978 249:-0.0041457978 250:-0.01239012 251:-0.01239012 252:-0.01239012 253:-0.01239012 254:-0.017575633 255:-0.034399021 256:-0.011082704 257:-0.0015674905 258:-0.041211691 259:-0.034399021 260:-0.034399021 261:-0.011453086 262:1.9506298e-18 263:-0.0017250499 264:1.9506298e-18 265:-0.0015674905 266:1.9506298e-18 267:-0.0095895547 268:-0.0095895547 269:-0.034958407 270:-0.0095895547 271:-0.0095895547 272:-0.0095895547 273:-0.0095895547 274:-0.0095895547 275:1.9506298e-18 276:1.9506298e-18 277:1.9506298e-18 278:-0.026598634 279:-0.010138594 280:-0.010138594 281:-0.03849436 282:-0.03849436 283:-0.03849436 284:-0.023755804 285:-0.023755804 286:-0.030830007 287:-0.030830007 288:-0.030830007 289:-0.030830007 290:-0.0039500208 291:-0.0039500208 292:-0.015393625 293:-0.0039500208 294:-0.0039500208 295:-0.0039500208 296:-0.0039500208 297:-0.0039500208 298:-0.0039500208 299:-0.080345213 300:-0.012927127 301:-0.012927127 302:-0.012927127 303:-0.0003704018 304:-0.0003704018 305:-0.0017250499 306:1.9506298e-18 307:1.9506298e-18 308:1.9506298e-18 309:1.9506298e-18 310:1.9506298e-18 311:1.9506298e-18 312:1.9506298e-18 313:1.9506298e-18 314:1.9506298e-18 315:1.9506298e-18 316:1.9506298e-18 317:-0.0039930469 318:-0.015765233 319:-0.0039930469 320:-0.0039930469 321:-0.0039930469 322:-0.0039930469 323:-0.0039930469 324:-0.0039930469 325:-0.012463391 326:-0.0039930469 327:-0.013601134 328:-0.0048732525 329:-0.0048732525 330:-0.031606976 331:-0.0048732525 332:-0.0048732525 333:-0.0048732525 334:-0.0048732525 335:-0.0048732525 336:-0.0048732525 337:-0.0048732525 338:-0.0048732525 339:-0.0048732525 340:-0.0048732525 341:-0.019327918 342:-0.010074414 343:-0.010074414 344:-0.010074414 345:-0.010074414 346:-0.010074414 347:-0.010074414 348:-0.010074414 349:-0.010650709 350:-0.010074414 351:-0.010074414 352:-0.010074414 353:-0.011741057 354:-0.011741057 355:-0.011741057 356:-0.011741057 357:-0.011741057 358:-0.011741057 359:-0.011741057 360:-0.011741057 361:-0.0094412565 362:-0.0094412565 363:-0.0094412565 364:-0.035229851 365:-0.011819383 366:-0.011819383 367:-0.011819383 368:-0.011819383 369:-0.011819383 370:-0.011819383 371:-0.011819383 372:-0.064385802 373:-0.064385802 374:-0.064385802 375:-0.021228898 376:-0.021228898 377:-0.023961112 378:-0.021228898 379:-0.021228898 380:-0.023961112 381:-0.023961112 382:-0.023961112 383:-0.021705609 384:-0.015891444 385:-0.015891444 386:-0.021705609 387:-0.015891444 388:-0.015891444 389:-0.015891444 390:-0.015891444 391:-0.015891444 392:1.9506298e-18 393:1.9506298e-18 394:-0.018027818 395:-0.018027818 396:-0.018027818 397:-0.018027818 398:-0.018027818 399:-0.035089999 400:-0.035089999 401:-0.035089999 402:-0.014043361 403:-0.013424803 404:-0.013424803 405:-0.013424803 406:-0.013424803 407:-0.013259005 408:-0.012866711 409:-0.0059149563 410:-0.0059149563 411:-0.012013355 412:-0.011612437 413:-0.011337588 414:-0.0019470683 415:-0.0019470683 416:-0.0019470683 417:-0.0019470683 418:-0.0019470683 419:-0.0019470683 420:-0.0019470683 421:-0.029868089 422:-0.029868089 423:-0.029868089 424:-0.0074475408 425:-0.0074475408 426:-0.0074475408 427:-0.0074475408 428:-0.0074475408 429:-0.064385802 430:-0.064385802 431:-0.064385802 432:-0.020586342 433:-0.020586342 434:-0.020586342 435:-0.020586342 436:-0.0024259745 437:-0.0086077331 438:-0.0086077331 439:-0.0086077331 440:-0.0086077331 441:-0.0086077331 442:-0.0086077331 443:-0.0086077331 444:-0.0086077331 445:-0.0086077331 446:-0.0086077331 447:0.0339422 448:0.0339422 449:0.0339422 450:0.0339422 451:0.0339422 452:0.0339422 453:0.0339422 454:-0.013801211 455:-0.013801211 456:-0.013801211 457:-0.013801211 458:-0.013801211 459:-0.013801211 460:-0.013801211 461:-0.013801211 #
