SVM-light Version V6.20
0 # kernel type
3 # kernel parameter -d 
1 # kernel parameter -g 
1 # kernel parameter -s 
1 # kernel parameter -r 
empty# kernel parameter -u 
2109 # highest feature index 
61 # number of training documents 
2 # number of support vectors plus 1 
0 # threshold b, each following line is a SV (starting with alpha*y)
1 1:-0.34769487 3:-0.032700986 4:-0.0081497813 5:-0.029698348 6:-0.038280044 7:-0.0019647651 8:-0.0080586206 9:-0.023783872 10:-0.041573364 11:-0.037811216 12:-0.023827421 13:-0.052011244 14:-0.029299283 15:-0.032423936 16:-0.025961515 17:-4.5307821e-18 18:-0.040134661 19:-0.045407251 20:-0.036953703 21:-0.029566428 22:-3.8263419e-18 23:5.1527559e-17 24:-0.020649478 25:-0.010354845 26:-4.0292832e-18 27:2.9398206e-18 28:2.9398206e-18 29:-0.015834557 30:-0.0073415134 31:-0.0492642 32:-0.044741724 33:-0.019516898 34:-0.012976686 35:-0.0067368755 36:-0.01551053 37:-0.01789031 38:-0.12132028 39:-0.064347759 43:-0.0069024926 44:-0.015735857 45:-0.020293845 46:-0.021139158 47:-0.021069257 48:-0.039609123 49:2.9398206e-18 50:-0.05052482 51:0.013401284 52:-0.02630493 53:-0.00020047781 54:-0.0045252321 55:-0.0043042065 56:-0.012864113 57:-0.012935049 58:2.9398206e-18 59:2.9398206e-18 60:2.9398206e-18 61:2.9398206e-18 62:-4.5307821e-18 63:5.1527559e-17 64:-1.999078e-17 65:2.9398206e-18 66:2.9398206e-18 67:2.9398206e-18 68:-0.00030251269 69:-0.025820015 70:-0.023674574 71:0.0046657724 72:-0.017613597 73:-0.058606848 74:-0.014743481 75:-0.016041365 76:-0.014743481 77:-0.014743481 78:-0.0087311463 80:-0.027697947 81:-0.0026980659 82:-0.030818833 83:-0.06151963 84:2.9398206e-18 85:-0.00056323473 87:-5.0288598e-18 90:2.9398206e-18 91:-0.01063121 92:-0.0084335608 95:-0.0096931979 96:-0.021658866 97:5.1527559e-17 98:-0.062190507 99:-0.027798949 100:-0.019521622 101:-0.019521622 102:-0.019521622 103:-0.019521622 104:-0.019521622 105:-0.019521622 106:-0.035070196 107:-0.027789243 108:-0.0065717059 109:-0.011412099 110:0.020183558 111:-0.065418422 112:-0.044123832 113:-0.040420197 114:-0.0078380471 115:-4.4721044e-18 116:2.3978965e-18 117:-0.0044302903 118:-0.017664444 119:-0.012385532 120:-0.015680982 121:-0.012769347 122:-0.003014372 123:-0.034472849 124:-0.013684461 125:-0.012769347 126:-0.012769347 127:-0.003014372 128:-0.0018236946 129:-0.0016761422 130:-0.028377315 131:-0.017228488 133:-0.012976686 134:-0.0034002054 135:2.9398206e-18 136:-0.033648401 137:-0.028377315 138:-0.069887951 139:-0.0074441568 140:-0.010291196 141:-0.068791389 143:2.9398206e-18 145:-0.0020330066 146:-0.0074441568 147:2.3978965e-18 148:-0.020329472 149:-0.025932964 150:-5.0288598e-18 151:-0.045091081 152:2.3978965e-18 153:-0.0032707094 154:2.3978965e-18 156:-0.020329472 157:2.3978965e-18 158:-5.0288598e-18 159:-5.0288598e-18 160:2.3978965e-18 161:2.3978965e-18 162:-2.0457742e-17 163:-0.0032707094 164:2.3978965e-18 165:2.3978965e-18 168:-0.02024602 169:-0.015545271 170:-0.026888803 171:-0.042672332 172:2.9398206e-18 173:2.9398206e-18 174:2.9398206e-18 175:-0.015545271 176:-0.00059217017 177:-0.042672332 178:-0.027871821 179:-0.019009119 180:-0.023615336 181:-0.017733451 182:-0.042785805 183:-0.017167076 184:-0.0010525254 185:-0.0010525254 186:-0.0026695624 187:-0.0010525254 188:-0.0010525254 189:-0.017507058 190:-0.016145352 191:-0.036486156 192:-0.041535392 193:-0.011728624 194:-0.027251381 195:-0.017270781 196:-0.030504648 197:-0.030504648 198:-4.1013885e-18 199:-4.5307821e-18 200:-4.5307821e-18 201:-4.5307821e-18 202:-0.011558125 203:-1.999078e-17 204:2.3978965e-18 205:-0.0068034725 206:2.9398206e-18 207:2.9398206e-18 208:-0.0099025834 209:-0.0085327914 210:2.9398206e-18 211:2.9398206e-18 212:-0.0056101112 213:-0.011661861 214:2.9398206e-18 215:2.9398206e-18 216:-0.0020103888 217:2.9398206e-18 218:2.9398206e-18 219:2.9398206e-18 220:-0.022553232 221:2.9398206e-18 222:2.9398206e-18 223:2.9398206e-18 224:2.9398206e-18 225:2.9398206e-18 226:2.9398206e-18 227:-0.014742882 228:-0.028247975 229:-0.014742882 230:-0.014742882 231:-0.014742882 232:-0.024972295 233:-0.021849077 234:-0.0093280198 235:-0.021122957 236:-0.0096872775 237:-0.0096872775 238:-0.0096872775 239:-0.033043087 240:-0.01432123 241:-0.010021386 242:-0.0048733326 243:-0.0049898555 244:-0.0045861336 245:-0.0057647321 246:-0.010571809 247:2.9398206e-18 248:-0.0057647321 251:-0.01089942 252:-0.0037077959 253:-0.022864724 254:0.018391533 257:-0.078743137 258:-4.5307821e-18 259:-0.048774906 260:-0.027460298 261:-0.044232357 262:-0.027460298 263:-0.01497896 264:-0.014312018 265:-0.012050078 266:-0.01109917 267:-0.0070754634 268:-1.999078e-17 269:-0.047749799 270:-0.037779823 271:-0.0073624449 272:-0.0065456568 273:-0.0080105681 274:-0.01587024 275:-0.016927766 276:2.9398206e-18 277:-0.022906365 278:-0.013198677 279:-0.013198677 280:-0.012130792 281:-0.013198677 282:-0.013198677 283:-0.006661532 284:-0.01168856 285:-0.0067147277 286:-0.006661532 287:-0.006661532 288:-0.006661532 289:-0.0061225574 290:-0.006661532 291:-0.006661532 292:-0.006661532 293:-0.0034260198 294:-0.012820195 296:-0.0038535297 300:-0.0046001994 301:0.020626737 302:-0.010166271 303:-0.0030150495 304:-0.0062077884 305:-0.0030150495 306:-0.012486879 307:-0.0027711063 308:0.023446457 309:-0.0030150495 310:-0.0064942678 311:-0.0027711063 312:-0.0030150495 313:-0.0030150495 314:-0.007896034 315:-0.0030150495 316:-0.0030150495 317:-0.0030150495 318:-0.0030150495 319:-0.0027711063 320:-0.022431344 321:-0.018076917 324:-0.015076621 326:-0.00050074956 328:-0.014981552 329:-0.0077433703 330:-4.5307821e-18 331:-4.5307821e-18 332:-3.6949509e-18 333:-0.004464346 334:-3.6949509e-18 335:-4.5307821e-18 336:-0.0060788733 337:-0.018264856 338:-0.0060788733 339:-0.0060788733 340:-0.012951852 341:-0.012951852 342:-0.00087519316 343:-0.013366427 344:-0.01034175 345:-0.0004618961 346:-0.0004618961 347:-0.018500699 348:-0.0004618961 349:-0.0027640664 350:-0.0027206014 351:-0.0004618961 352:-0.0004618961 353:-0.0004618961 354:-0.0004618961 355:-0.0004618961 356:-0.0004618961 357:-0.0004618961 358:-0.0004618961 359:-0.0004618961 360:-0.0096348319 361:-0.0004618961 362:-0.0004618961 363:-0.0004618961 364:-0.0004618961 365:-0.0004618961 366:-0.0004618961 367:-0.033575848 368:-0.0019674015 369:-0.033575848 370:-0.0019674015 371:-0.013464027 372:-0.0019674015 373:-0.0019674015 374:-0.0019674015 375:-0.007881837 376:-0.007881837 377:-0.028531831 378:-0.007881837 379:-0.007881837 380:-0.007881837 381:-0.007881837 382:-0.007881837 383:-0.03043307 384:-0.019582445 385:-0.025972465 386:-0.010334647 387:-0.0080090361 388:-0.0087140799 389:-0.0087140799 390:-0.028397223 391:-0.027201841 392:-0.029945293 393:-0.027201841 394:-0.027201841 395:2.9398206e-18 396:-4.5307821e-18 397:2.9398206e-18 398:2.9398206e-18 399:2.9398206e-18 400:-0.0089767603 401:-0.022011703 402:-0.011497688 403:-0.011497688 404:-0.012474875 405:-0.0036971329 406:-0.0018685191 407:-0.0020330066 408:-0.012474875 409:-0.0020330066 410:-2.1097041e-17 411:1.6559672e-18 412:1.6559672e-18 413:1.6559672e-18 414:1.6559672e-18 415:2.9398206e-18 416:-0.024776597 417:-0.0013813673 418:2.9398206e-18 419:2.9398206e-18 420:2.9398206e-18 421:-0.0070754634 422:-0.0014734159 423:-0.0014734159 424:-0.054453377 425:-0.022487825 426:-4.5307821e-18 427:2.9398206e-18 428:-4.5307821e-18 429:2.9398206e-18 430:-0.015187256 431:-1.999078e-17 432:2.9398206e-18 433:2.9398206e-18 434:2.9398206e-18 435:-4.5307821e-18 436:-1.999078e-17 437:-4.5307821e-18 438:2.9398206e-18 439:2.9398206e-18 440:2.9398206e-18 441:2.9398206e-18 442:-1.999078e-17 443:-4.5307821e-18 444:-0.0059598479 445:-0.012471486 446:-0.011039837 447:-0.0073523093 448:-0.0047906237 449:-0.0049860161 450:-0.0092956768 451:2.9398206e-18 452:2.9398206e-18 453:-0.0047906237 454:-0.00056323473 455:-0.006367112 456:-0.007574331 457:-0.0049860161 458:-0.0057284981 465:-0.0012313974 466:-0.0012313974 467:-0.0012313974 468:-0.0014544377 469:-0.0012313974 470:-0.0050044251 471:-0.0011317668 472:-0.0011317668 473:-0.0011317668 474:-0.0012313974 475:-0.0012313974 476:-0.0059095519 477:-0.0012313974 478:-0.0011317668 479:-0.0012313974 480:-0.0012313974 481:-0.0012313974 482:-0.0012313974 483:-0.0012313974 484:-0.0012313974 485:-0.010040316 486:-0.010040316 487:-0.016772939 488:-0.010040316 489:-0.010040316 490:-0.010040316 491:-0.0086514717 492:-0.017034495 493:-0.012868204 494:-0.0071205152 497:-0.027199121 498:-0.035192449 499:-0.032846708 500:-4.5307821e-18 501:-0.016816458 502:-0.030051621 503:-0.017383726 504:-0.021496382 505:-0.017383726 506:-0.0073272842 507:-0.0057207393 508:-0.025550289 509:-0.015031695 510:2.9398206e-18 511:-4.5307821e-18 512:-4.5307821e-18 513:2.9398206e-18 514:2.9398206e-18 515:-0.01007718 516:-0.019925347 517:-0.019925347 518:-0.019925347 519:-0.01302094 520:-0.0072743064 521:-0.0072743064 522:-0.0098133348 523:-0.011280502 524:-0.0023395417 525:-0.001909095 526:-0.0020799933 527:-0.0020799933 528:-0.014655511 529:-0.0083195576 531:-0.0026980659 533:2.9398206e-18 534:2.9398206e-18 538:-0.0018685191 539:-0.010588334 540:-0.0020330066 541:-0.0020330066 542:-0.0020330066 543:-0.0043119583 544:-0.0020330066 545:-0.0020330066 546:2.9398206e-18 547:2.9398206e-18 548:2.9398206e-18 549:2.9398206e-18 550:2.9398206e-18 551:2.9398206e-18 552:2.9398206e-18 553:2.9398206e-18 554:2.9398206e-18 555:2.9398206e-18 556:2.9398206e-18 558:-0.023588436 560:-0.0022046643 561:-0.0003510759 562:-0.0003510759 563:-0.00032267085 564:-0.0031068895 565:-0.0003510759 566:-0.0003510759 567:-0.0003510759 568:-0.0003510759 569:-0.0003510759 570:-0.0003510759 571:-0.0097269593 572:-0.0063753943 574:-0.0032027471 575:-0.0035068523 576:-0.00028986597 577:-0.0010148925 578:-0.0049100644 582:-0.0049714921 589:-0.0052737137 590:-3.4470837e-18 591:2.9398206e-18 592:-0.010007516 593:2.9398206e-18 594:-4.5307821e-18 595:2.9398206e-18 596:2.9398206e-18 597:-1.999078e-17 598:2.9398206e-18 599:2.9398206e-18 600:2.9398206e-18 601:-0.0057647321 602:2.9398206e-18 603:-4.5307821e-18 604:2.9398206e-18 605:-0.011353262 606:2.9398206e-18 607:-0.034004975 608:2.9398206e-18 609:2.9398206e-18 610:-0.0057647321 611:-0.0057647321 612:-0.0064840741 613:-0.0030227634 614:2.9398206e-18 615:2.9398206e-18 616:-4.5307821e-18 617:2.9398206e-18 618:2.9398206e-18 619:2.9398206e-18 620:2.9398206e-18 621:-0.0011199114 622:-4.5307821e-18 623:-4.5307821e-18 624:-1.999078e-17 625:2.9398206e-18 626:-0.00032267085 627:-0.0052013313 628:-0.0013362243 629:2.9398206e-18 630:2.9398206e-18 631:2.9398206e-18 632:2.9398206e-18 633:2.9398206e-18 634:2.9398206e-18 635:2.9398206e-18 636:-0.0094509134 637:2.9398206e-18 638:2.9398206e-18 639:2.9398206e-18 640:2.9398206e-18 641:2.9398206e-18 642:2.9398206e-18 643:2.9398206e-18 644:-0.0047717276 645:-4.0292832e-18 646:-0.0039116135 647:-0.0014216211 648:-0.00048321817 649:2.9398206e-18 650:-4.0292832e-18 651:-4.0292832e-18 652:-1.999078e-17 653:-0.0080394596 654:-0.0080394596 655:-0.0083490079 656:-0.0080394596 657:-0.0080394596 658:-0.0080394596 659:-0.0080394596 660:-1.999078e-17 661:2.9398206e-18 662:2.9398206e-18 663:-4.0292832e-18 665:-0.00050074956 666:-0.016055202 667:2.9398206e-18 670:-0.0076791537 671:-0.016001165 672:-0.006014308 673:-0.009496687 674:-0.0046001994 678:-0.01889668 679:2.9398206e-18 681:-3.6949509e-18 682:-4.5307821e-18 683:2.9398206e-18 684:-4.5307821e-18 685:-0.015107771 686:2.9398206e-18 687:2.9398206e-18 688:2.9398206e-18 689:-0.023568116 690:2.9398206e-18 691:2.9398206e-18 692:2.9398206e-18 693:2.9398206e-18 694:-0.010400651 695:-4.5307821e-18 696:2.9398206e-18 697:2.9398206e-18 698:-4.5307821e-18 699:2.9398206e-18 700:2.9398206e-18 701:2.9398206e-18 702:2.9398206e-18 703:2.9398206e-18 704:2.9398206e-18 705:2.9398206e-18 706:2.9398206e-18 707:-0.0023395417 708:-0.005921138 711:-0.01681073 712:-0.01681073 713:-0.01681073 714:2.3978965e-18 715:-0.012197649 716:-0.0050677005 717:-0.0058223465 718:-0.0079912962 719:2.3978965e-18 720:2.3978965e-18 721:-0.0079912962 722:-0.00049034116 723:-0.00049034116 724:-0.00049034116 725:-0.00049034116 726:-0.00049034116 727:-0.011933458 728:-0.0033138203 729:-0.021145649 730:-0.0033138203 731:-0.0033138203 732:-0.0033138203 733:-0.0033138203 734:0.045252074 735:-0.0033138203 736:-0.0033138203 737:-0.0033138203 738:-0.0033138203 739:-0.012172207 740:-0.0099545764 741:-0.00064429949 742:-0.00064429949 743:-0.001177816 748:-0.016565558 749:-0.016565558 750:-0.012188214 751:-0.014144821 753:2.9398206e-18 754:-0.013658042 756:-0.012684601 757:2.9398206e-18 758:2.9398206e-18 759:-0.0057284981 760:2.9398206e-18 761:2.9398206e-18 762:2.9398206e-18 763:2.9398206e-18 764:-4.5307821e-18 765:2.9398206e-18 766:-0.0077313907 767:-5.5927042e-18 768:-4.5307821e-18 769:2.9398206e-18 771:-0.01583492 772:0.028211193 773:0.048297778 774:0.045123786 775:0.082187936 776:0.082187936 777:-0.0050826576 778:0.054598581 779:0.054598581 780:0.054598581 781:0.054598581 782:0.054598581 783:-4.5307821e-18 784:2.9398206e-18 785:-4.5307821e-18 786:2.9398206e-18 787:-0.0073228474 788:-0.0073228474 789:-0.0073228474 790:-0.0085881948 791:-0.0066481098 792:0.027779935 793:0.027779935 794:0.027779935 795:-0.0054323543 796:-0.0066481098 797:-0.0066481098 798:-0.0066481098 799:-0.00061281683 800:-0.00061281683 801:-0.00061281683 802:-0.00061281683 803:-0.00061281683 804:-0.00056323473 805:-0.00061281683 806:-0.00061281683 810:-0.0033038741 811:-0.0031864154 819:-0.0069749346 820:-0.0057168882 823:-0.0080946395 829:-0.011021412 830:-0.0036948556 831:2.9398206e-18 832:-0.0027631698 833:-0.00033639895 834:-0.00033639895 835:-0.00033639895 836:-0.0090341959 837:-0.0086319465 838:-0.00027488091 839:-0.00028986597 840:-0.00033639895 841:-0.00033639895 842:-0.00030918143 843:-0.00033639895 844:-0.00033639895 845:-0.00033639895 846:-0.00033639895 847:-0.0090341959 848:-0.0095266942 849:-0.010161513 850:2.9398206e-18 851:2.9398206e-18 852:-0.0038393917 853:-4.5307821e-18 854:-4.5307821e-18 855:-0.0044557396 856:-0.0044557396 857:-0.0044557396 858:-0.0044557396 859:-0.0044557396 860:-0.041354999 861:-0.038650833 862:-0.0066061812 863:2.3978965e-18 864:2.9398206e-18 865:2.9398206e-18 866:-0.0013737602 867:2.9398206e-18 868:-0.006173369 869:-0.011734896 870:-0.0074705603 871:2.9398206e-18 872:2.9398206e-18 873:2.9398206e-18 874:2.9398206e-18 875:2.9398206e-18 876:2.9398206e-18 877:2.9398206e-18 878:2.9398206e-18 879:2.9398206e-18 880:2.9398206e-18 881:-0.0074705603 882:2.9398206e-18 883:2.9398206e-18 885:2.9398206e-18 886:-0.0020799933 890:-0.017457109 893:-0.002630421 894:-0.016044682 895:-0.017457109 903:2.9398206e-18 904:2.9398206e-18 905:-0.0050051594 906:-1.999078e-17 912:2.9398206e-18 913:2.9398206e-18 914:2.9398206e-18 915:2.9398206e-18 916:2.9398206e-18 917:2.9398206e-18 918:2.9398206e-18 919:2.9398206e-18 920:-0.0047007892 921:-0.0047007892 922:-0.0047007892 923:-0.0047007892 924:-0.0047007892 925:-0.0047007892 926:-0.0024982025 927:-0.013297887 928:-0.039364129 929:-0.0072672796 930:-0.006461049 931:-0.0072672796 932:-0.0024239814 933:-0.0024239814 934:-0.0072672796 935:-0.0072672796 936:-0.0072672796 937:2.9398206e-18 938:-4.5307821e-18 939:2.9398206e-18 942:2.9398206e-18 943:-0.012196503 944:-0.0031719066 945:2.9398206e-18 946:-4.5307821e-18 947:2.9398206e-18 948:2.9398206e-18 949:2.9398206e-18 950:-0.0031719066 951:-4.5307821e-18 952:-0.0031719066 953:-0.0031719066 954:-0.0012520461 955:-0.0053837677 956:-0.0012520461 957:-0.0012520461 958:-0.0012520461 959:-0.0012520461 960:2.9398206e-18 961:2.9398206e-18 962:2.9398206e-18 963:-0.021212712 964:-0.011540044 965:-0.011540044 966:-0.011540044 967:-0.011540044 968:-0.021933476 969:-0.010606356 970:-0.010606356 971:-0.011540044 972:-0.011540044 973:-0.011540044 974:-5.0288598e-18 975:2.3978965e-18 976:2.3978965e-18 977:2.3978965e-18 978:2.3978965e-18 979:2.3978965e-18 980:-0.0073415134 981:-0.029506676 982:-0.0080090361 983:-0.0087140799 984:-0.0087140799 985:-0.0089145619 986:-0.0089145619 987:-0.01546871 988:-0.0079912962 989:-0.0085238023 990:-0.0018236946 991:-0.0018236946 992:-0.0018236946 993:-0.0046197595 994:-0.0018236946 1000:-0.01474343 1001:2.9398206e-18 1002:-0.0070548733 1007:2.9398206e-18 1013:-0.0016498377 1019:2.9398206e-18 1020:2.9398206e-18 1027:2.9398206e-18 1028:2.9398206e-18 1029:2.9398206e-18 1030:2.9398206e-18 1031:2.9398206e-18 1032:2.9398206e-18 1033:-0.0044648284 1034:-0.0039695008 1035:-0.00064429949 1036:-0.047773555 1037:-0.048115488 1038:-0.047773555 1039:-0.013948769 1040:-0.013948769 1041:-0.012820195 1042:-0.012522727 1043:2.9398206e-18 1044:2.9398206e-18 1045:2.9398206e-18 1046:2.9398206e-18 1047:2.9398206e-18 1048:2.9398206e-18 1049:2.9398206e-18 1050:-0.0024797695 1051:-0.0026980659 1052:-0.0026980659 1053:-0.0026980659 1054:-0.0026980659 1055:-0.0026980659 1056:-0.0026980659 1057:-0.0026980659 1058:-0.0026980659 1059:-0.0026980659 1060:-0.0026980659 1061:-0.0026980659 1062:-0.0026980659 1063:-0.0026980659 1064:-0.0024797695 1065:-0.0091759758 1066:-0.0091759758 1067:-0.013268529 1068:-0.0091759758 1069:-0.0091759758 1070:-0.0091759758 1071:-0.0091759758 1072:2.9398206e-18 1073:2.9398206e-18 1074:-0.027660843 1075:-0.027451748 1076:-0.027451748 1077:-0.029868353 1078:-0.029868353 1079:-0.0099545764 1080:-0.0040341965 1081:-0.0040341965 1082:-0.0040341965 1083:-0.017016642 1084:-0.0040341965 1085:-0.0040341965 1086:-0.0040341965 1087:2.9398206e-18 1088:-0.0067344443 1092:2.9398206e-18 1095:-0.0083168745 1096:-0.0050733676 1097:2.9398206e-18 1098:2.9398206e-18 1099:2.9398206e-18 1100:-0.0029737486 1101:-0.0019353302 1102:-0.0019353302 1103:-0.0019353302 1104:-0.0019353302 1105:-0.0019353302 1106:-0.0088877734 1110:2.9398206e-18 1111:2.9398206e-18 1112:-0.0098629724 1113:2.9398206e-18 1114:2.9398206e-18 1115:2.9398206e-18 1116:2.9398206e-18 1117:2.9398206e-18 1118:-0.026878592 1119:2.9398206e-18 1120:-4.0292832e-18 1121:-0.00068747485 1122:2.9398206e-18 1123:2.9398206e-18 1124:2.9398206e-18 1125:2.9398206e-18 1126:-1.999078e-17 1127:2.9398206e-18 1128:-0.0037634121 1129:2.9398206e-18 1130:2.9398206e-18 1131:2.9398206e-18 1132:2.9398206e-18 1133:2.9398206e-18 1134:2.9398206e-18 1141:2.9398206e-18 1144:2.9398206e-18 1147:2.9398206e-18 1148:-0.0033317769 1149:2.9398206e-18 1150:2.9398206e-18 1151:2.9398206e-18 1152:-5.0288598e-18 1153:2.9398206e-18 1154:2.9398206e-18 1155:2.9398206e-18 1156:2.9398206e-18 1157:2.9398206e-18 1158:2.9398206e-18 1159:2.9398206e-18 1160:2.9398206e-18 1161:2.9398206e-18 1162:2.9398206e-18 1163:2.9398206e-18 1164:2.9398206e-18 1165:2.9398206e-18 1166:-4.5307821e-18 1167:-0.025664948 1168:-0.0079068718 1169:-0.0079068718 1170:-0.0079068718 1171:-0.0079068718 1172:-0.0079068718 1173:-0.0059957933 1174:-0.0059957933 1175:-0.0059957933 1176:-0.0059957933 1178:-0.008174791 1179:-0.014670788 1180:-0.0021933839 1181:2.9398206e-18 1182:-0.0093289502 1183:2.9398206e-18 1187:2.9398206e-18 1188:2.9398206e-18 1189:2.9398206e-18 1190:2.9398206e-18 1191:2.9398206e-18 1192:2.9398206e-18 1193:2.9398206e-18 1194:2.9398206e-18 1195:-4.5307821e-18 1196:2.9398206e-18 1197:2.9398206e-18 1198:2.9398206e-18 1199:2.9398206e-18 1200:2.9398206e-18 1201:2.9398206e-18 1202:-0.011547836 1203:-4.5307821e-18 1204:2.9398206e-18 1205:2.9398206e-18 1206:2.9398206e-18 1207:2.9398206e-18 1208:2.9398206e-18 1209:2.9398206e-18 1210:-0.013270172 1211:-0.013270172 1212:-0.013270172 1213:-0.013270172 1214:-0.013270172 1215:-0.0074437438 1216:-0.0068414817 1217:-0.0074437438 1220:2.9398206e-18 1221:2.9398206e-18 1222:2.9398206e-18 1223:2.9398206e-18 1224:2.9398206e-18 1225:2.9398206e-18 1226:-4.5307821e-18 1227:2.9398206e-18 1228:2.9398206e-18 1229:2.9398206e-18 1230:2.9398206e-18 1231:2.9398206e-18 1232:2.9398206e-18 1233:2.9398206e-18 1234:2.9398206e-18 1235:2.9398206e-18 1236:2.9398206e-18 1237:2.9398206e-18 1238:2.9398206e-18 1239:2.9398206e-18 1240:-0.014480435 1241:-0.029370334 1242:2.9398206e-18 1244:-0.015519658 1246:-0.0045395554 1251:-0.0023395417 1254:2.9398206e-18 1255:2.9398206e-18 1256:2.9398206e-18 1257:-0.021004779 1258:-0.0058381474 1259:2.9398206e-18 1260:2.9398206e-18 1261:2.9398206e-18 1262:2.9398206e-18 1263:-0.0058381474 1264:2.9398206e-18 1265:-0.01635495 1266:-0.0080946395 1267:-0.0080946395 1268:-0.0080946395 1269:-0.0080946395 1270:-0.0080946395 1271:-0.0080946395 1272:-0.0080946395 1273:2.9398206e-18 1274:2.9398206e-18 1276:-0.0081282007 1279:-0.0021443525 1280:-0.0021443525 1281:-0.0023331218 1282:-0.0023331218 1283:-0.0023331218 1284:-0.0023331218 1285:-0.0023331218 1286:-0.012795948 1287:-0.0098523311 1288:-0.019489396 1293:-0.020456012 1294:-0.0081282007 1295:-0.0081282007 1296:-0.0081282007 1297:-0.0081282007 1298:2.9398206e-18 1299:2.9398206e-18 1300:-4.5307821e-18 1301:-0.0034273705 1302:-0.0034273705 1303:-0.0034273705 1304:-0.0034273705 1305:-0.0034273705 1306:-0.0034273705 1307:-0.0034273705 1308:-0.0034273705 1309:2.9398206e-18 1310:-4.5307821e-18 1311:2.9398206e-18 1312:2.9398206e-18 1313:2.9398206e-18 1314:2.9398206e-18 1315:2.9398206e-18 1316:-0.0058223465 1317:-0.0067570237 1318:2.9398206e-18 1319:-0.0015163518 1320:-0.0016498377 1326:2.9398206e-18 1327:2.9398206e-18 1328:2.9398206e-18 1329:2.9398206e-18 1330:2.9398206e-18 1331:-4.5307821e-18 1332:2.9398206e-18 1333:2.9398206e-18 1334:2.9398206e-18 1335:-4.5307821e-18 1336:2.9398206e-18 1337:-0.023900475 1338:-0.029308237 1339:-0.023900475 1340:-0.023900475 1341:2.9398206e-18 1342:2.9398206e-18 1343:2.9398206e-18 1344:2.9398206e-18 1346:2.9398206e-18 1347:5.1527559e-17 1348:2.9398206e-18 1349:-0.0089864349 1350:-0.0089864349 1351:-0.0089864349 1352:-0.0089864349 1353:-0.0089864349 1354:2.9398206e-18 1355:2.9398206e-18 1356:2.9398206e-18 1360:2.9398206e-18 1361:2.9398206e-18 1362:-4.5307821e-18 1363:-0.010718151 1364:-0.0072702728 1365:2.9398206e-18 1366:2.9398206e-18 1369:2.9398206e-18 1373:2.9398206e-18 1374:2.9398206e-18 1375:2.9398206e-18 1376:2.9398206e-18 1377:2.9398206e-18 1378:2.9398206e-18 1379:2.9398206e-18 1380:2.9398206e-18 1381:2.9398206e-18 1382:2.9398206e-18 1383:2.9398206e-18 1384:2.9398206e-18 1385:-0.010606356 1389:-0.0013737602 1390:-0.0042838017 1391:-4.5307821e-18 1392:-0.0014962561 1393:-0.0014962561 1411:-0.013658042 1412:-0.028031124 1413:-0.0071158847 1414:-0.0045395554 1415:-0.0045395554 1416:-0.0045395554 1417:-0.0071158847 1418:-0.0045395554 1419:-0.00515643 1420:2.9398206e-18 1421:2.9398206e-18 1422:2.9398206e-18 1423:2.9398206e-18 1424:2.9398206e-18 1425:2.9398206e-18 1426:2.9398206e-18 1427:2.9398206e-18 1428:2.9398206e-18 1429:2.9398206e-18 1430:2.9398206e-18 1431:2.9398206e-18 1432:2.9398206e-18 1433:2.9398206e-18 1434:2.9398206e-18 1435:2.9398206e-18 1436:2.9398206e-18 1437:2.9398206e-18 1438:2.9398206e-18 1439:2.9398206e-18 1440:2.9398206e-18 1441:2.9398206e-18 1442:2.9398206e-18 1443:2.9398206e-18 1444:2.9398206e-18 1445:2.9398206e-18 1446:2.9398206e-18 1447:2.9398206e-18 1448:2.9398206e-18 1449:2.9398206e-18 1450:-0.0015163518 1451:-0.0082091605 1452:-0.003950112 1453:2.9398206e-18 1454:2.9398206e-18 1455:2.9398206e-18 1456:2.9398206e-18 1457:2.9398206e-18 1458:2.9398206e-18 1459:2.9398206e-18 1460:2.9398206e-18 1461:2.9398206e-18 1462:2.9398206e-18 1463:2.9398206e-18 1464:2.9398206e-18 1465:2.9398206e-18 1466:2.9398206e-18 1467:-0.013401642 1469:-0.0029436175 1470:2.9398206e-18 1471:-0.0050051594 1472:-0.0046056602 1473:-0.0046056602 1474:-0.0046056602 1475:-0.0042330232 1476:-0.0064840191 1477:-0.0030526896 1478:-0.0030526896 1479:-0.0030526896 1480:-0.0030526896 1481:-0.0030526896 1482:-0.0030526896 1483:-0.002805701 1484:2.9398206e-18 1485:2.9398206e-18 1490:2.9398206e-18 1491:-0.010834007 1492:-0.010834007 1493:-0.010834007 1494:-0.0056575499 1495:-0.0056575499 1496:-0.0056575499 1497:-0.0056575499 1498:-0.0051998058 1499:-0.0056575499 1500:-0.016061444 1501:-0.016061444 1504:-0.001177816 1505:-0.0025454939 1506:-0.0025454939 1507:-0.0025454939 1508:-0.0025454939 1509:-0.0025454939 1510:-0.0025454939 1511:-0.0025454939 1516:-0.0087140799 1517:-0.0087140799 1518:-0.0087140799 1519:-0.0014946937 1520:-0.0014946937 1521:-0.0014946937 1522:-0.0014946937 1523:-0.0014946937 1524:-0.0013737602 1525:-0.0014946937 1526:-0.0014946937 1527:-0.0014946937 1528:-1.999078e-17 1529:2.9398206e-18 1531:-0.0033999537 1532:-0.0080218418 1533:2.9398206e-18 1534:2.9398206e-18 1535:2.9398206e-18 1536:2.9398206e-18 1537:2.9398206e-18 1538:2.9398206e-18 1539:2.9398206e-18 1540:2.9398206e-18 1541:2.9398206e-18 1542:2.9398206e-18 1543:2.9398206e-18 1544:2.9398206e-18 1545:2.9398206e-18 1546:2.9398206e-18 1547:-0.0032034849 1548:2.9398206e-18 1549:2.9398206e-18 1550:2.9398206e-18 1551:2.9398206e-18 1552:2.9398206e-18 1553:2.9398206e-18 1554:2.9398206e-18 1555:-1.999078e-17 1556:-2.0457742e-17 1557:2.9398206e-18 1558:2.9398206e-18 1559:2.9398206e-18 1560:-0.0037177491 1561:2.9398206e-18 1562:2.9398206e-18 1567:-0.017228488 1568:-0.0095989555 1569:2.9398206e-18 1570:2.9398206e-18 1571:2.9398206e-18 1572:2.9398206e-18 1573:2.9398206e-18 1597:2.9398206e-18 1628:2.9398206e-18 1630:2.9398206e-18 1648:2.9398206e-18 1657:-0.010937379 1658:-0.010937379 1662:2.9398206e-18 1668:2.9398206e-18 1677:2.9398206e-18 1692:-0.018951381 1694:-0.018951381 1701:2.9398206e-18 1719:-0.0049714921 1818:-0.0063520852 1819:2.9398206e-18 1831:2.9398206e-18 1847:2.9398206e-18 1858:2.9398206e-18 1862:2.9398206e-18 1868:-0.0090624532 1885:2.9398206e-18 1886:2.9398206e-18 1889:-0.0056103552 1890:-0.0056103552 1891:-0.0056103552 1892:-0.0056103552 1893:-0.0056103552 1894:2.9398206e-18 1895:2.9398206e-18 1896:2.9398206e-18 1897:2.9398206e-18 1898:2.9398206e-18 1899:-4.5307821e-18 1900:-0.0026585374 1901:-0.0026585374 1902:-0.0026585374 1903:-0.0026585374 1904:-0.0026585374 1905:-0.0026585374 1906:-0.004213572 1907:-0.004213572 1908:-0.0012520461 1909:2.9398206e-18 1910:2.9398206e-18 1911:-0.0079877935 1912:-0.0079877935 1913:-0.031955834 1914:-0.017228488 1915:-0.017457109 1916:2.9398206e-18 1917:2.9398206e-18 1918:2.9398206e-18 1919:-0.0049714921 1920:-0.0049714921 1921:-0.0049714921 1922:-0.015574805 1923:2.9398206e-18 1924:2.9398206e-18 1925:-0.016885869 1926:-0.016885869 1927:2.9398206e-18 1928:2.9398206e-18 1929:2.9398206e-18 1930:2.9398206e-18 1931:-0.018951381 1932:-0.018951381 1933:-0.0054830434 1934:-0.0054830434 1935:2.9398206e-18 1936:2.9398206e-18 1937:2.9398206e-18 1938:2.9398206e-18 1940:2.9398206e-18 1941:-0.016840689 1942:-0.016840689 1943:-0.016840689 1944:-0.05195326 1945:2.9398206e-18 1946:2.9398206e-18 1947:2.9398206e-18 1948:2.9398206e-18 1949:2.9398206e-18 1950:2.9398206e-18 1951:2.9398206e-18 1952:2.9398206e-18 1953:2.9398206e-18 1954:2.9398206e-18 1955:2.9398206e-18 1956:2.9398206e-18 1957:-0.0070548733 1958:-0.011540044 1959:-0.011540044 1960:-0.011540044 1961:-0.0027162908 1962:-0.029388895 1963:-0.029388895 1964:-0.029388895 1965:2.9398206e-18 1966:2.9398206e-18 1967:2.9398206e-18 1968:2.9398206e-18 1969:-0.018024648 1970:-0.018024648 1971:-0.018024648 1972:-0.018024648 1973:-0.018024648 1974:-0.00064429949 1975:-0.00064429949 1976:-0.00059217017 1977:-0.00064429949 1978:-0.00064429949 1979:-0.00064429949 1980:-0.00064429949 1981:2.9398206e-18 1982:2.9398206e-18 1983:2.9398206e-18 1984:2.9398206e-18 1985:2.9398206e-18 1986:2.9398206e-18 1987:2.9398206e-18 1988:2.9398206e-18 1989:2.9398206e-18 1990:2.9398206e-18 1991:2.9398206e-18 1992:2.9398206e-18 1993:2.9398206e-18 1994:2.9398206e-18 1995:2.9398206e-18 1996:2.9398206e-18 1997:2.9398206e-18 1998:2.9398206e-18 1999:2.9398206e-18 2000:2.9398206e-18 2001:2.9398206e-18 2002:2.9398206e-18 2003:-0.010888488 2004:-0.0093823187 2005:-0.010888488 2006:-0.010888488 2007:-0.0050051594 2008:-0.0050051594 2009:-0.0050051594 2010:2.9398206e-18 2011:2.9398206e-18 2012:2.9398206e-18 2013:2.9398206e-18 2014:-0.012976686 2015:-0.0062201517 2016:-0.0062201517 2017:-0.0062201517 2018:-0.00064429949 2019:-0.00064429949 2020:-0.00064429949 2021:-0.00064429949 2022:-0.00064429949 2023:-0.00064429949 2024:-0.00064429949 2025:-0.025230285 2026:-0.025230285 2027:-0.025230285 2028:2.3978965e-18 2029:2.3978965e-18 2030:2.9398206e-18 2031:2.9398206e-18 2033:-0.0032027471 2034:-0.0032027471 2035:-0.0032027471 2036:-0.0032027471 2037:-0.0032027471 2038:-0.0032027471 2039:-0.0016498377 2040:-0.0016498377 2041:-0.0016498377 2042:-0.0016498377 2043:-0.0016498377 2044:-0.0016498377 2045:-0.0016498377 2046:-0.0016498377 2047:-0.0016498377 2048:-0.0090624532 2049:-0.0090624532 2050:-0.0090624532 2051:-0.0079102824 2052:-0.0079102824 2053:-0.0079102824 2054:2.9398206e-18 2055:-0.011827316 2056:2.9398206e-18 2057:2.9398206e-18 2058:2.9398206e-18 2059:2.9398206e-18 2060:2.9398206e-18 2061:2.9398206e-18 2062:2.9398206e-18 2063:2.9398206e-18 2064:2.9398206e-18 2065:-0.0063520852 2066:-0.0063520852 2067:-0.0063520852 2068:2.9398206e-18 2069:2.9398206e-18 2070:2.9398206e-18 2071:2.9398206e-18 2072:2.9398206e-18 2073:2.9398206e-18 2074:2.9398206e-18 2075:2.9398206e-18 2076:2.3978965e-18 2077:2.3978965e-18 2078:-0.014557205 2079:-0.014557205 2080:-0.014557205 2081:1.6559672e-18 2082:1.6559672e-18 2083:1.6559672e-18 2084:-0.0096520055 2085:-0.0094264224 2086:-0.0094264224 2087:-0.0094264224 2088:-0.0094264224 2089:-0.0094264224 2090:-0.0094264224 2091:-0.0094264224 2092:-0.010937379 2093:-0.010937379 2094:-0.010937379 2095:-0.010937379 2096:2.9398206e-18 2097:-0.014047613 2098:-0.043904506 2099:-0.043904506 2100:-0.043904506 2101:-0.0063489322 2102:-0.0063489322 2103:-0.0063489322 2104:-0.0063489322 2105:-0.0063489322 2106:-0.0063489322 2107:-0.0063489322 2108:-0.0063489322 #
