SVM-light Version V6.20
0 # kernel type
3 # kernel parameter -d 
1 # kernel parameter -g 
1 # kernel parameter -s 
1 # kernel parameter -r 
empty# kernel parameter -u 
2361 # highest feature index 
47 # number of training documents 
2 # number of support vectors plus 1 
0 # threshold b, each following line is a SV (starting with alpha*y)
1 1:-0.436921 3:-0.047637243 4:-0.013522366 5:-0.045732062 6:-0.019797085 7:-0.059752572 8:-0.046382688 9:1.9353731e-18 10:3.0519344e-18 11:-0.038173307 12:3.0519344e-18 13:3.0717844e-18 14:3.0519344e-18 15:-0.046690442 16:-0.049448982 17:-0.041248698 18:-0.009086892 19:-0.040992059 20:-0.037791591 21:-0.043616217 22:-0.0030012715 23:3.0519344e-18 24:3.0519344e-18 25:3.0717844e-18 26:-0.039127003 27:-0.057474267 28:-0.044499919 29:-0.01774784 30:-0.068666875 31:-0.025940612 32:-0.0025893438 33:-0.01774784 34:-0.0016368255 35:-0.048071958 36:-0.015341258 37:-0.015860083 38:-0.0045969174 39:-0.0028485556 40:-0.017198399 41:-0.018528162 42:-0.025743354 43:-0.0020500631 44:-0.001681925 45:-0.0018831111 46:-0.0023034927 47:-0.0028485556 48:-0.0028485556 49:-0.0028485556 50:-0.0060713231 51:-0.005266971 52:-0.0028485556 53:-0.0028485556 54:-0.01465493 55:-0.035969898 56:-0.045967475 57:-0.019581547 58:-0.019581547 59:-0.021826295 60:-0.038988359 61:-0.01488884 62:-0.024400547 63:-0.040641207 64:-0.013566105 65:-0.0045494861 66:-4.1188706e-18 67:-0.0014169024 68:-0.0091678128 69:-0.039543241 70:-0.02543246 71:-0.028823635 72:-0.025534008 73:-0.027764136 74:-0.040251151 75:-0.037021514 76:-0.012311814 77:-0.0093265688 78:-0.0015726746 79:3.0519344e-18 80:3.0717844e-18 81:-0.02123704 82:-0.020058416 83:-0.0072948392 84:2.1601741e-17 85:-4.099517e-17 86:-0.0040287878 87:-0.0078903018 88:-0.053502318 89:-0.011536831 90:-0.020637389 91:-0.035518475 92:-0.012217884 93:-0.041785795 94:-0.059574664 95:3.0519344e-18 96:-0.011536831 97:1.5388646e-18 98:-0.011955481 99:-0.00048992003 100:3.0717844e-18 101:3.0519344e-18 102:-0.056107379 103:-0.026313897 104:-0.01032461 105:-0.031618305 106:-0.0072476235 107:-0.013232016 108:-0.020881291 109:-0.024901152 110:-0.028276619 111:-0.018598884 112:-0.0075322022 113:-0.002784139 114:-0.013232016 115:-0.011690048 116:3.0519344e-18 117:3.0519344e-18 118:-0.02030139 119:2.1586853e-17 120:-0.01448608 121:-0.018086098 122:0.00031619894 123:-0.019866042 124:-4.3209705e-17 125:0.010628481 126:-0.010223513 127:-9.7797447e-20 128:-9.7797447e-20 129:-0.039858673 130:-0.0066165221 131:3.0519344e-18 132:2.1601741e-17 133:1.816197e-18 134:-0.042985827 135:-0.0099563049 136:-0.024191573 137:-0.0099563049 138:-0.0099563049 139:-0.0099563049 140:-0.027058396 141:-0.024534853 142:-0.030467533 143:-0.014577873 144:-0.0044375863 145:-0.0033661013 146:-0.0076295407 147:-0.025039697 148:-0.043532409 149:-0.014798393 150:-0.041659396 151:-0.010311027 152:-0.023060478 153:-0.010814532 154:-0.010479723 155:-0.0097858338 156:-0.024296232 157:-4.0513808e-17 158:2.927872e-18 159:2.927872e-18 160:3.0519344e-18 161:4.0811559e-17 162:3.0519344e-18 163:-0.0023646969 164:2.1586853e-17 165:-0.024873093 166:-0.027292408 167:-0.0062780012 168:-0.0070248987 169:3.0519344e-18 170:3.0519344e-18 171:3.0519344e-18 172:-0.0082061067 173:-0.0067455247 174:3.0519344e-18 175:-0.031766448 176:3.0717844e-18 177:3.0519344e-18 178:3.0519344e-18 179:3.0519344e-18 180:-0.022003964 181:-4.1188706e-18 182:3.0519344e-18 183:3.0519344e-18 184:-0.016913967 185:-0.033024926 186:-0.00011395013 187:-0.0025372934 188:-0.0023952397 189:-0.0024618292 190:1.4025209e-18 191:2.0136556e-17 192:-0.032103267 193:-0.010595729 194:-0.02850016 195:-0.010595729 196:-0.010595729 197:-0.010595729 198:-0.010595729 199:-0.010595729 200:-0.0097710546 201:-0.011583855 202:-0.013555301 203:3.0717844e-18 204:-0.0097710546 205:2.1601741e-17 206:-0.0041601947 207:-0.0080498876 208:3.0519344e-18 209:-0.013555301 210:-0.024383593 211:-0.018116135 212:-0.0085178204 213:-0.0011987173 214:-0.0039626108 215:-0.01936507 216:3.0717844e-18 217:-0.011266931 218:-0.015626853 219:3.0717844e-18 220:3.0519344e-18 221:3.0519344e-18 222:-0.011214497 223:-0.0046637296 224:-4.1188706e-18 225:-0.010720312 226:3.0717844e-18 227:-0.010524317 228:-1.4150059e-16 229:-0.023136711 230:-0.016281746 231:-0.018250836 232:3.0717844e-18 233:-0.031061837 234:-0.012134009 235:3.0519344e-18 236:-0.031003106 237:3.0717844e-18 238:3.0519344e-18 239:-0.005094436 240:3.0519344e-18 241:3.0717844e-18 242:3.0519344e-18 243:3.0519344e-18 244:-0.0089757694 245:-0.018629964 246:3.0519344e-18 247:2.0267937e-17 248:-0.0052320855 249:-0.013407655 250:3.0519344e-18 251:3.0519344e-18 252:3.0717844e-18 253:-0.025632218 254:-0.014319692 255:-0.0083142221 256:-0.014971072 257:-0.031739809 258:-0.0035795828 259:-0.0035795828 260:-0.0035795828 261:-0.0060381349 262:-0.0060381349 263:-0.014539835 264:-0.014518927 265:-0.006114786 266:-0.0053824126 267:-0.0051456974 268:1.7616856e-18 269:2.1586853e-17 270:-0.01627904 271:3.0519344e-18 272:-0.012293772 273:2.1586853e-17 274:3.0519344e-18 275:-0.005395927 276:6.2274345e-17 277:3.0519344e-18 278:3.0519344e-18 279:2.1586853e-17 280:2.1586853e-17 281:3.0519344e-18 282:-0.00050228072 283:3.0717844e-18 284:3.0519344e-18 285:-0.00087378488 286:-0.0094833504 287:-0.033164226 288:-0.038975537 289:-0.036222797 290:3.0717844e-18 291:5.1053422e-19 292:-0.054627638 293:3.0519344e-18 294:3.0519344e-18 295:-0.006155089 296:3.0717844e-18 297:-0.015766859 298:-0.004564798 299:3.0519344e-18 300:-0.004564798 301:-0.004564798 302:3.0717844e-18 303:3.0519344e-18 304:-0.01844185 305:-0.022915324 306:2.1601741e-17 307:-0.0064670444 308:-0.0064670444 309:3.0519344e-18 310:3.0519344e-18 311:3.0519344e-18 312:3.0519344e-18 313:3.0717844e-18 314:-4.1188706e-18 315:2.1586853e-17 316:1.7616856e-18 317:-4.0513808e-17 318:1.7616856e-18 319:-4.1819826e-17 320:1.9353731e-18 321:-4.0513808e-17 322:-0.0049710823 323:-0.04127394 324:-0.040867761 325:3.0519344e-18 326:2.1586853e-17 327:3.0717844e-18 328:2.1586853e-17 329:2.1586853e-17 330:3.0717844e-18 331:3.0717844e-18 332:-0.00440038 333:-0.0037134392 334:-0.041555241 335:-0.058242645 336:3.0717844e-18 337:3.0519344e-18 338:-0.00042655892 339:-0.00042655892 340:-0.0059077768 341:1.9353731e-18 342:3.0519344e-18 343:3.0519344e-18 344:-0.02877179 345:-0.032821577 346:-0.0074180965 347:-0.0027818964 348:-0.0019831918 349:-0.0061762962 350:-0.032821577 351:-0.0046401224 352:3.0519344e-18 353:-0.020311831 354:-0.01496438 355:-0.0032766117 356:3.0519344e-18 357:3.0519344e-18 358:-0.0046101105 359:-4.1188706e-18 360:3.0519344e-18 361:-0.010288334 362:3.0519344e-18 363:3.0519344e-18 364:-0.0032766117 365:3.0519344e-18 366:2.1586853e-17 367:-0.012040893 368:-0.014517343 369:-0.0038889679 370:2.1586853e-17 371:3.0519344e-18 372:2.1586853e-17 373:6.2274345e-17 374:-0.0039068586 375:3.0717844e-18 376:3.0519344e-18 377:3.0717844e-18 378:3.0519344e-18 379:2.1601741e-17 380:2.1601741e-17 381:2.1586853e-17 382:-0.010405498 383:-0.009945441 384:-0.015722666 385:-0.0076239393 386:-0.010405498 387:-0.02304727 388:-0.020376528 389:-0.0056725023 390:1.9353731e-18 391:2.1586853e-17 392:2.1586853e-17 393:3.0717844e-18 394:3.0519344e-18 395:0.01013786 396:-0.054580018 397:3.0519344e-18 398:3.0519344e-18 399:1.9353731e-18 400:-0.021403678 401:-0.019402063 402:-0.021403678 403:-0.021403678 404:-0.063734651 405:3.0717844e-18 406:3.0717844e-18 407:2.927872e-18 408:1.0119024e-16 409:-0.032583036 410:3.0519344e-18 411:2.1601741e-17 412:-0.011126201 413:-0.011756949 414:-0.0031663841 415:-0.011763921 416:-0.011756949 417:-0.011756949 418:-0.0031663841 419:-0.0031663841 420:-0.0078364192 421:-0.0094526941 422:-0.028192354 423:-0.0022104487 424:1.7616856e-18 425:3.0519344e-18 426:3.0519344e-18 427:3.0519344e-18 428:3.0519344e-18 429:-0.0028811938 430:2.1601741e-17 431:3.0717844e-18 432:3.0519344e-18 433:3.0519344e-18 434:3.0519344e-18 435:3.0519344e-18 436:1.0119024e-16 437:-6.6074058e-18 438:3.0519344e-18 439:-0.013954752 440:3.0519344e-18 441:-0.0053244368 442:1.7062557e-17 443:3.0519344e-18 444:2.1586853e-17 445:1.9353731e-18 446:2.1601741e-17 447:3.0519344e-18 448:2.1586853e-17 449:3.0717844e-18 450:-0.0030685563 451:2.1586853e-17 452:3.0519344e-18 453:3.0717844e-18 454:3.0519344e-18 455:-0.001608449 456:2.1586853e-17 457:-0.0025652281 458:3.0519344e-18 459:-0.00055677915 460:3.0519344e-18 461:3.0519344e-18 462:-6.6074058e-18 463:-6.6074058e-18 464:3.0519344e-18 465:3.0717844e-18 466:-0.008388048 467:3.0519344e-18 468:3.0519344e-18 469:-0.036402687 470:3.0519344e-18 471:3.0519344e-18 472:3.0519344e-18 473:-0.0056885662 474:-0.0035757013 475:-4.1188706e-18 476:3.0717844e-18 477:3.0519344e-18 478:3.0519344e-18 479:3.0717844e-18 480:6.2353748e-17 481:-4.1188706e-18 482:3.0717844e-18 483:-0.024510438 484:-0.024510438 485:-0.024510438 486:-0.0015405337 487:-0.009460574 488:1.7616856e-18 489:-0.0073881038 490:-1.747211e-18 491:-0.0063006873 492:-1.3884099e-18 493:1.7367059e-17 494:-1.747211e-18 495:-1.747211e-18 496:-0.016400743 497:-0.0094352989 498:-0.0061808666 499:6.2353748e-17 500:-0.014333168 501:2.1586853e-17 502:3.0717844e-18 503:3.0519344e-18 504:-0.033187795 505:3.0519344e-18 506:-0.0081889424 507:-0.011248672 508:3.0519344e-18 509:3.0519344e-18 510:-0.0074510574 511:-0.0093963016 512:2.1601741e-17 513:3.0519344e-18 514:-0.0054370584 515:-0.013319689 516:-0.025149355 517:-0.017135415 518:-0.013319689 519:-0.013319689 520:2.1586853e-17 521:3.0519344e-18 522:3.0519344e-18 523:-4.1188706e-18 524:1.9353731e-18 525:3.0717844e-18 526:3.0717844e-18 527:3.0519344e-18 528:3.0519344e-18 529:-0.0053493674 530:-0.021785377 531:3.0519344e-18 532:-0.021785377 533:3.0519344e-18 534:3.0519344e-18 535:3.0519344e-18 536:1.5388646e-18 537:-0.00011745254 538:-9.4234689e-05 539:-0.0098501435 540:-0.015270775 541:-0.020143522 542:-0.0011896391 543:2.1586853e-17 544:3.0519344e-18 545:-0.014018788 546:-0.01893075 547:3.0717844e-18 548:-0.012674597 549:3.0519344e-18 550:-0.010794717 551:-0.011558522 552:-0.0052010352 553:-0.0053244368 554:-0.010694058 555:-0.0054973364 556:-0.0052010352 557:-0.0054973364 558:3.0519344e-18 559:-0.018226434 560:3.0519344e-18 561:3.0519344e-18 562:-4.1188706e-18 563:-4.099517e-17 564:-0.0085101472 565:-0.009678537 566:3.0519344e-18 567:-0.018481292 568:-0.0152523 569:3.0519344e-18 570:3.0519344e-18 571:3.0519344e-18 572:-0.010514161 573:-0.0079059899 574:-0.0069515812 575:3.0519344e-18 576:3.0717844e-18 577:3.0519344e-18 578:3.0519344e-18 579:3.0519344e-18 580:3.0717844e-18 581:-0.0022548677 582:-0.0027113685 583:3.0519344e-18 584:3.0717844e-18 585:3.0519344e-18 586:3.0519344e-18 587:3.0519344e-18 588:3.0717844e-18 589:3.0519344e-18 590:3.0519344e-18 591:-0.018274913 592:-0.013981629 593:-0.012994144 594:-0.0059032324 595:2.1586853e-17 596:3.0519344e-18 597:-0.00058222853 598:-0.0031765911 599:-0.046377283 600:3.0519344e-18 601:-0.0035757013 602:3.0519344e-18 603:3.0519344e-18 604:-0.0133076 605:3.0519344e-18 606:3.0717844e-18 607:-0.0034691673 608:-0.017987093 609:-0.01406573 610:3.0717844e-18 611:3.0519344e-18 612:3.0519344e-18 613:3.0519344e-18 614:3.0519344e-18 615:3.0519344e-18 616:3.0519344e-18 617:1.9353731e-18 618:3.0717844e-18 619:3.0519344e-18 620:-0.015751796 621:-0.0060838019 622:-0.023418006 623:-0.0060838019 624:-0.0060838019 625:-0.005654119 626:-0.0060838019 627:-0.018446293 628:-0.045259681 629:3.0717844e-18 630:1.9353731e-18 631:3.0519344e-18 632:-0.008923687 633:-0.008923687 634:-0.008923687 635:-0.008923687 636:-9.7797447e-20 637:-0.0091641406 638:-0.0079737762 639:-0.0059151044 640:-0.0072598704 641:-0.0072598704 642:-0.0032295154 643:-0.0032295154 644:-0.0030014233 645:-0.002611557 646:-0.018114191 647:-0.0034940222 648:-9.7797447e-20 649:-0.019302815 650:-9.7797447e-20 651:-9.7797447e-20 652:3.0519344e-18 653:-0.042913936 654:-0.035772037 655:-0.037809961 656:-0.037809961 657:-0.003234897 658:2.1586853e-17 659:1.9353731e-18 660:3.0717844e-18 661:3.0717844e-18 662:-0.010504661 663:-0.00486635 664:-0.010504661 665:3.0519344e-18 666:-0.00486635 667:-0.0078184372 668:-0.00059851957 669:3.0519344e-18 670:3.0519344e-18 671:6.2274345e-17 672:3.0519344e-18 673:3.0519344e-18 674:-0.014744955 675:-0.014744955 676:-0.0058836723 677:-0.0054681241 678:-0.0058836723 679:-0.0058836723 680:-0.0058836723 681:-0.0058836723 682:-0.0058836723 683:-0.0058836723 684:-0.0058836723 685:-0.0058836723 686:-0.01448287 687:-0.0049798964 688:3.0519344e-18 689:1.9353731e-18 690:-0.015307955 691:3.0519344e-18 692:1.9353731e-18 693:3.0519344e-18 694:3.0717844e-18 695:3.0519344e-18 696:3.0519344e-18 697:3.0519344e-18 698:3.0519344e-18 699:3.0519344e-18 700:3.0519344e-18 701:-0.025429983 702:-0.019882852 703:-0.01513465 704:-0.01513465 705:-0.01513465 706:-0.01513465 707:-0.029905027 708:-0.0059524029 709:-0.012874993 710:3.0519344e-18 711:3.0519344e-18 712:3.0519344e-18 713:3.0519344e-18 714:3.0717844e-18 715:6.2274345e-17 716:2.1601741e-17 717:-4.1188706e-18 718:2.1586853e-17 719:-0.0086459154 720:-0.0086459154 721:-0.0086459154 722:-0.0076021827 723:-0.052099958 724:2.1601741e-17 725:3.0717844e-18 726:-0.011297303 727:3.0519344e-18 728:3.0519344e-18 729:-5.4083744e-18 730:-0.011297303 731:3.0519344e-18 732:3.0519344e-18 733:3.0519344e-18 734:3.0519344e-18 735:3.0717844e-18 736:-0.013260899 737:-0.016055139 738:-0.015808668 739:-0.0070251073 740:-0.037132535 741:-0.037132535 742:-0.037459098 743:3.0519344e-18 744:3.0519344e-18 745:3.0519344e-18 746:3.0519344e-18 747:3.0519344e-18 748:3.0519344e-18 749:3.0519344e-18 750:3.0519344e-18 751:3.0519344e-18 752:3.0519344e-18 753:2.1601741e-17 754:3.0519344e-18 755:-0.015288064 756:-0.015288064 757:-0.0071883867 758:-0.0071883867 759:-0.013220292 760:-0.00075232307 761:-0.00075232307 762:-0.00075232307 763:-0.00075232307 764:-0.00075232307 765:-0.00075232307 766:-0.00075232307 767:-0.00075232307 768:-0.00075232307 769:3.0519344e-18 770:1.9353731e-18 771:3.0717844e-18 772:-0.0062678289 773:-0.046732884 774:-0.020070961 775:-0.00066216488 776:1.9353731e-18 777:3.0519344e-18 778:3.0519344e-18 779:3.0717844e-18 780:3.0519344e-18 781:3.0519344e-18 782:3.0519344e-18 783:3.0519344e-18 784:3.0519344e-18 785:3.0519344e-18 786:3.0519344e-18 787:3.0519344e-18 788:-0.024630077 789:-0.014016369 790:-0.0024561933 791:-0.0027934134 792:-0.0021838776 793:-0.017526748 794:-0.015861023 795:-0.017526748 796:-0.0055516176 797:3.0519344e-18 798:3.0519344e-18 799:3.0519344e-18 800:1.9353731e-18 801:3.0519344e-18 802:-0.014399181 803:3.0519344e-18 804:3.0717844e-18 805:-4.1188706e-18 806:-0.0040869336 807:3.0519344e-18 808:-0.0032454696 809:-0.0030162507 810:-0.011955481 811:-0.0027090085 812:3.0519344e-18 813:-0.033895299 814:3.0519344e-18 815:3.0519344e-18 816:3.0519344e-18 817:3.0519344e-18 818:3.0519344e-18 819:-0.001608449 820:-0.01498374 821:-0.017876811 822:-0.017876811 823:-0.017876811 824:-0.026833745 825:3.0519344e-18 826:3.0519344e-18 827:3.0519344e-18 828:-1.9670427e-18 829:-0.011496624 830:3.0717844e-18 831:-0.029150955 832:3.0519344e-18 833:3.0519344e-18 834:3.0519344e-18 835:3.0717844e-18 836:3.0519344e-18 837:3.0717844e-18 838:3.0717844e-18 839:2.1586853e-17 840:3.0519344e-18 841:3.0519344e-18 842:3.0519344e-18 843:-0.00057590654 844:-0.012955777 845:3.0519344e-18 846:1.9353731e-18 847:3.0717844e-18 848:6.105704e-17 849:3.0519344e-18 850:3.0519344e-18 851:3.0519344e-18 852:3.0519344e-18 853:3.0519344e-18 854:1.9991218e-17 855:2.1586853e-17 856:1.9353731e-18 857:3.0519344e-18 858:3.0519344e-18 859:1.9353731e-18 860:3.0519344e-18 861:3.0717844e-18 862:-0.012121625 863:-0.013785848 864:-0.013785848 865:-0.013785848 866:-0.00080949563 867:-0.00080949563 868:-0.00080949563 869:-0.0073476108 870:3.0519344e-18 871:3.0519344e-18 872:3.0519344e-18 873:3.0519344e-18 874:-0.013221125 875:3.0519344e-18 876:3.0519344e-18 877:3.0519344e-18 878:-0.011090407 879:3.0519344e-18 880:3.0519344e-18 881:-0.0050578807 882:3.0519344e-18 883:2.1586853e-17 884:3.0717844e-18 885:3.0717844e-18 886:3.0717844e-18 887:3.0519344e-18 888:3.0519344e-18 889:-0.0068659848 890:3.0519344e-18 891:3.0519344e-18 892:3.0717844e-18 893:3.0519344e-18 894:3.0519344e-18 895:2.1601741e-17 896:-0.016505303 897:-0.016505303 898:-0.016505303 899:-0.025164586 900:-0.025164586 901:-0.025164586 902:-0.025164586 903:3.0519344e-18 904:3.0717844e-18 905:3.0519344e-18 906:3.0519344e-18 907:3.0519344e-18 908:3.0519344e-18 909:-0.00058222853 910:3.0519344e-18 911:3.0519344e-18 912:3.0519344e-18 913:3.0717844e-18 914:3.0519344e-18 915:3.0519344e-18 916:3.0519344e-18 917:3.0519344e-18 918:3.0519344e-18 919:3.0519344e-18 920:3.0519344e-18 921:-0.0042575034 922:3.0519344e-18 923:3.0519344e-18 924:3.0519344e-18 925:3.0717844e-18 926:3.0519344e-18 927:3.0519344e-18 928:3.0519344e-18 929:-0.0068265041 930:3.0519344e-18 931:1.7616856e-18 932:-0.0072154077 933:-0.0072154077 934:-0.014390877 935:-0.0064701247 936:-0.0064701247 937:-0.0077000856 938:3.0717844e-18 939:1.9353731e-18 940:5.1053422e-19 941:2.1601741e-17 942:-0.015391946 943:-0.019034056 944:-0.016736271 945:2.1601741e-17 946:3.0519344e-18 947:2.1601741e-17 948:-0.034333091 949:-0.036942221 950:-0.034333091 951:-0.0035924299 952:-0.023031166 953:-0.0038654353 954:-0.0038654353 955:-0.0038654353 956:-0.0038654353 957:-0.0033984887 958:-0.0037237164 959:3.0519344e-18 960:3.0717844e-18 961:3.0519344e-18 962:3.0519344e-18 963:-0.0067802272 964:-0.020185629 965:3.0519344e-18 966:3.0519344e-18 967:1.9353731e-18 968:3.0519344e-18 969:2.0136556e-17 970:-0.0033988012 971:-0.0035924299 972:-0.0031257956 973:-0.008535183 974:-0.0079323649 975:-0.008535183 976:-0.008535183 977:-0.0079323649 978:-0.008535183 979:-0.008535183 980:-0.012382436 981:3.0717844e-18 982:3.0717844e-18 983:3.0717844e-18 984:3.0519344e-18 985:2.1586853e-17 986:3.0519344e-18 987:3.0519344e-18 988:-0.0017000819 989:3.0519344e-18 990:3.0519344e-18 991:-0.0024518119 992:3.0519344e-18 993:3.0519344e-18 994:3.0519344e-18 995:3.0519344e-18 996:3.0519344e-18 997:2.1586853e-17 998:-0.030557446 999:3.0519344e-18 1000:3.0519344e-18 1001:-0.010290362 1002:-0.0039626108 1003:3.0519344e-18 1004:3.0519344e-18 1005:3.0519344e-18 1006:-0.060114969 1007:1.4025209e-18 1008:1.4025209e-18 1009:1.4025209e-18 1010:1.5388646e-18 1011:1.868626e-17 1012:1.4025209e-18 1013:-0.0044413256 1014:0.020192578 1015:2.1586853e-17 1016:-0.0088424869 1017:-0.00013692518 1018:-0.00014733076 1019:-0.0077617196 1020:3.0519344e-18 1021:3.0717844e-18 1022:3.0717844e-18 1023:3.0519344e-18 1024:-0.018647382 1025:-0.013125749 1026:-0.016231623 1027:-0.016231623 1028:-0.0067273062 1029:3.0519344e-18 1030:3.0717844e-18 1031:-0.0067273062 1032:3.0519344e-18 1033:3.0519344e-18 1034:3.0519344e-18 1035:3.0519344e-18 1036:3.0519344e-18 1037:-0.004288014 1038:-0.028554903 1039:-0.013496974 1040:3.0717844e-18 1041:3.0519344e-18 1042:3.0717844e-18 1043:3.0717844e-18 1044:3.0717844e-18 1045:3.0717844e-18 1046:-0.021494595 1047:-0.0042637479 1048:-0.0042637479 1049:-0.0077637401 1050:-0.0077637401 1051:-0.0077637401 1052:3.0519344e-18 1053:3.0717844e-18 1054:3.0519344e-18 1055:3.0717844e-18 1056:3.0519344e-18 1057:3.0519344e-18 1058:-0.0067826631 1059:3.0519344e-18 1060:-0.00488328 1061:3.0519344e-18 1062:3.0519344e-18 1063:3.0519344e-18 1064:3.0519344e-18 1065:3.0717844e-18 1066:3.0519344e-18 1067:5.4919804e-19 1068:-0.011297303 1069:3.0519344e-18 1070:3.0519344e-18 1071:3.0519344e-18 1072:3.0519344e-18 1073:3.0519344e-18 1074:3.0519344e-18 1075:3.0519344e-18 1076:3.0519344e-18 1077:3.0717844e-18 1078:3.0519344e-18 1079:3.0519344e-18 1080:3.0519344e-18 1081:3.0519344e-18 1082:3.0519344e-18 1083:-0.011773211 1084:-0.012667912 1085:-0.012667912 1086:-0.011253054 1087:-0.010413558 1088:-0.0094166799 1089:-0.011204933 1090:-0.011204933 1091:-0.011204933 1092:-0.010413558 1093:-0.011204933 1094:2.1586853e-17 1095:3.0519344e-18 1096:3.0519344e-18 1097:3.0717844e-18 1098:1.9353731e-18 1099:3.0519344e-18 1100:3.0519344e-18 1101:-0.0076309093 1102:2.1586853e-17 1103:3.0519344e-18 1104:3.0717844e-18 1105:3.0519344e-18 1106:3.0519344e-18 1107:3.0519344e-18 1108:2.0267937e-17 1109:3.0519344e-18 1110:-0.0061577209 1111:3.0717844e-18 1112:3.0717844e-18 1113:3.0519344e-18 1114:3.0519344e-18 1115:3.0717844e-18 1116:-0.011325508 1117:-0.010313908 1118:3.0519344e-18 1119:3.0519344e-18 1120:-0.0040524392 1121:-0.0038340164 1122:3.0519344e-18 1123:3.0519344e-18 1124:3.0519344e-18 1125:-0.0091855386 1126:-0.0028569847 1127:-0.0021671467 1128:-0.0028569847 1129:-0.0028569847 1130:-0.0028569847 1131:-0.0028569847 1132:-0.0028569847 1133:-0.0026552035 1134:3.0519344e-18 1135:3.0519344e-18 1136:3.0519344e-18 1137:-0.0048967567 1138:2.1586853e-17 1139:-0.0080845486 1140:1.7062557e-17 1141:-0.014466691 1142:-0.0050006374 1143:3.0519344e-18 1144:3.0519344e-18 1145:3.0519344e-18 1146:3.0519344e-18 1147:-0.014399181 1148:3.0519344e-18 1149:3.0717844e-18 1150:3.0519344e-18 1151:3.0519344e-18 1152:3.0519344e-18 1153:-0.0078184372 1154:-0.0063006873 1155:-0.0067795059 1156:-0.0060554491 1157:-0.013221125 1158:0.023959456 1159:0.023959456 1160:-0.01422586 1161:-0.01422586 1162:2.1586853e-17 1163:2.1586853e-17 1164:-0.025767235 1165:-0.008516877 1166:-0.0091641145 1167:3.0717844e-18 1168:2.1586853e-17 1169:2.1586853e-17 1170:3.0717844e-18 1171:3.0717844e-18 1172:3.0717844e-18 1173:3.0519344e-18 1174:2.1586853e-17 1175:3.0717844e-18 1176:3.0519344e-18 1177:3.0519344e-18 1178:3.0717844e-18 1179:3.0519344e-18 1180:3.0717844e-18 1181:3.0519344e-18 1182:1.9353731e-18 1183:3.0519344e-18 1184:-0.013883006 1185:3.0519344e-18 1186:3.0519344e-18 1187:3.0519344e-18 1188:-0.0023833269 1189:3.0717844e-18 1190:-0.0055070836 1191:-0.0059255925 1192:-0.0080048405 1193:-0.012848352 1194:3.0519344e-18 1195:-0.0039128154 1196:3.0519344e-18 1197:3.0519344e-18 1198:3.0717844e-18 1199:3.0519344e-18 1200:3.0519344e-18 1201:-0.0057962043 1202:-0.0057962043 1203:-0.0057962043 1204:-0.0053868336 1205:-0.0057962043 1206:-0.0057962043 1207:-0.0057962043 1208:-0.022697756 1209:-0.022697756 1210:-0.022697756 1211:-0.001829279 1212:-0.001608449 1213:-0.001829279 1214:-0.001829279 1215:-0.001829279 1216:-0.001829279 1217:-0.0042071785 1218:-0.0040820488 1219:-0.0047892905 1220:3.0717844e-18 1221:-0.0043308167 1222:-0.0047892905 1223:3.0519344e-18 1224:3.0519344e-18 1225:3.0519344e-18 1226:3.0519344e-18 1227:3.0519344e-18 1228:-0.02344095 1229:3.0519344e-18 1230:3.0519344e-18 1231:-0.0095834145 1232:-0.0060126423 1233:3.0717844e-18 1234:-0.0042637479 1235:-0.0042637479 1236:-0.0042637479 1237:-0.0042637479 1238:-0.0042637479 1239:-0.0039626108 1240:-0.0042637479 1241:-0.0042637479 1242:-0.0042637479 1243:-0.0020116193 1244:-0.0045585604 1245:3.0717844e-18 1246:3.0717844e-18 1247:3.0519344e-18 1248:3.0519344e-18 1249:-0.0073476108 1250:3.0717844e-18 1251:3.0519344e-18 1252:-0.016902709 1253:-0.0042101685 1254:-0.0042101685 1255:-0.0042101685 1256:-0.0042101685 1257:-0.0042101685 1258:3.0519344e-18 1259:3.0519344e-18 1260:3.0519344e-18 1261:3.0519344e-18 1262:3.0717844e-18 1263:-0.0070266058 1264:-0.0070266058 1265:-0.0070266058 1266:-0.0070266058 1267:3.0519344e-18 1268:3.0717844e-18 1269:3.0717844e-18 1270:3.0519344e-18 1271:-4.1188706e-18 1272:3.0519344e-18 1273:-0.0055393819 1274:3.0519344e-18 1275:3.0519344e-18 1276:3.0519344e-18 1277:-0.00055648654 1278:3.0519344e-18 1279:3.0519344e-18 1280:-0.0021551736 1281:3.0519344e-18 1282:3.0519344e-18 1283:3.0717844e-18 1284:3.0519344e-18 1285:3.0519344e-18 1286:3.0519344e-18 1287:3.0717844e-18 1288:1.9353731e-18 1289:-0.012001461 1290:3.0519344e-18 1291:3.0519344e-18 1292:3.0519344e-18 1293:3.0519344e-18 1294:3.0519344e-18 1295:3.0519344e-18 1296:3.0519344e-18 1297:3.0519344e-18 1298:-0.0076239393 1299:-0.0070854803 1300:-0.0097344024 1301:-0.012713692 1302:-0.0097344024 1303:-0.0097344024 1304:-0.0097344024 1305:-0.0097344024 1306:-0.01065362 1307:-0.01065362 1308:-0.01065362 1309:-0.0073476108 1310:3.0519344e-18 1311:3.0519344e-18 1312:3.0519344e-18 1313:3.0519344e-18 1314:3.0519344e-18 1315:3.0519344e-18 1316:3.0519344e-18 1317:3.0519344e-18 1318:3.0519344e-18 1319:3.0519344e-18 1320:3.0717844e-18 1321:3.0519344e-18 1322:-0.0060999095 1323:-0.0060999095 1324:-0.0060999095 1325:-0.0060999095 1326:-0.0061489148 1327:-0.021914104 1328:-0.0061489148 1329:3.0519344e-18 1330:3.0519344e-18 1331:3.0519344e-18 1332:3.0519344e-18 1333:3.0519344e-18 1334:-0.00066188071 1335:3.0519344e-18 1336:3.0519344e-18 1337:0.036193214 1338:-0.012446604 1339:3.0519344e-18 1340:3.0519344e-18 1341:3.0519344e-18 1342:3.0717844e-18 1343:-0.0030361449 1344:3.0519344e-18 1345:3.0519344e-18 1346:3.0519344e-18 1347:3.0519344e-18 1348:3.0519344e-18 1349:3.0519344e-18 1350:3.0519344e-18 1351:3.0519344e-18 1352:3.0717844e-18 1353:3.0519344e-18 1354:3.0519344e-18 1355:3.0519344e-18 1356:3.0519344e-18 1357:3.0519344e-18 1358:3.0519344e-18 1359:3.0519344e-18 1360:3.0519344e-18 1361:3.0519344e-18 1362:3.0519344e-18 1363:3.0519344e-18 1364:3.0519344e-18 1365:3.0519344e-18 1366:3.0519344e-18 1367:3.0519344e-18 1368:-9.7797447e-20 1369:-9.7797447e-20 1370:3.0519344e-18 1371:-0.026564825 1372:-0.015766393 1373:-0.02015594 1374:-0.014652855 1375:-0.015766393 1376:-0.015766393 1377:-0.0085446164 1378:-0.010698962 1379:-0.0091851866 1380:1.9353731e-18 1381:3.0519344e-18 1382:3.0519344e-18 1383:3.0519344e-18 1384:3.0717844e-18 1385:-0.0062999045 1386:-0.0062999045 1387:-0.0062999045 1388:-0.0062999045 1389:-0.0062999045 1390:-0.0062999045 1391:-0.0062999045 1392:-0.0062999045 1393:-0.0030614014 1394:-0.00269183 1395:-0.0030614014 1396:-0.0030614014 1397:-0.013135544 1398:3.0519344e-18 1399:3.0519344e-18 1400:3.0519344e-18 1401:3.0519344e-18 1402:3.0519344e-18 1403:3.0519344e-18 1404:3.0519344e-18 1405:3.0519344e-18 1406:3.0519344e-18 1407:3.0519344e-18 1408:3.0519344e-18 1409:3.0519344e-18 1410:3.0519344e-18 1411:1.4025209e-18 1412:1.4025209e-18 1413:1.4025209e-18 1414:3.0717844e-18 1415:-0.0047047255 1416:-1.747211e-18 1417:-0.0073476108 1418:3.0519344e-18 1419:3.0519344e-18 1420:3.0519344e-18 1421:3.0519344e-18 1422:3.0519344e-18 1423:3.0519344e-18 1424:3.0519344e-18 1425:1.9353731e-18 1426:-0.012955777 1427:3.0519344e-18 1428:3.0717844e-18 1429:-0.015095017 1430:-0.01116416 1431:-0.01116416 1432:-0.01116416 1433:-0.01116416 1434:-0.0037264698 1435:1.4025209e-18 1436:1.4025209e-18 1437:-0.011813284 1438:3.0519344e-18 1439:3.0717844e-18 1440:3.0519344e-18 1441:3.0717844e-18 1442:3.0519344e-18 1443:3.0519344e-18 1444:3.0519344e-18 1445:3.0519344e-18 1446:3.0519344e-18 1447:3.0519344e-18 1448:3.0519344e-18 1449:3.0519344e-18 1450:3.0519344e-18 1451:-0.00066188071 1452:3.0519344e-18 1453:3.0519344e-18 1454:3.0519344e-18 1455:3.0519344e-18 1456:3.0519344e-18 1457:3.0519344e-18 1458:3.0519344e-18 1459:3.0519344e-18 1460:3.0717844e-18 1461:3.0519344e-18 1462:3.0519344e-18 1463:-0.00059851957 1464:-0.0069585051 1465:-0.0069585051 1466:-0.0069585051 1467:-0.00066216488 1468:3.0519344e-18 1469:3.0519344e-18 1470:3.0519344e-18 1471:3.0519344e-18 1472:3.0519344e-18 1473:3.0519344e-18 1474:-0.0060437922 1475:3.0519344e-18 1476:3.0519344e-18 1477:3.0519344e-18 1478:3.0519344e-18 1479:3.0519344e-18 1480:3.0519344e-18 1481:3.0519344e-18 1482:-0.0057978942 1483:3.0717844e-18 1484:3.0519344e-18 1485:3.0519344e-18 1486:3.0519344e-18 1487:3.0519344e-18 1488:3.0519344e-18 1489:2.1586853e-17 1490:3.0519344e-18 1491:3.0717844e-18 1492:3.0519344e-18 1493:3.0717844e-18 1494:-0.056925453 1495:3.0717844e-18 1496:3.0519344e-18 1497:3.0519344e-18 1498:3.0519344e-18 1499:-0.022615528 1500:-0.026910281 1501:-0.0080048405 1502:-0.0080048405 1503:-0.0074394797 1504:-0.0080048405 1505:-0.0080048405 1506:3.0519344e-18 1507:3.0519344e-18 1508:-0.022222459 1509:-0.022222459 1510:-0.022222459 1511:-0.020652946 1512:-0.011372792 1513:-0.012180928 1514:-0.012180928 1515:3.0519344e-18 1516:3.0519344e-18 1517:3.0519344e-18 1518:-0.011853648 1519:-0.011853648 1520:-0.011853648 1521:3.0519344e-18 1522:3.0519344e-18 1523:3.0519344e-18 1524:3.0519344e-18 1525:3.0519344e-18 1526:3.0519344e-18 1527:3.0519344e-18 1528:3.0519344e-18 1529:3.0519344e-18 1530:3.0519344e-18 1531:-0.004422213 1532:1.4025209e-18 1533:-0.003509762 1534:1.7337717e-17 1535:1.4025209e-18 1536:1.4025209e-18 1537:1.4025209e-18 1538:1.4025209e-18 1539:1.4025209e-18 1540:-0.0060178475 1541:-0.005592823 1542:-0.0060178475 1543:-0.0060178475 1544:3.0519344e-18 1545:3.0519344e-18 1546:3.0519344e-18 1547:3.0519344e-18 1548:3.0519344e-18 1549:3.0519344e-18 1550:3.0519344e-18 1551:-0.0073169675 1552:3.0519344e-18 1553:3.0519344e-18 1554:-0.0096018389 1555:-0.0096018389 1556:-0.0096018389 1557:-0.0020232021 1558:-0.0010116011 1559:-0.0010884773 1560:3.0717844e-18 1561:3.0519344e-18 1562:2.1586853e-17 1563:2.1586853e-17 1564:-0.018876238 1565:-0.018876238 1566:-0.002755638 1567:-0.002755638 1568:3.0519344e-18 1569:3.0519344e-18 1570:3.0519344e-18 1571:-0.0065716542 1572:-0.0025236742 1573:3.0519344e-18 1574:3.0717844e-18 1575:3.0519344e-18 1576:3.0519344e-18 1577:3.0519344e-18 1578:3.0717844e-18 1579:-0.0060178475 1580:-0.0060178475 1581:-0.0060178475 1582:-0.0060178475 1583:3.0519344e-18 1584:1.8788013e-17 1585:3.0519344e-18 1586:-0.001704936 1587:-0.001704936 1588:-0.001704936 1589:-0.001704936 1590:-0.001704936 1591:-0.0017000819 1592:-0.0017000819 1593:-0.0017000819 1594:3.0519344e-18 1595:3.0519344e-18 1596:3.0519344e-18 1597:3.0519344e-18 1598:3.0519344e-18 1599:-0.016471278 1600:-0.016471278 1601:-0.016471278 1602:-0.0087637184 1603:-0.0079247765 1604:-0.0094297137 1605:-0.0094297137 1606:-0.0094297137 1607:-0.0094297137 1608:-0.0078730183 1609:0.028469298 1610:-0.010529505 1611:-0.010529505 1612:-0.010529505 1613:-0.010529505 1614:-0.0084599052 1615:-0.0084599052 1616:3.0519344e-18 1617:-0.01072086 1618:3.0519344e-18 1619:3.0519344e-18 1620:3.0519344e-18 1621:3.0519344e-18 1622:3.0519344e-18 1623:3.0519344e-18 1624:3.0519344e-18 1625:-0.012578429 1626:3.0519344e-18 1627:3.0519344e-18 1628:3.0519344e-18 1629:3.0519344e-18 1630:-0.0020116193 1631:-0.0020116193 1632:-0.0020116193 1633:3.0519344e-18 1634:3.0519344e-18 1635:3.0519344e-18 1636:3.0519344e-18 1637:3.0519344e-18 1638:-0.0017000819 1639:3.0519344e-18 1640:3.0519344e-18 1641:3.0519344e-18 1642:3.0519344e-18 1643:3.0519344e-18 1644:3.0519344e-18 1645:3.0519344e-18 1646:3.0519344e-18 1647:3.0519344e-18 1648:3.0519344e-18 1649:3.0519344e-18 1650:3.0519344e-18 1651:3.0519344e-18 1652:3.0519344e-18 1653:3.0519344e-18 1654:2.1586853e-17 1655:3.0717844e-18 1656:3.0717844e-18 1657:3.0519344e-18 1658:3.0519344e-18 1659:3.0519344e-18 1660:3.0519344e-18 1661:3.0519344e-18 1662:-0.00066216488 1663:-0.00066216488 1664:-0.00066216488 1665:-0.00066216488 1666:-0.00066216488 1667:-0.00066216488 1668:-0.00066216488 1669:3.0519344e-18 1670:3.0519344e-18 1671:3.0519344e-18 1672:3.0519344e-18 1673:3.0519344e-18 1674:3.0519344e-18 1675:3.0519344e-18 1676:3.0519344e-18 1677:3.0519344e-18 1678:3.0519344e-18 1679:3.0717844e-18 1680:3.0519344e-18 1681:3.0519344e-18 1682:3.0519344e-18 1683:-0.014613695 1684:-0.0041377796 1685:-0.014613695 1686:3.0519344e-18 1687:3.0717844e-18 1688:3.0519344e-18 1689:3.0519344e-18 1690:-0.026377304 1691:-0.011072374 1692:3.0519344e-18 1693:3.0519344e-18 1694:3.0519344e-18 1695:3.0519344e-18 1696:3.0519344e-18 1697:3.0519344e-18 1698:3.0519344e-18 1699:-0.038931053 1700:-0.0010116011 1701:-0.0010884773 1702:-0.0010116011 1703:-0.0010884773 1704:-0.0010884773 1705:-0.0075589782 1706:-0.0075589782 1707:3.0519344e-18 1708:3.0519344e-18 1709:3.0519344e-18 1710:-0.0020361564 1711:-0.0020361564 1712:-0.0018923479 1713:3.0519344e-18 1714:3.0519344e-18 1715:3.0519344e-18 1716:3.0519344e-18 1717:3.0519344e-18 1718:-0.015307955 1719:-0.016471278 1720:-0.016471278 1721:-0.016471278 1722:3.0519344e-18 1723:3.0519344e-18 1724:3.0519344e-18 1725:3.0519344e-18 1726:3.0519344e-18 1727:-0.0041527823 1728:3.0717844e-18 1729:3.0717844e-18 1730:3.0519344e-18 1731:3.0519344e-18 1732:3.0519344e-18 1733:3.0519344e-18 1734:3.0519344e-18 1735:3.0519344e-18 1736:3.0717844e-18 1737:3.0519344e-18 1738:3.0519344e-18 1739:3.0519344e-18 1740:-0.0039128154 1741:-0.0042101685 1742:-0.0039128154 1743:-0.0073388866 1744:3.0519344e-18 1745:3.0519344e-18 1746:-0.037710328 1747:3.0519344e-18 1748:-0.0052430495 1749:-0.0052430495 1750:-0.0052430495 1751:-0.020140802 1752:-0.020140802 1753:-0.0083876066 1754:-0.0083876066 1755:-0.0083876066 1756:-0.0083876066 1757:-0.0041377796 1758:-0.0041377796 1759:-0.0041377796 1760:-0.0010884773 1761:-0.0010884773 1762:-0.0010884773 1763:-0.0010884773 1764:-0.0010884773 1765:-0.0010884773 1766:3.0519344e-18 1767:3.0519344e-18 1768:-0.00080949563 1769:3.0519344e-18 1770:-0.0012328556 1771:3.0717844e-18 1772:3.0519344e-18 1773:3.0519344e-18 1774:3.0519344e-18 1775:3.0519344e-18 1776:3.0519344e-18 1777:3.0519344e-18 1778:3.0519344e-18 1779:3.0519344e-18 1780:3.0519344e-18 1781:3.0519344e-18 1782:3.0519344e-18 1783:3.0519344e-18 1784:3.0519344e-18 1785:3.0519344e-18 1786:3.0519344e-18 1787:3.0519344e-18 1788:3.0519344e-18 1789:3.0519344e-18 1790:3.0519344e-18 1791:3.0519344e-18 1792:3.0717844e-18 1793:3.0519344e-18 1794:3.0519344e-18 1795:3.0519344e-18 1796:3.0519344e-18 1797:3.0519344e-18 1798:3.0519344e-18 1799:3.0519344e-18 1800:3.0519344e-18 1801:3.0519344e-18 1802:3.0717844e-18 1803:3.0519344e-18 1804:3.0519344e-18 1805:3.0717844e-18 1806:3.0519344e-18 1807:3.0519344e-18 1808:-0.0010884773 1809:-0.0010884773 1810:3.0519344e-18 1811:1.9353731e-18 1812:1.1349591e-19 1813:-1.6314866e-18 1814:3.0519344e-18 1815:3.0519344e-18 1816:3.0519344e-18 1817:-0.0082721151 1818:-0.0082721151 1819:3.0519344e-18 1820:3.0519344e-18 1821:3.0717844e-18 1822:3.0519344e-18 1823:3.0519344e-18 1824:3.0519344e-18 1825:3.0519344e-18 1826:3.0519344e-18 1827:3.0519344e-18 1828:3.0519344e-18 1829:3.0519344e-18 1830:3.0519344e-18 1831:3.0717844e-18 1832:3.0519344e-18 1833:3.0519344e-18 1834:3.0519344e-18 1835:3.0519344e-18 1836:3.0519344e-18 1837:3.0519344e-18 1838:3.0519344e-18 1839:3.0519344e-18 1840:3.0519344e-18 1841:3.0519344e-18 1842:-0.0015845209 1843:3.0519344e-18 1844:3.0519344e-18 1845:-0.0031663841 1846:-0.0096379602 1847:-0.0065939086 1848:-0.0065939086 1849:-0.0065939086 1850:-0.0065939086 1851:-0.0065939086 1852:3.0519344e-18 1853:3.0519344e-18 1854:3.0519344e-18 1855:3.0519344e-18 1856:3.0519344e-18 1857:3.0519344e-18 1858:3.0519344e-18 1859:3.0519344e-18 1860:3.0519344e-18 1861:3.0519344e-18 1862:3.0519344e-18 1863:3.0519344e-18 1864:3.0717844e-18 1865:3.0519344e-18 1866:3.0519344e-18 1867:3.0519344e-18 1868:3.0519344e-18 1869:3.0519344e-18 1870:3.0519344e-18 1871:3.0519344e-18 1872:-0.021529824 1873:3.0519344e-18 1874:3.0519344e-18 1875:3.0519344e-18 1876:3.0519344e-18 1877:3.0519344e-18 1878:3.0519344e-18 1879:3.0519344e-18 1880:3.0717844e-18 1881:3.0519344e-18 1882:3.0519344e-18 1883:3.0519344e-18 1884:3.0717844e-18 1885:3.0519344e-18 1886:3.0519344e-18 1887:3.0519344e-18 1888:3.0519344e-18 1889:3.0519344e-18 1890:-0.034085236 1891:-0.034085236 1892:-0.034085236 1893:1.4025209e-18 1894:-0.0041377796 1895:-0.0041377796 1896:-0.0041377796 1897:-0.0041377796 1898:-0.0041377796 1899:-0.0041377796 1900:-0.0041377796 1901:-0.01271103 1902:-0.0055471319 1903:-0.0059686839 1904:-0.0055471319 1905:-0.0095785838 1906:-0.0036127174 1907:-0.0036127174 1908:-0.0036127174 1909:-0.0036127174 1910:-0.0036127174 1911:-0.0036127174 1912:-0.0036127174 1913:-0.0036127174 1914:-0.0036127174 1915:-0.0036127174 1916:-0.0036127174 1917:-0.0036127174 1918:-0.0036127174 1919:-0.0036127174 1920:-0.0036127174 1921:3.0717844e-18 1922:3.0519344e-18 1923:3.0519344e-18 1924:3.0519344e-18 1925:3.0519344e-18 1926:3.0519344e-18 1927:3.0519344e-18 1928:3.0519344e-18 1929:3.0519344e-18 1930:3.0519344e-18 1931:-0.016376099 1932:-0.0051532509 1933:-0.0051532509 1934:3.0519344e-18 1935:-0.003552153 1936:-0.003552153 1937:-0.003552153 1938:3.0519344e-18 1939:3.0519344e-18 1940:3.0519344e-18 1941:3.0519344e-18 1942:3.0519344e-18 1943:3.0717844e-18 1944:3.0519344e-18 1945:-0.0051532509 1946:-0.0051532509 1947:-0.0051532509 1948:3.0519344e-18 1949:3.0519344e-18 1950:3.0519344e-18 1951:3.0519344e-18 1952:3.0519344e-18 1953:3.0519344e-18 1954:3.0519344e-18 1955:3.0519344e-18 1956:3.0519344e-18 1957:3.0519344e-18 1958:3.0519344e-18 1959:3.0519344e-18 1960:3.0519344e-18 1961:3.0519344e-18 1962:3.0519344e-18 1963:3.0519344e-18 1964:3.0519344e-18 1965:3.0519344e-18 1966:3.0519344e-18 1967:3.0717844e-18 1968:3.0519344e-18 1969:3.0519344e-18 1970:-0.021962974 1971:-0.021962974 1972:-0.021962974 1973:3.0519344e-18 1974:3.0519344e-18 1975:-0.0023671009 1976:-0.0023671009 1977:-0.0023671009 1978:-0.0023671009 1979:-0.003509762 1980:3.0519344e-18 1981:3.0519344e-18 1982:3.0519344e-18 1983:3.0519344e-18 1984:3.0519344e-18 1985:3.0519344e-18 1986:3.0519344e-18 1987:3.0519344e-18 1988:3.0519344e-18 1989:3.0519344e-18 1990:3.0519344e-18 1991:3.0519344e-18 1992:3.0519344e-18 1993:3.0519344e-18 1994:3.0717844e-18 1995:-0.0096726166 1996:-0.0096726166 1997:-0.0096726166 1998:3.0519344e-18 1999:3.0519344e-18 2000:3.0519344e-18 2001:3.0519344e-18 2002:3.0519344e-18 2003:3.0519344e-18 2004:3.0519344e-18 2005:-0.001704936 2006:-0.001704936 2007:-0.001704936 2008:-0.001704936 2009:-0.001704936 2010:-0.001704936 2011:-0.001704936 2012:-0.0098492336 2013:3.0519344e-18 2014:3.0519344e-18 2015:3.0519344e-18 2016:3.0519344e-18 2017:3.0519344e-18 2018:3.0717844e-18 2019:3.0519344e-18 2020:3.0519344e-18 2021:3.0519344e-18 2022:3.0519344e-18 2023:3.0519344e-18 2024:1.5182452e-18 2025:3.0519344e-18 2026:3.0519344e-18 2027:3.0519344e-18 2028:3.0519344e-18 2029:3.0519344e-18 2030:3.0519344e-18 2031:3.0519344e-18 2032:3.0519344e-18 2033:3.0519344e-18 2034:3.0519344e-18 2035:-0.00013962371 2036:-0.00013962371 2037:3.0519344e-18 2038:3.0519344e-18 2039:3.0519344e-18 2040:3.0519344e-18 2041:-0.021876886 2042:-0.0047584963 2043:-0.021876886 2044:3.0519344e-18 2045:3.0519344e-18 2046:3.0519344e-18 2047:3.0519344e-18 2048:3.0519344e-18 2049:3.0519344e-18 2050:3.0519344e-18 2051:3.0519344e-18 2052:3.0519344e-18 2053:3.0519344e-18 2054:3.0519344e-18 2055:3.0519344e-18 2056:3.0519344e-18 2057:3.0519344e-18 2058:3.0519344e-18 2059:3.0519344e-18 2060:3.0519344e-18 2061:3.0519344e-18 2062:3.0519344e-18 2063:3.0717844e-18 2064:-0.0059212898 2065:-0.0059212898 2066:-0.0059212898 2067:-0.0059212898 2068:-0.0045820666 2069:-0.0045820666 2070:-0.0045820666 2071:-0.0045820666 2072:3.0519344e-18 2073:3.0519344e-18 2074:3.0519344e-18 2075:3.0519344e-18 2076:3.0519344e-18 2077:3.0519344e-18 2078:0.084362514 2079:0.084362514 2080:-0.011535589 2081:-0.011535589 2082:-0.011535589 2083:-0.02018192 2084:-0.02018192 2085:-0.02018192 2086:-0.0042101685 2087:-0.0042101685 2088:-0.0042101685 2089:-0.0042101685 2090:-0.0042101685 2091:3.0519344e-18 2092:3.0519344e-18 2093:3.0519344e-18 2094:3.0519344e-18 2095:3.0519344e-18 2096:-0.0039454619 2097:-0.0039454619 2098:-0.0039454619 2099:-0.0039454619 2100:-0.00071218016 2101:-0.00071218016 2102:0.019530697 2103:-0.00071218016 2104:-0.00071218016 2105:-0.00071218016 2106:-0.00071218016 2107:-0.00071218016 2108:-0.00071218016 2109:-0.00071218016 2110:-0.00071218016 2111:0.019530697 2112:-0.00071218016 2113:-0.00071218016 2114:3.0519344e-18 2115:3.0717844e-18 2116:3.0717844e-18 2117:3.0519344e-18 2118:3.0519344e-18 2119:3.0717844e-18 2120:3.0519344e-18 2121:3.0519344e-18 2122:3.0519344e-18 2123:3.0519344e-18 2124:-0.0051201168 2125:-0.0047584963 2126:-0.0051201168 2127:-0.0051201168 2128:-0.0051201168 2129:-0.0051201168 2130:-0.0047584963 2131:-0.0051201168 2132:-0.0051201168 2133:0.0078814412 2134:3.0717844e-18 2135:3.0519344e-18 2136:-0.023539415 2137:3.0519344e-18 2138:3.0519344e-18 2139:3.0519344e-18 2140:3.0519344e-18 2141:3.0519344e-18 2142:3.0519344e-18 2143:3.0519344e-18 2144:3.0519344e-18 2145:3.0519344e-18 2146:3.0519344e-18 2147:3.0519344e-18 2148:3.0519344e-18 2149:-0.0046244916 2150:3.0519344e-18 2151:3.0519344e-18 2152:-0.022131851 2153:-0.011727343 2154:-0.011727343 2155:-0.011727343 2156:3.0717844e-18 2157:3.0519344e-18 2158:3.0519344e-18 2159:3.0519344e-18 2160:3.0519344e-18 2161:-0.01713993 2162:-0.01713993 2163:-0.01713993 2164:3.0519344e-18 2165:3.0519344e-18 2166:3.0519344e-18 2167:3.0519344e-18 2168:3.0519344e-18 2169:3.0519344e-18 2170:3.0519344e-18 2171:3.0519344e-18 2172:3.0519344e-18 2173:3.0519344e-18 2174:3.0519344e-18 2175:1.4025209e-18 2176:3.0519344e-18 2177:3.0519344e-18 2178:0.041162319 2179:0.041162319 2180:0.041162319 2181:0.041162319 2182:0.041162319 2183:-0.0082042385 2184:-0.0082042385 2185:-0.0082042385 2186:0.0085698031 2187:-0.0082042385 2188:-0.0082042385 2189:-0.014155445 2190:-0.014155445 2191:3.0519344e-18 2192:-0.001829279 2193:-0.001829279 2194:-0.001829279 2195:-0.001829279 2196:-0.001829279 2197:-0.013006404 2198:-0.013006404 2199:-0.013006404 2200:3.0519344e-18 2201:3.0519344e-18 2202:-0.034085236 2203:-0.034085236 2204:-0.034085236 2205:3.0519344e-18 2206:3.0519344e-18 2207:3.0519344e-18 2208:3.0519344e-18 2209:3.0519344e-18 2210:3.0519344e-18 2211:3.0519344e-18 2212:3.0519344e-18 2213:3.0519344e-18 2214:3.0519344e-18 2215:3.0519344e-18 2216:3.0519344e-18 2217:3.0519344e-18 2218:3.0519344e-18 2219:3.0519344e-18 2220:3.0519344e-18 2221:-1.3116821e-19 2222:-1.3116821e-19 2223:3.0717844e-18 2224:3.0519344e-18 2225:3.0519344e-18 2226:3.0519344e-18 2227:3.0519344e-18 2228:3.0519344e-18 2229:3.0519344e-18 2230:3.0519344e-18 2231:-0.0051187067 2232:-0.001829279 2233:-0.001829279 2234:-0.001829279 2235:-0.0017000819 2236:3.0519344e-18 2237:3.0519344e-18 2238:3.0519344e-18 2239:3.0519344e-18 2240:3.0717844e-18 2241:-0.01493804 2242:-0.01493804 2243:3.0519344e-18 2244:3.0519344e-18 2245:3.0519344e-18 2246:3.0519344e-18 2247:3.0519344e-18 2248:3.0519344e-18 2249:3.0519344e-18 2250:3.0519344e-18 2251:3.0519344e-18 2252:3.0519344e-18 2253:3.0519344e-18 2254:-0.0015245794 2255:-0.0015245794 2256:-0.0015245794 2257:3.0519344e-18 2258:3.0519344e-18 2259:3.0519344e-18 2260:3.0519344e-18 2261:3.0519344e-18 2262:3.0519344e-18 2263:3.0519344e-18 2264:3.0519344e-18 2265:3.0519344e-18 2266:3.0519344e-18 2267:3.0519344e-18 2268:3.0519344e-18 2269:3.0519344e-18 2270:3.0519344e-18 2271:3.0519344e-18 2272:3.0519344e-18 2273:-0.0046048388 2274:-0.0046048388 2275:3.0519344e-18 2276:3.0519344e-18 2277:3.0519344e-18 2278:3.0519344e-18 2279:3.0519344e-18 2280:3.0519344e-18 2281:3.0519344e-18 2282:3.0519344e-18 2283:3.0519344e-18 2284:3.0519344e-18 2285:3.0519344e-18 2286:3.0519344e-18 2287:3.0519344e-18 2288:3.0519344e-18 2289:3.0519344e-18 2290:3.0519344e-18 2291:3.0519344e-18 2292:3.0519344e-18 2293:3.0519344e-18 2294:3.0519344e-18 2295:3.0519344e-18 2296:-0.0049502272 2297:-0.0049502272 2298:-0.004975928 2299:-0.004975928 2300:-0.025516959 2301:-0.0040666228 2302:3.0519344e-18 2303:3.0519344e-18 2304:3.0519344e-18 2305:-0.0037764851 2306:-0.0037764851 2307:-0.0037764851 2308:-0.0037764851 2309:-0.0037764851 2310:0.021727107 2311:0.021727107 2312:0.021727107 2313:0.021727107 2314:0.021727107 2315:0.021727107 2316:0.021727107 2317:0.021727107 2318:0.021727107 2319:-0.042826705 2320:3.0519344e-18 2321:3.0519344e-18 2322:3.0519344e-18 2323:3.0519344e-18 2324:3.0519344e-18 2325:-0.010929479 2326:-0.011626605 2327:3.0519344e-18 2328:3.0519344e-18 2329:-0.0079059899 2330:-0.0079059899 2331:3.0519344e-18 2332:3.0519344e-18 2333:3.0519344e-18 2334:3.0519344e-18 2335:3.0519344e-18 2336:-0.0060902089 2337:-0.0060902089 2338:3.0519344e-18 2339:3.0519344e-18 2340:3.0519344e-18 2341:3.0519344e-18 2342:3.0519344e-18 2343:3.0519344e-18 2344:3.0519344e-18 2345:3.0519344e-18 2346:3.0519344e-18 2347:3.0519344e-18 2348:3.0519344e-18 2349:3.0519344e-18 2350:3.0519344e-18 2351:3.0519344e-18 2352:3.0519344e-18 2353:3.0519344e-18 2354:-0.041889604 2355:-0.013565445 2356:3.0519344e-18 2357:3.0519344e-18 2358:3.0519344e-18 2359:3.0519344e-18 2360:3.0519344e-18 #
