SVM-light Version V6.20
0 # kernel type
3 # kernel parameter -d 
1 # kernel parameter -g 
1 # kernel parameter -s 
1 # kernel parameter -r 
empty# kernel parameter -u 
2641 # highest feature index 
107 # number of training documents 
2 # number of support vectors plus 1 
0 # threshold b, each following line is a SV (starting with alpha*y)
1 1:-0.121814 3:0.16265284 4:-0.028916817 5:0.014318799 6:0.022016758 7:-0.0050302246 8:0.014318799 9:0.016232481 10:0.033564497 11:0.084972881 12:0.1702397 13:-0.028720468 14:0.06297107 15:0.14746737 16:-0.056788169 17:0.0067822584 18:0.038736768 19:0.10661476 20:0.07101211 21:-0.035556316 22:-0.092093863 23:-0.026880691 24:0.19032526 25:0.08229585 26:0.013095856 27:0.060779151 28:0.033881109 29:0.018429665 30:-5.4662911e-17 31:0.0016124899 32:0.013276491 33:0.025659414 34:0.11645424 35:0.015890207 36:-0.008601618 37:0.04429388 38:0.11847746 39:0.0059413183 40:0.041060038 41:-0.01311308 42:-0.092574283 43:-0.002780667 44:0.012275265 45:3.0052954e-05 46:0.0152445 47:0.026958138 48:0.030561047 49:0.04429388 50:0.030561047 51:0.030561047 52:0.014087711 53:0.0074359849 54:0.030561047 55:0.0061586173 56:-0.051777963 57:-0.012506725 58:-0.019745097 59:0.08719749 60:-0.15387568 61:-0.018990923 62:-0.064302504 63:-0.051673137 64:-0.051673137 65:0.073671967 66:0.0058387024 67:0.015657375 68:0.0084582288 69:-0.051243234 70:-0.021029176 71:-0.024818562 72:-0.016781954 73:-0.0074712886 74:0.011100491 75:-0.0027340425 76:-0.010058973 77:-0.010058973 78:-0.010058973 79:0.058248531 80:0.10602064 81:0.035069481 82:0.0083039086 83:0.055778231 84:0.026583374 85:0.0022276645 86:0.031661168 87:0.032566421 88:0.03380831 89:-0.0041947332 90:-1.787463e-17 91:0.071766436 92:-1.787463e-17 93:0.02614701 94:-1.787463e-17 95:-1.787463e-17 96:-0.12381878 97:-0.085252471 98:-0.069866255 99:0.033184882 100:-5.4662911e-17 101:-1.787463e-17 102:-0.0093770539 103:-0.13130535 104:0.03350294 105:-0.04931828 106:-0.027912214 107:-0.040194675 108:-0.0079028104 109:0.028245354 110:-0.0079028104 111:-0.044992041 112:0.072154924 113:-0.1303627 114:0.019997284 115:0.0027495034 116:0.0077140373 117:-0.01665549 118:-0.049555235 119:-0.01665549 120:-0.01665549 121:-0.01665549 122:-0.01665549 123:-0.046162035 124:-0.0494164 125:-0.033788867 126:-0.01755986 127:0.016810451 128:-0.028846517 129:-0.018534016 130:-0.018534016 131:-0.018534016 132:0.051103853 133:0.002912153 134:0.063977852 135:0.023721648 136:-0.068567544 137:0.049665648 138:-0.061001338 139:1.452041e-17 140:-0.10766248 141:1.452041e-17 142:-0.007282258 143:-0.04097544 144:-0.033264089 145:-0.054392576 146:-0.0057417988 147:-0.062797129 148:-0.04398099 149:-0.041910335 150:-0.046420891 151:-0.046134502 152:0.0025220653 153:1.787463e-17 154:1.787463e-17 155:-0.013316093 156:-0.0057883179 157:-0.023796873 158:0.0017826097 159:-0.010567244 160:-0.0057883179 161:-0.010567244 162:-0.010567244 163:0.0044508767 164:-0.010567244 165:-0.010567244 166:-0.010567244 167:-0.010567244 168:-0.013568342 169:0.072864257 170:-0.045404933 171:-0.025069557 172:-0.028146531 173:-0.013568342 174:-0.0267889 175:-0.0041635758 176:-0.018000824 177:-0.018000824 178:-0.0041635758 179:-0.0041635758 180:-0.058751155 181:-0.035372455 182:0.042424556 183:-0.091700643 184:-0.081916586 185:-0.091700643 186:-0.035577994 187:-0.0062181405 188:-0.013398869 189:0.022182191 190:0.0053938339 191:-0.029849127 192:-0.029849127 193:-0.003611458 194:0.022182191 195:-0.070019536 196:0.010132901 197:-0.024946561 198:-0.018151306 199:-0.0080533605 200:0.010132901 201:-0.0080533605 202:-0.0080533605 203:0.062192094 204:0.031428114 205:0.069421947 206:0.018936737 207:0.02719906 208:0.029890072 209:0.017350066 210:0.031428114 211:0.047576681 212:-1.787463e-17 213:0.0083039086 214:-0.034317464 215:-1.787463e-17 216:-1.787463e-17 217:0.035042454 218:0.036873486 219:0.025813056 220:-1.787463e-17 221:-1.787463e-17 222:-0.053252388 223:-0.050655678 224:-0.053252388 225:0.00059109874 226:0.046704985 227:-0.1068683 228:-0.01689651 229:-0.085559472 230:-0.087043442 231:0.039634719 232:-7.4316198e-18 233:-7.4316198e-18 234:0.052426267 235:0.0067318981 236:-0.060619675 237:0.035207145 238:0.03178532 239:0.2184758 240:0.14003333 241:-0.021109724 242:-0.01965408 243:-0.021109724 244:-0.021109724 245:-0.021109724 246:-0.021109724 247:-0.021109724 248:-0.044334795 249:0.052731678 250:0.037234031 251:0.017869178 252:0.050343405 253:0.037234031 254:0.037234031 255:-0.017084625 256:0.00084521464 257:-0.0079486351 258:-0.0079486351 259:-0.0079486351 260:-0.049973354 261:-0.049973354 262:-0.049973354 263:-0.18683034 264:-0.0052486253 265:-0.0095027629 266:-0.0066825906 267:-0.0052486253 268:-0.0066825906 269:-0.0062217852 270:-0.0096444739 271:-0.0066825906 272:0.035398062 273:0.0018917441 274:0.01639949 275:0.022740783 276:0.16407084 277:0.17365547 278:-0.0078157829 279:0.02595992 280:0.020093519 281:0.045321308 283:7.4316198e-18 284:-5.4662911e-17 285:0.020115655 286:0.041626621 287:0.010665612 288:0.02249413 289:0.039467115 290:-5.4662911e-17 291:-8.5740837e-17 292:0.010665612 293:-0.023333916 294:0.034486476 295:-1.787463e-17 296:0.069909528 297:-1.787463e-17 298:-1.787463e-17 299:0.019489022 300:0.011870528 301:0.04257312 302:0.13112901 303:7.4316198e-18 304:-0.0030906459 305:-0.050503351 306:-8.6449817e-17 307:-1.787463e-17 308:0.05577796 309:0.042521808 310:0.060326602 311:0.0053566075 312:0.1177344 313:-5.4662911e-17 314:-1.787463e-17 315:-0.0086941952 316:-1.787463e-17 317:-1.787463e-17 318:0.021214873 319:-0.0094658583 320:-1.5461996e-17 321:7.4316198e-18 322:-0.051085941 323:0.010242846 324:-0.0077087958 325:0.055623423 326:0.0099991607 327:-1.787463e-17 328:-0.0077087958 329:0.03137061 330:0.050424244 331:0.010995338 332:0.019970486 333:0.04149754 334:0.0054022362 335:0.1312124 336:0.052322265 337:-0.0066155191 338:0.049899459 339:-1.787463e-17 340:0.0049148523 341:0.021899002 342:0.080621846 343:0.039629512 344:0.10465296 345:-1.787463e-17 346:0.028522264 347:0.0008467132 348:0.022979071 349:-0.0018217696 350:-0.022505859 351:0.044373672 352:-0.026156636 353:0.044373672 354:0.044373672 355:0.044373672 356:-0.038234573 357:-0.038234573 358:-0.041066349 359:-0.015921224 360:-0.0039795204 361:-0.0028981352 362:-0.0039795204 363:-0.0039795204 364:0.070184223 365:0.031372558 366:0.045578644 367:0.0099303089 368:0.08244995 369:0.0083487518 370:-0.011660241 371:0.0031872739 372:0.03027967 373:0.040820669 374:0.0022866626 375:-1.787463e-17 376:-1.787463e-17 377:-1.787463e-17 378:-1.787463e-17 379:-1.787463e-17 380:-1.787463e-17 381:-0.066214912 382:-0.035217319 383:0.018086953 384:-0.010707238 385:0.013920453 386:0.018086953 387:0.018086953 388:-0.020237271 389:-0.044175379 390:-0.020237271 391:-0.020237271 392:-0.020237271 393:-0.018841786 394:0.017569894 395:-0.0054340838 396:-0.020237271 397:-0.020237271 398:-0.020237271 399:0.06643109 400:0.049541458 401:0.029683385 402:0.06643109 403:0.039080508 404:-1.787463e-17 405:0.0079482645 406:0.0056805527 407:0.035550792 408:0.027881507 409:0.028810207 410:0.03590988 411:0.069573179 412:0.012701007 413:0.021246215 414:-0.0049664611 415:0.0081629083 416:0.0094613777 417:0.0220959 418:0.0039429548 419:0.028009742 420:0.00059712102 421:0.015688987 422:0.0220959 423:-0.023202445 424:-0.023202445 425:0.0220959 426:0.0220959 427:0.0220959 428:0.0220959 429:0.0220959 430:-0.0045629176 431:0.0089189224 432:0.025652815 433:-0.012056266 434:0.0093941428 435:0.0089189224 436:0.0089189224 437:0.0089189224 438:0.015343905 439:0.0079278192 440:0.092291579 441:0.0089189224 442:-0.012056266 443:7.4316198e-18 444:0.041785896 445:0.029000804 446:-1.787463e-17 447:-1.787463e-17 448:-1.787463e-17 449:0.026680145 450:0.034213435 451:-0.034321163 452:-0.0424379 453:-0.039268535 454:0.012219898 455:-0.065960489 456:-0.065960489 457:-0.065960489 458:0.012653359 459:-1.787463e-17 460:-1.787463e-17 461:-0.068506733 462:0.0090398025 463:0.0087094177 464:0.0084164524 465:0.023646835 466:0.031782173 467:-0.020582976 468:0.0084164524 469:0.0090398025 470:0.0090398025 471:0.0090398025 472:0.0090398025 473:0.0079509253 474:0.0090398025 475:0.0090398025 476:-0.01013789 477:0.01186982 478:0.0090398025 479:0.0090398025 480:0.0090398025 481:0.0022044291 482:0.0090398025 483:0.0084164524 484:0.0084164524 485:0.0090398025 486:0.0090398025 487:-1.787463e-17 488:-1.787463e-17 489:-1.787463e-17 490:-0.0064111422 491:-1.787463e-17 492:-1.787463e-17 493:-1.787463e-17 494:-1.787463e-17 495:-1.787463e-17 496:-1.787463e-17 497:-1.787463e-17 498:-1.787463e-17 499:-1.787463e-17 500:7.4316198e-18 501:0.10087945 502:0.052486155 503:0.036315579 504:0.052486155 505:-0.066598885 506:-0.069862217 507:-0.074689016 508:-0.065044791 509:-0.065044791 510:0.077506505 511:1.787463e-17 512:1.787463e-17 513:0.011604895 514:0.10983703 515:0.011473955 516:0.0034233336 517:0.0034233336 518:0.0034233336 519:0.0034233336 520:0.0028897824 521:-1.452041e-17 522:1.0554546e-17 523:1.0554546e-17 524:-1.452041e-17 525:0.010450046 526:1.0554546e-17 527:0.0078483028 528:-0.0039189202 529:0.010116723 530:0.092183061 531:0.010116723 532:0.010116723 533:0.034200516 534:0.010116723 535:0.010116723 536:0.010116723 537:0.010116723 538:-0.021121185 539:-0.001583269 540:0.0053232475 541:0.0039738682 542:0.004956177 543:0.023851814 544:0.0053232475 545:0.0053232475 546:0.0053232475 547:0.032786578 548:-0.029501505 549:0.0053232475 550:-0.076575249 551:0.0053232475 552:0.0053232475 553:0.0665683 554:0.0053232475 555:0.004956177 556:0.0053232475 557:-0.027589876 558:-7.6284234e-18 559:1.7663251e-17 560:-0.04202139 561:-0.01483044 562:0.010450046 563:1.7663251e-17 564:1.7663251e-17 565:1.7663251e-17 566:1.7663251e-17 567:1.7663251e-17 568:0.0022384601 569:1.7663251e-17 570:-0.01483044 571:-0.013169879 572:1.7663251e-17 573:0.0021734938 574:-0.060161617 575:0.019971548 576:-0.090682723 577:-7.4316198e-18 578:-7.4316198e-18 579:-1.787463e-17 580:0.019874938 581:0.028971223 582:0.013259971 583:0.0090729119 584:-1.787463e-17 585:-1.787463e-17 586:0.065105721 587:0.023866963 588:-1.787463e-17 589:-0.01464599 590:-0.01464599 591:0.027643716 592:0.02221543 593:-0.017004199 594:-0.01464599 595:-0.01464599 596:-0.01464599 597:-0.01464599 598:-0.01464599 599:-0.01464599 600:-0.01464599 601:-0.035064649 602:-0.023635903 603:-0.021963097 604:-0.021963097 605:-0.011248362 606:-0.021963097 607:-0.033602666 608:-0.012523836 609:-0.005099786 610:-0.012523836 611:-0.012523836 612:-0.012523836 613:-0.012523836 614:-0.005099786 615:-0.012523836 616:-0.012523836 617:-0.010355968 618:-0.025511989 619:-0.064066119 620:-0.0030113042 621:1.787463e-17 622:-0.0078251464 623:1.787463e-17 624:1.787463e-17 625:-0.064066119 626:-1.787463e-17 627:-1.787463e-17 628:0.033696093 629:0.0024199372 630:-0.06946823 631:-1.452041e-17 632:-0.017754959 633:-0.027128926 634:0.02632322 635:-0.013096154 636:0.0043522944 637:-0.0034437238 638:-1.452041e-17 639:0.018276932 640:0.060792178 641:-0.0052337348 642:0.019058146 643:0.11885524 644:0.054396123 645:-1.787463e-17 646:-0.011047373 647:-1.787463e-17 648:0.012098016 649:0.027058953 650:0.0036506345 651:-5.44815e-17 652:0.0014195753 653:0.047128748 654:0.022224018 655:-0.027074339 656:0.031845447 657:0.043392491 658:-0.035324842 659:0.027797133 660:0.071925938 661:0.074358165 662:0.010170354 663:-1.787463e-17 664:0.068990938 665:0.062611818 666:-5.9805165e-17 667:-1.787463e-17 668:-1.787463e-17 669:7.4316198e-18 670:0.067729481 671:1.787463e-17 672:0.026374081 673:-1.787463e-17 674:0.092337996 675:0.022334684 676:-0.010277032 677:-0.0011971754 678:0.0072394316 679:0.0072394316 680:0.0072394316 681:0.0072394316 682:0.0072394316 683:0.083552197 684:0.0042480798 685:-5.4662911e-17 686:-0.0048533003 687:-0.019178009 688:-0.0097843641 689:-0.026308917 690:-0.0048533003 691:-0.02058515 692:-0.0048533003 693:-0.0048533003 694:-0.019178009 695:-0.0048533003 696:-0.0048533003 697:-0.0048533003 698:-0.0048533003 699:-0.0048533003 700:-0.0048533003 701:-0.0048533003 702:-0.02058515 703:-0.05385033 704:-0.05385033 705:-0.0007321359 706:-0.05385033 707:-0.005636632 708:-0.005636632 709:-0.01910965 710:-0.005247952 711:0.0087476326 712:-0.005636632 713:-0.005636632 714:-0.005636632 715:-0.005636632 716:-0.005636632 717:-0.005636632 718:-0.005636632 719:-0.01910965 720:-0.01910965 721:-0.013861697 722:-0.013861697 723:-0.01488834 724:-0.01488834 725:-0.0032343313 726:-0.0032343313 727:-0.0032343313 728:-0.0032343313 729:-0.0032343313 730:0.0031929284 731:-0.0032343313 732:-0.0032343313 733:-0.0032343313 734:0.023014097 735:0.013424016 736:0.013424016 737:0.013424016 738:0.024897739 739:0.013424016 740:0.013424016 741:0.013424016 742:0.013424016 743:-1.787463e-17 744:0.0016795628 745:-1.787463e-17 746:-1.787463e-17 747:-1.787463e-17 748:-1.787463e-17 749:-1.787463e-17 750:-1.787463e-17 751:-1.787463e-17 752:0.023671467 753:-1.787463e-17 754:-1.787463e-17 755:-1.787463e-17 756:-1.787463e-17 757:-1.787463e-17 758:-1.787463e-17 759:-1.787463e-17 760:0.0087461136 761:-0.0020652914 762:-1.787463e-17 763:-1.787463e-17 764:-1.787463e-17 765:7.4316198e-18 766:-1.787463e-17 767:-1.787463e-17 768:-1.787463e-17 769:0.0089658517 770:0.0066263461 771:-0.091961324 772:0.0018039567 773:0.0018039567 774:0.0018039567 775:0.0018039567 776:0.0016795628 777:0.0018039567 778:0.0018039567 779:0.0018039567 780:0.0018039567 781:0.0018039567 782:0.011289042 783:0.0018039567 784:0.0018039567 785:0.0018039567 786:0.0018039567 787:0.0018039567 788:0.0018039567 789:0.0018039567 790:0.0018039567 791:0.0018039567 792:0.0018039567 793:0.0043045208 794:-0.029422676 795:-1.787463e-17 796:0.02622414 797:0.0053232475 798:0.0053232475 799:0.0053232475 800:0.0053232475 801:0.036714751 802:0.0041635758 803:0.10908587 804:0.022981184 805:0.022981184 806:0.022981184 807:-1.787463e-17 808:8.9135064e-18 809:-1.787463e-17 810:0.020737216 811:0.022496223 812:0.023289904 813:7.4316198e-18 814:-1.787463e-17 815:-1.787463e-17 816:-1.787463e-17 817:-1.787463e-17 818:-1.787463e-17 819:-1.787463e-17 820:-1.787463e-17 821:0.025502807 822:0.025502807 823:0.025502807 824:-0.043011971 825:0.021953013 826:-0.013237541 827:-0.04358539 828:-0.016984764 829:-0.012477664 830:1.787463e-17 831:1.787463e-17 832:-0.017748648 833:1.787463e-17 834:0.041536625 835:0.041536625 836:0.041536625 837:0.018468499 838:0.011455286 839:-0.0010161713 840:0.011455286 841:0.026050184 842:0.024012003 843:0.026050184 844:0.024253866 845:0.026050184 846:0.024253866 847:1.2198119e-17 848:-1.787463e-17 849:-1.787463e-17 850:7.4316198e-18 851:-1.787463e-17 852:-1.787463e-17 853:-1.787463e-17 854:7.4316198e-18 855:-9.3881433e-17 856:-1.787463e-17 857:-1.787463e-17 858:-1.787463e-17 859:-1.787463e-17 860:-0.0066155191 861:-0.016577538 862:0.023612283 863:-8.6449817e-17 864:-0.095804714 865:0.021568622 866:-1.787463e-17 867:0.009070212 868:-1.5461996e-17 869:7.4316198e-18 870:7.4316198e-18 871:0.017692586 872:0.026651248 873:0.052408203 874:1.787463e-17 875:1.5693448e-17 876:1.5693448e-17 877:1.5693448e-17 878:1.5693448e-17 879:0.017405085 880:-0.0076628737 881:0.017405085 882:0.017405085 883:0.0055821785 884:0.0097299693 885:0.021411898 886:-0.10748208 887:-0.050940745 888:0.011957767 889:0.0070777182 890:-0.025799992 891:-0.093441635 892:0.023942284 893:0.023942284 894:0.013436787 895:-0.0031911083 896:0.036957774 897:0.043579374 898:0.042911552 899:0.051241938 900:0.021787956 901:-1.787463e-17 902:0.09083055 903:0.043018032 904:-0.036595322 905:0.00057394698 906:0.011968195 907:-1.787463e-17 908:-1.787463e-17 909:0.049851183 910:-5.4662911e-17 911:0.035858698 912:0.016845044 913:-0.059442457 914:0.088701144 915:0.049139712 916:-0.020218803 917:-0.020218803 918:-0.020218803 919:-0.020218803 920:-0.021700291 921:-0.089411959 922:0.024581943 923:0.026402561 924:0.024581943 925:0.08515285 926:-0.0010916275 927:-0.059380572 928:-1.787463e-17 929:-1.787463e-17 930:-1.5461996e-17 932:-1.787463e-17 933:-1.787463e-17 934:-1.787463e-17 935:-1.787463e-17 936:-1.787463e-17 937:-1.787463e-17 938:-0.079921089 939:-0.079921089 940:-0.079921089 941:0.070275031 942:-1.787463e-17 943:0.0081458325 944:0.016745552 945:0.024590855 946:-0.0081697302 947:0.023548011 948:0.036466748 949:0.0041258303 950:0.036466748 951:0.036466748 952:0.036466748 953:-0.036123291 954:-1.5090823e-17 955:0.044826929 956:0.044826929 957:-1.5090823e-17 958:-1.5090823e-17 959:0.010071352 960:0.011870528 961:0.018803006 962:0.018243488 963:0.011930863 964:0.011930863 965:0.018803006 966:0.011930863 967:0.014457379 968:0.014457379 969:0.013697493 970:0.012562777 971:0.0075043761 972:0.014457379 973:0.011246836 974:0.014457379 975:0.014457379 976:0.012562777 977:0.012562777 978:0.021125358 979:-1.787463e-17 980:1.0554546e-17 981:-1.787463e-17 982:-1.787463e-17 983:0.0024837235 984:0.05368834 985:-0.02729545 986:0.015197261 987:0.025032794 988:0.025032794 989:0.018893957 990:0.0063116741 991:0.020753222 992:0.0042813038 993:0.0042813038 994:0.0042813038 995:0.0042813038 996:-0.057468355 997:0.017331256 998:0.017331256 999:-0.015170447 1000:-0.015170447 1001:-0.015982291 1002:-0.10027674 1003:0.0081246849 1004:-0.034401808 1005:0.0081246849 1006:0.023151817 1007:0.028581735 1008:-1.787463e-17 1009:-1.787463e-17 1010:0.045843273 1011:7.4316198e-18 1012:-1.787463e-17 1013:0.00068165071 1014:0.0041116592 1015:0.0048708101 1016:0.0048708101 1017:0.0048708101 1018:0.0048708101 1019:0.0048708101 1020:0.0045349379 1021:0.0048708101 1022:0.0048708101 1023:0.01763881 1024:0.024583753 1025:0.0038082348 1026:0.0040902849 1027:0.021508079 1028:0.0071224379 1029:0.0071224379 1030:0.012904441 1031:-0.033159468 1032:0.014958998 1033:0.0085369376 1034:-0.13482733 1035:-0.11199794 1036:0.11600205 1037:-0.048779454 1038:-0.032101143 1039:0.041846 1040:-1.787463e-17 1041:-1.787463e-17 1042:-1.787463e-17 1043:0.032174978 1044:7.4316198e-18 1045:-0.014412708 1046:1.787463e-17 1047:1.787463e-17 1048:1.787463e-17 1049:1.787463e-17 1050:-0.070255801 1051:-0.022767784 1052:-0.034212645 1053:-0.034212645 1054:1.787463e-17 1055:0.063774318 1056:0.063774318 1057:0.063774318 1058:0.13708675 1059:-0.054807883 1060:0.0091040367 1061:0.029533803 1062:0.027497267 1063:0.026051998 1064:0.029533803 1065:-0.049973354 1066:-0.049973354 1067:-0.049973354 1068:0.010365106 1069:-0.019448778 1070:0.015365823 1071:0.023609351 1072:-0.038287513 1073:-0.01054492 1074:-0.038287513 1075:-0.038287513 1076:-0.038287513 1077:-0.038287513 1078:-0.038287513 1079:-0.0023904892 1080:-0.0023904892 1081:0.046508856 1082:0.046508856 1083:0.043301784 1084:-0.011278429 1085:-1.787463e-17 1086:-0.0043176049 1087:-0.0043176049 1088:-0.0043176049 1089:-0.018664559 1090:-0.0076171863 1091:-0.0043176049 1092:-0.0043176049 1093:-0.0043176049 1094:1.787463e-17 1095:0.030053893 1096:0.030053893 1097:0.030053893 1098:0.030053893 1099:0.031094171 1100:0.0029763733 1101:0.0029763733 1102:0.0029763733 1103:0.065792225 1104:0.0099614542 1105:7.4316198e-18 1106:0.065792225 1107:0.0239903 1108:0.0239903 1109:0.0239903 1110:0.044573475 1111:0.0239903 1112:-1.787463e-17 1113:0.026822658 1114:-1.787463e-17 1115:-0.014160555 1116:-0.015209331 1117:-0.015209331 1118:0.012272545 1119:0.033336371 1120:0.040624019 1121:-0.020291073 1122:-0.01889188 1123:-0.020291073 1124:-0.020291073 1125:-0.020291073 1126:-0.01889188 1127:-0.020291073 1128:-0.042773265 1129:-1.650989e-17 1130:0.016832998 1131:0.016832998 1132:0.016832998 1133:0.016832998 1134:0.074585244 1135:0.029891612 1136:0.009406602 1137:0.035015255 1138:-1.787463e-17 1139:0.01598531 1140:-1.787463e-17 1141:-1.787463e-17 1142:-1.787463e-17 1143:-1.787463e-17 1144:-1.787463e-17 1145:-0.049973354 1146:-0.049973354 1147:-0.049973354 1148:-0.083755255 1149:-0.036487952 1150:-0.019856323 1151:-0.046207018 1152:-0.060272239 1153:-0.02003756 1154:-0.0077044535 1155:-0.019198589 1156:-0.0094589554 1157:-0.019198589 1158:-0.019198589 1159:-0.019198589 1160:-0.019198589 1161:-0.019198589 1162:-0.019198589 1163:-1.787463e-17 1164:0.0022927441 1165:-1.787463e-17 1166:-1.787463e-17 1167:7.4316198e-18 1168:-1.787463e-17 1169:0.019444102 1170:0.0030113042 1171:-1.787463e-17 1172:-1.787463e-17 1173:-1.787463e-17 1174:-0.011233793 1175:-1.787463e-17 1176:8.4589235e-18 1177:-0.0034233574 1178:-0.0034233574 1179:-0.0034233574 1180:-0.052040558 1181:-0.0034233574 1182:-0.0034233574 1183:-0.0034233574 1184:-0.0034233574 1185:-0.0034233574 1186:-0.0034233574 1187:-0.0034233574 1188:-0.052040558 1189:-0.021868113 1190:-0.021868113 1191:-0.021868113 1192:-0.021868113 1193:-0.021868113 1194:-0.012523836 1195:0.04939409 1196:0.024609039 1197:-5.36896e-17 1198:-1.6771241e-17 1199:4.9935235e-05 1200:0.038497806 1201:0.040482674 1202:-1.787463e-17 1203:-0.028523771 1204:-1.787463e-17 1205:-1.787463e-17 1206:-1.787463e-17 1207:-1.787463e-17 1208:-1.787463e-17 1209:0.0016569867 1210:-1.787463e-17 1211:-1.787463e-17 1212:-1.787463e-17 1213:-1.787463e-17 1214:-1.787463e-17 1215:-1.787463e-17 1216:7.4316198e-18 1217:-1.787463e-17 1218:-1.787463e-17 1219:0.010266652 1220:0.0007058449 1221:0.0007058449 1222:-0.015212271 1223:0.0007058449 1224:0.010266652 1225:0.0007058449 1226:0.0007058449 1227:0.0039420407 1228:-0.055686332 1229:-0.059810638 1230:-0.011442998 1231:0.12943155 1232:0.0082312273 1233:0.0082312273 1234:0.0082312273 1235:0.018493284 1236:0.0050648856 1237:0.012585683 1238:0.012585683 1239:-0.025721867 1240:0.0011242537 1241:0.0057417988 1242:0.0057417988 1243:1.0554546e-17 1244:-5.4662911e-17 1245:-0.051219545 1246:-1.787463e-17 1247:-1.787463e-17 1248:-1.787463e-17 1249:-0.014620604 1250:-1.787463e-17 1251:0.002432226 1252:-1.787463e-17 1253:-1.787463e-17 1254:-1.787463e-17 1255:-8.3618371e-17 1256:-5.4662911e-17 1257:-1.787463e-17 1258:0.014689078 1259:0.040633522 1260:0.040633522 1261:-1.787463e-17 1262:-1.787463e-17 1263:0.014689078 1264:-0.053709079 1265:-0.053709079 1266:0.0292664 1267:0.024705021 1268:0.0292664 1269:0.021183699 1270:0.025490623 1271:0.028114779 1272:0.0094549023 1273:0.008802929 1274:0.0094549023 1275:0.0094549023 1276:0.0094549023 1277:0.010252888 1278:7.4316198e-18 1279:-1.787463e-17 1280:-1.787463e-17 1281:-1.787463e-17 1282:-0.020120725 1283:-0.020120725 1284:-0.018733278 1285:0.034633078 1286:-1.787463e-17 1287:-5.4662911e-17 1288:-1.787463e-17 1289:0.024189893 1290:-1.787463e-17 1291:-0.032027479 1292:0.0068650111 1293:-0.0044274363 1294:-0.0044274363 1295:0.0041635758 1296:0.0089189224 1297:0.0089189224 1298:-0.086953342 1299:0.020176224 1300:0.017797604 1301:0.0066378103 1302:0.015776997 1303:-1.787463e-17 1304:7.4316198e-18 1305:7.4316198e-18 1306:0.00065717258 1307:-8.3618371e-17 1308:-0.038989268 1309:0.032005738 1310:-1.787463e-17 1311:0.0007058449 1312:0.010579685 1313:0.010579685 1314:0.067513973 1315:0.038937178 1316:0.073240757 1317:0.041616768 1318:0.012934998 1319:0.012934998 1320:0.013893005 1321:0.013893005 1322:-1.787463e-17 1323:-1.787463e-17 1324:0.010448868 1325:-0.012065804 1326:7.4316198e-18 1327:-1.787463e-17 1328:-5.4662911e-17 1329:0.029044587 1330:0.056828409 1331:0.010405666 1332:0.0096881324 1333:0.010405666 1334:0.03847589 1335:0.010405666 1336:0.010405666 1337:0.010405666 1338:0.0096881324 1339:0.010405666 1340:0.010405666 1341:0.010405666 1342:0.0096881324 1343:0.010405666 1344:0.010405666 1345:-1.787463e-17 1346:-1.787463e-17 1347:-1.787463e-17 1348:7.4316198e-18 1349:-0.00043595777 1350:0.0060725086 1351:0.0060725086 1352:0.0060725086 1353:-0.016042003 1354:0.0016381842 1355:0.0016381842 1356:0.0016381842 1357:0.0016381842 1358:0.029152695 1359:0.029152695 1360:0.027142439 1361:-0.055770189 1362:8.936344e-18 1363:8.936344e-18 1364:-1.787463e-17 1365:-1.787463e-17 1366:0.008637907 1367:-0.0065407548 1368:-0.0065407548 1369:-0.0065407548 1370:-0.0065407548 1371:0.015577351 1372:0.016441524 1373:0.017659236 1374:0.017659236 1375:0.021548329 1376:0.029165149 1377:0.0059292279 1378:0.013317729 1379:-0.0051678345 1380:0.013317729 1381:0.013317729 1382:0.0059292279 1383:0.013317729 1384:0.013317729 1385:-1.787463e-17 1386:-1.787463e-17 1387:-1.787463e-17 1388:7.4316198e-18 1389:-0.033829365 1390:0.036278583 1391:-0.068162709 1392:0.014104131 1393:0.014104131 1394:0.014104131 1395:0.049984775 1396:-0.03041126 1397:1.6771241e-17 1398:-0.045917828 1399:-0.040543541 1400:-0.040543541 1401:-0.040543541 1402:-0.026385216 1403:-0.027933933 1404:-0.026385216 1405:-0.026385216 1406:-0.066735327 1407:-0.050699946 1408:8.7022535e-18 1409:8.7022535e-18 1410:7.4316198e-18 1411:-1.787463e-17 1412:0.044092085 1413:-1.787463e-17 1414:0.014036362 1415:0.0049318168 1416:0.014036362 1417:0.014036362 1418:0.0049318168 1419:-0.043352049 1420:-0.011366277 1421:-0.043352049 1422:-0.040362664 1423:-0.043352049 1424:-0.043352049 1425:-0.043352049 1426:0.010980481 1427:-0.0073326649 1428:0.022903861 1429:0.043480948 1430:0.043480948 1431:-1.787463e-17 1432:-1.787463e-17 1433:-1.787463e-17 1434:0.13555701 1435:-1.787463e-17 1436:-1.787463e-17 1437:-5.4662911e-17 1438:0.0039663701 1439:7.4316198e-18 1440:-1.787463e-17 1441:0.041978102 1442:-1.787463e-17 1443:-1.787463e-17 1444:7.4316198e-18 1445:-1.787463e-17 1446:0.029803647 1447:0.029803647 1448:0.029803647 1449:0.036865789 1450:-0.033590838 1451:0.018936737 1452:0.025581786 1453:0.0057558864 1454:0.0057558864 1455:0.0061821858 1456:0.027981361 1457:0.027981361 1458:0.027981361 1459:-0.0035545679 1460:-0.021607025 1461:0.0030758558 1462:0.0030758558 1463:0.0093214586 1464:-0.021607025 1465:0.0030758558 1466:0.0030758558 1467:0.0030758558 1468:0.0030758558 1469:0.0089189224 1470:-0.045061886 1471:-0.045061886 1472:-0.07556092 1473:0.027161608 1474:0.012398089 1475:-1.787463e-17 1476:-1.787463e-17 1477:-1.787463e-17 1478:-1.787463e-17 1479:-0.0016871502 1480:-0.0015708109 1481:-0.0016871502 1482:-0.0016871502 1483:-0.025151087 1484:-0.0016871502 1485:-0.0016871502 1486:-0.0015708109 1487:-0.0016871502 1488:-0.060540557 1489:0.11923189 1490:-0.021303643 1491:-0.060540557 1492:-0.064652696 1493:-0.064652696 1494:0.0069849296 1495:0.0069849296 1496:0.0085904114 1497:0.0066005182 1498:0.0058210874 1499:0.0419368 1500:-0.041415188 1501:-0.041415188 1502:0.024140242 1503:0.0078577586 1504:0.004323889 1505:-1.787463e-17 1506:-1.787463e-17 1507:-1.787463e-17 1508:0.013573412 1509:-0.023591811 1510:0.014361221 1511:0.008264754 1512:0.008264754 1513:-0.0083286427 1514:0.008264754 1515:0.008264754 1516:0.008264754 1517:0.008264754 1518:-0.046280775 1519:-0.046280775 1520:0.075653158 1521:-1.787463e-17 1522:1.787463e-17 1523:1.787463e-17 1524:-1.787463e-17 1525:-1.787463e-17 1526:-5.341713e-17 1527:0.013801389 1528:-1.787463e-17 1529:-1.787463e-17 1530:-0.029439414 1531:-0.0052721985 1532:-0.029439414 1533:-0.062598489 1534:-0.062598489 1535:-0.062598489 1536:-0.01918282 1537:-0.01918282 1538:-0.025650119 1539:-0.025650119 1540:-0.025650119 1541:1.787463e-17 1542:1.787463e-17 1543:0.0095028402 1544:0.0095028402 1545:0.0095028402 1546:0.0032343313 1547:0.0032343313 1548:0.0032343313 1549:0.097537853 1550:-0.012113745 1551:-0.012113745 1552:-0.023959316 1553:-0.025733821 1554:-0.025733821 1555:-0.023959316 1556:-0.025733821 1557:-0.025733821 1558:-0.068811059 1559:1.7770453e-17 1560:0.0046956781 1561:1.7770453e-17 1562:-0.026344819 1563:-0.026344819 1564:-0.026344819 1565:-0.026344819 1566:-0.026344819 1567:0.024600195 1568:0.024600195 1569:0.024600195 1570:0.046083029 1571:0.040554609 1572:0.013553563 1573:0.0094496822 1574:0.0094496822 1575:0.0094496822 1576:-1.787463e-17 1577:-1.787463e-17 1578:7.4316198e-18 1579:-1.787463e-17 1580:-1.787463e-17 1581:-1.787463e-17 1582:-1.787463e-17 1583:-1.787463e-17 1584:-1.787463e-17 1585:-0.048471019 1586:-1.787463e-17 1587:-1.787463e-17 1588:-1.787463e-17 1589:1.2198119e-17 1590:-1.787463e-17 1591:-1.787463e-17 1592:-1.787463e-17 1593:-1.6462355e-17 1594:-1.6462355e-17 1595:-1.774291e-17 1596:-1.774291e-17 1597:-1.774291e-17 1598:-1.774291e-17 1599:-1.774291e-17 1600:-0.013653484 1601:-0.013653484 1602:-0.016744139 1603:-0.011800554 1604:-0.013653484 1605:-0.013653484 1606:-0.012711993 1607:-0.013653484 1608:-0.013653484 1609:-0.013653484 1610:-0.016744139 1611:-0.017497199 1612:-0.012711993 1613:0.018336006 1614:-0.00044934082 1615:0.018336006 1616:0.018336006 1617:-0.0074469112 1618:-0.024389056 1619:-0.040911991 1620:-0.018319642 1621:-0.018319642 1622:-0.018319642 1623:-0.018319642 1624:-0.018319642 1625:-1.787463e-17 1626:-1.787463e-17 1627:0.024454804 1628:0.024454804 1629:0.023379499 1630:0.023379499 1631:0.023379499 1632:0.023379499 1633:-0.052060936 1634:-0.052060936 1635:-0.052060936 1636:-0.052060936 1637:-8.7022535e-18 1638:1.650989e-17 1639:0.027781967 1640:0.027781967 1641:-0.017133199 1642:-0.0045851455 1643:1.6771241e-17 1644:-0.0088702245 1645:1.787463e-17 1646:1.787463e-17 1647:-0.014145282 1648:-0.014145282 1649:-0.014145282 1650:-0.0082761766 1651:-0.038891744 1652:-0.014145282 1653:-0.014145282 1654:-0.025622422 1655:-0.02556853 1656:-0.025622422 1657:-0.025622422 1658:-0.025622422 1659:-0.025622422 1660:-0.017256452 1661:-0.017256452 1662:-0.017256452 1663:-0.017256452 1664:-0.017256452 1665:-0.0078757452 1666:-0.0046545127 1667:-0.0078757452 1668:-0.0078757452 1669:-0.0078757452 1670:-0.0078757452 1671:-0.0078757452 1672:-0.0057558864 1673:0.0085259387 1674:0.0085259387 1675:0.0085259387 1676:0.00048556583 1677:-0.014936367 1678:-0.014936367 1679:-0.014936367 1680:-0.014936367 1681:-0.014936367 1682:-0.013424835 1683:-0.013424835 1684:-0.013424835 1685:0.03600302 1686:-0.0037083719 1687:0.018552672 1688:0.019100178 1689:-1.7204056e-17 1690:-1.7204056e-17 1691:0.027806707 1692:0.018552672 1693:0.015062073 1694:0.0070463428 1695:0.0062156338 1696:0.0070463428 1697:0.0070463428 1698:0.0070463428 1699:7.4316198e-18 1700:-0.037996225 1701:-0.037996225 1702:-0.037996225 1703:-1.787463e-17 1704:-1.787463e-17 1705:-1.787463e-17 1706:-0.023969879 1707:-0.021025851 1708:0.029344618 1709:-1.787463e-17 1710:-1.787463e-17 1711:0.0010902345 1712:0.019444102 1713:0.013499558 1714:-1.787463e-17 1715:-1.787463e-17 1716:-1.787463e-17 1717:-1.787463e-17 1718:0.011028534 1719:0.0038564869 1720:-5.4662911e-17 1721:0.0097768856 1722:0.0097768856 1723:0.0097768856 1724:1.5563815e-17 1725:1.5563815e-17 1726:1.5563815e-17 1727:-0.0089189224 1728:0.030732859 1729:-0.022207288 1730:-1.787463e-17 1731:-1.787463e-17 1732:-1.452041e-17 1733:-1.452041e-17 1734:-1.452041e-17 1735:-1.452041e-17 1736:-1.452041e-17 1737:0.034837898 1738:1.0735463e-17 1739:-1.452041e-17 1740:-1.452041e-17 1741:-1.452041e-17 1742:-1.452041e-17 1743:-1.452041e-17 1744:1.0735463e-17 1745:-1.452041e-17 1746:-1.452041e-17 1747:-1.452041e-17 1748:-5.4662911e-17 1749:-1.787463e-17 1750:-1.787463e-17 1751:-1.787463e-17 1752:0.021158917 1753:0.0048640757 1754:0.0097586038 1755:0.092057571 1756:0.0097586038 1757:0.0097586038 1758:0.0097586038 1759:0.0081458325 1760:0.042716853 1761:0.011935257 1762:0.011935257 1763:0.054551106 1764:-1.787463e-17 1765:7.4316198e-18 1766:-1.787463e-17 1767:-1.787463e-17 1768:-1.787463e-17 1769:-1.787463e-17 1770:7.4316198e-18 1771:-1.787463e-17 1772:0.03004235 1773:0.0096318582 1774:-1.787463e-17 1775:-1.787463e-17 1776:-1.787463e-17 1777:-0.014425391 1778:-0.014425391 1779:-0.014425391 1780:-0.014425391 1781:-0.022122996 1782:0.011593654 1783:-0.032699861 1784:-1.787463e-17 1785:-1.787463e-17 1786:0.0015092563 1787:-0.021318218 1788:0.0016210367 1789:0.0016210367 1790:0.0016210367 1791:0.0016210367 1792:0.0016210367 1793:0.0016210367 1794:-1.787463e-17 1795:-1.787463e-17 1796:-1.787463e-17 1797:-1.787463e-17 1798:-1.787463e-17 1799:0.047671922 1800:-1.787463e-17 1801:0.022252107 1802:0.0074513122 1803:0.04665608 1804:0.0050197532 1805:-0.017210243 1806:-0.041189533 1807:-0.017210243 1808:-0.017210243 1809:-0.015366319 1810:-0.017210243 1811:-0.017210243 1812:-0.017799327 1813:-0.017799327 1814:-0.017799327 1815:-0.017799327 1816:-0.017799327 1817:-0.017799327 1818:-1.787463e-17 1819:-1.787463e-17 1820:-1.787463e-17 1821:7.4316198e-18 1822:-1.787463e-17 1823:-1.787463e-17 1824:-1.787463e-17 1825:-1.787463e-17 1826:-1.787463e-17 1827:-1.787463e-17 1828:-1.787463e-17 1829:-1.787463e-17 1830:-1.787463e-17 1831:-1.787463e-17 1832:-1.787463e-17 1833:-1.787463e-17 1834:-1.787463e-17 1835:-1.787463e-17 1836:-1.787463e-17 1837:-1.787463e-17 1838:-1.787463e-17 1839:0.0062456573 1840:0.0062456573 1841:0.0062456573 1842:0.0062456573 1843:0.0062456573 1844:0.0062456573 1845:0.0033540945 1846:0.002667676 1847:0.002667676 1848:0.002667676 1849:0.002667676 1850:-0.079683833 1851:-0.079683833 1852:-0.079683833 1853:-0.026116174 1854:-0.026116174 1855:-0.026116174 1856:0.012584069 1857:-1.787463e-17 1858:7.4316198e-18 1859:-0.0069073658 1860:-1.787463e-17 1861:-1.787463e-17 1862:7.4316198e-18 1863:-1.787463e-17 1864:-5.4662911e-17 1865:-1.787463e-17 1866:-1.787463e-17 1867:-1.787463e-17 1868:0.0094632441 1869:-1.787463e-17 1870:-0.0069073658 1871:0.0098905414 1872:-5.4662911e-17 1873:0.025226062 1874:0.023486571 1875:0.025226062 1876:0.025906509 1877:0.025226062 1878:0.025226062 1879:0.025226062 1880:0.025226062 1881:-0.0061821858 1882:-0.0061821858 1883:-0.0074189478 1884:-0.020284964 1885:-0.0074189478 1886:-0.0074189478 1887:-0.0074189478 1888:-0.0074189478 1889:-0.0074189478 1890:-0.0074189478 1891:0.0053232475 1892:0.004956177 1893:0.0046956781 1894:0.004956177 1895:0.004956177 1896:-1.787463e-17 1897:-1.787463e-17 1898:-0.044849049 1899:-0.044849049 1900:1.787463e-17 1901:1.787463e-17 1902:1.787463e-17 1903:-0.014277071 1904:-0.014277071 1905:-0.0075880815 1906:-0.014277071 1907:-0.025739688 1908:-0.025739688 1909:-0.014277071 1910:-0.014277071 1911:-0.014277071 1912:-0.014277071 1913:-0.0075880815 1914:-0.0075880815 1915:-0.0077463952 1916:0.012379476 1917:0.0073042223 1918:-0.027553974 1919:0.012379476 1920:0.012379476 1921:0.012379476 1922:0.012379476 1923:0.012379476 1924:0.012379476 1925:0.012379476 1926:0.012379476 1927:0.012379476 1928:-0.027553974 1929:0.011845342 1930:0.011845342 1931:0.011845342 1932:0.011845342 1933:0.011845342 1934:0.020491777 1935:0.011845342 1936:0.011845342 1937:0.011845342 1938:0.0007058449 1939:-0.042946029 1940:0.0007058449 1941:0.0007058449 1942:0.0007058449 1943:-0.012720426 1944:0.0007058449 1945:0.0007058449 1946:0.0007058449 1947:0.0007058449 1948:0.0007058449 1949:0.0007058449 1950:0.0007058449 1951:0.0007058449 1952:0.0030771096 1953:0.036889434 1954:0.0007058449 1955:0.0007058449 1956:0.0007058449 1957:0.0007058449 1958:0.0007058449 1959:0.0007058449 1960:0.0007058449 1961:0.0007058449 1962:0.0007058449 1963:0.0007058449 1964:0.0007058449 1965:0.0007058449 1966:0.0007058449 1967:-0.0071054855 1968:-0.0071054855 1969:-0.052373681 1970:-0.0071054855 1971:-0.0071054855 1972:-0.0071054855 1973:-0.0071054855 1974:-0.0071054855 1975:-0.045862373 1976:-0.030626653 1977:-0.045862373 1978:-0.045862373 1979:0.046647765 1980:-0.0036175945 1981:-0.0036175945 1982:-0.0036175945 1983:0.057456359 1984:0.0011709809 1985:0.0011709809 1986:0.0011709809 1987:0.0011709809 1988:0.0011709809 1989:0.0011709809 1990:0.0011709809 1991:0.0011709809 1992:0.0011709809 1993:0.0011709809 1994:0.0011709809 1995:0.0011709809 1996:0.0011709809 1997:0.0011709809 1998:0.0011709809 1999:-0.004534279 2000:-0.004534279 2001:-0.004534279 2002:-0.004534279 2003:-0.004534279 2004:-0.004534279 2005:-0.004534279 2006:-0.077404834 2007:-0.004534279 2008:-0.004534279 2009:-0.073405109 2010:-0.038508389 2011:-0.035121717 2012:-0.035121717 2013:-1.787463e-17 2014:-1.787463e-17 2015:-1.787463e-17 2016:-1.787463e-17 2017:-1.787463e-17 2018:-1.787463e-17 2019:-1.787463e-17 2020:-0.015681637 2021:-0.015681637 2022:-0.015681637 2023:-0.015681637 2024:-0.015681637 2025:0.0017786559 2026:7.4316198e-18 2027:-1.787463e-17 2028:1.6771241e-17 2029:-1.787463e-17 2030:-1.787463e-17 2031:0.0026123645 2032:0.0078910263 2033:0.0026123645 2034:0.13080148 2035:0.0085947551 2036:0.0052561453 2037:0.017075093 2038:0.014065677 2039:7.4316198e-18 2040:0.0091044018 2041:-1.787463e-17 2042:-1.787463e-17 2043:-1.787463e-17 2044:-1.787463e-17 2045:1.2198119e-17 2046:-1.787463e-17 2047:-1.787463e-17 2048:-1.787463e-17 2049:-1.787463e-17 2050:0.0023543318 2051:0.0023543318 2052:-1.787463e-17 2053:-1.787463e-17 2054:0.079269893 2055:-0.11974613 2056:-1.787463e-17 2057:-1.787463e-17 2058:-0.017044786 2059:1.787463e-17 2060:1.787463e-17 2061:1.787463e-17 2062:1.787463e-17 2063:0.0025991653 2064:0.0025991653 2065:0.0025991653 2066:0.0025991653 2067:0.0025991653 2068:0.0025991653 2069:0.0025991653 2070:-1.787463e-17 2071:-1.787463e-17 2072:-1.787463e-17 2073:-1.787463e-17 2074:-1.787463e-17 2075:-1.787463e-17 2076:-1.787463e-17 2077:-1.787463e-17 2078:-1.787463e-17 2079:-1.787463e-17 2080:-1.787463e-17 2081:-1.787463e-17 2082:-0.020715393 2083:-0.020715393 2084:-1.787463e-17 2085:-1.787463e-17 2086:-1.787463e-17 2087:-0.047337111 2088:-1.787463e-17 2089:-1.787463e-17 2090:0.016526621 2091:-1.787463e-17 2092:-1.787463e-17 2093:7.4316198e-18 2094:-1.787463e-17 2095:-1.787463e-17 2096:-1.787463e-17 2097:-1.787463e-17 2098:0.002091479 2099:0.002091479 2100:-1.787463e-17 2101:-1.787463e-17 2102:-1.787463e-17 2103:-1.787463e-17 2104:-1.787463e-17 2105:-1.787463e-17 2106:-1.787463e-17 2107:-1.787463e-17 2108:-1.787463e-17 2109:-1.787463e-17 2110:7.4316198e-18 2111:-1.787463e-17 2112:-1.787463e-17 2113:-1.787463e-17 2114:0.0096094804 2115:-1.787463e-17 2116:-1.787463e-17 2117:0.0094632441 2118:-1.787463e-17 2119:-0.0052487594 2120:-1.787463e-17 2121:-0.047567546 2122:-5.0890724e-12 2123:-5.4659593e-12 2124:-5.0890724e-12 2125:-5.4659593e-12 2126:-7.4316198e-18 2127:1.787463e-17 2128:1.787463e-17 2129:1.787463e-17 2130:-0.075459175 2131:0.026835117 2132:-0.039681446 2133:-0.055587791 2134:0.032567762 2135:-1.787463e-17 2136:-1.787463e-17 2137:0.0023543318 2138:0.0023543318 2139:-1.787463e-17 2140:-1.787463e-17 2141:-0.026602328 2142:-0.026602328 2143:-1.7171474e-17 2144:-1.7171474e-17 2145:-1.7171474e-17 2146:-1.7171474e-17 2147:-8.5856252e-17 2148:-0.017633732 2149:-0.017633732 2150:-0.017633732 2151:-0.017633732 2152:-0.017633732 2153:-0.017633732 2154:0.050758377 2155:0.049122173 2156:-1.787463e-17 2157:-1.787463e-17 2158:-1.787463e-17 2159:-1.787463e-17 2160:-1.787463e-17 2161:-1.787463e-17 2162:-1.787463e-17 2163:-1.787463e-17 2164:-1.787463e-17 2165:-1.787463e-17 2166:-1.787463e-17 2167:-1.787463e-17 2168:-1.6771241e-17 2169:0.014970753 2170:0.011529604 2171:-0.014099319 2172:1.6100667e-17 2173:1.6100667e-17 2174:-0.054061014 2175:-0.060545076 2176:0.048646607 2177:0.024375772 2178:0.024375772 2179:0.024375772 2180:-1.787463e-17 2181:-0.042361494 2182:-0.042361494 2183:-1.787463e-17 2184:-1.787463e-17 2185:-1.787463e-17 2186:7.4316198e-18 2187:-1.787463e-17 2188:-1.787463e-17 2189:-0.0056374995 2190:-0.0056374995 2191:-0.0056374995 2192:-0.028311662 2193:-0.028311662 2194:-0.028311662 2195:-1.787463e-17 2196:-0.034475673 2197:-0.034475673 2198:-0.034475673 2199:0.010448868 2200:-1.787463e-17 2201:-1.787463e-17 2202:-1.787463e-17 2203:-1.787463e-17 2204:-1.787463e-17 2205:-0.027209878 2206:-0.027209878 2207:-0.027209878 2208:-0.027209878 2209:-0.0089189224 2210:-0.0089189224 2211:-0.0089189224 2212:0.038779706 2213:-0.017343106 2214:-0.017343106 2215:-0.010736135 2216:-0.010736135 2217:-0.017343106 2218:-0.017343106 2219:-0.017343106 2220:-0.015143559 2221:-0.015143559 2222:-0.015143559 2223:-0.015143559 2224:-0.015143559 2225:-0.015143559 2226:-0.015143559 2227:-0.0078914575 2228:-0.0078914575 2229:0.015107427 2230:0.014065677 2231:-0.027570622 2232:1.787463e-17 2233:1.787463e-17 2234:1.787463e-17 2235:1.787463e-17 2236:1.787463e-17 2237:1.787463e-17 2238:1.787463e-17 2239:1.787463e-17 2240:1.787463e-17 2241:-0.025923857 2242:-0.025923857 2243:-0.025923857 2244:-0.038903933 2245:-0.038903933 2246:-0.038903933 2247:-1.452041e-17 2248:0.0011086228 2249:0.0011086228 2250:0.0011086228 2251:-1.787463e-17 2252:0.018340053 2253:0.018340053 2254:0.018340053 2255:0.018340053 2256:0.018340053 2257:-0.069402039 2258:-0.025635496 2259:-0.025635496 2260:-0.025635496 2261:-0.025635496 2262:-0.025635496 2263:1.6536269e-17 2264:1.6536269e-17 2265:1.6536269e-17 2266:1.6536269e-17 2267:1.6536269e-17 2268:-0.04907639 2269:-0.04907639 2270:-0.04907639 2271:-0.04907639 2272:0.022818562 2273:0.022818562 2274:0.022818562 2275:0.022818562 2276:0.022818562 2277:-1.787463e-17 2278:-1.787463e-17 2279:-1.787463e-17 2280:0.0007321359 2281:0.0007321359 2282:0.0007321359 2283:0.0007321359 2284:0.0024042476 2285:0.0024042476 2286:0.0024042476 2287:0.0024042476 2288:0.0024042476 2289:0.0024042476 2290:0.0024042476 2291:0.0014991773 2292:0.015978597 2293:0.015978597 2294:0.0088565433 2295:0.0088565433 2296:0.0088565433 2297:0.0088565433 2298:0.0088565433 2299:-0.03424798 2300:-0.03424798 2301:0.0027088574 2302:-0.024842691 2303:-0.024842691 2304:-0.024842691 2305:-0.024842691 2306:-0.024842691 2307:-0.024842691 2308:-0.024842691 2309:-1.787463e-17 2310:-1.787463e-17 2311:-1.787463e-17 2312:-1.787463e-17 2313:-1.787463e-17 2314:-1.787463e-17 2315:-1.787463e-17 2316:-0.041306715 2317:0.01296741 2318:0.025469145 2319:-0.060247038 2320:0.035751749 2321:0.040529907 2322:-1.787463e-17 2323:-1.787463e-17 2324:-1.787463e-17 2325:-1.787463e-17 2326:0.038199071 2327:-0.041264545 2328:-0.041264545 2329:-0.041264545 2330:-1.787463e-17 2331:7.4316198e-18 2332:-1.787463e-17 2333:-1.787463e-17 2334:-1.787463e-17 2335:-1.787463e-17 2336:-1.787463e-17 2337:-1.787463e-17 2338:0.054123204 2339:-1.787463e-17 2340:-1.787463e-17 2341:-1.787463e-17 2342:-1.787463e-17 2343:0.024559874 2344:0.024559874 2345:0.01955533 2346:0.022168867 2347:-0.047830127 2348:-0.02704964 2349:-0.017597193 2350:1.650989e-17 2351:1.650989e-17 2352:1.650989e-17 2353:-0.0062387274 2354:-0.0062387274 2355:-0.0062387274 2356:1.2198119e-17 2357:-1.787463e-17 2358:7.4316198e-18 2359:-1.787463e-17 2360:-1.787463e-17 2361:-1.787463e-17 2362:-1.787463e-17 2363:-0.037009731 2364:-0.020065702 2365:0.042564601 2366:-1.2755109e-17 2367:-1.2755109e-17 2368:-1.2755109e-17 2369:-1.2755109e-17 2370:-1.2755109e-17 2371:-1.2755109e-17 2372:-1.2755109e-17 2373:-1.2755109e-17 2374:-1.2755109e-17 2375:-1.2755109e-17 2376:-1.787463e-17 2377:-1.787463e-17 2378:-1.787463e-17 2379:-1.787463e-17 2380:-1.787463e-17 2381:-1.787463e-17 2382:-1.787463e-17 2383:-1.787463e-17 2384:-1.787463e-17 2385:-1.787463e-17 2386:-1.787463e-17 2387:-1.787463e-17 2388:-1.787463e-17 2389:-1.787463e-17 2390:-1.787463e-17 2391:-1.787463e-17 2392:0.0097925402 2393:0.0097925402 2394:-0.01886831 2395:-0.01886831 2396:-0.010055714 2397:-0.010055714 2398:-0.010055714 2399:0.015457896 2400:0.015457896 2401:0.015457896 2402:0.015457896 2403:0.015457896 2404:0.015457896 2405:0.015457896 2406:0.015457896 2407:-1.787463e-17 2408:-1.787463e-17 2409:0.03114395 2410:0.03114395 2411:0.03114395 2412:0.03114395 2413:-1.787463e-17 2414:-1.787463e-17 2415:-1.787463e-17 2416:1.018414e-17 2417:-1.6282991e-17 2418:-1.6282991e-17 2419:-1.6282991e-17 2420:-1.787463e-17 2421:-1.787463e-17 2422:-1.787463e-17 2423:-1.787463e-17 2424:-1.787463e-17 2425:-1.787463e-17 2426:-1.787463e-17 2427:-1.787463e-17 2428:-1.787463e-17 2429:-1.787463e-17 2430:-1.787463e-17 2431:-1.787463e-17 2432:-1.787463e-17 2433:-0.05137258 2434:-1.7204056e-17 2435:-1.7204056e-17 2436:-1.7204056e-17 2437:0.019837687 2438:0.0058630961 2439:0.0058630961 2440:0.0058630961 2441:0.0058630961 2442:0.0058630961 2443:-0.02529964 2444:-0.029993668 2445:-0.027173413 2446:-0.033003382 2447:-0.013845276 2448:-0.013845276 2449:-0.013845276 2450:-0.013845276 2451:-0.013845276 2452:-0.013845276 2453:-0.013845276 2454:-0.013845276 2455:-0.013845276 2456:-0.013845276 2457:-0.013845276 2458:-0.013845276 2459:0.0082571404 2460:0.0082571404 2461:0.0022463806 2462:0.0022463806 2463:-1.787463e-17 2464:-1.787463e-17 2465:-0.085153215 2466:-0.085153215 2467:0.021979121 2468:-0.0085056946 2469:-0.0085056946 2470:-0.0085056946 2471:-0.0085056946 2472:-0.0085056946 2473:-0.0085056946 2474:0.011845342 2475:0.011845342 2476:0.13905665 2477:0.13905665 2478:0.0032343313 2479:-1.787463e-17 2480:-1.787463e-17 2481:0.0019126453 2482:-1.787463e-17 2483:0.016794797 2484:-1.650989e-17 2485:0.002168267 2486:0.0019126453 2487:0.018038673 2488:0.018038673 2489:0.018038673 2490:-0.019361751 2491:-0.019361751 2492:-0.019361751 2493:-0.019361751 2494:-0.0064266468 2495:-0.0064266468 2496:-0.0064266468 2497:-0.0064266468 2498:-0.013161531 2499:-0.014136316 2500:-0.014136316 2501:-0.014136316 2502:0.058131743 2503:-0.036262617 2504:-0.036262617 2505:-0.036262617 2506:-0.036262617 2507:0.010321189 2508:0.010321189 2509:0.010321189 2510:0.010321189 2511:0.010321189 2512:0.010321189 2513:0.010321189 2514:0.010321189 2515:0.010321189 2516:0.010321189 2517:0.010321189 2518:0.010321189 2519:0.010321189 2520:0.010321189 2521:-0.040829908 2522:-0.040829908 2523:-0.040829908 2524:0.020884193 2525:0.014970753 2526:0.014970753 2527:0.014970753 2528:0.016079536 2529:-1.6100667e-17 2530:0.043147881 2531:-1.6258462e-17 2532:-1.6258462e-17 2533:-1.650989e-17 2534:0.04634355 2535:0.007991788 2536:0.007991788 2537:0.007991788 2538:0.007991788 2539:0.037915077 2540:0.035300601 2541:-1.787463e-17 2542:0.014388062 2543:0.014388062 2544:0.014388062 2545:0.014388062 2546:-0.027626911 2547:-0.027626911 2548:-0.027626911 2549:0.0022236879 2550:-1.787463e-17 2551:-1.787463e-17 2552:-1.787463e-17 2553:-0.0068288571 2554:-0.0068288571 2555:-0.0068288571 2556:-1.787463e-17 2557:-1.787463e-17 2558:-1.787463e-17 2559:-1.787463e-17 2560:-1.787463e-17 2561:-1.787463e-17 2562:-1.787463e-17 2563:-0.014368387 2564:-0.014368387 2565:-0.014368387 2566:-0.014368387 2567:1.787463e-17 2568:1.787463e-17 2569:1.787463e-17 2570:1.787463e-17 2571:1.787463e-17 2572:1.787463e-17 2573:-0.025905332 2574:-0.025905332 2575:-0.025905332 2576:-0.025905332 2577:-0.025905332 2578:-0.052471492 2579:-0.021474434 2580:-0.0230649 2581:-0.0230649 2582:-0.0230649 2583:-0.021474434 2584:-0.0230649 2585:0.022689968 2586:0.022689968 2587:0.022689968 2588:0.022689968 2589:0.022689968 2590:0.022689968 2591:0.022689968 2592:0.022689968 2593:0.022689968 2594:0.022689968 2595:-0.013063919 2596:-0.013063919 2597:-0.013063919 2598:-0.013063919 2599:-0.013063919 2600:-0.013063919 2601:-0.078508154 2602:-0.078508154 2603:0.01674943 2604:0.01674943 2605:0.01674943 2606:-1.787463e-17 2607:-0.14240389 2608:0.0069849296 2609:0.0069849296 2610:-1.787463e-17 2611:-1.787463e-17 2612:-1.787463e-17 2613:-1.787463e-17 2614:-1.787463e-17 2615:-1.787463e-17 2616:-1.787463e-17 2617:-1.787463e-17 2618:-1.787463e-17 2619:-1.787463e-17 2620:-1.787463e-17 2621:-1.787463e-17 2622:-1.787463e-17 2623:-1.787463e-17 2624:-1.787463e-17 2625:-1.787463e-17 2626:0.028166385 2627:0.028166385 2628:0.028166385 2629:0.028166385 2630:-0.033354964 2631:-0.033354964 2632:-0.16133356 2633:-0.11704397 2634:0.015032142 2635:0.015032142 2636:0.015032142 2637:0.015032142 2638:0.015032142 2639:0.015032142 2640:1.787463e-17 #
