SVM-light Version V6.20
0 # kernel type
3 # kernel parameter -d 
1 # kernel parameter -g 
1 # kernel parameter -s 
1 # kernel parameter -r 
empty# kernel parameter -u 
635 # highest feature index 
32 # number of training documents 
2 # number of support vectors plus 1 
0 # threshold b, each following line is a SV (starting with alpha*y)
1 1:-0.29975119 3:-0.064996392 4:-0.064996392 5:-0.064996392 6:-0.030586727 7:0.014260069 8:-0.041897867 9:-0.022273287 10:-0.016663108 11:-0.01528578 12:-0.030586727 13:-0.01528578 14:-0.01528578 15:-0.01528578 16:-0.01528578 17:-0.01528578 18:-0.01528578 19:-0.0425383 20:-0.0093231928 21:-0.0093231928 22:-0.0093231928 23:-0.023267144 24:-0.049156606 25:-0.0093231928 26:-0.0093231928 27:-0.0093231928 28:-0.0093231928 29:-0.017977709 30:-0.017449953 31:-0.048942849 32:-0.064149879 33:-0.055614207 34:-0.035759203 35:-0.036640387 36:-0.010518221 37:-0.062978908 38:-0.023418391 39:-0.0093188593 40:-0.0093188593 41:-0.010518221 42:-0.010518221 43:-0.036592681 44:-0.037248131 45:-0.057278618 46:-0.035982106 47:-0.013677541 48:-0.012117933 49:-0.039355509 50:-0.056907441 51:-0.04822886 52:-0.033122946 53:-0.021458045 54:-0.014618521 55:-0.014618521 56:-0.014618521 57:-0.014618521 58:-0.04962188 59:-0.04550213 60:-0.020138912 61:-0.019237537 62:-0.019237537 63:-0.019237537 64:-0.019237537 65:-0.019237537 66:-0.054547206 67:-0.027063176 68:1.6806037e-18 69:1.6806037e-18 70:-0.038797699 71:-0.0079218857 72:1.6806037e-18 73:-0.027063176 74:1.6806037e-18 75:1.6806037e-18 76:-0.046940032 77:1.6806037e-18 78:1.6806037e-18 79:-0.015244541 80:-0.0088564791 81:3.3805991e-18 82:1.6806037e-18 83:1.6806037e-18 84:-0.024998266 85:-0.018723736 86:1.6806037e-18 87:1.6806037e-18 88:-0.004956848 89:1.6806037e-18 90:1.6806037e-18 91:-0.019477163 92:-0.012789071 93:-0.041120198 94:-0.041120198 95:-0.041120198 96:-0.037625045 97:-0.025460301 98:-0.02194999 99:-0.023031194 100:-0.023031194 101:-0.0034933037 102:-0.012789071 103:-0.023031194 104:-0.02534622 105:-0.067068785 106:-0.067068785 107:-0.075700708 108:-0.040006906 109:-0.01824623 110:-0.0028122899 111:-0.0034933037 112:-0.0034933037 113:-0.0034933037 114:-0.0034933037 115:-0.0034933037 116:-0.0034933037 117:-0.0030949728 118:-0.044046741 119:-0.01700736 120:-0.0095561659 121:-0.0092491712 122:-0.0092491712 124:-0.01259056 125:-0.0092491712 126:-0.0092491712 127:-0.0092491712 128:-0.0092491712 131:-0.0452016 132:-0.029661451 133:-0.029661451 134:-0.029661451 135:-0.029661451 136:-0.021894027 137:-0.020908495 138:-0.021357402 140:-0.021894027 141:-0.021894027 142:-0.021894027 146:-0.016433215 147:-0.0019191036 148:-0.0019191036 149:-0.0019191036 150:-0.0019191036 151:-0.0019191036 152:-0.0019191036 153:-0.0019191036 154:-0.0019191036 155:-0.0019191036 156:-0.0032112522 157:-0.0019191036 158:-0.0019191036 159:-0.0048487866 160:-0.012488931 161:-0.010105954 162:-0.0048487866 163:-0.0048487866 164:-0.0048487866 165:-0.0042958939 166:-0.0048487866 167:-0.0048487866 168:-0.0048487866 169:-0.049175035 170:-0.025446177 171:1.6806037e-18 173:-0.012174285 174:1.6806037e-18 177:-0.021710541 178:-0.039086293 179:-0.022780158 180:-0.039847542 181:-0.044535052 182:-0.0035582762 183:-0.0043960437 184:-0.044535052 186:-0.017252263 187:-0.017252263 188:-0.017252263 189:-0.017252263 190:-0.017252263 191:-0.017252263 192:-0.021095099 193:-0.029741364 194:-0.013711641 195:-0.041006546 196:-0.013711641 197:-0.013711641 198:-0.013711641 199:-0.013711641 201:-0.03569952 204:-0.018936103 206:1.6806037e-18 207:-0.0013185428 208:1.6806037e-18 209:1.6806037e-18 210:-0.011141849 211:1.6806037e-18 212:-0.010663329 213:1.6806037e-18 214:1.6806037e-18 215:-0.0031843823 217:-0.0031843823 218:-0.0031843823 219:-0.0031843823 220:-0.0031843823 223:-0.0031843823 224:-0.014823494 225:-0.0031843823 226:-0.0031843823 227:-0.0031843823 228:-0.0031843823 229:-0.001705445 230:-0.013562841 231:-0.0046046632 234:-0.0046046632 236:-0.0046046632 237:-0.0046046632 238:-0.028708307 239:-0.003266253 240:-0.003266253 241:-0.028708307 242:-0.028708307 243:-0.003266253 244:-0.003266253 245:-0.003266253 246:-0.003266253 247:-0.003266253 248:-0.010968294 249:-0.033004194 250:-0.010968294 251:-0.010968294 252:-0.010968294 253:-0.0080145849 254:-0.0080145849 255:-0.0080145849 256:-0.0080145849 257:-0.0080145849 258:-0.0080145849 259:-0.0080145849 260:-0.0080145849 261:-0.0080145849 262:-0.0065578301 263:-0.0065578301 264:-0.0065578301 265:-0.0065578301 266:-0.0065578301 267:-0.0065578301 268:-0.0065578301 269:-0.0065578301 270:-0.0092739174 271:-0.0058100605 272:-0.0065578301 273:-0.0014882426 274:-0.0014882426 275:-0.0014882426 276:-0.0014882426 277:-0.0014882426 278:-0.0014882426 279:-0.0014882426 280:-0.0014882426 281:-0.0014882426 282:-0.0014882426 283:-0.0040162355 284:-0.0040162355 285:-0.021455523 286:-0.027199401 287:-0.0040162355 288:-0.0040162355 289:-0.0040162355 290:-0.0040162355 291:-0.0040162355 292:-0.0040162355 293:-0.0040162355 294:-0.0040162355 295:-0.0040162355 296:-0.0040162355 297:-0.0040162355 298:-0.0040162355 299:-0.013492231 300:1.6806037e-18 301:1.6806037e-18 302:1.6806037e-18 303:-0.013492231 304:-0.013492231 305:1.6806037e-18 306:-0.0043960437 307:1.6806037e-18 308:1.6806037e-18 309:1.6806037e-18 310:1.6806037e-18 311:1.6806037e-18 312:-0.020019045 313:-0.010664419 314:-0.010664419 315:-0.020019045 316:-0.010664419 317:-0.010664419 318:-0.010664419 319:-0.010664419 320:-0.010664419 321:-0.010664419 322:-0.012174285 323:-0.027503205 324:-0.010786088 325:-0.012174285 326:-0.021442411 327:-0.021442411 328:-0.021442411 329:-0.021442411 330:-0.021442411 331:-0.01267123 332:-0.014302051 333:-0.014302051 334:-0.0013729712 335:-0.012783199 336:-0.067068785 337:1.0939076e-18 338:1.0939076e-18 339:1.0939076e-18 340:1.0939076e-18 341:-0.067068785 342:-0.075700708 343:-0.015228716 344:-0.045642547 345:-0.045642547 346:-0.0096581411 347:-0.030589379 348:-0.0096581411 349:-0.0096581411 350:-0.0096581411 351:-0.0096581411 352:-0.0096581411 353:-0.0096581411 354:-0.0096581411 355:-0.01959604 356:-0.01959604 357:-0.025192657 358:-0.01959604 359:-0.01959604 360:-0.031011939 361:-0.031011939 362:-0.041486401 363:-0.031011939 364:-0.031011939 365:-0.031011939 366:-0.001705445 367:-0.001705445 368:-0.001705445 369:-0.001705445 370:-0.0055905855 371:-0.001705445 372:-0.001705445 373:-0.001705445 374:-0.001705445 375:-0.001705445 376:-0.001705445 377:-0.001705445 378:-0.001705445 379:-0.001705445 380:-0.001705445 381:-0.001705445 382:-0.001705445 383:-0.001705445 384:-0.001705445 385:-0.001705445 386:-0.001705445 387:-0.001705445 388:-0.001705445 389:-0.001705445 390:-0.001705445 391:-0.001705445 392:-0.001705445 393:-0.001705445 394:-0.001705445 395:-0.001705445 396:-0.001705445 397:-0.001705445 398:-0.001705445 399:-0.001705445 400:-0.001705445 401:-0.001705445 402:-0.001705445 403:-0.001705445 404:-0.001705445 405:-0.012035726 406:-0.012035726 407:-0.012035726 408:-0.012035726 409:-0.012035726 410:-0.012035726 411:-0.027066048 412:-0.021710541 413:-0.021710541 414:-0.021710541 415:-0.021710541 416:-0.014173286 417:-0.014173286 418:-0.0039945259 419:1.6806037e-18 420:-0.0043960437 421:1.6806037e-18 422:0.033067744 423:-0.030174445 424:-0.0049618259 425:-0.0049618259 426:-0.0049618259 427:-0.0049618259 428:-0.029096149 429:-0.029096149 430:-0.029096149 431:-0.029096149 432:-0.0098402211 433:-0.0098402211 434:-0.0098402211 435:-0.0098402211 436:-0.0098402211 437:-0.0087181702 438:-0.029136887 439:-0.029136887 440:-0.029136887 441:-0.01520021 442:-0.01520021 443:-0.01520021 444:-0.020945376 445:-0.020945376 446:-0.020945376 447:-0.020945376 448:-0.020945376 449:1.6806037e-18 450:1.6806037e-18 451:1.6806037e-18 452:1.6806037e-18 453:-0.02194999 454:-0.02194999 455:-0.02194999 456:-0.044216327 457:-0.044216327 458:-0.044216327 499:1.6806037e-18 500:1.6806037e-18 507:1.6806037e-18 509:1.6806037e-18 516:-0.0088389777 517:-0.0088389777 524:1.0939076e-18 527:1.0939076e-18 529:-0.044535052 531:-0.0031843823 534:-0.0031843823 535:-0.0031843823 543:-0.021983922 544:-0.021983922 549:-0.011931128 550:-0.011931128 551:-0.011931128 552:-0.011931128 553:1.0939076e-18 554:1.0939076e-18 555:1.0939076e-18 556:1.0939076e-18 557:1.0939076e-18 558:1.0939076e-18 559:1.0939076e-18 560:-0.0049618259 561:-0.0049618259 562:-0.0049618259 563:-0.0049618259 564:-0.0049618259 565:-0.0049618259 566:-0.0049618259 567:-0.0049618259 568:-0.0049618259 569:-0.010703751 570:-0.010703751 571:-0.010703751 572:-0.010703751 573:-0.010703751 574:-0.017733946 575:-0.017733946 576:-0.017733946 577:-0.017733946 578:-0.017733946 579:-0.017733946 580:-0.017733946 581:-0.017733946 582:-0.021983922 583:-0.0088389777 584:-0.0088389777 585:-0.046195153 586:-0.046195153 587:-0.046195153 588:0.042285472 589:0.042285472 590:0.042285472 591:0.042285472 592:0.042285472 593:0.042285472 594:0.042285472 595:0.042285472 596:-0.014435057 597:-0.0092491712 598:-0.0092491712 599:-0.0092491712 600:-0.0092491712 601:-0.0092491712 602:-0.0092491712 603:-0.021894027 604:-0.021894027 605:-0.021894027 606:1.6806037e-18 607:1.6806037e-18 608:1.6806037e-18 609:1.6806037e-18 610:1.6806037e-18 611:1.6806037e-18 612:1.6806037e-18 613:1.6806037e-18 614:1.6806037e-18 615:1.6806037e-18 624:-0.031725138 625:-0.031725138 626:-0.031725138 627:-0.0031843823 628:-0.0031843823 629:-0.0031843823 630:-0.0046046632 631:-0.0046046632 632:-0.0046046632 633:-0.0046046632 634:-0.0046046632 #
