SVM-light Version V6.20
0 # kernel type
3 # kernel parameter -d 
1 # kernel parameter -g 
1 # kernel parameter -s 
1 # kernel parameter -r 
empty# kernel parameter -u 
2785 # highest feature index 
41 # number of training documents 
2 # number of support vectors plus 1 
0 # threshold b, each following line is a SV (starting with alpha*y)
1 1:-0.31157368 3:-0.055398237 4:-0.02939979 5:-0.035563603 6:-0.0095752105 7:-0.038583774 8:-0.012342359 9:-0.013190759 10:-0.0071688206 11:-0.0078896256 12:-0.030860359 13:-0.038794972 14:-0.001326681 15:-0.0013767482 16:-0.012975984 17:-0.0091708899 18:-0.013635267 19:-0.034378793 20:-0.064870812 21:-0.001326681 22:-0.001326681 23:-0.0021746913 24:-0.0018421707 25:-0.003573312 26:-0.0032084826 27:-0.009969254 28:-0.026688166 29:-0.041867338 30:2.6430828e-18 31:-0.0077256649 32:-0.011264344 33:-0.067922324 34:-1.8246142e-17 35:1.6620063e-18 36:-0.049071655 37:-0.03996117 38:2.6430828e-18 39:2.6430828e-18 40:-0.0074691605 41:-0.0028676137 42:1.126026e-19 43:-1.1826676e-18 44:2.6430828e-18 45:-0.00034087244 46:-0.059493542 47:-0.013999387 48:-0.0090321591 49:-0.021318631 50:-0.014063619 51:-0.0072237304 52:-0.0090321591 53:-0.0090321591 54:-0.036833934 55:-0.062364377 56:-0.028377375 57:-0.011581165 58:-0.042070832 59:-0.0067069922 60:-0.0058509097 61:-0.0058509097 62:-0.020430794 63:-0.042070832 64:-0.055973142 65:-0.028466292 66:-0.0038500859 67:-0.071574979 68:-0.036025494 69:-0.0042372011 70:-0.0045445142 71:-0.0042372011 72:-0.064737171 73:-0.020707408 74:-0.005991206 75:-0.023975359 76:-0.005991206 77:-0.005991206 78:-0.0052986178 79:-0.040846113 80:-0.016908424 81:-0.025924461 82:-0.002769412 83:-0.0026699787 84:-0.0064694267 85:-0.020360174 86:-0.079467766 87:-0.048860796 88:-0.0075531136 89:-0.001028955 90:-0.015978549 92:-0.0010026632 93:-0.001028955 94:-0.0023015849 96:-0.01778375 97:-0.020220507 98:-0.04219503 99:-0.010188432 100:-0.004379537 101:-1.1826676e-18 102:-0.033037454 103:-0.070967883 104:-0.01432788 105:-0.049863759 106:-0.01432788 107:-0.01432788 108:-0.041361142 109:-0.048994575 110:-0.0050708777 111:-1.1826676e-18 112:0.0031465187 113:-0.03145615 114:-0.032593761 115:-1.1826676e-18 116:-0.034374781 118:-1.1826676e-18 119:-0.02776565 120:-0.029814102 121:-0.018626872 122:-0.0079950765 123:-0.01757686 124:-0.021061612 125:-0.018626872 126:3.0876318e-19 127:3.0876318e-19 128:3.0876318e-19 129:-0.00701471 130:-0.012242595 131:-0.05302202 132:0.080805212 133:0.0032583252 134:-0.044165533 135:-0.05302202 136:0.024074599 137:-0.017473046 138:-0.0067899763 139:-0.011753238 140:-0.0067899763 141:-0.051184859 142:-0.022562064 143:-2.165984e-18 149:-0.013180273 150:-0.019024581 151:-0.014903082 152:-0.014903082 153:-0.014903082 156:-0.021295257 158:-0.021629892 159:-0.007030542 160:-0.049316753 161:-0.03459667 162:-0.013772675 163:0.0037401109 164:-0.00054731895 165:-0.0017905318 166:-0.00048404842 167:-0.00054731895 168:-0.00043297204 169:-0.00054731895 170:-0.00048404842 171:-0.0016647305 172:-0.00054731895 173:-0.00054731895 174:-0.0073246728 175:-0.0094187427 176:-0.00045917949 177:-0.0054496047 178:-0.0035001561 179:-0.00045917949 180:-0.00045917949 181:-0.0086877169 182:-0.0073792199 183:-0.00040609797 184:-0.00045917949 185:-0.0091956817 186:-0.0026781212 187:-0.021864612 188:-0.0096832281 189:-0.010025511 190:-0.0032176191 191:-0.022822946 192:-0.042488638 193:0.028849559 194:0.025493886 195:-0.0019526568 196:6.6202507e-17 197:0.013043249 198:-1.6933649e-17 199:-0.010146641 201:-1.1826676e-18 202:-0.012627965 203:-0.01147426 204:-0.0043447614 207:-0.0028164496 208:0.0040425467 209:-0.01373496 210:-0.0028164496 211:-0.005334456 212:-0.0023004096 213:-0.0024908658 214:-0.0028164496 215:-0.0028164496 216:-0.0028164496 217:-0.0026259935 218:-0.0086243507 219:-0.0028164496 220:-0.0028164496 221:-0.0023004096 222:-0.0026259935 223:-0.0028164496 224:-0.0028164496 225:-0.0028164496 226:-0.01540458 227:-0.010299506 228:-0.01540458 229:-0.01540458 230:-0.012602734 231:-0.02606583 232:-0.0028226082 233:-0.0031016502 234:-0.020254612 235:-1.3133351e-17 236:-0.0086385766 237:-0.024352428 238:-0.0044248151 239:-0.012659601 240:7.0086492e-18 241:-0.005191741 242:-0.015370137 243:-0.015484386 244:-0.020140585 245:-0.020140585 246:-0.0075528603 247:0.0025746664 248:-0.0075528603 249:-0.0046049263 250:-0.023608424 251:-0.037412174 252:0.031460181 253:-0.012184531 254:-0.0032668817 255:-0.004702758 256:-0.046309292 257:-0.016809883 258:-0.016809883 259:-0.016809883 260:-0.0096446192 262:-0.031824265 264:-0.044862915 265:-2.165984e-18 266:-0.012662185 272:-0.0094373571 275:1.6620063e-18 276:-2.165984e-18 277:-0.0087329941 278:-0.007723453 279:-0.0087329941 280:-0.0087329941 281:-0.0087329941 282:-0.007723453 283:-0.037984159 284:-1.1826676e-18 285:-0.0045712902 286:-0.003679181 287:-0.003679181 290:-0.0040154485 291:-0.005222905 292:-0.005222905 293:-3.3591339e-18 294:1.6620063e-18 297:1.6620063e-18 303:-0.0052370452 304:-0.0070210174 305:-0.01296452 306:-0.00061863218 307:-0.00059099443 308:6.7868991e-19 310:-0.0034720364 311:-0.012956597 312:-0.008191091 313:-0.013372912 314:-0.0059844903 315:-0.0075649801 316:-0.015164981 317:-0.02066882 318:-0.040044192 319:-0.015121017 320:-0.016231643 321:-0.003837879 322:-0.012961634 323:-1.8682452e-17 324:2.6430828e-18 325:2.6430828e-18 326:-0.0081326636 327:-0.042754121 328:-0.02178278 329:0.024023442 330:-0.0081804646 331:-0.0087737711 332:-0.024278684 333:-0.0087737711 334:-0.048562493 335:-0.011545486 336:-7.5126272e-18 337:0.014433573 338:-0.039098073 339:-0.014139299 340:-0.0050371345 341:-0.011545486 342:2.6430828e-18 343:-0.0024320949 344:-0.016611116 345:-0.0085382648 346:-0.013524463 347:-0.0055939043 348:-0.0038966499 349:-0.00297836 350:-0.0010556411 351:-0.0087929992 352:-0.0039499095 359:-0.0010622304 360:6.7868991e-19 361:0.0018827853 363:-0.056616038 364:-0.0037105335 365:-0.0012925665 366:-0.045261074 367:1.6620063e-18 368:-0.0052566594 369:0.0036875485 370:-0.0088284072 371:-0.0037213503 372:-0.0066007134 373:-0.0037213503 374:-0.0039912499 375:-3.3591339e-18 376:3.0876318e-19 377:3.0876318e-19 378:-0.010225951 379:-0.005261919 380:1.126026e-19 381:-0.0037097149 382:-0.0029563438 383:-0.0068009868 384:-0.0069873366 385:-0.0084097711 386:-0.0069873366 387:-0.0069873366 388:-0.0092859957 389:-0.0068126512 390:-0.012183716 391:-0.011767178 392:-0.012620619 393:-0.0074921325 394:-0.019602889 395:-0.021024633 396:-0.021024633 398:-0.0038849902 401:-0.0025952363 402:0.0067134802 403:-0.0030000561 404:-0.0030000561 405:-0.004181752 406:-0.0030000561 407:-0.0023732786 408:-0.019200332 409:0.00097700895 410:-0.028462548 411:-0.0025825519 412:-1.1826676e-18 415:1.6620063e-18 416:-0.033944506 417:-1.4431649e-18 418:-0.002115126 419:-0.0043046796 420:-0.0074889548 423:-0.018346917 424:-0.0091689164 426:-0.010290829 427:-0.0088345483 430:-0.0099450937 431:-0.0056084688 432:-7.5126272e-18 433:-0.0089827087 434:-0.0056084688 435:2.6430828e-18 436:2.6430828e-18 437:-0.0051151491 438:2.6430828e-18 439:-0.0043404191 440:2.6430828e-18 441:2.6430828e-18 442:-0.011220565 443:2.6430828e-18 444:-0.004089715 445:-0.0081452914 446:-0.0078227222 448:-0.0082470989 452:-0.015332116 454:-0.0065439483 460:-4.0246403e-19 461:-0.0011556441 462:-0.0011556441 463:-0.0011556441 464:-0.0058958768 465:-0.00097905495 466:-0.0088284072 467:-0.0088284072 468:-0.0072693848 469:-0.006429038 470:-0.0097502759 471:-0.0097502759 472:-0.0025632898 473:-0.0021380493 474:-0.00074655027 475:-0.014435891 476:-0.0063829785 477:-0.0329643 478:-0.0006946408 479:-0.0025176124 480:2.6430828e-18 481:-0.014435891 482:2.6430828e-18 483:2.6430828e-18 484:7.0086492e-18 486:2.6430828e-18 487:-0.0043937429 488:-2.165984e-18 489:-0.0082849395 490:-0.015488547 491:-0.043040335 495:-0.0075700311 496:-0.0201021 497:-0.00037504698 498:-0.0048174742 499:-0.0024378553 500:-0.0055417358 501:-1.1826676e-18 505:-0.033912398 506:-0.0025295336 507:-0.011009227 508:-0.022039574 509:-0.0092859957 510:-0.006015236 511:-0.006015236 514:-0.0023993696 515:-0.0027129939 520:-2.165984e-18 521:2.6430828e-18 522:-0.0026570549 524:6.7868991e-19 535:-0.0029361518 537:-0.0032103055 539:1.2834631e-18 546:-1.1826676e-18 549:-2.909407e-17 550:-0.0052205208 551:1.6620063e-18 552:-0.013327378 554:-0.0052205208 561:-0.0073605953 563:-0.0073605953 564:-2.165984e-18 570:-0.0053056446 571:-0.022576645 573:-2.165984e-18 575:-0.026712921 576:-3.3591339e-18 577:-0.0015420089 580:-0.0028377238 581:-0.0015420089 582:-0.0087556522 585:-0.0087556522 588:-0.0093906764 589:-0.0083051063 590:0.040511698 591:2.6430828e-18 592:-0.013940147 593:2.6430828e-18 594:2.6430828e-18 595:-0.0056097838 596:2.6430828e-18 597:2.6430828e-18 603:-0.010114596 605:-1.1826676e-18 611:-0.0078045516 612:-0.011594465 613:-0.02776565 614:-0.011594465 615:-0.011594465 616:-0.0025127481 623:-0.0011214955 625:-0.0011214955 627:-1.1826676e-18 629:-1.1826676e-18 630:-0.0045411498 631:-0.0031541756 632:-0.002767015 633:-0.0057318602 634:-0.0011323077 635:-1.1826676e-18 636:-0.0050142091 637:-0.006833218 638:-0.017201781 639:-0.0023785746 640:-0.0022785126 641:-0.0050142091 642:-0.0067202975 643:-0.036713406 644:2.6430828e-18 645:-0.0084160473 646:2.6430828e-18 647:2.6430828e-18 648:9.8533233e-18 649:-1.1826676e-18 650:-0.018491982 651:-0.012193824 652:-1.1826676e-18 653:0.017948557 654:-0.0022257555 655:2.6430828e-18 656:-0.0054392037 657:-0.012896513 658:-0.0023235008 659:2.6430828e-18 660:2.6430828e-18 661:2.6430828e-18 663:-1.1826676e-18 664:-0.0038515246 665:-0.0092380689 666:-0.0041247369 667:2.6430828e-18 668:-0.0092380689 669:-0.0031138749 670:-0.0038022725 671:-0.0024363955 672:-0.0019922489 673:0.0063501601 674:-1.1826676e-18 675:2.6430828e-18 677:-0.05471582 678:-0.0058423709 679:2.6430828e-18 680:-1.1826676e-18 681:-0.0010013757 682:1.6620063e-18 683:-0.017447963 684:-0.017447963 685:-0.017447963 686:-0.017447963 687:-1.1826676e-18 688:-1.1826676e-18 690:-0.0079108682 691:-0.01179585 692:-0.0079108682 693:-0.0079108682 694:-0.0059673954 695:-0.0020416938 696:-0.0014176739 697:-0.0012537896 698:-1.1826676e-18 699:-0.028755 700:-7.5126272e-18 701:2.6430828e-18 702:2.6430828e-18 703:2.6430828e-18 704:2.6430828e-18 705:2.6430828e-18 706:2.6430828e-18 707:-0.0033707912 708:-0.0073193712 709:-0.0039787702 710:-0.0039787702 716:-0.002274218 717:-2.909407e-17 721:-0.014035639 722:2.6430828e-18 723:-1.1826676e-18 724:-0.005279005 725:0.0020218198 726:0.0019582072 727:0.0020218198 728:-0.01729179 729:-0.0069847018 730:-0.0020463043 731:0.0015883377 732:-0.0049864314 733:-0.0013730753 734:-0.0029499563 735:-0.0011632614 736:-0.00098271109 737:-0.0013730753 738:-0.0012143466 739:-0.0012143466 740:-0.0013730753 741:-0.0013730753 742:-0.0013730753 743:-0.0013730753 744:-0.0026698746 745:-0.0011322667 746:-0.0010556997 747:-0.0010556997 748:-0.0011322667 749:-0.0011322667 750:-0.0011322667 751:-0.0011322667 752:-0.0010556997 753:0.009616781 754:-0.016837833 755:-0.0072703334 756:2.6430828e-18 757:2.6430828e-18 758:2.6430828e-18 759:-1.1826676e-18 760:-0.013277872 762:1.6620063e-18 766:0.00073950988 767:2.6430828e-18 768:2.6430828e-18 769:1.6620063e-18 770:-0.00045917949 771:-0.00042812849 772:-0.00091615261 773:-0.00042812849 774:-0.00045917949 775:-0.00045917949 776:-0.00045917949 777:-0.00045917949 778:-0.0003890142 779:-0.00045917949 780:-0.00045917949 781:-0.0011621527 782:-0.00507558 783:-0.00045917949 784:-0.00045917949 785:-0.00045917949 786:-0.00040609797 787:-0.00045917949 788:-0.00042812849 789:-0.00042812849 790:-0.00045917949 791:-0.00045917949 792:-0.0010098951 793:-0.0010098951 794:-0.0010098951 795:-0.0010098951 796:-0.0010098951 797:-0.0010098951 798:-0.0010098951 799:-0.0010098951 800:-0.0010098951 801:-0.0010098951 802:-0.0010098951 803:-0.0010098951 804:-0.00094160321 805:0.14416878 806:0.019649021 807:0.14416878 813:-0.019245602 816:-0.0066650044 817:2.6430828e-18 818:2.6430828e-18 819:2.6430828e-18 820:2.6430828e-18 821:-7.5126272e-18 822:2.6430828e-18 823:-1.1826676e-18 824:-1.1826676e-18 825:2.6430828e-18 826:-7.5126272e-18 827:-0.0030880093 828:-0.0011556441 829:-0.0011556441 830:-0.0011556441 831:-0.0010774962 832:-0.0011556441 833:-0.0011556441 834:-0.0011556441 835:-0.0011556441 836:-0.0063995784 837:-0.0010098951 838:-0.0075229602 839:-0.0019754153 840:-0.0033072238 841:-0.0010098951 842:-0.0010098951 843:-0.0010098951 844:-0.0067467508 845:-0.00094160321 846:-0.0010098951 847:0.015920375 848:-0.0010098951 849:-0.0010098951 850:-0.0041047595 851:-0.0010098951 852:-0.0019754153 853:-0.0010098951 855:-0.0040291604 858:-7.5126272e-18 864:-0.00066253421 868:1.6620063e-18 869:-0.0087112142 870:-1.1826676e-18 871:-1.1826676e-18 872:2.6430828e-18 873:-0.0021730757 874:-7.5126272e-18 875:-0.0055027511 876:2.6430828e-18 877:2.6430828e-18 878:0.0066650589 879:2.6430828e-18 895:-1.1826676e-18 900:-1.1826676e-18 903:-0.013163903 909:2.6430828e-18 910:2.6430828e-18 911:-0.01276117 912:-1.1826676e-18 913:-0.0078027067 914:2.6430828e-18 915:0.0081593851 916:-0.0059398543 917:7.0086492e-18 918:-0.00064943649 919:2.6430828e-18 920:-0.015255157 921:-0.013263633 922:-0.032215763 923:2.6430828e-18 924:2.6430828e-18 925:-0.0096810572 926:0.0094528254 927:0.046939865 928:-0.007656815 929:-1.1826676e-18 930:-0.0053683897 931:-0.0036129924 932:2.6430828e-18 933:-0.032695405 934:2.6430828e-18 935:2.6430828e-18 936:-1.1826676e-18 938:-0.0035962078 939:-0.0031363012 940:0.0016805521 941:0.010197211 942:-0.0014301367 943:-0.0014301367 944:-0.0014301367 945:-0.0014301367 946:-0.0014301367 947:7.0086492e-18 973:-1.1826676e-18 984:-1.1826676e-18 985:-1.1826676e-18 996:-0.00046368543 997:-0.00054731895 998:-0.00054731895 999:-0.00054731895 1000:-0.00051030773 1001:-0.00054731895 1002:-0.00054731895 1003:-0.00054731895 1004:-0.00054731895 1005:2.6430828e-18 1006:0.002954728 1007:2.6430828e-18 1008:2.6430828e-18 1009:2.6430828e-18 1010:2.6430828e-18 1011:2.6430828e-18 1012:2.6430828e-18 1013:2.6430828e-18 1014:-7.5126272e-18 1015:2.6430828e-18 1016:2.6430828e-18 1017:2.6430828e-18 1018:2.6430828e-18 1019:2.6430828e-18 1020:2.6430828e-18 1021:-0.0081644198 1022:-7.5126272e-18 1023:2.6430828e-18 1024:2.6430828e-18 1025:2.6430828e-18 1026:0.014188295 1027:2.6430828e-18 1028:2.6430828e-18 1029:2.6430828e-18 1030:1.6620063e-18 1031:-0.0030462313 1032:0.0031690265 1033:0.0031690265 1034:0.0031690265 1035:0.0031690265 1036:-0.0029718156 1037:0.0031690265 1038:0.0031690265 1039:0.0031690265 1040:0.0031690265 1041:0.0031690265 1042:0.002954728 1043:0.0031690265 1044:0.0031690265 1045:0.0031690265 1046:0.0031690265 1047:0.0031690265 1048:0.0031690265 1049:0.0031690265 1050:0.0031690265 1051:0.0031690265 1052:0.0031690265 1053:0.0028026844 1054:-0.0021571917 1055:8.9115476e-19 1056:-2.8161252e-18 1057:-0.010078766 1058:-0.010078766 1059:-0.010078766 1060:-0.010078766 1061:-0.042427983 1062:-0.00063485396 1063:-0.012254318 1064:-0.012254318 1065:-0.012254318 1066:-0.0011087916 1067:0.0026143733 1068:-0.0011087916 1069:-0.00090563478 1070:-0.00098061434 1071:0.0069378121 1072:-0.0010338119 1073:-0.0011087916 1074:-0.0011087916 1075:-0.0011087916 1076:-0.0011087916 1077:-0.0011087916 1078:-0.0011087916 1079:-0.0011087916 1080:2.6430828e-18 1081:2.6430828e-18 1082:2.6430828e-18 1083:-1.1826676e-18 1084:2.6430828e-18 1085:1.6620063e-18 1093:-0.0097677354 1094:-0.0097677354 1095:-0.0097677354 1096:-0.0010013757 1097:-0.00089571142 1098:-0.0010013757 1099:-0.0011322667 1100:-0.0010013757 1101:-0.0011322667 1102:-0.0010556997 1103:-0.0011322667 1104:-0.0010556997 1105:-0.0040770923 1106:-0.0019336318 1107:-0.0019336318 1108:-0.0018028743 1109:-0.0019336318 1110:2.6430828e-18 1111:-1.1826676e-18 1112:-7.5126272e-18 1113:2.6430828e-18 1114:-0.0073030684 1115:-0.0073030684 1116:2.6430828e-18 1117:-1.1826676e-18 1118:6.4008171e-18 1119:-7.5126272e-18 1120:-0.0024691154 1121:-0.00056125707 1122:2.6430828e-18 1124:-1.1826676e-18 1125:-1.1826676e-18 1126:-0.0018943151 1132:-0.00066248927 1133:-0.00061768992 1134:-0.00066248927 1135:-0.00066248927 1136:-0.013193578 1137:1.6620063e-18 1138:-0.0019233454 1139:-0.0018905812 1140:-0.0035108919 1141:-0.0035108919 1142:-0.0064639701 1143:-0.01789489 1144:-0.0046626693 1145:2.6430828e-18 1146:-0.020423688 1147:-7.5126272e-18 1148:0.052442435 1149:2.6430828e-18 1150:2.6430828e-18 1151:0.039059959 1152:-0.0045442064 1153:-0.0034899779 1154:-0.033690937 1155:-0.0036793069 1161:-0.0063649486 1162:-0.0063649486 1163:-0.006826581 1164:-0.0063649486 1165:-0.010677328 1166:2.6430828e-18 1167:2.6430828e-18 1168:2.6430828e-18 1169:2.6430828e-18 1170:2.6430828e-18 1171:2.6430828e-18 1172:2.6430828e-18 1173:2.6430828e-18 1174:-0.0049110069 1175:2.6430828e-18 1176:2.6430828e-18 1177:-0.0010774962 1178:-0.0078359647 1179:-1.1826676e-18 1180:-0.0024391608 1181:-0.0024391608 1182:-0.0024391608 1183:-0.0024391608 1184:-0.0020664427 1185:2.6430828e-18 1186:-0.0030950422 1187:-0.0030950422 1188:2.6430828e-18 1189:2.6430828e-18 1190:-0.0009592498 1191:-1.1826676e-18 1192:-0.0010556997 1193:-0.0090490384 1194:-0.0011322667 1195:-0.0011322667 1196:-0.0010556997 1197:-0.0011322667 1198:-0.0053792801 1199:-0.0053792801 1200:-0.0051024742 1201:-0.010073435 1202:-0.0050850576 1203:-0.0053792801 1204:-0.0057694246 1205:-0.0053792801 1206:-0.0053792801 1207:-0.010073435 1208:-0.010073435 1209:-0.0013218068 1210:8.9115476e-19 1211:8.9115476e-19 1212:8.9115476e-19 1213:-0.012168783 1214:-0.026537614 1215:-7.5126272e-18 1216:-1.1826676e-18 1217:-1.1826676e-18 1218:-7.5126272e-18 1219:2.6430828e-18 1220:-1.1826676e-18 1221:2.6430828e-18 1222:2.6430828e-18 1223:2.6430828e-18 1224:2.6430828e-18 1225:-1.1826676e-18 1226:2.6430828e-18 1227:2.6430828e-18 1230:-0.00079890591 1232:-0.0022973225 1233:-0.0020874366 1234:-0.0022973225 1235:-0.0024639412 1236:2.6430828e-18 1237:2.6430828e-18 1238:4.7133525e-18 1239:-1.1826676e-18 1240:2.6430828e-18 1241:-7.5126272e-18 1242:2.6430828e-18 1243:2.6430828e-18 1244:2.6430828e-18 1245:2.6430828e-18 1246:2.6430828e-18 1247:-1.1826676e-18 1248:2.6430828e-18 1249:2.6430828e-18 1250:-9.3721243e-18 1251:-0.015846429 1252:-0.004905845 1253:2.6430828e-18 1254:-1.1826676e-18 1255:2.6430828e-18 1256:2.6430828e-18 1257:-1.1826676e-18 1258:8.0882812e-18 1259:-0.014160952 1260:2.6430828e-18 1261:0.018685833 1262:-1.1826676e-18 1263:1.6620063e-18 1266:-0.0060976516 1267:2.6430828e-18 1268:2.6430828e-18 1269:2.6430828e-18 1270:-2.8161252e-18 1271:0.014188295 1272:1.6620063e-18 1277:-1.1826676e-18 1281:-0.037667751 1282:-0.037667751 1283:-0.037667751 1284:-0.012631116 1285:-0.00085557729 1286:-0.003060339 1287:-0.0010098951 1288:-0.00094160321 1289:-0.0042444379 1290:-0.0010098951 1294:-0.00092480879 1295:-2.165984e-18 1296:-1.1826676e-18 1297:2.6430828e-18 1304:-0.0065565011 1305:-0.0065565011 1306:-0.0070320261 1307:-0.0070320261 1308:-0.0076122005 1309:-0.0011322667 1319:-0.011803348 1320:-0.011803348 1321:-0.011803348 1322:-0.011803348 1323:-0.0028699788 1324:-0.010476198 1325:-0.010476198 1326:-0.010476198 1327:-0.039059959 1328:-8.6083994e-19 1329:-1.1826676e-18 1330:-0.039059959 1331:-0.010990294 1332:-0.010990294 1333:-0.010990294 1334:-0.0086941812 1335:-0.010990294 1336:2.6430828e-18 1337:-0.017237911 1338:2.6430828e-18 1342:-0.014413795 1343:-0.0086253118 1344:-0.0080841864 1353:2.6430828e-18 1354:-0.011399353 1355:-0.011399353 1356:-0.011399353 1357:-0.011399353 1358:-0.044165533 1359:-0.0062261792 1360:-0.0055418294 1361:2.6430828e-18 1362:2.6430828e-18 1363:2.6430828e-18 1364:2.6430828e-18 1365:2.6430828e-18 1366:2.6430828e-18 1371:1.6620063e-18 1372:-1.1826676e-18 1374:-0.0036451793 1376:1.6620063e-18 1378:-0.0050921445 1385:2.6430828e-18 1386:-7.5126272e-18 1387:2.6430828e-18 1388:2.6430828e-18 1389:-1.1826676e-18 1390:2.6430828e-18 1391:-0.0029916682 1392:-0.0013218068 1393:2.6430828e-18 1394:2.6430828e-18 1395:2.6430828e-18 1396:-1.1826676e-18 1397:2.6430828e-18 1398:-0.0026759028 1411:0.0015170452 1412:0.0041469568 1413:-0.0028699788 1414:-0.002344131 1415:-0.018284304 1416:-0.0080018388 1417:2.6430828e-18 1418:2.6430828e-18 1419:2.6430828e-18 1420:2.6430828e-18 1421:2.6430828e-18 1422:0.019892011 1423:2.6430828e-18 1424:2.6430828e-18 1425:2.6430828e-18 1426:2.6430828e-18 1427:2.6430828e-18 1428:0.01452268 1429:0.03641741 1430:0.01452268 1431:0.01452268 1432:-1.1826676e-18 1433:2.6430828e-18 1434:2.6430828e-18 1435:-1.1826676e-18 1436:2.6430828e-18 1437:-1.1826676e-18 1438:2.6430828e-18 1439:2.6430828e-18 1440:0.015760168 1443:1.6620063e-18 1444:2.6430828e-18 1445:2.6430828e-18 1446:2.6430828e-18 1447:-0.016654547 1448:-0.0078227222 1449:-0.012941269 1450:-0.012941269 1452:-0.0088452389 1453:-1.1826676e-18 1454:-7.5126272e-18 1455:2.6430828e-18 1456:2.6430828e-18 1457:2.6430828e-18 1458:-1.1826676e-18 1459:2.6430828e-18 1460:-0.0053683897 1461:2.6430828e-18 1462:2.6430828e-18 1463:2.6430828e-18 1464:-7.5126272e-18 1465:-7.5126272e-18 1466:2.6430828e-18 1467:-0.017116662 1468:-0.019276215 1469:-0.019276215 1470:2.6430828e-18 1471:2.6430828e-18 1472:-0.017116662 1473:-0.00094160321 1474:-0.00094160321 1475:-0.0010098951 1476:-0.0010098951 1477:-0.012662185 1478:-0.013935333 1479:-1.1826676e-18 1480:2.6430828e-18 1481:2.6430828e-18 1482:0.0040468411 1483:-1.1826676e-18 1484:2.6430828e-18 1485:2.6430828e-18 1486:2.6430828e-18 1490:0.038792197 1491:-0.0049945242 1492:-0.0063563799 1493:-0.0020664427 1494:2.6430828e-18 1495:8.9115476e-19 1496:-0.0022750301 1497:-0.0022750301 1498:-0.0024400319 1499:-0.014951188 1500:-0.014951188 1502:2.6430828e-18 1503:-0.035492435 1504:-0.018358089 1505:2.6430828e-18 1506:-1.1826676e-18 1507:-1.1826676e-18 1508:0.010729286 1509:-0.014204504 1510:-0.021190273 1511:2.6430828e-18 1512:0.020041065 1513:0.0011556441 1514:0.0011556441 1515:-0.03057644 1516:-0.026983606 1517:-0.033107933 1518:-0.014060726 1519:0.0029444355 1520:0.0029444355 1521:0.0031579873 1522:0.0031579873 1523:2.6430828e-18 1524:2.6430828e-18 1526:-1.1826676e-18 1527:2.6430828e-18 1528:-0.0047533363 1529:-1.1826676e-18 1530:-0.019276215 1531:-0.0051088766 1532:-0.0047634002 1533:-0.0051088766 1534:-0.0078078858 1535:-0.0051088766 1536:-0.0051088766 1537:-0.0051088766 1538:-0.0047634002 1539:-0.0051088766 1540:-0.0051088766 1541:-0.0051088766 1542:0.0062627508 1543:-0.0051088766 1544:-0.0051088766 1545:3.0876318e-19 1546:3.0876318e-19 1547:3.0876318e-19 1548:0.0070478292 1549:-0.0010774962 1550:-0.0011556441 1551:-0.0011556441 1552:-0.0011556441 1553:-0.00094160321 1554:-0.0010098951 1555:-0.0010098951 1556:-0.0010098951 1557:-0.0010098951 1558:-0.0028983403 1559:-0.0028983403 1560:0.0043454827 1562:-0.0014501355 1563:-0.0014501355 1564:2.6430828e-18 1565:2.6430828e-18 1566:-0.004835974 1571:-0.013409653 1572:-0.014382218 1573:-0.014382218 1574:-0.00084472389 1575:2.6430828e-18 1576:2.6430828e-18 1577:2.6430828e-18 1578:2.6430828e-18 1579:2.6430828e-18 1580:2.6430828e-18 1581:2.6430828e-18 1582:2.6430828e-18 1583:-1.1826676e-18 1584:-0.0011214908 1585:-0.0082738241 1586:-0.024016328 1587:2.6430828e-18 1588:2.6430828e-18 1589:-0.019914735 1600:-1.1826676e-18 1601:-1.1826676e-18 1602:-0.0049732253 1603:-0.00533392 1604:-0.010451902 1605:2.6430828e-18 1606:-0.0057011689 1607:-0.0019336318 1608:-0.0057011689 1609:-0.0057011689 1610:-0.0019336318 1613:-1.1826676e-18 1617:-0.0045127431 1618:-1.1826676e-18 1619:-0.0068032406 1620:-0.0085821897 1621:-0.0085821897 1622:2.6430828e-18 1623:2.6430828e-18 1624:2.6430828e-18 1625:-0.0029563918 1626:2.6430828e-18 1627:2.6430828e-18 1628:-0.035492435 1629:2.6430828e-18 1630:0.022876794 1631:0.024535986 1632:-0.020581419 1633:2.6430828e-18 1634:2.6430828e-18 1635:-1.1826676e-18 1636:-0.0049825208 1637:-0.0049825208 1638:-0.0049825208 1639:-0.0046455888 1640:-0.0025223654 1641:-0.014833278 1642:0.003804577 1643:-0.005812204 1644:-0.0062337476 1645:2.6430828e-18 1646:2.6430828e-18 1647:2.6430828e-18 1648:1.6620063e-18 1649:1.6620063e-18 1650:2.6430828e-18 1651:2.6430828e-18 1652:-0.0014957679 1653:1.6620063e-18 1654:2.6430828e-18 1655:2.6430828e-18 1656:2.6430828e-18 1657:2.6430828e-18 1658:2.6430828e-18 1659:-1.1826676e-18 1660:-1.1826676e-18 1662:2.6430828e-18 1663:-1.1826676e-18 1664:-0.0013920428 1665:-0.0013920428 1666:-0.0013920428 1667:-0.0013920428 1669:-1.1826676e-18 1674:-1.1826676e-18 1676:-0.01114715 1679:-0.00082575635 1680:-0.00082575635 1681:-0.0027773897 1682:-0.0014487064 1685:-0.0017074683 1686:2.6430828e-18 1687:2.6430828e-18 1688:2.6430828e-18 1689:-1.385912e-18 1690:1.6620063e-18 1691:1.6620063e-18 1692:2.6430828e-18 1693:2.6430828e-18 1694:-1.1826676e-18 1695:2.6430828e-18 1696:2.6430828e-18 1697:2.6430828e-18 1698:2.6430828e-18 1701:-0.048063911 1702:2.6430828e-18 1705:2.6430828e-18 1706:2.6430828e-18 1707:-7.5126272e-18 1708:2.6430828e-18 1709:2.6430828e-18 1710:2.6430828e-18 1723:-0.0089868279 1724:-0.0089868279 1725:-0.0089868279 1726:-0.0042102248 1727:-0.0042102248 1728:-0.0042102248 1729:-0.0048512407 1733:-1.1826676e-18 1738:1.6620063e-18 1745:-0.0072966614 1746:-0.0072966614 1747:-0.0072966614 1748:-0.030240472 1749:-0.027454436 1750:-0.0036489691 1751:-0.013647737 1752:-0.013647737 1753:-0.013647737 1754:2.6430828e-18 1755:2.6430828e-18 1756:-1.1826676e-18 1757:2.6430828e-18 1758:2.6430828e-18 1759:2.6430828e-18 1760:2.6430828e-18 1761:2.6430828e-18 1762:2.6430828e-18 1763:-1.1826676e-18 1764:2.6430828e-18 1765:2.6430828e-18 1766:2.6430828e-18 1767:-0.002274218 1768:2.6430828e-18 1769:2.6430828e-18 1770:2.6430828e-18 1771:2.6430828e-18 1772:2.6430828e-18 1773:2.6430828e-18 1774:2.6430828e-18 1775:2.6430828e-18 1776:2.6430828e-18 1777:2.6430828e-18 1781:-2.165984e-18 1784:-1.1826676e-18 1791:-0.0045080287 1792:-0.0060449312 1793:-0.0045080287 1794:-0.0045080287 1795:-1.1826676e-18 1803:-0.040131692 1804:-0.040131692 1805:-0.0080936691 1806:-0.0080936691 1807:-0.012025066 1808:-0.012025066 1809:-0.012025066 1810:-0.012025066 1815:-1.1826676e-18 1817:-0.0018941446 1818:-0.0018941446 1820:1.6620063e-18 1828:-1.1826676e-18 1833:1.6620063e-18 1844:-0.00074707315 1851:-0.0057875984 1852:-0.0057875984 1853:-0.0057875984 1854:-3.3591339e-18 1863:-0.0093201566 1864:0.0026209806 1865:-0.00063284213 1866:-0.0094025945 1867:-0.00084472389 1868:-0.00084472389 1869:-0.010733372 1870:-0.00063284213 1871:-0.00074707315 1872:2.6430828e-18 1873:-7.5126272e-18 1874:2.6430828e-18 1875:2.6430828e-18 1876:2.6430828e-18 1877:-0.002449549 1881:2.6430828e-18 1882:2.6430828e-18 1883:2.6430828e-18 1884:1.6620063e-18 1885:1.6620063e-18 1886:-1.1231622e-17 1887:2.6430828e-18 1888:2.6430828e-18 1889:-1.1826676e-18 1890:-0.0029916682 1891:-0.0011556441 1892:2.6430828e-18 1893:2.6430828e-18 1894:2.6430828e-18 1895:2.6430828e-18 1896:-0.008183049 1897:-0.01821496 1898:-9.5770971e-18 1899:-0.0091376547 1900:-0.0091376547 1901:-0.0091376547 1907:2.6430828e-18 1908:2.6430828e-18 1909:2.6430828e-18 1910:2.6430828e-18 1911:2.6430828e-18 1912:2.6430828e-18 1913:-0.0022525054 1914:-1.1826676e-18 1915:2.6430828e-18 1916:2.6430828e-18 1917:2.6430828e-18 1918:2.6430828e-18 1919:-0.0024639412 1920:-0.0022973225 1921:-0.0024639412 1922:-0.0024639412 1923:-0.0024639412 1924:-7.5126272e-18 1925:2.6430828e-18 1926:2.6430828e-18 1927:2.6430828e-18 1928:-1.1826676e-18 1929:2.6430828e-18 1930:-0.00067445834 1931:2.6430828e-18 1932:2.6430828e-18 1933:2.6430828e-18 1934:4.4819308e-19 1935:-0.0012010451 1936:2.6430828e-18 1937:2.6430828e-18 1938:-0.016383085 1939:2.6430828e-18 1940:-1.1826676e-18 1941:2.6430828e-18 1942:2.6430828e-18 1943:2.6430828e-18 1944:2.6430828e-18 1945:-1.1826676e-18 1946:2.6430828e-18 1947:-0.0210074 1948:-0.00044703722 1949:2.6430828e-18 1950:2.6430828e-18 1951:2.6430828e-18 1956:-0.002847387 1957:2.6430828e-18 1958:2.6430828e-18 1959:-0.0021821791 1960:-0.0020698891 1961:-0.0023404467 1962:-0.0023404467 1963:-0.0023404467 1964:-0.0023404467 1965:-0.0023404467 1966:-0.0023404467 1967:2.6430828e-18 1968:2.6430828e-18 1969:2.6430828e-18 1970:2.6430828e-18 1971:2.6430828e-18 1972:0.0014271038 1973:2.6430828e-18 1974:-7.5126272e-18 1975:2.6430828e-18 1976:-0.017571308 1977:-0.016383085 1982:-1.1826676e-18 1991:2.6430828e-18 1992:2.6430828e-18 1993:2.6430828e-18 1994:-1.1826676e-18 1995:2.6430828e-18 1996:2.6430828e-18 1997:2.6430828e-18 1998:2.6430828e-18 1999:2.6430828e-18 2000:2.6430828e-18 2001:2.6430828e-18 2002:2.6430828e-18 2003:2.6430828e-18 2004:2.6430828e-18 2005:2.6430828e-18 2006:2.6430828e-18 2007:2.6430828e-18 2008:2.6430828e-18 2009:2.6430828e-18 2010:2.6430828e-18 2011:2.6430828e-18 2012:2.6430828e-18 2013:2.6430828e-18 2014:2.6430828e-18 2015:2.6430828e-18 2016:2.6430828e-18 2017:2.6430828e-18 2018:-0.019482171 2019:-0.0014176739 2020:-0.0014176739 2021:-0.0014176739 2022:-0.0014176739 2029:2.6430828e-18 2030:2.6430828e-18 2031:-1.1826676e-18 2032:-1.1826676e-18 2033:2.6430828e-18 2034:2.6430828e-18 2035:-1.1826676e-18 2036:2.6430828e-18 2037:-7.5126272e-18 2038:2.6430828e-18 2039:2.6430828e-18 2040:2.6430828e-18 2041:-1.1826676e-18 2042:2.6430828e-18 2043:-1.1826676e-18 2044:-0.017877782 2045:-7.5126272e-18 2046:2.6430828e-18 2047:-1.1826676e-18 2048:2.6430828e-18 2049:-1.1826676e-18 2050:2.6430828e-18 2051:2.6430828e-18 2052:2.6430828e-18 2053:2.6430828e-18 2063:2.6430828e-18 2064:-1.1826676e-18 2065:-7.5126272e-18 2066:-1.1826676e-18 2067:-1.1826676e-18 2068:2.6430828e-18 2069:2.6430828e-18 2070:0.0091219228 2071:0.0091219228 2088:2.6430828e-18 2089:-1.1826676e-18 2090:-0.0033512877 2091:2.6430828e-18 2092:2.6430828e-18 2093:2.6430828e-18 2094:2.6430828e-18 2095:2.6430828e-18 2096:2.6430828e-18 2097:2.6430828e-18 2098:2.6430828e-18 2099:-0.0033512877 2100:-0.00054731895 2101:-0.00054731895 2102:-0.00054731895 2103:-0.00054731895 2104:-0.00054731895 2105:-0.00051030773 2106:-0.00054731895 2107:-0.00054731895 2108:-0.00054731895 2109:2.6430828e-18 2110:2.6430828e-18 2111:2.6430828e-18 2112:2.6430828e-18 2113:-1.1826676e-18 2114:2.6430828e-18 2115:2.6430828e-18 2116:2.6430828e-18 2117:2.6430828e-18 2118:2.6430828e-18 2119:2.6430828e-18 2120:2.6430828e-18 2121:2.6430828e-18 2122:-1.1826676e-18 2123:-0.0058909412 2124:2.6430828e-18 2125:2.6430828e-18 2126:2.6430828e-18 2127:2.6430828e-18 2128:2.6430828e-18 2129:2.6430828e-18 2130:2.6430828e-18 2131:2.6430828e-18 2132:2.6430828e-18 2133:2.6430828e-18 2134:2.6430828e-18 2135:2.6430828e-18 2136:2.6430828e-18 2139:1.6620063e-18 2146:-1.1826676e-18 2149:1.6620063e-18 2153:2.6430828e-18 2154:2.6430828e-18 2155:2.6430828e-18 2156:2.6430828e-18 2157:2.6430828e-18 2158:2.6430828e-18 2159:2.6430828e-18 2160:2.6430828e-18 2161:2.6430828e-18 2162:2.6430828e-18 2163:2.6430828e-18 2164:2.6430828e-18 2165:2.6430828e-18 2166:2.6430828e-18 2167:2.6430828e-18 2168:2.6430828e-18 2176:1.6620063e-18 2179:1.6620063e-18 2181:-0.00537465 2182:2.6430828e-18 2183:2.6430828e-18 2184:2.6430828e-18 2185:2.6430828e-18 2186:2.6430828e-18 2192:-0.00066248927 2193:-1.1826676e-18 2194:2.6430828e-18 2196:2.6430828e-18 2197:2.6430828e-18 2198:-0.0057577444 2199:-0.0053683897 2200:-0.0057577444 2201:-0.0081190653 2202:-0.0056325919 2203:2.6430828e-18 2204:2.6430828e-18 2205:-1.1826676e-18 2206:-0.0071801841 2207:-7.5126272e-18 2208:2.6430828e-18 2209:2.6430828e-18 2210:2.6430828e-18 2211:2.6430828e-18 2212:-0.002274218 2213:2.6430828e-18 2214:2.6430828e-18 2215:2.6430828e-18 2216:2.6430828e-18 2217:-0.0015660074 2218:-0.0015660074 2219:2.6430828e-18 2220:2.6430828e-18 2221:-0.0041789217 2222:-0.0036958349 2223:2.6430828e-18 2224:2.6430828e-18 2230:2.6430828e-18 2231:2.6430828e-18 2232:2.6430828e-18 2233:2.6430828e-18 2234:2.6430828e-18 2235:2.6430828e-18 2236:2.6430828e-18 2237:2.6430828e-18 2238:2.6430828e-18 2239:2.6430828e-18 2240:2.6430828e-18 2241:2.6430828e-18 2242:2.6430828e-18 2243:2.6430828e-18 2244:2.6430828e-18 2245:2.6430828e-18 2247:0.010314261 2248:0.010314261 2249:0.009616781 2250:0.010314261 2251:0.010314261 2252:-0.00053561246 2253:0.010314261 2254:0.010314261 2255:0.009616781 2256:0.010314261 2257:0.010314261 2258:0.010314261 2259:0.010314261 2260:0.0060836887 2261:0.0060836887 2262:0.010314261 2263:0.010314261 2264:0.010314261 2265:0.010314261 2266:2.6430828e-18 2267:2.6430828e-18 2268:2.6430828e-18 2269:2.6430828e-18 2270:2.6430828e-18 2271:-1.1826676e-18 2272:2.6430828e-18 2273:2.6430828e-18 2274:2.6430828e-18 2275:-1.1826676e-18 2276:2.6430828e-18 2277:2.6430828e-18 2278:-1.1826676e-18 2279:2.6430828e-18 2280:-1.1826676e-18 2281:2.6430828e-18 2287:-1.1826676e-18 2292:2.6430828e-18 2293:-1.1826676e-18 2295:-0.028249253 2296:2.6430828e-18 2297:2.6430828e-18 2298:-0.0015660074 2299:-0.0015660074 2300:2.6430828e-18 2301:2.6430828e-18 2303:2.6430828e-18 2304:2.6430828e-18 2305:2.6430828e-18 2306:2.6430828e-18 2307:0.010018789 2314:2.6430828e-18 2315:2.6430828e-18 2316:2.6430828e-18 2317:2.6430828e-18 2318:2.6430828e-18 2319:2.6430828e-18 2320:2.6430828e-18 2321:2.6430828e-18 2322:2.6430828e-18 2323:2.6430828e-18 2324:2.6430828e-18 2325:2.6430828e-18 2326:-0.0040852507 2332:-0.020233953 2333:2.6430828e-18 2334:2.6430828e-18 2335:2.6430828e-18 2338:2.6430828e-18 2339:2.6430828e-18 2340:2.6430828e-18 2341:-1.1826676e-18 2342:2.6430828e-18 2343:2.6430828e-18 2350:2.6430828e-18 2354:-0.011583797 2355:2.6430828e-18 2356:2.6430828e-18 2357:2.6430828e-18 2358:2.6430828e-18 2359:2.6430828e-18 2367:-0.0075860894 2383:2.6430828e-18 2384:-0.0014501355 2401:2.6430828e-18 2402:0.030001333 2403:0.030001333 2404:2.6430828e-18 2405:-0.0011556441 2406:-0.0011556441 2407:-0.0011556441 2408:-0.0011556441 2409:-0.0011556441 2410:-0.005427768 2425:-0.010538406 2426:-0.010538406 2427:-0.010538406 2428:-0.010538406 2429:-0.010538406 2430:-0.0013863129 2431:-0.0013863129 2432:-0.0013863129 2433:2.6430828e-18 2434:2.6430828e-18 2435:2.6430828e-18 2436:2.6430828e-18 2437:-0.00071058603 2438:-0.00071058603 2439:-0.00071058603 2440:-0.00071058603 2441:-0.00071058603 2442:-0.00071058603 2443:-0.00071058603 2444:-1.1826676e-18 2445:2.6430828e-18 2446:2.6430828e-18 2447:-0.0046552182 2448:-0.0046552182 2449:-0.0046552182 2450:-0.0046552182 2453:2.6430828e-18 2461:2.6430828e-18 2462:2.6430828e-18 2463:2.6430828e-18 2464:2.6430828e-18 2465:2.6430828e-18 2466:2.6430828e-18 2467:2.6430828e-18 2469:2.6430828e-18 2470:-1.1826676e-18 2472:-0.0039360318 2473:-0.016276363 2474:2.6430828e-18 2475:2.6430828e-18 2476:2.6430828e-18 2477:2.6430828e-18 2478:-0.017337611 2482:0.011825847 2483:0.025214447 2484:0.011825847 2485:0.011825847 2486:0.011825847 2487:2.6430828e-18 2488:2.6430828e-18 2489:2.6430828e-18 2490:-1.1826676e-18 2491:2.6430828e-18 2492:2.6430828e-18 2493:2.6430828e-18 2494:2.6430828e-18 2495:2.6430828e-18 2496:2.6430828e-18 2497:-0.0060680648 2498:-0.006861229 2508:-0.002274218 2509:2.6430828e-18 2510:2.6430828e-18 2511:2.6430828e-18 2512:2.6430828e-18 2513:2.6430828e-18 2515:-0.0062661022 2516:-0.0024391608 2517:-0.0024391608 2518:-0.0024391608 2519:-0.0024391608 2520:-0.0024391608 2521:-0.0024391608 2522:-0.0024391608 2523:-0.0024391608 2524:-0.0024391608 2525:-0.0024391608 2526:2.6430828e-18 2527:2.6430828e-18 2528:2.6430828e-18 2529:2.6430828e-18 2530:2.6430828e-18 2531:2.6430828e-18 2532:2.6430828e-18 2533:2.6430828e-18 2534:2.6430828e-18 2535:2.6430828e-18 2536:2.6430828e-18 2537:2.6430828e-18 2538:2.6430828e-18 2539:2.6430828e-18 2540:2.6430828e-18 2541:2.6430828e-18 2542:2.6430828e-18 2543:2.6430828e-18 2549:3.0876318e-19 2550:3.0876318e-19 2551:3.0876318e-19 2552:3.0876318e-19 2553:3.0876318e-19 2554:3.0876318e-19 2555:3.0876318e-19 2556:3.0876318e-19 2557:0.0075589893 2558:0.0075589893 2559:-0.0026024277 2560:-0.0026024277 2561:-0.0026024277 2562:-0.0026024277 2563:-0.0043213842 2564:-0.0043213842 2565:-0.0043213842 2566:0.001629086 2567:0.0039127786 2568:0.0039127786 2569:0.0039127786 2570:2.6430828e-18 2571:2.6430828e-18 2572:2.6430828e-18 2573:2.6430828e-18 2574:2.6430828e-18 2575:2.6430828e-18 2576:2.6430828e-18 2577:2.6430828e-18 2578:2.6430828e-18 2579:2.6430828e-18 2580:2.6430828e-18 2581:2.6430828e-18 2582:2.6430828e-18 2584:2.6430828e-18 2585:2.6430828e-18 2586:2.6430828e-18 2587:2.6430828e-18 2588:2.6430828e-18 2589:2.6430828e-18 2590:2.6430828e-18 2591:2.6430828e-18 2608:-0.0030264112 2609:-0.0030264112 2610:-0.0037893383 2611:-0.0037893383 2612:2.6430828e-18 2613:2.6430828e-18 2616:-0.0020190994 2622:-0.0087765437 2623:-0.0087765437 2624:-0.01066536 2625:-0.01066536 2626:-0.0014176739 2627:2.6430828e-18 2628:2.6430828e-18 2629:0.022882586 2630:0.044165533 2631:0.017897675 2632:-0.0037893383 2633:-0.018291937 2634:-0.025790766 2635:-0.024969786 2636:-0.024969786 2637:-0.024969786 2650:2.6430828e-18 2653:2.6430828e-18 2654:2.6430828e-18 2655:2.6430828e-18 2656:2.6430828e-18 2657:2.6430828e-18 2658:2.6430828e-18 2659:2.6430828e-18 2660:2.6430828e-18 2661:2.6430828e-18 2662:2.6430828e-18 2663:2.6430828e-18 2664:2.6430828e-18 2665:2.6430828e-18 2666:2.6430828e-18 2670:-0.0032086459 2671:-0.0019359686 2672:-0.0019359686 2673:-0.0019359686 2674:8.9115476e-19 2675:-0.0020763793 2676:-0.0066572749 2677:-0.00155531 2678:-0.00155531 2679:2.6430828e-18 2680:-0.0050637298 2681:4.4819308e-19 2682:4.4819308e-19 2683:4.4819308e-19 2684:4.4819308e-19 2685:-0.019637648 2686:-0.0041214 2687:-0.0077009434 2688:2.6430828e-18 2689:2.6430828e-18 2690:2.6430828e-18 2691:2.6430828e-18 2695:-0.0097923437 2696:0.015217334 2697:0.015217334 2698:0.015217334 2702:2.6430828e-18 2703:2.6430828e-18 2704:2.6430828e-18 2705:2.6430828e-18 2706:2.6430828e-18 2707:2.6430828e-18 2708:2.6430828e-18 2724:-1.1826676e-18 2728:-1.1826676e-18 2730:-0.0014176739 2731:-0.0014176739 2732:-0.0014176739 2733:-0.0014176739 2734:-0.0014176739 2735:-0.0014176739 2736:-0.0014176739 2737:-0.0014176739 2738:-0.0014176739 2739:-0.0014176739 2747:-0.0019336318 2748:-0.0019336318 2749:-0.0019336318 2750:2.6430828e-18 2752:-0.0010064985 2753:-0.0010064985 2754:2.6430828e-18 2755:2.6430828e-18 2756:2.6430828e-18 2757:2.6430828e-18 2758:2.6430828e-18 2759:2.6430828e-18 2760:2.6430828e-18 2761:2.6430828e-18 2762:2.6430828e-18 2763:2.6430828e-18 2764:2.6430828e-18 2765:2.6430828e-18 2766:2.6430828e-18 2767:2.6430828e-18 2768:2.6430828e-18 2769:2.6430828e-18 2770:2.6430828e-18 2771:2.6430828e-18 2772:2.6430828e-18 2773:2.6430828e-18 2778:2.6430828e-18 2779:2.6430828e-18 2780:2.6430828e-18 2781:2.6430828e-18 2782:2.6430828e-18 2783:2.6430828e-18 2784:2.6430828e-18 #
