SVM-light Version V6.20
0 # kernel type
3 # kernel parameter -d 
1 # kernel parameter -g 
1 # kernel parameter -s 
1 # kernel parameter -r 
empty# kernel parameter -u 
2091 # highest feature index 
35 # number of training documents 
2 # number of support vectors plus 1 
0 # threshold b, each following line is a SV (starting with alpha*y)
1 1:-0.037820872 3:0.0010735248 4:-0.017039569 6:-0.0095041702 9:0.0034616294 25:-0.019764822 36:-0.0095635047 41:0.039734174 46:0.050618637 53:-0.026063668 54:-0.010260724 56:-0.01403313 57:-0.0079500368 77:-0.0068704886 78:-0.015319001 79:-0.01607109 81:-0.00064652157 82:-0.016572636 83:-0.021276722 87:-0.0007057038 88:-0.003684852 90:-0.0047646896 94:0.0082158828 95:-0.0037633486 99:0.012697537 100:-0.032569274 101:-0.028777061 102:-0.013603236 103:-0.014851353 104:-0.017719934 105:-0.014851353 106:-0.019099126 107:-0.016584793 108:-0.026672093 109:-0.016693454 110:-0.023398599 111:-0.032958679 112:-0.038567565 113:0.1000476 114:0.13899048 115:0.10901111 116:-0.0039053974 118:-0.013778239 122:-0.013778239 123:-0.016734805 125:-0.0028544529 129:-0.057161227 130:-0.012111664 131:-0.030037554 132:-0.015522631 133:-0.015142164 134:-0.015522631 135:-0.015515051 136:-0.0032502708 137:-0.0045792093 138:-0.019491082 139:-0.013358723 144:-0.015671406 147:-0.031879432 148:-0.022102648 160:-0.0039500734 173:-0.056226302 174:-0.056226302 184:0.0001540174 185:0.0095909294 186:0.01483511 190:-0.0079687769 199:-0.0067023672 204:-0.0032897599 206:-0.0044723754 210:-0.016531337 271:-0.004563808 272:-0.005869234 273:-0.0048157708 281:0.0045989747 288:-0.013358723 297:-0.0042561693 303:-0.0070403162 320:-0.0052483021 322:-0.0055914233 341:-0.0010949218 379:-0.010958431 390:0.01944647 404:-0.021147331 417:-0.010545667 421:-0.01217019 467:-0.011886862 542:-0.030199515 543:-0.030199515 576:-0.0045254477 596:0.033033878 663:-0.0040041967 718:-0.026054533 719:0.004385394 720:-0.026156427 721:0.0052622049 725:-0.017814621 753:-0.0062064999 761:-0.0010067254 798:-0.0055914233 844:-0.033805978 900:-0.026251364 910:-0.0013350839 994:-0.016531337 1044:-0.0044978177 1045:0.027844261 1061:-0.014908923 1062:-0.0049822261 1102:0.0052622049 1164:-0.012198465 1165:-0.011592008 1166:-0.038392477 1189:-0.0055117211 1191:-0.0058000768 1216:-0.0073852628 1223:-0.014059899 1240:-0.01520442 1307:-0.01710373 1369:0.033033878 1375:-0.00729228 1516:-0.0015167452 1615:-0.0056752586 1620:0.0098165348 1629:-0.015421093 1630:-0.015421093 1631:-0.015421093 1632:-0.015421093 1633:-0.015421093 1634:-0.015421093 1635:-0.015421093 1637:-0.02019674 1638:-0.0079982737 1639:-0.01379835 1642:-0.02019674 1643:-0.02019674 1644:-0.0085587287 1645:-0.0085587287 1646:-0.0085587287 1647:-0.0085587287 1663:0.035348628 1664:0.035348628 1741:-0.0073852628 1742:-0.0073852628 1743:-0.0073852628 1744:-0.0073852628 1745:-0.0073852628 1746:-0.0073852628 1747:-0.0073852628 1748:-0.0073852628 1749:-0.0073852628 1750:-0.0073852628 1751:-0.0073852628 1759:0.026834015 1760:-0.020908484 1762:0.0052622049 1763:0.0055375062 1764:0.0055375062 1765:0.026834015 1767:0.026834015 1769:-0.020908484 1770:-0.020908484 1797:-0.025878295 1798:-0.025878295 1799:-0.032315657 1800:-0.032315657 1801:-0.022547483 1845:-0.001441339 1870:-0.0062064999 1871:-0.0062064999 1872:-0.0062064999 1873:-0.0062064999 1874:-0.0062064999 1875:-0.0062064999 1876:-0.0062064999 1877:-0.0062064999 1878:-0.0062064999 1882:-0.017847015 1897:-0.020908484 1898:-0.020908484 1899:0.026834015 1900:0.026834015 2016:-0.0012596777 2029:-0.001441339 2032:-0.001441339 2033:-0.001441339 2034:-0.0016230267 2035:-0.0016230267 2036:-0.0016230267 2037:-0.0016230267 2038:-0.037697345 2039:-0.0016230267 2040:-0.0016230267 2041:-0.0016230267 2048:-0.05314843 2055:-0.038715851 2081:-0.014908923 2082:-0.016788263 2083:-0.016788263 2084:-0.014908923 2085:-0.016788263 2086:-0.016788263 2087:-0.016788263 2088:-0.016788263 2089:-0.020096716 2090:-0.020096716 #
