SVM-light Version V6.20
0 # kernel type
3 # kernel parameter -d 
1 # kernel parameter -g 
1 # kernel parameter -s 
1 # kernel parameter -r 
empty# kernel parameter -u 
472 # highest feature index 
72 # number of training documents 
2 # number of support vectors plus 1 
0 # threshold b, each following line is a SV (starting with alpha*y)
1 1:-0.60564518 3:-0.05895808 4:-0.035802182 5:-0.038954902 6:-0.0070651732 7:-0.035539135 8:-0.030010309 9:-0.013923121 10:-0.013490275 11:-0.0016651351 12:2.3331926e-17 13:-0.0022491326 14:-0.095208332 15:-0.024904285 16:-0.013991817 17:0.0085031297 18:-0.012023369 19:-0.013991817 20:-0.013991817 21:-0.013991817 22:-0.0045433845 23:-0.0058472077 24:-0.023555448 25:-0.0058472077 26:-0.0045433845 27:-0.0058472077 28:-0.0058472077 29:-0.011348052 30:-0.0058472077 31:-0.0058472077 32:-0.013668926 33:-0.047200426 34:-0.0074188765 35:-0.0074188765 36:-0.0074188765 37:-0.0074188765 38:-0.0074188765 39:-0.0074188765 40:-0.0074188765 41:-0.014154236 42:-0.01318541 43:-0.0081891753 44:-0.014154236 45:-0.0081891753 46:-0.01318541 47:-0.0081891753 48:-0.16619888 49:-0.0050166938 50:-0.010125712 51:2.2488703e-17 52:-0.17748369 53:-0.020026015 54:-0.011783478 55:-0.011783478 56:-0.011783478 57:-0.026783643 58:0.023837404 59:0.021254675 60:-0.026783643 61:0.042327959 62:0.021254675 63:-0.033630617 64:-0.18857414 65:-0.025065085 66:-0.010733194 67:-0.0056167073 68:-0.0056167073 69:-0.010401428 70:-0.011503077 71:-0.0056167073 72:-0.0056167073 73:-0.0045521534 74:-0.012694669 75:2.3331926e-17 76:-0.0064209518 77:-0.0079003749 78:2.3331926e-17 79:2.3331926e-17 80:-0.021102449 81:-0.0031397999 82:-0.0031397999 83:2.3331926e-17 84:2.3331926e-17 85:2.3331926e-17 86:2.3331926e-17 87:2.3331926e-17 88:2.3331926e-17 89:-0.080001101 90:-0.0030046534 91:-0.0033228861 92:-0.0038669039 93:-0.0033228861 94:-0.0033228861 95:-0.0038669039 96:-0.0038669039 97:-0.0091276281 98:-0.0082823699 99:-0.0082823699 100:-0.0082823699 101:-0.0082823699 102:-0.023414019 103:-0.0087014465 104:-0.011198516 105:-0.021030467 106:-0.014989759 107:-0.014989759 108:-0.014989759 109:6.8704584e-18 110:6.8704584e-18 111:-0.0079358863 112:-0.015898518 113:-0.0056255376 114:-0.0056255376 115:-0.0056255376 116:-0.0056255376 117:-0.030517243 118:-0.014451516 119:-0.014451516 120:-0.012167271 121:-0.017280191 122:-0.015625268 123:-0.014451516 124:-0.080001101 125:-0.11704791 126:-0.033327349 127:-9.4949449e-18 128:2.3331926e-17 129:2.3331926e-17 130:-0.0078781489 131:-3.0207056e-18 132:-0.030803213 133:-0.030803213 134:-0.012265949 135:-0.0036538432 136:-0.0036538432 137:-0.010946635 138:-0.0085446797 139:-0.0085446797 140:-0.010946635 141:-0.0085446797 142:-0.012459608 143:-0.011161756 144:-0.010784492 145:-0.010784492 146:-0.010784492 147:-0.010784492 148:-0.010784492 149:-0.11922058 150:2.3331926e-17 151:-0.0084009366 152:2.3331926e-17 153:-0.001835169 154:2.3331926e-17 155:2.3331926e-17 156:2.989962e-18 157:2.3331926e-17 158:2.3331926e-17 159:2.3331926e-17 160:-0.016242811 161:-0.013957681 162:-0.016242811 163:-0.038120817 164:-0.11509218 165:8.8030099e-18 166:-2.1979852e-17 167:8.8030099e-18 168:8.8030099e-18 169:-0.0031017808 170:-0.0028968586 171:2.3331926e-17 172:-0.014355378 173:-0.012425563 174:-0.012425563 175:-0.012425563 176:2.3331926e-17 177:-0.0061611375 178:2.3331926e-17 179:2.3331926e-17 180:2.3331926e-17 181:2.3331926e-17 182:-0.0021943769 183:-0.0021943769 184:-0.0053543607 185:-0.011051373 186:-0.013735757 187:-0.0053543607 188:-0.0053543607 189:-0.0081624286 190:-0.011051373 191:-0.0053543607 192:0.028638581 193:-0.01097823 194:-0.01097823 195:-0.01097823 196:2.1762768e-17 197:2.1762768e-17 198:2.1762768e-17 199:2.1762768e-17 200:2.1762768e-17 201:2.1762768e-17 202:2.1762768e-17 203:2.1762768e-17 204:2.1762768e-17 205:2.1762768e-17 206:2.1762768e-17 207:-0.080001101 208:-0.01836279 209:-0.01836279 210:-0.01836279 211:-0.01836279 212:-0.021941448 213:-0.0056877593 214:-0.0019377485 215:-0.022309981 216:-0.0093518626 217:-0.0093518626 218:-0.010243741 219:-0.010138955 220:-0.010138955 221:-0.010589479 222:-0.0081202593 223:1.6432671e-18 224:1.6432671e-18 225:2.3331926e-17 226:2.3331926e-17 227:2.3331926e-17 228:1.6432671e-18 229:-0.0036241324 230:-0.0046250336 231:-0.0023396194 232:-0.021441549 233:-0.021283794 234:-0.010108938 235:2.1764753e-17 236:-0.022315076 237:-0.010108938 238:-0.010108938 239:-0.0097924666 240:-0.0097924666 241:-0.0024833465 242:-0.0028899163 243:-0.0024833465 244:-0.0028899163 245:-0.0028899163 246:-0.0028899163 247:-0.0028899163 248:-0.0028899163 249:-0.0028899163 250:-0.08783824 251:-0.03287122 252:-0.03287122 253:-0.0039049555 254:-0.0023396194 255:-0.0039049555 256:-0.0023396194 257:-0.0023396194 258:-0.0023396194 259:-0.0023396194 260:-0.0023396194 261:2.3331926e-17 262:2.3331926e-17 263:1.4438706e-17 264:2.3331926e-17 265:2.3331926e-17 266:2.3331926e-17 267:2.3331926e-17 268:2.3331926e-17 269:2.3331926e-17 270:2.3331926e-17 271:2.989962e-18 272:2.3331926e-17 273:-0.0086376434 274:-0.00086795515 275:-0.0011170338 276:-0.0011170338 277:-0.0011170338 278:-0.0011170338 279:-0.0011170338 280:-0.0011170338 281:-0.0011170338 282:2.989962e-18 283:-0.016954916 284:-0.016954916 285:-3.9469556e-11 286:-3.9469556e-11 287:-6.1337123e-11 288:-6.1337123e-11 289:2.3331926e-17 290:2.3331926e-17 291:2.3331926e-17 292:2.3331926e-17 293:2.3331926e-17 294:2.3331926e-17 295:-0.064523324 296:-0.035381373 297:-0.035381373 298:-0.033621952 299:2.3331926e-17 300:2.3331926e-17 301:-0.0096943229 302:-0.0018769281 303:2.3331926e-17 304:2.3331926e-17 305:2.3331926e-17 306:-0.0053452901 307:-0.0053452901 308:-0.0053452901 309:-0.0053452901 310:-0.0053452901 311:-0.0053452901 312:-0.0053452901 313:-0.0053452901 314:-0.0053452901 315:-0.0053452901 316:-0.0053452901 317:-0.0022046494 318:-0.0022046494 319:-0.0022046494 320:-0.0022046494 321:-0.0045838547 322:-0.0022046494 323:-0.0022046494 324:-0.0022046494 325:-0.0022046494 326:-0.0022046494 327:-0.0022046494 328:-0.0022046494 329:-0.0022046494 330:-0.0022046494 331:-0.0022046494 332:-0.0030426178 333:-0.012496554 334:-0.012496554 335:-0.0041444078 336:-0.0041444078 337:-0.0097096832 338:-0.0041444078 339:-0.0041444078 340:-0.0041444078 341:2.1764753e-17 342:2.1764753e-17 343:2.1764753e-17 344:2.1764753e-17 345:2.1764753e-17 346:2.1764753e-17 347:2.3331926e-17 348:2.3331926e-17 349:-0.014954757 350:2.3331926e-17 351:2.3331926e-17 352:2.3331926e-17 353:2.3331926e-17 354:2.3331926e-17 355:2.3331926e-17 356:2.3331926e-17 357:-0.010088371 358:-0.0071549299 359:-0.0071549299 360:-0.0071549299 361:-0.01283052 362:-0.01283052 363:-0.01283052 364:-0.01283052 365:-0.01283052 366:-0.01283052 367:-0.0021842159 368:-0.0021842159 369:-0.0021842159 370:-0.0021842159 371:-0.0021842159 372:-0.010225841 373:-0.010225841 374:-0.0047705364 375:-0.0047705364 376:-0.011740024 377:-0.011740024 378:-0.011740024 379:2.3331926e-17 380:-0.080001101 381:2.3331926e-17 382:2.3331926e-17 383:2.3331926e-17 384:2.3331926e-17 385:2.3331926e-17 386:-0.0075063254 387:-0.0075063254 388:-0.0075063254 389:-0.0075063254 390:-0.0075063254 391:2.1764753e-17 392:2.1764753e-17 393:2.1764753e-17 394:-0.0089347512 395:-0.0089347512 396:-0.0089347512 397:-0.0089347512 398:-0.0036095998 399:2.2739911e-17 400:2.2739911e-17 401:2.2739911e-17 402:2.2739911e-17 403:-0.0022046494 404:-0.0022046494 405:-0.0022046494 406:-0.0022046494 407:-0.0022046494 408:-0.0022046494 409:-0.0022046494 410:-0.0022046494 411:-0.0022046494 412:-0.0022046494 413:-0.0022046494 414:-0.0022046494 415:-0.0022046494 416:-0.0022046494 417:-0.0022046494 418:-0.0022046494 419:-0.0077696363 420:-0.0033711279 421:-0.0033711279 422:-0.0033711279 423:-0.0033711279 424:-0.0033711279 425:-0.0033711279 426:-0.0033711279 427:-0.0033711279 428:-0.0033711279 429:-0.0033711279 430:-0.0033711279 431:2.3331926e-17 432:2.3331926e-17 433:2.3331926e-17 434:-0.0031296671 435:-0.0031296671 436:-0.0031296671 437:-0.0031296671 438:-0.0031296671 439:-0.0031296671 440:-0.0031296671 441:-0.0031296671 442:-0.0031296671 443:-0.0031296671 444:-0.0031296671 445:-0.0025536369 446:-0.0025536369 447:-0.0025536369 448:-0.0025536369 449:-0.0025536369 450:-0.039126486 451:-0.010292104 452:-0.010292104 453:-0.010292104 454:2.3331926e-17 455:2.1328491e-17 456:-0.0091938125 457:-0.0091938125 458:0.081258528 459:0.081258528 460:0.081258528 461:0.081258528 462:-0.00062812079 463:-0.00062812079 464:-0.00062812079 465:-0.010830591 466:-0.010830591 467:-0.080001101 468:8.8030099e-18 469:8.8030099e-18 470:8.8030099e-18 471:-0.027120721 #
