SVM-light Version V6.20
0 # kernel type
3 # kernel parameter -d 
1 # kernel parameter -g 
1 # kernel parameter -s 
1 # kernel parameter -r 
empty# kernel parameter -u 
2466 # highest feature index 
11 # number of training documents 
2 # number of support vectors plus 1 
0 # threshold b, each following line is a SV (starting with alpha*y)
1 1:0.037759136 3:0.0098498678 4:0.0094264774 5:0.0056715007 6:0.013092767 7:0.015945839 10:0.010357663 18:0.011365554 48:0.0074618007 53:0.012080137 56:0.018900311 77:0.013117239 78:0.0092737582 81:0.0058902297 82:0.013602313 83:0.013322865 85:0.0083650798 101:0.0056291725 102:0.0063937567 104:0.0063937567 112:0.010320722 137:0.0083619216 216:0.0091043999 219:0.049855512 221:0.018237974 224:0.010798271 234:0.018096693 235:0.018729882 254:0.025270207 277:0.010071201 289:0.010426534 293:0.0098167164 294:0.0089814616 298:0.02199704 299:0.009150533 301:0.0084027629 316:0.01235043 320:0.013176625 354:0.00204362 367:0.027598241 374:0.00085520645 381:0.00086463505 449:0.0013716721 493:0.026302615 543:0.010520211 547:0.012786843 548:0.01020012 567:0.0098402351 582:0.012633915 669:0.0016053505 829:0.018435806 880:0.0110492 967:0.053760149 1084:0.013284637 1134:0.10955805 1293:0.028019866 1411:0.010436288 1702:0.017861253 1775:-1.7096635e-18 1852:0.013079956 2058:0.031863432 2059:0.017362364 2060:0.013083908 2061:0.025429823 2068:0.013924926 2069:0.013924926 2070:0.013924926 2071:0.013924926 2072:0.018421747 2279:0.019009352 2280:0.019009352 2281:0.019009352 2282:0.019009352 2283:0.010627709 2284:0.0095303105 2285:0.010627709 2286:0.010627709 2390:0.027064422 2391:0.027064422 2420:2.5986887e-19 2465:0.050887182 #
