SVM-light Version V6.20
0 # kernel type
3 # kernel parameter -d 
1 # kernel parameter -g 
1 # kernel parameter -s 
1 # kernel parameter -r 
empty# kernel parameter -u 
596 # highest feature index 
40 # number of training documents 
2 # number of support vectors plus 1 
0 # threshold b, each following line is a SV (starting with alpha*y)
1 1:-0.31711918 3:-0.038729366 4:-0.039334852 5:-0.033090789 6:-0.018772166 7:-0.009337944 8:-0.041349329 9:-0.035861626 10:-0.0028375587 11:-0.0028375587 12:-0.0028375587 13:-0.0017465639 14:-0.009337944 15:-0.071697071 16:-0.0048910864 17:-0.038116664 18:-0.036603246 19:-0.045498382 20:-0.0090418868 21:-0.06714315 22:-0.0048910864 23:-0.0048910864 24:-0.036378354 25:-0.0048910864 26:-0.0048910864 27:-0.0048910864 28:-0.06714315 29:-0.029973641 30:-0.022569109 31:-0.027428733 32:-0.022569109 33:-0.024586298 34:-0.022569109 35:-0.045409963 36:-0.065703385 37:-0.042004399 38:-0.042004399 39:-0.048981491 40:-0.017035086 41:-0.032918107 42:-0.017921528 43:-0.026701251 44:-0.038398676 45:-0.0017836357 46:-0.012939722 47:-0.058271226 48:-0.0087404698 49:-0.0089185294 50:-0.015260182 51:-0.012794982 52:-0.037491702 53:-0.018390696 54:-0.017921528 55:-0.017921528 57:-0.03107447 65:-3.1546936e-18 66:-0.0087404698 67:-0.0035344779 71:-0.035988562 73:-0.018390696 74:-0.0093156798 75:-0.028836373 76:-0.012867867 77:-0.0055269622 78:-0.0072796005 79:-0.0055269622 80:-0.038717881 81:-0.0055269622 82:-0.0055269622 83:-0.0055269622 84:-0.0055269622 85:-0.014017975 86:-0.0055269622 87:-0.0055269622 88:-0.0055269622 89:-0.0055269622 90:-0.019695554 91:-0.020403003 92:-0.017368935 93:-0.020331111 94:-0.020331111 95:-0.020331111 96:-0.020331111 97:-2.1010221e-10 98:-1.8832935e-10 99:-0.036592152 100:-0.019353429 101:-0.025663873 102:-0.011040374 103:-0.0098047769 105:-0.053616945 106:-0.0088597862 111:-0.0049140495 112:-0.0075520277 113:-0.0075520277 120:-0.0087427404 121:-0.034386136 123:-0.014259676 124:-0.014096675 125:-0.025227334 126:-0.014096675 127:-0.013760637 128:-0.014096675 129:-0.014096675 130:-0.014096675 131:-0.014096675 132:-0.025227334 133:-0.022169111 134:-0.024987375 135:-0.02382086 136:-0.02787618 137:-0.067343645 138:-0.04030301 141:-0.040518802 153:-0.016526116 154:-0.040518802 155:-0.022336783 156:-0.01509748 157:-0.013713568 158:-0.01865297 159:-0.095603146 160:-0.0070610419 161:-0.029514836 162:-0.0070610419 163:-0.0070610419 164:-0.0070610419 165:-0.0070610419 166:-0.029514836 167:-0.016344992 168:-0.012580343 169:-0.012580343 170:-0.012580343 171:-0.022017062 172:-0.026607089 173:0.047461543 174:-0.021266138 175:-0.0090439944 176:-0.0067592124 177:-0.040953949 178:-0.017837387 179:-0.0067592124 180:-0.0067592124 181:-0.0067592124 182:-0.0083119934 183:-0.0095680719 184:-0.0095680719 185:-0.0067592124 186:-0.0067592124 187:-0.013803457 188:-0.0065450799 189:-0.013803457 190:-0.0065450799 191:-0.0065450799 192:-0.0088629629 193:-0.010527439 194:-0.0053854701 195:-0.024968075 196:-0.029478667 197:-0.029478667 198:-0.02719968 199:-0.028772334 200:-0.043152072 201:-0.0010738355 202:-0.0068771429 203:-0.0010738355 204:-0.0010738355 205:-0.0010738355 206:-0.0010738355 207:-0.02158135 208:-0.02158135 209:-0.011063002 210:-0.034723449 212:-0.02158135 213:-0.02158135 215:-0.011063002 217:-0.013915226 218:-0.013915226 221:-0.0037392923 225:-0.030969985 226:-0.032485109 227:-0.012710621 228:-0.010002846 233:-0.032485109 234:-0.013385021 235:-0.025053503 236:-0.016534127 237:-0.048357528 238:-0.016534127 239:-0.025053503 240:-0.016534127 241:-0.016534127 242:-0.016534127 243:-0.016534127 244:-0.0067848852 245:-5.5910668e-18 246:-5.5910668e-18 247:-5.5910668e-18 248:-0.029279105 249:-5.5910668e-18 250:-0.025586158 251:-0.025586158 252:-0.011173605 253:-0.011173605 254:-0.038789805 255:-0.02657813 256:-0.0072288802 257:-0.0072288802 258:-0.0072288802 259:-0.0072288802 260:-0.0072288802 261:-0.0072288802 262:-0.0072288802 263:-0.042736501 264:-0.04146979 265:-0.04146979 266:-0.024076382 268:-0.010896884 269:-0.0014767181 271:-0.01279705 272:-0.0090637719 275:-0.047461715 276:-0.059904791 277:-0.04958602 278:-0.055807237 279:-0.044880357 280:-0.00057075545 281:-0.027855409 282:-0.00057075545 283:-0.00057075545 284:-0.00057075545 285:-0.00057075545 286:-0.00057075545 287:-0.00051160814 288:-0.00057075545 289:-0.013219875 290:-0.0021354463 291:-0.00057075545 292:-0.010232805 293:-0.011415825 294:-0.011415825 295:-0.011415825 296:-0.014823638 297:-0.040657386 298:-0.01691474 299:-0.015161868 300:-0.01691474 301:-0.01691474 302:-0.01691474 303:-0.013917909 304:-0.015019291 314:-0.023263041 315:-0.023263041 316:-0.023263041 317:-0.023263041 318:-0.057960298 319:-0.057960298 320:-0.057960298 321:-0.0016474423 322:-0.0073913066 323:-0.0016474423 324:-0.0016474423 325:-0.0016474423 326:-0.0016474423 327:-0.021952873 328:-0.0065983776 329:-0.0096947206 330:-0.0096947206 331:-0.0094506098 332:-0.0086900573 333:-0.0096947206 334:-0.0096947206 335:-0.0096947206 336:-0.057960298 337:-0.057960298 338:-0.057960298 339:-0.06137694 340:-0.0021676917 341:-0.01279215 342:-0.0021676917 343:-0.0021676917 344:-0.0021676917 345:-0.0021676917 346:-0.018261096 347:-0.022681603 348:-0.020331111 349:-0.001790814 350:-0.001790814 351:-0.001790814 352:-0.014581352 353:-0.013592161 354:-0.013592161 355:-0.016534127 356:-0.014820699 357:-0.016534127 358:-0.016534127 359:-0.01360473 365:-0.0059157447 366:-0.0059157447 367:-0.0074903066 368:-0.011177445 372:-0.0051636286 383:-0.0014090184 386:-0.034026466 390:-0.037898242 393:-0.03048457 394:-0.034048341 395:-0.0280159 396:-0.034048341 397:-0.037170049 398:-0.037170049 399:-0.037170049 404:-0.012156679 405:-0.007580874 406:-0.007580874 407:-0.007580874 408:-0.007580874 409:-0.007580874 410:-0.007580874 411:-0.007580874 412:-0.007580874 413:-0.007580874 414:-0.0041155056 415:-0.0041155056 416:-0.0041155056 417:-0.0041155056 418:-0.0041155056 424:0.010586705 425:0.024241196 426:-0.032664079 427:-0.032664079 428:-0.0082038203 429:-0.0082038203 430:-0.0015719158 431:-0.0015719158 432:-0.0025338163 433:-0.0015719158 441:-0.0098061338 442:-0.0075972914 443:-0.0075972914 444:-0.0075972914 445:-0.0090015866 446:-0.0075972914 447:-0.0075972914 448:-0.0075972914 449:-0.011567318 452:-0.072283894 463:-0.0051994422 464:-0.0051994422 465:-0.013794835 466:-0.0051994422 467:-0.018436709 468:-0.018436709 469:-0.018436709 470:-0.018436709 471:-0.0091773411 472:-0.0089835022 473:-0.0089835022 474:-0.0089835022 475:-0.0089835022 476:-0.0089835022 477:-0.0089835022 478:-0.010938313 479:-0.010938313 480:-0.010938313 481:-0.046058569 482:-0.046058569 483:-2.1010221e-10 484:-2.1010221e-10 485:-2.1010221e-10 486:-2.1010221e-10 487:-0.014526325 488:-2.1010221e-10 489:-0.0024869335 490:-0.0012548364 491:-0.0012548364 492:-0.0012548364 493:-0.0012548364 494:-0.0012548364 495:-0.0012548364 496:-0.0012548364 497:-0.0012548364 498:-0.0012548364 499:-0.0012548364 500:-0.0062884265 501:-0.0012548364 502:-0.0012548364 503:-0.0012548364 504:-0.0084251221 505:-0.0084251221 506:-0.0084251221 507:-0.0084251221 508:-0.057960298 509:-0.057960298 510:-0.057960298 520:-0.0057605989 521:-0.0057605989 522:-0.0057605989 523:-0.0057605989 524:-0.0057605989 525:-0.0057605989 526:-0.016205721 527:-0.016205721 528:-0.016205721 529:-0.016205721 536:-0.0041397442 541:-0.0033425353 542:-0.0033425353 543:-0.0033425353 544:-0.0033425353 545:-0.0033425353 546:-0.0033425353 547:-0.0033425353 548:-0.0033425353 549:-0.010111639 550:-0.034048341 551:-0.034048341 552:-0.034048341 553:0.059707813 554:0.059707813 555:0.059707813 556:0.059707813 557:0.059707813 558:-0.023403218 568:-0.014476296 569:-0.014476296 570:-0.014476296 571:-0.014177478 572:-0.014177478 573:-0.0050311224 574:-0.0050311224 575:-0.0050311224 592:-0.0077837212 593:-0.001811571 594:-0.001811571 595:-0.001811571 #
