SVM-light Version V6.20
0 # kernel type
3 # kernel parameter -d 
1 # kernel parameter -g 
1 # kernel parameter -s 
1 # kernel parameter -r 
empty# kernel parameter -u 
533 # highest feature index 
28 # number of training documents 
2 # number of support vectors plus 1 
0 # threshold b, each following line is a SV (starting with alpha*y)
1 1:-0.28604701 3:-0.0501386 4:-0.0030628662 5:-5.6927021e-18 6:-0.021322064 7:-0.030863725 8:-0.023914266 9:-0.027290702 10:-0.043316491 11:-0.0369827 12:-0.0030628662 13:-5.6927021e-18 14:-5.6927021e-18 15:-5.6927021e-18 16:-5.6927021e-18 17:-0.023914266 18:-0.009673262 19:-0.050466258 20:1.5950222e-18 21:-0.019216945 22:-0.047778916 23:-0.037485208 24:-0.036953859 25:-0.041173045 26:-0.018509286 27:-0.023691345 28:-0.037808873 29:-0.030504001 30:-0.019388011 31:0.010637145 32:1.5950222e-18 33:-0.047958579 34:-0.026550192 35:-0.03782548 36:-0.037485208 37:1.5950222e-18 38:1.5950222e-18 39:-0.020016493 40:1.5950222e-18 41:1.5950222e-18 42:1.5950222e-18 43:-0.018509286 44:-0.023691345 45:-0.012683934 46:1.5950222e-18 47:1.5950222e-18 48:-0.021473296 49:3.2084485e-18 50:-0.012683934 51:1.5950222e-18 52:1.5950222e-18 53:-0.019216945 54:3.2084485e-18 55:3.2084485e-18 56:-0.037819464 57:-0.0066250111 58:-0.010409334 59:-0.0117836 60:-0.030578965 61:-0.019476764 62:-0.0066250111 63:-0.0066250111 64:-0.0066250111 65:-0.0066250111 66:-0.0066250111 67:-0.0066250111 68:-0.0066250111 69:-0.0066250111 70:-0.049560897 71:-0.056747999 72:-0.020716133 73:-0.020716133 74:-0.060835291 75:-0.020716133 76:-0.020716133 77:-0.020716133 78:-0.020716133 79:-0.019584252 80:-0.019584252 81:-0.057736281 82:-0.022104794 83:-0.019584252 84:-0.022104794 85:-0.022104794 86:-0.016408395 87:-0.038121045 88:-0.066616461 89:-0.066616461 90:-0.066616461 91:-0.025575735 92:-0.043148801 93:-0.025575735 94:-0.0090382611 95:-0.0080076559 96:-0.0080076559 97:-0.043148801 98:-0.03147389 99:-0.029363913 100:-0.019535311 101:-0.019535311 102:-0.019535311 103:-0.019535311 104:-0.0265557 105:-0.01575543 106:-0.01575543 107:-0.01575543 108:-0.043617394 109:-0.046741996 110:-0.0031405222 111:-0.0031405222 112:-0.0031405222 113:-0.0031405222 114:-0.0027824179 115:-0.0027824179 116:-0.0031405222 117:-0.0031405222 118:1.5950222e-18 119:1.5950222e-18 120:-0.032251801 121:-0.015748058 122:-0.047523793 123:-0.011469862 124:-0.024722574 125:0.053491443 126:-0.011469862 127:-0.015748058 128:-0.011469862 129:-0.011469862 130:-0.011469862 131:-0.010161988 132:-0.022546913 133:-0.011469862 134:-0.024722574 135:-0.04673364 136:-0.043481883 137:-0.044168625 138:-0.042773101 139:-0.042773101 140:-0.05521204 141:-0.020891478 142:-0.06299568 143:-0.051156975 144:-0.035148341 145:-0.06299568 146:-0.0063050096 147:-0.0063050096 148:-0.0063050096 149:-0.0063050096 150:-0.0063050096 151:-0.0063050096 152:-0.0063050096 153:-0.0063050096 154:-0.0063050096 155:-0.0063050096 156:-0.0034570647 157:-0.02207266 158:-0.0034570647 159:-0.0030628662 160:-0.0099293469 161:-0.0030628662 162:-0.0034570647 163:-0.0034570647 164:-0.0034570647 165:-0.0034570647 166:-0.013405002 167:-0.0034570647 168:-0.0034570647 169:-0.0034570647 170:-0.0030628662 171:-0.012195744 172:-0.0034570647 173:-0.0034570647 174:-0.0034570647 175:-0.0034570647 176:-0.016147044 177:-0.0071146009 178:-0.0071146009 179:-0.0070801373 180:-0.0070801373 181:-0.030597078 182:-0.030597078 183:-0.030597078 184:-0.030597078 185:-0.030597078 186:-0.033422451 187:-0.015216894 188:-0.015216894 189:-0.015216894 190:-0.015216894 191:-0.013481758 192:1.5950222e-18 193:-0.00745286 194:-0.027286431 195:-0.0090929819 196:1.5950222e-18 197:-0.00745286 198:1.5950222e-18 199:1.5950222e-18 200:1.5950222e-18 201:1.5950222e-18 202:1.5950222e-18 203:1.5950222e-18 204:1.5950222e-18 205:1.5950222e-18 206:1.5950222e-18 207:1.5950222e-18 208:1.5950222e-18 209:1.5950222e-18 210:3.2084485e-18 211:1.5950222e-18 212:1.5950222e-18 213:1.5950222e-18 214:1.5950222e-18 215:1.5950222e-18 216:1.5950222e-18 217:-0.0058013829 218:-0.0043560248 219:-0.0043560248 220:-0.0043560248 221:-0.0043560248 222:-0.0043560248 223:-0.047767501 224:-0.019829135 225:-0.019829135 226:-0.019829135 227:-0.019829135 228:-0.019829135 229:-0.019829135 230:-0.012015704 231:-0.012015704 232:-0.012015704 233:-0.027861526 234:-0.0066751684 235:-0.010415394 236:-0.0066751684 237:-0.0066751684 238:-0.0066751684 239:-0.0066751684 240:-0.0066751684 241:-0.017329792 242:-0.023875065 243:-0.024279037 244:-0.014539091 245:-0.014015174 246:-0.011329596 247:-0.011329596 248:-0.013647332 249:-0.011329596 250:-0.011329596 251:-0.0084120622 252:-0.0084120622 253:-0.0084120622 254:-0.018747322 255:-0.011954235 256:-0.0084120622 257:-0.0084120622 258:-0.0084120622 259:-0.0084120622 260:-0.0084120622 261:-0.0084120622 262:-0.0084120622 263:-0.010785743 264:-0.011954235 265:-0.0084120622 266:-0.0084120622 267:-0.0084120622 268:-0.0048025534 269:-0.0048025534 270:-0.0048025534 271:-0.0048025534 272:-0.022388872 273:-0.0048025534 274:-0.0048025534 275:-0.0048025534 276:-0.0048025534 277:-0.0048025534 278:-0.0048025534 279:-0.0048025534 280:-0.0048025534 281:-0.0048025534 282:-0.011409599 283:-0.011409599 284:-0.011409599 285:-0.011409599 286:-0.02328857 287:-0.02328857 288:-0.046120759 289:-0.015598724 290:-0.015598724 291:-0.015598724 292:-0.0037618331 293:-0.0037618331 294:-0.0037618331 295:-0.0037618331 296:-0.010547168 297:-0.0037618331 298:-0.0037618331 299:-0.0037618331 300:-0.0037618331 301:-0.0037618331 302:-0.0037618331 303:-0.0037618331 304:-0.0037618331 305:-0.0040741828 306:-0.0040741828 307:-0.0040741828 308:-0.0040741828 309:-0.0040741828 310:-0.0040741828 311:-0.0040741828 312:-0.0040741828 313:-0.0040741828 314:-0.0040741828 315:-0.0040741828 316:-0.0040741828 317:-0.0089686289 318:-0.048942465 319:-0.010122914 320:-0.010122914 321:-0.010122914 322:-0.010122914 323:-0.034899991 324:-0.034899991 325:-0.034899991 326:-0.0094126286 327:-0.0094126286 328:-0.0094126286 329:-0.011691956 330:-0.0094126286 331:-0.0094126286 332:-0.0094126286 333:-0.011691956 334:-0.010358757 335:-0.011691956 336:-0.012885012 337:1.5950222e-18 338:1.5950222e-18 339:1.5950222e-18 340:1.5950222e-18 341:1.5950222e-18 342:1.5950222e-18 343:1.5950222e-18 344:-0.010852935 345:1.5950222e-18 346:1.5950222e-18 347:-0.012942553 348:-0.012942553 349:-0.012942553 350:-0.012942553 351:-0.012942553 352:-0.012942553 353:-0.026543183 354:-0.065137513 355:-0.026543183 356:-0.026543183 357:-0.026543183 358:-0.043048013 359:-0.029067829 360:-0.013797559 361:-0.013797559 362:-0.013797559 363:-0.013797559 364:-0.022783414 365:-0.022997022 366:-0.022783414 367:-0.022783414 368:-0.017518446 369:-0.036457893 370:-0.036457893 371:-0.014754583 372:-0.014754583 373:-0.014754583 374:-0.014754583 375:-0.066616461 376:-0.066616461 377:-0.066616461 378:1.5950222e-18 379:1.5950222e-18 380:-0.004894265 381:1.5950222e-18 382:1.5950222e-18 383:1.5950222e-18 384:1.5950222e-18 385:1.5950222e-18 386:1.5950222e-18 387:1.5950222e-18 388:1.5950222e-18 389:3.2084485e-18 390:1.5950222e-18 391:1.5950222e-18 392:1.5950222e-18 393:1.5950222e-18 394:1.5950222e-18 395:1.5950222e-18 396:1.5950222e-18 397:1.5950222e-18 398:1.5950222e-18 399:0.022032468 400:-0.037819464 401:0.022032468 402:-0.046977691 403:-0.037819464 404:1.5950222e-18 405:1.5950222e-18 406:-3.659447e-18 407:1.5950222e-18 408:1.5950222e-18 409:1.5950222e-18 410:1.5950222e-18 411:1.5950222e-18 412:1.5950222e-18 413:1.5950222e-18 414:1.5950222e-18 415:-0.044893388 416:1.5950222e-18 417:-0.018188264 418:-0.028351281 419:-0.028351281 420:-0.028351281 421:-0.028351281 422:-0.028351281 423:-0.028351281 424:-3.659447e-18 425:-3.659447e-18 426:1.5950222e-18 427:1.5950222e-18 428:3.2084485e-18 429:1.5950222e-18 430:-3.659447e-18 431:-3.659447e-18 432:-3.659447e-18 433:1.5950222e-18 434:-0.050182473 435:-0.050182473 436:-0.050182473 437:-0.050182473 438:-0.019011373 439:-0.034350265 440:-0.019011373 441:-0.019011373 442:-0.019011373 443:-0.019011373 444:-0.0060794423 445:-0.0079114223 446:-0.0060794423 447:-0.0060794423 448:-0.0060794423 449:-0.0060794423 450:-0.0060794423 451:-0.0060794423 452:-0.0060794423 453:-0.0060794423 454:1.5950222e-18 455:1.5950222e-18 456:1.5950222e-18 457:-0.0081972498 458:-0.0081972498 459:-0.0081972498 460:-0.046472251 461:-0.046472251 462:-0.05245335 463:-0.0028502005 464:-0.0028502005 465:-0.0028502005 466:-0.0028502005 467:-0.020959487 468:-0.0028502005 469:-0.0028502005 470:-0.0028502005 471:-0.0028502005 472:-0.0028502005 473:-0.0028502005 474:-0.0028502005 475:-0.050671279 476:-6.1567888e-18 477:-0.010852935 478:-0.020806827 479:-0.020806827 480:-0.020806827 481:-0.020806827 482:-0.005080713 483:-0.005080713 484:-0.005080713 485:-0.005080713 486:-0.005080713 487:-0.005080713 488:-0.005080713 489:-0.005080713 490:-0.005080713 491:-0.005080713 492:-0.005080713 493:-0.005080713 494:-0.005080713 495:-0.005080713 496:-0.005080713 497:-0.005080713 498:-0.005080713 499:-0.005080713 500:-0.027962226 501:-0.027962226 502:-0.011426259 503:-0.011426259 504:-0.011426259 505:-0.011426259 506:-0.011426259 507:-0.011426259 508:-0.011426259 509:-0.011426259 510:-0.011426259 511:-0.011426259 512:-0.012249735 513:-0.0081427824 514:-0.0081427824 515:-0.0081427824 516:-0.0081427824 517:-0.0081427824 518:-0.0081427824 519:-0.0081427824 520:-0.0081427824 521:-0.0081427824 522:1.5950222e-18 523:1.5950222e-18 524:-0.01171258 525:-0.01171258 526:-0.01171258 527:-0.01171258 528:-0.01171258 529:0.071845792 530:0.071845792 531:0.071845792 532:0.071845792 #
