SVM-light Version V6.20
0 # kernel type
3 # kernel parameter -d 
1 # kernel parameter -g 
1 # kernel parameter -s 
1 # kernel parameter -r 
empty# kernel parameter -u 
530 # highest feature index 
44 # number of training documents 
2 # number of support vectors plus 1 
0 # threshold b, each following line is a SV (starting with alpha*y)
1 1:-0.56531662 3:-0.055196501 4:-0.0049199471 5:-0.034843545 6:-0.0086879004 7:-0.028884878 8:-0.0049199471 9:-0.0049199471 10:-0.0049199471 11:-0.0078986045 12:-0.0049199471 13:-0.0049199471 14:-0.013258551 15:-0.0075815325 16:-0.004947579 17:-0.042120274 18:0.015869435 19:-0.004947579 20:-0.013258551 21:-0.004947579 22:-0.004947579 23:-0.004947579 24:-0.014333979 25:-0.004947579 26:-0.010692837 27:-0.031560447 28:-0.0078712571 29:-0.045297768 30:-0.0050575477 31:-0.010692837 32:-0.003674052 33:-0.0041746208 34:-0.0065706079 35:-0.021730946 36:-0.017205773 37:-0.0027723857 38:-0.0068655731 39:-0.0027723857 40:-0.0027723857 41:-0.0027723857 42:-0.0027723857 43:-0.0027723857 44:-0.0027723857 45:-0.0027723857 46:-0.0027723857 47:-0.0027723857 48:-0.0027723857 49:-0.0027723857 50:-0.0027723857 51:-0.0027723857 52:-0.0027723857 53:-0.20297466 54:-0.040397041 55:-0.019784357 56:-0.021039387 57:-0.0055155507 58:-0.0028699487 59:-0.0036815125 60:-0.0085778935 61:-0.0085778935 62:-0.0088491775 63:-0.0088491775 64:-0.046606686 65:-0.024221841 66:-0.024738653 67:-0.016329778 68:-0.025414003 69:-0.016329778 70:-0.038316175 71:-0.038316175 72:-0.028635036 73:-0.0020432482 74:-0.0020432482 75:-0.013539476 76:-0.0060442565 77:-0.010577407 78:-0.014311505 79:-0.0020432482 80:-0.0020432482 81:-0.0020432482 82:-0.007231744 83:-0.0020432482 84:-0.0020432482 85:-0.017849877 86:-0.008590647 87:-0.030501023 88:-0.033356339 89:-0.18564573 90:-0.011958852 91:-5.9231803e-19 92:-0.0088183256 93:-0.067206942 94:-5.9231803e-19 95:-5.9231803e-19 96:-1.9384955e-18 97:-5.9231803e-19 98:-0.011836065 99:-0.0094519891 100:-0.0075450214 101:-0.0054201861 102:-0.0029217391 103:-0.0033937253 104:-0.0065185702 105:-0.011897249 106:-0.0054903077 107:-0.0014673132 108:-0.0065185702 109:-0.0073630386 110:-0.0065185702 111:-0.0065185702 112:-0.0056119924 113:-0.0056119924 114:-0.0093345735 115:-0.0093345735 116:-0.018611025 117:-0.022399066 118:-0.0093345735 119:-0.0093345735 120:-0.020253005 121:-0.0036815125 122:-0.0016716734 123:-0.0016716734 124:-0.031939529 125:-0.0016716734 126:-0.0016716734 127:-0.0016716734 128:-0.0016716734 129:-0.0016716734 130:-0.0016716734 131:-0.011973661 132:-0.0014579241 133:-0.0014579241 134:-0.087209232 135:-0.01197982 136:2.6788931e-18 137:-0.0040554674 138:2.6788931e-18 139:-5.9231803e-19 140:-0.019581031 141:-0.012523635 142:-0.011340013 143:-0.0022943923 144:-0.033934928 145:-0.015315441 146:-0.015761919 147:-5.9231803e-19 148:-5.9231803e-19 149:-0.016190665 150:-0.016552139 151:-0.018279782 152:2.6788931e-18 153:-5.9231803e-19 154:-0.011422763 155:-0.0016961027 156:-0.001970096 157:-0.001970096 158:-0.0084625361 159:-0.022656593 160:-0.0034882035 161:-0.0034882035 162:-0.0034882035 163:-5.9231803e-19 164:-0.010140588 165:-5.9231803e-19 166:-5.9231803e-19 167:-5.9231803e-19 168:-5.9231803e-19 169:-0.0032582551 170:-0.003784603 171:-0.003784603 172:-0.003784603 173:-0.003784603 174:-0.003784603 175:-0.003784603 176:-0.003784603 177:-0.003784603 178:-0.003784603 179:-0.003784603 180:-0.003784603 181:-0.003784603 182:-0.12905607 183:-0.011494517 184:-0.018996036 185:-0.016316235 186:-0.011494517 187:-0.011494517 188:-0.018996036 189:-0.019908641 190:-0.017574366 191:-0.016795257 192:-5.9231803e-19 193:-5.9231803e-19 194:-0.0089980941 195:-0.016795257 196:-5.9231803e-19 197:-5.9231803e-19 198:-5.9231803e-19 199:-5.9231803e-19 200:-0.0084767584 201:-5.9231803e-19 202:-5.9231803e-19 203:-5.9231803e-19 204:-0.0052090413 205:-0.012236248 206:-0.012236248 207:-0.012236248 208:-0.010242864 209:-0.010242864 210:-0.010242864 211:-0.010242864 212:-0.010242864 213:-0.018696679 214:-0.014922756 215:-0.014922756 216:-0.03142076 217:-0.0041837948 218:-0.004859657 219:-0.004859657 220:-0.004859657 221:-0.004859657 222:-0.1378175 223:-0.0076060542 224:-0.0076060542 225:-5.6763408e-18 226:-5.9231803e-19 227:-5.9231803e-19 228:-1.9384955e-18 229:-5.9231803e-19 230:-0.0048232907 231:-0.0048232907 232:-0.0048232907 233:-0.0088107986 234:-0.01091892 235:-0.0048232907 236:-0.049549885 237:-0.015470508 238:-0.049549885 239:-5.9231803e-19 240:-0.0017510463 241:-0.012426174 242:-0.0057139974 243:-0.0010875504 244:-0.0034543211 245:-0.0023575139 246:2.6788931e-18 247:-0.019268848 248:-0.019268848 249:-0.019268848 250:-0.019268848 251:0.0056691077 252:-0.0077224965 253:-0.024353735 254:-0.0035591805 255:-0.0035591805 256:-0.0035591805 257:-0.091219373 258:-0.00071031705 259:-0.00071031705 260:-0.00071031705 261:-0.011718461 262:-0.00053388992 263:-0.0012824213 264:-0.011718461 265:-0.00522047 266:-0.00053388992 267:-0.00053388992 268:-0.00053388992 269:-0.00053388992 270:-0.00053388992 271:-0.011718461 272:-0.00053388992 273:-5.9231803e-19 274:-0.0015958836 275:-0.0017624553 276:-5.9231803e-19 277:-5.9231803e-19 278:-0.10152595 279:-0.0020471674 280:-0.0060505248 281:-0.012930156 282:-0.0060505248 283:-0.010570195 284:-0.010570195 285:-0.010851178 286:-0.0020078383 287:-0.001728596 288:-0.0020078383 289:-0.0020078383 290:-0.0020078383 291:-0.0020078383 292:-0.0020078383 293:-5.9231803e-19 294:-5.9231803e-19 295:-5.9231803e-19 296:-5.9231803e-19 297:-5.9231803e-19 298:-5.9231803e-19 299:-5.9231803e-19 300:-0.087209232 301:-0.087209232 302:-0.077924535 303:-0.0038101352 304:-0.0038101352 305:-0.0038101352 306:-0.0085056312 307:-0.0085056312 308:-0.0089239581 309:-0.0089239581 310:-0.0089239581 311:-0.0089239581 312:-0.01485219 313:-0.011701954 314:-0.011701954 315:-0.011701954 316:-0.011734049 317:-0.010670443 318:-0.011898391 319:-0.011898391 320:-0.011898391 321:-0.012580279 322:-0.012580279 323:-0.012580279 324:-0.012580279 325:-0.05883057 326:0.036220662 327:0.023587983 328:0.036220662 329:-0.05883057 330:-0.05883057 331:0.036220662 332:0.023587983 333:-0.0053798212 334:-0.0053798212 335:-0.0053798212 336:-0.0053798212 337:-0.093576893 338:-0.003662905 339:2.6788931e-18 340:2.6788931e-18 341:2.6788931e-18 342:-5.9231803e-19 343:-5.9231803e-19 344:-0.019398499 345:-0.019398499 346:-5.9231803e-19 347:-0.042820726 348:-0.005202272 349:-0.005202272 350:-0.005202272 351:-0.005202272 352:-0.012481946 353:-0.0055299099 354:-0.013938564 355:-0.015315096 356:-5.9231803e-19 357:-5.9231803e-19 358:-0.0027383533 359:-0.0089684064 360:-0.0075458926 361:-0.0075458926 362:-0.0075458926 363:-0.0075458926 364:-0.034849707 365:-0.034849707 366:-5.9231803e-19 367:-5.9231803e-19 368:-5.9231803e-19 369:-5.9231803e-19 370:-5.9231803e-19 371:-0.00095569744 372:-0.00095569744 373:-0.00095569744 374:-0.00095569744 375:-0.00095569744 376:-0.024728727 377:-0.024728727 378:-0.007831268 379:-0.0039903498 380:-0.0039903498 381:-0.007831268 382:-0.0039903498 383:-0.0062030759 384:-0.0062030759 385:-0.0062030759 386:-0.0062030759 387:-0.004254621 388:-0.004254621 389:-0.004254621 390:-0.004254621 391:-0.004254621 392:-0.004254621 393:-0.004254621 394:-0.004254621 395:-0.004254621 396:-0.011813664 397:-0.011813664 398:-0.011813664 399:-0.011813664 400:-0.011813664 401:-0.011813664 402:-5.9231803e-19 403:-3.6166003e-18 404:-3.6166003e-18 405:-3.6166003e-18 406:-3.6166003e-18 407:-3.6166003e-18 408:-3.6166003e-18 409:-5.9231803e-19 410:-0.0054108305 411:-0.0054108305 412:-0.0054108305 413:-0.0054108305 414:-0.0054108305 415:-5.9231803e-19 416:-0.0026580251 417:0.0038619279 418:0.0038619279 419:-0.0022031453 420:-0.0022031453 421:-0.0022031453 422:-0.0022031453 423:-0.0022031453 424:-0.0022031453 425:-0.0022031453 426:-0.0022031453 427:-0.0022031453 428:-0.0022031453 429:-5.9231803e-19 430:-0.012859412 431:-0.012859412 432:-0.011070974 433:-0.012859412 434:-0.012859412 435:-0.012859412 436:-5.9231803e-19 437:-5.9231803e-19 438:-5.9231803e-19 439:-5.9231803e-19 440:-5.9231803e-19 441:-0.0031785879 442:-0.0031785879 443:-0.0031785879 444:-0.0052681109 445:-0.0031785879 446:-0.0031785879 447:-0.0031785879 448:-0.0031785879 449:-0.0031785879 450:-0.0031785879 451:-0.0031785879 452:-0.0031785879 453:-5.9231803e-19 454:-5.9231803e-19 455:-5.9231803e-19 456:-5.9231803e-19 457:0.082549542 458:0.082549542 459:0.082549542 460:0.082549542 461:-0.002940549 462:-0.002940549 463:-0.002940549 464:-0.002940549 465:-0.002940549 466:-0.0058536325 467:-0.002940549 468:-0.002940549 469:-0.002940549 470:-0.002940549 471:-0.002940549 472:-0.002940549 473:-0.002940549 474:-0.0058536325 475:-0.002940549 476:-0.002940549 477:-0.002940549 478:-0.036491852 479:-0.036491852 480:-0.0078595029 481:-0.0078595029 482:-0.0078595029 483:-0.0078595029 484:-0.0078595029 485:-5.9231803e-19 486:-0.00095569744 487:-0.00095569744 488:-0.00095569744 489:-0.00095569744 490:-0.00095569744 491:-0.00095569744 492:-0.00095569744 493:-0.0049774153 494:-0.0049774153 495:-0.0049774153 496:-0.0049774153 497:-0.0049774153 498:-0.0049774153 499:-0.0049774153 500:-0.0049774153 501:-0.0049774153 502:-0.003858696 503:-0.003858696 504:-0.003858696 505:-0.003858696 506:-0.003858696 507:-0.003858696 508:-0.0055495026 509:0.10090242 510:0.10090242 511:0.10090242 512:-0.0020339154 513:-0.0020339154 514:-0.0020339154 515:-0.0020339154 516:-0.0020339154 517:-0.013642318 518:-0.013642318 519:-0.013642318 520:-0.0063567329 521:-0.0063567329 522:-0.0063567329 523:-0.0063567329 524:-0.0063567329 525:-0.0063567329 526:-5.9231803e-19 527:-5.9231803e-19 528:-5.9231803e-19 529:-0.087209232 #
