SVM-light Version V6.20
0 # kernel type
3 # kernel parameter -d 
1 # kernel parameter -g 
1 # kernel parameter -s 
1 # kernel parameter -r 
empty# kernel parameter -u 
500 # highest feature index 
79 # number of training documents 
2 # number of support vectors plus 1 
0 # threshold b, each following line is a SV (starting with alpha*y)
1 1:-0.54023552 3:-0.0051269559 4:-0.04448216 5:-0.0079467399 6:-0.0051269559 7:-0.029054919 8:0.0019405324 9:-0.0051269559 10:-0.0044056666 11:-0.0051269559 12:-0.0051269559 13:-0.0051269559 14:-0.0051269559 15:-0.0051269559 16:-0.0051269559 17:-0.0051269559 18:-0.13845804 19:-0.071500845 20:-0.020361163 21:-0.0040142587 22:-0.0040142587 23:-0.0084032379 24:0.022352466 25:-0.021544976 26:-0.014257589 27:-0.0040142587 28:-0.0040142587 29:-0.0040142587 30:-0.0040142587 31:-0.19483352 32:-0.051399965 33:-0.018646903 34:-0.023640893 35:-0.0065482371 36:-0.0072789206 37:-0.0072789206 38:-0.00014936339 39:-0.0029599271 40:-0.00014936339 41:-0.00014936339 42:-0.00014936339 43:-0.00014936339 44:-0.00014936339 45:-0.00014936339 46:-0.1465003 47:-0.045291007 48:-0.042491991 49:2.3865751e-17 50:-0.042491991 51:-0.032775626 52:-0.042355344 53:-0.01079188 54:2.5798566e-18 55:2.5798566e-18 56:-0.19988441 57:-0.0041182064 58:-0.014589074 59:2.3865751e-17 60:-0.023639785 61:2.3865751e-17 62:2.3865751e-17 63:2.3865751e-17 64:-0.024553867 65:-0.0030642368 66:-0.0030642368 67:2.3865751e-17 68:2.3865751e-17 69:2.3865751e-17 70:-0.016367419 71:2.3865751e-17 72:2.3865751e-17 73:2.3865751e-17 74:-0.012348338 75:-0.0098581649 76:-0.012392418 77:-0.0091176312 78:-0.01268718 79:-0.010902276 80:-0.01268718 81:-0.018598558 82:-0.016878512 83:-0.019641835 84:-0.015974173 85:-0.015974173 86:-0.015575429 87:-0.0037009413 88:-0.0040929206 89:-0.015974173 90:-0.015974173 91:-0.0093257632 92:-0.0054425965 93:-0.0054425965 94:-0.0093257632 95:-0.0054425965 96:-0.049072735 97:-0.011885579 98:3.0583711e-18 99:2.3865751e-17 100:2.3865751e-17 101:-0.2198595 102:-0.045094755 103:-0.0056514665 104:-0.0056514665 105:-0.0056514665 106:-0.0056514665 107:-0.0056514665 108:-0.030443316 109:-0.0090699671 110:-0.0064610885 111:-0.007518888 112:-0.11881064 113:-8.5149865e-18 114:2.3865751e-17 115:2.3865751e-17 116:2.3865751e-17 117:2.3865751e-17 118:2.3865751e-17 119:-0.00127676 120:-0.0014857892 121:-3.0558997e-12 122:-3.0558997e-12 123:-3.0558997e-12 124:-3.0558997e-12 125:-3.0558997e-12 126:-3.0558997e-12 127:-0.017619425 128:-3.0558997e-12 129:-3.0558997e-12 130:-3.0558997e-12 131:-3.0558997e-12 132:-3.0558997e-12 133:-3.0558997e-12 134:-3.0558997e-12 135:-3.0558997e-12 136:-3.0558997e-12 137:-3.0558997e-12 138:-3.0558997e-12 139:-0.036774073 140:-0.036774073 141:-0.038842909 142:-0.0017341062 143:-0.0017341062 144:-0.0017341062 145:-0.0017341062 146:-0.0017341062 147:-0.0017341062 148:-0.0017341062 149:-0.0017341062 150:-0.0017341062 151:-0.0017341062 152:-0.0017341062 153:-0.0017341062 154:-0.0017341062 155:-0.0017341062 156:-0.0017341062 157:2.2569822e-17 158:2.2901612e-18 159:2.2569822e-17 160:2.2901612e-18 161:-0.0035659091 162:-0.0035659091 163:2.3865751e-17 164:-0.022640625 165:2.3865751e-17 166:2.3865751e-17 167:2.3865751e-17 168:-0.015640287 169:2.3865751e-17 170:-0.013630055 171:-0.057528902 172:1.8591306e-17 173:-0.0030893225 174:-0.0013372442 175:-0.0013372442 176:-0.019006252 177:-0.010265315 178:-0.010265315 179:-0.0088211326 180:-0.010265315 181:-0.010265315 182:-0.0057647442 183:-0.0084948009 184:-0.0057647442 185:-0.0057647442 186:-0.0098246168 187:-0.0057647442 188:-0.0057647442 189:-0.0092507116 190:-0.0075533423 191:-0.0075533423 192:-0.0075533423 193:-0.0075533423 194:-0.0075533423 195:-0.0075533423 196:-0.0075533423 197:-0.0044044042 198:-3.055901e-12 199:-2.6259971e-12 200:-0.0055396804 201:-2.6259971e-12 202:-3.055901e-12 203:-3.055901e-12 204:-2.6259971e-12 205:-0.0055396804 206:-0.0095267445 207:-0.0095267445 208:-0.0095267445 209:1.8591306e-17 210:-0.015774313 211:-0.044340491 212:1.8591306e-17 213:1.8591306e-17 214:1.8591306e-17 215:-0.01691059 216:0.1223665 217:-0.040093999 218:-0.051599849 219:-0.011860383 220:-0.010191797 221:-0.011860383 222:-0.011860383 223:-0.017169816 224:-0.011001199 225:-0.010991408 226:-0.017169816 227:-0.0094450749 228:-0.010991408 229:-0.010991408 230:-0.0042307531 231:-0.0020925875 232:-0.0036920921 233:-0.0039795479 234:-0.006959388 235:-0.0042307531 236:-0.00076950266 237:-0.00076950266 238:-0.00066124467 239:-0.00066124467 240:-0.10862065 241:-2.3744947e-12 242:-2.6259986e-12 243:-2.6259986e-12 244:-2.3744947e-12 245:-2.6259986e-12 246:-0.036167171 247:-0.010953497 248:2.3865751e-17 249:2.3865751e-17 250:-0.012318148 251:3.0583711e-18 252:2.3865751e-17 253:-0.10956637 254:-0.0051553887 255:-0.0062468736 256:-0.0059994212 257:-0.0051553887 258:-0.0068083648 259:-0.0067542447 260:-0.013658729 261:-0.012350633 262:1.4769057e-17 263:-0.0055503822 264:-0.003166825 265:-0.0055503822 266:-0.003166825 267:-0.003166825 268:-0.003166825 269:-0.003166825 270:-0.003166825 271:-0.044382077 272:-0.016881896 273:-0.016881896 274:-0.016881896 275:2.3865751e-17 276:0.033328075 277:0.01906961 278:-0.079419665 279:0.033328075 280:-0.079419665 281:-0.007889526 282:-0.007889526 283:-0.007889526 284:-0.0067795827 285:-0.007889526 286:-0.00394416 287:-0.0033892731 288:-0.00394416 289:-0.0064785955 290:-0.00394416 291:-0.00394416 292:-0.00394416 293:-0.00394416 294:2.3865751e-17 295:2.3865751e-17 296:2.3865751e-17 297:2.3865751e-17 298:2.3865751e-17 299:-0.0035410731 300:2.3865751e-17 301:2.3865751e-17 302:2.3865751e-17 303:2.3865751e-17 304:2.3865751e-17 305:2.3865751e-17 306:2.3865751e-17 307:2.3865751e-17 308:2.3865751e-17 309:2.3865751e-17 310:2.3865751e-17 311:2.3865751e-17 312:-0.10739834 313:-0.005668344 314:-0.005668344 315:-0.005668344 316:-0.005668344 317:-0.005668344 318:-0.005668344 319:-0.011984337 320:-0.013946394 321:-0.013946394 322:-0.013946394 323:-0.015073659 324:-0.013257463 325:-0.013257463 326:2.2569822e-17 327:0.3609589 328:2.3865751e-17 329:-0.00077933801 330:2.3865751e-17 331:-0.0019235985 332:-0.0019235985 333:-0.0019235985 334:-0.0019235985 335:-0.0019235985 336:-0.0019235985 337:-0.0019235985 338:-0.0019235985 339:-0.0019235985 340:1.9912186e-17 341:1.9912186e-17 342:-0.029456228 343:-0.03152068 344:-0.029456228 345:-0.029456228 346:-0.029456228 347:2.3865751e-17 348:2.3865751e-17 349:2.3865751e-17 350:2.3865751e-17 351:2.3865751e-17 352:2.3865751e-17 353:2.3865751e-17 354:2.3865751e-17 355:2.3865751e-17 356:2.3865751e-17 357:2.3865751e-17 358:2.3865751e-17 359:2.3865751e-17 360:2.3865751e-17 361:2.3865751e-17 362:2.3865751e-17 363:-0.0077084634 364:-0.0077084634 365:-0.0077084634 366:-0.0077084634 367:-0.0077084634 368:-0.0077084634 369:2.3865751e-17 370:2.3865751e-17 371:2.3865751e-17 372:2.3865751e-17 373:2.3865751e-17 374:-0.016356936 375:-0.016356936 376:-0.016356936 377:-0.016356936 378:-0.016356936 379:-0.016356936 380:-0.016356936 381:-0.016356936 382:0.035194911 383:-0.042088404 384:1.8591306e-17 385:0.15176818 386:5.9987085e-11 387:-3.0559038e-12 388:-3.0559038e-12 389:-3.0559038e-12 390:-3.0559038e-12 391:-3.0559038e-12 392:-3.0559038e-12 393:-3.0559038e-12 394:-3.0559038e-12 395:-3.0559038e-12 396:-3.0559038e-12 397:-3.0559038e-12 398:2.2569822e-17 399:2.2569822e-17 400:-0.0043520629 401:-0.0043520629 402:-0.0043520629 403:-0.0043520629 404:-0.0043520629 405:-0.0043520629 406:-0.0043520629 407:-0.0043520629 408:-0.0043520629 409:-0.0086355237 410:-0.0086355237 411:-0.0086355237 412:-0.0086355237 413:2.3865751e-17 414:-0.0085310154 415:2.3865751e-17 416:2.3865751e-17 417:2.3865751e-17 418:-0.01025635 419:-0.011935504 420:-0.011935504 421:-0.011935504 422:-0.0032922572 423:-0.013757104 424:-0.0032922572 425:-0.0032922572 426:-0.0032922572 427:-0.0032922572 428:-0.0032922572 429:-0.0032922572 430:-0.0032922572 431:-0.0032922572 432:-0.0032922572 433:-0.0032922572 434:-0.0032922572 435:-0.0032922572 436:-0.0032922572 437:-0.0032922572 438:2.3440075e-17 439:2.3440075e-17 440:-0.0041208118 441:-0.0041208118 442:-0.0041208118 443:-0.0072249696 444:-0.0072249696 445:-0.0072249696 446:-0.0072249696 447:-0.0072249696 448:-0.0072249696 449:-0.0072249696 450:-0.0099277003 451:-0.0099277003 452:-0.0099277003 453:-0.0099277003 454:2.3865751e-17 455:2.3865751e-17 456:-0.012717139 457:-0.012717139 458:-0.012717139 459:-0.012717139 460:-0.012717139 461:-0.015795304 462:1.0397621e-17 463:2.3865751e-17 464:2.3865751e-17 465:2.3865751e-17 466:2.3865751e-17 467:-0.0041539031 468:-3.0558997e-12 469:-3.0558997e-12 470:-3.0558997e-12 471:-3.0558997e-12 472:0.057313904 473:0.057313904 474:0.057313904 475:-0.0085082473 476:-0.0085082473 477:-0.0085082473 478:-0.0085082473 479:-0.094866231 480:-0.094866231 481:-0.00090693001 482:-0.00090693001 483:-0.00090693001 484:-0.00090693001 485:-3.0558997e-12 486:-3.0558997e-12 487:-3.0558997e-12 488:-3.0558997e-12 489:-0.030308882 490:-0.030308882 491:2.3865751e-17 492:2.3865751e-17 493:-0.00076950266 494:-0.00076950266 495:-0.0035951016 496:-0.0035951016 497:-0.0035951016 498:-0.0035951016 499:-0.0035951016 #
