SVM-light Version V6.20
0 # kernel type
3 # kernel parameter -d 
1 # kernel parameter -g 
1 # kernel parameter -s 
1 # kernel parameter -r 
empty# kernel parameter -u 
2369 # highest feature index 
46 # number of training documents 
2 # number of support vectors plus 1 
0 # threshold b, each following line is a SV (starting with alpha*y)
1 1:-0.29559657 3:-0.030280445 4:4.6304003e-18 5:-0.027028417 7:-1.7145711e-18 8:-0.022766775 9:-0.025995106 11:2.2834488e-18 12:-0.024918444 13:-0.0016646934 17:-0.044258486 18:-0.0017757509 19:-0.040777277 20:-0.039013326 21:-0.0017757509 22:-0.03452706 23:-0.028475272 24:-0.0026597704 25:-0.027788242 26:-0.046114698 27:-0.015514552 28:-0.0017757509 29:-0.0017757509 30:-0.0035993522 31:-0.0017757509 32:-0.0017757509 33:-0.0079216324 34:-0.0017757509 35:-0.001650439 36:-0.027977228 37:-0.0057161632 38:-0.025570536 39:-0.023832006 40:-0.058675494 41:-0.0057161632 42:-0.006144233 43:-0.0073098806 44:-0.0059123253 45:-0.022755239 46:-0.0428892 47:-0.052410822 48:-0.020686116 49:-0.03130978 50:-0.029100303 51:-0.025821123 55:-0.0094004292 56:1.5558145e-18 57:-0.011606441 58:-0.027592681 59:-0.0089621749 60:-0.021269526 61:-0.0037850435 62:-0.0020564687 63:-8.6972152e-18 64:-0.0094004292 65:4.0430012e-18 66:1.5558145e-18 67:-0.0012305843 68:-0.010242963 69:-1.7145711e-18 70:-1.7145711e-18 71:-0.015138697 72:4.0430012e-18 73:1.5558145e-18 74:1.5558145e-18 75:1.5558145e-18 76:-0.026337259 77:-0.021672072 78:-0.041119076 79:-0.050369952 80:-0.0024909345 81:4.0430012e-18 82:-0.025420956 83:4.0430012e-18 84:-1.136564e-17 85:-0.064500265 86:-0.065772988 87:-0.0092976391 88:-0.051995549 89:-0.021890098 90:3.2061035e-18 91:3.2061035e-18 92:-0.031558573 93:-0.017486313 94:-0.071828999 95:-0.0024484068 96:-0.028811235 97:-0.013424745 98:-0.0024484068 99:-0.0024484068 100:-0.00489303 101:-0.0024484068 103:-0.01113416 104:-0.016898207 109:-0.079408526 110:-0.018071031 111:-0.015683532 112:-0.062482506 113:-0.013696671 114:1.5558145e-18 115:4.0430012e-18 116:1.5558145e-18 117:-0.040455967 118:-0.053356167 119:-0.013780027 121:-0.0099833617 122:0.082950547 123:-0.0074516982 125:-0.0071754195 129:0.010024903 130:-0.01696191 131:-0.051513784 132:-0.01928846 133:-0.01696191 134:-0.015803544 135:-0.023286043 136:-0.015803544 137:-0.015803544 138:-0.023286043 139:-0.040026221 140:-0.048967838 141:-0.0059437715 142:-0.043954175 143:-0.033685222 144:-0.0078070359 145:4.0430012e-18 146:4.0430012e-18 147:-0.0025942961 148:4.0430012e-18 149:-0.025860243 150:-0.075719349 151:-0.049717035 152:-0.022770908 153:0.0018995806 154:-0.021286579 155:-0.016381325 156:-0.009540054 157:-0.014964892 158:-0.039568298 159:-0.023888884 160:-0.024648977 161:-0.0064346553 162:2.5559811e-18 163:-1.7145711e-18 164:2.6305966e-17 165:-0.0089948168 166:-0.0051126024 167:-5.2048348e-17 168:-0.0021675995 169:-0.017131096 170:-0.0059808884 171:-2.0363178e-17 172:-0.0063015125 173:-0.011454739 174:1.0123378e-17 175:-5.2048348e-17 176:-0.051664174 177:-0.011846627 178:-0.011650519 179:2.6305966e-17 180:-0.039848678 181:-0.0013098761 182:-0.0047706901 183:-0.0017578466 184:-4.2070497e-18 185:-0.0049911537 186:-0.0047706901 187:-0.025512777 188:-0.050007418 189:-0.0005351908 190:-0.0080139721 191:-0.0016528161 192:-0.026333582 193:-1.7145711e-18 194:-0.0042402707 195:-0.032357499 196:1.579628e-18 197:-1.3399056e-17 198:-0.0029135053 199:4.0430012e-18 200:4.0430012e-18 201:-0.0077836486 202:0.019647455 203:-0.06244031 204:-0.0046872897 205:-0.00079555553 206:-0.013142715 207:-0.013593735 208:-0.006832567 209:-0.00079555553 210:-0.00079555553 211:4.0430012e-18 212:-0.037585109 213:-0.026403477 214:-0.0062816879 215:-0.008139695 216:-0.0065354747 217:-0.012249959 218:-0.024501303 219:-0.0065354747 220:-0.0065354747 221:-0.0065354747 222:-0.0057471734 223:-0.0065354747 224:-0.021565456 225:-0.013905837 226:-0.010704687 227:-0.010704687 228:-0.010704687 229:-0.010704687 230:-0.010704687 231:-0.010704687 232:-0.010704687 233:-0.010838425 235:1.5558145e-18 237:-1.1210861e-17 238:-0.0086343111 239:4.0430012e-18 240:4.0430012e-18 241:-1.7145711e-18 242:-4.2070497e-18 243:-1.7145711e-18 245:-0.0089077363 246:-1.7145711e-18 248:-0.0014925862 252:-0.025837101 253:2.6305966e-17 254:-2.5882615e-17 255:-0.0043064519 256:-0.014189715 257:-0.015031547 258:-0.028931309 259:-0.0026065356 260:-0.0054223319 261:-4.2070497e-18 263:-0.0073819533 264:0.0093626147 265:0.015568861 266:-0.022678955 267:-0.0070574116 268:0.015568861 269:0.015568861 271:-0.0018508309 272:-0.0084759258 273:-0.0084759258 274:-0.0084759258 275:-0.01521345 276:-0.0033117286 277:4.0430012e-18 278:1.5558145e-18 279:-0.0028339538 280:-1.7145711e-18 281:-0.019117294 282:-0.020582201 283:4.0430012e-18 284:4.0430012e-18 285:-0.022191027 286:4.0430012e-18 287:4.0430012e-18 288:4.0430012e-18 289:-0.0012867309 290:-0.0033549869 291:4.0430012e-18 292:4.0430012e-18 293:0.0042129308 294:4.0430012e-18 295:4.0430012e-18 296:4.0430012e-18 297:4.0430012e-18 298:-0.0075045163 299:-0.00066934095 300:-1.7145711e-18 301:-0.0074556321 302:4.0430012e-18 303:4.0430012e-18 304:4.0430012e-18 305:-1.7145711e-18 306:4.0430012e-18 307:4.0430012e-18 308:4.0430012e-18 309:4.0430012e-18 310:4.0430012e-18 311:4.0430012e-18 312:4.0430012e-18 313:4.0430012e-18 314:4.0430012e-18 315:4.0430012e-18 316:-0.00079555553 317:-0.00079555553 321:-0.011310551 322:-0.0093130386 323:-0.0093130386 324:-0.0086558331 325:0.015348343 326:-0.014865164 327:-0.062686443 328:2.5602522e-17 329:3.2061035e-18 330:3.2061035e-18 331:-0.017355748 332:-0.0090365959 333:-0.010599266 334:-0.019191256 335:-0.0096203079 336:4.0430012e-18 337:-0.0029811854 338:4.0430012e-18 339:-0.010599266 340:-0.0032075359 341:-0.0041831061 342:-0.0032075359 343:-0.0032075359 344:-0.0029811854 345:-0.036855213 346:-0.028988272 347:-0.032310985 348:-0.036855213 349:0.011297006 350:-0.021898622 351:-0.032781165 352:-0.0064910292 353:-0.0064910292 354:-0.0068604699 355:-0.015686624 356:-0.00738136 357:-0.021898622 358:-0.0070225894 359:-0.010283251 360:0.032921031 361:-0.010154894 362:-0.0021998337 363:-0.0020813714 364:-0.011093392 365:-0.01327479 366:-0.028938986 367:0.0056847506 368:-0.0034751818 369:0.0095930528 370:-0.0030560095 371:-0.0034751818 372:-0.0026367765 373:-0.0034751818 374:-0.0030560095 375:-0.0046175714 376:-0.0034751818 377:-0.0034751818 378:-4.256877e-18 379:-0.0036900979 382:-0.0098431157 392:1.5558145e-18 393:-0.0021306048 395:1.5558145e-18 397:-1.7145711e-18 399:-0.00073864812 402:-0.013440523 403:4.0430012e-18 404:-0.00021996626 405:4.0430012e-18 406:4.0430012e-18 407:-4.256877e-18 408:-0.0057922304 409:-1.7145711e-18 410:1.579628e-18 411:-0.021557527 413:-0.01310451 417:-2.1030084e-17 418:-0.029585721 419:-1.7145711e-18 420:-0.00089442008 421:-2.6262811e-17 422:4.0430012e-18 423:4.0430012e-18 424:4.0430012e-18 425:-0.0020808552 426:1.5558145e-18 427:-0.018938495 428:-0.019765921 429:-0.0066748112 430:-0.0066476585 431:-1.1210861e-17 432:-0.020058425 433:7.8500159e-19 434:-2.0363178e-17 435:-2.5882615e-17 436:-0.015144647 437:-0.0080520324 438:-0.032222759 439:-0.053746331 440:-0.012610096 441:-0.0078146476 442:-1.7145711e-18 443:-1.7145711e-18 444:-1.3399056e-17 445:-0.053845763 446:4.0430012e-18 447:-0.0056081233 448:-1.7145711e-18 449:-0.050342113 450:-0.0020808552 451:-0.0022388468 452:-0.010822529 453:0.012472214 454:-0.0022388468 455:-0.0022388468 456:-0.0022388468 457:-0.017460782 458:-0.0038697501 459:-0.018110624 460:4.0430012e-18 461:1.5558145e-18 462:-0.018110624 463:-2.5882615e-17 464:4.0430012e-18 465:4.0430012e-18 466:2.6305966e-17 467:-2.5882615e-17 468:-0.0034820214 469:-0.0020813714 470:-0.0045041046 471:-0.0055955029 473:-0.0054885647 474:-0.0028127064 475:-0.018101061 476:-0.014403737 477:-0.0062607396 478:-0.0062607396 479:-0.0071194838 480:-0.0082952147 481:-0.07059215 482:1.5558145e-18 483:1.5558145e-18 484:-1.7145711e-18 485:-0.0028644064 486:0.008666195 487:4.0430012e-18 488:-1.7145711e-18 489:4.0430012e-18 490:-1.7145711e-18 491:4.0430012e-18 492:-0.003516875 493:4.0430012e-18 494:-0.0028644064 495:4.0430012e-18 496:4.0430012e-18 497:-0.00025510954 498:-0.020115711 503:-0.020531068 504:-0.010526157 505:4.0430012e-18 506:-0.018082716 507:-0.0014362501 508:-1.9041694e-18 509:-0.010786911 511:4.6304003e-18 516:-0.018305847 517:0.014991682 518:-0.0047023082 519:2.1405681e-18 520:-3.442193e-18 521:0.015727285 522:-1.7145711e-18 523:-0.0079231411 524:-0.003567666 525:-1.7145711e-18 527:-0.018369008 528:-0.019124163 529:-0.012941183 530:-0.020117633 531:-0.007103438 532:-0.0065334029 533:-0.011115368 534:-0.007507734 535:-0.0080777686 536:-0.007507734 537:-0.0080777686 538:-0.0080777686 539:-0.0053085661 540:-2.5882615e-17 541:-0.0096182013 542:4.0430012e-18 543:4.0430012e-18 544:4.0430012e-18 545:-0.0035224308 546:-0.0058495174 550:-1.7145711e-18 551:1.5558145e-18 552:-2.196662e-17 553:1.5558145e-18 554:-0.0018818361 555:2.6305966e-17 556:-0.00057713408 557:-0.0028339538 558:-0.020742398 559:4.0430012e-18 560:4.0430012e-18 561:4.0430012e-18 562:-0.018213913 563:4.0430012e-18 564:4.0430012e-18 565:-0.02465383 566:-1.7145711e-18 567:4.0430012e-18 568:4.0430012e-18 569:-1.7145711e-18 570:4.0430012e-18 571:4.0430012e-18 572:4.0430012e-18 573:4.0430012e-18 574:4.0430012e-18 575:4.0430012e-18 576:4.0430012e-18 577:4.0430012e-18 578:1.5558145e-18 579:4.0430012e-18 580:4.0430012e-18 581:4.0430012e-18 582:4.0430012e-18 583:-0.00091418735 584:4.0430012e-18 585:-0.0075319731 586:-0.016694551 595:-0.004203002 600:1.5558145e-18 601:-0.012371619 602:-0.039333176 604:-0.010955882 605:-0.0094907293 609:-0.042795807 610:-0.00607729 611:-0.0091805458 612:-0.0099110743 613:-0.0067696939 614:-0.0087413341 615:-0.0049701622 616:-0.012571733 617:-0.012062727 618:-0.011763299 619:4.0430012e-18 620:-0.016814871 621:-0.02005614 623:1.5558145e-18 626:-0.010366306 627:-0.0028339538 630:-0.015040079 631:-0.00078394939 632:-0.0047539119 633:0.0016944763 634:-0.010136177 635:-0.0032568043 636:-0.001311788 637:4.0430012e-18 638:4.0430012e-18 639:4.0430012e-18 640:4.0430012e-18 641:2.6305966e-17 642:-0.051030129 643:-1.7145711e-18 644:-0.0024450971 645:4.0430012e-18 646:-1.7145711e-18 647:-0.0054901564 648:4.0430012e-18 649:4.0430012e-18 650:4.0430012e-18 651:-0.0036666086 652:-0.003407862 653:-0.0036666086 654:-0.014800677 655:-0.0036666086 656:-0.0036666086 657:-0.0036666086 658:-0.003407862 659:-0.0036666086 660:-0.0036666086 661:-0.0036666086 662:-0.003407862 663:-0.0036666086 664:-0.0036666086 665:-0.0030818903 666:-0.0030818903 667:-0.0030818903 668:-0.0043678628 669:-0.0027672707 670:-0.0036471686 671:-0.0043678628 672:-0.0033897939 673:-0.0027672707 674:-0.0036471686 675:-0.0036471686 676:-0.00097351318 677:-0.00090481393 678:-0.00097351318 679:-0.00097351318 680:-0.0048027067 681:-0.0090794647 682:-0.00085608917 683:-0.0012628528 685:-0.0012628528 688:-0.00085608917 693:-0.0052829362 694:-1.7145711e-18 699:-0.005474912 700:-0.0066870516 701:-0.0064346553 702:-0.0064346553 703:4.0430012e-18 704:-0.029923778 705:-0.0019687999 706:-0.031924598 707:-0.025821023 708:-0.014075251 709:-0.031924598 710:-0.031924598 711:0.042896356 712:-0.021023776 713:-0.0093324892 714:-0.0093324892 715:-0.0080955839 716:-0.012483864 717:4.0430012e-18 718:4.0430012e-18 719:4.0430012e-18 720:4.0430012e-18 721:-1.7145711e-18 722:4.0430012e-18 723:-0.00079555553 724:-0.00079555553 726:-0.006984164 727:-0.00097351318 728:-0.00097351318 729:-0.00097351318 730:-0.0031240704 731:-0.0029558372 732:-0.00097351318 733:-0.014957585 734:-0.0011676142 735:-0.0011676142 736:-0.0016218685 737:-0.0080234194 738:-0.01191663 739:-0.01191663 740:-0.010960348 741:-0.0028703997 742:4.0430012e-18 744:4.0430012e-18 745:-0.0029829897 746:4.0430012e-18 747:4.0430012e-18 748:4.0430012e-18 749:-1.7145711e-18 750:-1.7145711e-18 751:-0.0014925862 752:4.0430012e-18 753:4.0430012e-18 754:4.0430012e-18 755:-0.0059616896 757:1.5558145e-18 758:-0.017514357 759:4.0430012e-18 760:4.0430012e-18 761:4.0430012e-18 764:-0.028693255 765:-0.024455151 766:-0.0061550988 767:-0.0057207434 768:-0.0061550988 769:0.024389492 770:0.027427459 771:0.0043216064 772:0.12231372 773:0.076245792 776:-1.7145711e-18 777:4.0430012e-18 778:4.0430012e-18 779:4.0430012e-18 780:1.5558145e-18 781:3.1664608e-18 782:2.5569202e-17 783:3.1664608e-18 785:-4.2070497e-18 787:-1.7145711e-18 791:1.5558145e-18 793:-0.008240548 794:-2.196662e-17 795:4.6304003e-18 796:-0.01156061 797:4.0430012e-18 798:4.0430012e-18 799:4.0430012e-18 800:-1.7145711e-18 801:-1.7145711e-18 802:-0.027784796 803:-0.022868393 804:-1.7145711e-18 805:4.0430012e-18 806:-0.0022192562 807:-0.012817935 808:-0.014393719 809:-2.6591572e-17 810:0.056339014 811:0.03766679 812:0.046691589 813:0.046691589 814:-0.005287406 816:-1.7145711e-18 817:-1.7145711e-18 820:2.6305966e-17 821:4.6304003e-18 825:-1.7145711e-18 834:-0.00063190702 835:-0.0021565179 836:-0.0016549126 837:-1.7145711e-18 838:4.0430012e-18 839:1.5558145e-18 840:-0.012785243 841:-0.0067646201 842:-1.7145711e-18 843:-0.0022676855 844:-0.0092579098 845:-1.1210861e-17 846:4.0430012e-18 847:-0.00085595914 848:0.036647547 849:-0.0028714081 850:-0.021678595 851:4.0430012e-18 852:-0.0056282729 853:4.0430012e-18 854:4.0430012e-18 855:4.0430012e-18 856:-0.0053725638 857:4.0430012e-18 858:1.5558145e-18 859:4.0430012e-18 860:4.0430012e-18 861:4.0430012e-18 862:4.0430012e-18 863:-0.0014925862 864:-0.010155598 865:2.6305966e-17 866:-0.0061749653 867:-0.0051381891 868:-0.0051381891 869:4.0430012e-18 870:-1.7145711e-18 871:-0.038258873 872:4.0430012e-18 873:4.0430012e-18 874:4.0430012e-18 875:1.5558145e-18 876:-0.012715171 877:2.6305966e-17 878:4.0430012e-18 879:-1.7145711e-18 880:-1.7145711e-18 881:-0.0047706901 882:-0.0049911537 888:4.0430012e-18 889:4.0430012e-18 890:-1.7145711e-18 891:4.0430012e-18 892:4.0430012e-18 893:4.0430012e-18 894:4.0430012e-18 895:4.0430012e-18 896:4.0430012e-18 897:-1.7145711e-18 898:-1.7145711e-18 899:4.0430012e-18 900:4.0430012e-18 901:4.0430012e-18 902:4.0430012e-18 903:4.0430012e-18 904:4.0430012e-18 905:4.0430012e-18 906:-0.03158173 907:-1.7145711e-18 908:1.5558145e-18 909:4.0430012e-18 910:4.0430012e-18 911:4.0430012e-18 912:4.0430012e-18 913:4.0430012e-18 914:1.5558145e-18 915:-0.004275145 916:4.0430012e-18 917:4.0430012e-18 918:4.0430012e-18 919:-0.011259531 920:0.0093480591 921:0.01213247 922:-0.0060382732 923:0.012822997 924:0.011596568 925:0.013796601 926:-0.0056038718 927:0.030118076 928:0.0097036231 929:0.013796601 930:0.01213247 931:0.01213247 932:0.01213247 933:0.013796601 934:0.013796601 935:0.013796601 936:0.013796601 937:-0.0084817437 938:4.0430012e-18 939:4.0430012e-18 940:4.0430012e-18 941:4.0430012e-18 942:4.0430012e-18 943:4.0430012e-18 944:4.0430012e-18 945:-6.8543484e-19 946:-0.00085595914 947:-0.00085595914 955:3.1664608e-18 956:-0.010717143 957:-2.5292553e-18 958:-0.016830333 959:-0.0062757162 960:-0.0034128567 961:-0.0062757162 962:4.0430012e-18 963:-0.011793257 964:-0.00094265671 965:4.0430012e-18 966:-2.5882615e-17 967:-0.018157795 968:4.0430012e-18 969:-0.037485976 970:-0.0040871873 971:-0.024342947 972:-0.0067232451 973:-0.017771898 974:-0.0022192562 976:-0.015529781 980:-0.00085595914 981:-0.0078515131 982:-1.7145711e-18 983:4.0430012e-18 984:4.0430012e-18 985:-0.00092283171 986:-0.0011420698 987:-0.015804531 988:-0.001650439 989:1.5558145e-18 991:-1.7145711e-18 996:-0.007754595 997:4.0430012e-18 998:4.0430012e-18 999:-0.0048094727 1000:-2.5512599e-18 1001:3.2061035e-18 1002:3.2061035e-18 1003:3.2061035e-18 1004:3.2061035e-18 1005:-0.0022870933 1006:3.2061035e-18 1007:3.2061035e-18 1008:4.0430012e-18 1009:4.0430012e-18 1010:4.0430012e-18 1011:4.0430012e-18 1012:-1.7145711e-18 1013:-0.015518999 1014:-0.016697299 1015:-0.015518999 1016:-0.015518999 1017:1.3076671e-18 1018:-5.9844991e-18 1019:1.3076671e-18 1020:1.3076671e-18 1021:1.3076671e-18 1022:1.3076671e-18 1023:1.3076671e-18 1024:1.3076671e-18 1025:-5.9844991e-18 1026:1.3076671e-18 1027:1.3076671e-18 1028:1.3076671e-18 1029:1.3076671e-18 1030:1.3076671e-18 1031:1.3076671e-18 1032:1.3076671e-18 1033:1.3076671e-18 1034:-4.256877e-18 1035:-0.0021147176 1036:-4.256877e-18 1037:-8.4958671e-19 1038:4.0430012e-18 1039:4.0430012e-18 1040:-1.7145711e-18 1041:4.0430012e-18 1042:4.0430012e-18 1043:4.0430012e-18 1047:-4.2070497e-18 1057:-0.00060202554 1063:4.0430012e-18 1064:4.0430012e-18 1065:-1.7145711e-18 1070:-1.7145711e-18 1071:4.0430012e-18 1072:4.0430012e-18 1073:1.5558145e-18 1074:-1.7145711e-18 1076:-1.7145711e-18 1079:-0.028049063 1080:-0.0061280746 1081:-0.030541494 1082:-1.7145711e-18 1083:4.0430012e-18 1084:-0.017773151 1091:-1.7145711e-18 1092:4.0430012e-18 1093:-0.02549804 1098:4.0430012e-18 1099:-0.0028958928 1100:4.0430012e-18 1101:4.0430012e-18 1102:-0.0054706181 1103:3.5729343e-18 1104:3.5729343e-18 1105:3.5729343e-18 1106:4.0430012e-18 1107:-0.012260302 1108:-1.7145711e-18 1109:4.0430012e-18 1110:4.0430012e-18 1111:4.0430012e-18 1112:-1.7145711e-18 1113:4.0430012e-18 1114:4.0430012e-18 1115:-0.016472999 1119:-0.0013624596 1120:4.0430012e-18 1121:4.0430012e-18 1122:4.0430012e-18 1123:-0.0014400048 1124:4.0430012e-18 1125:4.0430012e-18 1126:4.0430012e-18 1127:4.0430012e-18 1128:4.0430012e-18 1129:4.0430012e-18 1130:4.0430012e-18 1131:4.0430012e-18 1132:4.0430012e-18 1133:1.5558145e-18 1134:-0.0021024887 1137:1.7141405e-18 1138:-0.0020017172 1139:1.7141405e-18 1140:1.7141405e-18 1141:-0.0020070001 1148:-0.02022177 1149:-0.02022177 1150:-0.02022177 1151:-0.0035489048 1152:-0.0035489048 1153:-0.0035489048 1154:-0.0035489048 1155:-0.0059733214 1156:-0.010000931 1164:-0.0019450162 1165:-0.022939177 1166:4.0430012e-18 1167:-0.0019450162 1168:4.0430012e-18 1169:-0.011216015 1171:-0.011216015 1175:-0.021441327 1176:-0.0023135298 1177:-0.0023135298 1178:-0.0023135298 1179:-0.0019446099 1180:-0.0023135298 1181:-0.0023135298 1182:-0.0023135298 1183:-0.012067606 1184:-0.012067606 1185:-0.012067606 1187:1.5558145e-18 1188:4.0430012e-18 1189:4.0430012e-18 1190:-0.0093030734 1191:-0.0093030734 1192:-0.0093030734 1193:-0.0093030734 1194:-0.0083285384 1195:-0.0089608943 1196:-0.0083285384 1197:4.0430012e-18 1198:4.0430012e-18 1199:4.0430012e-18 1200:4.0430012e-18 1201:4.0430012e-18 1206:4.0430012e-18 1207:4.0430012e-18 1208:-0.0026925018 1209:4.0430012e-18 1210:4.0430012e-18 1211:4.0430012e-18 1212:4.0430012e-18 1213:-1.7145711e-18 1214:4.0430012e-18 1215:-0.00084347185 1216:-0.010672506 1217:-0.010672506 1218:8.7724282e-19 1219:-0.011389166 1220:-0.0060030017 1221:8.7724282e-19 1224:-1.7145711e-18 1228:-4.2070497e-18 1230:-1.7145711e-18 1233:1.5558145e-18 1234:4.0430012e-18 1235:4.0430012e-18 1236:-1.7145711e-18 1237:-1.7145711e-18 1238:-0.0045968271 1240:-0.0045968271 1242:-0.01408008 1243:-0.012037387 1244:-0.0022388468 1245:-0.0022388468 1246:-0.0022388468 1247:-0.0022388468 1248:-0.0022388468 1249:-0.0022388468 1250:-0.0022388468 1251:-0.0020808552 1252:-0.0022388468 1253:-0.0022388468 1254:-0.0022388468 1255:-0.0022388468 1256:-0.0022388468 1261:4.0430012e-18 1262:-4.2070497e-18 1264:4.0430012e-18 1265:4.0430012e-18 1266:4.0430012e-18 1267:4.0430012e-18 1268:-0.0015074159 1269:-4.2070497e-18 1270:4.0430012e-18 1271:4.0430012e-18 1274:-0.00099289895 1275:-0.00099289895 1276:-0.00099289895 1277:-0.00099289895 1278:-0.00099289895 1279:-0.00099289895 1280:-0.00099289895 1281:-0.00099289895 1282:4.0430012e-18 1283:1.5558145e-18 1284:-0.0034128567 1285:4.0430012e-18 1286:-1.7145711e-18 1287:4.0430012e-18 1288:-1.7145711e-18 1289:4.0430012e-18 1292:-0.0061749653 1296:-0.017926423 1297:-0.01928751 1298:-0.01928751 1299:-0.017926423 1300:-0.0010925339 1301:-0.0063918144 1309:-0.0071608089 1310:-0.0057917545 1311:4.0430012e-18 1312:-0.0056107063 1313:4.0430012e-18 1314:4.0430012e-18 1315:4.0430012e-18 1316:4.0430012e-18 1317:-0.001650439 1318:-0.0035224308 1319:-0.0040055793 1320:-0.0085300514 1321:-1.7145711e-18 1322:4.0430012e-18 1323:-1.7145711e-18 1324:-0.01878472 1325:-0.01878472 1326:-0.01878472 1327:-1.7145711e-18 1328:4.0430012e-18 1329:4.0430012e-18 1330:4.0430012e-18 1331:4.0430012e-18 1332:4.0430012e-18 1333:4.0430012e-18 1334:1.5558145e-18 1335:-0.0040120562 1336:4.0430012e-18 1337:-1.7145711e-18 1338:-0.015846575 1339:-0.015846575 1340:-0.015846575 1341:-0.015097358 1342:-0.014031962 1343:-0.015097358 1344:-0.015097358 1345:-0.0072831055 1346:-0.012398983 1347:-0.0092881406 1348:-0.0086326916 1349:-0.010393213 1350:-0.0077694654 1351:-0.013941965 1352:4.0430012e-18 1353:-0.0024047792 1354:-0.0024047792 1361:4.0430012e-18 1363:4.0430012e-18 1364:-1.7145711e-18 1365:4.0430012e-18 1366:-1.7145711e-18 1367:1.5558145e-18 1368:-1.7145711e-18 1369:4.0430012e-18 1370:4.0430012e-18 1371:4.0430012e-18 1372:1.5558145e-18 1373:-0.029020941 1374:-0.02836154 1375:-0.02836154 1377:-0.00057582586 1378:4.0430012e-18 1379:-1.7145711e-18 1380:4.0430012e-18 1381:-0.0046400088 1382:-0.0043125711 1383:-0.0046400088 1384:-0.0046400088 1385:-0.0046400088 1386:-0.003170667 1387:-0.003170667 1388:-0.003170667 1389:-0.013512319 1392:-1.7145711e-18 1393:-1.7145711e-18 1394:4.0430012e-18 1395:-1.7145711e-18 1399:-1.7145711e-18 1400:4.0430012e-18 1401:-1.7145711e-18 1402:4.0430012e-18 1403:4.0430012e-18 1404:4.0430012e-18 1405:4.0430012e-18 1406:4.0430012e-18 1407:4.0430012e-18 1408:4.0430012e-18 1409:4.0430012e-18 1410:4.0430012e-18 1411:4.0430012e-18 1412:1.5558145e-18 1419:4.0430012e-18 1420:-0.0075916899 1421:-0.0059075397 1424:-0.0014400048 1428:-0.00299525 1429:-0.00032623636 1430:-0.00030321439 1431:-0.00030321439 1432:-0.00032623636 1433:-0.00032623636 1434:-0.00032623636 1435:-0.00032623636 1436:-0.00030321439 1437:-0.0018181707 1438:4.0430012e-18 1439:4.0430012e-18 1440:4.0430012e-18 1442:-0.010108852 1443:-0.008797518 1456:-7.8773741e-20 1461:-0.010081109 1462:-0.0011547161 1463:-1.7145711e-18 1464:1.5558145e-18 1465:4.0430012e-18 1466:4.0430012e-18 1467:4.0430012e-18 1468:4.0430012e-18 1469:-0.0022479498 1470:-0.0022479498 1471:-0.0022479498 1472:-0.0022479498 1473:-0.0022479498 1474:-0.0022479498 1475:-0.0022479498 1476:-0.0022479498 1477:-0.0022479498 1478:-0.0022479498 1479:-0.0022479498 1480:-0.0013587365 1481:-0.0013587365 1482:-0.0013587365 1483:-0.0013587365 1484:-0.0013587365 1485:-0.0013587365 1486:-0.0013587365 1487:-0.017254632 1488:-0.0096320929 1489:-0.0012628528 1490:-0.014167011 1491:-0.0013587365 1492:-0.0013587365 1493:-0.0013587365 1494:-0.0013587365 1495:-0.0013587365 1496:-0.0085910484 1497:-1.7145711e-18 1498:-0.040500462 1499:-0.040500462 1500:-0.040500462 1501:4.0430012e-18 1502:4.0430012e-18 1506:-0.0045968271 1507:-0.0049458472 1508:-0.016474312 1510:-0.004170171 1511:-0.004170171 1512:-0.0039456044 1513:-0.0044867964 1514:-0.004170171 1515:-0.0044867964 1516:-0.004170171 1517:-0.004170171 1518:-0.0044867964 1519:-0.0044867964 1520:-0.0034383652 1521:-0.0034383652 1523:1.5558145e-18 1540:-8.4958671e-19 1545:-0.014376022 1546:-0.0017757509 1547:-0.0017757509 1548:-0.0017757509 1549:-0.010350742 1550:-0.010350742 1551:-0.0091022477 1552:-0.011259531 1553:-0.0042404048 1555:-0.0042404048 1561:4.0430012e-18 1562:-0.0085674953 1563:4.0430012e-18 1564:-1.7145711e-18 1565:4.0430012e-18 1577:2.1842072e-18 1583:-0.001549339 1584:-0.001549339 1585:-0.001549339 1586:-0.001549339 1587:-0.001549339 1588:4.0430012e-18 1589:4.0430012e-18 1590:-1.7145711e-18 1591:-0.0030718858 1603:4.0430012e-18 1604:4.0430012e-18 1605:-1.7145711e-18 1606:4.0430012e-18 1607:-1.7145711e-18 1608:4.0430012e-18 1609:4.0430012e-18 1610:4.0430012e-18 1611:4.0430012e-18 1612:4.0430012e-18 1613:4.0430012e-18 1614:4.0430012e-18 1615:4.0430012e-18 1616:4.0430012e-18 1620:-3.3290992e-18 1621:4.0430012e-18 1622:-1.7145711e-18 1623:4.0430012e-18 1624:4.0430012e-18 1625:4.0430012e-18 1626:-1.7145711e-18 1627:2.6305966e-17 1628:4.0430012e-18 1629:4.0430012e-18 1630:4.0430012e-18 1631:4.0430012e-18 1632:1.5558145e-18 1633:4.0430012e-18 1634:4.0430012e-18 1636:-4.256877e-18 1637:4.0430012e-18 1638:4.0430012e-18 1639:1.5558145e-18 1640:4.0430012e-18 1641:-1.7145711e-18 1644:-1.7145711e-18 1645:-0.0026886812 1646:-0.011822145 1647:-0.011822145 1648:-0.011822145 1649:-0.011822145 1650:-0.0022388468 1651:-0.0022388468 1652:-0.0022388468 1667:-1.7145711e-18 1669:-0.0065192287 1670:-0.025647674 1671:4.0430012e-18 1675:4.0430012e-18 1676:4.0430012e-18 1677:4.0430012e-18 1683:4.0430012e-18 1684:4.0430012e-18 1685:4.0430012e-18 1686:4.0430012e-18 1687:4.0430012e-18 1688:4.0430012e-18 1689:4.0430012e-18 1690:4.0430012e-18 1691:4.0430012e-18 1692:4.0430012e-18 1693:4.0430012e-18 1694:4.0430012e-18 1695:4.0430012e-18 1696:4.0430012e-18 1697:-0.040500462 1698:-0.040500462 1699:-0.040500462 1700:-0.019483566 1701:-2.9293052e-18 1702:2.7360366e-18 1703:-2.9293052e-18 1705:-0.0010925339 1708:-0.002163932 1718:4.0430012e-18 1719:4.0430012e-18 1720:4.6304003e-18 1721:-1.7145711e-18 1722:-1.7145711e-18 1723:1.5558145e-18 1724:4.0430012e-18 1725:4.0430012e-18 1726:-0.0007527144 1727:4.0430012e-18 1728:-1.7145711e-18 1731:-0.0022192562 1735:-0.0022192562 1745:4.6304003e-18 1755:-1.7145711e-18 1766:-0.00299525 1767:-0.00299525 1768:-0.00299525 1769:-0.00299525 1775:0.063453957 1782:1.3076671e-18 1784:-0.0080479644 1785:-0.0080479644 1786:-1.7145711e-18 1790:-1.7145711e-18 1792:4.0430012e-18 1793:2.1842072e-18 1794:2.1842072e-18 1795:2.1842072e-18 1796:2.1842072e-18 1797:2.1842072e-18 1798:2.1842072e-18 1799:-0.0023877562 1800:-0.011958196 1801:-0.011958196 1802:-0.011958196 1803:-0.011958196 1804:4.0430012e-18 1805:4.0430012e-18 1806:-0.00079555553 1807:-0.0021998337 1808:-0.0042404048 1809:4.0430012e-18 1810:-0.017529735 1815:-0.020936418 1816:-0.020936418 1817:-0.020936418 1821:-0.013931733 1822:4.0430012e-18 1823:4.0430012e-18 1824:4.0430012e-18 1825:4.0430012e-18 1826:4.0430012e-18 1827:-1.7145711e-18 1828:4.0430012e-18 1829:4.0430012e-18 1830:4.0430012e-18 1831:4.0430012e-18 1832:-1.7145711e-18 1833:4.0430012e-18 1834:4.0430012e-18 1835:4.0430012e-18 1836:4.0430012e-18 1837:4.0430012e-18 1838:4.0430012e-18 1839:-1.7145711e-18 1840:4.0430012e-18 1841:4.0430012e-18 1842:4.0430012e-18 1843:-0.023324572 1844:-0.023324572 1846:-1.7145711e-18 1851:-0.0036719823 1852:-0.0045090183 1853:-0.0034128567 1861:4.0430012e-18 1862:4.0430012e-18 1863:4.0430012e-18 1864:4.0430012e-18 1865:-0.016953569 1866:-0.0068390393 1867:-0.0022870933 1868:-0.0068390393 1869:-0.015171577 1870:-0.0028339538 1871:-0.0032226683 1872:-0.0032226683 1873:-0.0032226683 1874:-0.0032226683 1875:-0.0032226683 1876:-0.0032226683 1877:-0.0032226683 1878:-0.0032226683 1879:-0.0032226683 1880:-0.0032226683 1881:-0.0032226683 1882:-0.0032226683 1883:-0.0064677862 1884:-0.0064677862 1885:-0.0069588618 1886:4.0430012e-18 1887:4.0430012e-18 1888:4.0430012e-18 1889:-0.005469156 1890:4.0430012e-18 1891:4.0430012e-18 1892:4.0430012e-18 1893:-0.011450194 1894:-0.015690465 1895:4.0430012e-18 1896:4.0430012e-18 1897:4.0430012e-18 1898:4.0430012e-18 1899:4.0430012e-18 1900:4.0430012e-18 1901:4.0430012e-18 1902:4.0430012e-18 1907:4.0430012e-18 1908:4.0430012e-18 1909:-0.0017757509 1910:-0.0017757509 1911:-0.0017757509 1912:-0.0017757509 1917:-0.0049701622 1918:-0.0054062032 1919:-0.0054062032 1920:-0.0054062032 1925:-1.7145711e-18 1926:4.0430012e-18 1927:4.0430012e-18 1928:-1.7145711e-18 1929:4.0430012e-18 1930:4.0430012e-18 1931:4.0430012e-18 1932:4.0430012e-18 1933:4.0430012e-18 1934:4.0430012e-18 1935:-0.0017757509 1936:-0.0017757509 1943:-0.013378942 1944:-0.013378942 1945:4.0430012e-18 1947:4.0430012e-18 1948:4.0430012e-18 1949:4.0430012e-18 1950:4.0430012e-18 1951:4.0430012e-18 1952:4.0430012e-18 1953:4.0430012e-18 1954:4.0430012e-18 1958:4.0430012e-18 1959:4.0430012e-18 1960:4.0430012e-18 1961:4.0430012e-18 1962:-0.0016218685 1963:-0.0016218685 1964:-0.0016218685 1965:4.0430012e-18 1966:4.0430012e-18 1967:-0.0056757568 1968:-0.0040119295 1969:4.0430012e-18 1970:4.0430012e-18 1971:4.0430012e-18 1972:4.0430012e-18 1973:-0.0042402707 1974:4.0430012e-18 1975:-0.004562363 1976:-0.004562363 1977:-0.004562363 1978:-0.0042404048 1979:-0.002460744 1980:-0.002460744 1981:-0.002460744 1982:-0.002460744 1983:-0.002460744 1990:-0.012037387 1993:4.0430012e-18 1994:4.0430012e-18 1995:4.0430012e-18 1996:-0.0045622191 1997:-0.0045622191 1998:4.0430012e-18 1999:4.0430012e-18 2000:-1.7145711e-18 2001:4.0430012e-18 2002:4.0430012e-18 2003:4.0430012e-18 2004:4.0430012e-18 2005:4.0430012e-18 2006:4.0430012e-18 2007:4.0430012e-18 2008:4.0430012e-18 2009:4.0430012e-18 2010:4.0430012e-18 2011:4.0430012e-18 2012:4.0430012e-18 2017:4.0430012e-18 2018:4.0430012e-18 2019:4.0430012e-18 2020:4.0430012e-18 2021:4.0430012e-18 2022:4.0430012e-18 2023:-0.0036943546 2024:-0.0036943546 2025:-0.0036943546 2026:-0.0036943546 2027:-0.0036943546 2028:-0.0036943546 2029:-0.0036943546 2030:-0.0036943546 2042:2.1842072e-18 2043:2.1842072e-18 2044:2.1842072e-18 2045:-0.0062804138 2046:4.0430012e-18 2047:4.0430012e-18 2048:4.0430012e-18 2049:4.0430012e-18 2050:4.0430012e-18 2051:4.0430012e-18 2052:4.0430012e-18 2053:4.0430012e-18 2054:4.0430012e-18 2055:4.0430012e-18 2056:4.0430012e-18 2057:4.0430012e-18 2058:4.0430012e-18 2059:4.0430012e-18 2060:4.0430012e-18 2061:4.0430012e-18 2062:4.0430012e-18 2063:-1.7145711e-18 2064:4.0430012e-18 2065:4.0430012e-18 2071:-1.7145711e-18 2072:4.0430012e-18 2073:-0.01546754 2074:-0.01546754 2075:-0.024227455 2076:4.0430012e-18 2077:4.0430012e-18 2078:4.0430012e-18 2079:4.0430012e-18 2080:4.0430012e-18 2081:4.0430012e-18 2082:4.0430012e-18 2083:4.0430012e-18 2084:-1.7145711e-18 2085:4.0430012e-18 2086:4.0430012e-18 2087:4.0430012e-18 2088:4.0430012e-18 2089:4.0430012e-18 2090:4.0430012e-18 2091:4.0430012e-18 2092:4.0430012e-18 2093:4.0430012e-18 2094:4.0430012e-18 2095:4.0430012e-18 2096:4.0430012e-18 2097:4.0430012e-18 2098:4.0430012e-18 2099:4.0430012e-18 2100:4.0430012e-18 2101:4.0430012e-18 2105:-0.0027804747 2106:-0.0027804747 2107:-0.0027804747 2108:-0.0027804747 2109:4.0430012e-18 2110:4.0430012e-18 2111:4.0430012e-18 2112:4.0430012e-18 2113:-0.013340393 2114:-0.0026978974 2115:-0.0026978974 2137:4.0430012e-18 2138:4.0430012e-18 2139:4.0430012e-18 2149:4.0430012e-18 2150:4.0430012e-18 2151:4.0430012e-18 2158:4.0430012e-18 2159:4.0430012e-18 2160:4.0430012e-18 2161:-0.011890945 2162:-0.011890945 2163:-0.011890945 2174:-0.011593587 2175:-0.011593587 2176:-0.011593587 2177:0.026275128 2178:0.026275128 2179:0.026275128 2180:0.026275128 2181:4.0430012e-18 2182:4.0430012e-18 2186:-0.0017757509 2187:4.0430012e-18 2188:4.0430012e-18 2189:4.0430012e-18 2190:-1.7145711e-18 2191:4.0430012e-18 2192:4.0430012e-18 2193:4.0430012e-18 2194:4.0430012e-18 2195:4.0430012e-18 2196:4.0430012e-18 2197:4.0430012e-18 2198:4.0430012e-18 2199:4.0430012e-18 2200:4.0430012e-18 2201:4.0430012e-18 2202:0.011152883 2205:-0.011901419 2206:-0.011901419 2207:-0.011901419 2208:-0.011901419 2210:-0.021654401 2211:-0.021654401 2224:4.0430012e-18 2225:4.0430012e-18 2226:4.0430012e-18 2227:4.0430012e-18 2237:-0.0060367067 2241:4.0430012e-18 2242:-0.0040055793 2243:-0.0040055793 2245:-0.012688676 2246:-0.012688676 2247:-0.012688676 2248:-0.019626051 2249:4.0430012e-18 2250:4.0430012e-18 2251:4.0430012e-18 2252:4.0430012e-18 2253:4.0430012e-18 2254:4.0430012e-18 2255:4.0430012e-18 2256:4.0430012e-18 2257:4.0430012e-18 2258:4.0430012e-18 2259:4.0430012e-18 2260:4.0430012e-18 2261:0.039430059 2262:0.039430059 2266:4.0430012e-18 2267:4.0430012e-18 2268:4.0430012e-18 2269:4.0430012e-18 2270:4.0430012e-18 2271:4.0430012e-18 2272:4.0430012e-18 2273:4.0430012e-18 2274:4.0430012e-18 2275:4.0430012e-18 2276:-0.01084653 2278:4.0430012e-18 2279:4.0430012e-18 2280:4.0430012e-18 2281:4.0430012e-18 2282:4.0430012e-18 2283:4.0430012e-18 2284:4.0430012e-18 2286:4.0430012e-18 2287:4.0430012e-18 2288:4.0430012e-18 2289:1.7141405e-18 2290:-0.0013527951 2291:1.7141405e-18 2292:1.7141405e-18 2293:1.7141405e-18 2294:1.7141405e-18 2295:1.7141405e-18 2296:1.7141405e-18 2297:1.7141405e-18 2298:1.7141405e-18 2299:-0.0013527951 2300:1.7141405e-18 2301:4.0430012e-18 2302:4.0430012e-18 2303:4.0430012e-18 2304:4.0430012e-18 2305:4.0430012e-18 2306:4.0430012e-18 2308:-0.0070282831 2309:-0.0070282831 2310:-0.0014555078 2311:-0.0014555078 2312:-0.0014555078 2313:-0.0014555078 2314:-0.0014555078 2315:-0.0014555078 2316:-0.0014555078 2317:-0.0014555078 2318:-0.0014555078 2319:-0.0014555078 2320:-0.0014555078 2321:-0.017205976 2323:4.0430012e-18 2329:4.0430012e-18 2330:4.0430012e-18 2331:4.0430012e-18 2332:4.0430012e-18 2333:4.0430012e-18 2340:-0.0092179943 2344:4.0430012e-18 2345:0.013925039 2346:0.013925039 2347:0.013925039 2348:0.013925039 2349:-0.00085595914 2350:-0.00085595914 2351:-0.00085595914 2353:-0.0012423896 2354:-0.0012423896 2355:-0.0012423896 2356:-0.0012423896 2357:-0.0012423896 2358:-0.0012423896 2359:3.2061035e-18 2360:3.2061035e-18 2361:4.0430012e-18 2362:4.0430012e-18 2363:4.0430012e-18 2364:4.0430012e-18 2365:4.0430012e-18 2366:4.0430012e-18 2367:4.0430012e-18 2368:4.0430012e-18 #
