SVM-light Version V6.20
0 # kernel type
3 # kernel parameter -d 
1 # kernel parameter -g 
1 # kernel parameter -s 
1 # kernel parameter -r 
empty# kernel parameter -u 
1280 # highest feature index 
131 # number of training documents 
2 # number of support vectors plus 1 
0 # threshold b, each following line is a SV (starting with alpha*y)
1 1:-0.4401972 3:-0.01874887 4:-0.029209258 5:-0.029704962 6:-0.0066430024 7:-0.028725453 8:-0.0075091659 9:-0.0088191871 10:-0.0081464285 11:-0.0061362511 12:-0.0075091659 13:-0.0066430024 14:-0.0075091659 15:-0.0075091659 16:-0.037128869 17:-0.037128869 18:-0.040195093 19:-0.059563152 20:-0.0059862705 21:-0.0090061817 22:-0.094349779 23:-0.10067067 24:-0.015265666 25:-0.022711303 26:-0.031731136 27:-0.025713528 28:8.2290945e-15 29:-0.048070405 30:8.2290945e-15 31:8.2290945e-15 32:8.2290945e-15 33:-0.035076283 34:8.2290945e-15 35:8.2290945e-15 36:-0.0033957916 37:-0.0009476812 38:8.2290945e-15 39:8.2290945e-15 40:-0.031766586 41:-0.0039668679 42:-0.012915024 43:-0.0035092994 44:-0.0039668679 45:-0.01276865 46:-0.01144003 47:-0.0039668679 48:-0.0039668679 49:-0.0035092994 50:-0.0039668679 51:-0.0039668679 52:-0.0039668679 53:-0.0328766 54:-0.016197931 55:-0.023487484 56:-0.016385008 57:-0.016197931 58:-0.016197931 59:8.2290945e-15 60:0.016138602 61:-0.005194189 62:-0.15664545 63:4.0440741e-15 64:8.2290945e-15 65:4.0440741e-15 66:8.2290945e-15 67:8.2290945e-15 68:8.2290945e-15 69:-0.0056231413 70:-0.042690001 71:8.2290945e-15 72:-0.045557398 73:-0.013216002 74:-0.016667454 75:-0.045306336 76:8.2290945e-15 77:8.2290945e-15 78:-0.00090355886 79:-0.0026430441 80:-0.0047047259 81:-0.0042921151 82:-0.011108665 83:-0.10299931 84:-0.042211182 85:-0.042211182 86:-0.05748767 87:-0.012655331 88:8.2290945e-15 89:-0.092678919 90:-0.00067600113 91:8.2290945e-15 92:8.2290945e-15 93:-0.009192463 94:8.2290945e-15 95:8.2290945e-15 96:-0.092678919 97:8.2290945e-15 98:8.2290945e-15 99:8.2290945e-15 100:8.2290945e-15 101:8.2290945e-15 102:-0.040364262 103:-0.050910752 104:-0.038712379 105:-0.013965164 106:-0.016205702 107:-0.0013063616 108:-0.00051817554 109:-0.00084909552 110:4.0440741e-15 111:-8.3700408e-15 112:-0.099409714 113:-0.037128869 114:-0.040195093 115:-0.037128869 116:-0.0098614115 117:-0.011147215 118:-0.0098614115 119:-0.0098614115 120:-0.019842079 121:-0.018463165 122:-0.026236923 123:-0.018717399 124:-0.0214807 125:6.9497359e-15 126:-0.04728416 127:-0.020981479 128:-0.01751088 129:8.2290945e-15 130:-0.016323078 131:-0.0081027402 132:8.2290945e-15 133:-8.3700408e-15 134:6.9497359e-15 135:-0.020579068 136:8.2290945e-15 137:8.2290945e-15 138:8.2290945e-15 139:-0.010098788 140:-0.0088581955 141:-0.0049064048 142:8.2290945e-15 143:8.2290945e-15 144:8.2290945e-15 145:8.2290945e-15 146:8.2290945e-15 147:8.2290945e-15 148:8.2290945e-15 149:-0.049881071 150:-0.054644521 151:-0.049588919 152:-0.024103381 153:-0.016323706 154:-0.0065048807 155:-0.0058737751 156:-0.02215925 157:-0.0058737751 158:-0.0058737751 159:-0.0058737751 160:-0.0058737751 161:-0.0058737751 162:-0.00519625 163:-0.01690897 164:-0.01437233 165:-0.015559242 166:-0.01512804 167:-0.01512804 168:-0.015559242 169:-0.015559242 170:-0.024432626 171:-0.0090532936 172:-0.001328159 173:-0.0030546652 174:-0.0065112202 175:-0.0065112202 176:-0.0017264774 177:-0.0017264774 178:-0.12698676 179:-0.097445115 180:-0.04072465 181:-0.04660172 182:-0.031284094 183:-0.03333262 184:-4.7090293e-11 185:-0.040124964 186:-0.054650094 187:-0.045229722 188:-0.022259902 189:-0.043835577 190:-0.0053787925 191:6.9497359e-15 192:-0.022530576 193:8.2290945e-15 194:-0.015580061 195:-0.014395868 196:8.2290945e-15 197:-0.008273148 198:8.2290945e-15 199:8.2290945e-15 200:-0.009149069 201:-0.0012116781 202:4.0440741e-15 203:8.2290945e-15 204:8.2290945e-15 205:-0.0048298668 206:-0.031409845 207:-0.02313095 208:-0.018901875 209:-0.02313095 210:-0.02313095 211:-0.01860287 212:-0.029136287 213:-0.038120493 214:-6.204167e-11 215:-6.591884e-11 216:-0.0022414224 217:-0.024424924 218:-0.0010259438 219:-0.0022414224 220:8.2290945e-15 221:8.2290945e-15 222:8.2290945e-15 223:8.2290945e-15 224:8.2290945e-15 225:-0.054743137 226:-0.023713859 227:-0.059156436 228:4.0440741e-15 229:-0.036623709 230:8.2290945e-15 231:-0.0213273 232:-0.023673804 233:-0.023673804 234:-0.023673804 235:-0.01221869 236:-0.006674062 237:-0.014078024 238:-0.012191631 239:-0.007012513 240:8.2290945e-15 241:8.2290945e-15 242:4.0440741e-15 243:-0.026901674 244:8.2290945e-15 245:-0.020026537 246:-0.015324841 247:-0.017104158 248:-0.0056848507 249:8.2290945e-15 250:8.2290945e-15 251:-0.0065373634 252:-0.021442601 253:8.2290945e-15 254:-0.025685471 255:4.0440741e-15 256:8.2290945e-15 257:8.2290945e-15 258:8.2290945e-15 259:8.2290945e-15 260:-0.0013086309 261:8.2290945e-15 262:-0.011555425 263:-0.019451112 264:-0.0015398752 265:-0.0084667746 266:-0.00074730103 267:-0.00061848416 268:-0.0010521142 269:-0.00084473967 270:-0.00084473967 271:-0.00084473967 272:-0.00084473967 273:-0.033228021 274:-0.021603074 275:8.2290945e-15 276:-0.015722953 277:-0.0021706033 278:-0.0053609377 279:-0.036178209 280:-0.039165918 281:-0.036178209 282:-0.0037803438 283:-0.004437088 284:-0.004437088 285:-0.039148249 286:-0.0028186718 287:-0.011242077 288:-0.0072330809 289:-8.3700408e-15 290:4.0440741e-15 291:-0.0030514468 292:8.2290945e-15 293:4.0440741e-15 294:-0.015173573 295:-0.021355858 296:-0.0046562636 297:-0.0046562636 298:-0.0041191755 299:-0.056142703 300:-0.073147185 301:-0.04534471 302:-0.0068847006 303:-0.022116855 304:-0.0017410249 305:-0.0068847006 306:-0.0068847006 307:-0.030426495 308:-0.035534516 309:-3.6789169e-10 310:-0.044032697 311:-3.2295593e-11 312:8.2290945e-15 313:-3.4949561e-11 314:8.2290945e-15 315:-0.0036065222 316:8.2290945e-15 317:-0.0057716812 318:-0.0057716812 319:8.2290945e-15 320:-0.004545371 321:-0.0042830422 322:0.072690688 323:-0.0029471826 324:-0.0079350304 325:-0.0052973912 326:-0.0083892187 327:-0.0080415905 328:-0.0058351438 329:-0.0051620747 330:-0.0087457979 331:-0.002155045 332:-0.0040141712 333:-2.5361057e-11 334:-2.8664161e-11 335:-0.041685384 336:-0.010766329 337:-0.041685384 338:-0.010766329 339:-0.010766329 340:-0.0060413536 341:-0.0060413536 342:-0.0060413536 343:-0.0053444984 344:8.2290945e-15 345:8.2290945e-15 346:4.0440741e-15 347:-0.0025614372 348:-0.015209088 349:-0.01263933 350:8.2290945e-15 351:0.0071243378 352:0.005530457 353:-2.5906366e-10 354:-8.870878e-12 355:-1.0023871e-11 356:-1.0023871e-11 357:-0.0098614115 358:-1.6866962e-12 359:-0.0098614115 360:-0.01210903 361:-0.013687895 362:-0.017600777 363:-0.013687895 364:-0.013687895 365:-0.013687895 366:-0.017600777 367:-0.0085415812 368:-0.00097817765 369:-0.0085415812 370:-0.0074277059 371:-0.0085415812 372:-4.5898698e-11 373:-0.00097817765 374:-4.5898698e-11 375:-0.0074095516 376:-3.8606323e-11 377:-3.8606323e-11 378:-3.8606323e-11 379:-3.8606323e-11 380:-4.3636442e-11 381:-0.023923222 382:-0.0044548549 383:-0.023524912 384:-0.0034270685 385:-0.0044548549 386:-0.0044548549 387:-0.0044548549 388:-0.0044548549 389:-0.0044548549 390:8.2290945e-15 391:-0.0076546473 392:-0.0096183326 393:8.2290945e-15 394:8.2290945e-15 395:8.2290945e-15 396:-0.00067600131 397:-0.0076546473 398:-2.0501576e-12 399:8.2290945e-15 400:-0.042016122 401:-0.048682231 402:8.2290945e-15 403:8.2290945e-15 404:-0.0066372147 405:-0.0092418473 406:-0.0075026238 407:-0.0066372147 408:-0.0061309054 409:0.15546337 410:-0.0075026238 411:-0.0075026238 412:-0.0066372147 413:-0.0075026238 414:-0.007560269 415:-0.0058497749 416:-0.0058497749 417:-0.0051750178 418:-0.0085642505 419:-0.0090972818 420:-0.0058497749 421:-0.0058497749 422:-0.0097033419 423:-0.0097033419 424:-0.0097033419 425:-0.015204108 426:-0.013219664 427:-0.015204108 428:-0.012100598 429:-0.0057365615 430:-0.0070709824 431:-0.0062553622 432:-0.0070709824 433:-0.0057365615 434:-0.0070709824 435:-0.0070709824 436:-0.0013281596 437:-0.0062831617 438:-0.0033296193 439:-0.015329781 440:-0.0040631671 441:-0.015329781 442:-0.0040631671 443:-0.0040631671 444:-0.0040631671 445:-0.0067954944 446:-0.0049428511 447:-0.0038829932 448:-0.056152314 449:-0.019826837 450:8.2290945e-15 451:8.2290945e-15 452:8.2290945e-15 453:-0.0033991553 454:8.2290945e-15 455:8.2290945e-15 456:-0.0033991553 457:8.2290945e-15 458:8.2290945e-15 459:8.2290945e-15 460:4.0440741e-15 461:-0.017975254 462:8.2290945e-15 463:-0.013487409 464:-0.0051714233 465:-0.0059469412 466:-0.0059469412 467:-0.0067223473 468:-0.0059469412 469:-0.030984027 470:-0.030984027 471:-0.030984027 472:8.2290945e-15 473:-0.048304312 474:8.2290945e-15 475:8.2290945e-15 476:8.2290945e-15 477:8.2290945e-15 478:8.2290945e-15 479:-1.2485451e-12 480:-0.0056231413 481:-0.0063563283 482:-0.046500005 483:-0.012050172 484:-0.0059104934 485:-0.0031023314 486:-0.0033294761 487:-0.042765033 488:8.2290945e-15 489:8.2290945e-15 490:8.2290945e-15 491:-0.042245403 492:-0.0055324612 493:-0.0062538241 494:-0.0073897531 495:-0.0073897531 496:-0.010013192 497:-0.0061362516 498:-0.0066430024 499:-0.011389587 500:-0.0043522283 501:-0.0043522283 502:-0.00076414336 503:-0.012898314 504:-0.013174701 505:-0.0066933353 506:-0.0066933353 507:-0.0066933353 508:-0.0066933353 509:-0.0034493168 510:-0.0034493168 511:-0.0034493168 512:-0.017670322 513:-0.020098438 514:8.2290945e-15 515:8.2290945e-15 516:8.2290945e-15 517:-0.00056804699 518:4.0440741e-15 519:8.2290945e-15 520:8.2290945e-15 521:8.2290945e-15 522:-0.014038989 523:8.2290945e-15 524:8.2290945e-15 525:8.2290945e-15 526:-0.00076414313 527:-0.00076414313 528:-0.00067600113 529:-0.0091860294 530:-0.0082801795 531:-0.0082801795 532:-0.0088573424 533:-0.0034493166 534:-0.019310474 535:-0.010042353 536:-0.019310474 537:-0.010681102 538:-0.010042353 539:8.2290945e-15 540:8.2290945e-15 541:8.2290945e-15 542:8.2290945e-15 543:8.2290945e-15 544:8.2290945e-15 545:8.2290945e-15 546:8.2290945e-15 547:8.2290945e-15 548:8.2290945e-15 549:8.2290945e-15 550:-0.0036771358 551:8.2290945e-15 552:8.2290945e-15 553:-0.0077369832 554:-0.0068445415 555:-0.0077369832 556:-0.0082621314 557:-4.2501027e-11 558:-0.017653344 559:4.0440741e-15 560:-2.2063607e-12 561:-0.0027709417 562:-0.0026007078 563:-0.0027709417 564:-0.0027709417 565:-0.0021982691 566:-0.0016633029 567:-0.0038568401 568:-4.7846622e-11 569:-4.7846622e-11 570:-0.0095509915 571:-0.008263397 572:8.2290945e-15 573:8.2290945e-15 574:8.2290945e-15 575:8.2290945e-15 576:-0.0035092994 577:8.2290945e-15 578:-0.0070338473 579:-0.0015986448 580:-0.0070338473 581:-0.023239363 582:-0.0041555604 583:-0.0041555604 584:-0.0041555604 585:-0.0041555604 586:-0.0041555604 587:-0.0041555604 588:-0.0012371008 589:-0.0011773935 590:-0.003222737 591:-0.017965039 592:-0.0095103113 593:-0.0095103113 594:-0.0046735466 595:-5.5345697e-11 596:-0.0046735466 597:-6.2558417e-11 598:-5.5345697e-11 599:-0.025917388 600:-1.2265049e-10 601:-1.2265049e-10 602:-1.2265049e-10 603:-1.2265049e-10 604:-1.2265049e-10 605:-1.2265049e-10 606:-7.9545935e-13 607:-0.035864774 608:-0.012352803 609:-0.0058103311 610:-5.1135842e-11 611:8.2290945e-15 612:8.2290945e-15 613:8.2290945e-15 614:8.2290945e-15 615:8.2290945e-15 616:8.2290945e-15 617:-0.020740366 618:-0.020740366 619:-0.019367881 620:-0.0033294761 621:8.2290945e-15 622:8.2290945e-15 623:8.2290945e-15 624:8.2290945e-15 625:8.2290945e-15 626:-8.3700408e-15 627:8.2290945e-15 628:-0.039312538 629:-1.0975177e-10 630:-9.7095408e-11 631:-1.0975177e-10 632:-1.0975177e-10 633:8.2290945e-15 634:-0.0024470631 635:8.2290945e-15 636:8.2290945e-15 637:8.2290945e-15 638:-0.0093992921 639:-0.0093992921 640:-0.0093992921 641:-0.0093992921 642:-0.0093992921 643:-0.0093992921 644:-8.3700408e-15 645:-0.0053654788 646:-0.0053654788 647:-0.0053654788 648:-0.0053654788 649:8.2290945e-15 650:8.2290945e-15 651:-0.015604446 652:4.0440741e-15 653:8.2290945e-15 654:8.2290945e-15 655:-0.008280036 656:-0.008280036 657:8.2290945e-15 658:-0.010815723 659:-0.0095681567 660:-0.010815723 661:-0.010815723 662:-0.0095681567 663:8.2290945e-15 664:8.2290945e-15 665:4.0440741e-15 666:6.9497359e-15 667:4.0440741e-15 668:-0.002910601 669:-0.00084010931 670:-0.00084010931 671:-0.00240146 672:-0.0044090007 673:-0.0044090007 674:-0.0044090007 675:-0.0058899294 676:-0.0040767672 677:-0.0040767672 678:-0.0078033623 679:-0.0040767672 680:-0.0058899294 681:-0.0040767672 682:-0.0040767672 683:-0.0040767672 684:-0.0040767672 685:-0.0078033623 686:-0.035438843 687:8.2290945e-15 688:8.2290945e-15 689:8.2290945e-15 690:8.2290945e-15 691:8.2290945e-15 692:8.2290945e-15 693:-0.010965542 694:-0.010965542 695:-0.010965542 696:0.12346048 697:-0.068339273 698:8.2290945e-15 699:8.2290945e-15 700:-0.014725219 701:4.0440741e-15 702:8.2290945e-15 703:-0.0038584643 704:-0.0036722401 705:-0.0014792598 706:-0.0014792598 707:-0.0014792598 708:-0.0014792598 709:-0.0014792598 710:-0.0014792598 711:-0.0014792598 712:-0.0014792598 713:-0.0014792598 714:-0.0014792598 715:-0.0014792598 716:-0.0014792598 717:8.2290945e-15 718:-0.0010259438 719:-8.3700408e-15 720:-8.3700408e-15 721:8.2290945e-15 722:-0.0088841487 723:8.2290945e-15 724:8.2290945e-15 725:-9.174566e-11 726:8.2290945e-15 727:8.2290945e-15 728:8.2290945e-15 729:4.0440741e-15 730:4.0440741e-15 731:4.0440741e-15 732:-0.011415543 733:-0.0033491352 734:-0.0033491352 735:-0.0033491352 736:-0.013265423 737:-0.013265423 738:-0.013265423 739:-0.013265423 740:-0.0028142615 741:-0.0028142615 742:-0.0028142615 743:-0.0036495463 744:8.2290945e-15 745:8.2290945e-15 746:8.2290945e-15 747:-0.03248281 748:-0.0051931599 749:-0.0061896541 750:-0.0065748924 751:8.2290945e-15 752:4.0440741e-15 753:-0.014379981 754:-0.0099078789 755:-0.015567568 756:-0.015567568 757:-0.015567568 758:-0.0080459481 759:-0.0080459481 760:-0.0080459481 761:-0.0071178679 762:-0.016685957 763:-0.0039668679 764:-0.024428304 765:-0.024428304 766:-0.024428304 767:-7.9545935e-13 768:-0.0034493166 769:-0.0034493166 770:-0.0034493166 771:-0.0030514465 772:-0.0028013489 773:-0.0075073619 774:8.2290945e-15 775:4.0440741e-15 776:8.2290945e-15 777:8.2290945e-15 778:8.2290945e-15 779:8.2290945e-15 780:8.2290945e-15 781:8.2290945e-15 782:-0.042115878 783:-0.042115878 784:-0.042115878 785:-0.016053993 786:8.2290945e-15 787:8.2290945e-15 788:8.2290945e-15 789:8.2290945e-15 790:8.2290945e-15 791:8.2290945e-15 792:-0.014842599 793:8.2290945e-15 794:8.2290945e-15 795:8.2290945e-15 796:8.2290945e-15 797:8.2290945e-15 798:8.2290945e-15 799:8.2290945e-15 800:8.2290945e-15 801:8.2290945e-15 802:8.2290945e-15 803:8.2290945e-15 804:8.2290945e-15 805:-0.014842599 806:8.2290945e-15 807:8.2290945e-15 808:8.2290945e-15 809:8.2290945e-15 810:8.2290945e-15 811:8.2290945e-15 812:8.2290945e-15 813:8.2290945e-15 814:-0.029849885 815:8.2290945e-15 816:8.2290945e-15 817:8.2290945e-15 818:8.2290945e-15 819:8.2290945e-15 820:4.0440741e-15 821:4.0440741e-15 822:8.2290945e-15 823:8.2290945e-15 824:8.2290945e-15 825:8.2290945e-15 826:8.2290945e-15 827:8.2290945e-15 828:8.2290945e-15 829:8.2290945e-15 830:8.2290945e-15 831:8.2290945e-15 832:8.2290945e-15 833:8.2290945e-15 834:8.2290945e-15 835:8.2290945e-15 836:8.2290945e-15 837:8.2290945e-15 838:8.2290945e-15 839:8.2290945e-15 840:8.2290945e-15 841:8.2290945e-15 842:8.2290945e-15 843:-0.0069452752 844:8.2290945e-15 845:8.2290945e-15 846:-0.0069452752 847:-1.101267e-10 848:-1.101267e-10 849:-1.101267e-10 850:-4.1137829e-11 851:-4.1137829e-11 852:-3.6395918e-11 853:-0.016237497 854:-0.016237497 855:-0.016237497 856:-0.0016081107 857:-0.011147215 858:8.2290945e-15 859:8.2290945e-15 860:-0.0038069796 861:-0.0038069796 862:-0.0038069796 863:-0.0038069796 864:-0.0038069796 865:-0.0038069796 866:-5.2455224e-11 867:-5.9291065e-11 868:8.2290945e-15 869:-2.2063607e-12 870:8.2290945e-15 871:8.2290945e-15 872:-0.0099156573 873:8.2290945e-15 874:8.2290945e-15 875:8.2290945e-15 876:-0.046157248 877:-0.0063129794 878:8.2290945e-15 879:8.2290945e-15 880:8.2290945e-15 881:-0.018516675 882:8.2290945e-15 883:8.2290945e-15 884:8.2290945e-15 885:8.2290945e-15 886:8.2290945e-15 887:8.2290945e-15 888:8.2290945e-15 889:8.2290945e-15 890:-0.006102758 891:-0.006102758 892:-0.006102758 893:-0.0076958407 894:-0.006102758 895:-0.006102758 896:-0.006102758 897:-0.006102758 898:-0.006102758 899:-0.006102758 900:-0.006102758 901:-0.006102758 902:-0.006102758 903:-0.006102758 904:-0.043090925 905:8.2290945e-15 906:-0.018523689 907:8.2290945e-15 908:8.2290945e-15 909:8.2290945e-15 910:-0.045207929 911:-0.0036495463 912:8.2290945e-15 913:8.2290945e-15 914:-0.021603074 915:-0.019111212 916:-0.01213417 917:-0.01213417 918:-0.01213417 919:8.2290945e-15 920:8.2290945e-15 921:8.2290945e-15 922:8.2290945e-15 923:6.9497359e-15 924:8.2290945e-15 925:-0.0053670988 926:8.2290945e-15 927:8.2290945e-15 928:8.2290945e-15 929:-0.00084473967 930:-0.00084473967 931:-0.00084473967 932:-0.00084473967 933:-0.00084473967 934:-0.00084473967 935:-0.00074730103 936:-0.00084473967 937:-0.00084473967 938:-0.00084473967 939:-0.00089591584 940:-0.00089591584 941:-0.00089591584 942:-0.00089591584 943:-0.00089591584 944:-0.00089591584 945:-0.00089591584 946:-0.018218298 947:-0.018218298 948:-0.0020986493 949:-0.0018565753 950:-0.0020986493 951:-0.0020986493 952:-0.0020986493 953:-0.0018565753 954:-0.0020986493 955:-0.0018565753 956:-0.0018565753 957:8.2290945e-15 958:8.2290945e-15 959:-0.0062240674 960:-0.0062240674 961:-0.0062240674 962:-0.0062240674 963:-0.0062240674 964:-0.0062240674 965:-0.0062240674 966:-0.0062240674 967:-0.0062240674 968:-8.3289452e-12 969:-8.3289452e-12 970:-0.016505061 971:-0.0011057196 972:-0.0011057196 973:-0.0011057196 974:-0.0011057196 975:-0.012844428 976:8.2290945e-15 977:-0.012844428 978:8.2290945e-15 979:8.2290945e-15 980:8.2290945e-15 981:8.2290945e-15 982:8.2290945e-15 983:8.2290945e-15 984:8.2290945e-15 985:8.2290945e-15 986:-0.005282918 987:-0.0059719374 988:-0.0059719374 989:-6.2558417e-11 990:8.2290945e-15 991:8.2290945e-15 992:8.2290945e-15 993:-0.0075066318 994:8.2290945e-15 995:8.2290945e-15 996:-0.0056196018 997:-0.0056196018 998:8.2290945e-15 999:-0.014947993 1000:-0.0047310111 1001:-0.0047310111 1002:-0.0047310111 1003:-0.0065679247 1004:-0.013936884 1005:-0.0065679247 1006:-0.0065679247 1007:-0.0065679247 1008:-0.0065679247 1009:-0.0065679247 1010:-0.013936884 1011:-1.1505532e-10 1012:8.2290945e-15 1013:8.2290945e-15 1014:8.2290945e-15 1015:8.2290945e-15 1016:8.2290945e-15 1017:8.2290945e-15 1018:8.2290945e-15 1019:-0.0036495463 1020:8.2290945e-15 1021:8.2290945e-15 1022:8.2290945e-15 1023:8.2290945e-15 1024:8.2290945e-15 1025:8.2290945e-15 1026:8.2290945e-15 1027:-0.001159714 1028:-0.001159714 1029:-0.001159714 1030:8.2290945e-15 1031:8.2290945e-15 1032:8.2290945e-15 1033:8.2290945e-15 1034:-0.036718156 1035:-0.013963453 1036:-0.013963453 1037:-0.010796321 1038:-0.010796321 1039:-0.010796321 1040:4.0440741e-15 1041:8.2290945e-15 1042:8.2290945e-15 1043:8.2290945e-15 1044:-0.0081908908 1045:-0.0081908908 1046:-0.0081908908 1047:-0.0033149372 1048:-0.0033149372 1049:-0.0033149372 1050:-0.0033149372 1051:-0.0033149372 1052:-0.0033149372 1053:-0.0033149372 1054:-0.0033149372 1055:-0.0033149372 1056:-0.0033149372 1057:-0.0033149372 1058:-0.0033149372 1059:-0.0033149372 1060:-0.0033149372 1061:-0.0095025934 1062:-0.0095025934 1063:8.2290945e-15 1064:8.2290945e-15 1065:-0.02410811 1066:-3.9502884e-11 1067:-0.0032933913 1068:-0.02712455 1069:-0.0032933913 1070:-0.0032933913 1071:-0.0032933913 1072:-0.02712455 1073:-0.0091861533 1074:-0.0091861533 1075:-0.0091861533 1076:-0.0078508519 1077:-0.0078508519 1078:-0.010512479 1079:-0.010512479 1080:-0.010512479 1081:-0.010512479 1082:-0.010512479 1083:-0.0047440552 1084:-0.0047440552 1085:8.2290945e-15 1086:8.2290945e-15 1087:8.2290945e-15 1088:8.2290945e-15 1089:8.2290945e-15 1090:8.2290945e-15 1091:8.2290945e-15 1092:8.2290945e-15 1093:8.2290945e-15 1094:8.2290945e-15 1095:8.2290945e-15 1096:8.2290945e-15 1097:8.2290945e-15 1098:8.2290945e-15 1099:-0.0083514415 1100:8.2290945e-15 1101:8.2290945e-15 1102:8.2290945e-15 1103:8.2290945e-15 1104:-0.0022834069 1105:8.2290945e-15 1106:8.2290945e-15 1107:-0.012908706 1108:-0.012908706 1109:-0.012908706 1110:-0.0081761833 1111:-0.0081761833 1112:-0.0081761833 1113:-0.0081761833 1114:4.0440741e-15 1115:4.0440741e-15 1116:-8.3700408e-15 1117:-8.3700408e-15 1118:-8.3700408e-15 1119:4.0440741e-15 1120:4.0440741e-15 1121:4.0440741e-15 1122:4.0440741e-15 1123:8.2290945e-15 1124:-0.009123777 1125:-0.01451918 1126:-0.01451918 1127:-0.01451918 1128:8.2290945e-15 1129:-0.016777886 1130:-0.016777886 1131:-0.016777886 1132:-0.016777886 1133:-4.1137829e-11 1134:-3.1940169e-11 1135:-3.1940169e-11 1136:-3.1940169e-11 1137:-3.1940169e-11 1138:-3.1940169e-11 1139:-0.0056848782 1140:-0.0056848782 1141:-0.0056848782 1142:-0.0056848782 1143:-0.0056848782 1144:-0.030984027 1145:-0.030984027 1146:-0.030984027 1147:-6.7005654e-12 1148:-6.7005654e-12 1149:-6.7005654e-12 1150:-6.7005654e-12 1151:-0.01375736 1152:-0.01375736 1153:-0.0021761842 1154:8.2290945e-15 1155:8.2290945e-15 1156:8.2290945e-15 1157:-0.0017264774 1158:-0.0017264774 1159:-0.0017264774 1160:-0.0017264774 1161:-0.0017264774 1162:-0.0017264774 1163:8.2290945e-15 1164:8.2290945e-15 1165:8.2290945e-15 1166:8.2290945e-15 1167:8.2290945e-15 1168:8.2290945e-15 1169:8.2290945e-15 1170:8.2290945e-15 1171:-0.020487929 1172:-0.020487929 1173:-0.020487929 1174:-0.0055641136 1175:-0.0055641136 1176:-0.0055641136 1177:-0.0055641136 1178:-0.0055641136 1179:-0.0055641136 1180:-0.027367858 1181:-0.038354754 1182:-0.015957462 1183:8.2290945e-15 1184:-0.01846643 1185:-0.01846643 1186:-0.01846643 1187:-0.022668149 1188:-0.0024599312 1189:-0.0024599312 1190:-0.0024599312 1191:-0.011503587 1192:-0.011503587 1193:8.2290945e-15 1194:8.2290945e-15 1195:8.2290945e-15 1196:8.2290945e-15 1197:8.2290945e-15 1198:8.2290945e-15 1199:8.2290945e-15 1200:-0.012124652 1201:-0.0059104934 1202:-0.0059104934 1203:-0.0059104934 1204:-0.0059104934 1205:-0.0059104934 1206:-0.0059104934 1207:8.2290945e-15 1208:4.0440741e-15 1209:8.2290945e-15 1210:8.2290945e-15 1211:8.2290945e-15 1212:8.2290945e-15 1213:8.2290945e-15 1214:8.2290945e-15 1215:8.2290945e-15 1216:8.2290945e-15 1217:8.2290945e-15 1218:8.2290945e-15 1219:8.2290945e-15 1220:8.2290945e-15 1221:8.2290945e-15 1222:8.2290945e-15 1223:8.2290945e-15 1224:8.2290945e-15 1225:8.2290945e-15 1226:8.2290945e-15 1227:-0.0025811344 1228:-0.0025811344 1229:-0.0025811344 1230:-0.0025811344 1231:-0.0025811344 1232:-0.010825403 1233:-0.043420613 1234:8.2290945e-15 1235:8.2290945e-15 1236:8.2290945e-15 1237:8.2290945e-15 1238:8.2290945e-15 1239:8.2290945e-15 1240:8.2290945e-15 1241:-0.0096552949 1242:8.2290945e-15 1243:-0.0044090007 1244:-0.0044090007 1245:-0.0044090007 1246:8.2290945e-15 1247:8.2290945e-15 1248:8.2290945e-15 1249:8.2290945e-15 1250:8.2290945e-15 1251:-0.0017264774 1252:-0.0017264774 1253:-0.0017264774 1254:8.2290945e-15 1255:8.2290945e-15 1256:8.2290945e-15 1257:8.2290945e-15 1258:8.2290945e-15 1259:8.2290945e-15 1260:8.2290945e-15 1261:8.2290945e-15 1262:8.2290945e-15 1263:8.2290945e-15 1264:-3.0872308e-11 1265:-3.0872308e-11 1266:-3.0872308e-11 1267:-0.0063523273 1268:-0.0063523273 1269:-0.0063523273 1270:-0.012221508 1271:-0.012221508 1272:-0.012221508 1273:-0.012221508 1274:-0.012221508 1275:-0.0024599312 1276:-0.0024599312 1277:-8.4203623e-11 1278:-8.4203623e-11 1279:-8.4203623e-11 #
