SVM-light Version V6.20
0 # kernel type
3 # kernel parameter -d 
1 # kernel parameter -g 
1 # kernel parameter -s 
1 # kernel parameter -r 
empty# kernel parameter -u 
2359 # highest feature index 
49 # number of training documents 
2 # number of support vectors plus 1 
0 # threshold b, each following line is a SV (starting with alpha*y)
1 1:-0.46299496 3:-0.044108596 4:-0.012213252 5:-0.037726257 6:-0.030198645 7:8.0964048e-17 8:-0.045990009 9:-0.012965264 10:-0.041408099 11:-0.017702011 12:1.9132684e-17 13:1.9132684e-17 14:2.0469465e-18 15:8.091183e-17 16:-0.0047499617 17:4.5111152e-17 18:-0.031903595 19:-0.059683781 20:-0.04502888 21:-0.020296361 22:-0.027638167 23:-0.0040735239 24:-0.034623891 25:-0.037308078 26:-0.0067122984 27:4.5111152e-17 28:-6.6327338e-17 29:-0.0039843242 30:-0.0034539963 31:-0.045337293 32:-0.0089675058 33:-0.021586938 34:-0.0070333797 35:-0.036233384 36:-0.0089675058 37:-0.0089675058 38:-0.0089675058 39:-0.0083415816 40:-0.023427946 41:-0.057997648 42:2.7048936e-18 43:-0.059944686 46:-0.012640568 47:-0.034839917 48:-0.051289197 49:-0.024054803 50:-0.0025938232 51:-0.034839917 52:-0.051504433 53:-0.028240368 54:-0.0307544 55:-0.031255845 56:-7.8673929e-19 57:-0.0012866064 58:-0.044929706 59:1.9132684e-17 60:-0.011074343 61:-0.021535503 62:-0.018583702 63:-0.014081454 64:-0.06597925 65:-0.030393194 66:-0.049808554 67:2.0469465e-18 68:2.0469465e-18 69:2.0469465e-18 72:8.1449676e-17 73:-6.9361205e-17 74:-3.0495326e-18 75:-0.030749319 76:-2.4965438e-17 77:-0.021772966 78:-0.016669422 79:-0.025725598 80:-0.012854125 81:-0.017118229 82:-0.010619379 83:2.0469465e-18 84:-0.0056770719 85:-0.0025620125 86:2.0469465e-18 87:2.0469465e-18 88:-3.3523972e-18 89:-0.0042600324 90:-0.00088431261 91:-0.0384559 92:-0.034504108 93:-0.014350851 94:-0.011620414 95:-0.0018148017 96:-0.0016726978 98:-0.015852885 99:-0.052364338 100:-0.022148566 101:-0.055879831 102:-0.018431734 103:-0.028273448 104:-0.0053163962 105:-0.020034051 106:-0.023083087 107:-0.008967991 108:-0.025377898 109:-0.023413826 110:-0.029251866 111:-0.0052752513 112:-3.3523972e-18 113:-0.05039794 114:2.0469465e-18 115:1.9132684e-17 117:-0.0053163962 118:1.9132684e-17 119:1.9132684e-17 120:-0.014092498 121:-0.0042954949 122:-2.4965438e-17 123:-0.0010772641 124:-3.8897209e-17 125:-6.9361205e-17 126:-0.012296841 127:-0.0031044139 128:-6.6327338e-17 129:-0.0044582929 130:1.9132684e-17 131:-3.3523972e-18 132:2.0469465e-18 133:-0.050704423 134:-0.018145438 135:-0.0045467047 136:-0.036210272 137:-0.0099083632 138:9.3348263e-19 139:2.0469465e-18 140:-3.8897209e-17 142:-0.0092609031 143:-0.036210272 144:-0.031790357 145:-0.034175795 146:-0.031790357 147:-0.019819606 148:1.9132684e-17 149:-0.017594924 150:-0.012456089 151:-0.0044126962 152:-6.9361205e-17 154:2.0469465e-18 155:-0.012319841 156:-0.021365628 158:-0.011150111 159:-0.064728454 160:2.0469465e-18 161:-0.022477977 162:2.7048936e-18 164:2.0469465e-18 166:2.0469465e-18 167:2.0469465e-18 168:2.7048936e-18 170:2.0469465e-18 171:2.0469465e-18 172:2.0469465e-18 173:2.0469465e-18 174:-0.00253162 175:-0.042503491 176:-0.006115817 177:-0.012084167 178:2.0469465e-18 179:-0.00253162 180:-0.0056971693 181:-0.040728755 182:-0.0089412164 183:-0.0020737157 184:1.7836971e-18 185:-0.011928446 186:-0.018765464 187:1.7836971e-18 188:-0.0087528126 189:-0.0034197974 190:-0.0063744611 191:-0.0060964278 192:-0.0072023128 193:-0.0022498879 194:1.8910962e-17 195:-3.5658532e-18 196:1.7836971e-18 197:1.7836971e-18 198:-2.4487485e-19 199:1.7836971e-18 200:1.7836971e-18 201:-0.0034197974 202:1.7836971e-18 203:-0.0063744611 204:-0.0067330017 205:-0.0067330017 206:-0.038305879 207:-0.039745647 208:2.0469465e-18 210:-3.3523972e-18 211:-0.018788727 212:-0.015860744 213:-0.061846368 214:-0.031608988 216:-0.0087084798 217:-0.013206135 218:-0.0090201953 219:-0.0057010986 220:-0.005367619 221:-0.0033632752 222:-0.0036365225 223:-0.0062605818 224:-0.0058443574 225:-0.012409194 226:-0.0070497231 227:-0.0058443574 228:-0.0058443574 229:2.0469465e-18 230:2.0469465e-18 231:2.7048936e-18 233:-0.044088736 234:4.5111152e-17 235:1.4151085e-18 236:-0.057667945 237:-0.0028415213 238:-0.015310333 239:-0.036908627 240:-0.043915231 241:8.1449676e-17 242:8.1449676e-17 243:2.0469465e-18 244:2.0469465e-18 245:-0.039971814 246:-0.001656467 247:2.0469465e-18 248:2.0469465e-18 249:-0.024418499 250:-0.017546406 251:2.0469465e-18 252:-0.018195083 253:2.0469465e-18 254:2.0469465e-18 255:2.0469465e-18 256:2.0469465e-18 257:2.0469465e-18 258:2.0469465e-18 259:2.0469465e-18 260:-0.0023089428 261:2.0469465e-18 262:2.0469465e-18 263:2.0469465e-18 264:2.0469465e-18 265:-6.6327338e-17 266:2.0469465e-18 267:2.0469465e-18 269:2.0469465e-18 270:-0.006054441 271:2.0469465e-18 272:2.7048936e-18 273:-0.023297673 274:-0.0051389453 275:-0.0045700581 276:2.0469465e-18 277:2.7048936e-18 278:-3.3523972e-18 279:2.0469465e-18 280:-0.0014533084 281:-0.0016673935 282:-0.013512209 283:-0.0016673935 284:-0.0015510109 285:-0.0016673935 286:-0.0016673935 287:-0.0016673935 288:-0.01040667 289:-0.008409882 290:-0.0093438998 291:-0.0016673935 292:-0.0016673935 293:-0.0027342481 294:2.0469465e-18 295:-0.015856165 296:2.0469465e-18 297:2.0469465e-18 299:2.0469465e-18 300:2.0469465e-18 301:-0.010519765 302:-0.0029484511 303:-6.9361205e-17 304:-0.0012928304 305:2.0469465e-18 306:2.0469465e-18 307:-0.0093682213 308:-0.0028727034 309:-0.0062263929 310:-0.0054833763 311:-0.0057917964 312:-0.056353185 313:-0.016560344 314:-0.0035866695 315:-0.0035866695 316:-0.0035866695 317:-0.0021110766 318:-0.0019637255 319:-0.0021110766 320:-0.0017780644 321:-0.0021110766 322:-0.0021110766 323:-0.0021110766 324:-0.0054856716 325:-0.0019637255 326:-0.0021110766 327:-0.0021110766 328:-0.0021110766 329:-0.0019637255 330:-0.0014037982 331:-0.0021110766 332:-0.0021110766 333:-0.019663231 334:-0.020643249 335:2.0469465e-18 336:2.0469465e-18 338:-0.007377937 339:-0.006060183 340:-0.011861878 341:-0.0080097495 342:-0.0094891237 343:-0.012550998 344:2.0469465e-18 345:2.0469465e-18 346:2.0469465e-18 347:-0.0098389601 348:2.7048936e-18 349:2.7048936e-18 350:2.0469465e-18 351:2.0469465e-18 352:2.0469465e-18 353:2.0469465e-18 354:2.0469465e-18 355:2.0469465e-18 356:-6.6327338e-17 357:-6.6327338e-17 358:-0.019356878 359:-0.0093332836 360:-0.012412529 361:2.0469465e-18 362:2.0469465e-18 363:2.0469465e-18 364:2.0469465e-18 365:2.7048936e-18 367:-0.011072909 368:2.0469465e-18 369:-0.0052589276 370:2.0469465e-18 371:2.0469465e-18 372:-2.4965438e-17 373:-3.8897209e-17 374:2.7048936e-18 375:1.642208e-17 376:2.0469465e-18 377:-0.0016362942 378:2.0469465e-18 379:-0.0049788835 380:-0.0099734822 381:-0.00060454325 383:2.0469465e-18 384:2.0469465e-18 385:-0.00027324725 386:-0.012887964 387:-0.0075392877 388:-0.012318353 389:-0.004687224 390:-0.0038029116 391:-0.007153709 392:-0.0046900292 393:-0.0010905991 394:-0.0072074938 395:-0.0038440078 396:-0.0065357466 397:-0.0070261667 398:-0.0070261667 399:-0.0059178225 400:-0.0059178225 401:-0.011091227 402:2.0469465e-18 403:1.9132684e-17 404:-0.0069820592 405:-0.0079281526 406:-0.0073747751 407:-0.0079281526 408:-0.035248492 409:-0.031751037 410:-0.02188253 411:-3.3523972e-18 412:2.0469465e-18 413:-0.017970942 414:2.0469465e-18 415:1.9132684e-17 416:-0.0044841822 417:-0.01840122 418:-0.0044841822 419:-0.0050918045 420:-0.0050918045 421:-0.01840122 422:-0.0216725 423:-0.031790357 424:-0.031790357 425:-0.034175795 426:-0.022371111 427:-0.030786604 428:-0.01107874 429:-0.0084073273 430:-0.030928332 431:2.0469465e-18 432:2.0469465e-18 433:2.0469465e-18 435:2.0469465e-18 436:2.0469465e-18 437:2.0469465e-18 438:2.0469465e-18 439:2.0469465e-18 440:2.0469465e-18 441:2.0469465e-18 442:-0.0052589811 443:-0.013859012 444:-0.001963398 445:-0.0070155635 446:-0.004761769 447:-0.0052589811 448:2.0469465e-18 449:-0.02373156 450:-0.005447288 451:-0.022330826 452:-0.019200146 453:-0.006054441 454:-0.006054441 455:-0.0027051929 456:2.0469465e-18 457:2.0469465e-18 458:-0.031790357 459:-0.034175795 460:-0.031790357 461:-0.0044467943 462:-0.0071744854 463:-0.0070967856 464:-0.0021110766 465:-0.0021110766 466:-0.0021110766 467:-0.0021110766 468:-0.0021110766 469:-0.012590741 470:-0.021931393 471:-0.0089698043 472:2.0469465e-18 474:1.9132684e-17 475:2.7048936e-18 478:-0.0024896907 479:-0.011384641 480:-0.077986136 481:-0.012927299 482:-0.012927299 484:-0.0020201076 485:-0.0020201076 486:-0.0020201076 487:-0.0020201076 488:-0.0095675196 489:-0.0036732801 490:2.7048936e-18 491:1.9132684e-17 492:-0.017341191 493:-0.0062927324 494:-0.0085251378 495:2.0469465e-18 496:2.0469465e-18 498:-2.3090811e-17 499:-0.0012575922 500:2.7048936e-18 501:-0.0082900831 503:-3.3523972e-18 504:-0.003360525 505:2.0469465e-18 506:2.0469465e-18 507:-0.0038934397 508:-0.0038934397 509:-0.0038934397 510:-0.0038934397 511:-0.00418559 513:-0.00253162 514:-0.012818143 515:-0.0051548658 516:-0.0099794129 517:-0.0052060159 518:2.0469465e-18 519:-0.0082879253 521:-0.018946368 522:2.0469465e-18 523:2.0469465e-18 524:-6.9530499e-17 525:2.0469465e-18 526:1.9132684e-17 528:-0.0024664849 529:2.0469465e-18 530:-6.6327338e-17 532:2.0469465e-18 533:2.0469465e-18 534:-0.03980564 535:1.181206e-18 536:-8.053127e-19 537:1.181206e-18 538:1.181206e-18 539:1.181206e-18 540:1.181206e-18 541:2.0469465e-18 542:2.0469465e-18 543:2.0469465e-18 544:1.9132684e-17 545:2.0469465e-18 546:1.9132684e-17 547:-0.0085162465 548:1.9132684e-17 549:-0.0065802992 550:2.0469465e-18 551:-0.0010144763 552:-3.3523972e-18 553:-2.3090811e-17 554:-3.3523972e-18 555:-0.002292267 556:2.0469465e-18 557:-0.0030375354 558:-0.010626445 559:-6.9361205e-17 560:1.9132684e-17 562:-0.011982688 563:2.7048936e-18 565:-0.013619133 566:-3.8897209e-17 567:2.0469465e-18 569:1.9132684e-17 570:2.0469465e-18 571:-0.00029375078 572:-0.013693874 573:-0.00029375078 574:-0.00029375078 575:-0.00029375078 576:-0.013693874 577:-3.8897209e-17 578:-0.0015644161 579:-0.0049684662 580:2.0469465e-18 581:1.9132684e-17 582:-0.0093096234 583:-0.020892229 584:1.9132684e-17 585:2.0469465e-18 586:-0.0077689779 587:-0.0085801948 588:2.7048936e-18 589:2.0469465e-18 590:2.0469465e-18 591:-0.0015491595 592:2.0469465e-18 593:2.0469465e-18 594:2.0469465e-18 595:-2.7146544e-17 596:-0.046731975 597:-0.0012694134 598:-0.0014043701 599:-0.0015510109 600:-0.030818706 601:-0.030818706 602:-0.030818706 603:2.0469465e-18 605:2.0469465e-18 606:2.0469465e-18 607:-0.0061877104 608:2.0469465e-18 609:2.0469465e-18 610:-0.013085521 611:-0.0072255759 612:2.0469465e-18 613:2.0469465e-18 614:-0.034691837 615:-0.0073827449 616:-0.0084298821 617:-0.0067835213 618:-0.034691837 619:1.9132684e-17 620:2.0469465e-18 621:-0.0067835213 622:-6.6327338e-17 623:2.7048936e-18 624:-0.0067835213 625:2.0469465e-18 626:2.0469465e-18 627:2.7048936e-18 628:2.0469465e-18 629:2.0469465e-18 630:2.0469465e-18 631:-0.020232046 632:-0.015422699 633:-0.0074719526 634:-0.0074719526 635:-0.0255317 636:-0.02124724 637:-0.021082483 638:-0.02124724 639:1.9132684e-17 640:2.0469465e-18 641:-0.032763086 642:-0.0015491595 643:-0.032763086 644:-0.0055322284 645:-0.0055322284 646:-0.0059473477 647:-0.0059473477 648:-0.0055322284 649:-0.0059473477 650:-0.0011745795 651:2.0469465e-18 652:2.7048936e-18 653:2.0469465e-18 654:-0.021102723 655:-0.013536367 656:-0.0159442 657:-0.0159442 658:-3.3523972e-18 659:2.0469465e-18 660:-0.00027324725 661:2.0469465e-18 663:-0.0072098137 664:2.0469465e-18 665:-6.6741293e-17 666:-0.0069456059 667:2.0469465e-18 668:2.0469465e-18 669:2.0469465e-18 670:2.0469465e-18 671:2.0469465e-18 672:2.0469465e-18 673:2.0469465e-18 674:2.0469465e-18 675:2.0469465e-18 676:2.0469465e-18 677:2.0469465e-18 678:2.0469465e-18 679:-4.9095217e-19 680:-0.0039716298 681:-0.0039716298 682:-0.0039716298 683:-0.0036944135 684:-3.3523972e-18 685:-0.012752364 686:-0.012752364 687:-0.012752364 688:-0.0056535969 689:-0.0056535969 690:-0.0056535969 691:-0.0056535969 692:-0.0066070375 693:-0.0039716298 694:-0.003345124 695:-0.0036944135 696:-0.037472397 697:2.0469465e-18 698:2.0469465e-18 699:2.0469465e-18 700:2.0469465e-18 701:2.0469465e-18 702:2.0469465e-18 703:2.0469465e-18 704:2.0469465e-18 705:-0.00062032265 706:-0.0011992992 707:2.7048936e-18 708:-0.010229587 709:-0.0011992992 710:2.0469465e-18 711:2.7048936e-18 712:-6.6327338e-17 713:-0.001169729 714:2.0469465e-18 715:2.0469465e-18 716:2.0469465e-18 717:-3.3523972e-18 718:-3.3523972e-18 719:-0.0080468655 720:2.0469465e-18 721:-3.8897209e-17 723:-0.0090906033 724:-0.003345124 725:2.0469465e-18 726:2.0469465e-18 727:-0.00069931673 728:-0.011394548 729:-0.028669022 730:-0.0030375354 731:8.7538973e-19 732:-0.011394548 733:-0.021309249 734:-0.010329691 735:-0.0056932834 736:-0.010329691 737:0.026305277 738:-0.011503464 739:-0.046556983 740:-0.0014263474 741:2.0469465e-18 742:-6.9361205e-17 743:-0.0019674443 745:2.7048936e-18 749:-0.010104184 750:-0.030295964 751:1.9132684e-17 752:2.0469465e-18 753:1.9132684e-17 754:-0.0035363175 755:-0.0043612458 756:-0.02101564 757:-0.0043612458 758:-0.0043612458 759:-0.0043612458 760:-0.02101564 761:-0.037480652 762:2.0469465e-18 763:2.0469465e-18 765:2.0469465e-18 766:2.0469465e-18 767:2.0469465e-18 769:2.0469465e-18 770:2.0469465e-18 771:1.5692905e-17 772:2.7048936e-18 773:2.0469465e-18 774:2.7048936e-18 775:2.7048936e-18 776:-0.0036944135 777:2.0469465e-18 778:2.0469465e-18 779:2.0469465e-18 780:2.0469465e-18 781:2.0469465e-18 782:-0.022989435 783:2.0469465e-18 784:2.0469465e-18 786:-0.00066686951 787:-0.00066686951 788:-0.0025500369 789:-0.004666911 790:-0.0063811899 791:-0.0043411651 792:-0.0091710966 793:-0.004666911 794:-0.004666911 795:-0.004666911 796:-0.004666911 797:-0.0043411651 798:-0.004666911 799:-0.0013796758 801:-0.0015491595 803:2.0469465e-18 804:2.0469465e-18 805:-0.003168815 806:2.0469465e-18 807:-0.0023965398 808:2.0469465e-18 809:2.0469465e-18 810:-0.018757118 812:-3.3523972e-18 813:-0.0013035656 814:2.7048936e-18 815:-0.0045058103 816:-0.024001028 817:-0.016993878 818:-0.016993878 819:2.7048936e-18 820:2.0469465e-18 821:2.0469465e-18 822:-0.00096045423 823:2.0469465e-18 824:2.0469465e-18 825:2.0469465e-18 826:-0.035326026 827:-0.044749308 828:2.0469465e-18 829:2.0469465e-18 830:2.0469465e-18 831:2.0469465e-18 832:2.0469465e-18 833:2.7048936e-18 834:2.0469465e-18 835:2.0469465e-18 836:2.0469465e-18 837:2.0469465e-18 838:2.0469465e-18 839:2.0469465e-18 840:2.0469465e-18 841:2.0469465e-18 842:2.0469465e-18 843:2.0469465e-18 845:-0.0096811904 846:-0.029233918 847:-0.022564331 848:-3.3523972e-18 849:2.0469465e-18 850:2.0469465e-18 851:-0.0081701661 852:2.0469465e-18 853:-0.0065239449 854:1.9132684e-17 855:-3.3523972e-18 856:2.0469465e-18 857:-0.0065239449 858:-6.6533809e-17 859:2.0469465e-18 860:-6.6533809e-17 861:2.0469465e-18 862:2.0469465e-18 863:-0.0055008014 864:-0.0061765374 865:-0.0059071365 866:-0.0065239449 867:-0.0070134797 868:-0.0061765374 869:-0.0070134797 870:-0.0070134797 871:-0.0027215839 872:-0.0027215839 873:-0.0027215839 874:-0.0027215839 875:-0.0027215839 876:2.7048936e-18 877:-0.00029375078 878:-0.00029375078 879:-0.00029375078 880:-0.00029375078 881:-0.00029375078 882:2.7048936e-18 883:2.0469465e-18 884:2.0469465e-18 886:2.0469465e-18 889:2.0469465e-18 890:2.0469465e-18 891:2.0469465e-18 892:2.0469465e-18 894:2.0469465e-18 895:-0.0065996423 896:1.9132684e-17 897:-0.0048224088 898:-0.0017117672 899:-0.0038460384 900:-0.0017117672 901:2.0469465e-18 904:2.0469465e-18 905:2.0469465e-18 906:2.7048936e-18 907:-3.3523972e-18 908:-0.0065164552 909:-0.040304184 910:-0.0017871398 911:2.7048936e-18 912:2.0469465e-18 913:2.0469465e-18 914:2.7048936e-18 915:-0.020775797 916:-0.0034782938 917:-0.0034782938 918:-0.0032355119 919:-0.008584423 920:-0.0081108613 921:-0.027064729 924:2.0469465e-18 925:2.0469465e-18 926:2.0469465e-18 927:2.0469465e-18 929:-0.034466259 930:2.7048936e-18 931:-0.0059774593 932:-0.022824658 933:-0.006425987 934:-0.0059774593 935:-0.0049140872 936:-0.0049140872 937:2.0469465e-18 938:2.0469465e-18 939:1.519155e-18 940:-0.0054816199 941:2.0469465e-18 942:-0.0068504578 943:-0.0099748159 944:-0.0068504578 945:-0.0068504578 946:-0.0068504578 947:3.5503193e-20 948:3.5503193e-20 949:2.0469465e-18 951:2.0469465e-18 953:2.0469465e-18 954:-0.002529894 956:2.7048936e-18 958:-2.4487485e-19 959:2.0469465e-18 960:2.0469465e-18 961:2.0469465e-18 962:2.0469465e-18 964:2.0469465e-18 965:-0.012327351 966:2.0469465e-18 967:2.0469465e-18 968:2.0469465e-18 969:2.0469465e-18 970:-0.01021966 971:2.0469465e-18 972:2.7048936e-18 973:-0.01021966 974:2.0469465e-18 975:-0.010416548 976:-0.0077351485 977:-0.0043612458 978:-0.0043612458 979:-0.0040568351 980:-0.011002441 981:-0.0043612458 982:-0.0080879172 983:-0.0043612458 984:-0.0043612458 985:-0.0043612458 986:-0.0043612458 987:-0.0043612458 988:-0.0043612458 989:2.0469465e-18 990:2.0469465e-18 991:2.0469465e-18 992:2.0469465e-18 993:2.0469465e-18 994:1.9132684e-17 995:-0.0056535397 996:-0.0056535397 997:-0.0052589276 998:-0.0056535397 999:-0.0017807626 1000:-0.0015682582 1001:-0.0017807626 1002:-0.0017807626 1004:2.0469465e-18 1005:2.0469465e-18 1006:2.7048936e-18 1007:2.0469465e-18 1009:-0.013080883 1010:2.0469465e-18 1011:2.0469465e-18 1013:2.0469465e-18 1014:2.0469465e-18 1015:2.0469465e-18 1016:-0.0074243722 1017:-0.0074243722 1018:-0.0073750499 1019:-0.0071302331 1020:-0.0078747543 1021:-0.0073750499 1022:-0.0073750499 1023:-0.0073750499 1024:-0.0073750499 1025:-0.0078747543 1026:-0.0091026397 1027:-0.0091026397 1028:-0.0091026397 1029:-0.0026721912 1032:-0.0067117102 1033:-0.0065148706 1034:2.0469465e-18 1035:2.0469465e-18 1036:2.0469465e-18 1037:2.7048936e-18 1038:2.0469465e-18 1039:2.0469465e-18 1040:2.0469465e-18 1042:2.0469465e-18 1043:2.0469465e-18 1044:-0.0021345885 1045:-0.002396808 1046:2.0469465e-18 1047:2.0469465e-18 1048:-0.003410676 1049:2.0469465e-18 1050:2.0469465e-18 1051:2.7048936e-18 1052:-0.0033572624 1053:2.7048936e-18 1054:1.9132684e-17 1055:2.0469465e-18 1056:2.0469465e-18 1057:2.0469465e-18 1058:-0.012463616 1059:-0.012463616 1060:-0.012463616 1061:-0.0048528807 1062:-0.0048528807 1063:-0.0048528807 1064:-0.0048528807 1065:-0.0048528807 1067:2.0469465e-18 1068:2.0469465e-18 1069:-0.020619387 1070:2.0469465e-18 1071:-0.020619387 1072:-0.018381791 1073:-0.00498378 1075:2.0469465e-18 1076:2.0469465e-18 1077:2.0469465e-18 1078:-0.0030418499 1079:-0.0078170542 1080:-0.0030418499 1081:-0.0030418499 1082:-0.0030418499 1083:-0.0030418499 1084:-0.0030418499 1085:-0.011166875 1086:-0.011166875 1088:-0.00050769851 1089:2.0469465e-18 1092:2.0469465e-18 1093:-0.00085537694 1094:2.0469465e-18 1095:2.0469465e-18 1096:1.9132684e-17 1097:2.7048936e-18 1098:-3.3523972e-18 1099:2.0469465e-18 1100:2.0469465e-18 1101:2.0469465e-18 1102:1.9132684e-17 1103:2.0469465e-18 1104:2.0469465e-18 1105:2.0469465e-18 1106:2.0469465e-18 1107:2.0469465e-18 1108:-0.018938474 1109:-0.01240285 1110:-0.0064598094 1111:-0.0016362942 1113:2.0469465e-18 1114:2.0469465e-18 1115:2.0469465e-18 1116:-0.0064598094 1117:-0.019020759 1118:-0.020090608 1119:-0.0065542404 1120:2.0469465e-18 1122:2.0469465e-18 1123:-0.0030375354 1124:2.0469465e-18 1125:2.0469465e-18 1126:2.0469465e-18 1127:-0.0053245691 1128:-2.0370665e-18 1129:-2.0370665e-18 1130:-2.0370665e-18 1131:2.0469465e-18 1132:2.0469465e-18 1133:2.0469465e-18 1134:2.0469465e-18 1135:-0.00096045423 1137:-0.00096045423 1139:-0.021034848 1140:-0.0095432783 1141:2.0469465e-18 1142:2.0469465e-18 1143:-0.0020976241 1144:-0.0020976241 1145:-0.0020976241 1146:-0.019786065 1147:-0.019786065 1148:-0.019786065 1149:2.7048936e-18 1150:2.7048936e-18 1151:-0.00091856229 1152:-0.021684911 1153:-0.021684911 1154:-0.021684911 1155:2.0469465e-18 1156:-0.012468495 1157:-0.01415802 1158:-0.013169803 1159:-0.01415802 1160:-0.01415802 1161:-0.01415802 1162:-0.016089711 1163:-0.0092702881 1164:2.0469465e-18 1165:2.0469465e-18 1166:-0.026757136 1167:-1.1713259e-18 1169:2.0469465e-18 1170:-0.0071503338 1171:-0.0045841741 1172:-0.0043041306 1174:2.0469465e-18 1175:2.0469465e-18 1176:-0.040796679 1177:2.0469465e-18 1178:2.0469465e-18 1179:2.0469465e-18 1180:-0.0028295314 1181:-5.9619345e-18 1183:2.0469465e-18 1184:-3.3523972e-18 1185:2.0469465e-18 1186:2.0469465e-18 1187:2.0469465e-18 1188:2.0469465e-18 1189:2.0469465e-18 1191:2.0469465e-18 1192:2.0469465e-18 1193:-0.018517112 1194:-0.0091056386 1195:-2.4487485e-19 1196:2.0469465e-18 1197:-0.0049788835 1198:2.0469465e-18 1199:2.0469465e-18 1200:2.0469465e-18 1201:2.0469465e-18 1202:2.0469465e-18 1204:2.0469465e-18 1205:2.0469465e-18 1206:2.0469465e-18 1207:2.0469465e-18 1208:2.0469465e-18 1209:2.0469465e-18 1210:2.0469465e-18 1211:2.0469465e-18 1212:2.0469465e-18 1215:2.0469465e-18 1216:-0.0052589276 1217:2.0469465e-18 1218:2.0469465e-18 1219:2.0469465e-18 1220:-0.014126671 1221:-0.015074913 1222:-0.014022699 1223:-0.015074913 1224:-0.015074913 1225:-0.0052589276 1226:2.0469465e-18 1227:-0.0052589276 1228:2.0469465e-18 1229:2.7048936e-18 1230:2.0469465e-18 1231:2.0469465e-18 1232:-0.012154909 1233:-0.012154909 1234:-0.010704422 1235:-0.028098859 1236:-0.018138759 1237:-0.016872689 1238:-0.018138759 1239:-0.018138759 1240:2.0469465e-18 1241:2.7048936e-18 1243:2.0469465e-18 1244:2.0469465e-18 1245:2.0469465e-18 1246:-0.019900117 1247:-0.00029375078 1248:-0.00029375078 1249:-0.00029375078 1250:-0.00029375078 1251:-0.00029375078 1252:-0.00029375078 1253:-0.012012984 1254:2.0469465e-18 1255:-0.012012984 1256:2.0469465e-18 1257:2.0469465e-18 1258:-0.001579045 1259:2.0469465e-18 1260:2.0469465e-18 1261:2.0469465e-18 1262:2.0469465e-18 1263:-0.003602514 1265:2.0469465e-18 1266:2.0469465e-18 1267:2.0469465e-18 1268:2.0469465e-18 1269:2.0469465e-18 1270:2.0469465e-18 1272:-0.030818706 1273:-0.030818706 1274:-0.030818706 1276:2.0469465e-18 1277:2.0469465e-18 1278:2.0469465e-18 1279:2.0469465e-18 1280:-0.050429996 1281:2.0469465e-18 1282:2.2400853e-18 1283:2.0469465e-18 1285:2.0469465e-18 1286:2.0469465e-18 1287:2.0469465e-18 1288:2.0469465e-18 1289:2.0469465e-18 1292:-0.0085620461 1293:-0.0090436302 1294:-0.0097222328 1295:1.9132684e-17 1296:-0.042485692 1297:-0.0043612458 1300:-0.0090240203 1301:2.0469465e-18 1302:2.0469465e-18 1303:-6.6327338e-17 1304:2.0469465e-18 1305:-0.0016362942 1306:-0.0014815902 1307:2.0469465e-18 1308:2.0469465e-18 1309:2.0469465e-18 1310:2.0469465e-18 1311:2.0469465e-18 1312:-0.0016362942 1313:2.0469465e-18 1314:2.0469465e-18 1315:2.0469465e-18 1318:2.0469465e-18 1319:2.0469465e-18 1320:2.0469465e-18 1321:2.0469465e-18 1322:2.0469465e-18 1323:2.0469465e-18 1324:-0.0054272041 1325:-0.0030418499 1326:-0.0069172401 1327:-0.0030418499 1328:-0.0030418499 1329:-0.0097222328 1330:-0.0097222328 1331:-0.0097222328 1332:1.9132684e-17 1334:-0.017872937 1335:2.0469465e-18 1337:2.0469465e-18 1339:-0.0087087816 1340:-0.017872937 1341:2.0469465e-18 1342:2.0469465e-18 1343:2.0469465e-18 1344:2.0469465e-18 1345:2.0469465e-18 1347:2.0469465e-18 1348:2.0469465e-18 1349:2.0469465e-18 1350:2.0469465e-18 1351:2.0469465e-18 1352:2.0469465e-18 1353:2.0469465e-18 1354:1.9132684e-17 1355:2.0469465e-18 1356:2.0469465e-18 1357:2.0469465e-18 1358:2.0469465e-18 1359:2.0469465e-18 1360:2.0469465e-18 1361:2.0469465e-18 1362:2.0469465e-18 1363:2.0469465e-18 1364:2.0469465e-18 1365:2.0469465e-18 1366:2.0469465e-18 1367:2.0469465e-18 1368:2.0469465e-18 1370:2.0469465e-18 1371:2.0469465e-18 1372:2.0469465e-18 1373:2.0469465e-18 1374:2.0469465e-18 1375:-0.010339484 1376:-0.010339484 1377:-0.010339484 1378:-0.010339484 1379:-0.010339484 1380:-0.010339484 1381:2.0469465e-18 1382:1.9132684e-17 1384:2.0469465e-18 1385:2.0469465e-18 1386:2.0469465e-18 1387:2.7048936e-18 1388:2.0469465e-18 1389:2.0469465e-18 1391:-0.003602514 1392:2.7048936e-18 1393:2.0469465e-18 1394:2.0469465e-18 1395:2.0469465e-18 1396:2.0469465e-18 1398:2.0469465e-18 1399:2.0469465e-18 1400:2.0469465e-18 1401:2.0469465e-18 1402:2.0469465e-18 1403:-0.0077979979 1404:-0.0072925338 1405:2.0469465e-18 1406:2.0469465e-18 1407:-0.01616985 1408:1.519155e-18 1409:-0.010190692 1410:-0.030818706 1411:-0.030818706 1412:-0.030818706 1413:2.0469465e-18 1414:2.0469465e-18 1415:2.0469465e-18 1417:2.0469465e-18 1419:-0.0017590761 1420:-0.010339484 1421:1.9132684e-17 1422:2.0469465e-18 1423:-0.0010144763 1424:2.0469465e-18 1425:2.0469465e-18 1426:-0.0081602391 1427:-0.0017590761 1428:-0.0017590761 1429:-0.0017590761 1430:-0.010259373 1431:-0.0046661017 1432:-0.0046661017 1433:-0.0021110766 1434:-0.0021110766 1435:-0.0046661017 1436:-0.0046661017 1437:-0.0046661017 1438:-0.0021110766 1439:-0.0019637255 1440:-0.0021110766 1441:2.0469465e-18 1442:2.0469465e-18 1443:2.0469465e-18 1444:2.0469465e-18 1445:2.0469465e-18 1446:2.0469465e-18 1451:2.0469465e-18 1453:-0.012825275 1454:2.0469465e-18 1455:2.0469465e-18 1457:2.0469465e-18 1461:2.0469465e-18 1462:2.0469465e-18 1463:2.0469465e-18 1464:2.0469465e-18 1465:2.0469465e-18 1466:2.0469465e-18 1467:2.0469465e-18 1468:2.0469465e-18 1469:2.0469465e-18 1470:-0.012825275 1471:2.0469465e-18 1472:2.0469465e-18 1473:2.0469465e-18 1474:2.0469465e-18 1475:2.0469465e-18 1476:2.0469465e-18 1477:2.0469465e-18 1478:2.0469465e-18 1480:2.0469465e-18 1481:2.0469465e-18 1482:2.0469465e-18 1483:2.0469465e-18 1484:2.0469465e-18 1485:2.0469465e-18 1488:2.0469465e-18 1489:1.9132684e-17 1490:-0.0028727034 1491:-0.0028727034 1492:-0.0028727034 1493:-0.0028727034 1494:-0.0028727034 1495:2.0469465e-18 1496:2.0469465e-18 1497:2.0469465e-18 1498:2.0469465e-18 1499:2.0469465e-18 1501:2.0469465e-18 1502:2.0469465e-18 1503:2.0469465e-18 1504:2.0469465e-18 1505:2.0469465e-18 1506:2.0469465e-18 1507:-0.021188587 1508:-0.021188587 1509:-0.0063744611 1510:2.0469465e-18 1511:2.0469465e-18 1512:-0.013100465 1513:2.0469465e-18 1514:2.0469465e-18 1515:2.0469465e-18 1516:2.0469465e-18 1517:2.0469465e-18 1518:-0.022492051 1519:-0.022492051 1520:2.0469465e-18 1521:2.0469465e-18 1522:2.0469465e-18 1523:2.0469465e-18 1524:-0.037121065 1525:2.0469465e-18 1526:2.0469465e-18 1527:-0.0061810464 1528:2.0469465e-18 1529:2.0469465e-18 1531:2.7048936e-18 1532:2.0469465e-18 1533:2.0469465e-18 1534:2.0469465e-18 1535:2.7048936e-18 1537:2.0469465e-18 1538:2.0469465e-18 1539:2.0469465e-18 1540:2.0469465e-18 1541:2.0469465e-18 1542:2.0469465e-18 1543:2.0469465e-18 1544:2.0469465e-18 1545:2.0469465e-18 1547:-0.02403789 1548:2.0469465e-18 1549:2.0469465e-18 1550:2.0469465e-18 1551:-0.0074667805 1552:-0.012213841 1553:-0.01408348 1554:-0.01408348 1555:-0.01408348 1556:2.0469465e-18 1557:2.0469465e-18 1558:-0.0034028904 1559:-0.0037582116 1560:-0.0035580825 1561:-0.0037582116 1562:-0.011286771 1563:2.0469465e-18 1565:2.0469465e-18 1566:2.0469465e-18 1567:2.7048936e-18 1568:2.0469465e-18 1569:2.0469465e-18 1570:2.0469465e-18 1571:-0.0018791058 1572:2.0469465e-18 1573:2.0469465e-18 1575:-0.0065239449 1576:2.0469465e-18 1577:2.0469465e-18 1578:2.0469465e-18 1579:2.0469465e-18 1580:2.0469465e-18 1581:2.0469465e-18 1582:2.0469465e-18 1583:2.0469465e-18 1584:2.0469465e-18 1585:2.0469465e-18 1586:2.0469465e-18 1589:2.0469465e-18 1590:2.0469465e-18 1592:-0.0016362942 1593:2.0469465e-18 1594:-0.0027925929 1595:-0.0027925929 1596:-0.0027925929 1597:-0.0027925929 1598:-0.0055575948 1601:2.0469465e-18 1602:2.0469465e-18 1604:2.0469465e-18 1605:2.0469465e-18 1608:2.0469465e-18 1611:2.0469465e-18 1612:2.7048936e-18 1613:-0.010438836 1614:-0.0089533413 1615:2.0469465e-18 1616:2.0469465e-18 1617:2.0469465e-18 1618:2.0469465e-18 1619:2.0469465e-18 1620:2.0469465e-18 1621:2.0469465e-18 1622:-0.0017590761 1623:-0.0017590761 1624:-0.0017590761 1625:-0.013623 1626:-0.01456003 1627:-0.01456003 1628:-0.01456003 1629:-0.012871431 1630:-0.013837259 1631:2.0469465e-18 1632:-0.0038728344 1633:2.0469465e-18 1634:-0.0069445316 1635:2.0469465e-18 1636:2.0469465e-18 1637:2.0469465e-18 1638:2.0469465e-18 1639:2.0469465e-18 1640:2.0469465e-18 1641:2.0469465e-18 1642:2.0469465e-18 1643:2.0469465e-18 1644:2.0469465e-18 1645:2.0469465e-18 1646:2.0469465e-18 1647:2.0469465e-18 1648:2.0469465e-18 1649:2.0469465e-18 1650:2.0469465e-18 1651:2.0469465e-18 1652:-0.037923533 1653:2.0469465e-18 1654:2.0469465e-18 1655:2.0469465e-18 1656:2.0469465e-18 1657:2.0469465e-18 1658:2.0469465e-18 1660:2.0469465e-18 1661:2.0469465e-18 1662:2.0469465e-18 1663:2.0469465e-18 1665:-0.0028685899 1668:2.0469465e-18 1669:-0.0020745134 1670:-0.0017472688 1671:-0.0020745134 1672:-0.0020745134 1673:-0.0020745134 1674:-0.0021110766 1675:-0.0021110766 1676:-0.0021110766 1677:-0.0019637255 1678:-0.0039274511 1679:-0.0018591548 1680:-0.0062889317 1681:2.0469465e-18 1682:-0.030845042 1683:-0.0094868876 1684:2.0469465e-18 1685:2.0469465e-18 1686:2.0469465e-18 1687:2.0469465e-18 1688:2.0469465e-18 1689:2.0469465e-18 1690:2.0469465e-18 1691:-0.0060722195 1692:-0.0018791058 1693:2.0469465e-18 1694:-0.014552089 1695:2.0469465e-18 1696:-0.0043224171 1697:-0.0043224171 1698:-0.0043224171 1699:2.0469465e-18 1700:2.0469465e-18 1701:2.0469465e-18 1702:2.0469465e-18 1703:2.0469465e-18 1704:2.0469465e-18 1705:2.0469465e-18 1706:2.0469465e-18 1707:2.0469465e-18 1708:2.0469465e-18 1709:2.0469465e-18 1710:2.7048936e-18 1711:2.0469465e-18 1713:-0.0070134797 1714:-0.0070134797 1715:-0.0070134797 1716:-0.0070134797 1717:1.8910962e-17 1718:2.0469465e-18 1719:2.0469465e-18 1720:1.8910962e-17 1721:2.0469465e-18 1722:2.0469465e-18 1723:2.0469465e-18 1724:2.0469465e-18 1725:-0.0010905991 1727:-0.0080845533 1728:2.7048936e-18 1729:-0.00253162 1730:2.0469465e-18 1731:-0.037060015 1733:-0.055607684 1734:2.0469465e-18 1735:-0.017165506 1736:2.0469465e-18 1738:2.0469465e-18 1739:2.0469465e-18 1740:2.0469465e-18 1741:2.0469465e-18 1742:-0.0090436302 1743:2.0469465e-18 1744:2.0469465e-18 1745:-0.0025789526 1746:-0.0025789526 1747:-0.0025789526 1748:-0.0025789526 1749:-0.0025789526 1750:-0.0025789526 1751:-0.012133691 1752:-0.010121804 1753:-0.010121804 1754:2.0469465e-18 1755:2.0469465e-18 1756:2.0469465e-18 1757:-0.037052486 1758:2.0469465e-18 1759:2.0469465e-18 1760:2.0469465e-18 1761:2.0469465e-18 1762:2.0469465e-18 1763:2.0469465e-18 1764:-0.0055321748 1765:-0.0030418499 1766:-0.0030418499 1767:-0.0030418499 1768:2.0469465e-18 1769:2.0469465e-18 1770:2.0469465e-18 1771:2.0469465e-18 1772:2.0469465e-18 1773:2.0469465e-18 1774:2.0469465e-18 1775:-0.0041059996 1776:2.0469465e-18 1777:2.0469465e-18 1778:-0.0041059996 1779:-0.021556782 1780:2.0469465e-18 1781:2.0469465e-18 1782:2.0469465e-18 1783:2.0469465e-18 1784:2.0469465e-18 1785:2.0469465e-18 1786:2.0469465e-18 1787:-0.01354093 1788:2.0469465e-18 1789:-0.014141837 1790:2.0469465e-18 1791:2.0469465e-18 1792:2.0469465e-18 1793:2.0469465e-18 1794:-0.0016673935 1795:2.0469465e-18 1796:-0.0086144488 1797:2.0469465e-18 1798:2.0469465e-18 1799:-0.038546998 1800:2.0469465e-18 1801:-0.014216307 1802:-0.014216307 1803:2.0469465e-18 1804:-0.0081192292 1805:-0.0081192292 1806:2.0469465e-18 1808:2.0469465e-18 1809:2.0469465e-18 1810:-0.010721859 1811:-0.010721859 1812:-2.4487485e-19 1813:2.0469465e-18 1814:-0.0077508134 1815:-0.0077508134 1816:-0.0077508134 1817:2.0469465e-18 1818:2.0469465e-18 1819:2.0469465e-18 1820:2.0469465e-18 1821:-0.001656467 1822:2.0469465e-18 1823:2.0469465e-18 1824:2.0469465e-18 1825:2.0469465e-18 1826:2.0469465e-18 1827:2.0469465e-18 1828:2.0469465e-18 1829:2.0469465e-18 1830:-0.011158615 1831:-0.011158615 1832:-0.011158615 1833:-0.011158615 1834:-0.0081734285 1835:-0.0081734285 1836:-0.007602931 1837:-0.0081734285 1838:-0.0081734285 1839:-0.019183869 1840:-0.019183869 1841:-0.0010144763 1842:2.0469465e-18 1843:2.0469465e-18 1844:2.0469465e-18 1845:2.0469465e-18 1846:2.0469465e-18 1848:2.0469465e-18 1849:2.0469465e-18 1850:2.0469465e-18 1851:2.0469465e-18 1852:2.0469465e-18 1853:2.0469465e-18 1854:2.0469465e-18 1855:2.0469465e-18 1856:2.0469465e-18 1857:2.0469465e-18 1858:2.0469465e-18 1859:2.0469465e-18 1860:2.0469465e-18 1861:2.0469465e-18 1862:2.0469465e-18 1863:2.0469465e-18 1864:2.0469465e-18 1865:2.0469465e-18 1866:2.0469465e-18 1867:2.0469465e-18 1868:2.0469465e-18 1869:2.0469465e-18 1870:2.0469465e-18 1871:2.0469465e-18 1872:2.0469465e-18 1873:2.0469465e-18 1874:2.0469465e-18 1875:-0.0028295314 1876:2.0469465e-18 1877:-0.0018791058 1878:2.0469465e-18 1879:2.0469465e-18 1881:2.0469465e-18 1882:2.0469465e-18 1883:-0.012886147 1884:-0.011986705 1885:-0.010014785 1886:2.0469465e-18 1887:2.0469465e-18 1888:-0.0069456059 1889:2.0469465e-18 1890:2.0469465e-18 1891:2.0469465e-18 1892:0.084004015 1893:0.084004015 1894:2.0469465e-18 1895:2.0469465e-18 1896:2.0469465e-18 1897:2.0469465e-18 1898:2.0469465e-18 1899:2.0469465e-18 1900:-0.012256566 1901:2.7048936e-18 1902:-0.012256566 1904:2.0469465e-18 1905:-0.0020201076 1906:-0.0020201076 1907:-0.0020201076 1908:-0.0020201076 1909:-0.0020201076 1910:-0.0020201076 1911:-0.0020201076 1912:-0.0020201076 1913:-0.0020201076 1914:-0.0020201076 1915:-0.0020201076 1916:-0.0020201076 1917:-0.0010905991 1918:-0.0010905991 1919:-0.0010144763 1920:-0.0010905991 1921:-0.0010905991 1922:-0.0010905991 1923:-0.0010905991 1924:-0.0010905991 1925:-0.0010905991 1926:-0.0010905991 1927:-0.0021110766 1928:2.0469465e-18 1930:2.0469465e-18 1931:2.0469465e-18 1932:2.0469465e-18 1933:2.0469465e-18 1935:2.0469465e-18 1936:2.0469465e-18 1937:2.0469465e-18 1938:2.0469465e-18 1939:2.0469465e-18 1940:2.0469465e-18 1941:-0.014552089 1942:-0.014552089 1943:-0.014552089 1944:-0.014552089 1945:-0.0044140997 1946:-0.015375772 1947:-0.0087087816 1948:2.0469465e-18 1949:2.0469465e-18 1950:2.0469465e-18 1951:-0.030818706 1952:-0.030818706 1953:-0.030818706 1954:2.0469465e-18 1955:2.0469465e-18 1956:2.0469465e-18 1957:2.0469465e-18 1958:2.0469465e-18 1959:2.0469465e-18 1960:2.0469465e-18 1961:2.0469465e-18 1962:2.0469465e-18 1963:2.0469465e-18 1964:2.0469465e-18 1965:2.0469465e-18 1966:2.0469465e-18 1967:2.0469465e-18 1968:2.0469465e-18 1969:-0.0017590761 1970:-0.0017590761 1971:-0.0017590761 1972:-0.0017590761 1973:-0.0027925929 1974:-0.0027925929 1975:-0.0027925929 1976:-0.0027925929 1977:-0.0027925929 1978:-0.0027925929 1979:-0.0027925929 1980:-0.0027925929 1981:2.0469465e-18 1982:2.0469465e-18 1983:2.0469465e-18 1984:2.0469465e-18 1985:2.0469465e-18 1986:2.0469465e-18 1987:2.0469465e-18 1988:2.0469465e-18 1989:2.0469465e-18 1990:2.0469465e-18 1991:2.0469465e-18 1992:2.0469465e-18 1993:2.0469465e-18 1994:-0.044502433 1995:2.0469465e-18 1996:2.0469465e-18 1997:2.0469465e-18 1998:2.0469465e-18 1999:2.0469465e-18 2000:-0.0028295314 2001:2.0469465e-18 2002:2.0469465e-18 2003:2.0469465e-18 2004:2.0469465e-18 2005:2.0469465e-18 2006:2.0469465e-18 2007:2.0469465e-18 2008:-0.03984087 2009:-0.0055141766 2010:-0.0055141766 2011:-0.0055141766 2012:-0.0055141766 2013:-0.0055141766 2014:2.0469465e-18 2015:2.0469465e-18 2016:2.0469465e-18 2017:2.0469465e-18 2018:2.0469465e-18 2019:2.0469465e-18 2020:2.0469465e-18 2021:2.0469465e-18 2022:2.0469465e-18 2023:2.0469465e-18 2024:2.0469465e-18 2025:1.7836971e-18 2026:2.0469465e-18 2027:2.0469465e-18 2028:2.0469465e-18 2029:2.0469465e-18 2030:2.0469465e-18 2031:2.0469465e-18 2032:2.0469465e-18 2033:2.0469465e-18 2034:2.0469465e-18 2035:2.0469465e-18 2036:2.0469465e-18 2037:2.0469465e-18 2038:2.0469465e-18 2039:2.0469465e-18 2040:2.0469465e-18 2041:2.0469465e-18 2042:2.0469465e-18 2043:2.0469465e-18 2044:-0.012914397 2045:-0.012914397 2046:-0.0065357466 2047:1.7836971e-18 2048:-0.0065357466 2049:1.7836971e-18 2050:1.7836971e-18 2051:1.7836971e-18 2052:-0.01378764 2053:-0.020359553 2054:-0.020359553 2055:2.0469465e-18 2056:2.0469465e-18 2057:2.0469465e-18 2058:2.0469465e-18 2059:2.0469465e-18 2060:2.0469465e-18 2062:2.0469465e-18 2063:-0.0017807626 2064:-0.0017807626 2065:-0.0017807626 2066:-0.0017807626 2067:-0.0017807626 2068:-0.0017807626 2069:-0.009137243 2070:-0.009137243 2071:-0.0074667805 2072:-0.0074667805 2073:-0.0074667805 2074:-0.0074667805 2076:2.0469465e-18 2077:2.0469465e-18 2078:-0.0017590761 2079:-0.0017590761 2080:-0.0017590761 2081:2.0469465e-18 2082:2.0469465e-18 2083:2.0469465e-18 2084:2.0469465e-18 2085:2.0469465e-18 2086:2.0469465e-18 2087:2.0469465e-18 2088:2.0469465e-18 2089:-0.0037231015 2090:2.0469465e-18 2091:2.0469465e-18 2092:-0.0037231015 2093:2.0469465e-18 2094:-0.009772731 2095:-0.009772731 2096:-0.009772731 2097:2.0469465e-18 2098:2.0469465e-18 2099:-0.0010905991 2100:-0.0010905991 2101:-0.0010905991 2102:-0.0010905991 2103:-0.0010905991 2104:2.0469465e-18 2105:2.0469465e-18 2107:-0.0096251694 2108:-0.0096251694 2109:-0.0096251694 2110:2.0469465e-18 2111:2.0469465e-18 2112:-0.0016975311 2113:-0.0016975311 2114:2.0469465e-18 2115:2.0469465e-18 2116:2.0469465e-18 2117:2.0469465e-18 2118:2.0469465e-18 2119:2.0469465e-18 2120:2.0469465e-18 2121:2.0469465e-18 2122:2.0469465e-18 2123:2.0469465e-18 2124:2.0469465e-18 2125:2.0469465e-18 2126:2.0469465e-18 2127:2.0469465e-18 2128:-0.010682691 2129:1.7836971e-18 2130:1.7836971e-18 2131:-0.0097222328 2132:-0.0097222328 2133:-0.0097222328 2134:-0.0097222328 2135:-0.0097222328 2136:-0.039906502 2137:-0.0020201076 2138:-0.0020201076 2139:-0.0020201076 2140:2.0469465e-18 2141:2.0469465e-18 2142:-0.0030418499 2143:-0.0030418499 2144:-0.0026550235 2145:2.0469465e-18 2146:2.0469465e-18 2147:-0.0038728344 2148:-0.0038728344 2149:-0.0038728344 2150:-0.0038728344 2151:2.0469465e-18 2152:2.0469465e-18 2153:2.0469465e-18 2154:2.0469465e-18 2155:2.0469465e-18 2156:2.0469465e-18 2157:2.0469465e-18 2158:2.0469465e-18 2159:2.0469465e-18 2160:2.0469465e-18 2161:2.0469465e-18 2162:2.0469465e-18 2163:2.0469465e-18 2164:2.0469465e-18 2165:2.0469465e-18 2166:2.0469465e-18 2167:2.0469465e-18 2168:2.0469465e-18 2169:2.0469465e-18 2170:1.7836971e-18 2171:1.7836971e-18 2172:1.7836971e-18 2173:1.7836971e-18 2174:2.0469465e-18 2175:2.0469465e-18 2176:-0.005341283 2177:-0.005341283 2178:-0.005341283 2179:2.0469465e-18 2180:2.0469465e-18 2181:2.0469465e-18 2182:2.0469465e-18 2183:2.0469465e-18 2184:-0.0098142968 2185:-0.0120538 2186:2.0469465e-18 2187:2.0469465e-18 2188:2.0469465e-18 2189:2.0469465e-18 2190:2.0469465e-18 2191:-0.030818706 2192:-0.030818706 2193:-0.030818706 2194:-0.01649189 2195:-0.01649189 2196:-0.01649189 2197:2.0469465e-18 2198:2.0469465e-18 2199:-0.0043612458 2200:-0.0099658985 2201:-0.0099658985 2202:2.0469465e-18 2203:2.0469465e-18 2204:2.0469465e-18 2205:2.0469465e-18 2206:2.0469465e-18 2207:2.0469465e-18 2208:-0.0072382232 2209:-0.0038728344 2210:-0.0027215839 2211:-0.0027215839 2212:-0.0027215839 2213:-0.0027215839 2214:-0.0027215839 2215:-0.0027215839 2216:-0.0027215839 2218:-0.0029051532 2219:-0.0029051532 2220:-0.0070261667 2221:-0.0070261667 2222:-0.0070261667 2223:-0.0070261667 2224:-0.0070261667 2225:-0.0070261667 2226:-0.00066686951 2227:-0.00066686951 2228:-0.00066686951 2229:2.0469465e-18 2230:2.0469465e-18 2231:2.0469465e-18 2232:2.0469465e-18 2233:2.0469465e-18 2234:2.0469465e-18 2235:2.0469465e-18 2236:2.0469465e-18 2237:-0.00029375078 2238:2.0469465e-18 2239:2.0469465e-18 2240:-0.025539802 2241:-0.0092117302 2242:-0.0092117302 2243:-0.0092117302 2244:-0.0092117302 2245:-0.0016975311 2246:-0.0016975311 2247:-0.0016975311 2248:-0.0016975311 2249:-0.0016975311 2250:-0.0016975311 2251:-0.0016975311 2252:2.0469465e-18 2253:2.0469465e-18 2254:2.0469465e-18 2255:2.0469465e-18 2256:1.2251579e-18 2257:-0.0034491001 2258:2.0469465e-18 2259:2.0469465e-18 2260:2.0469465e-18 2261:-0.014552089 2262:-0.0010905991 2263:-0.0010905991 2264:-0.0010905991 2265:-0.0010905991 2266:-0.0010905991 2267:-0.0010905991 2268:-0.0010905991 2269:-0.0010905991 2270:-0.0010905991 2271:-0.0010905991 2272:-0.0010905991 2273:-0.0010905991 2274:-0.0010905991 2275:2.0469465e-18 2276:2.0469465e-18 2277:-0.0056535397 2278:-0.0027215839 2279:-0.0027215839 2280:-0.0040024701 2281:-0.0040024701 2282:-0.0040024701 2283:-0.0040024701 2284:-0.0040024701 2285:-0.0040024701 2286:-0.0040024701 2287:-0.0040024701 2288:-0.0038728344 2289:-0.0038728344 2290:-0.0038728344 2291:-0.0038728344 2292:-0.0038728344 2293:-0.0038728344 2294:-0.0038728344 2295:2.0469465e-18 2296:2.0469465e-18 2297:-0.00079407659 2298:-0.00079407659 2299:-0.00079407659 2300:-0.00079407659 2301:-0.00079407659 2302:-0.00079407659 2303:-0.00079407659 2304:-0.0074667805 2305:-0.0074667805 2306:2.0469465e-18 2307:-0.037140183 2308:2.0469465e-18 2309:2.0469465e-18 2310:2.0469465e-18 2311:2.0469465e-18 2312:2.0469465e-18 2313:2.0469465e-18 2314:2.0469465e-18 2315:2.0469465e-18 2316:-0.0059473477 2317:-0.0059473477 2318:-0.0059473477 2319:2.0469465e-18 2320:-0.023158532 2321:-0.023158532 2322:-0.023158532 2323:-0.023158532 2324:2.0469465e-18 2325:2.0469465e-18 2326:2.0469465e-18 2327:2.0469465e-18 2328:2.0469465e-18 2329:2.0469465e-18 2330:2.0469465e-18 2331:2.0469465e-18 2332:2.0469465e-18 2333:2.0469465e-18 2334:2.0469465e-18 2335:2.0469465e-18 2336:2.0469465e-18 2337:2.0469465e-18 2338:2.0469465e-18 2339:-0.0010905991 2340:-0.0010905991 2341:-0.0010905991 2342:-0.0010905991 2343:-0.0010905991 2344:2.0469465e-18 2345:2.0469465e-18 2346:2.0469465e-18 2347:2.0469465e-18 2348:2.0469465e-18 2349:2.0469465e-18 2350:2.0469465e-18 2351:2.0469465e-18 2352:2.0469465e-18 2353:2.0469465e-18 2354:2.0469465e-18 2355:2.0469465e-18 2356:2.0469465e-18 2357:2.0469465e-18 2358:2.0469465e-18 #
