SVM-light Version V6.20
0 # kernel type
3 # kernel parameter -d 
1 # kernel parameter -g 
1 # kernel parameter -s 
1 # kernel parameter -r 
empty# kernel parameter -u 
1137 # highest feature index 
49 # number of training documents 
2 # number of support vectors plus 1 
0 # threshold b, each following line is a SV (starting with alpha*y)
1 1:-0.40720201 3:-0.060410365 4:-0.022090422 5:-0.0024413159 6:-0.0018349206 7:-0.010937454 8:0.00042469762 9:-0.011184567 10:-0.0025045327 11:-0.0025045327 12:-0.0075400923 13:-0.054826643 14:-0.018049806 15:-0.016983362 16:-0.026053516 17:-0.018049806 18:-0.016983362 19:-0.016983362 20:-0.01558893 21:-0.030884799 22:-0.025966922 23:-0.008025391 24:-0.033193212 25:-0.013180469 26:-0.011274983 27:1.9968479e-18 28:-0.010055546 29:1.9968479e-18 30:-0.00010815253 31:1.9968479e-18 32:-0.040462747 33:-0.042005856 34:-0.042005856 35:-0.061039414 36:-0.0056142067 37:-0.0071787722 38:-0.00014178747 39:-0.010030407 40:-0.00014178747 41:-0.03542307 42:-0.00014178747 43:-0.00014178747 44:-0.00014178747 45:-0.0024736926 46:-0.00014178747 47:-0.00014178747 48:-0.00014178747 49:-0.00014178747 50:-0.0026207622 51:-0.00014178747 52:-0.00014178747 53:-0.00014178747 54:-0.00014178747 55:-0.00014178747 56:-0.00014178747 57:-0.00014178747 58:-0.049768414 59:-0.056071963 60:-0.042804036 61:-0.032752018 62:-0.061444648 63:-0.070763476 64:-0.002751309 65:-0.0057026255 66:-0.031785212 67:-0.043313649 68:-0.074025854 69:-0.0037365353 70:-0.013045615 71:-0.0092896745 72:-0.059199825 73:1.9968479e-18 74:1.9968479e-18 75:-0.0061899726 76:-0.0023031137 77:-0.02500464 78:1.9968479e-18 79:-3.5823604e-18 80:-3.5823604e-18 81:-0.010623682 82:-0.015403791 83:-0.030442547 84:-0.0022344203 85:-0.032767579 86:-3.5823604e-18 87:1.9968479e-18 88:1.9968479e-18 89:1.9968479e-18 90:-0.042135749 91:-0.051830959 92:-0.0053120432 93:-0.055030458 94:-3.5823604e-18 95:-0.0031808862 96:-0.0016913373 97:1.9968479e-18 98:-0.043521866 99:0.012120294 100:-0.029352693 101:-0.042659122 102:-0.0097434865 103:1.9968479e-18 104:-0.010025083 105:-0.017893543 106:-0.029352693 107:-0.038752694 108:-0.024474841 109:-0.013298413 110:-0.021377835 111:-0.023664564 112:-0.00045309777 113:-1.7709872e-17 114:-0.014930549 115:1.9968479e-18 116:-0.061223242 117:-0.0037610994 118:1.9968479e-18 119:-0.033850871 120:-0.014655462 121:-0.0040618978 122:1.9968479e-18 123:1.9968479e-18 124:-0.00057116011 125:-3.5823604e-18 126:1.9968479e-18 127:-0.013695562 128:-0.014655462 129:-0.014655462 130:-0.009641395 131:-0.011140609 132:-0.011140609 133:1.9968479e-18 134:-0.06958136 135:-0.0085813906 136:-0.065668896 137:-0.011756801 138:-0.0031406507 139:-0.0089208931 140:-0.022394102 141:-0.0058637387 142:-0.01821457 143:-0.0031059606 144:-0.0031059606 145:-0.035436932 146:-0.0075555588 147:-0.0077599823 148:-0.0085706832 149:-0.0044784918 150:-0.020424029 151:-0.0067416281 152:-0.0080352034 153:-0.040227093 154:-0.02938845 155:1.9968479e-18 156:-0.00587897 157:1.9968479e-18 158:1.9968479e-18 159:1.9968479e-18 160:-0.029188512 161:-0.076242037 162:-0.04980652 163:-0.0091187023 164:-0.012182793 165:-0.035734117 166:-0.052840807 167:-0.012183016 168:-0.033264663 169:-0.03701207 170:-0.01276888 171:-3.5823604e-18 172:1.9968479e-18 173:-0.085824691 174:-0.047408149 175:-0.047408149 176:-0.010716272 177:-0.012158383 178:-0.017317848 179:-0.034622215 180:-0.019892339 181:-0.013462337 182:-0.011023618 183:-0.027443375 184:-0.0052455659 185:-0.0052455659 186:-0.00425938 187:-0.0052455659 188:-0.0052455659 189:-0.030267442 190:-0.037509684 191:1.9968479e-18 192:1.9968479e-18 193:1.9968479e-18 194:-3.5823604e-18 195:-0.051083807 196:-0.042175807 197:-3.5823604e-18 198:-3.5823604e-18 199:-0.012758818 200:-1.7709872e-17 201:-0.045399409 202:0.032915175 203:0.027630623 204:-0.020301513 205:1.970672e-18 206:-0.0073308907 207:-0.0041077393 208:1.9968479e-18 209:1.9968479e-18 210:-3.5823604e-18 211:-0.017072575 212:-0.014119497 213:1.9968479e-18 214:-0.0041077393 215:1.9968479e-18 216:1.9968479e-18 217:-0.0077720564 218:-0.044410899 219:-0.037443291 220:-0.017389638 221:-0.023555128 222:-0.058735024 223:-0.0064195464 224:-0.0067409449 225:-0.059031442 226:-0.0065440377 227:-3.5823604e-18 228:1.9968479e-18 229:-0.0069842404 230:-0.052635938 231:-0.0066998731 232:-0.0055342186 233:-0.0062789698 234:-0.0046605263 235:-0.0063421596 236:-0.0046605263 237:-0.017805416 238:0.013641222 239:-0.0057716491 240:-0.0065483516 241:-0.0065483516 242:-0.0057716491 243:-0.016850036 244:-0.025938755 245:-0.0028560667 246:-0.0028560667 247:0.034835901 248:0.13553233 249:8.9638481e-05 250:0.059972394 251:0.13553233 252:-0.0076567479 253:-0.0083867246 254:-0.0097838677 255:-0.011615873 256:0.020691874 257:0.054149184 258:0.0047844262 259:0.054149184 260:0.054149184 261:0.054149184 262:1.9968479e-18 263:1.9968479e-18 264:-0.012381278 265:-0.012381278 266:-0.012381278 267:-0.013972262 268:-0.0057965866 269:-0.025231306 270:0.029791366 271:0.01541783 272:0.02220929 273:0.029791366 274:0.029791366 275:0.012564762 276:0.0067995791 277:0.012564762 278:0.020777006 279:0.0067995791 280:0.039426774 281:-0.020329826 282:-0.022186315 283:-0.0045516905 284:-0.0051642209 285:-0.020329826 286:-0.028270504 287:-0.012985656 288:-0.014733163 289:0.058418103 290:0.032044947 291:0.032044947 292:0.032044947 293:0.032044947 294:0.032044947 295:0.032044947 296:0.032044947 297:1.9968479e-18 298:-3.5823604e-18 299:-1.7709872e-17 300:1.9968479e-18 301:1.9968479e-18 302:-3.5823604e-18 303:-0.026366828 304:1.9968479e-18 305:1.9968479e-18 306:1.9968479e-18 307:1.9968479e-18 308:1.9968479e-18 309:1.9968479e-18 310:-0.033458561 311:-0.034325261 312:-1.4995057e-18 313:-0.020082889 314:-0.020082889 315:0.021054791 316:0.012511202 317:0.038198877 318:0.021054791 319:0.021054791 320:0.021054791 321:0.021054791 322:0.021054791 323:0.021054791 324:0.021054791 325:0.021054791 326:0.022284584 327:0.0085007921 328:0.022284584 329:0.022284584 330:0.022284584 331:0.022284584 332:0.022284584 333:0.022284584 334:-0.061761092 335:-0.0084048295 336:-0.019055592 337:-0.062224045 338:-0.0072349915 339:-0.0036069534 340:-0.0036069534 341:-0.0036069534 342:-0.0037991027 343:-0.0036069534 344:-0.0036069534 345:-0.0036069534 346:-1.7769285e-17 347:1.9236794e-18 348:-0.0046185725 349:1.9236794e-18 350:1.9236794e-18 351:1.9236794e-18 352:1.9236794e-18 353:1.9236794e-18 354:1.9236794e-18 355:-0.0081591839 356:1.9236794e-18 357:1.9236794e-18 358:-0.0070329509 359:-0.019172542 360:-0.019172542 361:-0.019172542 362:-0.003334288 363:1.9968479e-18 364:-1.7709872e-17 365:1.9968479e-18 366:-0.033606187 367:-0.033606187 368:-0.033606187 369:-0.038745016 370:-0.024639769 371:0.053945892 372:-0.00405586 373:-0.022477556 374:7.0133428e-19 375:-0.00405586 376:-1.8761824e-17 377:-0.022477556 378:-0.012275641 379:-0.0060502454 380:-0.0060502454 381:-0.0060502454 382:-0.014830808 383:-0.0055772755 384:-0.0055772755 385:-0.0055772755 386:-0.0055772755 387:-0.024322167 388:-0.0055772755 389:-0.0055772755 390:1.9968479e-18 391:-0.0018358792 392:-0.0025045327 393:-0.002207469 394:-0.035113089 395:-3.5823604e-18 396:-0.035113089 397:-3.5823604e-18 398:-0.017280869 399:-0.013585299 400:-0.015224225 401:-0.016763715 402:-0.015277831 403:1.9968479e-18 404:1.9968479e-18 405:1.9968479e-18 406:-0.001415331 407:-0.001415331 408:-0.001415331 409:-0.001415331 410:-0.001415331 411:-0.00057116011 412:-0.013598483 413:1.9968479e-18 414:1.9968479e-18 415:-0.0040596309 416:-0.0080936598 417:-0.0040596309 418:-0.0040596309 419:-0.0040596309 420:-0.0041980878 421:-0.00070340239 422:-0.00070340239 423:-0.011093437 424:-0.011093437 425:-0.011093437 426:-0.011093437 427:-0.027196117 428:-0.007605386 429:-0.007605386 430:-0.007605386 431:-0.0099269748 432:-0.0099269748 433:-0.0099269748 434:-0.025226263 435:-0.0061733145 436:-0.0061733145 437:-0.0061733145 438:-0.0061733145 439:-0.0061733145 440:-0.00089321373 441:-0.00089321373 442:-0.00089321373 443:-0.00089321373 444:-0.00089321373 445:-0.00089321373 446:-0.00089321373 447:-0.00089321373 448:-0.00089321373 449:-0.00089321373 450:-0.00089321373 451:-0.028196437 452:-0.01388015 453:-0.028196437 454:-0.01388015 455:-0.01388015 456:-0.01388015 457:-0.042334963 458:-0.00070340239 459:-0.00070340239 460:-0.00070340239 461:-0.00070340239 462:-0.00070340239 463:-0.00070340239 464:-0.00070340239 465:-0.042334963 466:-0.00070340239 467:-0.00070340239 468:-0.00070340239 469:-0.00070340239 470:-0.00070340239 471:-0.00070340239 472:-0.00070340239 473:-0.00070340239 474:-0.00070340239 475:-0.00070340239 476:-0.00070340239 477:-0.00070340239 478:-0.00070340239 479:-0.0040618978 480:-0.0050023599 481:-0.0040618978 482:-0.0050023599 483:1.9968479e-18 484:-0.00058000482 485:1.9968479e-18 486:1.9968479e-18 487:-3.5823604e-18 488:-3.5823604e-18 489:-0.00058000482 490:1.9968479e-18 491:-0.0049770637 492:-0.0049770637 493:-0.0049770637 494:-0.037540164 495:1.9968479e-18 496:1.9968479e-18 497:-0.025668114 498:7.0133428e-19 499:7.0133428e-19 500:-0.0056468374 501:-0.0056468374 502:-0.0056468374 503:-0.0033853813 504:1.9968479e-18 505:1.9968479e-18 506:1.9968479e-18 507:-0.049888588 508:-0.0065554678 509:-0.0053230152 510:-0.023656823 511:-0.0065554678 512:-0.0065554678 513:-0.0065554678 514:-0.0065554678 515:-0.0065554678 516:-0.0065554678 517:-0.0065554678 518:-0.0444954 519:-0.0052385442 520:-0.0052385442 521:-0.0052401037 522:-0.0052401037 523:-0.0046185725 524:-0.0062303669 525:-0.0046016658 526:-0.0046016658 527:-0.0046016658 528:-0.0046016658 529:-0.0046016658 530:-0.0046016658 531:-0.0046016658 532:-0.0046016658 533:-0.0046016658 534:-0.0046016658 535:-0.0046016658 536:-0.0046016658 537:-0.0046016658 538:-0.00083648221 539:-0.00067922042 540:-0.00073726673 541:-0.00083648221 542:-0.00083648221 543:-0.00073726673 544:-0.0042425334 545:1.9968479e-18 546:1.9968479e-18 547:1.9968479e-18 548:1.9968479e-18 549:-0.0025351106 550:-0.0025351106 551:-0.0025351106 552:-0.0025351106 553:1.9968479e-18 554:1.9968479e-18 555:-3.5823604e-18 556:-0.053165432 557:7.6732944e-19 558:-4.6660452e-18 559:-0.0031261772 560:-0.0031261772 561:-0.0035468733 562:-0.0035468733 563:-1.4995057e-18 564:-3.5823604e-18 565:1.9968479e-18 566:-1.0844306e-18 567:-0.004862505 568:-0.036456864 569:-0.0048134602 570:-0.0048134602 571:-0.0048134602 572:-0.0048134602 573:-0.0048134602 574:-0.036456864 575:-0.014475799 576:-0.014475799 577:-0.014475799 578:-0.0042371559 579:-3.5823604e-18 580:-3.5823604e-18 581:-0.0057093129 582:-0.011020971 583:-0.0013563656 584:-0.00083549216 585:-0.011342852 586:-0.00083549216 587:-0.00083549216 588:-0.00073639414 589:-0.00083549216 590:-0.00083549216 591:-0.00083549216 592:-0.017388621 593:-0.038534701 594:-0.038534701 595:-0.038534701 596:-0.0083362581 597:-0.0083362581 598:-0.0083362581 599:-0.0024327973 600:-0.060616013 601:-0.0024327973 602:-0.0024327973 603:-0.0024327973 604:-0.003824044 605:-0.003824044 606:-0.003824044 607:-0.003824044 608:-0.003824044 609:-0.0033704725 610:-3.5823604e-18 611:1.9968479e-18 612:-0.0081812069 613:-0.039757058 614:-0.0218655 615:-0.012298727 616:-0.039757058 617:-0.03280852 624:-0.038534701 626:-0.038534701 627:1.9968479e-18 628:-0.032724097 629:-0.01909532 633:-0.038534701 634:-0.038534701 635:-0.038534701 636:-0.040049825 644:-0.00070340239 645:-0.00070340239 657:-0.010696653 658:-0.038142607 674:-0.0074268593 675:-0.0074268593 677:-0.012231663 691:-0.0070229704 696:1.9968479e-18 716:-0.0040485105 732:-0.009656433 738:-0.00025779352 742:-0.003475138 752:-0.027324308 755:-0.027324308 787:-0.017195672 788:-0.023082132 802:1.9968479e-18 808:-0.023082132 809:1.9968479e-18 811:-0.040559128 820:1.9968479e-18 832:-0.022578683 837:1.9968479e-18 844:1.9968479e-18 870:-0.050535813 875:-0.010696653 877:1.9968479e-18 884:-0.0085742045 889:-0.023663992 915:-0.0012614183 931:-0.043242916 934:1.9968479e-18 936:-0.012639824 937:-0.012639824 938:-0.012639824 939:-0.012639824 940:-0.012639824 941:-0.012639824 942:-1.1274218e-12 943:-1.1274218e-12 944:-1.1274218e-12 945:-0.029537119 946:1.9968479e-18 947:1.9968479e-18 948:1.9968479e-18 949:-3.5823604e-18 950:1.9968479e-18 951:1.9968479e-18 952:1.9968479e-18 953:-0.0040067621 954:1.9968479e-18 955:1.9968479e-18 956:1.9968479e-18 957:-1.7709872e-17 958:1.9968479e-18 959:-0.0045933267 960:-0.0045933267 961:-0.0065648491 962:-0.011954576 963:-0.024182126 964:-0.0082507497 965:-0.0082507497 966:-0.0056269527 967:-0.0056269527 968:-0.0056269527 969:-0.0056269527 970:-0.037233043 971:-0.01790143 972:-3.5823604e-18 973:1.9968479e-18 974:-0.0074268593 975:1.9968479e-18 976:-0.0074482942 977:-0.025952732 978:1.9968479e-18 979:1.9968479e-18 980:-0.0048416373 981:-0.0048416373 982:-0.0048416373 983:-0.0048416373 984:-0.024342138 985:-0.025392078 986:-0.052479949 987:-0.014170058 988:-0.014170058 989:-0.014170058 990:-0.058418103 991:1.9968479e-18 992:-0.021105181 993:-0.026902486 994:1.9968479e-18 995:-0.00070340239 996:-0.00070340239 997:-0.01122643 998:-0.00070340239 999:-0.00070340239 1000:-0.00070340239 1001:-0.00070340239 1002:-0.00070340239 1003:-0.00070340239 1004:-0.00070340239 1005:-0.00070340239 1006:1.9968479e-18 1007:-0.00070340239 1008:-0.00070340239 1009:-0.00070340239 1010:-0.00070340239 1011:-0.015853764 1012:-0.0088140061 1013:1.9968479e-18 1014:1.9968479e-18 1015:1.9968479e-18 1016:1.9968479e-18 1017:1.9968479e-18 1018:-0.0018959315 1019:-0.0068251719 1020:-0.0018959315 1021:-0.0018959315 1022:-0.0018959315 1023:1.9968479e-18 1024:1.9968479e-18 1025:-0.0047721947 1026:-0.036549479 1027:-0.0070312056 1028:-0.0070312056 1029:-0.0070312056 1030:-0.0083022611 1031:-0.040559128 1032:-0.038534701 1033:-0.0027999994 1034:-0.0027999994 1035:-0.0031768009 1036:-0.0031768009 1037:1.9968479e-18 1038:1.9968479e-18 1039:-0.0085742045 1040:-0.0085742045 1041:1.9968479e-18 1042:-0.013330809 1043:-0.019962354 1044:-0.019962354 1045:-0.019962354 1046:-0.019962354 1047:-0.012509258 1048:-0.012509258 1049:-0.012509258 1050:-0.012509258 1051:1.9968479e-18 1052:1.9968479e-18 1053:1.9968479e-18 1054:1.9968479e-18 1055:1.9968479e-18 1056:-0.0020829372 1057:-0.019794015 1058:-0.019794015 1059:-0.019794015 1060:-0.019794015 1061:1.9968479e-18 1062:1.9968479e-18 1063:1.9968479e-18 1064:1.9968479e-18 1065:1.9968479e-18 1066:1.9968479e-18 1067:1.9968479e-18 1068:1.9968479e-18 1069:1.9968479e-18 1070:1.9968479e-18 1071:1.9968479e-18 1072:1.9968479e-18 1073:1.9968479e-18 1074:1.9968479e-18 1075:1.9968479e-18 1076:1.9968479e-18 1077:1.9968479e-18 1078:1.9968479e-18 1079:-0.033606187 1080:-0.033606187 1081:-0.033606187 1082:-0.009656433 1083:-0.009656433 1084:-0.009656433 1085:-0.009656433 1086:-0.009656433 1087:1.9968479e-18 1088:-0.0012761024 1089:-0.0012122013 1090:1.9968479e-18 1091:1.9968479e-18 1092:-0.0014745335 1093:1.9968479e-18 1094:1.9968479e-18 1095:1.9968479e-18 1096:-0.012033791 1097:-0.012033791 1098:-0.012033791 1099:-0.0075811148 1100:1.9968479e-18 1101:1.9968479e-18 1102:1.9968479e-18 1103:1.9968479e-18 1104:1.9968479e-18 1105:1.9968479e-18 1106:-0.028651968 1107:-0.028651968 1108:-0.028651968 1109:1.9968479e-18 1110:1.9968479e-18 1111:-0.003475138 1112:-0.003475138 1113:-0.003475138 1114:-0.0017066182 1115:-0.022578683 1116:-0.0012614183 1117:-0.0012614183 1118:-0.0012614183 1119:-0.0012614183 1120:1.9968479e-18 1121:-3.5823604e-18 1122:-0.041313022 1123:1.9968479e-18 1124:-0.0006386654 1125:-0.0006386654 1126:-0.0006386654 1127:-0.0006386654 1128:-0.0006386654 1129:1.9968479e-18 1130:1.9968479e-18 1131:1.9968479e-18 1132:1.9968479e-18 1133:1.9968479e-18 1134:1.9968479e-18 1135:-0.0051541175 1136:-0.0058477176 #
