SVM-light Version V6.20
0 # kernel type
3 # kernel parameter -d 
1 # kernel parameter -g 
1 # kernel parameter -s 
1 # kernel parameter -r 
empty# kernel parameter -u 
1444 # highest feature index 
53 # number of training documents 
2 # number of support vectors plus 1 
0 # threshold b, each following line is a SV (starting with alpha*y)
1 1:-0.4400053 3:-0.05005319 4:-0.027113808 5:-0.00081905618 6:-0.023895392 7:-0.029626923 8:-0.049871661 9:-0.056693744 13:-0.0054745288 14:-0.029626923 15:-0.046483394 16:-0.055485856 17:-0.014825725 18:-0.029687736 19:-0.012147588 20:-0.020933995 21:-0.0068004336 22:-0.057927113 23:-1.3304612e-18 24:-1.3304612e-18 25:-0.059404507 26:1.9320621e-18 27:-0.0016873166 28:-0.0098752193 31:1.9320621e-18 35:-0.042733103 36:-0.0042678607 37:-0.0029235575 38:-0.0029235575 39:-0.02939241 40:-0.038337123 41:-0.0042678607 42:-0.0029235575 43:-0.0029235575 44:-0.0029235575 45:-0.0029235575 46:-0.003662575 47:-0.035110526 48:-0.0077479812 49:-0.0083153211 50:-0.012245652 51:-0.054190543 52:-0.0029520059 53:-0.0029448562 54:-0.0029520059 55:-0.0029520059 56:-0.0052916687 57:-0.0024148866 58:-0.0029520059 59:-0.0040933737 60:-0.05334077 61:-0.038359892 62:-0.041070923 63:-0.037508324 64:-0.042449191 65:-0.046931081 66:-0.046931081 67:-0.0087147802 68:0.012066195 69:-0.0095574036 70:-0.034935426 71:-0.018374886 72:-0.028180763 73:-0.015589377 74:-0.024244593 75:0.01143185 76:0.0012361077 77:0.047289751 78:-0.0077914651 79:-0.0095574036 80:-0.0077914651 81:-0.0077914651 82:-0.0060025472 83:-0.012899344 84:-0.012633502 85:-0.032185856 86:-0.012633502 87:-0.012633502 88:-0.010334828 89:-0.019723723 90:-0.041681971 91:-0.042214323 92:-0.035861216 93:-0.040913068 94:-0.006134572 95:-0.0067686955 96:-0.0045687458 97:-0.0042084078 98:-0.0038891966 99:-0.030839853 100:-0.016079631 101:-0.018873613 104:-0.0022307811 105:-0.012784143 106:-0.014691835 107:-0.0066188872 108:-0.028261282 109:-0.0047575417 110:-0.0071291835 111:-8.6540282e-19 112:-0.049005724 113:-0.014400528 114:-0.044525456 115:-0.011534289 116:-0.0085288594 117:-0.02009492 118:-0.050782993 119:-0.030646024 120:-0.0025631732 121:-0.035656802 122:-0.040969756 123:-0.0079227025 124:-0.017148791 125:-0.049770787 126:-0.015475865 127:-0.0068248929 128:-0.00057457527 129:1.9320621e-18 130:-0.010518357 131:-0.022893302 132:-0.026705286 133:-0.0029447537 134:-0.0087048002 135:-0.012444179 136:-0.0065696673 137:-0.0011160673 138:-2.9015435e-17 139:1.9320621e-18 140:1.9320621e-18 141:-0.045278698 142:-0.026916664 143:-0.0065630497 144:-0.0087873843 145:-0.0099270949 146:-0.02782513 147:-0.031375811 148:-1.8473948e-18 149:-0.033316396 150:-0.012744399 151:-0.045079328 152:-0.012744399 153:-0.014619557 154:-0.040151652 155:-0.038747322 156:-0.04064567 157:-0.024415523 158:-0.036057614 159:-0.020757278 160:-0.015839076 161:-0.0057652718 162:-0.036057614 164:-0.014376731 168:-0.017752521 169:-0.010468834 170:-0.017752521 171:-0.011826627 172:-0.010468834 173:-0.020383228 174:-0.014040637 175:-0.015868219 176:-0.015868219 177:-0.014909046 178:-0.014909046 179:-4.269647e-18 180:-4.269647e-18 181:-0.050699506 182:-0.05544392 183:-0.0080687189 184:-0.0066940282 185:-0.05060808 186:-0.0068128761 187:-0.005198135 188:-0.00059147691 189:-0.002841267 190:-0.00059147691 191:-0.055084828 192:-0.012670763 193:-0.013082108 194:-0.0071241269 196:-0.020581167 197:-0.023250517 198:-0.020581167 199:-0.036059953 200:-0.019307464 201:-0.021401051 202:-4.2493865e-18 203:-0.0028077376 204:-0.0059309579 205:2.8842928e-17 206:-2.9015435e-17 207:-0.039292369 208:-0.042321321 209:-0.036833096 210:-0.032990757 211:-0.00087642181 212:-0.00064279744 213:-0.0035934157 214:-0.00087642181 215:-0.00087642181 216:-0.00087642181 217:-0.022248495 218:-0.033276089 219:-0.019704109 220:-0.022374135 224:-0.005309327 225:-0.0056660427 226:-0.002895613 227:-0.002895613 228:-0.028712824 229:-0.028079905 230:-0.026444329 231:-0.0072260224 232:-0.0072810398 235:-0.0083147315 236:1.9055955e-19 237:-1.967373e-18 238:-0.039609611 240:-0.058075327 241:-0.033103526 242:-0.0033886989 243:-0.0033886989 244:-0.032431845 245:-0.0098084211 248:-0.0010314126 249:-3.6856678e-18 250:0.032248858 251:-3.6856678e-18 252:-0.010956882 253:-0.010725073 254:-3.6856678e-18 255:-3.6856678e-18 256:-0.006390641 257:-3.6856678e-18 258:-0.013252861 259:-3.6856678e-18 260:-3.6856678e-18 261:-0.0011160673 262:-0.0010314126 263:-3.6856678e-18 264:-3.6856678e-18 265:-3.6856678e-18 266:-3.6856678e-18 267:-3.6856678e-18 268:-3.6856678e-18 269:-3.6856678e-18 270:-3.6856678e-18 271:-8.0063366e-18 272:-3.6856678e-18 273:-3.6856678e-18 274:-3.6856678e-18 275:-3.6856678e-18 276:-3.6856678e-18 277:-3.6856678e-18 278:-3.6856678e-18 279:-3.6856678e-18 280:-3.6856678e-18 281:-3.6856678e-18 282:-3.6856678e-18 283:-3.6856678e-18 284:-3.6856678e-18 285:-3.6856678e-18 286:-0.0068206908 287:1.9320621e-18 288:-0.025839109 289:-0.018341554 290:-0.018341554 291:-0.018341554 292:-0.018341554 293:-0.040766466 294:-0.042519536 295:-0.0054150415 296:-0.030080561 297:-0.016710419 298:-0.0030855779 299:-0.01080215 300:-0.019600688 301:-0.012655823 302:-0.010682289 303:-4.2493865e-18 304:2.8842928e-17 305:-0.013233553 306:-0.010825699 307:-0.013233553 308:-0.013233553 309:-0.010825699 310:-0.013233553 311:-0.026690658 312:-0.037261959 313:-0.037261959 314:-0.04836813 315:-0.034105737 316:-0.034105737 317:-0.046517733 318:-0.021157427 319:-0.021157427 320:-0.021157427 321:-0.021157427 322:-0.062381059 323:-0.057691872 324:-0.007830862 325:0.011811983 326:-0.011150829 327:-0.007830862 328:-0.007830862 329:0.012781468 330:-0.007830862 331:-0.007830862 332:-0.007830862 334:-4.2493865e-18 335:-0.0074339495 342:-0.039561566 343:-0.043904092 344:-0.0073390245 345:-0.0073390245 346:-0.040004171 347:-0.0042752554 348:-0.0090586469 349:-0.0052261837 350:-0.037315458 351:1.9320621e-18 354:-0.0083464133 355:-0.050760865 356:-0.0054678265 357:-0.0054678265 358:-0.0054678265 359:-0.004840076 360:-0.017988455 361:-0.0047568581 362:-0.0015179637 363:1.9320621e-18 366:-0.010756232 367:-0.0031908771 368:-0.015963538 369:-0.011421501 370:-0.0031908771 371:-0.0031908771 372:-0.0036047294 373:-0.0022831024 374:-0.00099178194 375:-0.005120208 376:-0.00099178194 377:-0.0072570695 378:-0.0027555092 379:-0.00099178194 380:-0.00099178194 381:-0.00087791734 382:-0.00099178194 383:-0.0059321579 384:-0.008045231 385:-0.00099178194 386:-0.016467905 387:-0.016515136 389:-2.7198375e-18 390:-0.0061989948 392:-0.0027246752 393:-0.01311536 394:-0.0061989948 398:-0.0034296347 399:-0.0027246752 400:-0.012682079 401:-0.014416412 402:-0.0047049224 403:-0.01028649 404:-0.01028649 405:-0.01028649 406:-0.01028649 407:-0.0047049224 408:-0.0047049224 409:-0.031148318 410:-0.031148318 411:-0.031148318 412:-0.0037477221 413:-0.0030658217 414:-0.0037477221 415:-0.0037477221 416:-0.010685587 417:-0.0031139592 418:-1.536762e-18 419:-1.536762e-18 420:-1.9593628e-18 421:-1.536762e-18 422:-1.536762e-18 423:-1.536762e-18 424:-1.536762e-18 425:-1.536762e-18 426:-7.4550976e-18 427:-1.536762e-18 428:-1.536762e-18 429:-1.9593628e-18 430:-1.9593628e-18 431:-0.036638211 432:-4.0977419e-18 434:-0.050997827 440:1.9320621e-18 441:-0.003266227 442:-0.015292702 443:-0.003266227 444:-0.003266227 445:-0.003266227 446:-0.0028912376 447:-0.0071375384 448:-0.0028912376 449:-0.003266227 450:-0.003266227 451:-0.003266227 453:-5.4428986e-19 454:-0.0081676124 457:-0.01345149 466:-0.010052567 467:-0.008421924 468:-0.0075122239 469:-0.0075122239 470:-0.0048339302 471:-0.0048339302 472:-0.0075122239 473:-0.0075122239 474:-0.0069424151 475:-0.040462952 477:1.9320621e-18 478:1.9320621e-18 479:2.7333434e-17 480:-0.010603443 481:-0.0034296347 483:-0.036695678 484:-0.001525261 485:1.9320621e-18 486:-0.040768798 487:-0.012402415 488:-0.040768798 489:-0.012402415 490:-0.012402415 491:-0.0052257143 492:-0.0052257143 493:-0.0052257143 494:-0.0052257143 495:-0.005762828 496:-0.005762828 497:-0.0056308075 498:-0.0047394177 499:-0.0018978387 500:-0.0018978387 501:-0.0018978387 502:-0.0016799514 503:-0.0018978387 504:-0.0018978387 505:-0.0018978387 506:-0.0018978387 507:-0.0018978387 508:-0.0018978387 509:-0.0018978387 510:-0.0018978387 511:-0.0018978387 513:-0.0099277804 514:-0.013333012 518:-0.052931316 519:-0.0072892965 520:-0.0078875758 521:-0.0099738855 522:-0.0092173582 523:-0.0065353233 524:-0.0078875758 525:-0.0072892965 526:-0.0078875758 527:-0.0078875758 528:-0.021595445 529:-0.0053273169 530:-0.0057652718 531:1.9320621e-18 532:-8.8813669e-19 533:-8.8813669e-19 534:-0.0068206908 535:-0.025873005 536:1.9320621e-18 539:-0.0068206908 540:-0.027566614 541:-0.039332923 543:-0.0043091536 544:-0.019997669 545:-0.0037564319 546:-0.0072796694 550:-0.0021646377 551:1.9320621e-18 555:-9.0690335e-19 556:-9.0690335e-19 557:-9.0690335e-19 558:1.9320621e-18 559:-2.5418927e-19 560:-0.0024132237 561:-0.0026112925 562:-2.5418927e-19 563:-2.5418927e-19 564:-2.5418927e-19 565:-0.0083377501 566:-0.0083377501 567:-0.0048284745 568:-0.0237928 569:-0.0048284745 570:-0.0048284745 571:-0.0048284745 572:-0.0237928 576:-4.2493865e-18 577:-4.2493865e-18 578:-0.0070009432 579:-0.015882157 580:-0.015882157 581:-0.015882157 582:-0.035012636 583:-0.0041685617 584:-0.0045107021 585:-0.035012636 586:-0.02274129 588:-0.02274129 589:-0.01666972 590:-0.0029124538 591:-0.010884441 592:-0.00067936454 593:-0.00083046895 594:-0.0050525065 595:1.9320621e-18 596:1.9320621e-18 597:1.9320621e-18 598:-0.0091855861 599:-0.005185416 600:-0.0016245878 601:-0.0016245878 602:-0.0016245878 603:-0.0016245878 604:-0.0016245878 605:-0.0016245878 606:-0.0016245878 607:-0.0016245878 608:-0.0052083465 609:-0.0041161384 610:-0.0027929416 611:-0.0063072192 612:-0.035226081 613:-0.035226081 614:-0.0039099944 615:-0.035226081 620:-0.0088752927 621:-0.0088752927 622:-0.0088752927 623:-0.0042436356 624:-0.0042436356 625:-0.0042436356 626:-0.0037564319 627:-0.0072129164 628:-0.004250261 629:-0.0066539515 630:-0.0054741614 631:-0.0048835604 632:-0.0049555199 633:-0.045042094 634:0.023107478 635:-0.042647973 636:0.025004057 637:-0.041081764 638:-0.0036526183 639:-0.0036526183 640:-0.0024499379 641:-3.248847e-18 642:-0.011850425 643:-0.022286266 644:-0.019039098 647:-0.0042333696 648:-0.0042333696 649:-0.0042333696 650:-0.0042333696 651:-0.0038065668 652:-0.0038065668 653:-0.0038065668 654:-0.0038065668 655:-0.0038065668 656:-2.7198375e-18 657:-0.0029721824 658:1.9320621e-18 659:-0.036057614 665:-0.036057614 666:-0.012537748 668:-0.012537748 669:-0.0050843991 670:-0.0048998757 671:-0.0036149754 674:-2.9015435e-17 685:-0.0077668447 690:-0.0021422782 691:-0.019597044 692:-0.014114437 693:-0.012493985 697:1.9320621e-18 699:-0.010596494 700:-0.012415427 701:-0.0066015995 702:-0.0066015995 703:-0.0066015995 704:-0.0066015995 705:-0.0066015995 706:-0.0066015995 707:-0.0066015995 708:-0.0015525257 709:-0.0018978387 710:-0.0018978387 711:-0.0021716943 712:-0.0018978387 713:-1.4727732e-17 714:-0.050547976 715:-0.010662268 716:-0.010662268 717:-0.010662268 718:-0.010662268 719:-0.013244692 720:-0.013244692 721:-0.013244692 722:-0.013244692 723:-0.032756783 724:-0.017175833 725:-0.017175833 726:-0.01181093 727:-0.0094695762 728:-0.0030227255 731:-0.0064304047 733:-0.01181093 740:1.9320621e-18 741:1.9320621e-18 742:-0.012717985 743:-0.0062654754 744:-0.0047634305 745:-0.0047634305 746:-0.0047634305 747:-0.0062654754 748:-0.0047634305 749:-0.0047634305 752:-0.0073805088 753:-0.039017096 754:-0.013196223 755:-0.0038640704 756:-0.0038640704 757:-0.0056249253 758:-0.0056249253 765:-0.0058989055 772:-0.02587601 773:-0.002895613 774:-0.002895613 775:-0.002895613 776:-0.002895613 777:-0.024890089 780:-0.0064654462 781:-0.0064654462 782:-0.0064654462 783:-0.0076007522 784:-0.0064654462 785:-0.0064654462 788:1.9320621e-18 792:-0.0056249253 796:-0.0053224913 797:-0.0043859971 798:-0.0038916979 799:-0.0038916979 800:-0.0053224913 801:-0.0038916979 802:-0.0043859971 803:-0.0033886989 804:-0.0038282084 805:-0.0033886989 806:-0.0038282084 807:-0.016875628 810:-0.00084929995 813:-0.00078487984 814:-0.0064304047 815:-2.7975312e-18 816:-2.7975312e-18 817:-2.7975312e-18 818:-2.7975312e-18 819:-0.0096040582 820:-0.0096040582 821:-0.0096040582 822:-0.0079769539 823:-0.0079769539 824:-0.0079769539 825:-0.006399476 826:-0.006399476 827:-0.006399476 828:-0.006399476 829:-4.2493865e-18 831:-0.0084251529 832:-0.042270992 833:-1.967373e-18 834:-0.0031023263 835:-0.0031023263 836:-0.0018764685 837:-0.0018764685 838:-0.0025103346 839:-0.0015018361 840:-0.0015018361 841:0.036431488 842:0.036431488 843:0.036431488 844:0.036431488 845:0.036431488 846:0.036431488 853:-0.013062185 854:-0.013062185 855:-0.013062185 856:-0.013062185 857:-0.013062185 858:-0.013062185 859:-0.0097009093 860:-0.010959104 861:-0.010959104 862:-0.023814367 863:-0.023814367 864:-0.023814367 865:-0.0036149754 866:-0.012920256 870:-0.00084929995 875:-0.0072109411 876:-0.0072109411 877:-0.0072109411 878:-0.0063830665 879:-0.021143718 880:-0.02180892 881:-0.021143718 882:-0.021143718 883:-0.0020930888 884:-0.0020930888 885:-0.0032647755 886:-0.0020930888 887:-0.0020930888 888:-0.0020930888 889:-0.0020930888 890:-0.0020930888 891:-0.0018527851 892:-0.0018527851 893:-0.0032647755 894:-0.040726636 895:-0.0026112925 899:-0.039017096 900:-0.00095945294 901:-0.00095945294 902:-0.00095945294 903:-0.00084929995 906:-0.0082283709 907:-0.0042982143 908:-0.006095821 909:-0.0042982143 910:-0.0027029838 911:-0.0010631566 912:-0.0010631566 913:-0.0010631566 914:-0.0010631566 915:-0.0010631566 916:-0.0010631566 917:-0.0010631566 918:-0.0042264052 919:-2.7975312e-18 920:-2.7975312e-18 921:-2.7975312e-18 922:-3.0206419e-18 923:-0.0088789556 924:-4.2493865e-18 928:-0.0026112925 929:-0.008774193 930:-0.008774193 931:-0.008774193 932:-0.0023569008 933:-0.0023569008 936:-0.0021901815 937:-0.0021901815 938:-0.0021901815 939:-0.0021901815 940:-0.0048033176 941:2.453249e-17 944:-0.027332559 945:-0.0065787411 946:-0.0065992498 947:-0.0057434598 948:-0.0056543839 949:-0.0050052144 950:-0.0056543839 951:-0.0056543839 952:-0.0056543839 955:-0.0051975567 956:-0.0033823568 957:-0.0021220758 958:-0.0021220758 959:-0.002397306 960:-0.002397306 961:-9.4379075e-19 964:-0.016250638 965:-0.016250638 966:-0.016250638 967:-0.016250638 968:-0.016250638 969:-0.016250638 971:-0.00087642181 972:-0.00087642181 974:-0.0028212629 975:-0.0024893156 976:-0.020241434 977:-0.0015208842 978:-0.020756997 979:-0.0015208842 980:-0.0015208842 981:-0.0015208842 982:-0.0015208842 983:-0.0015208842 984:-0.0036149754 985:0.0051349951 986:-0.0081322892 987:-0.0081322892 988:0.0051349951 993:-0.0027849781 994:-0.0018764685 995:-0.0057595 996:-0.0018764685 997:-0.0018764685 998:-0.0066176802 999:-0.037704423 1004:-0.013342791 1005:-0.013342791 1013:-0.0056249253 1016:-0.001600942 1020:1.9320621e-18 1021:1.9320621e-18 1022:1.9320621e-18 1023:-0.0084251529 1024:-0.0015986903 1029:-0.016851153 1031:1.9320621e-18 1068:-0.0073312777 1069:-0.0017351749 1070:-0.0021211128 1071:0.017835692 1072:-0.0021211128 1077:0.053087495 1078:0.076426402 1079:-0.0093812793 1080:-0.0089754518 1081:-0.0018978387 1082:-0.0018978387 1083:-0.0016799514 1084:-0.0018978387 1085:-0.0018978387 1086:-0.0018978387 1087:-0.0018978387 1088:-0.0018978387 1091:1.1292787e-18 1092:-0.00084929995 1093:1.9320621e-18 1095:1.9320621e-18 1098:-1.4727732e-17 1099:1.8974914e-17 1100:0.022270069 1101:0.022270069 1102:0.022270069 1103:0.022270069 1104:0.022270069 1105:0.022270069 1106:0.022270069 1107:0.022270069 1108:0.022270069 1109:-0.0012924798 1110:-0.0012924798 1111:-0.0012924798 1112:-0.00095945294 1113:-0.00095945294 1114:-0.00084929995 1115:-0.00095945294 1116:-0.00095945294 1117:-0.00095945294 1118:-0.00095945294 1119:-0.00095945294 1120:-0.00095945294 1121:-0.00095945294 1122:-0.00095945294 1123:-0.00095945294 1124:-0.00095945294 1125:-0.00095945294 1126:-0.0036149754 1127:-0.0036149754 1128:-0.0036149754 1129:-0.0036149754 1137:-0.0070980252 1138:-0.0047662128 1139:-0.0047662128 1140:-0.0047662128 1141:-0.0047662128 1142:-0.0058199549 1143:-0.0047662128 1144:-0.0047662128 1145:-0.0047662128 1146:-0.0047662128 1147:-0.0060558524 1148:-0.0078606568 1149:-0.0078606568 1151:1.9320621e-18 1154:1.9320621e-18 1157:2.8842928e-17 1160:-0.00075827609 1161:-0.00075827609 1162:-0.00075827609 1166:-0.008961902 1167:-0.008961902 1168:-0.011460579 1169:-0.011460579 1170:-0.011460579 1171:-0.011460579 1172:-0.0039491742 1173:-0.0039491742 1174:-0.0039491742 1175:-0.0039491742 1179:-0.0090874098 1180:-0.0090874098 1181:-0.025222685 1182:-4.1557504e-18 1183:-0.033047054 1184:-0.00056143122 1185:1.9320621e-18 1186:1.9320621e-18 1187:-0.0012286322 1188:-0.0012286322 1189:-0.0012286322 1190:-0.0012286322 1191:-0.0012286322 1192:-0.0012286322 1193:-0.0012286322 1196:1.9320621e-18 1203:-0.0013462743 1204:-0.0015208842 1205:-0.0015208842 1206:-0.0015208842 1207:-0.0015208842 1208:-0.0015208842 1209:-0.0015208842 1210:-0.0015208842 1211:-0.025642304 1212:-0.0048224828 1213:-0.0048224828 1214:-0.0048224828 1215:-0.0048224828 1216:1.9320621e-18 1246:-0.0031645691 1247:-0.0031645691 1248:-0.0031645691 1249:-0.010353546 1259:-0.031148318 1260:-0.031148318 1261:-0.031148318 1266:-0.017451853 1267:-0.013230541 1268:-0.013230541 1269:-1.9593628e-18 1270:-0.014009917 1271:-0.014009917 1272:-0.014009917 1273:-0.014009917 1274:-0.0044570491 1275:-0.0044570491 1276:-0.0039453437 1277:-0.0044570491 1278:-0.0044570491 1279:-0.0044570491 1280:-0.0044570491 1281:-3.7044345e-18 1282:-3.7044345e-18 1283:-0.0053738155 1284:-0.0053738155 1285:-0.0053738155 1286:-0.016453533 1287:-0.016453533 1288:-0.016453533 1289:-0.016453533 1290:-0.016453533 1291:-0.016453533 1295:-0.012892091 1296:-0.012892091 1297:-0.020205438 1298:-0.020205438 1299:-0.020205438 1300:-0.020205438 1305:-9.0690335e-19 1306:-0.0069286134 1307:-0.0069286134 1308:-0.0069286134 1309:-0.0069286134 1310:-0.0069286134 1314:1.9320621e-18 1319:-0.00083046895 1320:-0.00083046895 1321:-0.00083046895 1322:-0.00083046895 1323:-0.0081156334 1334:-0.0029499733 1335:-0.0018060382 1336:-0.0018060382 1337:-0.0018060382 1338:-0.001808582 1339:-0.001808582 1340:-0.001808582 1341:-0.001808582 1342:-0.001808582 1343:-0.001808582 1344:-0.001808582 1345:-0.001808582 1346:-0.001808582 1347:-0.001808582 1348:-0.001808582 1349:-0.001808582 1350:-0.017651752 1351:-0.0012608197 1352:-0.0012608197 1353:-0.0012608197 1354:-0.0012608197 1355:-0.0012608197 1356:-0.0012608197 1357:-0.0012608197 1358:-0.0012608197 1359:-0.0012608197 1360:-0.014123641 1361:-0.014123641 1362:-0.014123641 1371:-0.012071667 1372:-0.0083377501 1373:-0.0083377501 1374:-0.0083377501 1375:-0.0083377501 1376:-0.0068760226 1377:-0.0068760226 1378:-0.0068760226 1379:-0.0068760226 1380:-0.0068760226 1381:-0.0068760226 1382:-0.021397311 1383:-0.021397311 1384:-0.021397311 1385:-0.013264977 1386:-0.0024201286 1387:-0.0024201286 1388:-0.015968991 1392:-0.005599515 1393:-0.005599515 1394:-0.022050219 1396:-0.0024453881 1397:-0.0024453881 1398:-0.0024453881 1399:-0.0024453881 1400:-0.0024453881 1401:-0.0024453881 1402:-0.0024453881 1412:-0.0034937889 1413:-0.0034937889 1414:-0.0034937889 1415:-0.0034937889 1416:-0.0034937889 1417:-0.01727967 1424:-0.0095178839 1425:-0.020377403 1428:-0.0034731191 1431:-0.019064372 1432:-0.019064372 1433:-0.0062598079 1434:-0.0062598079 1436:-0.01602703 1437:-0.01602703 1440:-0.0020696667 1441:-0.0020696667 1442:-0.0020696667 1443:-0.0020696667 #
