SVM-light Version V6.20
0 # kernel type
3 # kernel parameter -d 
1 # kernel parameter -g 
1 # kernel parameter -s 
1 # kernel parameter -r 
empty# kernel parameter -u 
2398 # highest feature index 
41 # number of training documents 
2 # number of support vectors plus 1 
0 # threshold b, each following line is a SV (starting with alpha*y)
1 1:-0.43603122 3:-0.034343947 4:-0.02423924 5:-0.044840522 6:-0.0093086185 7:-0.043890879 8:-0.0084555866 9:-0.0082042804 10:-0.0095091946 11:-0.010050586 12:-1.4638117e-18 13:-0.043890879 14:-0.030792313 15:-0.04770847 16:-0.022387166 17:-0.022612358 18:-0.03158674 19:-0.025668254 20:-0.019760236 21:-0.017791234 22:-0.048517812 23:-0.011874123 24:-0.013676734 25:-0.0035601885 26:-0.0012362648 27:-3.4749618e-18 28:-0.0053269807 29:-0.011512442 30:-0.017820114 31:-0.036102984 32:-0.0066925758 33:-0.073756389 34:-0.050454669 35:-0.0018994814 36:-0.0016241571 37:-0.0072313184 38:-0.041015171 39:-0.021161789 40:-1.6292861e-18 41:-0.017862687 42:-0.030255452 43:-0.030470515 44:-0.026814165 45:5.3473676e-17 46:-3.1219497e-17 47:-1.6292861e-18 48:-1.6292861e-18 49:-3.4749618e-18 50:-0.029378967 51:-0.014248326 52:-0.014242331 53:-0.017283501 54:-0.015357367 55:-0.035165336 56:-0.001399449 57:-0.0021361324 58:-1.6292861e-18 59:-1.6292861e-18 60:-1.6292861e-18 61:-0.012903106 62:-0.0093118073 63:-0.012669039 64:-0.013245877 65:-0.0045393719 66:-0.0058356998 67:-0.010312716 68:-0.0052465457 69:-0.0032244704 70:-0.043216545 71:0.024372933 72:-0.022670943 73:-0.011730406 74:-1.6292861e-18 75:-1.6292861e-18 76:-1.6292861e-18 77:-1.6292861e-18 78:-1.6292861e-18 79:-0.045694713 80:-0.052147243 81:-0.035255939 82:-0.045675337 83:0.0030591562 84:0.0056658182 85:-3.4749618e-18 86:-0.012995352 87:-2.0688538e-17 88:-1.9762391e-18 89:-0.040885415 90:-0.055776846 91:-0.0016319518 92:-0.0075069517 93:-0.0045992448 94:-0.0014350528 95:0.010824447 96:-0.018044235 97:-0.0072173472 98:-0.0016319518 99:-0.0085787745 100:-0.0016319518 101:-0.0016319518 102:-0.0045992448 103:-0.0016319518 104:-0.0016319518 105:-0.0016319518 106:-0.0016319518 107:-0.0016319518 108:-0.0016319518 109:-0.0016319518 110:-0.0085787745 111:-0.035821415 112:-0.035821415 113:-0.0017466513 114:-0.035821415 115:-0.028566193 116:-0.010233521 117:-0.023512518 118:-1.6292861e-18 119:-1.6292861e-18 120:0.001631094 121:-0.010828284 122:-3.4749618e-18 123:-0.0033443407 124:-3.4749618e-18 125:-1.6292861e-18 126:-1.6292861e-18 127:-1.6292861e-18 128:-1.6292861e-18 129:-1.6292861e-18 130:-1.6292861e-18 131:-1.6292861e-18 132:-0.010828284 133:-0.010828284 134:-0.010828284 135:-0.013893689 136:-0.010828284 137:-0.011650682 138:-0.011650682 139:-0.011168449 140:-0.0055565368 141:-0.0035983406 142:-0.0035983406 143:-0.0035983406 144:-0.0035983406 145:-0.0035983406 146:-0.0035983406 147:-0.0050165462 148:-0.0035983406 149:-0.0035983406 150:-0.0035983406 151:-0.01210063 152:1.3772558e-17 153:-1.6292861e-18 154:-0.012740551 155:-0.01210063 156:-1.6292861e-18 157:-1.6292861e-18 158:-3.4749618e-18 159:-1.6292861e-18 160:-1.6292861e-18 161:-1.6292861e-18 162:-1.6292861e-18 163:-0.0027930143 164:-1.6292861e-18 165:-0.042761799 166:-3.4749618e-18 167:-0.035017926 168:-0.0087671001 169:-1.6292861e-18 170:-0.016272062 171:-1.6292861e-18 172:-0.011899369 173:-0.0095236376 174:-1.6292861e-18 175:-1.6292861e-18 176:-0.0029503987 177:-0.0291974 178:-0.046777334 179:-0.034959704 180:-1.6292861e-18 181:-1.6292861e-18 182:-0.01103404 183:-1.6292861e-18 184:-0.0041983281 185:-1.6292861e-18 186:-1.6292861e-18 187:-1.6292861e-18 188:-1.6292861e-18 189:-1.6292861e-18 190:-0.031358954 191:-1.6292861e-18 192:-1.6292861e-18 193:-0.0023075435 194:1.3772558e-17 195:-0.0090117427 196:0.0059195468 197:-1.6292861e-18 198:-1.6292861e-18 199:-1.6292861e-18 200:-3.4749618e-18 201:-1.6292861e-18 202:-1.6292861e-18 203:-1.6292861e-18 204:-1.4638117e-18 205:-1.4638117e-18 206:-0.019713376 207:-0.02885644 208:-1.6292861e-18 209:-0.021227892 210:-0.019349402 211:-0.024843313 212:-1.6292861e-18 213:-1.6292861e-18 214:-1.6292861e-18 215:-0.0019562363 216:-1.6292861e-18 217:-0.032372784 218:-0.0031340963 219:-0.012661605 220:-0.018480031 221:-0.0073204958 222:-1.6292861e-18 223:-1.6292861e-18 224:-1.6292861e-18 225:-1.6292861e-18 226:-1.6292861e-18 227:-3.4749618e-18 228:-2.0688538e-17 229:-0.019349402 230:-1.6292861e-18 231:-1.6292861e-18 232:-1.6292861e-18 233:-1.6292861e-18 234:-1.6292861e-18 235:-1.6292861e-18 236:-1.6292861e-18 237:-1.6292861e-18 238:-1.6292861e-18 239:-1.6292861e-18 240:-1.4638117e-18 241:-0.04535991 242:-0.027652163 243:-0.033772431 244:-0.012994351 245:-0.006879251 246:-4.2276581e-18 247:-5.8899197e-18 248:-0.011281179 249:-0.033772431 250:-0.0060808551 251:-0.0060808551 252:-0.0060808551 253:-0.0060808551 254:-0.04461576 255:-0.039198428 256:-0.036632899 257:-0.037094586 258:-0.0080046384 259:-1.6292861e-18 260:-0.0076772245 261:-1.4638117e-18 262:-1.4638117e-18 263:-1.6292861e-18 264:-0.0052444059 265:-0.0055429889 266:-0.021892613 267:-0.014240701 268:-0.014240701 269:-0.014240701 270:-0.016794631 271:-0.0012201898 272:-0.0012201898 273:-0.0028037052 274:-0.0012201898 275:-0.0017432608 276:-0.001072971 277:-0.001072971 278:-0.001134059 279:-0.0012201898 280:-0.0012201898 281:-0.0012201898 282:-0.0012201898 283:-0.0012201898 284:-0.0012201898 285:-0.0012201898 286:-0.0012201898 287:-1.6292861e-18 288:-0.043536577 289:-1.6292861e-18 290:-1.6292861e-18 291:-0.018730614 292:-1.6292861e-18 293:-0.0084905466 294:-0.021758307 295:-0.014121514 296:-0.040398341 297:-0.0084248297 298:-0.011861743 299:-1.6292861e-18 300:-1.6292861e-18 301:-0.014774315 302:-1.6292861e-18 303:-0.04065365 304:-1.6292861e-18 305:-1.6292861e-18 306:-1.6292861e-18 307:-0.021467132 308:-0.0036030828 309:-0.0033626193 310:-0.026892276 311:-0.030498357 312:-0.0036030828 313:-1.6292861e-18 314:-1.4638117e-18 315:-1.6292861e-18 316:-3.4749618e-18 317:-1.6292861e-18 318:-0.0072201723 319:-3.4749618e-18 320:-0.01184863 321:-0.0014183916 322:-3.4749618e-18 323:-3.4749618e-18 324:-0.027964382 325:-1.6292861e-18 326:-1.6292861e-18 327:-3.4749618e-18 328:-1.6292861e-18 329:-0.0030121689 330:-0.035299037 331:-0.0040805815 332:-0.0030958464 333:-0.0040805815 334:-0.0037925413 335:-0.0034297029 336:-0.0040805815 337:-0.014094398 338:-0.0250265 339:-2.0688538e-17 340:-0.016613908 341:-1.6292861e-18 342:-1.6292861e-18 343:-0.0059428965 344:-0.0045149461 345:-0.017919628 346:-0.030149389 347:-1.6292861e-18 348:-3.4749618e-18 349:-0.0045146644 350:-5.5518768e-17 351:1.3772558e-17 352:3.7897872e-17 353:1.3772558e-17 354:1.3772558e-17 355:-0.011384803 356:-0.023795778 357:1.3772558e-17 358:-1.6292861e-18 359:-0.0020119417 360:1.3772558e-17 361:3.95017e-18 362:-0.0046406672 363:-0.0188032 364:-0.0085794013 365:-3.4749618e-18 366:-3.4749618e-18 367:-5.5518768e-17 368:-0.0020572937 369:-0.0078621013 370:-0.014897631 371:-0.046425723 372:-1.6292861e-18 373:-1.6292861e-18 374:-0.011323557 375:-0.0016294993 376:-0.0016294993 377:-0.0016294993 378:-0.0016294993 379:-1.4638117e-18 380:-1.6292861e-18 381:-3.4749618e-18 382:-1.6292861e-18 383:-1.6292861e-18 384:-0.044446979 385:-0.011428799 386:-0.020100405 387:-0.026670136 388:-0.015775876 389:-0.0036854034 390:-0.023617225 391:-0.0044875196 392:-0.016752588 393:-0.014876508 394:-1.4638117e-18 395:-0.018098144 396:-0.00071738596 397:-0.00070435525 398:-0.0059117479 399:-0.039852668 400:-0.046222419 401:-1.6292861e-18 402:-1.6292861e-18 403:-0.032258511 404:-0.023072736 405:0.018439151 406:-0.0011721789 407:-1.4638117e-18 408:-3.4749618e-18 409:-0.014713905 410:-0.0024463341 411:-0.016307406 412:-3.4749618e-18 413:-0.00076447707 414:-0.010712789 415:-1.6292861e-18 416:-0.029436145 417:-0.058563933 418:-0.0073082033 419:1.3772558e-17 420:-0.010712789 421:-2.0688538e-17 422:-1.7693027e-18 423:-1.6292861e-18 424:-1.6292861e-18 425:-0.0095965108 426:-1.4638117e-18 427:-0.0017944739 428:-0.0052580796 429:-0.001996421 430:-0.029551696 431:-0.021037525 432:-0.029901218 433:-3.4749618e-18 434:-0.006266118 435:-0.026210524 436:-0.006266118 437:-0.006266118 438:-0.006266118 439:-0.026210524 440:-0.023097543 441:-0.023097543 442:-0.024296861 443:-3.4749618e-18 444:-1.6292861e-18 445:-3.4749618e-18 446:-0.0090249702 447:-0.0095335394 448:-0.0090249702 449:-0.049029674 450:-0.017714072 451:-1.6292861e-18 452:-1.6292861e-18 453:3.95017e-18 454:-2.0688538e-17 455:-1.6292861e-18 456:-1.6292861e-18 457:-1.6292861e-18 458:-1.6292861e-18 459:-1.6292861e-18 460:-1.6292861e-18 461:-0.0082194414 462:-0.0082194414 463:-0.0082194414 464:-0.0076633785 465:-0.010930303 466:-0.0096563231 467:0.035403661 468:-0.0082546892 469:-1.6292861e-18 470:-0.0066201328 471:-0.024755405 472:-3.4749618e-18 473:-0.011339937 474:-0.0038655067 475:-0.00316468 476:-3.4749618e-18 477:-0.015013732 478:-1.6292861e-18 479:-0.006145257 480:-0.0022422499 481:-1.6292861e-18 482:-1.6292861e-18 483:-1.6292861e-18 484:-0.030575341 485:-0.017125955 486:-0.0025302535 487:-0.0077515091 488:-1.6292861e-18 489:-2.0688538e-17 490:-2.0688538e-17 491:-1.6292861e-18 492:-0.0018993631 493:-0.0037161456 494:-1.6292861e-18 495:1.3772558e-17 496:-3.4749618e-18 497:-3.4749618e-18 498:-0.0021675685 499:-0.00069040066 500:-1.6292861e-18 501:-1.6292861e-18 502:-3.4749618e-18 503:-1.6292861e-18 504:-3.4749618e-18 505:-3.4749618e-18 506:-1.4638117e-18 507:-0.0079284599 508:-0.020673292 509:-0.011863879 510:-0.0021916321 511:-3.4749618e-18 512:-1.6292861e-18 513:-3.4749618e-18 514:-3.4749618e-18 515:-0.0079284599 516:-0.0079284599 517:-0.0045430171 518:-3.4749618e-18 519:-0.0067457668 520:-1.6292861e-18 521:-3.4749618e-18 522:-1.6292861e-18 523:-1.6292861e-18 524:-0.0067457668 525:-0.005954084 526:-0.0081761032 527:-0.013787387 528:1.3772558e-17 529:5.3473676e-17 530:-3.4749618e-18 531:-3.4749618e-18 532:-1.4638117e-18 533:-1.6292861e-18 534:-3.4749618e-18 535:-0.014473904 536:-0.0073318598 537:-0.007766359 538:3.95017e-18 539:-2.0688538e-17 540:-0.0025204392 541:-1.6292861e-18 542:-1.6292861e-18 543:-1.6292861e-18 544:-1.6292861e-18 545:-0.03128596 546:-0.042936169 547:-1.6292861e-18 548:-1.6292861e-18 549:-0.013519486 550:-1.6292861e-18 551:-1.6292861e-18 552:-1.6292861e-18 553:-1.6292861e-18 554:-0.0024367862 555:-0.042936169 556:-0.0090571204 557:-0.013559486 558:1.3772558e-17 559:-0.0079686753 560:-0.0081906123 561:-0.0090571204 562:-1.6292861e-18 563:-0.014387779 564:-0.0081828982 565:-0.0087373266 566:-1.6292861e-18 567:-1.6292861e-18 568:-5.5518768e-17 569:-0.018773494 570:-0.0035243018 571:-0.0089668855 572:-3.4749618e-18 573:-1.6292861e-18 574:-3.4749618e-18 575:-0.0020280536 576:1.3772558e-17 577:-1.6292861e-18 578:-1.6292861e-18 579:-0.0077803689 580:-3.4749618e-18 581:-0.0020280536 582:-1.6292861e-18 583:-1.6292861e-18 584:-1.6292861e-18 585:-3.4749618e-18 586:-1.6292861e-18 587:-1.6292861e-18 588:-0.012884348 589:-0.012884348 590:1.3772558e-17 591:-0.013384799 592:-0.050291587 593:-0.0029187824 594:-1.6292861e-18 595:-3.4749618e-18 596:-1.6292861e-18 597:-1.6292861e-18 598:-1.6292861e-18 599:-0.055173293 600:-0.05343708 601:-0.0057589449 602:-0.023437157 603:-1.6292861e-18 604:-3.4749618e-18 605:-5.5960879e-17 606:-0.013192205 607:-1.6292861e-18 608:-0.013195038 609:-0.013195038 610:-0.0040797307 611:-1.4638117e-18 612:-3.4749618e-18 613:-1.6292861e-18 614:-0.015761878 615:-1.6292861e-18 616:-1.6292861e-18 617:-1.6292861e-18 618:-3.4749618e-18 619:-3.4749618e-18 620:-0.0098052826 621:-0.0064586163 622:-0.0042481367 623:0.061642677 624:-0.00483101 625:-0.00483101 626:-0.00483101 627:-0.00483101 628:-0.021055525 629:-0.005653861 630:-0.0028964437 631:-0.0040479754 632:-0.0031164261 633:-0.0031164261 634:-1.6292861e-18 635:-1.6292861e-18 636:-0.032673143 637:-0.032673143 638:-0.032673143 639:-0.020514686 640:-0.014156451 641:-0.021029064 642:-0.0016979274 643:-1.6292861e-18 644:-3.4749618e-18 645:-0.013157137 646:-1.6292861e-18 647:-0.032673143 648:-0.032673143 649:-0.032673143 650:-0.014281301 651:-2.0688538e-17 652:-5.5518768e-17 653:-0.0027135608 654:-3.4749618e-18 655:-1.6292861e-18 656:-0.0017324924 657:-0.0013144034 658:-0.0017908359 659:-0.0014561489 660:-0.0017324924 661:-0.0017324924 662:-0.0017324924 663:-0.0017324924 664:-0.0017324924 665:-0.019223725 666:-0.0099797482 667:-0.0099797482 668:-0.0017964543 669:-0.0017964543 670:-0.0016696461 671:-0.0015797077 672:-0.0055772648 673:-0.0030243825 674:-1.6292861e-18 675:-0.0016294993 676:-0.0016294993 677:-0.0016294993 678:-0.0028657923 679:-0.0083948635 680:-0.012241961 681:-0.0042986884 682:-0.0016294993 683:-0.0016294993 684:-0.0016294993 685:-0.001514476 686:-0.0016294993 687:-0.0094318083 688:-0.0094318083 689:-0.0094318083 690:-0.0094318083 691:-1.6292861e-18 692:-0.010725916 693:-0.010725916 694:-0.010725916 695:-0.034004565 696:-0.0067526936 697:-0.0050394144 698:-3.4749618e-18 699:-0.034004565 700:-0.007628947 701:-0.010332721 702:-0.007628947 703:-0.007628947 704:-0.0059652026 705:-0.007628947 706:-1.6292861e-18 707:-1.6292861e-18 708:-0.0082789911 709:-1.6292861e-18 710:-0.01551256 711:-0.011077564 712:-0.012249492 713:-0.01317983 714:-0.01317983 715:-0.02255041 716:-0.0029469591 717:-0.0041972878 718:-1.6292861e-18 719:-3.4749618e-18 720:-1.6292861e-18 721:-1.6292861e-18 722:-1.6292861e-18 723:-3.4749618e-18 724:-1.6292861e-18 725:-0.020543734 726:-1.6292861e-18 727:-0.010175454 728:-0.010175454 729:-0.010175454 730:-0.010175454 731:-0.038670223 732:-0.007204541 733:-0.0048301099 734:-0.0046709375 735:-0.0042616678 736:-0.0078102746 737:-2.7667308e-18 738:-2.7667308e-18 739:-0.0040048878 740:-1.4638117e-18 741:-1.6292861e-18 742:1.3772558e-17 743:-1.6292861e-18 744:-1.6292861e-18 745:-0.041373517 746:-1.6292861e-18 747:-2.0688538e-17 748:-1.6292861e-18 749:-1.6292861e-18 750:-0.032673143 751:-0.032673143 752:-0.032673143 753:-0.039842159 754:-0.022980927 755:-0.0040048878 756:-0.024289314 757:-0.051703654 758:-0.02182501 759:-0.010175912 760:-0.011572115 761:-0.015215944 762:-0.011572115 763:-0.011572115 764:-0.011572115 765:-0.011572115 766:-0.011572115 767:-0.011572115 768:-1.6292861e-18 769:-0.0007751935 770:1.3772558e-17 771:-1.4638117e-18 772:-1.6292861e-18 773:-1.6292861e-18 774:-3.4749618e-18 775:-1.6292861e-18 776:-0.0040876423 777:-0.00390703 778:-3.4749618e-18 779:-3.4749618e-18 780:-1.6292861e-18 781:-1.6292861e-18 782:-1.6292861e-18 783:-1.6292861e-18 784:-0.0059375721 785:-0.0061406922 786:-0.0029968615 787:-1.6292861e-18 788:-3.4749618e-18 789:-0.0097240172 790:-3.4749618e-18 791:-1.6292861e-18 792:-0.0018469002 793:-1.6292861e-18 794:-1.6292861e-18 795:-0.033673838 796:-1.6292861e-18 797:-1.6292861e-18 798:-1.6292861e-18 799:-0.0018469002 800:-1.6292861e-18 801:-1.6292861e-18 802:-1.6292861e-18 803:-1.6292861e-18 804:-1.6292861e-18 805:-0.033673838 806:-0.0089249182 807:-0.007671332 808:-0.007671332 809:-0.0093374941 810:-0.007671332 811:-0.007671332 812:-0.007671332 813:-0.007671332 814:-0.007671332 815:-1.6292861e-18 816:-0.0078034764 817:1.3772558e-17 818:-1.4638117e-18 819:-1.6292861e-18 820:-2.0688538e-17 821:-0.013278238 822:-3.4749618e-18 823:-1.6292861e-18 824:-0.026360597 825:-0.020692237 826:-1.6292861e-18 827:-1.6292861e-18 828:-1.6292861e-18 829:-1.6292861e-18 830:-1.6292861e-18 831:-5.5518768e-17 832:-1.6292861e-18 833:-1.6292861e-18 834:-3.4749618e-18 835:-1.6292861e-18 836:-1.6292861e-18 837:-1.6292861e-18 838:-0.007628947 839:-0.0070904349 840:-0.007628947 841:-0.007628947 842:-0.029181056 843:-3.4749618e-18 844:-1.6292861e-18 845:-0.018350868 846:-1.6292861e-18 847:-3.4749618e-18 848:-1.6292861e-18 849:-3.4749618e-18 850:-1.6292861e-18 851:-1.6292861e-18 852:-2.0688538e-17 853:-3.4749618e-18 854:-1.6292861e-18 855:-0.011672248 856:-1.4638117e-18 857:-1.6292861e-18 858:-1.6292861e-18 859:-1.6292861e-18 860:-1.6292861e-18 861:-2.4439291e-18 862:-0.016361957 863:-0.0018774278 864:-0.012749986 865:-0.012749986 866:-3.4749618e-18 867:-0.0019843164 868:-0.0021350235 869:-0.0021350235 870:-3.4749618e-18 871:-0.0023203788 872:-1.6292861e-18 873:-0.015235418 874:-1.6292861e-18 875:-1.6292861e-18 876:-1.6292861e-18 877:-1.6292861e-18 878:-0.016102824 879:-0.010727332 880:-0.0066034822 881:-0.00280127 882:-0.0053269807 883:-1.6292861e-18 884:-0.0028591354 885:-1.6292861e-18 886:-1.4638117e-18 887:-1.6292861e-18 888:1.3772558e-17 889:-1.4638117e-18 890:-1.6292861e-18 891:-0.018390339 892:-0.021251833 893:-0.014034215 894:-0.014034215 895:-1.6292861e-18 896:-1.6292861e-18 897:-0.018390339 898:-0.021251833 899:-0.017195869 900:-0.017195869 901:-1.6292861e-18 902:1.3772558e-17 903:-1.6292861e-18 904:-0.010859583 905:-0.010379753 906:-0.010608592 907:-0.00051936216 908:-1.6292861e-18 909:-3.4749618e-18 910:-1.6292861e-18 911:-0.0052712979 912:-1.6292861e-18 913:-1.6292861e-18 914:-0.0065002046 915:-0.020356469 916:-3.4749618e-18 917:-0.036608417 918:-1.6292861e-18 919:-3.4749618e-18 920:-1.6292861e-18 921:-1.6292861e-18 922:-0.013737913 923:-0.014781296 924:-0.014781296 925:-0.01561547 926:-0.002003324 927:-0.018914891 928:-4.2276581e-18 929:-0.018152231 930:-0.0048316428 931:-5.5518768e-17 932:-0.0078764809 933:-1.6292861e-18 934:1.3772558e-17 935:3.4945188e-18 936:-1.6292861e-18 937:-0.015279926 938:-0.01413127 939:-0.0046313419 940:-0.0046313419 941:-1.6292861e-18 942:-0.0099397702 943:-0.0099397702 944:-0.0099397702 945:-0.018501882 946:-0.0028466079 947:-0.010004538 948:-0.0058866027 949:-0.019787069 950:-1.6292861e-18 951:-3.4749618e-18 952:-4.0165632e-18 953:-3.4749618e-18 954:-0.011964167 955:-0.0019281955 956:-0.013616385 957:-1.6292861e-18 958:-1.6292861e-18 959:-0.012023373 960:-0.012023373 961:-0.02351838 962:-0.020642839 963:-0.02557105 964:-0.022572311 965:-0.0076352214 966:-0.0076352214 967:-0.0082151098 968:-0.0082151098 969:-1.6292861e-18 970:-1.6292861e-18 971:-1.4638117e-18 972:-0.0032244704 973:-3.4749618e-18 974:-1.6292861e-18 975:-0.013335152 976:-3.4749618e-18 977:-0.014034215 978:-1.6292861e-18 979:-0.0030051414 980:-0.0027930143 981:-0.0030051414 982:-0.016279468 983:-0.0030051414 984:-0.0030051414 985:-0.0030051414 986:-0.0027930143 987:-0.0030051414 988:-0.0030051414 989:-0.0030051414 990:-0.0027930143 991:-0.0030051414 992:-0.0030051414 993:-1.6292861e-18 994:-1.6292861e-18 995:-1.6292861e-18 996:-3.4749618e-18 997:-0.001877556 998:-1.6292861e-18 999:-1.6292861e-18 1000:-1.6292861e-18 1001:-0.0037925413 1002:-0.0014764608 1003:-1.6292861e-18 1004:-1.6292861e-18 1005:-1.6292861e-18 1006:-1.6292861e-18 1007:-1.6292861e-18 1008:-1.6292861e-18 1009:-3.4749618e-18 1010:-3.4749618e-18 1011:-1.4638117e-18 1012:-0.038836893 1013:-3.4749618e-18 1014:-3.4749618e-18 1015:-1.6292861e-18 1016:-1.6292861e-18 1017:-1.6292861e-18 1018:-0.0020201548 1019:-0.0020201548 1020:-0.0020201548 1021:-0.0020201548 1022:-0.0098592946 1023:-0.0020201548 1024:-0.0020201548 1025:-0.010598057 1026:-0.011201441 1027:-0.012052182 1028:-0.012052182 1029:-1.6292861e-18 1030:-0.011108387 1031:-0.0022785685 1032:-1.6292861e-18 1033:-0.0014764608 1034:-1.6292861e-18 1035:-1.6292861e-18 1036:-0.0022785685 1037:-1.6292861e-18 1038:-1.6292861e-18 1039:-0.0032244704 1040:-0.0032244704 1041:-0.0023211068 1042:-1.6292861e-18 1043:-3.4749618e-18 1044:-0.008645935 1045:1.3282773e-17 1046:-0.043221403 1047:-1.6292861e-18 1048:-1.6292861e-18 1049:-1.6292861e-18 1050:-0.020329719 1051:-0.026015451 1052:-0.028375655 1053:-0.024119562 1054:-0.009239343 1055:-0.020305643 1056:0.015256718 1057:-0.0031425599 1058:-0.0034409275 1059:-0.0031425599 1060:-0.0031425599 1061:-0.018978456 1062:-0.020756856 1063:-0.020756856 1064:-0.020756856 1065:-0.014757713 1066:-0.016782571 1067:-0.015597923 1068:-0.016782571 1069:-0.016782571 1070:-0.03942439 1071:-0.044165578 1072:-3.4749618e-18 1073:-3.4749618e-18 1074:-1.6292861e-18 1075:-3.4749618e-18 1076:-1.6292861e-18 1077:-0.0075014462 1078:-0.00093528489 1079:-0.0025917273 1080:-1.6292861e-18 1081:-0.0025917273 1082:-0.0025917273 1083:-1.6292861e-18 1084:-1.6292861e-18 1085:-3.4749618e-18 1086:-1.6292861e-18 1087:-3.4749618e-18 1088:-1.6292861e-18 1089:-1.6292861e-18 1090:-1.6292861e-18 1091:-0.0029473298 1092:-3.4749618e-18 1093:-0.0092313485 1094:-0.0037894079 1095:-0.0028378307 1096:-1.6292861e-18 1097:-1.6292861e-18 1098:-1.6292861e-18 1099:-1.6292861e-18 1100:-1.6292861e-18 1101:-2.0688538e-17 1102:-1.6292861e-18 1103:-0.000869265 1104:-0.03606993 1105:-0.0040805815 1106:-0.0040805815 1107:-0.0035882494 1108:-0.011250401 1109:-1.6292861e-18 1110:-3.4749618e-18 1111:-1.6292861e-18 1112:-0.019880392 1113:-1.6292861e-18 1114:-1.6292861e-18 1115:-3.4749618e-18 1116:-1.6292861e-18 1117:0.041243806 1118:0.041243806 1119:0.041243806 1120:0.041243806 1121:0.041243806 1122:0.034237534 1123:0.038332485 1124:-0.012791707 1125:-1.6292861e-18 1126:-0.0091859372 1127:-0.00261849 1128:-0.00261849 1129:-0.0028173623 1130:-1.6292861e-18 1131:-1.6292861e-18 1132:-1.6292861e-18 1133:-1.4638117e-18 1134:-0.011980633 1135:-1.6292861e-18 1136:-1.6292861e-18 1137:0.0047804764 1138:-0.011980633 1139:-1.6292861e-18 1140:-1.6292861e-18 1141:-1.6292861e-18 1142:-1.6292861e-18 1143:-1.6292861e-18 1144:-0.0036740152 1145:-0.0023968818 1146:-0.0023968818 1147:-0.0022677695 1148:-0.0023968818 1149:-0.0023968818 1150:-0.0023968818 1151:-0.002578923 1152:-1.6292861e-18 1153:-3.4749618e-18 1154:-0.0010501537 1155:-0.0010501537 1156:-0.0007751935 1157:-0.0010501537 1158:-0.0010501537 1159:-1.6292861e-18 1160:-1.6292861e-18 1161:-3.4749618e-18 1162:-0.063259557 1163:-1.6292861e-18 1164:-1.6292861e-18 1165:-0.0037816183 1166:-1.6292861e-18 1167:-1.6292861e-18 1168:-3.4749618e-18 1169:-1.6292861e-18 1170:-0.066861153 1171:-0.034729321 1172:-0.0049172798 1173:-1.4638117e-18 1174:-0.034729321 1175:-0.015867084 1176:-0.0025070899 1177:-0.0025070899 1178:-0.0027533509 1179:-0.0029624656 1180:-0.0029624656 1181:0.013033945 1182:0.0046218131 1183:0.11351302 1184:0.08417093 1185:-0.0719392 1186:-0.0719392 1187:0.082574449 1188:-0.0093750544 1189:-2.0688538e-17 1190:-1.6292861e-18 1191:-1.6292861e-18 1192:-1.6292861e-18 1193:3.95017e-18 1194:0.037910879 1195:0.042409327 1196:-0.0046118484 1197:-0.0046118484 1198:-1.6292861e-18 1199:-1.6292861e-18 1200:-0.0048744176 1201:-1.6292861e-18 1202:-1.6292861e-18 1203:-1.6292861e-18 1204:-1.6292861e-18 1205:-0.028031748 1206:-0.028031748 1207:-0.037471537 1208:-1.6292861e-18 1209:-0.014565085 1210:-0.014565085 1211:-1.6292861e-18 1212:-1.6292861e-18 1213:-1.4638117e-18 1214:-1.6292861e-18 1215:-1.6292861e-18 1216:-1.6292861e-18 1217:-1.6292861e-18 1218:-0.013022231 1219:-0.00065331178 1220:-0.013022231 1221:-0.021792049 1222:0.0291267 1223:-0.017144281 1224:-0.017144281 1225:-0.017144281 1226:-0.00917257 1227:-0.00917257 1228:-0.022104012 1229:-0.022104012 1230:-0.022104012 1231:-0.0012847928 1232:-0.001205233 1233:-2.212022e-18 1234:-2.212022e-18 1235:-0.0090305936 1236:-0.0090305936 1237:-0.0090305936 1238:-0.0040473356 1239:-0.0040473356 1240:-0.0040473356 1241:-1.6292861e-18 1242:-0.0060008531 1243:-0.0060008531 1244:-0.014225447 1245:-0.015305856 1246:-0.015305856 1247:-0.014225447 1248:-0.015305856 1249:-0.015305856 1250:-0.017144281 1251:-0.017144281 1252:-0.017144281 1253:-1.6292861e-18 1254:-1.4638117e-18 1255:-1.6292861e-18 1256:-0.0069512334 1257:-0.0069512334 1258:-0.0069512334 1259:-0.0069512334 1260:-0.0069512334 1261:-0.0099324612 1262:-0.0099324612 1263:-0.0099324612 1264:-0.026200732 1265:-0.0058193831 1266:-0.023612207 1267:-0.0069237677 1268:-0.0058193831 1269:-0.0060800267 1270:-0.0060800267 1271:-0.0060800267 1272:-1.6292861e-18 1273:-1.6292861e-18 1274:-3.4749618e-18 1275:-1.6292861e-18 1276:-1.6292861e-18 1277:-1.6292861e-18 1278:-1.6292861e-18 1279:-1.6292861e-18 1280:-1.6292861e-18 1281:-0.0070904349 1282:-1.6292861e-18 1283:-1.6292861e-18 1284:-1.6292861e-18 1285:-3.4749618e-18 1286:-1.6292861e-18 1287:-2.0688538e-17 1288:-1.6292861e-18 1289:-1.6292861e-18 1290:-1.6292861e-18 1291:-1.6292861e-18 1292:-1.6292861e-18 1293:-1.6292861e-18 1294:-1.6292861e-18 1295:-1.6292861e-18 1296:-1.6292861e-18 1297:-1.6292861e-18 1298:-1.6292861e-18 1299:-0.0071699321 1300:-0.0068992199 1301:-1.6292861e-18 1302:-1.6292861e-18 1303:-3.4749618e-18 1304:-1.6292861e-18 1305:-1.6292861e-18 1306:-1.6292861e-18 1307:-0.0071699321 1308:-0.0075013801 1309:-0.0079284599 1310:-3.4431239e-05 1311:-0.0058695558 1312:-3.4431239e-05 1313:-3.4431239e-05 1314:-0.0017847234 1315:-0.0017847234 1316:-0.0087651219 1317:-0.0019202715 1318:-0.0019202715 1319:-0.0019202715 1320:-0.0019202715 1321:-0.0019202715 1322:-1.6292861e-18 1323:-1.6292861e-18 1324:-0.0058130738 1325:-0.0058130738 1326:-0.009356576 1327:-0.009356576 1328:-0.009356576 1329:-0.009356576 1330:-0.007628947 1331:-0.007628947 1332:-0.007628947 1333:-0.007628947 1334:-0.001877556 1335:-0.0020201548 1336:-0.0020201548 1337:-0.0020201548 1338:-1.6292861e-18 1339:-1.4638117e-18 1340:-3.4749618e-18 1341:-1.6292861e-18 1342:-0.010184628 1343:-1.6292861e-18 1344:-1.6292861e-18 1345:-0.0010501537 1346:-0.0010501537 1347:-0.0010501537 1348:-0.00097602542 1349:-0.00097602542 1350:-0.0010501537 1351:-0.0010501537 1352:-0.0010501537 1353:-0.007510554 1354:-0.0066043874 1355:-0.007510554 1356:-0.007510554 1357:-0.007510554 1358:-0.007510554 1359:-0.0075983736 1360:-0.0075983736 1361:-0.0075983736 1362:-0.0075983736 1363:-0.0075983736 1364:-1.6292861e-18 1365:-0.00071347295 1366:-1.6292861e-18 1367:-1.6292861e-18 1368:-1.6292861e-18 1369:-1.6292861e-18 1370:-1.6292861e-18 1371:-0.0085051376 1372:-0.0079284599 1373:-0.012364347 1374:-0.012364347 1375:-0.012364347 1376:-3.4749618e-18 1377:-1.6292861e-18 1378:-1.6292861e-18 1379:-1.6292861e-18 1380:-1.6292861e-18 1381:-1.6292861e-18 1382:-0.002966841 1383:-0.002966841 1384:-0.002966841 1385:-0.0067084963 1386:-3.1219497e-17 1387:-0.0011998102 1388:-0.00065620022 1389:-0.00081136631 1390:-0.00081136631 1391:-0.00075409352 1392:-0.0012709132 1393:-0.0011998102 1394:-0.0014292751 1395:-1.6292861e-18 1396:-1.6292861e-18 1397:-0.00071580213 1398:-1.6292861e-18 1399:-1.6292861e-18 1400:-1.6292861e-18 1401:-1.6292861e-18 1402:-0.0047136848 1403:-0.0049820514 1404:-0.0049820514 1405:-0.014476155 1406:-0.014476155 1407:-0.014476155 1408:-1.6292861e-18 1409:-0.0080790138 1410:-1.6292861e-18 1411:-1.6292861e-18 1412:-0.01185545 1413:-1.9762391e-18 1414:-0.0049723554 1415:1.3772558e-17 1416:-1.6292861e-18 1417:-1.6292861e-18 1418:-3.4749618e-18 1419:-5.5518768e-17 1420:-3.4749618e-18 1421:-3.1219497e-17 1422:-1.6292861e-18 1423:-1.6292861e-18 1424:-1.6292861e-18 1425:-1.6292861e-18 1426:-1.6292861e-18 1427:-0.0080217281 1428:-3.4749618e-18 1429:-0.0013182382 1430:-0.01195206 1431:-0.01195206 1432:-0.01195206 1433:-1.6292861e-18 1434:-1.6292861e-18 1435:-1.6292861e-18 1436:-1.6292861e-18 1437:-0.010903775 1438:-1.6292861e-18 1439:-5.5518768e-17 1440:-1.6292861e-18 1441:-1.6292861e-18 1442:-1.6292861e-18 1443:-1.6292861e-18 1444:-1.6292861e-18 1445:-1.6292861e-18 1446:-1.6292861e-18 1447:-1.6292861e-18 1448:-0.001669411 1449:-3.4749618e-18 1450:-1.6292861e-18 1451:-1.6292861e-18 1452:-1.6292861e-18 1453:-1.6292861e-18 1454:-0.0032244704 1455:-0.0029968615 1456:-0.0032244704 1457:-0.0032244704 1458:-0.0032244704 1459:-1.4638117e-18 1460:-1.6292861e-18 1461:-1.6292861e-18 1462:-1.6292861e-18 1463:-3.4749618e-18 1464:-3.4749618e-18 1465:-1.6292861e-18 1466:-0.0012847928 1467:-1.6292861e-18 1468:-1.6292861e-18 1469:-1.6292861e-18 1470:-1.6292861e-18 1471:-0.0017944739 1472:1.3772558e-17 1473:-1.6292861e-18 1474:-1.6292861e-18 1475:-0.0071224356 1476:-1.6292861e-18 1477:-1.6292861e-18 1478:-3.4749618e-18 1479:-0.002744949 1480:-1.6292861e-18 1481:-1.6292861e-18 1482:-1.6292861e-18 1483:-1.6292861e-18 1484:-3.4749618e-18 1485:-1.6292861e-18 1486:-0.011284143 1487:-2.0688538e-17 1488:-1.6292861e-18 1489:-1.6292861e-18 1490:-1.6292861e-18 1491:-0.0097450018 1492:-0.0097450018 1493:-0.0097450018 1494:-0.0097450018 1495:-0.0065254993 1496:-0.0010848698 1497:-0.018816015 1498:-1.6292861e-18 1499:-1.6292861e-18 1500:-3.4749618e-18 1501:-0.017769085 1502:-1.6292861e-18 1503:-1.6292861e-18 1504:-1.6292861e-18 1505:-1.6292861e-18 1506:-1.6292861e-18 1507:-1.6292861e-18 1508:-1.6292861e-18 1509:-1.6292861e-18 1510:-1.6292861e-18 1511:-1.6292861e-18 1512:-1.6292861e-18 1513:-1.6292861e-18 1514:-0.0028188522 1515:-1.6292861e-18 1516:-1.4638117e-18 1517:-0.0010501537 1518:-0.0076633785 1519:-0.0092685902 1520:-0.0052446253 1521:-0.0073047266 1522:-0.0052446253 1523:-0.0052446253 1524:-0.0048744176 1525:-0.0052446253 1526:-0.0052446253 1527:-1.6292861e-18 1528:-1.6292861e-18 1529:-1.6292861e-18 1530:-1.6292861e-18 1531:-1.6292861e-18 1532:-1.6292861e-18 1533:-1.6292861e-18 1534:-1.6292861e-18 1535:-1.6292861e-18 1536:-1.6292861e-18 1537:-1.6292861e-18 1538:-3.4749618e-18 1539:-1.6292861e-18 1540:-0.011980633 1541:-1.6292861e-18 1542:-1.6292861e-18 1543:-1.6292861e-18 1544:-1.6292861e-18 1545:-1.6292861e-18 1546:-1.6292861e-18 1547:-1.6292861e-18 1548:-1.6292861e-18 1549:-1.6292861e-18 1550:-1.6292861e-18 1551:-1.6292861e-18 1552:-1.6292861e-18 1553:-1.6292861e-18 1554:-0.0035983406 1555:-0.0035983406 1556:-0.0035983406 1557:-0.0035983406 1558:-0.00093528489 1559:-0.00093528489 1560:-0.00093528489 1561:-0.00093528489 1562:-0.00093528489 1563:-0.00093528489 1564:-0.030021738 1565:-0.0021350235 1566:-0.0019843164 1567:-0.0021350235 1568:-0.0021350235 1569:-0.0021350235 1570:-0.021567276 1571:-0.021567276 1572:-0.021567276 1573:-0.0055822087 1574:-0.0055822087 1575:-0.0055822087 1576:-1.6292861e-18 1577:-1.6292861e-18 1578:-3.4749618e-18 1579:-3.4749618e-18 1580:-1.6292861e-18 1581:-1.6292861e-18 1582:-3.4749618e-18 1583:-1.6292861e-18 1584:-1.4638117e-18 1585:-1.6292861e-18 1586:-1.6292861e-18 1587:-1.6292861e-18 1588:-3.4749618e-18 1589:-1.6292861e-18 1590:-3.4749618e-18 1591:-0.015209937 1592:-1.4638117e-18 1593:-1.6292861e-18 1594:-3.4749618e-18 1595:-1.6292861e-18 1596:-3.4749618e-18 1597:-1.6292861e-18 1598:-1.6292861e-18 1599:-1.6292861e-18 1600:-1.6292861e-18 1601:-1.6292861e-18 1602:-1.6292861e-18 1603:-1.6292861e-18 1604:-3.4749618e-18 1605:-1.6292861e-18 1606:-1.6292861e-18 1607:-0.00065834244 1608:-1.6292861e-18 1609:-1.6292861e-18 1610:-1.6292861e-18 1611:-1.6292861e-18 1612:-1.6292861e-18 1613:-3.4749618e-18 1614:-0.00071580213 1615:-3.4749618e-18 1616:-3.4749618e-18 1617:-1.6292861e-18 1618:-1.6292861e-18 1619:-0.024712348 1620:-0.024712348 1621:-2.212022e-18 1622:-2.212022e-18 1623:-2.212022e-18 1624:-2.212022e-18 1625:-0.0009234501 1626:-0.00097602542 1627:-0.00097602542 1628:-0.0010501537 1629:-0.00097602542 1630:-0.0009234501 1631:-0.0009234501 1632:-0.00097602542 1633:-0.00097602542 1634:-0.00097602542 1635:-0.00097602542 1636:-0.0010501537 1637:-0.0010501537 1638:-1.6292861e-18 1639:-1.4638117e-18 1640:-1.6292861e-18 1641:-3.4749618e-18 1642:-1.4638117e-18 1643:-1.6292861e-18 1644:-1.6292861e-18 1645:-1.6292861e-18 1646:-1.6292861e-18 1647:-1.6292861e-18 1648:-1.6292861e-18 1649:-1.6292861e-18 1650:-1.6292861e-18 1651:-1.6292861e-18 1652:-1.4638117e-18 1653:-1.6292861e-18 1654:-1.6292861e-18 1655:-0.0029845266 1656:-1.6292861e-18 1657:-1.6292861e-18 1658:-1.6292861e-18 1659:-3.4749618e-18 1660:-1.6292861e-18 1661:-1.6292861e-18 1662:-1.6292861e-18 1663:-1.6292861e-18 1664:-0.01369831 1665:-1.6292861e-18 1666:-1.6292861e-18 1667:-1.6292861e-18 1668:-3.4749618e-18 1669:-1.6292861e-18 1670:-1.6292861e-18 1671:-1.6292861e-18 1672:-1.6292861e-18 1673:-1.6292861e-18 1674:-1.6292861e-18 1675:-1.6292861e-18 1676:-1.6292861e-18 1677:-3.4749618e-18 1678:3.4945188e-18 1679:-1.6292861e-18 1680:-1.6292861e-18 1681:-1.6292861e-18 1682:-1.6292861e-18 1683:-1.6292861e-18 1684:-1.6292861e-18 1685:-1.6292861e-18 1686:-1.6292861e-18 1687:-1.6292861e-18 1688:-1.6292861e-18 1689:-1.6292861e-18 1690:-1.6292861e-18 1691:-1.6292861e-18 1692:-1.6292861e-18 1693:-1.6292861e-18 1694:-1.6292861e-18 1695:-0.0050383862 1696:-1.6292861e-18 1697:-1.6292861e-18 1698:-1.6292861e-18 1699:-1.6292861e-18 1700:-1.6292861e-18 1701:-1.6292861e-18 1702:-3.4749618e-18 1703:-1.6292861e-18 1704:-1.6292861e-18 1705:-1.4638117e-18 1706:-3.4749618e-18 1707:-1.6292861e-18 1708:-1.6292861e-18 1709:-1.6292861e-18 1710:-1.6292861e-18 1711:1.3772558e-17 1712:-1.6292861e-18 1713:-1.6292861e-18 1714:-1.6292861e-18 1715:-1.6292861e-18 1716:-1.6292861e-18 1717:-1.6292861e-18 1718:-1.6292861e-18 1719:-1.6292861e-18 1720:-1.6292861e-18 1721:-1.6292861e-18 1722:-1.6292861e-18 1723:-1.6292861e-18 1724:-1.6292861e-18 1725:-1.6292861e-18 1726:-1.6292861e-18 1727:-1.6292861e-18 1728:-1.6292861e-18 1729:-1.6292861e-18 1730:-1.6292861e-18 1731:-1.6292861e-18 1732:-1.6292861e-18 1733:-1.6292861e-18 1734:-1.6292861e-18 1735:-1.6292861e-18 1736:-1.4638117e-18 1737:-1.6292861e-18 1738:-1.6292861e-18 1739:-0.0009234501 1740:-0.018816015 1741:-0.020245075 1742:-0.020245075 1743:-0.015164824 1744:-0.0010356361 1745:-1.6292861e-18 1746:-1.6292861e-18 1747:-1.6292861e-18 1748:-1.6292861e-18 1749:-1.6292861e-18 1750:-0.010101857 1751:-0.010101857 1752:-0.010101857 1753:-0.010101857 1754:-0.010101857 1755:-0.012317698 1756:-3.4749618e-18 1757:-1.6292861e-18 1758:-0.022445517 1759:1.3772558e-17 1760:-1.6292861e-18 1761:-1.6292861e-18 1762:-0.0057315603 1763:-0.0053269807 1764:-0.0057315603 1765:-1.6292861e-18 1766:-1.6292861e-18 1767:-0.0079284599 1768:-1.6292861e-18 1769:-1.6292861e-18 1770:-3.4749618e-18 1771:-0.0061903023 1772:-1.4638117e-18 1773:-1.6292861e-18 1774:-1.6292861e-18 1775:-1.6292861e-18 1776:-1.6292861e-18 1777:-3.4749618e-18 1778:-3.4749618e-18 1779:-1.6292861e-18 1780:-1.6292861e-18 1781:-1.6292861e-18 1782:-0.00081401505 1783:0.0099989343 1784:0.0099989343 1785:-0.00081401505 1786:-0.00081401505 1787:-0.00081401505 1788:-1.6292861e-18 1789:-0.048359092 1790:-1.6292861e-18 1791:-1.6292861e-18 1792:-0.0081307264 1793:-1.6292861e-18 1794:-1.6292861e-18 1795:-1.6292861e-18 1796:-1.6292861e-18 1797:-1.6292861e-18 1798:-1.6292861e-18 1799:-1.6292861e-18 1800:-1.6292861e-18 1801:-1.6292861e-18 1802:-1.6292861e-18 1803:-1.6292861e-18 1804:-1.6292861e-18 1805:-1.6292861e-18 1806:-1.6292861e-18 1807:-1.6292861e-18 1808:-1.6292861e-18 1809:-1.6292861e-18 1810:-3.4749618e-18 1811:-1.6292861e-18 1812:-1.6292861e-18 1813:-1.6292861e-18 1814:-1.6292861e-18 1815:-1.6292861e-18 1816:-1.6292861e-18 1817:-1.6292861e-18 1818:-1.6292861e-18 1819:-1.6292861e-18 1820:-1.6292861e-18 1821:-0.0022703435 1822:-0.0022703435 1823:-1.6292861e-18 1824:-1.6292861e-18 1825:-1.6292861e-18 1826:-1.6292861e-18 1827:-0.026119309 1828:-1.6292861e-18 1829:-1.6292861e-18 1830:-0.00078610104 1831:-1.6292861e-18 1832:-1.6292861e-18 1833:-3.4749618e-18 1834:-1.6292861e-18 1835:-1.6292861e-18 1836:-1.6292861e-18 1837:-1.6292861e-18 1838:-3.4749618e-18 1839:-3.4749618e-18 1840:-1.6292861e-18 1841:-1.6292861e-18 1842:-1.6292861e-18 1843:-1.6292861e-18 1844:-1.6292861e-18 1845:-1.6292861e-18 1846:-1.6292861e-18 1847:-1.6292861e-18 1848:-1.6292861e-18 1849:-1.6292861e-18 1850:-3.4749618e-18 1851:-1.6292861e-18 1852:-1.6292861e-18 1853:-1.6292861e-18 1854:-3.4749618e-18 1855:-1.6292861e-18 1856:-1.6292861e-18 1857:-3.4749618e-18 1858:-1.6292861e-18 1859:-0.001514476 1860:-1.6292861e-18 1861:-0.041320145 1862:-0.0094962148 1863:-0.0016294993 1864:-0.0094962148 1865:-0.0016294993 1866:-0.007981739 1867:-0.0085879453 1868:-0.0085879453 1869:-0.0085879453 1870:-0.017823664 1871:-0.0047743674 1872:-0.013069123 1873:-0.014061712 1874:-0.022339625 1875:-1.6292861e-18 1876:-1.6292861e-18 1877:0.072246522 1878:0.072246522 1879:-1.6292861e-18 1880:-0.000869265 1881:-1.6292861e-18 1882:-0.0096201263 1883:-0.0096201263 1884:-1.6292861e-18 1885:-1.6292861e-18 1886:-1.6292861e-18 1887:-1.6292861e-18 1888:1.3772558e-17 1889:-1.6292861e-18 1890:-1.6292861e-18 1891:-1.6292861e-18 1892:-1.6292861e-18 1893:-1.6292861e-18 1894:-1.6292861e-18 1895:-1.6292861e-18 1896:-1.6292861e-18 1897:-0.023205444 1898:-1.6292861e-18 1899:-1.6292861e-18 1900:-1.6292861e-18 1901:-1.6292861e-18 1902:-1.6292861e-18 1903:-1.6292861e-18 1904:-1.6292861e-18 1905:-1.6292861e-18 1906:-1.6292861e-18 1907:-1.6292861e-18 1908:-0.0018470024 1909:-0.00097602542 1910:-0.0010501537 1911:-0.0010501537 1912:-0.016102824 1913:-0.0076789223 1914:-0.018544894 1915:-0.0085306196 1916:-0.0085306196 1917:-0.0085306196 1918:-0.0043093404 1919:-1.6292861e-18 1920:-1.6292861e-18 1921:-1.6292861e-18 1922:-1.6292861e-18 1923:-1.6292861e-18 1924:-3.4749618e-18 1925:-1.6292861e-18 1926:-1.6292861e-18 1927:-0.0016294993 1928:-0.0016294993 1929:-0.0016294993 1930:-0.0016294993 1931:-0.0016294993 1932:-0.021664683 1933:-0.021664683 1934:-0.021664683 1935:-1.6292861e-18 1936:-0.018189585 1937:-0.018189585 1938:-0.018189585 1939:-0.01057415 1940:-1.6292861e-18 1941:-1.6292861e-18 1942:-1.6292861e-18 1943:-1.6292861e-18 1944:-1.6292861e-18 1945:-1.6292861e-18 1946:-0.0072107064 1947:-0.0072107064 1948:-0.0072107064 1949:-0.0072107064 1950:-0.0072107064 1951:-0.0049830885 1952:-0.0049830885 1953:-0.0049830885 1954:-0.0029845266 1955:-0.0016696461 1956:-0.0016696461 1957:-1.6292861e-18 1958:-1.6292861e-18 1959:-0.0016696461 1960:-0.0016696461 1961:-0.0016696461 1962:-1.6292861e-18 1963:-1.6292861e-18 1964:-1.6292861e-18 1965:-1.6292861e-18 1966:-1.6292861e-18 1967:-1.6292861e-18 1968:-1.6292861e-18 1969:-0.0017964543 1970:-0.0017964543 1971:-1.6292861e-18 1972:-3.4749618e-18 1973:-0.013624458 1974:-1.6292861e-18 1975:-1.6292861e-18 1976:-1.6292861e-18 1977:-1.6292861e-18 1978:-1.6292861e-18 1979:-1.6292861e-18 1980:-1.6292861e-18 1981:-1.6292861e-18 1982:-1.6292861e-18 1983:-0.020291276 1984:-0.020291276 1985:-0.020291276 1986:-0.024967879 1987:-0.024967879 1988:-0.024967879 1989:-1.6292861e-18 1990:-1.6292861e-18 1991:-1.6292861e-18 1992:-1.6292861e-18 1993:-3.4749618e-18 1994:-1.6292861e-18 1995:-0.0026677772 1996:-0.0026677772 1997:-0.0026677772 1998:-0.003168344 1999:-0.0026677772 2000:-0.0026677772 2001:-0.034497209 2002:-1.6292861e-18 2003:-1.6292861e-18 2004:-1.6292861e-18 2005:-1.6292861e-18 2006:-1.6292861e-18 2007:-1.6292861e-18 2008:-1.6292861e-18 2009:-1.6292861e-18 2010:-1.6292861e-18 2011:-1.6292861e-18 2012:-0.0089412471 2013:-0.0089412471 2014:-0.0089412471 2015:-0.0089412471 2016:-0.007628947 2017:-0.007628947 2018:-0.007628947 2019:-0.007628947 2020:-0.007628947 2021:-0.00093528489 2022:-0.00093528489 2023:-0.00093528489 2024:-1.6292861e-18 2025:-1.6292861e-18 2026:-1.6292861e-18 2027:-1.6292861e-18 2028:-0.0028173623 2029:-0.0028173623 2030:-0.0028173623 2031:-0.0028173623 2032:-0.0028173623 2033:-0.0028173623 2034:-0.0028173623 2035:-0.0028173623 2036:-3.4749618e-18 2037:-1.6292861e-18 2038:-1.6292861e-18 2039:-0.0043712584 2040:-0.0043712584 2041:-0.0043712584 2042:-0.0043712584 2043:-0.0043712584 2044:-0.01557781 2045:-0.01557781 2046:-1.6292861e-18 2047:-1.6292861e-18 2048:-0.0033552134 2049:-0.0033552134 2050:-0.0033552134 2051:-0.0033552134 2052:-0.0033552134 2053:-0.0033552134 2054:-0.0033552134 2055:-1.6292861e-18 2056:-1.6292861e-18 2057:-1.6292861e-18 2058:-1.6292861e-18 2059:-1.6292861e-18 2060:-1.6292861e-18 2061:-1.6292861e-18 2062:-1.6292861e-18 2063:-1.6292861e-18 2064:-3.4749618e-18 2065:-0.0088683628 2066:-0.015057768 2067:-0.017123794 2068:-1.6292861e-18 2069:-1.6292861e-18 2070:-1.6292861e-18 2071:-1.6292861e-18 2072:-0.016311653 2073:-0.0023091538 2074:-0.0023091538 2075:-0.0023091538 2076:-1.6292861e-18 2077:-3.4749618e-18 2078:-1.6292861e-18 2079:-1.6292861e-18 2080:-1.6292861e-18 2081:-1.6292861e-18 2082:-1.6292861e-18 2083:-1.6292861e-18 2084:-3.4749618e-18 2085:-1.6292861e-18 2086:-1.6292861e-18 2087:-1.6292861e-18 2088:-1.6292861e-18 2089:-1.6292861e-18 2090:-1.6292861e-18 2091:-1.4638117e-18 2092:-1.6292861e-18 2093:-0.033733599 2094:-0.0018954115 2095:-2.212022e-18 2096:-1.6292861e-18 2097:-1.6292861e-18 2098:-1.6292861e-18 2099:-1.6292861e-18 2100:-1.6292861e-18 2101:-1.6292861e-18 2102:-3.4749618e-18 2103:-1.6292861e-18 2104:-3.4749618e-18 2105:-1.6292861e-18 2106:-1.6292861e-18 2107:-1.6292861e-18 2108:-1.6292861e-18 2109:-0.0084034586 2110:-0.0084034586 2111:-0.0078102746 2112:-1.6292861e-18 2113:-1.6292861e-18 2114:-1.6292861e-18 2115:-1.6292861e-18 2116:-1.6292861e-18 2117:-1.6292861e-18 2118:-1.6292861e-18 2119:-1.6292861e-18 2120:-1.6292861e-18 2121:-1.6292861e-18 2122:-1.6292861e-18 2123:-1.6292861e-18 2124:-1.6292861e-18 2125:-1.6292861e-18 2126:-1.6292861e-18 2127:-1.6292861e-18 2128:-1.6292861e-18 2129:-1.6292861e-18 2130:-1.6292861e-18 2131:-1.6292861e-18 2132:-1.6292861e-18 2133:-1.6292861e-18 2134:-1.6292861e-18 2135:-1.6292861e-18 2136:-1.6292861e-18 2137:-1.6292861e-18 2138:-1.6292861e-18 2139:-1.6292861e-18 2140:-1.6292861e-18 2141:-1.6292861e-18 2142:-0.004405959 2143:-0.004405959 2144:-0.0056045745 2145:-0.0015885967 2146:-0.0015885967 2147:-0.011582027 2148:-0.011582027 2149:-0.011582027 2150:-1.6292861e-18 2151:-1.6292861e-18 2152:-1.6292861e-18 2153:-1.6292861e-18 2154:-1.6292861e-18 2155:-1.6292861e-18 2156:-1.6292861e-18 2157:-1.6292861e-18 2158:-1.6292861e-18 2159:-1.6292861e-18 2160:-1.6292861e-18 2161:-1.6292861e-18 2162:-1.6292861e-18 2163:-1.6292861e-18 2164:-1.6292861e-18 2165:-1.6292861e-18 2166:-0.0033940237 2167:-0.0033940237 2168:-0.0033940237 2169:-0.0033940237 2170:-0.0032393746 2171:-0.0017964543 2172:-0.0017964543 2173:-0.0017964543 2174:-1.6292861e-18 2175:-1.6292861e-18 2176:-1.6292861e-18 2177:-1.6292861e-18 2178:-1.6292861e-18 2179:-1.6292861e-18 2180:-1.6292861e-18 2181:-1.6292861e-18 2182:-1.6292861e-18 2183:-1.6292861e-18 2184:-1.6292861e-18 2185:-1.6292861e-18 2186:-1.6292861e-18 2187:-0.036295637 2188:-1.6292861e-18 2189:-1.6292861e-18 2190:-1.6292861e-18 2191:-0.021902526 2192:-1.6292861e-18 2193:-1.6292861e-18 2194:-1.6292861e-18 2195:-1.6292861e-18 2196:-1.6292861e-18 2197:-0.012530423 2198:-0.013750861 2199:-4.2726675e-18 2200:-0.0056726336 2201:-1.6292861e-18 2202:-1.6292861e-18 2203:-1.6292861e-18 2204:-1.6292861e-18 2205:-1.6292861e-18 2206:-1.6292861e-18 2207:-1.6292861e-18 2208:-1.6292861e-18 2209:-1.6292861e-18 2210:-1.6292861e-18 2211:-1.6292861e-18 2212:-1.6292861e-18 2213:-1.6292861e-18 2214:-1.6292861e-18 2215:-1.6292861e-18 2216:-1.6292861e-18 2217:-0.0048572822 2218:-1.6292861e-18 2219:-1.6292861e-18 2220:-1.6292861e-18 2221:-1.6292861e-18 2222:-0.0015697284 2223:-0.0023802104 2224:-0.0023802104 2225:-0.0023802104 2226:-0.0023802104 2227:-0.0023802104 2228:-0.0023802104 2229:-0.0086309714 2230:-0.0086309714 2231:-0.000869265 2232:-0.0025415211 2233:-0.0025415211 2234:-1.6292861e-18 2235:-1.6292861e-18 2236:-1.6292861e-18 2237:-1.4638117e-18 2238:-1.6292861e-18 2239:-0.010755262 2240:-0.014962385 2241:-1.6292861e-18 2242:-0.0089423656 2243:-0.011572115 2244:-0.011572115 2245:-0.011572115 2246:-0.0146735 2247:-0.0146735 2248:-0.0146735 2249:-0.0146735 2250:-0.0055336244 2251:-0.0055336244 2252:-0.0055336244 2253:-0.0055336244 2254:-3.4749618e-18 2255:-1.6292861e-18 2256:-1.6292861e-18 2257:-1.6292861e-18 2258:-1.6292861e-18 2259:-0.012013681 2260:-0.012013681 2261:-0.012013681 2262:-0.012013681 2263:-1.6292861e-18 2264:-1.6292861e-18 2265:-1.6292861e-18 2266:-1.6292861e-18 2267:-1.6292861e-18 2268:-1.6292861e-18 2269:-1.6292861e-18 2270:-1.6292861e-18 2271:-1.6292861e-18 2272:-1.6292861e-18 2273:-1.6292861e-18 2274:-1.6292861e-18 2275:-1.6292861e-18 2276:-1.6292861e-18 2277:-0.022841334 2278:-0.022841334 2279:-0.022841334 2280:-1.6292861e-18 2281:-3.4749618e-18 2282:-3.4749618e-18 2283:-3.4749618e-18 2284:-1.6292861e-18 2285:-1.6292861e-18 2286:-3.4749618e-18 2287:-1.6292861e-18 2288:-1.6292861e-18 2289:-1.6292861e-18 2290:-1.6292861e-18 2291:-1.6292861e-18 2292:-1.6292861e-18 2293:-1.6292861e-18 2294:-1.6292861e-18 2295:-2.212022e-18 2296:-4.0165632e-18 2297:-0.0066604507 2298:-1.6292861e-18 2299:-1.6292861e-18 2300:-1.6292861e-18 2301:-1.6292861e-18 2302:-1.6292861e-18 2303:-1.6292861e-18 2304:-1.6292861e-18 2305:-0.012967534 2306:-1.6292861e-18 2307:-1.6292861e-18 2308:-1.6292861e-18 2309:-0.0021554749 2310:-0.0021554749 2311:-0.0021554749 2312:-1.6292861e-18 2313:-1.6292861e-18 2314:-1.6292861e-18 2315:-1.6292861e-18 2316:-1.6292861e-18 2317:-1.6292861e-18 2318:-1.6292861e-18 2319:-1.6292861e-18 2320:-1.6292861e-18 2321:-1.6292861e-18 2322:-1.6292861e-18 2323:-1.6292861e-18 2324:-1.6292861e-18 2325:-1.6292861e-18 2326:-1.6292861e-18 2327:-1.6292861e-18 2328:-1.6292861e-18 2329:-0.0055237338 2330:-0.0055237338 2331:-0.0055237338 2332:-0.0055237338 2333:-0.0055237338 2334:-0.036231339 2335:-0.0081307264 2336:-0.0087482482 2337:-0.0087482482 2338:-0.0087482482 2339:-0.0081307264 2340:-0.0087482482 2341:-1.6292861e-18 2342:-1.6292861e-18 2343:-1.6292861e-18 2344:-1.6292861e-18 2345:-1.6292861e-18 2346:-1.6292861e-18 2347:-1.6292861e-18 2348:-1.6292861e-18 2349:-1.6292861e-18 2350:-1.6292861e-18 2351:-0.0040974501 2352:-0.0040974501 2353:-0.0040974501 2354:-0.0040974501 2355:-0.0040974501 2356:-0.0040974501 2357:-1.6292861e-18 2358:-1.6292861e-18 2359:0.026224038 2360:0.026224038 2361:0.026224038 2362:-1.6292861e-18 2363:-1.6292861e-18 2364:-1.6292861e-18 2365:-1.6292861e-18 2366:-1.6292861e-18 2367:-1.6292861e-18 2368:-1.6292861e-18 2369:-1.6292861e-18 2370:-1.6292861e-18 2371:-1.6292861e-18 2372:-1.6292861e-18 2373:-1.6292861e-18 2374:-1.6292861e-18 2375:-1.6292861e-18 2376:-1.6292861e-18 2377:-1.6292861e-18 2378:-1.6292861e-18 2379:-1.6292861e-18 2380:-1.6292861e-18 2381:-1.6292861e-18 2382:-1.6292861e-18 2383:-1.6292861e-18 2384:-1.6292861e-18 2385:-1.6292861e-18 2386:-0.007823131 2387:-0.007823131 2388:-1.6292861e-18 2389:-1.6292861e-18 2390:-1.6292861e-18 2391:-1.6292861e-18 2392:-1.6292861e-18 2393:-1.6292861e-18 2394:-1.6292861e-18 2395:-1.6292861e-18 2396:-1.6292861e-18 2397:-1.6292861e-18 #
