SVM-light Version V6.20
0 # kernel type
3 # kernel parameter -d 
1 # kernel parameter -g 
1 # kernel parameter -s 
1 # kernel parameter -r 
empty# kernel parameter -u 
2399 # highest feature index 
45 # number of training documents 
2 # number of support vectors plus 1 
0 # threshold b, each following line is a SV (starting with alpha*y)
1 1:-0.28830266 3:-0.050821077 4:-0.030320389 5:-0.038573746 6:-0.0087507162 7:-0.047411997 8:-0.013591562 9:-0.013187611 10:-0.0104243 11:-0.011017793 12:-0.0019039453 13:-0.047411997 14:-0.042949725 15:-0.047614064 16:-0.023647571 17:-0.00501497 18:-0.0063101728 19:-0.010550406 20:-0.024945892 21:-0.04362965 22:-0.044292305 23:-0.011092848 24:-0.0019091767 25:-3.7898549e-18 26:-0.0042737187 27:-5.1825748e-18 28:-0.0084105926 29:-0.013033386 30:-0.044988994 31:-0.031558115 32:-0.0094016092 33:-0.068844743 34:-0.057154182 35:-0.001370434 36:-0.0047812853 37:-0.012169624 38:-0.052237865 39:-0.031015137 41:-0.017503481 42:-0.038130105 43:-0.034891419 44:-0.032708924 45:-1.1390275e-18 46:-2.6508275e-18 49:-5.1825748e-18 50:-0.037779167 51:-0.01454208 52:-0.0075167329 53:-0.00098565663 55:-0.022598865 56:-0.013249459 57:-0.0096350219 62:-0.022780709 63:-0.018750742 64:-0.012226304 65:-0.0031676018 66:-0.019482045 67:-0.0095189158 68:-0.0074329018 70:-0.054410934 71:0.014411052 72:-0.0041057556 73:-0.010621946 74:-7.517176e-05 75:-7.517176e-05 76:-7.517176e-05 77:-7.517176e-05 78:-7.517176e-05 79:-0.058213167 80:-0.074939445 81:-0.039015193 82:-0.062466521 83:-0.011050809 84:0.0043037981 85:-5.1825748e-18 86:-0.014640528 87:2.4193979e-17 88:-1.9829432e-18 89:-0.050793666 90:-0.061604775 92:-0.0048526837 95:0.015715875 96:-0.0019839995 97:-3.7898549e-18 116:-0.0072362125 119:0.0026011681 121:-5.1825748e-18 132:-5.1825748e-18 133:-0.0021071355 134:-5.1825748e-18 139:-0.00035261878 147:-0.0060277693 151:-0.0093167406 152:-0.0023851073 153:-0.0028377457 154:-0.0067347675 155:-0.0093167406 156:-0.0028377457 157:-0.0028377457 158:-0.002637435 159:-0.0028377457 160:-0.0028377457 161:-0.0028377457 162:-0.0028377457 163:-0.007004844 165:-0.061307501 166:-0.00042135207 167:-0.04003657 168:-0.017973024 170:-0.013939393 172:-0.0071466286 173:-0.020167571 176:-1.9829432e-18 177:-0.014978596 178:-0.04814072 179:-0.02912036 182:-0.0081665423 184:-0.0052794092 190:-0.037111983 193:-0.0081988452 194:5.9540073e-19 195:-0.015651146 196:-0.00076234544 200:-5.1825748e-18 204:-1.9829432e-18 205:-1.9829432e-18 206:-0.0087350449 207:-0.0035137681 208:-0.00045335339 209:-0.023495629 210:-0.022894597 211:-0.03117116 212:-0.00045335339 213:-0.00045335339 214:-0.00045335339 215:-0.002223104 216:-0.00045335339 217:-0.008484154 218:0.0046276446 219:-0.00082537107 220:-0.010654857 221:-0.0056650997 222:-0.00045335339 223:-0.00045335339 224:-0.00045335339 225:-0.00045335339 226:-0.00045335339 227:-0.00042135207 228:-0.0003666539 229:-0.022894597 230:-0.00045335339 231:-0.00045335339 232:-0.00045335339 233:-0.00045335339 234:-0.00045335339 235:-0.00045335339 236:-0.00045335339 237:-0.00045335339 238:-0.00045335339 239:-0.00045335339 240:-0.00039865522 241:-0.065125249 242:-0.027130159 243:-0.042425677 244:-0.017390603 245:-0.00039865522 246:-1.3210494e-19 247:-5.3053549e-18 248:-0.012730574 249:-0.042425677 250:-0.0083921086 251:-0.0084487218 252:-0.0083921086 253:-0.0083921086 254:-0.0083921086 255:-0.051820625 256:-0.039437983 257:-0.031599466 258:-0.043968257 259:-0.012577785 261:-0.011992363 262:-1.9829432e-18 263:-1.9829432e-18 265:-0.0090155816 266:-0.0095288707 267:-0.031546809 268:-0.016679246 269:-0.016679246 270:-0.016679246 271:-0.0091842674 272:-0.0013599647 273:-0.0013599647 274:-0.0046798028 275:-0.0013599647 276:-0.0023527292 277:-0.0011958817 278:-0.0055938829 279:-0.0012639676 280:-0.0013599647 281:-0.0013599647 282:-0.0013599647 283:-0.0013599647 284:-0.0013599647 285:-0.0013599647 286:-0.0013599647 287:-0.0013599647 289:-0.016552396 292:-5.1825748e-18 294:5.9540073e-19 297:-0.029990116 299:5.9540073e-19 304:-0.030179646 305:-0.011332792 306:-0.011332792 307:-0.011332792 308:-0.010532834 309:-0.00046475732 310:-3.7898549e-18 311:-0.035167083 312:-0.03726586 313:-0.00046475732 315:-1.9829432e-18 317:-5.1825748e-18 319:-0.0099322898 320:-5.1825748e-18 321:-0.016585579 322:-0.0018736367 323:-5.1825748e-18 324:-0.00042135207 325:-0.037609439 328:-5.1825748e-18 330:-0.0060911314 331:-0.055176191 332:-0.0021651795 333:-0.0016426735 334:-0.0021651795 335:-0.0020123438 336:-0.0018198197 337:-0.0021651795 338:-0.0190455 339:-0.038194664 340:-0.0023791688 341:-0.026060149 342:-0.00077657093 343:-0.00077657093 344:-0.014773057 345:-0.0089326575 346:-0.027163884 347:-0.034404855 349:-5.1825748e-18 350:9.6449952e-19 351:1.0018265e-18 352:2.1802021e-17 353:9.3348474e-18 354:-0.005115638 355:-0.00038104065 356:-0.016230093 357:-0.016889827 358:-0.00083305599 360:-0.0020147723 361:-0.0043332195 362:-3.7898549e-18 363:-0.0071116192 364:-0.0319282 365:2.9873584e-18 366:-5.1825748e-18 367:-5.1825748e-18 368:1.0018265e-18 369:-0.0036589969 370:-0.0055025462 371:-0.019125702 372:-0.0016843134 375:-0.013208612 380:-0.00087156607 381:-0.00099115085 382:-0.00092118751 383:-0.00099115085 384:-0.00099115085 385:-0.060273152 386:-0.011536719 387:-0.0074418033 388:-0.019046603 389:-0.02203621 390:-0.015811875 391:-0.035106022 392:-0.0097224526 393:-0.0084620491 394:-2.6508275e-18 395:-1.9829432e-18 396:-0.023917457 397:-0.0068502808 398:-0.0067258514 399:-0.010304639 400:-0.024227599 401:-0.0092737097 402:-0.0051555648 403:-0.0051555648 404:-0.023332313 405:-0.016019754 406:0.020022167 407:-0.0072641862 408:-1.9829432e-18 409:-5.1825748e-18 410:-0.010341658 411:-0.0059344419 412:-0.026987063 413:-0.0062313904 414:-0.0049491883 415:-0.014945677 417:-0.038510986 418:-0.0039890762 419:-0.006740849 420:5.9540073e-19 421:-0.014945677 422:2.4193979e-17 423:-0.0027915363 426:-0.01485341 427:-1.9829432e-18 428:-0.0093902042 429:-0.004161193 430:-0.0052031651 431:-0.0044891527 432:-0.020017458 433:-0.041147653 434:-0.0054993997 436:-0.0079927659 440:-0.0079927659 443:-0.0046483953 444:-0.0046483953 445:-0.0050014365 446:-0.0046483953 447:-0.023061676 448:-0.022190947 449:-0.023061676 450:-0.019751184 451:-3.7898549e-18 454:-3.7898549e-18 455:2.4193979e-17 462:-0.0062619969 463:-0.0062619969 464:-0.0062619969 465:-0.0077427174 466:-0.010435184 467:-0.0085925059 468:0.034454118 469:-0.0039899247 471:-0.0047420701 472:-0.028288817 473:-0.0023326969 474:-0.011247202 475:-0.0070708701 476:-0.0057730689 477:-5.1825748e-18 478:-0.013860019 479:-0.0045368541 480:-0.003669224 481:-0.0061692186 482:-0.0045368541 483:-0.0045368541 484:-0.0045368541 485:-0.0038131971 486:-0.021689977 487:-0.001967639 488:-0.00033456832 490:2.9873584e-18 491:2.9873584e-18 493:-0.0045719738 494:-0.0059359847 496:-0.0012927632 497:-5.1825748e-18 498:-0.0014295283 499:-0.0012927632 500:-0.0058680461 501:-0.0015380997 502:-0.0015380997 503:-0.0014295283 504:-0.0015380997 505:-0.0038484535 506:-0.0038484535 507:-0.0036411497 508:-0.010400271 509:-0.021559203 510:-0.0047847284 511:-0.0029119828 512:-0.0038484535 513:-0.0041407403 514:-0.0038484535 515:-0.0038484535 516:-0.010400271 517:-0.010400271 518:-0.00064943777 519:-0.0034526603 520:-0.00046475732 521:-0.00052852515 522:-0.00049121759 523:-0.00052852515 524:-0.00052852515 525:-0.00046475732 526:-0.010169728 527:-0.023385534 528:-0.011997581 529:2.1802021e-17 530:-0.0018231927 531:-0.0014397467 532:-0.0014397467 533:-1.9829432e-18 535:-5.1825748e-18 536:-0.017715214 537:-0.011937567 538:-0.012645008 539:-0.0032676733 540:-0.001723386 541:9.6449952e-19 546:-0.01286052 547:-0.0028610632 548:-0.0030783582 549:-0.0030783582 550:-0.00055495126 555:-3.7898549e-18 557:-5.1825748e-18 558:-0.017453797 559:5.9540073e-19 560:-0.0022045758 561:5.9540073e-19 562:-5.1825748e-18 564:-0.012870161 565:-0.013121216 566:-0.014010238 569:1.0018265e-18 570:-0.019496927 571:-0.0044318195 572:-0.010519436 573:-5.1825748e-18 575:-5.1825748e-18 576:-0.0048781266 577:5.9540073e-19 580:2.9873584e-18 581:-5.1825748e-18 582:-0.0048781266 586:-5.1825748e-18 589:-0.011040729 590:-0.011040729 591:2.1802021e-17 592:-0.016453054 593:-0.060520232 594:-0.002480048 596:-7.5072083e-18 597:-2.501187e-18 598:-2.501187e-18 599:-2.501187e-18 600:-0.024876826 601:-0.024462262 602:-0.013625425 603:-0.026899671 605:-5.1825748e-18 606:1.0018265e-18 607:-0.017180316 609:-5.1825748e-18 610:-5.1825748e-18 612:-1.9829432e-18 615:-0.020842755 619:-0.0027757224 620:-5.1825748e-18 621:-0.032838292 622:-0.023761572 623:-1.9829432e-18 624:0.10943286 631:-5.1825748e-18 632:-0.0051027881 637:-0.041526578 638:-0.041526578 639:-0.041526578 640:-0.0022893879 641:-0.024323091 642:5.9540073e-19 643:-0.0025362757 645:-5.1825748e-18 646:-0.016365569 651:-0.0015321672 652:-0.0021270055 653:1.0018265e-18 654:2.9873584e-18 655:-5.1825748e-18 658:1.0018265e-18 659:-0.00031882158 660:5.9540073e-19 666:-0.01662102 667:-0.0078553809 668:-0.0078553809 669:-0.0084519908 670:-0.0084519908 671:-0.010299698 672:-0.0084945215 673:-0.0024443166 674:-0.0053230477 675:-0.0026299602 680:-0.0038760882 681:-1.1390275e-18 688:-0.011557678 689:-0.011557678 690:-0.011557678 691:-0.011557678 693:-0.01314347 694:-0.01314347 695:-0.01314347 696:-0.042558525 697:-0.0063873674 698:-0.0094642155 699:-5.1825748e-18 700:-0.042558525 701:-0.010004849 702:-0.013826896 703:-0.010004849 704:-0.010004849 705:-0.0078229606 706:-0.010004849 709:-0.013047531 716:-0.01603969 717:-0.015682131 718:-0.014918725 728:-0.013256486 729:-0.013256486 730:-0.013256486 731:-0.013256486 732:-0.048397843 733:-0.010658435 734:-0.010655925 735:-0.0089209368 736:-0.0079790223 737:-0.0067521282 738:-0.0072649461 739:-0.0072649461 740:-5.1825748e-18 741:-1.9829432e-18 743:1.9699789e-17 746:-0.048370734 748:2.4193979e-17 755:-1.9829432e-18 756:-5.1825748e-18 758:0.016057862 760:-1.9829432e-18 762:-0.0079575414 770:-0.00089173805 771:5.9540073e-19 772:-1.9829432e-18 775:-5.1825748e-18 777:-0.0032564697 778:-0.0031125827 779:-5.1825748e-18 780:-5.1825748e-18 785:-0.0048217922 786:-0.0050744647 787:-5.1825748e-18 789:-5.1825748e-18 790:-0.013035165 791:-0.0011227635 807:-0.0074591911 810:-0.0052683651 817:-0.013549787 818:-0.001015347 819:-0.0010622839 820:-0.0012080363 821:-0.00097701105 822:-0.019264638 823:-0.0093867686 825:-0.0091687813 826:-0.0091687813 832:1.0018265e-18 835:-5.1825748e-18 839:-0.0029090589 840:-0.0027037144 841:-0.0029090589 842:-0.0029090589 843:-0.035380393 844:-5.1825748e-18 846:-0.025622873 848:-5.1825748e-18 850:-5.1825748e-18 853:2.217112e-17 856:-0.017407397 857:-0.0036104713 858:-0.004105852 862:2.0370914e-17 863:-0.01919199 864:-0.0048649018 865:-0.012909512 866:-0.012909512 868:-0.0051418785 869:-0.0055323993 870:-0.0055323993 871:-5.1825748e-18 872:-1.9829432e-18 874:-1.9829432e-18 879:-5.1825748e-18 880:-0.022447754 882:-0.0035428475 883:-0.0084105926 885:-0.0036160315 887:-0.0021838716 889:2.1802021e-17 890:-1.9829432e-18 892:-0.019128667 893:-0.02788846 894:-0.020361444 895:-0.020361444 898:-0.019128667 899:-0.02788846 900:-0.0024171928 901:-0.0024171928 902:-0.0026007763 903:-0.005508916 904:-0.0026007763 905:-0.01415009 906:-0.013524869 907:-0.013515958 908:6.080735e-17 910:-5.1825748e-18 912:-0.0030005623 915:-0.012856528 916:-0.024351887 917:-5.1825748e-18 918:-0.038892966 920:-5.1825748e-18 927:-0.0067510232 928:-0.026809497 929:-0.00046478069 930:-0.022240847 931:-0.0021354519 932:-0.001031775 933:-0.0056420057 935:-0.00038104065 936:-3.7898549e-18 938:-0.01325779 939:-0.014264707 940:-5.1825748e-18 941:-5.1825748e-18 943:-0.012454337 944:-0.012454337 945:-0.012454337 947:-0.0044469787 948:-0.011608969 949:-0.0089163808 950:-0.020581473 952:-5.1825748e-18 953:-5.1825748e-18 954:-5.1825748e-18 955:-0.01354479 956:-0.0086971233 957:-0.016460277 960:-0.014909443 961:-0.014909443 962:-0.031981606 963:-0.025292441 964:-0.03477294 965:-0.030590488 966:-0.0078427708 967:-0.0078427708 968:-0.0084384223 969:-0.0084384223 972:-0.0011084742 974:-5.1825748e-18 976:-0.0097915297 977:-0.00071651675 978:-0.020361444 980:-0.0046991096 981:-0.0043674088 982:-0.0046991096 983:-0.017795654 984:-0.0046991096 985:-0.0046991096 986:-0.0046991096 987:-0.0043674088 988:-0.0046991096 989:-0.0046991096 990:-0.0046991096 991:-0.0043674088 992:-0.0046991096 993:-0.0046991096 997:-5.1825748e-18 998:-5.1825748e-18 1002:-5.1825748e-18 1003:-0.0011715837 1004:-0.0012605644 1005:-0.0012605644 1006:-0.0012605644 1007:-0.0012605644 1010:-5.1825748e-18 1011:-5.1825748e-18 1012:-1.9829432e-18 1014:-5.1825748e-18 1015:-5.1825748e-18 1018:-0.0024835134 1026:-0.013911458 1027:-0.014703487 1028:-0.015820203 1029:-0.015820203 1030:-0.0021659271 1031:-0.017008446 1032:-0.0062346985 1034:-5.1825748e-18 1037:-0.0062346985 1040:-0.0032068894 1041:-0.0032068894 1042:-0.0023084513 1044:-5.1825748e-18 1045:-0.00249147 1046:-0.013135218 1047:-0.019472541 1051:-0.024053063 1052:-0.032406479 1053:-0.012805067 1057:0.018749315 1058:-0.00034146613 1059:-0.00037388649 1060:-0.00034146613 1061:-0.00034146613 1066:-1.9829432e-18 1073:-5.1825748e-18 1074:-5.1825748e-18 1076:-5.1825748e-18 1078:-0.012702487 1079:-0.0015490942 1080:-0.007804011 1081:-0.0028835535 1082:-0.007804011 1083:-0.007804011 1084:-0.0028835535 1086:-0.0028045957 1088:-5.1825748e-18 1092:-0.0059912205 1093:-5.1825748e-18 1094:-0.013590524 1095:-0.0013525243 1096:-0.0021580984 1097:-0.010099685 1098:-0.010099685 1102:-0.0016419113 1104:-0.003240125 1105:-0.036824152 1106:-0.0049459212 1107:-0.0049459212 1108:-0.0043491842 1109:-0.034426391 1111:-5.1825748e-18 1113:-0.022865428 1116:-5.1825748e-18 1118:0.022307504 1119:0.022307504 1120:0.022307504 1121:0.022307504 1122:0.022307504 1123:0.017561466 1124:0.020732861 1125:-0.0012439529 1126:-2.501187e-18 1127:-0.014019346 1128:-0.0043602078 1129:-0.0043602078 1130:-0.0046913619 1134:-4.1823559e-18 1135:-4.1823559e-18 1136:-2.501187e-18 1137:-2.501187e-18 1138:0.015180992 1139:-4.1823559e-18 1140:-2.501187e-18 1141:-2.501187e-18 1142:-2.501187e-18 1143:-2.501187e-18 1145:-0.0047887811 1146:-5.1825748e-18 1147:-5.1825748e-18 1148:-1.9829432e-18 1149:-5.1825748e-18 1150:-5.1825748e-18 1151:-5.1825748e-18 1154:-5.1825748e-18 1155:-5.7003777e-05 1156:-5.7003777e-05 1157:-0.01467752 1158:-5.7003777e-05 1159:-5.7003777e-05 1162:-5.1825748e-18 1169:-5.1825748e-18 1172:5.9540073e-19 1173:-0.013666593 1174:-1.9829432e-18 1175:5.9540073e-19 1179:-0.0036335792 1180:-0.0039095464 1181:-0.0039095464 1182:0.017071137 1183:0.0060283751 1184:0.11835312 1185:0.077976793 1188:0.05768289 1189:-0.0093270596 1190:2.4193979e-17 1194:-3.7898549e-18 1195:0.017445723 1196:0.015180992 1197:-1.9829432e-18 1198:-1.9829432e-18 1201:-5.1825748e-18 1208:-0.045432139 1214:-1.9829432e-18 1215:-0.00077093556 1216:-0.00077093556 1223:0.037651353 1232:-0.0057034581 1233:-0.0053502759 1236:-0.0092724618 1237:-0.0092724618 1238:-0.0092724618 1239:-0.0073832255 1240:-0.0073832255 1241:-0.0073832255 1242:-0.0048813098 1245:-5.1825748e-18 1248:-5.1825748e-18 1255:-1.9829432e-18 1262:-0.014622712 1263:-0.014622712 1264:-0.014622712 1265:-0.028782841 1266:-0.0030260428 1267:-0.025259793 1268:-0.0036003159 1269:-0.0030260428 1270:-0.016898215 1271:-0.016898215 1272:-0.016898215 1275:-5.1825748e-18 1282:-5.1825748e-18 1286:-0.00042135207 1288:-0.0026704655 1301:2.9873584e-18 1304:-5.1825748e-18 1311:-0.0052541359 1312:-0.0072798077 1313:-0.0052541359 1314:-0.0052541359 1315:-5.1825748e-18 1325:-0.010871798 1326:-0.010871798 1327:-0.012272937 1328:-0.012272937 1329:-0.012272937 1330:-0.012272937 1335:-5.1825748e-18 1337:-0.0078237401 1338:-0.0078237401 1340:-1.9829432e-18 1341:-5.1825748e-18 1349:-5.1825748e-18 1355:-1.9829432e-18 1366:-0.0029568919 1374:-0.0091483854 1375:-0.0091483854 1376:-0.0091483854 1377:-5.1825748e-18 1386:-0.0098940087 1387:-0.001539315 1388:-0.0024821737 1389:-0.0039710971 1390:-0.0033625974 1391:-0.0033625974 1392:-0.0031252385 1393:-0.0026292717 1394:-0.0024821737 1395:-0.0029568919 1398:-4.1823559e-18 1403:-0.0029961229 1404:-0.003166703 1405:-0.003166703 1410:-0.010066795 1413:-1.9829432e-18 1414:-1.9829432e-18 1415:-0.0038365345 1416:2.1802021e-17 1419:-5.1825748e-18 1420:1.0018265e-18 1421:-5.1825748e-18 1422:-0.0097021349 1423:-0.0025098631 1428:-0.010701817 1429:-7.5072083e-18 1430:-0.008169339 1431:-0.016134296 1432:-0.016134296 1433:-0.016134296 1438:-0.0045558354 1440:-0.0041938014 1449:-0.014129458 1450:-5.1825748e-18 1455:-0.0047437265 1456:-0.0044088764 1457:-0.0047437265 1458:-0.0047437265 1459:-0.0047437265 1460:-1.9829432e-18 1464:-5.1825748e-18 1465:-5.1825748e-18 1467:-0.0057034581 1472:-0.0044169407 1473:-0.0026781168 1476:-0.015686743 1479:-5.1825748e-18 1480:-0.0037807499 1485:-5.1825748e-18 1487:-0.016472073 1488:-0.0010194936 1497:-0.010359365 1498:-5.1825748e-18 1501:-0.0019804842 1502:-0.001873802 1503:-0.0021309003 1504:-0.0021309003 1505:-0.0021309003 1506:-0.0021309003 1507:-0.0021309003 1508:-0.0021309003 1515:-0.0029724056 1517:-1.9829432e-18 1518:-0.0037573108 1519:-0.016878137 1520:-0.015686743 1522:-0.00036341988 1525:-5.1825748e-18 1539:-5.1825748e-18 1541:-1.9829432e-18 1554:-0.003953605 1555:-0.0037032792 1556:-0.0037032792 1557:-0.0037032792 1558:-0.0037032792 1559:-0.0034862098 1560:-0.0034862098 1561:-0.0034862098 1562:-0.0034862098 1563:-0.0034862098 1564:-0.0034862098 1565:-0.027643358 1566:-0.0052551744 1567:-0.0048842221 1568:-0.0052551744 1569:-0.0052551744 1570:-0.0052551744 1579:-5.1825748e-18 1580:-5.1825748e-18 1583:-5.1825748e-18 1585:-1.9829432e-18 1589:-5.1825748e-18 1591:-5.1825748e-18 1592:-0.018696574 1593:-1.9829432e-18 1595:-5.1825748e-18 1597:-5.1825748e-18 1608:9.6449952e-19 1614:-5.1825748e-18 1615:-4.1823559e-18 1616:-5.1825748e-18 1617:-5.1825748e-18 1620:-1.9829432e-18 1621:-1.9829432e-18 1640:-1.9829432e-18 1642:-5.1825748e-18 1643:-1.9829432e-18 1653:-1.9829432e-18 1654:-0.0012605644 1655:-0.0012605644 1656:-0.0041107312 1657:-0.0012605644 1658:-0.0012605644 1659:-0.0012605644 1660:-0.0011715837 1661:-0.0012605644 1662:-0.0012605644 1663:-0.0012605644 1665:-1.9829432e-18 1669:-5.1825748e-18 1678:-5.1825748e-18 1679:-0.0082370043 1696:-0.0028679827 1703:-5.1825748e-18 1706:-1.9829432e-18 1707:-5.1825748e-18 1712:5.9540073e-19 1737:-1.9829432e-18 1740:-1.9829432e-18 1744:-0.011134993 1756:-0.021857845 1757:-5.1825748e-18 1760:-0.0045100823 1763:-0.00904937 1764:-0.0084105926 1765:-0.00904937 1766:-0.01314347 1767:-0.01314347 1768:-0.0065518175 1771:-5.1825748e-18 1772:-0.0073694633 1773:-1.9829432e-18 1778:-0.00042135207 1779:-5.1825748e-18 1783:-2.501187e-18 1784:0.0028455879 1785:0.0028455879 1786:-2.501187e-18 1787:-2.501187e-18 1788:-2.501187e-18 1789:-0.0033019274 1790:-0.002903542 1811:-5.1825748e-18 1828:-5.1825748e-18 1831:-0.005388686 1834:-5.1825748e-18 1839:-5.1825748e-18 1840:-5.1825748e-18 1851:-5.1825748e-18 1855:-5.1825748e-18 1858:-5.1825748e-18 1860:-5.1825748e-18 1867:-5.1825748e-18 1872:-0.0060037798 1873:-5.1825748e-18 1875:-0.027673416 1878:0.059405714 1879:0.059405714 1881:-0.0011715837 1889:2.1802021e-17 1898:-5.1825748e-18 1909:-0.0035335096 1915:-0.030689871 1916:-0.0070818271 1917:-0.0070818271 1918:-0.0070818271 1919:-0.0015380997 1925:-5.1825748e-18 1940:-0.013127602 1955:-0.0055589383 1973:-5.1825748e-18 1994:-5.1825748e-18 1996:-0.0028031399 1997:-0.0028031399 1998:-0.0028031399 1999:-0.0081027253 2000:-0.0028031399 2001:-0.0028031399 2002:-0.0032829826 2017:-0.011251533 2018:-0.011251533 2019:-0.011251533 2020:-0.011251533 2021:-0.011251533 2022:-0.0012605644 2023:-0.0012605644 2024:-0.0012605644 2029:-0.0035010139 2030:-0.0035010139 2031:-0.0035010139 2032:-0.0035010139 2033:-0.0035010139 2034:-0.0035010139 2035:-0.0035010139 2036:-0.0035010139 2037:-5.1825748e-18 2040:-0.005697581 2041:-0.005697581 2042:-0.005697581 2043:-0.005697581 2044:-0.005697581 2065:-5.1825748e-18 2067:-0.015216696 2068:-0.01730453 2073:-0.021242797 2078:-5.1825748e-18 2085:-5.1825748e-18 2092:-0.0036920581 2093:-0.0041986336 2103:-0.00042135207 2105:-5.1825748e-18 2112:-5.1825748e-18 2113:-0.0056331144 2114:-0.0056331144 2115:-0.0056331144 2116:-0.00045335339 2117:-0.00045335339 2118:-0.00045335339 2119:-0.00045335339 2120:-0.00045335339 2121:-0.00045335339 2122:-0.00045335339 2123:-0.00045335339 2124:-0.00045335339 2125:-0.00045335339 2126:-0.00045335339 2143:-0.0034122597 2144:-0.0034122597 2145:-0.0079449257 2162:-0.0030176023 2163:-0.0030176023 2164:-0.0030176023 2165:-0.0030176023 2167:-0.0034141869 2168:-0.0034141869 2169:-0.0034141869 2170:-0.0034141869 2171:-0.0034158351 2172:-0.0036752648 2173:-0.0036752648 2174:-0.0036752648 2192:-0.026201392 2214:-0.0020853081 2215:-0.0020853081 2218:-0.00040870378 2223:-5.1825748e-18 2230:-0.01151461 2231:-0.01151461 2232:-0.0059587709 2233:-0.011463527 2234:-0.011463527 2238:-1.9829432e-18 2240:-0.012440481 2241:-0.018611036 2243:-0.0093189497 2244:-0.013385325 2245:-0.013385325 2246:-0.013385325 2282:-0.0020123438 2283:-0.0020123438 2284:-0.0020123438 2285:-0.0021651795 2287:-0.0031252385 2291:-0.0033625974 2292:-0.0015475105 2293:-0.0015475105 2294:-0.0015475105 2295:-0.0015475105 2296:-0.0084490655 2297:-0.0078526624 2298:-0.0079291677 2306:-0.016153689 2336:-5.1825748e-18 2340:-5.1825748e-18 2342:-0.0031863616 2343:-0.0031863616 2344:-0.0031863616 2345:-0.0031863616 2346:-0.0031863616 2347:-0.0031863616 2348:-0.0031863616 2349:-0.0031863616 2350:-0.0031863616 2351:-0.0031863616 2360:0.01558073 2361:0.01558073 2362:0.01558073 2391:-0.00046478069 2392:-0.00046478069 2393:-0.00046478069 2394:-0.00046478069 2395:-0.00046478069 2396:-0.00046478069 2397:-0.00046478069 2398:-0.00046478069 #
