SVM-light Version V6.20
0 # kernel type
3 # kernel parameter -d 
1 # kernel parameter -g 
1 # kernel parameter -s 
1 # kernel parameter -r 
empty# kernel parameter -u 
2353 # highest feature index 
32 # number of training documents 
2 # number of support vectors plus 1 
0 # threshold b, each following line is a SV (starting with alpha*y)
1 1:-0.4282237 3:-0.046136178 4:-0.016436279 5:-0.028159406 6:-0.011152407 7:-0.045788255 8:-0.012625949 9:-0.011152407 10:-0.011152407 11:-0.01199993 12:-0.022420572 13:-0.018130463 14:-0.022420572 15:-0.022420572 16:-0.020837067 17:-0.045438372 18:-0.044302568 19:-0.023195291 20:-0.025888283 21:-0.0093331067 22:-0.0023758055 23:-0.0061067697 24:-0.022074524 25:-0.056287505 26:-0.049239665 27:-0.011446672 28:-0.013995916 29:-0.040872537 30:-0.04758523 31:-0.016948495 32:1.1975606e-17 33:1.704115e-18 34:1.693103e-18 35:-0.0023758055 36:-0.0078377053 37:1.1975606e-17 38:-0.0067337439 39:1.1983865e-17 40:-0.031598087 41:-2.2475597e-17 42:1.0736751e-18 43:-0.0023452826 44:-0.022451816 45:-0.046660267 46:-0.023636388 47:-0.019313097 48:-0.020721115 49:-0.0042167031 50:-0.026013182 51:-0.019406719 52:-0.052731223 53:-0.01396333 54:-0.013019616 55:1.693103e-18 56:-0.0086022187 57:-0.00078911486 58:-0.00077751593 59:1.0736751e-18 60:-0.0020613743 61:-0.01219451 62:1.693103e-18 63:-0.053090613 64:-0.047775995 65:1.693103e-18 66:-0.019270664 67:1.693103e-18 68:1.693103e-18 69:-0.036284126 70:5.6136685e-17 71:9.7731958e-19 72:-0.010862416 73:-0.051195499 74:-0.040294278 75:-0.019333258 76:-0.030656248 77:-0.0030792258 78:-0.024230214 79:-0.0018282128 80:1.693103e-18 81:1.693103e-18 82:-0.0010577473 83:1.0736751e-18 84:1.704115e-18 85:1.704115e-18 86:-0.0024913636 87:-0.0030957225 88:-0.0047988542 89:-0.024230214 90:-0.018844875 91:-0.028927181 92:-0.023862975 93:-0.038372774 94:-0.010790247 95:-0.0044553303 96:-0.0023425978 97:-0.0034401689 98:-0.0098115206 99:-0.044015091 100:-0.011457649 101:-0.020187898 102:-0.012058197 103:-0.022414824 104:-0.024744198 105:-0.011267916 106:-0.010688617 107:-0.010983298 108:-0.0041880296 109:-0.0063982396 110:1.704115e-18 111:1.693103e-18 112:-0.012058197 113:1.693103e-18 114:1.693103e-18 115:1.693103e-18 116:-0.0027210996 117:1.693103e-18 118:-0.040383216 119:-0.018479563 120:-0.019718556 121:-0.029330665 122:-0.016204104 123:-0.071714602 124:-0.016204104 125:-0.016204104 126:-0.024146741 127:-0.028461637 128:-0.031115854 129:-0.020305889 130:-0.026063869 131:-0.0027306103 132:-0.0071754642 133:-0.015534617 134:-0.00098650274 135:-0.00090812938 136:1.693103e-18 137:-0.021545988 138:-0.022893049 139:-0.036748659 140:-0.003228507 141:-0.0011398019 142:-0.0011398019 143:-0.0011398019 144:-0.0098257503 145:-0.015178372 146:-0.0031464044 147:-0.0011398019 148:-0.0011398019 149:-0.011347391 150:-0.0045901854 151:-0.0094005847 152:-0.00463566 153:-0.011669137 154:-0.0048934147 155:-0.00046553696 156:-2.2850006e-18 157:2.2640777e-17 158:-0.001186566 159:1.704115e-18 160:1.693103e-18 161:1.693103e-18 162:1.693103e-18 163:1.1975606e-17 164:-0.041882653 165:-0.021541698 166:-0.022194035 167:-0.024543565 168:-0.010452016 169:-0.0055567198 170:-0.0074000536 171:-0.0016197092 172:1.693103e-18 173:-0.0026456774 174:-0.0057440475 175:1.704115e-18 176:-0.01648549 177:-0.0067710066 178:1.693103e-18 179:1.693103e-18 180:-0.00042647234 181:1.693103e-18 182:-0.024844117 183:-0.024913929 184:-0.01278994 185:-0.00089109194 186:-0.011081834 187:1.693103e-18 188:-0.0090824971 189:-0.017356889 190:-0.020925477 191:-0.020870525 192:-0.020870525 193:-0.030067148 194:-0.050031465 195:-0.0099671716 196:-0.0031340192 197:-0.00094161392 198:-0.0070341509 199:-0.0044477833 200:-0.0031340192 201:-0.0012159626 202:-0.00094161392 203:-0.0011504233 204:1.693103e-18 205:-0.048894428 206:-0.013312713 207:-0.025133003 208:-0.0022742609 209:-0.0014448819 210:-0.014169359 211:-0.031490624 212:-0.0082482547 213:-0.024796259 214:-0.012370052 215:-0.0082482547 216:-0.0082482547 217:-0.0082482547 218:-0.0082007367 219:-0.024905067 220:-0.01512621 221:-0.02234528 222:-0.0049155555 223:1.693103e-18 224:1.693103e-18 225:-0.01047815 226:1.0736751e-18 227:-0.0026326547 228:-0.018331503 229:-2.2475597e-17 230:1.1975606e-17 231:1.704115e-18 232:-0.0058701402 233:3.4547559e-17 234:1.693103e-18 235:-0.021856608 236:-0.010603171 237:-0.029073983 238:-0.010603171 239:-0.010603171 240:-2.2850006e-18 241:9.7731958e-19 242:-0.003102914 243:-0.029969208 244:-0.038491867 245:-0.016990561 246:1.1975606e-17 247:1.704115e-18 248:-0.022533815 249:-0.024657611 250:-0.05244543 251:1.693103e-18 252:-0.024657611 253:-0.038309596 254:-0.011842185 255:-0.011842185 256:-0.011842185 257:1.693103e-18 258:-0.013347025 259:1.693103e-18 260:1.693103e-18 261:1.704115e-18 262:-0.0017250339 263:1.693103e-18 264:-2.3754227e-17 265:-0.024090558 266:-0.028439509 267:-0.02381842 268:1.693103e-18 269:4.7225028e-17 270:-2.2850006e-18 271:1.704115e-18 272:-0.022286698 273:-0.021160724 274:1.704115e-18 275:-0.0075718369 276:-0.0083663454 277:0.019009396 278:1.693103e-18 279:1.704115e-18 280:1.693103e-18 281:-0.0064982651 282:1.693103e-18 283:1.704115e-18 284:-0.0010593007 285:1.693103e-18 286:-0.016609933 287:-0.015654122 288:2.2640777e-17 289:-2.2850006e-18 290:-2.2850006e-18 291:-2.2475597e-17 292:-2.7154169e-17 293:-0.0090875449 294:-0.021307984 295:-2.2475597e-17 296:2.585079e-18 297:1.1975606e-17 298:-0.0088890586 299:-4.194316e-19 300:1.704115e-18 301:-0.0063991188 302:-0.0067801573 303:-0.015173846 304:1.693103e-18 305:-0.0063991188 306:-0.0057648891 307:-0.0016990197 308:1.1975606e-17 309:-0.015173846 310:1.704115e-18 311:1.693103e-18 312:1.693103e-18 313:1.693103e-18 314:-0.03581645 315:-0.014761438 316:-0.02728246 317:-0.0073587075 318:-0.012943704 319:-0.00038493084 320:-0.015716715 321:1.693103e-18 322:-0.011745303 323:-0.0053300816 324:1.693103e-18 325:1.1975606e-17 326:1.0736751e-18 327:-0.0043210173 328:1.693103e-18 329:1.1975606e-17 330:1.704115e-18 331:-0.002556399 332:1.704115e-18 333:1.693103e-18 334:1.704115e-18 335:-0.0020313766 336:1.704115e-18 337:-0.0011095133 338:1.693103e-18 339:1.1983865e-17 340:1.693103e-18 341:1.693103e-18 342:-0.00038493084 343:-0.00038493084 344:1.693103e-18 345:1.704115e-18 346:-0.010173178 347:-0.0028441714 348:1.693103e-18 349:-0.015716715 350:-0.0065597156 351:-0.0066359853 352:-0.0073384913 353:-0.0055128164 354:-0.0065597156 355:-0.0065597156 356:-0.0065597156 357:-0.0065597156 358:-0.0073384913 359:-0.031019749 360:-0.026970239 361:3.4591608e-17 362:2.585079e-18 363:2.9749759e-17 364:-0.00879806 365:3.4591608e-17 366:1.704115e-18 367:3.4547559e-17 368:-0.0067464639 369:-0.016631367 370:-0.0011398019 371:-0.011467099 372:-0.0011398019 373:-0.010384292 374:-0.0010593007 375:-0.0083009936 376:-0.0011398019 377:-0.0011398019 378:-0.0011398019 379:-0.0011398019 380:-0.0011398019 381:-0.0011398019 382:-0.0011398019 383:-0.010384292 384:-0.010384292 385:-0.024431104 386:1.704115e-18 387:1.704115e-18 388:1.693103e-18 389:1.693103e-18 390:-0.019006573 391:-0.0087532438 392:-0.013156192 393:-0.0087532438 394:-0.007696555 395:-0.0087532438 396:-0.0087532438 397:-0.0087532438 398:1.693103e-18 399:-0.0052345395 400:1.693103e-18 401:-0.00050746062 402:-0.00050746062 403:-0.00047162001 404:-0.00047162001 405:-0.00044620011 406:1.693103e-18 407:1.693103e-18 408:-0.0056746402 409:-0.0052738553 410:-0.0056746402 411:-0.0056746402 412:1.693103e-18 413:1.704115e-18 414:-0.055762794 415:-0.013940396 416:-0.017239034 417:-0.016021486 418:-0.01830815 419:-9.0681809e-11 420:-0.017356435 421:-0.011578061 422:-0.011578061 423:-0.011578061 424:-0.009051674 425:-0.025054658 426:-0.043187086 427:1.704115e-18 428:1.704115e-18 429:-0.037894528 430:-0.0058759935 431:-0.00082986517 432:-0.044037852 433:1.693103e-18 434:1.693103e-18 435:-0.013474324 436:-0.049791656 437:-0.016911101 438:-0.0090668919 439:-0.0090668919 440:-0.0090668919 441:-0.0090668919 442:1.693103e-18 443:3.4547559e-17 444:2.2640777e-17 445:-0.0027164109 446:-0.040658247 447:-0.040658247 448:-0.00733722 449:-0.003179379 450:-0.0076967832 451:-0.0069300141 452:-0.016396556 453:-0.0082460428 454:-0.0076636467 455:-0.014059297 456:-0.0070615867 457:-0.014059297 458:-0.0062091141 459:-0.0070615867 460:-0.0070615867 461:-0.0070615867 462:-0.0070615867 463:-0.016726321 464:-0.042065773 465:1.0736751e-18 466:-0.001360891 467:-0.01862013 468:-0.018445591 469:-2.2850006e-18 470:-0.012290705 471:1.693103e-18 472:-0.0055886451 473:1.704115e-18 474:1.704115e-18 475:3.4547559e-17 476:1.704115e-18 477:1.693103e-18 478:1.693103e-18 479:1.693103e-18 480:-0.0062879059 481:1.704115e-18 482:1.693103e-18 483:-0.003619951 484:-0.015643412 485:-0.0097703226 486:1.693103e-18 487:-9.7626615e-11 488:1.1975606e-17 489:1.693103e-18 490:1.693103e-18 491:1.704115e-18 492:1.693103e-18 493:-2.2475597e-17 494:1.704115e-18 495:1.704115e-18 496:1.704115e-18 497:1.704115e-18 498:1.693103e-18 499:1.693103e-18 500:1.693103e-18 501:1.693103e-18 502:-0.0010109813 503:-0.0031684234 504:1.693103e-18 505:-0.0057771364 506:-0.01459825 507:1.693103e-18 508:1.693103e-18 509:1.693103e-18 510:1.693103e-18 511:1.704115e-18 512:1.693103e-18 513:1.0736751e-18 514:1.1975606e-17 515:1.693103e-18 516:-0.0025097916 517:-0.0024351457 518:-0.012757645 519:-0.0019121564 520:-0.0019121564 521:-0.0090192109 522:-0.034478743 523:-0.012061628 524:-0.0041134474 525:1.704115e-18 526:-0.034478743 527:-0.014659309 528:-0.0074848109 529:-0.015879573 530:-0.0074848109 531:-0.0074848109 532:-0.0065812469 533:-0.0057064113 534:-0.007062607 535:-0.0062100114 536:-0.0082839224 537:-0.007062607 538:-0.007062607 539:-0.0065637939 540:-0.007062607 541:-0.007062607 542:1.693103e-18 543:1.693103e-18 544:-0.0051600048 545:1.693103e-18 546:-0.012836584 547:-0.0077145984 548:-0.003381575 549:-0.0019336878 550:-0.0077145984 551:-0.0019336878 552:-0.0019336878 553:-0.0019336878 554:-0.0019336878 555:-0.003381575 556:-0.0019336878 557:-0.0019336878 558:-0.0019336878 559:1.704115e-18 560:1.704115e-18 561:1.693103e-18 562:1.704115e-18 563:1.693103e-18 564:1.693103e-18 565:1.693103e-18 566:1.693103e-18 567:1.693103e-18 568:1.693103e-18 569:1.704115e-18 570:-0.0052070804 571:1.0736751e-18 572:-0.011453987 573:-0.0055735838 574:-0.0049174544 575:-0.016260251 576:-0.0039352472 577:-0.014931395 578:-0.0046012807 579:-0.0043518445 580:-0.0046825614 581:-0.0046825614 582:-0.023146685 583:-0.0090609482 584:-0.0015978002 585:-0.024217406 586:-0.011898435 587:-0.0090254778 588:-0.011898435 589:-0.022573225 590:-0.018955693 591:1.693103e-18 592:-0.0012618427 593:-0.0050556893 594:-0.0050556893 595:-0.004445368 596:-0.0050556893 597:-0.0050556893 598:1.704115e-18 599:-0.0073740031 600:-0.0073740031 601:-0.0079343878 602:-0.0079343878 603:-0.0092635071 604:-0.0073740031 605:-0.0073740031 606:-0.0022894596 607:1.693103e-18 608:1.704115e-18 609:1.693103e-18 610:1.693103e-18 611:1.693103e-18 612:1.693103e-18 613:1.693103e-18 614:1.693103e-18 615:1.704115e-18 616:1.693103e-18 617:-0.0051773167 618:1.693103e-18 619:1.693103e-18 620:1.693103e-18 621:1.693103e-18 622:1.693103e-18 623:1.693103e-18 624:1.693103e-18 625:1.704115e-18 626:1.1975606e-17 627:1.1975606e-17 628:-0.0053667268 629:1.693103e-18 630:1.693103e-18 631:1.693103e-18 632:1.704115e-18 633:-0.0055501019 634:-0.0055886451 635:-0.035610363 636:-0.0042312127 637:-0.0042312127 638:-0.003720422 639:-0.037390102 640:-0.0016946438 641:-0.003398624 642:-0.0056190807 643:-0.037390102 644:2.8438542e-17 645:-0.0026326547 646:-0.0022906892 647:-2.2850006e-18 648:9.7731958e-19 649:1.0736751e-18 650:-0.0049303854 651:1.0413431e-17 652:-0.0048628459 653:1.693103e-18 654:1.693103e-18 655:1.693103e-18 656:-0.0080464724 657:-0.014347148 658:-0.035159472 659:-0.0081658717 660:-0.011503845 661:-0.0081658717 662:-0.0019717722 663:-0.0019717722 664:-0.001832511 665:-0.0015944793 666:-0.0059070284 667:-0.0055886451 668:-0.0038837586 669:-0.0038837586 670:-0.0010022054 671:-0.0022657528 672:1.693103e-18 673:-0.0025402952 674:-0.0029172099 675:-0.0025402952 676:-0.0025402952 677:-0.0025402952 678:-0.0025402952 679:-0.0025402952 680:-0.0029781421 681:-0.00082986517 682:-0.00082986517 683:-0.00082986517 684:-0.00067107286 685:-0.014347813 686:-0.039556451 687:-0.00049223111 688:-0.012013215 689:-0.0093342904 690:-0.0037495175 691:-0.0013555198 692:-0.020120978 693:-0.0014585321 694:-0.0014585321 695:-0.0011794462 696:-0.0012824585 697:-0.0014585321 698:-0.00208259 699:-0.0056588016 700:1.693103e-18 701:1.704115e-18 702:1.693103e-18 703:-0.00045007523 704:1.1975606e-17 705:-0.0025834329 706:-5.1594191e-11 707:-5.5515075e-11 708:-5.5515075e-11 709:1.693103e-18 710:1.693103e-18 711:1.693103e-18 712:1.704115e-18 713:1.693103e-18 714:1.693103e-18 715:1.693103e-18 716:1.693103e-18 717:1.693103e-18 718:1.693103e-18 719:1.693103e-18 720:-0.016514704 721:1.693103e-18 722:-0.0034451522 723:-0.0068125725 724:-0.0035224957 725:1.704115e-18 726:1.704115e-18 727:1.693103e-18 728:1.1983865e-17 729:-0.026349299 730:-0.012933642 731:-0.012020173 732:-0.01904528 733:-0.020457109 734:-0.020130284 735:-0.0033363509 736:1.704115e-18 737:-0.0038691 738:-0.027621575 739:-0.020507004 740:-0.018031405 741:-0.020507004 742:-0.020507004 743:1.693103e-18 744:-0.00078233361 745:-0.0061546238 746:-0.0061546238 747:-0.0055654487 748:-0.023127319 749:-0.002035884 750:1.0736751e-18 751:-0.013331918 752:-3.5967507e-11 753:-3.5967507e-11 754:-3.5967507e-11 755:-3.5967507e-11 756:-3.5967507e-11 757:-3.5967507e-11 758:-3.5967507e-11 759:1.693103e-18 760:-0.013835906 761:1.693103e-18 762:-0.0054043876 763:-0.0011414252 764:-0.0011414252 765:-0.0054043876 766:-4.6655135e-11 767:1.693103e-18 768:-0.013690559 769:1.693103e-18 770:1.704115e-18 771:1.693103e-18 772:1.693103e-18 773:1.693103e-18 774:-0.001336462 775:-0.0011751247 776:-0.0040660654 777:-0.001336462 778:-0.001336462 779:-0.001336462 780:-0.001336462 781:-0.001336462 782:-0.001336462 783:-0.001336462 784:-0.001336462 785:-0.001336462 786:-0.001336462 787:-0.0041143564 788:-0.0041143564 789:-0.0041035376 790:-0.0036081597 791:-0.009236712 792:-0.009236712 793:-0.009236712 794:-0.009236712 795:-0.009236712 796:-0.022898979 797:-0.022898979 798:-0.022452613 799:-0.017033251 800:-0.017033251 801:-0.012042626 802:1.1975606e-17 803:1.693103e-18 804:1.693103e-18 805:1.704115e-18 806:-0.011406943 807:1.693103e-18 808:1.693103e-18 809:1.693103e-18 810:1.704115e-18 811:1.693103e-18 812:1.693103e-18 813:1.693103e-18 814:-0.0034451522 815:1.693103e-18 816:1.693103e-18 817:1.0736751e-18 818:1.693103e-18 819:1.693103e-18 820:1.693103e-18 821:1.693103e-18 822:1.693103e-18 823:1.704115e-18 824:-0.0059046941 825:1.704115e-18 826:1.693103e-18 827:1.704115e-18 828:-0.0059046941 829:-0.011798814 830:-0.011067679 831:1.693103e-18 832:1.693103e-18 833:1.0736751e-18 834:1.693103e-18 835:-0.014134452 836:-0.01437873 837:-0.014134452 838:-0.0061739422 839:-0.0020702921 840:-0.003398624 841:1.1975606e-17 842:1.1975606e-17 843:1.693103e-18 844:1.704115e-18 845:1.693103e-18 846:1.693103e-18 847:1.693103e-18 848:1.704115e-18 849:-0.0011206621 850:-0.00097436394 851:1.1975606e-17 852:-0.0030587609 853:1.693103e-18 854:1.693103e-18 855:1.693103e-18 856:1.693103e-18 857:-0.031244377 858:-0.0034401689 859:1.693103e-18 860:1.693103e-18 861:1.693103e-18 862:1.693103e-18 863:1.693103e-18 864:1.693103e-18 865:1.693103e-18 866:1.693103e-18 867:1.693103e-18 868:1.704115e-18 869:-0.0063977344 870:-0.031244377 871:1.704115e-18 872:1.693103e-18 873:1.704115e-18 874:1.704115e-18 875:1.704115e-18 876:1.1975606e-17 877:1.1975606e-17 878:1.704115e-18 879:-0.03417813 880:1.704115e-18 881:1.704115e-18 882:1.693103e-18 883:1.1975606e-17 884:1.704115e-18 885:1.693103e-18 886:1.693103e-18 887:1.704115e-18 888:1.693103e-18 889:-0.03417813 890:-0.0067153713 891:1.693103e-18 892:-0.0023806335 893:-0.026142059 894:-0.0081216097 895:-0.023034839 896:1.693103e-18 897:1.693103e-18 898:-0.0022742609 899:1.693103e-18 900:1.693103e-18 901:1.693103e-18 902:1.0736751e-18 903:-0.0034479853 904:1.693103e-18 905:-0.0082942992 906:1.693103e-18 907:-0.0016990197 908:1.693103e-18 909:1.693103e-18 910:-0.0016990197 911:1.693103e-18 912:1.693103e-18 913:1.693103e-18 914:1.693103e-18 915:1.704115e-18 916:1.693103e-18 917:-0.0041625658 918:-0.022347623 919:-0.024558665 920:1.693103e-18 921:1.1975606e-17 922:-0.020286046 923:-0.033899404 924:-0.033899404 925:-0.033899404 926:-0.0095367013 927:1.693103e-18 928:1.693103e-18 929:1.693103e-18 930:-0.0019834924 931:1.693103e-18 932:1.704115e-18 933:1.693103e-18 934:-0.0072959168 935:1.704115e-18 936:-0.0012064519 937:1.693103e-18 938:1.693103e-18 939:1.1975606e-17 940:1.1975606e-17 941:1.693103e-18 942:1.693103e-18 943:1.693103e-18 944:1.693103e-18 945:1.693103e-18 946:1.0736751e-18 947:1.693103e-18 948:1.693103e-18 949:1.693103e-18 950:-0.0011180069 951:-0.018365638 952:-0.0014643115 953:-0.0014643115 954:1.1975606e-17 955:1.704115e-18 956:1.693103e-18 957:1.1975606e-17 958:-0.024135536 959:1.704115e-18 960:-0.0015986164 961:-0.0068146619 962:-0.0068146619 963:-0.0068146619 964:-0.0068146619 965:1.693103e-18 966:1.704115e-18 967:1.693103e-18 968:1.693103e-18 969:1.693103e-18 970:1.704115e-18 971:1.693103e-18 972:-0.014816819 973:1.693103e-18 974:-0.0035950867 975:-0.0035129753 976:-0.0030888899 977:-0.0005657138 978:1.1975606e-17 979:1.693103e-18 980:1.693103e-18 981:1.704115e-18 982:1.693103e-18 983:1.704115e-18 984:1.693103e-18 985:1.693103e-18 986:1.1983865e-17 987:1.0736751e-18 988:1.693103e-18 989:1.693103e-18 990:1.693103e-18 991:-0.020271115 992:-0.010961343 993:-0.0012029695 994:-0.0012029695 995:-0.0012029695 996:1.693103e-18 997:1.693103e-18 998:1.693103e-18 999:1.704115e-18 1000:1.693103e-18 1001:1.693103e-18 1002:1.1983865e-17 1003:1.693103e-18 1004:1.693103e-18 1005:1.693103e-18 1006:1.693103e-18 1007:1.693103e-18 1008:1.693103e-18 1009:1.693103e-18 1010:1.693103e-18 1011:1.693103e-18 1012:-0.0011414253 1013:1.693103e-18 1014:1.693103e-18 1015:1.693103e-18 1016:1.704115e-18 1017:1.704115e-18 1018:1.693103e-18 1019:1.693103e-18 1020:1.1975606e-17 1021:1.693103e-18 1022:1.693103e-18 1023:1.0736751e-18 1024:1.693103e-18 1025:1.693103e-18 1026:-0.00053503463 1027:1.693103e-18 1028:1.693103e-18 1029:1.693103e-18 1030:1.693103e-18 1031:-0.03417813 1032:1.693103e-18 1033:-0.03417813 1034:1.693103e-18 1035:-0.003279469 1036:1.693103e-18 1037:1.693103e-18 1038:1.693103e-18 1039:1.0736751e-18 1040:-0.00038493084 1041:1.693103e-18 1042:1.0736751e-18 1043:1.0736751e-18 1044:1.1975606e-17 1045:-2.2850006e-18 1046:-0.0012875403 1047:-0.013378274 1048:-0.017827032 1049:-0.012553526 1050:-0.012553526 1051:-0.018651677 1052:-0.01369828 1053:-0.0011180069 1054:1.693103e-18 1055:1.693103e-18 1056:1.693103e-18 1057:1.693103e-18 1058:-0.011653799 1059:-0.038866382 1060:-0.001172722 1061:1.693103e-18 1062:1.693103e-18 1063:1.693103e-18 1064:1.693103e-18 1065:5.2943488e-20 1066:-0.0021857505 1067:-0.027735306 1068:-0.027217906 1069:1.693103e-18 1070:-0.0081510954 1071:1.693103e-18 1072:1.704115e-18 1073:1.1975606e-17 1074:-0.0041856859 1075:-0.0041856859 1076:-0.0038950706 1077:-0.0038950706 1078:-0.0041856859 1079:-0.0041856859 1080:-0.0041856859 1081:1.693103e-18 1082:1.704115e-18 1083:1.693103e-18 1084:1.693103e-18 1085:1.693103e-18 1086:-0.0057970299 1087:1.693103e-18 1088:1.704115e-18 1089:1.693103e-18 1090:1.693103e-18 1091:1.693103e-18 1092:1.693103e-18 1093:1.693103e-18 1094:1.693103e-18 1095:1.693103e-18 1096:1.693103e-18 1097:1.693103e-18 1098:1.1975606e-17 1099:1.704115e-18 1100:1.704115e-18 1101:1.693103e-18 1102:1.693103e-18 1103:-0.0035634406 1104:-0.042450801 1105:-0.010060144 1106:-0.0035634406 1107:-0.0035634406 1108:-0.0065595089 1109:-0.0063416497 1110:-0.015662815 1111:-0.015662815 1112:-0.01245608 1113:-0.01245608 1114:-0.0064196168 1115:-0.0064196168 1116:-0.0064196168 1117:-0.0064196168 1118:-0.0064196168 1119:1.693103e-18 1120:1.693103e-18 1121:1.693103e-18 1122:-0.0026615015 1123:-0.0026615015 1124:-0.022429643 1125:-0.0040542879 1126:-0.022429643 1127:-0.0011095133 1128:-0.041340359 1129:-0.0089353994 1130:-0.010162174 1131:-0.010162174 1132:-0.010162174 1133:-0.0079689659 1134:-0.0065059825 1135:1.693103e-18 1136:-0.006659579 1137:-0.0065059825 1138:-0.0065059825 1139:1.704115e-18 1140:1.693103e-18 1141:1.693103e-18 1142:1.1975606e-17 1143:1.693103e-18 1144:-0.004209694 1145:-0.0039827949 1146:1.0736751e-18 1147:-0.004209694 1148:-0.004209694 1149:-0.004209694 1150:1.693103e-18 1151:1.704115e-18 1152:1.693103e-18 1153:1.693103e-18 1154:1.693103e-18 1155:1.693103e-18 1156:1.693103e-18 1157:1.693103e-18 1158:1.704115e-18 1159:1.704115e-18 1160:1.693103e-18 1161:1.693103e-18 1162:6.2595284e-18 1163:-0.035706118 1164:-0.0088896453 1165:-0.0071017649 1166:-0.006244442 1167:-0.0071017649 1168:-0.0071017649 1169:-0.0071017649 1170:-0.0071017649 1171:1.693103e-18 1172:1.693103e-18 1173:-0.0029278887 1174:-0.0029278887 1175:-0.0029278887 1176:1.693103e-18 1177:1.693103e-18 1178:1.693103e-18 1179:1.693103e-18 1180:1.693103e-18 1181:1.693103e-18 1182:1.693103e-18 1183:1.693103e-18 1184:1.693103e-18 1185:1.693103e-18 1186:1.693103e-18 1187:-0.010958586 1188:-0.0045343568 1189:-0.0056072967 1190:-0.010958586 1191:-0.0056072967 1192:-0.0056072967 1193:-0.0056072967 1194:-0.0056072967 1195:-0.0056072967 1196:-0.032676559 1197:-0.015218786 1198:-0.014143923 1199:-0.015218786 1200:-0.012484021 1201:1.693103e-18 1202:1.693103e-18 1203:1.704115e-18 1204:1.693103e-18 1205:1.693103e-18 1206:1.693103e-18 1207:1.693103e-18 1208:1.693103e-18 1209:-0.00057569437 1210:-0.00057569437 1211:-0.00057569437 1212:-0.00057569437 1213:1.693103e-18 1214:1.1975606e-17 1215:-0.0044804616 1216:-0.0044804616 1217:-0.0044804616 1218:-0.0044804616 1219:1.693103e-18 1220:1.704115e-18 1221:1.693103e-18 1222:1.693103e-18 1223:1.704115e-18 1224:-0.003822336 1225:1.704115e-18 1226:-0.043220162 1227:-0.011612143 1228:-0.011612143 1229:-0.011612143 1230:-0.011612143 1231:1.693103e-18 1232:1.693103e-18 1233:-0.019935312 1234:-4.8077561e-18 1235:-0.014497228 1236:1.693103e-18 1237:1.693103e-18 1238:1.0736751e-18 1239:1.0736751e-18 1240:1.693103e-18 1241:1.693103e-18 1242:1.704115e-18 1243:1.693103e-18 1244:1.693103e-18 1245:1.704115e-18 1246:1.693103e-18 1247:-0.016204104 1248:-0.016204104 1249:-0.016204104 1250:-0.013801881 1251:1.704115e-18 1252:1.693103e-18 1253:1.693103e-18 1254:-5.1594191e-11 1255:1.693103e-18 1256:1.693103e-18 1257:1.693103e-18 1258:1.693103e-18 1259:1.693103e-18 1260:1.693103e-18 1261:1.693103e-18 1262:-0.0067334236 1263:-0.0067334236 1264:-0.0067334236 1265:-0.0067334236 1266:-0.0064982651 1267:1.704115e-18 1268:-0.006028201 1269:-0.0064982651 1270:1.693103e-18 1271:1.1975606e-17 1272:1.693103e-18 1273:1.693103e-18 1274:-0.006028201 1275:-2.2850006e-18 1276:1.693103e-18 1277:-0.0012875403 1278:1.693103e-18 1279:1.693103e-18 1280:1.693103e-18 1281:1.693103e-18 1282:-0.013164984 1283:1.0736751e-18 1284:1.693103e-18 1285:1.693103e-18 1286:-4.3376057e-18 1287:-0.033899404 1288:-0.033899404 1289:-0.033899404 1290:1.693103e-18 1291:-0.039551355 1292:-0.0091723595 1293:1.693103e-18 1294:1.693103e-18 1295:-0.0022795978 1296:1.693103e-18 1297:1.693103e-18 1298:-0.0012981358 1299:-0.0022828507 1300:6.2595284e-18 1301:1.693103e-18 1302:-0.0043032784 1303:-0.0043032784 1304:-0.0048903441 1305:-0.0048903441 1306:1.693103e-18 1307:1.693103e-18 1308:1.693103e-18 1309:1.693103e-18 1310:1.704115e-18 1311:1.693103e-18 1312:1.693103e-18 1313:1.693103e-18 1314:1.693103e-18 1315:1.693103e-18 1316:1.693103e-18 1317:1.693103e-18 1318:1.693103e-18 1319:-0.004603853 1320:-0.0080961538 1321:-0.004603853 1322:-0.004603853 1323:1.693103e-18 1324:1.693103e-18 1325:1.693103e-18 1326:1.693103e-18 1327:1.693103e-18 1328:1.693103e-18 1329:1.693103e-18 1330:-0.0032144769 1331:-0.0033976047 1332:-0.0033976047 1333:-0.0030723556 1334:-0.0032144769 1335:-0.0033976047 1336:-0.0033976047 1337:1.693103e-18 1338:1.693103e-18 1339:-0.0066748299 1340:1.693103e-18 1341:1.693103e-18 1342:1.704115e-18 1343:-0.0075826426 1344:-0.0085281497 1345:1.693103e-18 1346:1.704115e-18 1347:-0.0068558352 1348:-0.0063716257 1349:-0.0068558352 1350:-0.0068558352 1351:-0.0068558352 1352:-0.0068558352 1353:-0.0063716257 1354:1.693103e-18 1355:1.693103e-18 1356:1.693103e-18 1357:1.704115e-18 1358:-0.0032216648 1359:-0.014340713 1360:-0.0027154682 1361:-0.003088285 1362:-0.0032216648 1363:-0.0034052022 1364:-0.003088285 1365:-0.0055393679 1366:1.693103e-18 1367:1.704115e-18 1368:-0.01559894 1369:-0.01559894 1370:-0.01559894 1371:-0.01559894 1372:-0.01559894 1373:-0.011742885 1374:-0.012411874 1375:-0.01335511 1376:1.693103e-18 1377:1.693103e-18 1378:1.693103e-18 1379:1.693103e-18 1380:1.693103e-18 1381:1.693103e-18 1382:1.693103e-18 1383:1.693103e-18 1384:1.693103e-18 1385:1.693103e-18 1386:1.693103e-18 1387:1.693103e-18 1388:-0.0012029695 1389:-0.0012029695 1390:-0.0012029695 1391:-0.00077045115 1392:-0.00082900131 1393:-0.0024634462 1394:-0.0024634462 1395:-0.0024634462 1396:-0.0024634462 1397:-0.0024634462 1398:-0.0024634462 1399:-0.0024634462 1400:1.1975606e-17 1401:1.693103e-18 1402:1.693103e-18 1403:-0.0038691 1404:1.693103e-18 1405:1.693103e-18 1406:1.693103e-18 1407:-0.0040480769 1408:-0.0042786947 1409:-0.023576237 1410:-0.023271285 1411:-0.014164577 1412:1.693103e-18 1413:1.693103e-18 1414:-0.0065563726 1415:1.693103e-18 1416:1.693103e-18 1417:1.693103e-18 1418:1.693103e-18 1419:1.693103e-18 1420:1.693103e-18 1421:1.693103e-18 1422:1.693103e-18 1423:1.693103e-18 1424:1.693103e-18 1425:1.0736751e-18 1426:1.1983865e-17 1427:1.693103e-18 1428:1.693103e-18 1429:-0.0016990197 1430:-0.001828136 1431:-0.001828136 1432:-0.0016990197 1433:-0.001828136 1434:-0.001828136 1435:-0.001828136 1436:-0.001828136 1437:-0.001828136 1438:-0.001828136 1439:1.693103e-18 1440:1.704115e-18 1441:1.693103e-18 1442:1.693103e-18 1443:1.704115e-18 1444:1.693103e-18 1445:1.693103e-18 1446:1.704115e-18 1447:1.693103e-18 1448:1.693103e-18 1449:1.1975606e-17 1450:1.693103e-18 1451:1.693103e-18 1452:-0.002452835 1453:1.704115e-18 1454:1.693103e-18 1455:1.693103e-18 1456:1.693103e-18 1457:1.704115e-18 1458:-0.0079423981 1459:1.693103e-18 1460:1.693103e-18 1461:1.693103e-18 1462:1.693103e-18 1463:1.693103e-18 1464:1.704115e-18 1465:1.0736751e-18 1466:1.693103e-18 1467:1.693103e-18 1468:1.693103e-18 1469:1.693103e-18 1470:1.693103e-18 1471:1.693103e-18 1472:1.693103e-18 1473:1.693103e-18 1474:1.693103e-18 1475:1.704115e-18 1476:1.693103e-18 1477:1.693103e-18 1478:1.693103e-18 1479:1.693103e-18 1480:1.693103e-18 1481:-0.00095789501 1482:1.693103e-18 1483:1.693103e-18 1484:1.693103e-18 1485:1.704115e-18 1486:1.693103e-18 1487:1.1975606e-17 1488:-0.0041447426 1489:1.693103e-18 1490:1.693103e-18 1491:1.693103e-18 1492:-0.015813768 1493:-0.013302663 1494:1.693103e-18 1495:1.693103e-18 1496:1.693103e-18 1497:1.693103e-18 1498:-0.015813768 1499:-0.013302663 1500:1.693103e-18 1501:1.693103e-18 1502:1.693103e-18 1503:1.693103e-18 1504:-0.0036558046 1505:1.693103e-18 1506:1.693103e-18 1507:1.693103e-18 1508:1.704115e-18 1509:1.693103e-18 1510:1.693103e-18 1511:1.693103e-18 1512:-0.008938211 1513:-0.0071949461 1514:1.1975606e-17 1515:-0.010315431 1516:1.693103e-18 1517:1.693103e-18 1518:1.693103e-18 1519:1.693103e-18 1520:1.693103e-18 1521:1.693103e-18 1522:1.693103e-18 1523:1.693103e-18 1524:1.693103e-18 1525:1.693103e-18 1526:1.693103e-18 1527:-0.031029232 1528:-5.5515075e-11 1529:-5.5515075e-11 1530:-5.5515075e-11 1531:-5.5515075e-11 1532:-5.5515075e-11 1533:1.693103e-18 1534:1.693103e-18 1535:-0.020691833 1536:1.693103e-18 1537:1.693103e-18 1538:1.693103e-18 1539:1.693103e-18 1540:1.693103e-18 1541:-0.00082986511 1542:-0.00082986511 1543:1.693103e-18 1544:1.693103e-18 1545:1.693103e-18 1546:1.0736751e-18 1547:1.0736751e-18 1548:1.693103e-18 1549:1.693103e-18 1550:1.704115e-18 1551:-0.0053850622 1552:-0.0063809883 1553:-0.0063809883 1554:-0.0063809883 1555:-0.0063809883 1556:-0.016059797 1557:-0.017280255 1558:1.693103e-18 1559:1.693103e-18 1560:1.693103e-18 1561:1.704115e-18 1562:1.693103e-18 1563:1.693103e-18 1564:1.704115e-18 1565:1.693103e-18 1566:-0.0070651551 1567:1.693103e-18 1568:1.704115e-18 1569:-0.0029278887 1570:-0.0029278887 1571:-0.0029278887 1572:-0.0029278887 1573:1.693103e-18 1574:1.693103e-18 1575:-0.016457889 1576:-0.0084068477 1577:1.693103e-18 1578:1.693103e-18 1579:1.693103e-18 1580:1.693103e-18 1581:-0.0078071002 1582:-0.0078071002 1583:-0.0078071002 1584:-0.012589931 1585:-0.0012981358 1586:-0.0012981358 1587:-0.0012981358 1588:-0.0022828507 1589:-0.0024129038 1590:-0.012052892 1591:-0.012052892 1592:-0.012052892 1593:-0.012052892 1594:-0.017015532 1595:-0.00060870504 1596:-0.00060870504 1597:-0.00369699 1598:-0.00369699 1599:-0.00369699 1600:-0.0090477206 1601:-0.0090477206 1602:-0.010059124 1603:-0.0063671791 1604:-0.0063671791 1605:-0.0063671791 1606:-0.010059124 1607:-0.0036307797 1608:-0.0039066994 1609:-0.0036307797 1610:-0.019674532 1611:1.693103e-18 1612:1.693103e-18 1613:1.693103e-18 1614:1.693103e-18 1615:1.693103e-18 1616:-0.0027306103 1617:1.693103e-18 1618:1.704115e-18 1619:1.693103e-18 1620:1.693103e-18 1621:1.693103e-18 1622:1.693103e-18 1623:1.693103e-18 1624:1.704115e-18 1625:1.693103e-18 1626:1.693103e-18 1627:1.693103e-18 1628:1.693103e-18 1629:1.693103e-18 1630:1.693103e-18 1631:1.693103e-18 1632:1.693103e-18 1633:1.693103e-18 1634:1.704115e-18 1635:1.693103e-18 1636:1.704115e-18 1637:1.693103e-18 1638:1.693103e-18 1639:1.693103e-18 1640:1.693103e-18 1641:1.693103e-18 1642:1.693103e-18 1643:1.693103e-18 1644:1.693103e-18 1645:1.693103e-18 1646:1.693103e-18 1647:1.693103e-18 1648:-0.011842185 1649:-0.011842185 1650:-0.011842185 1651:1.693103e-18 1652:1.693103e-18 1653:1.704115e-18 1654:1.693103e-18 1655:1.693103e-18 1656:1.693103e-18 1657:1.693103e-18 1658:1.693103e-18 1659:1.693103e-18 1660:1.693103e-18 1661:1.693103e-18 1662:1.693103e-18 1663:1.693103e-18 1664:1.693103e-18 1665:1.693103e-18 1666:1.693103e-18 1667:1.693103e-18 1668:1.693103e-18 1669:-0.00053503469 1670:1.693103e-18 1671:1.693103e-18 1672:1.693103e-18 1673:1.704115e-18 1674:-0.0027306103 1675:-0.0027306103 1676:-0.0027306103 1677:-0.0027306103 1678:-0.0027306103 1679:-0.0027306103 1680:-0.0027306103 1681:-0.0027306103 1682:-0.0024692118 1683:-0.0027306103 1684:-0.0027306103 1685:-0.0027306103 1686:-0.002938122 1687:1.693103e-18 1688:1.693103e-18 1689:1.693103e-18 1690:1.693103e-18 1691:1.693103e-18 1692:1.704115e-18 1693:1.704115e-18 1694:1.704115e-18 1695:1.693103e-18 1696:1.693103e-18 1697:1.693103e-18 1698:1.693103e-18 1699:1.693103e-18 1700:1.693103e-18 1701:1.693103e-18 1702:1.704115e-18 1703:1.693103e-18 1704:1.693103e-18 1705:1.704115e-18 1706:-8.354879e-20 1707:-0.0055615711 1708:-8.354879e-20 1709:-8.354879e-20 1710:-8.354879e-20 1711:-8.354879e-20 1712:-8.354879e-20 1713:-8.354879e-20 1714:1.0413431e-17 1715:-8.354879e-20 1716:-8.354879e-20 1717:-0.01213189 1718:1.693103e-18 1719:1.693103e-18 1720:1.693103e-18 1721:1.1975606e-17 1722:1.693103e-18 1723:1.704115e-18 1724:-0.0075014071 1725:-0.010010566 1726:-0.0075014071 1727:-0.0075014071 1728:-0.0075014071 1729:-0.017320931 1730:1.693103e-18 1731:1.693103e-18 1732:-0.0023928536 1733:1.693103e-18 1734:1.693103e-18 1735:1.693103e-18 1736:1.693103e-18 1737:1.693103e-18 1738:-0.041185506 1739:-4.8077561e-18 1740:1.693103e-18 1741:1.693103e-18 1742:1.693103e-18 1743:1.693103e-18 1744:1.693103e-18 1745:1.704115e-18 1746:1.693103e-18 1747:1.704115e-18 1748:1.693103e-18 1749:1.693103e-18 1750:1.693103e-18 1751:-0.0045296079 1752:-0.0045296079 1753:-0.0045296079 1754:-0.0045296079 1755:-0.0045296079 1756:1.693103e-18 1757:1.693103e-18 1758:1.693103e-18 1759:-0.010864397 1760:-0.0084088622 1761:-0.0095633464 1762:-0.0095633464 1763:-0.0095633464 1764:-0.0095633464 1765:-0.0095633464 1766:-0.010311719 1767:-0.010311719 1768:-0.010311719 1769:1.693103e-18 1770:-0.036072809 1771:1.693103e-18 1772:1.693103e-18 1773:1.693103e-18 1774:1.693103e-18 1775:1.693103e-18 1776:1.693103e-18 1777:-0.0042786947 1778:1.693103e-18 1779:1.693103e-18 1780:1.1975606e-17 1781:1.693103e-18 1782:-0.0012981358 1783:-0.0012981358 1784:-0.0012981358 1785:-0.0059842207 1786:-0.0059842207 1787:1.693103e-18 1788:1.693103e-18 1789:1.693103e-18 1790:1.693103e-18 1791:1.693103e-18 1792:1.693103e-18 1793:1.693103e-18 1794:1.693103e-18 1795:1.693103e-18 1796:1.693103e-18 1797:1.693103e-18 1798:1.704115e-18 1799:1.693103e-18 1800:1.693103e-18 1801:1.693103e-18 1802:-0.0093249911 1803:1.693103e-18 1804:1.693103e-18 1805:1.693103e-18 1806:-0.0093249911 1807:1.693103e-18 1808:1.693103e-18 1809:1.693103e-18 1810:1.1975606e-17 1811:1.704115e-18 1812:1.693103e-18 1813:1.693103e-18 1814:1.693103e-18 1815:1.693103e-18 1816:1.693103e-18 1817:1.693103e-18 1818:1.704115e-18 1819:1.1975606e-17 1820:-0.0028327224 1821:-0.00057569437 1822:-0.00057569437 1823:-0.00057569437 1824:-0.00057569437 1825:-0.00057569437 1826:-0.00057569437 1827:-0.00057569437 1828:-0.00057569437 1829:-0.0013083692 1830:-0.0024528352 1831:-0.0073904363 1832:-0.0073904363 1833:-0.0064982651 1834:-0.0073904363 1835:-0.0073904363 1836:-0.0073904363 1837:-0.0073904363 1838:1.693103e-18 1839:1.693103e-18 1840:1.1975606e-17 1841:1.693103e-18 1842:1.693103e-18 1843:1.693103e-18 1844:1.693103e-18 1845:1.693103e-18 1846:1.693103e-18 1847:1.693103e-18 1848:1.693103e-18 1849:1.693103e-18 1850:1.693103e-18 1851:1.693103e-18 1852:1.693103e-18 1853:-0.012952651 1854:1.693103e-18 1855:1.693103e-18 1856:1.693103e-18 1857:1.693103e-18 1858:1.693103e-18 1859:1.693103e-18 1860:1.693103e-18 1861:1.693103e-18 1862:1.693103e-18 1863:1.693103e-18 1864:1.693103e-18 1865:1.693103e-18 1866:-0.01749327 1867:-4.8077561e-18 1868:-4.8077561e-18 1869:-4.8077561e-18 1870:1.693103e-18 1871:1.693103e-18 1872:-0.0016896891 1873:-0.0018180965 1874:-0.0018180965 1875:-0.0018180965 1876:1.693103e-18 1877:1.693103e-18 1878:1.693103e-18 1879:-0.0063025285 1880:1.693103e-18 1881:1.693103e-18 1882:1.693103e-18 1883:1.693103e-18 1884:1.693103e-18 1885:1.693103e-18 1886:1.693103e-18 1887:1.693103e-18 1888:1.693103e-18 1889:1.693103e-18 1890:-0.0063025285 1891:1.693103e-18 1892:1.693103e-18 1893:-0.0073302914 1894:-0.0073302914 1895:-0.0073302914 1896:-0.036775485 1897:1.693103e-18 1898:1.693103e-18 1899:1.693103e-18 1900:1.693103e-18 1901:1.693103e-18 1902:1.693103e-18 1903:1.693103e-18 1904:1.704115e-18 1905:-0.034611154 1906:-0.034611154 1907:-0.034611154 1908:0.011329167 1909:1.693103e-18 1910:1.693103e-18 1911:1.693103e-18 1912:1.693103e-18 1913:1.693103e-18 1914:1.704115e-18 1915:1.693103e-18 1916:1.693103e-18 1917:1.693103e-18 1918:1.693103e-18 1919:1.693103e-18 1920:1.693103e-18 1921:1.693103e-18 1922:1.693103e-18 1923:1.693103e-18 1924:1.693103e-18 1925:1.693103e-18 1926:1.693103e-18 1927:1.693103e-18 1928:1.693103e-18 1929:1.693103e-18 1930:1.693103e-18 1931:1.693103e-18 1932:1.693103e-18 1933:1.693103e-18 1934:1.693103e-18 1935:1.693103e-18 1936:1.693103e-18 1937:1.693103e-18 1938:1.693103e-18 1939:1.693103e-18 1940:1.693103e-18 1941:1.693103e-18 1942:1.693103e-18 1943:1.693103e-18 1944:1.693103e-18 1945:1.693103e-18 1946:-0.042397935 1947:-0.0021927436 1948:-0.00057569443 1949:-0.0024470924 1950:-0.0024470924 1951:-0.0024470924 1952:1.693103e-18 1953:-0.010790532 1954:-0.010790532 1955:-0.010790532 1956:-0.010033641 1957:-0.010033641 1958:-0.0093249911 1959:6.2595284e-18 1960:-0.039212462 1961:1.693103e-18 1962:-0.0036361543 1963:-0.0039124829 1964:-0.0039124829 1965:-0.0039124829 1966:1.693103e-18 1967:1.693103e-18 1968:-0.014730969 1969:1.693103e-18 1970:1.704115e-18 1971:1.693103e-18 1972:1.693103e-18 1973:1.693103e-18 1974:1.693103e-18 1975:1.693103e-18 1976:1.1983865e-17 1977:1.693103e-18 1978:1.693103e-18 1979:1.693103e-18 1980:1.693103e-18 1981:1.693103e-18 1982:1.693103e-18 1983:1.693103e-18 1984:1.693103e-18 1985:-0.033899404 1986:-0.033899404 1987:-0.033899404 1988:1.693103e-18 1989:1.693103e-18 1990:1.704115e-18 1991:1.693103e-18 1992:1.693103e-18 1993:1.693103e-18 1994:1.693103e-18 1995:1.693103e-18 1996:1.693103e-18 1997:1.693103e-18 1998:1.693103e-18 1999:1.693103e-18 2000:1.693103e-18 2001:-0.011731676 2002:-0.011731676 2003:-0.0045937169 2004:-0.0043461197 2005:-0.0045937169 2006:1.693103e-18 2007:1.704115e-18 2008:1.693103e-18 2009:1.693103e-18 2010:1.693103e-18 2011:-0.0079115946 2012:-0.0079115946 2013:-0.0079115946 2014:-0.0079115946 2015:1.693103e-18 2016:1.693103e-18 2017:-0.0013858383 2018:-0.0013858383 2019:-0.0013858383 2020:-0.0013858383 2021:-0.0013858383 2022:-0.0013858383 2023:-0.0063025285 2024:-0.002938122 2025:-0.019183233 2026:-0.019183233 2027:-0.019183233 2028:-0.00060870504 2029:-0.0026041134 2030:-0.0069335485 2031:-0.0069335485 2032:-0.0064438502 2033:1.693103e-18 2034:1.693103e-18 2035:-0.011407425 2036:-0.011407425 2037:-0.011407425 2038:-0.011407425 2039:-0.011407425 2040:-0.011407425 2041:-0.0012981358 2042:-0.0012981358 2043:-0.0012981358 2044:-0.0012981358 2045:1.693103e-18 2046:1.693103e-18 2047:1.693103e-18 2048:1.693103e-18 2049:1.693103e-18 2050:1.693103e-18 2051:1.693103e-18 2052:1.693103e-18 2053:1.693103e-18 2054:1.693103e-18 2055:1.693103e-18 2056:1.693103e-18 2057:1.693103e-18 2058:1.693103e-18 2059:1.693103e-18 2060:1.693103e-18 2061:1.693103e-18 2062:1.693103e-18 2063:1.693103e-18 2064:1.693103e-18 2065:1.693103e-18 2066:-0.0092534618 2067:1.693103e-18 2068:-0.013009041 2069:-0.013009041 2070:-0.013009041 2071:-0.013009041 2072:1.693103e-18 2073:1.693103e-18 2074:1.693103e-18 2075:1.693103e-18 2076:1.693103e-18 2077:1.693103e-18 2078:1.693103e-18 2079:1.693103e-18 2080:-0.0024735266 2081:-0.0024735266 2082:-0.0026615015 2083:-0.0026615015 2084:-0.0026615015 2085:-0.0026615015 2086:-0.026412258 2087:-0.026412258 2088:-0.026412258 2089:-0.0078936052 2090:-0.0078936052 2091:-0.0078936052 2092:1.693103e-18 2093:1.693103e-18 2094:1.693103e-18 2095:1.693103e-18 2096:1.693103e-18 2097:1.693103e-18 2098:-0.003269908 2099:-0.003269908 2100:-0.003269908 2101:-0.003269908 2102:-0.0030389631 2103:-0.003269908 2104:-0.003269908 2105:-0.003269908 2106:-0.011544713 2107:-0.0019336878 2108:-0.013053849 2109:1.693103e-18 2110:1.693103e-18 2111:1.693103e-18 2112:1.693103e-18 2113:1.693103e-18 2114:1.693103e-18 2115:-0.002452835 2116:1.693103e-18 2117:1.693103e-18 2118:-0.004603853 2119:1.704115e-18 2120:1.693103e-18 2121:1.693103e-18 2122:1.693103e-18 2123:1.693103e-18 2124:1.704115e-18 2125:-0.036775485 2126:-0.0087305782 2127:-0.0087305782 2128:-0.0087305782 2129:1.0736751e-18 2130:1.693103e-18 2131:-0.0091512026 2132:-0.0091512026 2133:1.693103e-18 2134:1.693103e-18 2135:1.693103e-18 2136:1.693103e-18 2137:-0.013942472 2138:-0.004456385 2139:-0.004456385 2140:-0.004456385 2141:-0.004456385 2142:-0.0013858381 2143:-0.0049530482 2144:-0.0049530482 2145:-0.0049530482 2146:-0.0049530482 2147:-0.0049530482 2148:-0.0064731594 2149:-0.0064731594 2150:-0.0064731594 2151:-0.0064731594 2152:-0.0032771723 2153:-0.0032771723 2154:-0.00391815 2155:1.693103e-18 2156:1.693103e-18 2157:1.693103e-18 2158:-0.0014643115 2159:-0.0014643115 2160:-0.0014643115 2161:1.693103e-18 2162:-0.038017236 2163:1.693103e-18 2164:1.693103e-18 2165:1.693103e-18 2166:1.693103e-18 2167:1.693103e-18 2168:1.693103e-18 2169:1.693103e-18 2170:1.693103e-18 2171:1.693103e-18 2172:1.693103e-18 2173:1.693103e-18 2174:1.693103e-18 2175:-0.0090327384 2176:-0.0047137896 2177:-0.0047137896 2178:-0.0047137896 2179:1.693103e-18 2180:1.693103e-18 2181:1.693103e-18 2182:1.693103e-18 2183:1.693103e-18 2184:1.693103e-18 2185:1.693103e-18 2186:1.1975606e-17 2187:1.693103e-18 2188:1.693103e-18 2189:1.693103e-18 2190:1.693103e-18 2191:-0.014345072 2192:-0.014345072 2193:-0.014345072 2194:-0.014345072 2195:-0.0011398019 2196:-0.0011398019 2197:1.693103e-18 2198:-0.0029228434 2199:1.693103e-18 2200:1.693103e-18 2201:1.693103e-18 2202:1.693103e-18 2203:1.693103e-18 2204:1.693103e-18 2205:1.693103e-18 2206:1.693103e-18 2207:-0.0092028063 2208:-0.0092028063 2209:-0.0092028063 2210:-0.0012618426 2211:-0.0012618426 2212:-0.0012618426 2213:-0.0012618426 2214:1.693103e-18 2215:1.693103e-18 2216:1.693103e-18 2217:1.693103e-18 2218:1.693103e-18 2219:1.693103e-18 2220:1.693103e-18 2221:1.693103e-18 2222:1.693103e-18 2223:1.693103e-18 2224:1.693103e-18 2225:1.693103e-18 2226:-0.018822664 2227:-0.018822664 2228:-0.018822664 2229:-0.0049428153 2230:-0.0049428153 2231:-0.0049428153 2232:-0.0049428153 2233:1.704115e-18 2234:1.693103e-18 2235:1.693103e-18 2236:1.693103e-18 2237:1.693103e-18 2238:1.693103e-18 2239:1.693103e-18 2240:-0.0012029695 2241:1.693103e-18 2242:-0.0054756221 2243:1.693103e-18 2244:1.693103e-18 2245:1.693103e-18 2246:1.704115e-18 2247:1.693103e-18 2248:1.693103e-18 2249:1.693103e-18 2250:1.693103e-18 2251:1.693103e-18 2252:1.693103e-18 2253:1.693103e-18 2254:1.693103e-18 2255:1.693103e-18 2256:-0.010352878 2257:1.704115e-18 2258:1.693103e-18 2259:1.693103e-18 2260:1.693103e-18 2261:0.046801277 2262:0.043495826 2263:0.043495826 2264:0.046801277 2265:0.046801277 2266:-0.017073724 2267:-0.017073724 2268:-0.017073724 2269:-0.014590702 2270:1.693103e-18 2271:1.693103e-18 2272:-0.0045224954 2273:-0.0045224954 2274:-0.0045224954 2275:-0.0045224954 2276:-0.0011398019 2277:1.693103e-18 2278:1.693103e-18 2279:1.693103e-18 2280:1.693103e-18 2281:1.693103e-18 2282:-0.011010961 2283:-0.011010961 2284:-0.0077968668 2285:1.693103e-18 2286:1.693103e-18 2287:1.693103e-18 2288:-0.017370498 2289:-0.017370498 2290:-0.0012029695 2291:-0.0012029695 2292:-0.0012029695 2293:-0.0012029695 2294:-0.0012029695 2295:-0.0012029695 2296:-0.0012029695 2297:-0.040906344 2298:1.693103e-18 2299:1.693103e-18 2300:1.693103e-18 2301:1.693103e-18 2302:1.693103e-18 2303:1.693103e-18 2304:1.693103e-18 2305:1.693103e-18 2306:1.693103e-18 2307:-0.0045482083 2308:-0.0045482083 2309:-0.0045482083 2310:-0.00050746067 2311:-0.00050746067 2312:-0.00050746067 2313:1.693103e-18 2314:1.693103e-18 2315:1.693103e-18 2316:1.693103e-18 2317:1.693103e-18 2318:1.693103e-18 2319:1.693103e-18 2320:1.693103e-18 2321:1.693103e-18 2322:1.693103e-18 2323:1.693103e-18 2324:1.693103e-18 2325:1.693103e-18 2326:1.693103e-18 2327:1.693103e-18 2328:1.693103e-18 2329:1.693103e-18 2330:1.693103e-18 2331:1.693103e-18 2332:1.693103e-18 2333:-0.038419593 2334:1.693103e-18 2335:1.693103e-18 2336:1.693103e-18 2337:1.693103e-18 2338:-0.0067814868 2339:-0.0067814868 2340:-0.0067814868 2341:-0.0067814868 2342:1.693103e-18 2343:1.693103e-18 2344:1.693103e-18 2345:1.693103e-18 2346:1.693103e-18 2347:1.693103e-18 2348:1.693103e-18 2349:1.693103e-18 2350:1.693103e-18 2351:1.693103e-18 2352:-4.8077561e-18 #
