SVM-light Version V6.20
0 # kernel type
3 # kernel parameter -d 
1 # kernel parameter -g 
1 # kernel parameter -s 
1 # kernel parameter -r 
empty# kernel parameter -u 
2372 # highest feature index 
49 # number of training documents 
2 # number of support vectors plus 1 
0 # threshold b, each following line is a SV (starting with alpha*y)
1 1:-0.46639422 3:-0.058579806 4:-0.0091312397 5:-0.010277959 6:-0.070259929 7:-0.0091312397 8:-0.0091312397 9:-0.0073426492 10:-0.015745379 11:-0.048413165 12:-0.024662612 13:-0.043100338 14:-0.040822957 15:-0.018494543 16:-0.037155032 17:-0.012698388 18:1.9125843e-18 19:-0.0079443417 20:1.9125843e-18 21:-0.0035874394 23:-0.016606908 24:-0.040499061 25:-0.038855944 26:-0.031795643 27:-0.014878924 28:-0.00046136443 29:-0.00052388094 30:-0.00048731451 31:-0.00052388094 32:-0.00052388094 33:-0.00052388094 34:-0.040383328 35:-2.1817622e-17 36:-0.0082005309 37:-0.021316493 38:-0.01222812 39:-0.040383328 40:1.9125843e-18 41:1.9125843e-18 42:1.9125843e-18 43:-0.0035155145 44:-0.0087935552 45:-0.04668837 46:-0.045094114 47:-0.019921107 48:-0.029740283 49:-0.032426666 51:1.9125843e-18 52:-0.0090338262 53:-0.029740283 54:-0.023742059 55:-0.0013188078 56:-0.032453649 57:-0.0093619609 58:-0.019442698 59:-0.0013188078 60:-0.0013188078 61:-0.0040878137 62:-0.019238824 63:-0.047557641 64:1.9125843e-18 65:-0.0048337388 66:-0.060942557 67:1.9125843e-18 68:1.9125843e-18 69:1.9125843e-18 70:1.9125843e-18 71:-0.0021053492 72:-0.039168727 73:-0.057240486 74:-0.040084004 75:-0.012349668 76:-0.013441661 77:-0.011371659 78:-0.046218738 79:-0.041394241 80:1.7876807e-17 82:4.2150037e-17 83:-6.223024e-17 84:1.9125843e-18 85:-0.0052652662 86:-0.051935237 87:-0.044268463 88:-0.012769868 89:-0.0022487997 90:-0.0074088383 91:-0.0032934314 92:-0.020685596 93:-0.011378505 94:-0.0082343379 95:-0.020463765 96:-0.024382878 97:-0.0067991167 98:-0.015504865 99:-0.014821696 100:-0.0081853243 101:-0.039907355 102:-2.157512e-17 104:-0.0022776271 105:-0.013866955 106:1.9125843e-18 109:1.9125843e-18 110:-0.010169245 111:-2.157512e-17 112:1.9125843e-18 113:1.9125843e-18 114:2.5273434e-18 115:1.7876807e-17 116:1.9125843e-18 117:-0.00033522089 120:-0.00013031144 121:-0.0081527075 122:-0.0020740903 123:-0.027859587 124:-0.0091646658 125:-0.011749094 126:-0.02221112 127:-0.021474715 128:-0.033659942 129:-0.032236423 130:1.9125843e-18 131:1.9125843e-18 132:-0.012356555 133:-0.0016259787 135:-0.033876702 136:-0.022976844 137:-0.052816667 138:1.9125843e-18 139:-0.023374304 140:-0.020507568 141:-0.022972321 142:-0.010029069 143:-0.02594644 144:1.9125843e-18 145:-0.043700844 146:1.9125843e-18 147:-0.034372706 148:-0.012186648 149:-0.0038122963 150:-0.00096839288 151:1.9125843e-18 153:-0.01103947 154:-0.0026058089 155:-0.0018146934 156:-3.0439722e-19 157:1.9125843e-18 158:1.9125843e-18 159:-0.01497768 160:1.9125843e-18 161:1.9125843e-18 162:-0.034597203 163:-3.1323446e-18 164:-0.058068462 165:-0.062570922 166:-0.04266898 167:-0.01711235 168:-0.016303822 169:-0.0063459938 170:-0.006069202 171:-0.006702933 172:-0.0058429046 173:-0.013388422 174:-0.0072058979 175:-0.0063459938 176:-0.006702933 177:-0.006702933 178:-0.0030036923 179:-0.0030036923 180:-0.0028483171 181:-0.0027940371 182:-0.06036609 184:1.9125843e-18 185:4.2150037e-17 186:-0.0046538585 187:4.2150037e-17 188:-1.6417973e-17 189:4.1972206e-17 190:-0.0085594999 191:-0.015436129 192:1.7876807e-17 193:-0.024060631 194:-0.012985295 195:-0.0034700546 196:1.9125843e-18 197:-0.00092718878 198:-0.011455847 199:1.9125843e-18 201:1.9125843e-18 202:-0.0011597234 203:-0.0023319453 204:-0.022922441 205:-0.0054217475 206:-0.0033682855 207:-0.0034700546 208:1.9125843e-18 209:1.9125843e-18 210:-0.014479326 211:-0.0057770163 212:-0.0020483541 213:-0.0084669907 214:-3.634398e-17 215:-0.052049626 216:-0.019908514 217:-0.011233715 219:-0.032033276 220:-0.018507246 221:-6.223024e-17 222:-0.025134126 223:-0.0067365295 224:-0.0067365295 225:1.9125843e-18 227:1.9125843e-18 228:1.9125843e-18 229:1.9125843e-18 230:2.5273434e-18 231:-3.634398e-17 232:7.610329e-17 233:7.610329e-17 234:-3.1323446e-18 235:-0.019209845 236:-2.157512e-17 237:-0.00084818195 239:-0.019602017 240:-0.029379193 241:-0.006374341 242:0.0088898139 243:-0.0082146265 244:2.5273434e-18 245:-0.0062182574 247:-0.0010251653 248:-2.157512e-17 249:-0.0072114239 250:-0.0079261176 251:-0.0072114239 252:1.9125843e-18 253:-0.036794085 254:-0.042880792 255:-0.036550164 256:-0.0084960964 257:-0.00088667998 258:1.9125843e-18 259:4.2150037e-17 260:-2.3326697e-17 262:2.5273434e-18 263:1.9125843e-18 264:-2.157512e-17 265:-0.05809994 266:-0.0098906513 267:-0.0088310242 268:-0.01933015 269:-0.0078792134 270:-0.0078792134 272:2.5273434e-18 273:-0.0061237183 274:-0.0050645079 275:-0.0028404149 276:-0.019866465 277:1.9125843e-18 278:1.9125843e-18 279:1.9125843e-18 280:1.7876807e-17 282:1.9125843e-18 283:1.9125843e-18 284:1.9125843e-18 285:-0.015794691 286:-0.0061931252 287:-0.00331177 288:-0.011354049 289:-0.046203244 290:-0.0022265783 291:-0.0082020182 294:-0.00087781489 295:-0.0027543306 297:-0.002459072 298:-0.0022265783 299:-3.1323446e-18 300:-0.0081815468 301:-0.022690313 302:-0.0081815468 303:-0.0076104822 304:-0.0081815468 305:-0.0081815468 306:-0.02023489 307:-0.018150218 308:-0.003726382 309:-0.00087954325 310:-0.0051121004 311:-0.02470074 312:-0.01034026 313:-6.223024e-17 314:2.5273434e-18 315:-6.5093331e-17 316:-0.01895112 317:-0.004722571 318:-0.052302886 319:1.9125843e-18 320:1.9125843e-18 321:-6.1973582e-17 322:-0.0014184723 323:-0.013409295 324:1.9125843e-18 325:1.9125843e-18 326:-0.0016590427 327:-2.8493601e-18 329:1.9125843e-18 330:1.9125843e-18 331:-0.0074799145 332:-0.014522687 333:-0.012401805 334:-0.0026048531 335:-0.0074799145 336:-0.0026048531 337:-0.0026048531 338:-0.0019303297 339:-0.0026048531 340:-0.0026048531 341:-0.0026048531 342:-0.0026048531 343:-0.00046392574 344:-0.0015027289 345:-0.0032813654 346:-0.0067257234 347:1.9125843e-18 348:-0.0045403875 349:1.0037868e-18 350:1.0037868e-18 351:-3.1323446e-18 352:-0.0037721077 353:-0.0037132495 354:-0.0035155145 355:-0.0039918791 356:-0.0037132495 357:-0.02521516 358:2.5273434e-18 359:1.9125843e-18 360:1.9125843e-18 361:-0.0067418232 362:1.7876807e-17 363:1.7876807e-17 364:-0.013071031 365:-0.00061857508 366:-0.0085946657 367:-0.018113881 368:-0.0076932693 369:-0.0071562864 370:-0.011854275 371:-0.0076932693 372:-0.0076932693 373:-0.0076932693 374:-0.0076932693 375:-0.01218587 376:-0.00092718878 377:1.9125843e-18 378:-0.003221909 379:1.9125843e-18 380:1.9125843e-18 381:1.9125843e-18 383:-0.02009885 384:1.9125843e-18 385:-0.015168808 386:-0.021791514 387:-0.0080323713 388:-0.038735695 389:1.9125843e-18 390:-0.015168808 391:1.9125843e-18 392:-0.0060827597 393:-0.00039837707 395:-0.04302033 396:-0.015753539 397:-0.013039214 398:-0.0099034021 399:1.9125843e-18 401:1.9125843e-18 402:-0.0053448412 403:-0.0028639766 404:-0.0063984222 405:1.9125843e-18 406:-3.4520416e-18 407:-0.0032105749 408:-0.0036456189 409:-0.0032105749 410:-0.0036456189 411:-0.0036456189 412:-0.0036456189 413:-0.0036456189 414:-0.053053875 415:-0.0027795164 416:-0.013822825 417:4.2150037e-17 418:-6.1973582e-17 419:-0.041477129 420:1.9125843e-18 421:1.9125843e-18 422:-0.010026005 423:-0.0068367594 424:1.9125843e-18 425:-0.02074714 426:-0.050739374 427:-0.017080639 428:-0.021373993 429:1.9125843e-18 430:1.9125843e-18 431:-0.020268045 432:1.9125843e-18 433:-0.027616452 434:1.9125843e-18 435:1.9125843e-18 436:1.9125843e-18 437:1.9125843e-18 438:1.9125843e-18 439:-0.0072081704 440:-0.015333777 441:-0.025211906 442:-0.016204383 443:-0.0049899844 444:-0.013859769 445:1.7876807e-17 446:-0.0045309695 447:-0.0008437261 448:-0.00082784321 449:2.5273434e-18 450:1.9125843e-18 451:1.9125843e-18 452:-0.002944563 453:-0.011833774 454:-0.0077717314 455:1.9125843e-18 456:-0.013400449 458:-0.014690191 459:1.9125843e-18 460:-0.012347457 461:-0.01402058 462:-0.01402058 463:-0.0030788798 464:-0.0030788798 465:-0.0030788798 466:-0.013848725 467:-0.029502347 468:-0.0018980973 469:-2.157512e-17 470:-0.0020342674 471:-0.0014164904 472:1.9125843e-18 473:1.9125843e-18 474:-0.0014150443 475:-0.0064561809 476:-0.0070676734 477:-0.021556178 478:1.9125843e-18 479:-0.021556178 480:-0.0044385898 481:-0.024113689 482:-0.021502875 483:-0.02530613 484:-0.012645431 485:-0.0067257234 487:1.9125843e-18 488:-0.017186617 489:0.041027136 490:1.9125843e-18 491:-0.00092718878 492:1.9125843e-18 493:1.9125843e-18 494:-0.0024310804 495:-0.001319054 496:1.9125843e-18 497:1.9125843e-18 498:1.9125843e-18 499:-0.0051125553 500:1.9125843e-18 501:1.9125843e-18 502:-0.033856742 503:-0.00097371358 504:2.5273434e-18 505:1.9125843e-18 506:-0.0085231876 507:-0.0075484072 508:-0.0086112535 509:-0.0057614855 510:-0.0057614855 511:-0.0040880577 512:-0.011013997 513:-0.0080943285 514:-0.0040880577 515:1.9125843e-18 516:-3.634398e-17 517:-0.0069119907 518:1.9125843e-18 519:-0.0010330698 520:-0.0021633219 521:-6.4990264e-17 522:-0.0027034828 523:1.9125843e-18 525:1.9125843e-18 526:1.9125843e-18 527:1.9125843e-18 528:1.9125843e-18 529:1.9125843e-18 530:1.9125843e-18 532:1.9125843e-18 533:-0.0062071541 534:1.9125843e-18 535:1.9125843e-18 536:1.9125843e-18 537:1.9125843e-18 538:1.9125843e-18 539:1.9125843e-18 540:-0.0054358258 542:1.9125843e-18 543:-0.0076705338 544:2.5273434e-18 545:1.9125843e-18 546:1.9125843e-18 547:-0.00048731451 548:1.9125843e-18 549:1.9125843e-18 550:1.9125843e-18 551:0.0095676482 552:-0.038636066 553:1.9125843e-18 554:1.9125843e-18 555:1.9125843e-18 556:1.9125843e-18 557:1.9125843e-18 558:-3.1323446e-18 559:1.9125843e-18 560:1.9125843e-18 561:1.9125843e-18 562:1.9125843e-18 563:1.9125843e-18 564:1.9125843e-18 565:1.9125843e-18 566:1.9125843e-18 567:1.9125843e-18 568:1.9125843e-18 571:1.9125843e-18 572:1.9125843e-18 573:-0.005635228 574:-0.005635228 575:-0.005635228 576:-0.005635228 577:-0.034642912 578:-0.034642912 579:-4.5351186e-18 580:-7.8935824e-05 581:-0.036417145 582:-0.01318649 583:-0.01318649 584:1.9125843e-18 585:-0.0066600856 586:1.9125843e-18 589:-0.0021603678 590:-0.0057399957 591:1.7876807e-17 592:-0.0014968565 593:-0.0025411367 595:-0.005043589 604:1.7876807e-17 608:1.9125843e-18 609:-0.0014003891 610:-0.0083727343 611:-0.0014003891 612:-0.0014003891 613:-0.0014003891 614:-0.0014003891 615:-0.0014003891 616:-0.0014003891 617:-0.0014003891 618:-0.028424855 619:-0.0087448498 620:-0.0095319729 621:1.9125843e-18 622:1.9125843e-18 623:1.9125843e-18 624:1.9125843e-18 625:1.9125843e-18 626:1.7601189e-17 627:2.5273434e-18 630:-0.013334177 631:-0.013018637 632:-0.013334177 633:-0.013166362 634:-0.0026096199 635:-0.0045679654 636:-0.0049373796 637:1.9125843e-18 638:1.9125843e-18 639:1.9125843e-18 640:1.9125843e-18 641:1.9125843e-18 642:-7.2140931e-05 643:-0.00042263599 644:-0.0004390048 645:1.585346e-18 646:1.7325571e-17 647:-3.0439722e-19 648:-0.0069430415 649:-0.001319054 650:1.9125843e-18 652:1.9125843e-18 653:-0.001319054 654:1.9125843e-18 655:-0.0092259068 656:-0.0019303297 657:1.9125843e-18 658:-0.0046345564 659:-0.010212173 661:1.9125843e-18 662:1.9125843e-18 663:1.9125843e-18 664:1.9125843e-18 665:-0.0046345564 666:1.9125843e-18 667:1.9125843e-18 668:1.9125843e-18 669:1.9125843e-18 670:1.9125843e-18 671:1.9125843e-18 672:1.9125843e-18 673:1.9125843e-18 674:1.9125843e-18 675:1.9125843e-18 676:1.9125843e-18 677:1.9125843e-18 678:1.9125843e-18 680:1.9125843e-18 681:1.9125843e-18 682:1.9125843e-18 683:-0.002990206 684:-0.026467077 685:-0.002990206 686:-0.002990206 687:-0.0057397876 688:-0.005571452 689:-0.031417791 690:1.9125843e-18 691:1.9125843e-18 692:1.9125843e-18 693:-0.0046570441 694:-0.0043877605 695:-3.1323446e-18 696:2.5273434e-18 697:1.9125843e-18 698:1.9125843e-18 700:1.9125843e-18 701:-0.0052527576 702:2.5273434e-18 703:-6.1973582e-17 704:-0.0048236041 705:-0.0053272727 706:0.015639307 707:0.015639307 708:-0.0057270131 709:-0.0057270131 710:-0.010663156 711:1.9125843e-18 712:1.9125843e-18 713:1.9125843e-18 714:-3.1323446e-18 715:-0.0081758834 716:-0.0045305393 717:-0.0050470941 718:-0.0044448068 719:-0.013562205 720:0.023333114 721:-0.013250121 722:-0.01459033 723:0.010402117 724:-0.012167294 725:-0.013080286 726:-0.0025932011 727:1.9125843e-18 728:-3.634398e-17 729:-0.030783599 730:-0.015911261 731:-0.0048296442 732:2.5273434e-18 733:-0.0040706014 734:-0.0030551511 735:-0.0035229134 736:-0.00087161665 737:-0.000548365 739:1.9125843e-18 740:1.9125843e-18 741:1.9125843e-18 742:1.9125843e-18 743:1.9125843e-18 744:1.9125843e-18 745:-0.032236423 746:2.5273434e-18 747:1.9125843e-18 748:1.9125843e-18 749:1.7876807e-17 751:1.9125843e-18 753:-0.002402738 755:2.5273434e-18 756:-6.2486898e-17 757:-3.3976857e-18 758:1.9125843e-18 759:-0.035464864 762:-0.0062068556 763:-0.008471014 764:-0.0062068556 765:-0.0062068556 766:-0.0062068556 767:-0.0062068556 768:-0.0062068556 769:-0.0062068556 770:-0.0062068556 771:-0.0062068556 772:-0.0062068556 773:-0.0049870415 774:-0.008938875 775:-0.010212173 776:-0.010212173 777:-0.010212173 778:-0.013131867 779:-0.0097307572 780:-0.010460921 781:-0.010460921 782:-0.010460921 783:-0.010460921 784:-0.010460921 785:-0.010620045 786:1.9125843e-18 787:-0.0025892563 788:1.9125843e-18 789:1.9125843e-18 791:-0.0052570319 792:-0.015076908 793:-0.015240357 794:-0.0052570319 795:-0.0056515015 796:-0.0070252111 797:-0.0056515015 798:-0.0056515015 799:-0.015240357 800:-0.012809292 801:-0.0016067878 802:-0.039523587 803:-0.0026748199 804:1.9125843e-18 805:-0.017663427 806:1.9125843e-18 807:-0.0029051288 808:1.9125843e-18 809:1.9125843e-18 810:1.9125843e-18 811:1.9125843e-18 812:1.7876807e-17 813:1.9125843e-18 814:1.9125843e-18 815:1.9125843e-18 817:-0.0024957967 818:2.5273434e-18 819:1.9125843e-18 821:1.9125843e-18 822:-0.007047934 823:1.9125843e-18 824:1.9125843e-18 825:1.9125843e-18 826:-0.013422502 827:-0.013422502 828:-0.013422502 829:1.9125843e-18 830:1.9125843e-18 832:-0.015163468 833:-0.0035290662 834:-0.03698587 835:-0.043092195 836:-0.036749717 837:-0.00099472539 838:-0.00099472539 839:-0.00099472539 841:1.9125843e-18 842:1.9125843e-18 843:1.9125843e-18 844:1.9125843e-18 845:1.9125843e-18 846:1.9125843e-18 847:1.9125843e-18 848:-3.634398e-17 849:1.7876807e-17 850:1.9125843e-18 851:-3.634398e-17 852:-3.634398e-17 853:1.7876807e-17 854:1.9125843e-18 855:1.7820346e-17 856:2.5273434e-18 857:1.9125843e-18 858:1.9125843e-18 859:1.9125843e-18 860:1.9125843e-18 861:-0.0019636292 862:1.9125843e-18 863:1.9125843e-18 865:1.9125843e-18 866:-0.0039101783 868:1.9125843e-18 869:1.9125843e-18 871:1.9125843e-18 873:1.9125843e-18 874:1.9125843e-18 875:-0.0220036 876:1.9125843e-18 877:1.9125843e-18 878:1.9125843e-18 879:1.9125843e-18 880:1.9125843e-18 881:-0.021041598 882:-0.015217263 883:-0.013080692 884:-0.015911261 885:-0.015911261 888:1.9125843e-18 889:1.9125843e-18 890:-0.0038449306 891:-0.0035765579 892:1.9125843e-18 893:1.9125843e-18 894:1.9125843e-18 895:1.9125843e-18 896:1.9125843e-18 897:1.9125843e-18 898:1.9125843e-18 899:-0.0035850564 900:-0.004070844 904:-0.0021223666 905:1.9125843e-18 906:1.9125843e-18 908:-0.00116143 909:1.9125843e-18 910:2.5273434e-18 911:-0.027940936 912:-0.0049577379 913:-0.012000692 914:-0.0011640788 915:-0.0011640788 916:-0.05719107 917:-0.004136418 918:-3.766106e-17 919:-0.00052388094 920:-0.00052388094 921:-0.010451726 922:-0.010109735 923:-0.00052388094 924:-0.00052388094 925:-0.00052388094 926:-0.00052388094 927:-0.00052388094 928:-0.00052388094 929:-0.00052388094 930:-0.00052388094 931:-0.0013173108 932:-0.012429432 933:-0.0025378475 934:-0.0025378475 935:-0.0044584493 936:-0.0044584493 937:-0.0044584493 938:-0.0044584493 939:-0.036417145 940:-0.039149761 941:-0.036417145 942:-0.0079984777 943:-0.010882568 944:1.9125843e-18 946:-0.010882568 947:1.9125843e-18 948:-0.0079469262 949:-0.0056368937 950:-0.0052434439 951:-0.0056368937 952:-0.0056368937 953:-0.0056368937 954:-0.0056368937 955:1.9125843e-18 956:1.9125843e-18 958:1.9125843e-18 959:1.9125843e-18 960:1.9125843e-18 961:1.9125843e-18 962:-0.00036679508 963:1.9125843e-18 964:1.9125843e-18 965:1.9125843e-18 966:1.9125843e-18 967:-0.0046570441 968:-0.039149761 969:-0.030232759 970:-0.030232759 971:-0.030232759 972:-0.0036034377 973:-0.0036034377 974:-0.0036034377 975:-0.058330115 977:-0.002755502 978:-0.0029622654 979:-0.0029622654 980:-0.0029622654 981:-0.0029622654 982:-0.0029622654 983:-0.022620488 984:-0.021041598 986:-0.034477886 987:1.9125843e-18 988:1.9125843e-18 989:1.9125843e-18 990:-0.0030917134 991:1.9125843e-18 992:-0.036417145 993:-0.004089966 994:-0.0032059385 995:-0.0019742274 996:1.9125843e-18 997:1.9125843e-18 998:1.9125843e-18 1001:1.9125843e-18 1002:-0.025765764 1003:-0.0052652662 1004:-0.0056603537 1005:-0.0056603537 1006:-0.0056603537 1007:-0.0053225583 1008:1.9125843e-18 1009:1.9125843e-18 1011:1.7876807e-17 1012:-3.3364415e-18 1015:-0.0023123219 1016:-0.0030378355 1017:-0.0035819127 1018:1.585346e-18 1019:1.585346e-18 1020:1.585346e-18 1022:2.5273434e-18 1023:-0.0029395074 1024:-0.0031048439 1025:1.7876807e-17 1026:-0.01179338 1029:1.9125843e-18 1030:-0.03295267 1031:-0.03295267 1032:-0.00099472539 1033:-0.03295267 1034:1.585346e-18 1035:1.585346e-18 1036:1.585346e-18 1037:-3.0439722e-19 1040:1.9125843e-18 1041:-0.010848638 1042:-0.0062523568 1043:-0.010848638 1044:-0.0062523568 1045:-0.005898023 1046:1.9125843e-18 1047:1.9125843e-18 1048:1.9125843e-18 1049:1.9125843e-18 1050:-0.031486679 1051:-0.039235286 1052:-0.01184378 1053:-0.01250995 1054:-0.013448654 1055:1.9125843e-18 1056:1.9125843e-18 1057:1.9125843e-18 1058:1.9125843e-18 1059:1.9125843e-18 1060:1.9125843e-18 1061:1.9125843e-18 1062:1.9125843e-18 1063:-0.0075152931 1064:1.9125843e-18 1065:-0.0021633219 1066:1.9125843e-18 1067:-0.0033216297 1068:-0.015979705 1069:-0.0046132151 1070:-0.0042912168 1071:-0.0046132151 1072:-0.0011640788 1073:1.7876807e-17 1074:1.585346e-18 1075:1.585346e-18 1076:-0.014966571 1077:1.585346e-18 1078:1.585346e-18 1079:1.585346e-18 1080:-6.0879444e-19 1081:-0.053679597 1082:-0.00048731451 1083:-0.010306157 1084:-0.011079496 1085:-0.011079496 1086:-0.0041963807 1087:-0.0049823173 1088:-0.0086871674 1089:-0.0049823173 1090:-0.0041963807 1091:-0.0049823173 1092:-0.0049823173 1093:-0.0049823173 1094:-0.025765764 1095:1.9125843e-18 1096:1.9125843e-18 1097:1.9125843e-18 1098:1.9125843e-18 1099:1.9125843e-18 1100:1.9125843e-18 1101:1.9125843e-18 1102:1.9125843e-18 1103:1.9125843e-18 1104:1.9125843e-18 1106:1.9125843e-18 1107:1.9125843e-18 1108:1.9125843e-18 1110:-0.0016067878 1111:-0.0016067878 1112:-0.0016067878 1113:2.5273434e-18 1114:-0.0082919477 1115:-0.0024229996 1116:-0.0024229996 1117:-0.0024229996 1118:-0.0053148046 1119:-0.0053148046 1121:1.9125843e-18 1122:-3.1323446e-18 1123:-0.0035617941 1124:-0.0035617941 1125:-0.0029999379 1126:-0.0035617941 1127:-0.0035617941 1128:-0.0019742274 1129:-0.0019742274 1130:1.9125843e-18 1132:1.9125843e-18 1133:-3.1323446e-18 1134:1.9125843e-18 1136:-0.031196522 1137:1.8258036e-19 1138:-0.031196522 1139:-0.016841184 1140:-0.016841184 1141:-0.00131687 1142:-0.00131687 1143:-0.00131687 1144:-0.00131687 1145:-0.00131687 1146:-0.018499158 1147:-0.012657905 1148:-0.012657905 1149:-0.012657905 1150:-0.012657905 1151:1.7876807e-17 1152:-0.012357193 1153:-0.012357193 1154:1.9125843e-18 1155:-0.0040830197 1156:1.9125843e-18 1157:1.9125843e-18 1159:-0.0010330698 1161:1.9125843e-18 1162:1.9125843e-18 1163:1.9125843e-18 1164:1.9125843e-18 1165:2.5273434e-18 1167:-0.0017329655 1168:-0.025765184 1169:-0.025765184 1170:1.9125843e-18 1171:1.9125843e-18 1172:1.9125843e-18 1173:1.9125843e-18 1174:1.9125843e-18 1175:2.5273434e-18 1176:-0.0034435352 1177:1.9125843e-18 1178:1.9125843e-18 1179:1.9125843e-18 1181:1.9125843e-18 1185:1.9125843e-18 1186:2.5273434e-18 1187:2.5273434e-18 1190:-0.0022237676 1191:-0.0044242931 1192:-0.0041154814 1193:-0.0044242931 1194:-0.0025664414 1195:-0.00099676184 1196:-0.00099676184 1197:1.585346e-18 1198:1.585346e-18 1199:1.585346e-18 1200:-3.0439722e-19 1201:1.9125843e-18 1202:1.9125843e-18 1203:1.9125843e-18 1204:2.5273434e-18 1205:2.5273434e-18 1206:1.9125843e-18 1208:-0.0029270758 1210:-0.0053422377 1211:1.9125843e-18 1212:-0.0054213647 1213:-0.011168261 1214:-0.0015472956 1215:1.9125843e-18 1216:1.9125843e-18 1217:1.9125843e-18 1218:1.9125843e-18 1219:1.9125843e-18 1220:1.9125843e-18 1221:1.9125843e-18 1222:1.9125843e-18 1223:1.9125843e-18 1224:1.9125843e-18 1225:1.9125843e-18 1226:1.9125843e-18 1227:-0.0028639766 1228:1.9125843e-18 1229:1.9125843e-18 1230:1.9125843e-18 1231:1.9125843e-18 1232:1.9125843e-18 1233:1.9125843e-18 1235:1.9125843e-18 1236:1.7876807e-17 1237:-3.1323446e-18 1239:1.9125843e-18 1240:-0.0046088849 1241:-0.0034161708 1242:-0.0031234736 1243:-0.0033578484 1244:-0.0033578484 1245:-0.0033578484 1246:-0.0033216297 1247:1.9125843e-18 1248:-0.013229735 1249:-0.0027940371 1250:-0.0027940371 1251:-0.01397386 1252:1.9125843e-18 1253:1.9125843e-18 1254:1.9125843e-18 1255:1.9125843e-18 1256:1.9125843e-18 1258:1.9125843e-18 1259:1.9125843e-18 1260:1.9125843e-18 1262:1.9125843e-18 1263:1.9125843e-18 1264:1.9125843e-18 1265:1.9125843e-18 1266:1.9125843e-18 1267:1.9125843e-18 1268:1.9125843e-18 1269:1.9125843e-18 1271:1.9125843e-18 1272:1.9125843e-18 1273:1.9125843e-18 1274:-0.0042100553 1275:1.9125843e-18 1276:1.9125843e-18 1277:1.9125843e-18 1278:1.9125843e-18 1279:1.9125843e-18 1280:1.9125843e-18 1281:1.9125843e-18 1282:1.9125843e-18 1283:1.9125843e-18 1284:1.9125843e-18 1285:2.5273434e-18 1286:1.9125843e-18 1287:1.9125843e-18 1292:-0.036417145 1294:1.9125843e-18 1296:1.9125843e-18 1297:1.9125843e-18 1298:1.9125843e-18 1300:1.9125843e-18 1301:-0.036417145 1302:-0.0052499361 1303:-0.0046425126 1304:-0.0046425126 1305:-0.007242016 1306:-0.007242016 1307:-0.007242016 1308:-0.022881588 1310:1.9125843e-18 1311:1.9125843e-18 1312:1.9125843e-18 1313:-0.0021053492 1314:1.9125843e-18 1315:1.9125843e-18 1316:1.9125843e-18 1317:-7.8935824e-05 1318:-9.7349446e-05 1319:-0.013939292 1320:-0.0029103511 1321:-0.013939292 1322:1.9125843e-18 1323:1.9125843e-18 1324:1.9125843e-18 1325:1.9125843e-18 1326:-0.039149761 1328:1.9125843e-18 1329:1.9125843e-18 1331:2.5273434e-18 1332:-0.00042078434 1334:1.9125843e-18 1335:2.5273434e-18 1336:-0.020968921 1337:-0.019505311 1338:-0.020968921 1339:-0.020968921 1340:1.9125843e-18 1341:1.9125843e-18 1342:1.9125843e-18 1343:1.9125843e-18 1344:1.9125843e-18 1345:-0.015226301 1346:-0.015226301 1347:1.9125843e-18 1348:1.9125843e-18 1349:1.9125843e-18 1351:1.9125843e-18 1352:1.9125843e-18 1353:1.9125843e-18 1354:1.9125843e-18 1355:-0.00054440333 1356:-0.00050640444 1357:-0.00054440333 1358:-0.00054440333 1359:-0.00054440333 1360:-0.00045235857 1361:1.9125843e-18 1362:1.9125843e-18 1363:1.9125843e-18 1364:1.9125843e-18 1365:1.9125843e-18 1366:1.9125843e-18 1367:1.9125843e-18 1368:1.9125843e-18 1369:1.9125843e-18 1370:1.9125843e-18 1371:1.9125843e-18 1373:1.9125843e-18 1374:-0.0045412323 1375:-0.0045412323 1376:-0.0048819911 1377:-0.0042994064 1378:-0.0048819911 1379:-0.0048819911 1380:-0.0045412323 1381:1.9125843e-18 1382:1.9125843e-18 1383:1.9125843e-18 1386:1.9125843e-18 1387:1.9125843e-18 1388:1.9125843e-18 1389:2.5273434e-18 1390:1.7664806e-17 1391:-0.030232759 1392:-0.030232759 1393:-0.030232759 1394:1.9125843e-18 1395:1.9125843e-18 1396:-0.0062523568 1397:1.9125843e-18 1398:1.9125843e-18 1399:1.9125843e-18 1400:1.9125843e-18 1401:1.9125843e-18 1402:1.9125843e-18 1403:1.9125843e-18 1404:1.9125843e-18 1405:1.9125843e-18 1406:1.9125843e-18 1407:1.9125843e-18 1408:1.9125843e-18 1410:1.9125843e-18 1412:1.9125843e-18 1413:1.9125843e-18 1414:1.9125843e-18 1415:-9.7349446e-05 1416:-9.0554546e-05 1417:-9.7349446e-05 1418:-9.7349446e-05 1419:-9.7349446e-05 1420:-8.5732405e-05 1421:-9.7349446e-05 1422:-9.7349446e-05 1423:-0.0030788798 1424:1.9125843e-18 1425:1.9125843e-18 1427:-0.012074933 1428:-0.010525644 1429:-0.011431929 1430:-0.0011409404 1431:-0.0011409404 1432:-0.0011409404 1433:1.9125843e-18 1434:1.9125843e-18 1435:1.9125843e-18 1436:-0.007248647 1437:-0.007248647 1438:-0.007248647 1439:-0.0072081704 1440:-0.042327847 1442:1.9125843e-18 1443:1.9125843e-18 1444:1.9125843e-18 1446:1.9125843e-18 1447:1.9125843e-18 1448:1.9125843e-18 1449:1.9125843e-18 1450:1.9125843e-18 1451:1.9125843e-18 1452:1.9125843e-18 1453:1.9125843e-18 1454:-0.0058423686 1455:1.9125843e-18 1456:1.9125843e-18 1457:-0.00064175273 1458:-0.0023280927 1459:-0.00064175273 1460:-0.00064175273 1461:-0.00064175273 1462:-0.00064175273 1463:-0.00064175273 1464:-0.0046345564 1465:-0.0049823173 1466:-0.011397219 1467:-0.0019260884 1468:-0.0019260884 1469:-0.0018235218 1470:-0.0019260884 1471:-0.0020706155 1472:-0.0019260884 1473:-0.0019260884 1474:-0.0030788798 1475:-0.0030788798 1476:-0.0030788798 1477:-0.0030788798 1479:1.9125843e-18 1480:1.9125843e-18 1481:1.9125843e-18 1482:-0.01238413 1483:1.9125843e-18 1484:1.9125843e-18 1485:-0.0052259015 1486:-0.0093134204 1487:-0.0093134204 1488:1.9125843e-18 1490:1.9125843e-18 1491:-0.023819469 1492:-0.023819469 1493:1.9125843e-18 1495:1.9125843e-18 1496:-0.013885708 1497:-0.013885708 1498:-0.013885708 1499:-0.013885708 1500:-0.019302543 1501:-0.019302543 1502:-0.019302543 1504:-0.024276443 1505:-0.014621843 1506:-0.015719015 1507:-0.014621843 1508:-0.015719015 1509:-0.0030535499 1510:-0.0028404149 1511:-0.0030535499 1512:-0.0030535499 1513:-0.0030535499 1514:-0.030232759 1515:-0.030232759 1516:-0.030232759 1518:-0.0012265526 1519:-0.0010330698 1520:-0.0012265526 1521:-0.0012265526 1522:-0.0059146266 1523:-0.00635844 1524:-0.033537403 1525:-0.025636369 1526:-0.013846239 1527:1.9125843e-18 1528:-0.0036961481 1529:1.9125843e-18 1530:1.9125843e-18 1531:1.9125843e-18 1532:1.9125843e-18 1533:1.9125843e-18 1534:1.9125843e-18 1535:1.9125843e-18 1536:1.9125843e-18 1537:1.9125843e-18 1538:1.9125843e-18 1539:1.9125843e-18 1540:-0.013846239 1541:1.9125843e-18 1542:1.9125843e-18 1543:1.9125843e-18 1544:1.9125843e-18 1545:1.9125843e-18 1546:1.9125843e-18 1547:1.9125843e-18 1548:1.9125843e-18 1549:1.9125843e-18 1550:-0.0036403541 1551:-0.0036403541 1552:-0.0036403541 1553:-0.0036403541 1554:-0.014987247 1555:-0.014987247 1556:-0.014987247 1557:1.9125843e-18 1558:1.9125843e-18 1559:-0.0023256501 1560:-0.0023256501 1561:-0.0023256501 1562:-0.0023256501 1563:-0.0023256501 1564:-0.0023256501 1565:-0.0023256501 1566:-0.0023256501 1567:-0.0023256501 1568:-0.0023256501 1569:-0.0023256501 1570:-0.0023256501 1573:1.9125843e-18 1574:1.9125843e-18 1575:1.9125843e-18 1576:1.9125843e-18 1577:1.9125843e-18 1578:1.9125843e-18 1579:1.9125843e-18 1580:1.9125843e-18 1581:-0.019484034 1582:-0.019484034 1583:-0.019484034 1584:-0.019484034 1585:1.9125843e-18 1586:1.9125843e-18 1587:1.9125843e-18 1588:1.9125843e-18 1589:1.9125843e-18 1590:1.9125843e-18 1591:-0.0033237049 1592:-0.0033237049 1593:-0.0033237049 1594:-0.0033237049 1595:-0.0033237049 1596:-0.030232759 1597:-0.030232759 1598:-0.030232759 1599:-0.012395365 1600:-0.010232571 1601:-0.0079074483 1602:1.9125843e-18 1604:1.9125843e-18 1605:1.9125843e-18 1606:-0.0027497897 1607:1.9125843e-18 1608:-0.0011409404 1609:-0.0010801839 1610:-0.0012265526 1611:-0.0012265526 1612:-0.0011409404 1613:-0.0012265526 1614:-0.004517898 1616:1.9125843e-18 1617:-0.039149761 1618:-0.04199224 1619:1.9125843e-18 1620:1.9125843e-18 1621:1.9125843e-18 1622:-0.0038506871 1623:-0.0038506871 1624:-0.013927538 1625:-0.0036961481 1626:-0.0099555254 1627:1.9125843e-18 1628:1.9125843e-18 1629:1.9125843e-18 1630:1.9125843e-18 1631:-0.013927538 1632:-0.013927538 1633:-0.0054739942 1634:-0.0054739942 1635:-0.0054739942 1636:-0.0050919144 1637:-0.0054739942 1638:1.9125843e-18 1639:-0.0027034828 1640:1.9125843e-18 1641:1.9125843e-18 1642:1.9125843e-18 1644:1.9125843e-18 1645:1.9125843e-18 1646:1.9125843e-18 1647:1.9125843e-18 1648:1.9125843e-18 1649:1.9125843e-18 1650:1.9125843e-18 1651:1.9125843e-18 1652:1.9125843e-18 1653:1.9125843e-18 1654:1.9125843e-18 1655:1.9125843e-18 1656:1.7876807e-17 1657:1.9125843e-18 1658:-0.0085137291 1659:1.9125843e-18 1660:1.9125843e-18 1661:1.9125843e-18 1662:1.9125843e-18 1663:1.9125843e-18 1664:-0.007749835 1665:-0.007749835 1666:-0.007749835 1667:-0.007749835 1668:1.9125843e-18 1669:2.5273434e-18 1671:1.9125843e-18 1672:1.9125843e-18 1673:1.9125843e-18 1674:-0.004089966 1675:1.9125843e-18 1676:-0.004089966 1677:1.9125843e-18 1678:1.9125843e-18 1679:1.9125843e-18 1680:1.9125843e-18 1681:-2.3413849e-19 1682:-0.012355534 1683:-0.0092834942 1684:-0.0092834942 1685:-0.022111312 1686:-0.022111312 1687:-0.022111312 1688:1.9125843e-18 1689:1.9125843e-18 1690:1.9125843e-18 1691:1.9125843e-18 1692:1.9125843e-18 1693:1.9125843e-18 1695:1.9125843e-18 1696:1.9125843e-18 1697:1.9125843e-18 1699:1.9125843e-18 1700:1.9125843e-18 1701:1.9125843e-18 1702:1.9125843e-18 1703:-0.036417145 1704:-0.012018719 1705:1.9125843e-18 1706:1.9125843e-18 1707:0.078489959 1708:0.078489959 1709:-9.0554546e-05 1710:-9.7349446e-05 1711:1.9125843e-18 1712:1.9125843e-18 1713:1.9125843e-18 1714:-0.0020552955 1715:-0.00045235857 1716:-0.00045235857 1717:1.9125843e-18 1718:1.8258036e-19 1719:-0.0013188078 1720:1.9125843e-18 1721:1.9125843e-18 1723:1.9125843e-18 1724:-0.012672715 1725:-0.0021407511 1726:-0.012672715 1727:-0.0091193337 1728:1.9125843e-18 1729:1.9125843e-18 1730:-3.1323446e-18 1731:1.9125843e-18 1732:1.9125843e-18 1733:-0.026306638 1734:-0.0012265526 1735:-0.03707413 1737:1.9125843e-18 1738:1.9125843e-18 1739:-0.0015847731 1740:-0.0037019264 1741:-0.0037019264 1742:-0.0037019264 1743:-0.0037019264 1744:-0.0037019264 1745:-0.0045259637 1746:-0.0042100553 1747:-0.003985865 1748:-0.0045259637 1749:-0.0045259637 1750:-0.0045259637 1751:-0.0042100553 1752:-0.0045259637 1753:-0.014885213 1754:1.9125843e-18 1755:1.9125843e-18 1756:1.9125843e-18 1757:1.9125843e-18 1759:1.9125843e-18 1760:1.9125843e-18 1761:1.9125843e-18 1762:1.9125843e-18 1763:1.9125843e-18 1764:1.9125843e-18 1765:1.9125843e-18 1766:1.9125843e-18 1767:-0.01419057 1768:1.9125843e-18 1769:1.9125843e-18 1770:1.9125843e-18 1771:1.9125843e-18 1772:1.9125843e-18 1774:-0.0036961481 1775:1.9125843e-18 1776:1.9125843e-18 1777:1.9125843e-18 1778:1.9125843e-18 1779:1.9125843e-18 1780:1.9125843e-18 1781:1.9125843e-18 1782:1.9125843e-18 1783:-0.0086097559 1784:-0.0086097559 1785:-0.0086097559 1786:-0.010078682 1787:-0.010078682 1788:-0.014175959 1789:1.9125843e-18 1790:1.9125843e-18 1791:1.9125843e-18 1792:-0.0028344416 1793:1.9125843e-18 1794:-0.0028344416 1795:1.9125843e-18 1796:1.9125843e-18 1797:1.9125843e-18 1798:1.9125843e-18 1799:1.9125843e-18 1800:-0.016714117 1801:-0.016714117 1802:-0.016714117 1803:-0.013504412 1804:-0.013504412 1805:-0.013504412 1806:-0.010514198 1807:-0.010514198 1808:-0.010514198 1809:0.062464304 1810:0.062464304 1811:0.062464304 1812:0.062464304 1813:-0.011737105 1814:-0.011737105 1815:-0.011737105 1816:-0.0081307609 1817:-0.0075767864 1818:-0.0075767864 1819:1.9125843e-18 1820:1.9125843e-18 1821:1.9125843e-18 1822:1.9125843e-18 1823:1.9125843e-18 1824:1.9125843e-18 1825:1.9125843e-18 1826:1.585346e-18 1827:1.585346e-18 1828:-0.0026096199 1829:1.585346e-18 1830:1.585346e-18 1831:1.585346e-18 1832:1.585346e-18 1833:-0.0026096199 1834:1.585346e-18 1835:1.9125843e-18 1836:1.9125843e-18 1837:1.9125843e-18 1838:1.9125843e-18 1839:-0.0036961481 1840:1.9125843e-18 1841:1.9125843e-18 1842:1.9125843e-18 1843:1.9125843e-18 1844:1.9125843e-18 1845:1.9125843e-18 1846:-0.0069026998 1847:-0.0046533048 1848:-0.001703689 1849:-0.001703689 1850:1.9125843e-18 1851:1.9125843e-18 1852:1.9125843e-18 1853:1.9125843e-18 1854:1.9125843e-18 1855:1.9125843e-18 1856:1.9125843e-18 1857:1.9125843e-18 1858:1.9125843e-18 1859:1.9125843e-18 1860:1.9125843e-18 1861:1.9125843e-18 1862:1.9125843e-18 1863:1.9125843e-18 1864:1.9125843e-18 1865:1.9125843e-18 1866:1.9125843e-18 1867:1.9125843e-18 1868:1.9125843e-18 1869:1.9125843e-18 1870:-0.021418354 1871:1.9125843e-18 1872:1.9125843e-18 1874:1.9125843e-18 1875:1.9125843e-18 1876:1.9125843e-18 1877:-0.0062646028 1878:-0.0086617805 1879:-0.0021223666 1880:-0.0021223666 1881:-0.0021223666 1882:-0.0021223666 1883:-0.0021223666 1884:-0.0021223666 1885:-0.0021223666 1886:-0.0021223666 1887:-0.0021223666 1890:1.9125843e-18 1891:1.9125843e-18 1892:1.9125843e-18 1893:1.9125843e-18 1894:2.5273434e-18 1896:1.9125843e-18 1897:1.9125843e-18 1898:1.9125843e-18 1899:1.9125843e-18 1900:-0.0016817838 1901:-0.0016817838 1902:-0.0015643969 1903:-0.0015643969 1904:-0.0015643969 1905:1.9125843e-18 1906:1.9125843e-18 1907:1.9125843e-18 1908:1.9125843e-18 1909:1.9125843e-18 1910:-0.008431931 1911:-0.008431931 1912:-0.008431931 1913:-0.008431931 1914:-0.008431931 1915:-0.008431931 1916:-0.008431931 1917:-0.0016633994 1918:-0.0016633994 1919:1.9125843e-18 1920:1.9125843e-18 1921:1.9125843e-18 1922:1.9125843e-18 1923:1.9125843e-18 1924:1.9125843e-18 1925:1.9125843e-18 1926:1.9125843e-18 1927:1.9125843e-18 1928:-0.0011640788 1929:-0.0011640788 1930:-0.0011640788 1931:-0.0026048531 1932:-0.0026048531 1933:-0.0026048531 1934:-0.0026048531 1935:-0.0024230366 1936:-0.0026048531 1937:1.2529371e-18 1938:1.2529371e-18 1940:1.9125843e-18 1941:1.9125843e-18 1943:1.9125843e-18 1944:1.9125843e-18 1945:1.9125843e-18 1946:1.9125843e-18 1947:1.9125843e-18 1948:1.9125843e-18 1949:-0.010785512 1950:-0.0057431012 1951:-0.0057431012 1952:-0.0057431012 1953:1.9125843e-18 1954:1.9125843e-18 1955:1.9125843e-18 1956:1.9125843e-18 1958:1.9125843e-18 1959:1.9125843e-18 1960:1.9125843e-18 1961:1.9125843e-18 1962:1.9125843e-18 1963:1.9125843e-18 1964:1.9125843e-18 1965:1.9125843e-18 1966:1.9125843e-18 1967:1.9125843e-18 1968:1.9125843e-18 1969:1.9125843e-18 1970:-0.0076370821 1971:-0.0076370821 1972:-0.0026048531 1973:-0.0026048531 1974:-0.0026048531 1975:-0.0026048531 1976:-0.0026048531 1977:-0.0026048531 1978:-0.0024230366 1979:-0.0057614855 1980:-0.0090554869 1981:-0.0057614855 1982:-0.0057614855 1983:-0.0057614855 1984:-0.0066972259 1985:-0.0066972259 1986:-0.0093434267 1987:-0.0093434267 1988:-0.0093434267 1989:-0.0093434267 1990:-0.0093434267 1991:-0.0093434267 1993:1.9125843e-18 1994:1.9125843e-18 1995:-0.00045902605 1996:1.9125843e-18 1997:1.9125843e-18 1998:1.9125843e-18 1999:1.9125843e-18 2000:1.9125843e-18 2001:1.9125843e-18 2002:2.5273434e-18 2003:1.9125843e-18 2004:1.9125843e-18 2005:1.9125843e-18 2006:1.9125843e-18 2007:1.9125843e-18 2008:1.9125843e-18 2009:1.9125843e-18 2010:1.9125843e-18 2011:1.9125843e-18 2012:1.9125843e-18 2013:1.9125843e-18 2014:-0.0030788798 2015:-0.0030788798 2016:-0.0030788798 2017:-0.0030788798 2018:-0.0030788798 2019:1.9125843e-18 2020:1.9125843e-18 2021:-0.0083313556 2022:-0.0083313556 2023:-0.0083313556 2024:1.9125843e-18 2025:1.9125843e-18 2026:-0.01073244 2027:-0.0046420037 2028:-0.0046420037 2029:-0.0022297078 2030:-0.0022297078 2031:-0.0022297078 2032:-0.00055536907 2033:-0.00055536907 2034:1.9125843e-18 2035:1.9125843e-18 2036:1.9125843e-18 2037:1.9125843e-18 2038:1.9125843e-18 2039:1.9125843e-18 2040:-0.0013188078 2041:1.9125843e-18 2042:1.9125843e-18 2043:1.9125843e-18 2044:1.9125843e-18 2045:1.9125843e-18 2046:1.9125843e-18 2047:1.9125843e-18 2048:1.9125843e-18 2049:1.9125843e-18 2050:1.9125843e-18 2051:1.9125843e-18 2052:1.9125843e-18 2053:1.9125843e-18 2054:1.9125843e-18 2055:-0.0065725488 2056:-0.00079336966 2057:1.9125843e-18 2058:1.9125843e-18 2059:1.9125843e-18 2060:1.9125843e-18 2061:-0.0043968628 2062:-0.0043968628 2063:-0.0043968628 2064:-0.0043968628 2065:-0.0043968628 2066:-0.0043968628 2067:-0.0028639766 2068:1.9125843e-18 2069:1.9125843e-18 2070:1.9125843e-18 2071:1.585346e-18 2072:-0.0098926723 2073:-0.0098926723 2074:-0.0098926723 2075:-0.014683656 2076:-0.0044202222 2077:1.9125843e-18 2078:1.9125843e-18 2079:1.9125843e-18 2080:1.9125843e-18 2081:1.9125843e-18 2082:1.9125843e-18 2083:1.9125843e-18 2084:1.9125843e-18 2085:1.9125843e-18 2086:1.9125843e-18 2087:1.9125843e-18 2088:1.9125843e-18 2089:1.9125843e-18 2090:1.9125843e-18 2091:1.9125843e-18 2092:1.9125843e-18 2093:-0.0054665268 2094:1.9125843e-18 2095:1.9125843e-18 2096:1.9125843e-18 2097:1.9125843e-18 2098:1.9125843e-18 2099:-0.0021223666 2100:-0.0021223666 2101:-0.0021223666 2102:-0.010126794 2103:-0.010126794 2104:1.9125843e-18 2106:1.9125843e-18 2107:1.9125843e-18 2108:1.9125843e-18 2109:1.9125843e-18 2110:1.9125843e-18 2111:-0.053527839 2112:1.9125843e-18 2113:1.9125843e-18 2114:1.9125843e-18 2115:1.9125843e-18 2116:1.9125843e-18 2117:1.9125843e-18 2118:1.9125843e-18 2119:1.9125843e-18 2120:1.8258036e-19 2121:1.8258036e-19 2122:1.8258036e-19 2123:1.9125843e-18 2124:-0.0035346095 2125:-0.0035346095 2126:-0.0035346095 2127:1.8455483e-18 2128:1.9125843e-18 2129:1.9125843e-18 2130:-0.0019174413 2131:-0.0019174413 2132:-0.0019174413 2133:-0.0038871246 2134:-0.0038871246 2135:-0.0038871246 2136:-0.0038871246 2137:-0.0038871246 2138:-0.0038871246 2139:-0.0038871246 2140:-0.0038871246 2141:-0.0038871246 2142:-0.0038871246 2143:1.9125843e-18 2144:-0.0058345557 2145:-0.0062723607 2146:-0.0062723607 2147:1.9125843e-18 2148:1.9125843e-18 2149:-0.0036456189 2150:-0.0036456189 2151:-0.0036456189 2152:-0.0036456189 2153:-0.0036456189 2154:-0.0036456189 2155:-0.0036456189 2156:1.9125843e-18 2157:-0.013312051 2158:-0.013312051 2159:-0.013312051 2160:-0.013312051 2161:-0.0031932604 2162:-0.0031932604 2163:-0.0031932604 2164:1.9125843e-18 2165:1.9125843e-18 2166:-0.038028952 2167:-0.0032987837 2168:-0.0032987837 2169:-0.0032987837 2170:-0.0032987837 2171:-0.0032987837 2172:-0.0039734943 2173:-0.0039734943 2174:-0.0039734943 2175:-0.0039734943 2176:-0.0039734943 2177:-0.0039734943 2178:-0.0039734943 2179:1.9125843e-18 2180:1.5183103e-18 2181:-0.0011640788 2182:-0.0011640788 2183:-0.0011640788 2184:-0.0011640788 2185:-0.0011640788 2186:-0.010702554 2187:1.585346e-18 2188:1.585346e-18 2189:-0.013531795 2190:-0.013531795 2191:1.9125843e-18 2192:1.9125843e-18 2193:1.9125843e-18 2194:1.9125843e-18 2195:-0.014062222 2196:-0.014062222 2197:1.9125843e-18 2198:1.9125843e-18 2199:1.9125843e-18 2200:1.9125843e-18 2201:1.9125843e-18 2202:1.9125843e-18 2203:1.9125843e-18 2204:-0.0029632323 2205:-0.0029632323 2206:-0.0029632323 2207:-0.0029632323 2208:-0.0029632323 2209:-0.0029632323 2210:-0.0029632323 2211:-0.0029632323 2212:-0.0029632323 2213:-0.0029632323 2214:-0.0029632323 2215:-0.0029632323 2216:-0.0029632323 2217:-0.014062222 2218:-0.014062222 2219:-0.0030471284 2220:1.9125843e-18 2221:-0.00023058188 2222:-0.00023058188 2223:-0.00023058188 2224:-0.00023058188 2225:-0.00023058188 2226:-0.0091525707 2227:-0.0091525707 2228:1.9125843e-18 2229:1.9125843e-18 2230:1.9125843e-18 2231:1.9125843e-18 2232:-0.00045235857 2233:-0.00045235857 2234:-0.00045235857 2235:-0.0029063427 2236:-0.0029063427 2237:-0.0029063427 2238:-0.0029063427 2239:-0.0029063427 2240:-0.0029063427 2241:-0.0029063427 2242:1.9125843e-18 2243:-0.011332431 2244:-0.011332431 2245:-0.0070325676 2246:1.9125843e-18 2247:1.9125843e-18 2248:1.9125843e-18 2249:1.9125843e-18 2250:1.9125843e-18 2251:1.9125843e-18 2252:1.9125843e-18 2253:1.9125843e-18 2254:-0.00052122568 2255:1.9125843e-18 2256:1.9125843e-18 2257:1.9125843e-18 2258:1.9125843e-18 2259:1.9125843e-18 2260:1.9125843e-18 2262:1.9125843e-18 2263:1.9125843e-18 2264:1.9125843e-18 2265:1.9125843e-18 2266:1.9125843e-18 2267:-0.0094598643 2268:-0.0094598643 2269:-0.0094598643 2270:-0.0094598643 2271:-0.0037717221 2272:-0.0037717221 2273:-0.0037717221 2274:-0.0037717221 2275:-0.0037717221 2276:1.9125843e-18 2277:1.9125843e-18 2278:1.9125843e-18 2279:-0.0058767162 2280:-0.0058767162 2281:-0.0058767162 2282:-0.0058767162 2283:1.9125843e-18 2284:1.9125843e-18 2285:-0.011123457 2286:-0.0013128036 2287:-0.0013128036 2288:-0.0013128036 2289:-0.0013128036 2290:-0.004918986 2291:1.9125843e-18 2292:1.9125843e-18 2293:1.9125843e-18 2294:-0.0032906099 2295:-0.0026048531 2296:-0.0026048531 2297:-0.0026048531 2298:-0.0026048531 2299:-0.0030788798 2300:1.9125843e-18 2301:1.9125843e-18 2302:1.9125843e-18 2303:1.9125843e-18 2304:1.9125843e-18 2305:1.9125843e-18 2306:1.9125843e-18 2307:1.9125843e-18 2308:1.9125843e-18 2309:1.9125843e-18 2310:1.9125843e-18 2311:1.9125843e-18 2312:1.9125843e-18 2313:1.9125843e-18 2314:1.9125843e-18 2315:1.9125843e-18 2316:1.9125843e-18 2317:-0.014987247 2318:-0.014987247 2319:-0.014987247 2320:1.9125843e-18 2321:1.9125843e-18 2322:1.9125843e-18 2323:1.9125843e-18 2324:1.9125843e-18 2325:1.9125843e-18 2326:1.9125843e-18 2327:1.9125843e-18 2328:1.9125843e-18 2329:1.9125843e-18 2330:1.9125843e-18 2331:1.9125843e-18 2332:1.9125843e-18 2333:1.9125843e-18 2334:1.9125843e-18 2335:1.9125843e-18 2336:1.9125843e-18 2337:1.9125843e-18 2338:1.9125843e-18 2339:-3.4143384e-05 2340:-3.4143384e-05 2341:-3.4143384e-05 2342:-3.4143384e-05 2343:-3.4143384e-05 2344:-3.4143384e-05 2345:-3.4143384e-05 2346:1.9125843e-18 2347:1.9125843e-18 2348:1.9125843e-18 2349:1.9125843e-18 2350:1.9125843e-18 2351:1.9125843e-18 2352:1.9125843e-18 2353:1.9125843e-18 2354:1.9125843e-18 2355:1.9125843e-18 2356:1.9125843e-18 2357:1.9125843e-18 2358:1.9125843e-18 2359:1.9125843e-18 2360:1.9125843e-18 2361:-0.0039734943 2362:1.9125843e-18 2363:1.9125843e-18 2364:1.9125843e-18 2365:1.9125843e-18 2366:-0.0057431012 2367:1.9125843e-18 2368:1.9125843e-18 2369:1.9125843e-18 2370:1.9125843e-18 2371:1.9125843e-18 #
