SVM-light Version V6.20
0 # kernel type
3 # kernel parameter -d 
1 # kernel parameter -g 
1 # kernel parameter -s 
1 # kernel parameter -r 
empty# kernel parameter -u 
2449 # highest feature index 
57 # number of training documents 
2 # number of support vectors plus 1 
0 # threshold b, each following line is a SV (starting with alpha*y)
1 1:-0.066405304 4:-0.0051068068 5:-0.0092904847 6:-0.01223198 7:-0.0066574016 8:-0.0026191077 18:-0.00099438871 26:-0.0016028141 37:6.5517249e-19 42:-0.012152847 47:-0.0073546572 51:-0.001346103 52:-0.012255773 53:-0.026651721 55:-0.012811492 56:-0.0077559524 77:-0.022662833 78:-0.013703549 81:-0.014276033 82:-0.014320028 86:-0.026266763 88:-0.021205192 92:-0.0045352401 93:-0.0092413835 94:-0.0081111388 98:-0.00045326987 99:-6.5571902e-18 101:0.066724271 102:0.087326765 103:0.060679138 104:0.087326765 105:0.084634148 106:-0.011629608 107:-0.019428266 108:-0.011676754 109:-0.016599866 110:-0.016242221 111:-0.024151329 112:-0.012421667 113:-0.018902093 114:-0.013668582 115:-0.037997704 116:-0.011227563 122:-0.011143139 123:-0.0036807852 125:-0.0033766758 129:-0.023271764 130:-0.0098594716 135:-0.0086702844 136:-0.03962253 137:-0.028842742 138:-0.017558014 139:-0.00012225432 140:-0.081649169 141:-0.027836442 142:-0.026184425 143:-0.013173054 144:-0.020706309 145:-0.00012225432 146:-0.00012225432 147:-5.2345478e-18 148:-0.081649169 149:-0.019072561 150:-0.01414402 151:-0.01414402 152:-0.01504127 153:-0.0054738107 154:-0.0073310714 155:-0.014668474 156:-0.0050259018 157:-0.0054738107 158:-0.0054738107 159:-0.0092820181 160:-0.0054738107 161:-0.0050259018 162:-0.022038981 163:-0.0028591359 164:-0.012589846 165:-0.0224423 166:-0.0040023401 167:-0.015154305 168:-0.0042386418 169:-0.0028591359 170:-0.0044408748 171:-0.019101791 172:-0.0067927535 173:-0.0059839082 174:-0.0069019753 175:-0.010467358 176:-0.010467358 177:-0.0053309724 178:-0.0058060694 179:-0.0058060694 193:-5.5447128e-18 194:-2.2749992e-19 199:0.0050415918 200:0.005176927 201:-0.0036754552 202:-0.0062373574 203:-0.00063410157 215:-0.0024032299 216:-0.013237583 218:0.014589702 220:-0.0097163478 232:-0.0050263787 238:-0.0059185373 241:-0.0059366776 242:-0.00069241668 263:-0.014527878 273:-0.0073054223 277:-0.0015788351 292:-0.0078034964 296:-0.0026275869 297:-0.0039581256 298:-0.0038024394 301:-0.022747399 302:-0.010459558 324:-0.0027929819 333:-0.00099152164 334:-0.00099152164 359:-0.015472494 360:-0.010261361 374:-0.0019094731 381:-0.0019304724 389:-0.0097491406 393:-0.016720418 449:-0.0030719724 469:-0.01922982 471:-4.3669057e-18 488:-0.0034199366 493:-0.0050740363 508:-0.0023743329 550:-0.0054636775 578:-0.0033390997 581:-0.0011698037 622:-0.0039571845 623:-0.0040027089 625:-0.004155206 626:-0.0040027089 627:5.3930464e-18 640:-0.0035240718 668:-0.0055656927 686:-0.00058072736 696:-0.025245901 750:-0.01222037 792:5.2345478e-18 795:0.015246526 804:-0.012038519 838:-0.0048813438 853:-0.0098588504 854:-0.010374978 857:-0.0028675057 861:-0.0085931933 863:-0.010334273 864:-0.0040435204 865:-0.0040435204 866:-0.0040435204 867:-0.0040435204 868:-0.0040435204 869:-0.0040435204 870:-0.0040435204 871:-0.0040435204 872:-0.010334273 873:-0.0044038794 874:-0.0044038794 875:-0.0040435204 876:-0.0040435204 877:-0.0040435204 879:-0.013192582 880:-0.0019830433 911:-0.0065302905 952:-0.017090449 1023:-0.0028828597 1024:-0.011320163 1059:-0.0051824851 1100:-0.013951927 1107:-0.0022438946 1161:-0.057428617 1186:-0.0026041397 1254:-0.029626418 1255:-0.008943568 1263:-0.0068242825 1265:6.3822952e-18 1277:-0.004193299 1304:-0.0073936116 1305:-0.0073936116 1306:-0.0073936116 1307:-0.0073936116 1308:-0.0073936116 1309:-0.0073936116 1310:-0.0058534434 1329:-0.032828901 1330:-0.030998711 1331:-0.01562262 1333:-0.021885948 1373:-0.017130904 1374:0.0071899616 1375:0.0077898442 1376:-0.017130904 1377:-0.017130904 1378:-0.017130904 1379:-0.013060069 1417:-0.04353166 1418:-0.0055047926 1419:-0.018676315 1420:-0.04350118 1421:-0.0032102366 1422:-0.003031268 1423:-0.0032102366 1424:-0.019554645 1425:-0.01799079 1431:-0.0054459455 1434:-0.016703367 1437:-0.016703367 1441:-0.01428239 1442:-0.014478761 1467:-0.018485926 1468:-0.018485926 1469:-0.018485926 1470:-0.018485926 1473:-0.0037530225 1478:-0.03319186 1479:-0.01072971 1480:-0.01922982 1485:-9.9785701e-18 1529:-0.0072271936 1530:-0.0072271936 1531:-0.0072271936 1532:-0.0072271936 1533:-0.0072271936 1534:-0.0072271936 1535:-0.0072271936 1536:-0.0072271936 1655:-0.0040126503 1669:-0.0024106752 1670:-0.0024106752 1671:-0.0024106752 1672:-0.0024106752 1673:-0.0024106752 1674:-0.0044049765 1675:-0.0024106752 1676:-0.0024106752 1677:-0.0024106752 1678:-0.0024106752 1679:-0.0024106752 1685:-0.0038299183 1690:-0.0038299183 1698:-0.0038068497 1722:-0.0024833598 1723:-0.0024833598 1725:-0.055317108 1763:-0.021281999 1771:-0.0048650149 1772:-0.0048650149 1774:-0.017956976 1775:-0.0036450038 1776:-0.0034417973 1777:-0.0036450038 1778:-0.0036450038 1779:-0.0036450038 1780:-0.0034417973 1781:-0.0036450038 1782:-0.0036450038 1783:-0.0036450038 1798:-0.0025849603 1799:-0.0025849603 1810:1.2272699e-17 1811:1.2272699e-17 1812:-0.0086604422 1815:-0.0088810287 1816:-0.022080671 1817:-0.0053617768 1818:-0.0053617768 1819:-0.022080671 1820:-0.022080671 1831:0.027642593 1832:0.027642593 1833:0.027642593 1853:-0.018472109 1854:-0.018472109 1870:-0.012912204 1871:-0.010331694 1872:-0.015696649 1873:-0.010331694 1874:-0.010331694 1910:5.6174005e-18 1911:-0.0057897936 1912:-0.0057897936 1913:-0.0057897936 1927:-0.03397508 1932:1.2272699e-17 1933:1.2272699e-17 1934:-0.020396436 1935:-0.001410022 1936:-0.001410022 1937:-0.001410022 1939:-0.018077897 1958:-0.0044408748 1959:-0.0048366459 1960:-0.0044408748 1961:-0.0048366459 1962:-0.0048366459 1963:-0.0048366459 1964:-0.0048366459 1968:5.3930464e-18 1977:-0.00461639 1983:-0.013633559 1984:-0.013633559 1985:-0.013633559 1986:-0.013633559 1987:-0.013633559 1988:-0.013633559 2003:1.2272699e-17 2023:-0.019689001 2024:-0.0038575586 2025:-0.0032003655 2026:-0.0038575586 2027:-0.0038575586 2033:-0.0020826813 2112:-0.0029729113 2113:-0.003583397 2114:-0.033993356 2115:-0.033993356 2116:1.2272699e-17 2117:1.2272699e-17 2118:1.2272699e-17 2119:-5.2345478e-18 2161:-0.0023270058 2163:-0.0024643941 2164:-0.0023270058 2171:-0.0099891499 2172:-0.0099891499 2173:-0.0099891499 2174:-0.0099891499 2180:0.017585689 2181:0.016146693 2195:-0.033993356 2196:-0.0010504946 2228:-0.016109167 2229:-0.014189771 2230:-0.016109167 2231:-0.016109167 2232:-0.0012053376 2233:-0.0012053376 2234:1.2272699e-17 2235:-0.0012053376 2236:-0.0012053376 2284:6.3822952e-18 2285:1.2272699e-17 2286:1.2272699e-17 2287:1.2272699e-17 2288:1.2272699e-17 2289:1.2272699e-17 2290:1.2272699e-17 2291:1.2272699e-17 2292:1.2272699e-17 2293:1.2272699e-17 2294:1.2272699e-17 2295:1.2272699e-17 2388:-0.0067638406 2389:-0.0067638406 2390:-0.0067638406 2391:-0.0067638406 2392:-0.0067638406 2393:-0.0067638406 2397:-0.0013127574 2398:-0.0098850532 2399:-0.0043909065 2410:-0.0046354211 2411:-0.0046354211 2412:-0.0046354211 2413:-0.0046354211 2414:-0.0046354211 2419:-0.0063751033 2420:-0.0063751033 2421:-0.0063751033 2448:-0.017060066 #
