SVM-light Version V6.20
0 # kernel type
3 # kernel parameter -d 
1 # kernel parameter -g 
1 # kernel parameter -s 
1 # kernel parameter -r 
empty# kernel parameter -u 
2942 # highest feature index 
48 # number of training documents 
2 # number of support vectors plus 1 
0 # threshold b, each following line is a SV (starting with alpha*y)
1 1:-0.47697288 3:-0.042589549 4:-0.021151518 5:-0.044412952 6:-0.011284295 7:-0.048184119 8:-0.0036868076 9:-0.0036868076 10:-0.0036868076 11:-0.0036868076 12:-0.0039575007 13:-0.048455402 14:-0.035627078 15:-0.045589361 16:-0.042053126 17:-0.023047388 18:2.8566656e-18 19:-0.026354128 20:-0.038521335 21:-0.015639309 22:-0.035457261 23:-0.03576488 24:-0.040322822 25:-0.033172004 26:-0.0035249568 27:2.7562359e-18 28:2.6781238e-18 29:2.6781238e-18 30:2.6781238e-18 31:5.1721267e-18 32:-0.0040045269 33:-0.010577298 34:-0.00069694949 35:-0.048863381 36:-0.034964852 37:-0.0018788959 38:-0.016838547 39:-0.020403869 40:-0.022468161 41:-0.037208121 42:0.011484521 43:-0.012347271 44:-0.012695227 45:-0.012347271 46:-0.013514102 47:-0.0038642539 48:-0.015525193 49:-0.0058957334 50:-0.010700701 51:-0.028927952 52:-0.0038642539 53:-0.0038642539 54:-0.0038642539 55:-0.0038642539 56:-0.010700701 57:-0.026065908 58:-0.059588209 59:-0.012558546 60:-0.012826058 61:-0.010200417 62:-0.023884706 63:-0.027554151 64:-0.070518173 65:5.0995941e-18 66:-0.012558546 67:2.8566656e-18 68:-0.00091698731 69:-0.0049716365 70:5.0995941e-18 71:-0.023884706 72:-0.031529509 73:5.1721267e-18 74:-0.018319748 75:-0.046383072 76:-0.0065625673 77:-0.021540385 78:2.6781238e-18 79:2.7562359e-18 80:2.7562359e-18 81:-0.01842238 82:5.0995941e-18 83:-0.0013846429 84:-0.004155362 85:2.6781238e-18 86:-0.021920314 87:-0.0023651666 88:-0.016201481 89:-0.0047998196 90:-0.0035403115 91:-0.018872701 92:5.0995941e-18 93:-0.0024214466 94:-0.0054869172 95:-0.0044104946 96:5.0995941e-18 97:-0.0047998196 98:-0.0042367461 99:-0.037454087 100:-0.011787145 101:-0.010183265 102:-0.0029703171 103:-0.0066874307 104:2.6781238e-18 105:-0.028317852 106:5.0995941e-18 107:2.6781238e-18 108:2.7562359e-18 109:-0.023954688 110:-0.007209646 111:-0.010319464 112:-0.012053953 113:-0.0065206261 114:-0.0058327448 115:-0.0051359641 116:-0.0055130571 117:-0.0055130571 118:-0.0051359641 119:-0.0055130571 120:-0.055421893 121:-0.057175942 122:-0.012806991 123:-0.013747307 124:-0.038007047 125:-0.021989003 126:-0.036109444 127:2.6781238e-18 128:-0.024987688 129:-0.014403646 130:-0.016431225 131:-0.025686763 132:-0.013369376 133:-0.003039869 134:-0.003039869 135:2.7562359e-18 136:2.7562359e-18 137:-0.010019907 138:-0.027409935 139:-0.029152494 140:-0.015702778 141:-0.020043613 142:-0.0061831567 143:-0.024847047 144:-0.0018878725 145:2.7562359e-18 146:-0.0061683916 147:-0.010741035 148:2.6781238e-18 149:-0.0019563676 150:5.1721267e-18 151:-2.298165e-17 152:5.0995941e-18 153:1.8239139e-17 154:2.6781238e-18 155:-0.0061831567 156:-0.0019719687 157:-0.0019719687 158:2.6781238e-18 159:2.6781238e-18 160:2.7562359e-18 161:2.6781238e-18 162:-0.0022207752 163:2.6781238e-18 164:-0.026284806 165:0.0035325119 166:-0.025584873 167:-0.028091384 168:-0.0025250288 169:2.7562359e-18 170:-0.026284806 171:-0.027729675 172:2.6781238e-18 173:2.6781238e-18 174:5.1721267e-18 175:-0.017072564 176:0.017672282 177:-0.022765961 178:-0.0018958416 179:-0.0018958416 180:-0.0018958416 181:-0.0067836409 182:-0.014664127 183:-0.0052954075 184:-0.0030987859 185:-0.0018958416 186:-0.0020350381 187:-0.0018958416 188:-0.0018958416 189:-0.0013669011 190:-0.0067836409 191:-0.007156536 192:-0.022291414 193:-0.0398947 194:-0.012003442 195:-0.031221641 196:-0.0076288483 197:-0.057471279 198:-0.013348806 199:-0.0013342435 200:-0.027285837 201:2.8566656e-18 202:2.6781238e-18 203:-0.028699512 204:2.6781238e-18 205:-0.0072328388 206:-0.0011487759 207:-0.0013342435 208:-0.0018857922 209:2.6781238e-18 210:2.6781238e-18 211:2.6781238e-18 212:2.7562359e-18 213:2.6781238e-18 214:2.6781238e-18 215:4.1795471e-17 216:-0.012742159 217:-0.029636588 218:-0.027383134 219:-0.022003694 220:-0.018241106 221:-0.011152594 222:-0.0013848768 223:-0.0052606943 224:-0.019108513 225:2.6781238e-18 226:2.6781238e-18 227:-0.045604557 228:-0.021691512 229:-0.019134721 230:-0.0066688629 231:2.6781238e-18 232:-0.021142721 233:2.6781238e-18 234:-0.010701414 235:2.6781238e-18 236:2.6781238e-18 237:-0.0061253789 238:-0.0034227793 239:5.1721267e-18 240:5.2725563e-18 241:5.0995941e-18 242:2.7562359e-18 243:2.6781238e-18 244:2.6781238e-18 245:2.6781238e-18 246:2.6781238e-18 247:2.6781238e-18 248:2.6781238e-18 249:2.6781238e-18 250:2.6781238e-18 251:2.6781238e-18 252:-0.024599165 253:-0.0089346236 254:-0.0024787844 255:-0.0065538203 256:4.1795471e-17 257:-0.019601518 258:-0.012870234 259:-0.011917095 260:2.6781238e-18 261:-0.0038716451 262:-0.002707032 263:2.6781238e-18 264:5.0995941e-18 265:5.1721267e-18 266:-0.0042953738 267:2.6781238e-18 268:5.029845e-18 269:-0.0089346236 270:2.7562359e-18 271:-0.0021471563 272:-0.0012307995 274:2.6781238e-18 275:5.0995941e-18 276:4.8052795e-17 277:2.7562359e-18 278:-0.0032727032 279:2.8566656e-18 280:5.0995941e-18 281:2.6781238e-18 282:2.6781238e-18 283:0.025749542 284:0.0053590336 285:-0.00047198415 286:4.1795471e-17 287:4.1795471e-17 288:2.7562359e-18 289:2.7562359e-18 290:-0.0064327898 291:-0.004553542 292:2.6781238e-18 293:-0.012870234 294:-0.0095426207 295:5.0995941e-18 296:-0.016795326 297:2.6781238e-18 298:-0.0020728603 299:-0.0035672123 300:-0.057531264 301:-0.017211983 302:5.2502386e-18 303:-0.030619185 304:-0.0029557089 305:2.6781238e-18 306:-0.0043470119 307:-0.001265701 308:2.7562359e-18 309:2.6781238e-18 310:-5.5177721e-17 311:4.8052795e-17 312:2.7562359e-18 313:7.3146258e-17 314:-5.5177721e-17 315:-0.0036892351 316:-0.0057155439 317:-0.0068293605 319:2.8566656e-18 320:-2.298165e-17 321:-2.298165e-17 322:-0.04673988 323:-0.034109574 324:-0.013191187 325:-0.049294177 326:-0.01032805 328:2.6781238e-18 329:-0.013191187 330:-0.0037273781 331:-0.033975925 332:-0.0052766362 333:-0.013122272 334:2.7562359e-18 335:2.6781238e-18 336:-0.00050595263 337:2.6781238e-18 338:2.6781238e-18 339:2.7562359e-18 340:2.6781238e-18 341:2.6781238e-18 342:-0.0036461256 343:-0.017166983 344:-0.0017455084 345:-0.017166983 346:2.6781238e-18 347:2.7562359e-18 348:5.0995941e-18 349:-0.0017455084 350:2.6781238e-18 351:-0.046763014 352:-0.041050524 353:-0.034524798 354:-0.00051700749 355:-0.012040526 356:-0.058812387 357:-0.011785325 358:-0.0062802392 359:-0.001768631 360:2.8566656e-18 361:-0.0059159296 362:2.6781238e-18 363:2.8566656e-18 364:-3.8330648e-18 365:2.6781238e-18 366:2.6781238e-18 367:-0.0050698672 368:2.6781238e-18 369:-2.298165e-17 370:-0.0019280682 371:-0.00053642981 372:-0.0005169129 373:-0.00050041516 374:-0.0073005981 375:-0.00053642981 376:2.6781238e-18 377:-0.006826947 378:-0.00063464401 379:-0.00059123442 380:-0.012352757 381:-0.018959254 382:-0.006826947 383:-0.00063464401 384:-0.00063464401 385:-0.00063464401 386:-0.00063464401 387:-0.00063464401 388:-0.00063464401 389:-0.0023361936 390:-0.00063464401 391:-0.058577277 392:-0.0067544021 393:-0.006825841 394:-0.0067544021 395:-0.029365798 396:-0.063466348 397:-0.039046384 398:-0.011468682 399:-0.0022632831 400:-3.8330648e-18 401:5.0995941e-18 402:2.7562359e-18 403:-0.0026173152 404:-0.0039144773 405:-0.0045660576 406:-0.0033187636 407:-0.0030917602 408:-0.015973624 409:-0.0063040503 410:-0.0084159477 411:-0.0048784702 412:-0.0017671847 413:2.6781238e-18 414:-0.0067277164 415:2.6781238e-18 416:-0.0037906552 417:-0.0035313745 418:-0.0037906552 419:-0.0037906552 420:-0.0037906552 421:-0.0037906552 422:-0.0037906552 423:-0.0035313745 424:-0.0037906552 425:-0.0037906552 426:-0.010931815 427:-0.0079072714 428:-0.01326165 429:-0.012046465 430:-0.012930941 431:2.6781238e-18 432:-0.03286583 433:-0.028863182 434:-0.02666056 435:2.6781238e-18 436:2.6781238e-18 437:2.7562359e-18 438:-0.021508975 439:-0.029549673 440:-0.029549673 441:-0.029549673 442:-0.041544076 443:2.6781238e-18 444:2.6781238e-18 445:-0.0118842 446:2.6781238e-18 447:2.6781238e-18 448:-0.0012942961 449:2.6781238e-18 450:2.6781238e-18 451:2.6781238e-18 452:2.6781238e-18 453:-0.048136551 454:-0.015872855 455:2.6781238e-18 456:-0.0064286073 457:-0.0064286073 458:-0.0064286073 459:-0.0064286073 460:-0.0065191402 461:-0.011066402 462:5.0995941e-18 463:-0.031792521 464:-0.017993361 465:2.6781238e-18 466:-0.0182813 467:-0.051261432 468:-0.0049993219 469:-0.019989403 470:2.8566656e-18 471:2.6781238e-18 472:2.6781238e-18 473:2.6781238e-18 474:-0.0019772726 475:-0.047362611 476:-0.027425056 477:-0.034711078 478:-4.614132e-11 479:2.6781238e-18 480:-0.014700086 481:2.6781238e-18 482:-0.0059159296 483:-0.036272537 484:-0.0055202539 485:-0.020396439 486:2.6781238e-18 487:-0.0052326182 488:-0.0055202539 489:2.6781238e-18 490:-0.012420354 491:2.789891e-18 492:-0.032345477 493:-0.013165854 494:-0.0024896667 495:-0.0026688469 496:-0.032345477 497:-0.019586001 498:-0.0052447096 499:-0.0039619822 500:-0.0048048776 501:-0.0051576616 502:-0.0045545171 503:-0.0048048776 504:-0.0051576616 505:-0.0051576616 506:-0.0051576616 510:2.6781238e-18 511:-0.0067520109 512:2.7562359e-18 513:2.6781238e-18 514:2.6781238e-18 515:2.6781238e-18 516:2.7562359e-18 517:2.6781238e-18 518:1.180123e-18 519:-0.0048537045 520:2.6781238e-18 521:1.180123e-18 522:-0.00045849365 523:-2.298165e-17 525:2.6781238e-18 526:2.6781238e-18 527:5.0022114e-18 528:-0.0025111774 529:2.6781238e-18 530:-0.0059528393 531:-0.0026193736 532:2.6781238e-18 533:2.6781238e-18 534:2.6781238e-18 535:-0.0053105662 536:2.6781238e-18 537:2.6781238e-18 538:2.6781238e-18 539:2.6781238e-18 540:2.6781238e-18 541:2.6781238e-18 542:2.6781238e-18 543:-0.0059528393 544:2.6781238e-18 545:-0.0081396522 546:2.6781238e-18 547:-0.0076326597 548:-0.0087284828 549:-0.0076326597 550:-0.021399159 552:-0.014845732 553:-0.012702894 554:-0.012702894 556:0.013055682 557:-0.0016157225 558:-0.01223739 559:0.013055682 560:9.8628963e-19 561:1.180123e-18 562:1.180123e-18 563:9.8628963e-19 564:1.4263891e-18 565:1.4263891e-18 566:2.6781238e-18 567:5.1721267e-18 568:2.6781238e-18 569:-0.011752111 570:2.6781238e-18 571:2.6781238e-18 572:5.1721267e-18 573:2.7562359e-18 574:-0.0028092405 575:-0.052049704 576:-0.041188434 577:-0.0089805257 578:-0.0094741825 579:2.6781238e-18 580:2.6781238e-18 581:-0.038237799 582:2.6781238e-18 583:2.6781238e-18 584:2.6781238e-18 585:5.2725563e-18 586:2.6781238e-18 587:5.1721267e-18 588:2.6781238e-18 589:2.6781238e-18 590:-0.0018420272 591:-0.013535012 592:-0.019584063 593:-0.014528779 594:-0.014528779 595:-0.012829763 596:-0.013535012 597:2.7562359e-18 598:-0.013853709 599:-0.038374376 600:-0.0211896 601:-0.036026437 602:-0.005597163 603:-0.036026437 604:-0.0023462072 605:-0.0044536074 606:-0.00411289 607:-0.0026769647 608:-0.0018878725 609:-0.0020803672 610:-0.0046240478 611:-0.0036988938 612:2.7562359e-18 613:2.7562359e-18 614:-0.0024479106 615:5.2502386e-18 616:-0.049719423 617:-0.0066477614 618:-0.00063452794 619:-0.00063452794 620:-0.006943889 622:-0.0073312772 623:-0.0040227659 624:2.6781238e-18 625:2.6781238e-18 626:-0.039130576 627:2.7562359e-18 628:-0.0030757212 629:4.1795471e-17 630:2.7562359e-18 631:2.7562359e-18 632:-0.0017116497 633:2.8566656e-18 634:2.8566656e-18 635:2.6781238e-18 636:-0.034601331 637:2.7562359e-18 638:2.7562359e-18 639:-0.0017510537 640:-0.0071258536 641:2.7562359e-18 642:2.6781238e-18 643:2.6826526e-18 644:-0.0056530749 645:-0.0026769647 646:2.8566656e-18 647:2.6781238e-18 648:-0.0056530749 649:-0.037010446 650:-0.0048408667 651:2.6781238e-18 652:2.6781238e-18 653:2.7562359e-18 654:-0.034298524 655:2.6781238e-18 656:2.6781238e-18 657:-0.002233112 658:2.7562359e-18 660:-0.0017832855 661:-0.0036819775 662:2.6781238e-18 663:-0.010219377 664:-0.010404662 665:-0.0086938748 666:-0.010021143 667:-0.010021143 669:-0.037995588 670:-0.039430175 671:-0.00084191363 672:2.6781238e-18 673:5.1721267e-18 674:-2.298165e-17 675:2.6781238e-18 676:2.6781238e-18 677:-0.0070768907 679:-0.0016150256 680:2.6781238e-18 681:-0.011503463 682:-0.013607128 683:-0.013607128 684:-0.0064208419 685:2.8566656e-18 686:2.6781238e-18 687:-0.0017375062 688:-0.0017375062 689:-0.0017375062 690:-0.0030686397 692:-0.051874839 693:-0.024377028 694:-0.011601842 695:-0.0025209938 696:2.6781238e-18 697:-0.0015580429 698:2.6781238e-18 699:-0.007811544 700:-0.0018822028 701:-0.0096127857 702:-0.0044583068 703:-0.0018822028 704:-0.0018822028 705:-0.0018822028 706:-0.0044583068 707:-0.0018822028 709:-0.0066254581 710:-0.0018822028 712:-0.0018822028 713:-0.0018822028 714:-0.0018822028 715:-0.0018822028 721:-0.0018822028 722:-0.010428553 723:-0.036234833 724:-0.010428553 725:-0.010428553 726:-0.0041088234 727:-0.0038277798 728:-0.0041088234 729:5.0995941e-18 730:2.6781238e-18 731:2.6781238e-18 732:2.6781238e-18 733:2.7562359e-18 734:2.6781238e-18 735:2.6781238e-18 736:2.6781238e-18 737:-0.020758713 738:-0.021860935 739:-0.002707032 740:-0.018908003 741:-0.0033229727 742:-0.0033229727 743:2.6781238e-18 744:2.6781238e-18 745:-0.0018420272 746:2.6781238e-18 747:2.6781238e-18 748:2.8566656e-18 749:2.6781238e-18 750:2.6781238e-18 751:-0.025374891 752:-0.0053668492 753:-0.022553692 754:-0.0031595086 755:2.6781238e-18 756:5.1721267e-18 757:-0.00199417 758:2.7562359e-18 759:2.6781238e-18 760:-0.0056426637 761:2.7562359e-18 763:-0.020706169 764:-0.021266118 765:-0.020706169 766:-0.033939127 767:2.7562359e-18 768:-0.00033760074 769:-0.034522709 770:-0.034522709 771:-0.0043923617 772:-0.034522709 774:2.6781238e-18 775:-0.034399357 776:-0.029853983 777:-0.036537305 778:-0.0139495 779:-0.012871291 780:-0.012871291 781:-0.0029475347 782:-0.0029475347 783:-0.0029475347 784:-0.0029475347 785:-0.0029475347 786:-0.0027459234 787:-0.0029475347 788:-0.0029475347 789:-0.0029475347 790:2.6781238e-18 791:2.6781238e-18 792:2.6781238e-18 793:2.6781238e-18 794:-0.002233112 795:-0.012380365 797:2.6781238e-18 799:2.6781238e-18 800:2.6781238e-18 801:5.0995941e-18 802:2.6781238e-18 803:2.6781238e-18 804:2.6781238e-18 805:-0.019677069 806:-0.02058438 807:2.6781238e-18 808:-0.02058438 809:-0.027005717 810:2.6781238e-18 811:-0.0015839979 812:-0.0064153867 813:-0.0017455084 814:-0.0016545578 815:-0.0016545578 821:-0.0017455084 822:-0.0017455084 823:-0.0017455084 824:2.6781238e-18 825:-0.00087721227 826:-0.0011123079 827:-0.0010362261 829:-0.002514451 831:-0.0027256247 834:-0.00063464401 835:-0.00063464401 836:-0.00059123442 837:-0.00063464401 838:-0.00063464401 840:-0.014277251 841:-0.012958425 842:2.6781238e-18 843:-0.0080057243 844:2.6781238e-18 845:-0.005048559 846:2.6781238e-18 847:5.0995941e-18 848:-0.017956536 849:2.7562359e-18 850:2.6781238e-18 851:-0.029549673 852:-0.029549673 853:-0.029549673 854:-0.0065188976 855:-0.0065188976 856:-0.0065188976 857:-0.0065188976 859:2.7562359e-18 860:2.6781238e-18 861:2.6781238e-18 862:2.7562359e-18 863:-0.0020892338 864:-0.005143255 865:-0.0046673538 866:-0.0046673538 867:-0.0017510537 868:-0.010609854 869:-0.0017093639 870:-0.0017510537 871:2.6781238e-18 872:2.7562359e-18 873:2.7562359e-18 874:2.6781238e-18 875:2.7562359e-18 876:-0.0044908556 877:2.6781238e-18 878:-0.0071432642 879:2.7562359e-18 880:2.6781238e-18 881:2.6781238e-18 882:5.0995941e-18 883:2.6781238e-18 884:2.6781238e-18 885:2.6781238e-18 886:2.6781238e-18 887:2.8566656e-18 888:2.6781238e-18 889:2.6781238e-18 890:2.6781238e-18 891:2.6781238e-18 892:2.6781238e-18 893:2.6781238e-18 894:-0.010337973 895:2.6781238e-18 896:2.7562359e-18 897:-0.03224213 898:-0.038086716 899:-0.029175928 900:-0.0029058664 901:4.1795471e-17 902:5.1721267e-18 903:-0.0051300004 904:-0.0024907112 905:-0.0024907112 906:2.5678451e-18 907:5.0022114e-18 908:2.5678451e-18 909:2.5678451e-18 910:-0.0055227205 911:2.6781238e-18 912:2.7562359e-18 913:2.6781238e-18 914:2.6781238e-18 915:2.6781238e-18 916:2.6781238e-18 917:2.6781238e-18 918:2.6781238e-18 919:2.6781238e-18 920:2.6781238e-18 921:2.7562359e-18 922:5.1721267e-18 923:2.6781238e-18 924:2.6781238e-18 925:2.6781238e-18 926:2.6781238e-18 927:2.6781238e-18 928:2.6781238e-18 929:2.6781238e-18 930:2.6781238e-18 931:2.6781238e-18 932:2.6781238e-18 933:2.7562359e-18 934:-0.00050595263 935:-0.0018959186 936:2.7562359e-18 937:-0.0056338795 938:-0.003633148 939:-0.0033846409 940:-0.003633148 941:-0.0055785445 942:-0.003633148 943:-0.003633148 944:-0.010740902 945:-0.0033846409 946:-0.003633148 947:-0.04576353 948:2.6781238e-18 949:2.6781238e-18 951:2.6781238e-18 952:2.6781238e-18 953:2.6781238e-18 954:2.6781238e-18 955:2.6781238e-18 956:2.6781238e-18 957:2.6781238e-18 958:2.6781238e-18 960:-0.0051787524 961:-0.008486894 962:-0.0078352885 963:-0.0064153867 964:-0.0064153867 965:-2.298165e-17 966:2.6781238e-18 967:-0.039929468 968:-0.039929468 969:-0.036881428 970:2.6781238e-18 971:2.6781238e-18 972:2.6781238e-18 973:2.7562359e-18 974:-0.0036607457 975:2.7562359e-18 976:2.7562359e-18 977:2.6781238e-18 978:2.6781238e-18 979:5.0995941e-18 980:-0.0020803672 981:-0.0020803672 982:-0.0019719687 983:-0.0019269439 984:-0.001795141 985:-0.0017016043 986:-0.0019269439 987:-0.0019269439 988:-0.0019269439 989:-0.0017016043 990:-0.0019269439 991:-0.0019269439 993:-0.013047923 994:-0.014005928 995:-0.014005928 996:-0.018776855 997:-0.014321149 998:-0.0030789985 999:2.6781238e-18 1000:-0.029549673 1001:-0.029549673 1002:-0.029549673 1003:5.1721267e-18 1004:2.6781238e-18 1005:2.6781238e-18 1006:2.6781238e-18 1007:2.6781238e-18 1009:2.6781238e-18 1010:2.6781238e-18 1011:2.6781238e-18 1013:-0.0051359641 1014:-0.0055130571 1015:-0.0055130571 1016:-0.0055130571 1017:-0.0055130571 1018:-0.0055130571 1019:-0.0055130571 1021:2.7562359e-18 1022:-0.00349995 1025:2.6781238e-18 1026:-0.0089128381 1027:-0.0072607691 1028:-0.0089128381 1029:-0.0089128381 1030:-0.0089128381 1031:-0.0083031999 1032:-0.0034962262 1033:-0.0036955855 1035:2.6781238e-18 1036:-0.0038415885 1037:-0.0023462072 1038:2.7562359e-18 1039:1.180123e-18 1040:2.6781238e-18 1041:2.7562359e-18 1042:2.6781238e-18 1043:-0.0064579453 1044:-0.037220646 1045:-0.0040990133 1046:-0.00059847732 1047:1.180123e-18 1048:1.180123e-18 1049:1.4263891e-18 1050:9.8628963e-19 1051:9.8628963e-19 1052:9.8628963e-19 1053:9.8628963e-19 1054:1.180123e-18 1055:9.8628963e-19 1056:-0.011474827 1057:9.8628963e-19 1058:9.8628963e-19 1059:9.8628963e-19 1060:2.5991382e-18 1061:2.5991382e-18 1062:2.5991382e-18 1063:2.5991382e-18 1064:2.7562359e-18 1065:-2.298165e-17 1066:-0.010650429 1067:2.3678463e-18 1068:2.3678463e-18 1069:2.0999132e-18 1070:2.2175746e-18 1072:2.6781238e-18 1073:2.6781238e-18 1074:5.1721267e-18 1075:2.6781238e-18 1076:2.6781238e-18 1077:2.6781238e-18 1078:-0.00066555617 1079:-0.024868269 1080:-0.0063589318 1081:-0.0072010304 1082:-0.0072010304 1083:-0.00059112621 1084:-0.0020053172 1086:2.6781238e-18 1087:9.3756983e-19 1089:-0.011348221 1090:-0.011348221 1091:-0.011348221 1092:-0.0032365457 1093:-0.0032365457 1094:-0.0032365457 1096:-0.015615922 1098:-0.015615922 1099:-0.0035249568 1100:2.6781238e-18 1101:2.6781238e-18 1102:2.6781238e-18 1103:2.7562359e-18 1104:2.6781238e-18 1105:2.6781238e-18 1106:5.0995941e-18 1107:6.236581e-19 1108:-0.0060747252 1109:-0.0059010941 1110:2.6781238e-18 1111:2.6781238e-18 1112:2.6781238e-18 1114:2.6781238e-18 1115:2.6781238e-18 1116:2.6781238e-18 1117:-0.0036381853 1118:-0.0036381853 1119:-0.0036381853 1120:-0.0036381853 1121:-0.0036381853 1122:-0.0051300004 1123:-0.0056530749 1124:-0.0060681351 1125:-0.012592684 1126:-0.0042664129 1127:2.6781238e-18 1128:2.6781238e-18 1129:2.6781238e-18 1130:-0.0018269395 1131:-0.018514581 1132:-0.0023465499 1133:-0.002186046 1134:-0.0023465499 1136:2.6781238e-18 1137:-0.0024479106 1138:-0.0022804735 1139:-0.0024479106 1140:-0.0024479106 1141:-0.0024479106 1142:-0.0022804735 1143:-0.0024479106 1144:-0.0022804735 1145:-0.0024479106 1146:2.6781238e-18 1147:-0.0046605207 1148:2.6781238e-18 1149:-0.0069256239 1150:2.6781238e-18 1151:2.6781238e-18 1152:2.7562359e-18 1153:-0.0059107975 1154:2.6781238e-18 1155:2.7562359e-18 1156:-0.00050595263 1157:2.7562359e-18 1158:2.7562359e-18 1160:2.6781238e-18 1161:2.6781238e-18 1162:-0.005048559 1163:2.6781238e-18 1165:-0.0057779397 1166:-0.0057779397 1167:-0.0057779397 1168:-0.018088974 1169:-0.0054768771 1171:-0.0062021678 1172:-0.0062021678 1173:-0.0062021678 1174:-0.0062021678 1175:-0.00059847732 1176:-0.0018857922 1177:2.7562359e-18 1178:2.6781238e-18 1179:2.6781238e-18 1180:-0.0025835324 1181:2.6781238e-18 1182:2.6781238e-18 1183:2.7562359e-18 1184:-0.0097598145 1185:-0.0097598145 1186:2.6781238e-18 1187:2.7562359e-18 1188:2.6781238e-18 1189:2.6781238e-18 1190:2.6781238e-18 1191:-0.010925611 1192:2.6781238e-18 1193:-0.0021651969 1194:-0.010781 1195:-0.0038010355 1196:2.7562359e-18 1197:2.6781238e-18 1198:2.7562359e-18 1199:-0.0112174 1200:2.6781238e-18 1201:2.6781238e-18 1202:2.6781238e-18 1203:2.6781238e-18 1204:2.6781238e-18 1205:-0.0088983355 1206:-0.0088983355 1207:-0.0088983355 1208:-0.0095516695 1209:-0.0095516695 1210:-0.0088983355 1211:-0.0088983355 1212:-0.0018822028 1213:-0.0049623456 1214:-0.0017534603 1215:-0.0057413122 1216:-0.0059061479 1217:-0.0053486065 1218:-0.0057413122 1219:-0.0057413122 1220:-0.0053486065 1221:-0.0057413122 1222:-0.0057413122 1223:-0.0057413122 1224:-0.0061021051 1225:2.7562359e-18 1226:-0.003226636 1227:-0.003226636 1228:-0.003226636 1229:-0.003226636 1230:-0.0089828419 1231:2.7562359e-18 1232:-0.00349995 1233:-0.0020892338 1234:2.6781238e-18 1235:-2.298165e-17 1236:2.6781238e-18 1237:2.6781238e-18 1238:-0.0104764 1239:-0.0104764 1240:-0.0104764 1241:-0.019274943 1242:-0.019274943 1243:-0.019274943 1244:-0.0073667984 1245:2.7562359e-18 1246:2.7562359e-18 1247:2.6781238e-18 1248:2.7562359e-18 1249:2.6781238e-18 1250:2.6781238e-18 1251:2.7562359e-18 1252:2.7562359e-18 1253:5.0995941e-18 1254:2.6781238e-18 1255:5.2725563e-18 1256:5.0995941e-18 1257:2.7562359e-18 1258:2.6781238e-18 1259:2.6781238e-18 1260:2.6781238e-18 1261:2.6781238e-18 1262:-0.012337728 1263:-0.012337728 1264:-0.01324359 1265:-0.011097008 1266:2.6781238e-18 1267:-0.00028540762 1268:2.7562359e-18 1269:2.6781238e-18 1270:2.6781238e-18 1271:2.7562359e-18 1272:2.6781238e-18 1273:2.6781238e-18 1274:2.6781238e-18 1275:2.7562359e-18 1276:2.6781238e-18 1277:-0.0030932622 1278:-0.0030932622 1279:-0.0030932622 1280:2.7562359e-18 1281:-0.0025005548 1282:2.7562359e-18 1283:2.6781238e-18 1284:2.8566656e-18 1285:2.7562359e-18 1286:2.6781238e-18 1287:2.6781238e-18 1288:2.6781238e-18 1289:2.6781238e-18 1290:2.6781238e-18 1291:2.6781238e-18 1292:2.6781238e-18 1293:2.6781238e-18 1294:2.6781238e-18 1295:2.6781238e-18 1296:2.6781238e-18 1297:2.6781238e-18 1298:2.6781238e-18 1299:-0.0034164162 1300:-0.0036672566 1301:-0.0040728985 1302:-0.0057779397 1303:2.6781238e-18 1304:-0.0018269395 1305:2.6781238e-18 1306:2.6781238e-18 1307:2.6781238e-18 1308:2.6781238e-18 1309:2.6781238e-18 1310:2.6781238e-18 1311:2.6781238e-18 1312:2.6781238e-18 1313:-0.0068275323 1314:2.6781238e-18 1315:-0.0067456793 1316:-0.0067068613 1317:2.6781238e-18 1318:2.6781238e-18 1319:2.6781238e-18 1320:2.6781238e-18 1321:2.6781238e-18 1322:2.6781238e-18 1323:2.6781238e-18 1324:2.6781238e-18 1325:2.6781238e-18 1326:2.6781238e-18 1327:2.6781238e-18 1328:2.6781238e-18 1329:2.6781238e-18 1330:2.7562359e-18 1331:-0.039307788 1332:-0.0040728985 1333:2.6781238e-18 1334:2.6781238e-18 1335:2.6781238e-18 1336:-0.012233636 1337:-0.010919971 1338:-0.010919971 1339:4.8052795e-17 1340:2.8566656e-18 1341:2.7562359e-18 1342:2.6781238e-18 1343:2.7562359e-18 1344:2.6781238e-18 1345:2.6781238e-18 1346:2.7562359e-18 1347:-0.0046240478 1348:2.6781238e-18 1349:2.7562359e-18 1350:5.0995941e-18 1351:2.6781238e-18 1352:5.1721267e-18 1353:-0.014990307 1354:-0.0098593142 1355:-0.014990307 1356:2.6781238e-18 1357:2.6781238e-18 1358:2.6781238e-18 1359:-0.0029021904 1360:2.6781238e-18 1361:2.6781238e-18 1362:2.7562359e-18 1363:2.6781238e-18 1364:2.6781238e-18 1365:5.0995941e-18 1366:-0.0053260769 1367:-0.005048559 1368:5.1721267e-18 1369:1.8239139e-17 1370:5.2502386e-18 1371:2.8566656e-18 1372:5.0995941e-18 1373:2.7562359e-18 1374:-0.0065366481 1375:-0.013385037 1376:-0.013187727 1377:-0.0016103557 1378:-0.013187727 1379:2.6781238e-18 1380:-0.016658133 1381:-0.016658133 1382:-0.016658133 1383:2.6781238e-18 1384:2.6781238e-18 1385:-0.0047377166 1386:2.6781238e-18 1387:2.6781238e-18 1388:2.6781238e-18 1389:2.6781238e-18 1390:2.6781238e-18 1391:2.7562359e-18 1392:2.6781238e-18 1393:2.6781238e-18 1394:5.0995941e-18 1395:2.6781238e-18 1396:2.6781238e-18 1397:2.6781238e-18 1398:-0.0058433437 1399:2.6781238e-18 1400:2.6781238e-18 1401:-0.0031586252 1402:-0.0031586252 1403:-0.0031586252 1404:-0.0029425754 1405:-0.0045441086 1406:-0.0045441086 1407:-0.0045441086 1408:-0.0042332914 1409:-0.0045441086 1410:-2.298165e-17 1411:-0.038237799 1412:2.6781238e-18 1413:2.6781238e-18 1414:2.7562359e-18 1415:-0.035501633 1416:2.6781238e-18 1417:2.6781238e-18 1418:2.6781238e-18 1419:2.6781238e-18 1420:-0.0019269439 1421:2.6781238e-18 1422:-0.0057706074 1423:-0.0087579181 1424:-0.0069068596 1425:-0.0087579181 1426:-0.0087579181 1427:-0.0087579181 1428:-0.0026569099 1429:-0.0026569099 1430:-0.0026569099 1431:-0.0026569099 1432:-0.0026569099 1433:-0.0012331214 1434:-0.0012331214 1435:-0.0012331214 1436:-0.0065140878 1437:-3.8330648e-18 1438:2.6781238e-18 1439:2.6781238e-18 1440:-0.016893327 1441:2.7562359e-18 1442:2.7562359e-18 1443:5.0995941e-18 1444:2.7562359e-18 1445:2.6781238e-18 1446:-0.0036868076 1447:-0.0039575007 1448:-0.0039575007 1449:-0.0039575007 1450:-0.0036868076 1451:-0.0033456702 1452:2.6781238e-18 1453:2.6781238e-18 1454:-0.013815193 1455:-2.298165e-17 1456:5.2502386e-18 1457:-0.0035432281 1458:-0.0057532443 1459:-0.0084683234 1460:-0.0076838946 1461:2.7562359e-18 1462:2.7562359e-18 1463:-0.0076838946 1464:2.6781238e-18 1465:2.7562359e-18 1466:5.1721267e-18 1467:2.7562359e-18 1468:2.7562359e-18 1469:2.6781238e-18 1470:2.6781238e-18 1471:2.6781238e-18 1472:2.7562359e-18 1473:2.7562359e-18 1474:5.0995941e-18 1475:2.7562359e-18 1476:2.6781238e-18 1477:2.6781238e-18 1478:2.6781238e-18 1479:2.7562359e-18 1480:2.6781238e-18 1481:2.6781238e-18 1482:2.6781238e-18 1483:2.7562359e-18 1484:2.6781238e-18 1485:-0.0035957766 1486:-0.0035957766 1487:-0.0035957766 1488:-0.0035957766 1489:2.6781238e-18 1490:2.6781238e-18 1491:2.6781238e-18 1492:-0.0039395061 1493:-0.0021860457 1494:5.0995941e-18 1495:2.6781238e-18 1496:2.6781238e-18 1497:2.6781238e-18 1498:2.6781238e-18 1499:-0.029765643 1500:2.6781238e-18 1501:2.6781238e-18 1502:2.6781238e-18 1503:-0.010925129 1504:2.6781238e-18 1505:2.6781238e-18 1506:2.6781238e-18 1507:2.6781238e-18 1508:2.6781238e-18 1509:2.6781238e-18 1510:2.6781238e-18 1511:2.6781238e-18 1512:2.6781238e-18 1513:2.6781238e-18 1514:2.6781238e-18 1515:2.6781238e-18 1516:2.7562359e-18 1517:5.0995941e-18 1518:2.6781238e-18 1519:2.7562359e-18 1520:2.6781238e-18 1521:-0.0022426296 1522:-0.0022426296 1523:-0.0022426296 1524:-0.0041695735 1525:-0.0041695735 1526:2.6781238e-18 1527:-0.0049720081 1528:-0.0049720081 1529:-0.0021860457 1530:-0.0021860457 1531:9.8628963e-19 1532:9.8628963e-19 1533:-0.0021860457 1534:-0.0021860457 1535:-0.0021860457 1536:-0.0031665075 1537:-0.0031665075 1538:-0.0045685791 1539:-0.0043305312 1540:-0.0031665075 1541:-0.0031665075 1542:-0.0031665075 1543:-0.0031665075 1544:-0.0031665075 1545:-0.0031665075 1546:-0.0045685791 1547:-0.0045685791 1548:-0.0031665075 1549:-0.001926944 1550:-0.001926944 1551:-0.001926944 1552:-0.011432406 1553:2.6781238e-18 1554:-0.0019803732 1555:2.6781238e-18 1556:2.6781238e-18 1557:2.6781238e-18 1558:2.6781238e-18 1559:2.6781238e-18 1560:2.7562359e-18 1561:2.6781238e-18 1562:2.6781238e-18 1563:2.6781238e-18 1564:2.7562359e-18 1565:2.6781238e-18 1566:2.6781238e-18 1567:2.6781238e-18 1568:2.6781238e-18 1569:2.6781238e-18 1570:2.6781238e-18 1571:2.6781238e-18 1572:2.6781238e-18 1573:2.6781238e-18 1574:2.6781238e-18 1575:2.6781238e-18 1576:-0.0075950357 1577:-0.0042287526 1578:-0.0042287526 1579:2.6781238e-18 1580:-0.001795141 1581:2.6781238e-18 1582:2.6781238e-18 1583:-0.001795141 1584:2.6781238e-18 1585:2.6781238e-18 1586:2.6781238e-18 1587:2.6781238e-18 1588:2.7562359e-18 1589:2.6781238e-18 1590:2.6781238e-18 1591:2.6781238e-18 1592:2.6781238e-18 1593:2.7562359e-18 1594:5.0995941e-18 1595:2.6781238e-18 1596:2.6781238e-18 1597:2.6781238e-18 1598:2.7562359e-18 1599:2.7562359e-18 1600:2.6781238e-18 1601:2.6781238e-18 1602:2.6781238e-18 1603:-0.020442897 1604:-0.0096797515 1605:-0.010390459 1606:-0.010390459 1607:-0.010390459 1608:2.6781238e-18 1609:2.6781238e-18 1610:2.6781238e-18 1611:2.6781238e-18 1612:2.6781238e-18 1613:2.6781238e-18 1614:2.6781238e-18 1615:-0.0078871585 1616:-0.0078871585 1617:-0.0078871585 1618:-0.0018822028 1619:-0.0018822028 1620:-0.0018822028 1621:-0.0018822028 1622:2.7562359e-18 1623:5.1721267e-18 1624:2.6781238e-18 1625:-0.0044398499 1626:2.6781238e-18 1627:-0.00031450886 1628:5.0995941e-18 1629:2.7562359e-18 1630:-2.298165e-17 1631:5.0995941e-18 1632:2.6781238e-18 1633:2.6781238e-18 1634:2.6781238e-18 1635:2.6781238e-18 1636:2.6781238e-18 1637:2.8566656e-18 1638:2.6781238e-18 1639:2.6781238e-18 1640:2.6781238e-18 1641:2.7562359e-18 1642:4.0807893e-19 1643:2.8566656e-18 1644:2.6781238e-18 1645:2.6781238e-18 1646:2.7562359e-18 1647:2.6781238e-18 1648:2.6781238e-18 1649:2.6781238e-18 1650:2.6781238e-18 1651:2.6781238e-18 1652:2.6781238e-18 1653:2.6781238e-18 1654:2.7562359e-18 1655:-0.011631644 1656:2.6781238e-18 1657:2.6781238e-18 1658:2.6781238e-18 1659:-0.011727274 1660:-0.011727274 1661:-0.011727274 1662:-0.010925129 1663:-0.011727274 1664:-0.011727274 1665:2.7562359e-18 1666:2.8566656e-18 1667:2.8566656e-18 1668:5.1721267e-18 1669:2.7562359e-18 1670:2.6781238e-18 1671:5.0995941e-18 1672:2.8566656e-18 1673:5.0995941e-18 1674:2.6781238e-18 1675:-0.0022842172 1676:2.6781238e-18 1677:2.6781238e-18 1678:2.6781238e-18 1679:2.6781238e-18 1680:2.7562359e-18 1681:2.6781238e-18 1682:-0.0036808129 1683:2.7562359e-18 1684:2.7562359e-18 1685:-0.002233112 1686:2.6781238e-18 1687:-0.0082621258 1688:2.6781238e-18 1689:2.6781238e-18 1690:2.7562359e-18 1691:2.7562359e-18 1692:-0.019553835 1693:-0.019553835 1694:-0.019553835 1695:-0.019553835 1696:2.6781238e-18 1697:2.7562359e-18 1698:-0.0038163236 1699:2.7562359e-18 1700:2.6781238e-18 1701:2.6781238e-18 1702:-0.0045087654 1703:2.7562359e-18 1704:2.7562359e-18 1705:2.7562359e-18 1706:2.6781238e-18 1707:2.6781238e-18 1708:2.7562359e-18 1709:2.6781238e-18 1710:2.6781238e-18 1711:-0.029549673 1712:-0.029549673 1713:-0.029549673 1714:2.6781238e-18 1715:2.6781238e-18 1716:2.6781238e-18 1717:-0.0079539288 1718:-0.0066371369 1719:-0.0066371369 1720:-0.0066371369 1721:-0.0079539288 1722:-0.0019269439 1723:-0.0019269439 1724:-0.0019269439 1725:-0.0019269439 1726:-0.0019269439 1727:-0.0019269439 1728:-0.0019269439 1729:-0.0019269439 1730:-0.0019269439 1731:-0.0019269439 1732:-0.0019269439 1733:2.6781238e-18 1734:2.6781238e-18 1735:2.6781238e-18 1736:-0.019605258 1737:2.6781238e-18 1738:2.6781238e-18 1739:2.6781238e-18 1740:-0.00059847732 1741:-0.00059847732 1742:-0.00059847732 1743:-0.0005575415 1744:-0.00059847732 1745:-0.0005575415 1746:-0.00059847732 1747:-0.00059847732 1748:2.6781238e-18 1749:2.7562359e-18 1750:2.8566656e-18 1751:2.7562359e-18 1752:2.7562359e-18 1753:-0.0040965257 1754:-0.0040965257 1755:-0.0040965257 1756:-0.014597324 1757:2.6781238e-18 1758:2.7562359e-18 1759:2.6781238e-18 1760:2.6781238e-18 1761:2.7562359e-18 1762:-0.013758749 1763:5.1721267e-18 1764:2.6781238e-18 1765:2.6781238e-18 1766:2.6781238e-18 1767:-0.013726181 1768:-0.0010989601 1769:-0.0010989601 1770:-0.013726181 1771:2.7562359e-18 1772:2.6781238e-18 1773:2.7562359e-18 1774:2.6781238e-18 1775:2.6781238e-18 1776:2.6781238e-18 1777:2.6781238e-18 1778:2.6781238e-18 1779:2.6781238e-18 1780:2.7562359e-18 1781:2.6781238e-18 1782:2.6781238e-18 1783:2.6781238e-18 1784:2.6781238e-18 1785:2.6781238e-18 1786:2.6781238e-18 1787:2.6781238e-18 1788:2.6781238e-18 1789:2.6781238e-18 1790:2.6781238e-18 1791:2.6781238e-18 1792:-0.034711078 1793:-0.036619138 1794:-0.036619138 1795:2.6781238e-18 1796:2.6781238e-18 1797:2.6781238e-18 1798:2.7562359e-18 1799:2.6781238e-18 1800:2.7562359e-18 1801:2.6781238e-18 1802:-5.6109221e-11 1803:2.7562359e-18 1804:2.6781238e-18 1805:2.6781238e-18 1806:2.6781238e-18 1807:2.6781238e-18 1808:-0.0005575415 1809:2.6781238e-18 1810:2.6781238e-18 1811:2.6781238e-18 1812:2.6781238e-18 1813:2.6781238e-18 1814:2.6781238e-18 1815:-0.0017375062 1816:-0.0017375062 1817:-0.0017375062 1818:-0.0033667609 1819:-0.005540031 1820:-0.0018420272 1821:2.6781238e-18 1822:2.6781238e-18 1823:2.7562359e-18 1824:2.6781238e-18 1825:-2.298165e-17 1826:2.7562359e-18 1827:2.6781238e-18 1828:2.6781238e-18 1829:-0.0010989601 1830:2.6781238e-18 1831:2.8566656e-18 1832:-0.0099274535 1833:2.6781238e-18 1834:-0.016315794 1835:2.6781238e-18 1836:-0.013241697 1837:2.6781238e-18 1838:0.042724386 1839:-0.035473328 1840:2.6781238e-18 1841:-0.0046480079 1842:-0.002234237 1843:-0.002234237 1844:-0.002234237 1845:2.6781238e-18 1846:2.6781238e-18 1847:-0.002451929 1848:-0.002451929 1849:-0.002451929 1850:-0.002451929 1851:2.6781238e-18 1852:2.6781238e-18 1853:2.6781238e-18 1854:2.6781238e-18 1855:2.6781238e-18 1856:2.6781238e-18 1857:2.6781238e-18 1858:2.6781238e-18 1859:2.6781238e-18 1860:2.7562359e-18 1861:2.6781238e-18 1862:2.6781238e-18 1863:2.6781238e-18 1864:2.6781238e-18 1865:2.6781238e-18 1866:2.6781238e-18 1867:2.6781238e-18 1868:-0.0071855998 1869:-0.008137173 1870:-0.008137173 1871:-0.008137173 1872:-0.008137173 1873:-0.008137173 1874:2.6781238e-18 1875:-0.0053405329 1876:2.6781238e-18 1877:2.6781238e-18 1878:2.6781238e-18 1879:2.6781238e-18 1880:2.6781238e-18 1881:2.6781238e-18 1882:-0.0027732204 1883:-0.0026735843 1884:-0.0026735843 1885:2.6781238e-18 1886:2.6781238e-18 1887:2.6781238e-18 1888:2.6781238e-18 1889:2.6781238e-18 1890:2.6781238e-18 1891:2.6781238e-18 1892:-0.0020721408 1893:2.6781238e-18 1894:2.6781238e-18 1895:2.6781238e-18 1896:2.6781238e-18 1897:2.6781238e-18 1898:2.6781238e-18 1899:5.0995941e-18 1900:2.8566656e-18 1901:2.6781238e-18 1902:2.6781238e-18 1903:2.6781238e-18 1904:2.7562359e-18 1905:2.6781238e-18 1906:2.6781238e-18 1907:5.0995941e-18 1908:-0.0023465496 1909:2.6781238e-18 1910:2.6781238e-18 1911:2.6781238e-18 1912:2.6781238e-18 1913:2.6781238e-18 1914:-0.0031752815 1915:-0.0031752815 1916:2.6781238e-18 1917:2.6781238e-18 1918:2.7562359e-18 1919:2.7562359e-18 1920:2.6781238e-18 1921:2.6781238e-18 1922:-0.0059255622 1923:-0.0059255622 1924:2.6781238e-18 1925:2.6781238e-18 1926:2.6781238e-18 1927:2.6781238e-18 1928:2.6781238e-18 1929:2.6781238e-18 1930:5.0995941e-18 1931:2.6781238e-18 1932:-0.00071442261 1933:-0.0028220923 1934:-0.00071442261 1935:-0.00071442261 1936:-0.00071442261 1937:2.6781238e-18 1938:2.6781238e-18 1939:2.6781238e-18 1940:2.6781238e-18 1941:2.6781238e-18 1942:2.6781238e-18 1943:2.6781238e-18 1944:-0.0015484589 1945:-0.0019007853 1946:-0.0019007853 1947:-0.0019007853 1948:-0.0019007853 1949:-0.0019007853 1950:-0.0019007853 1951:-0.0050955331 1952:2.6781238e-18 1953:2.6781238e-18 1954:2.6781238e-18 1955:2.6781238e-18 1956:2.6781238e-18 1957:2.6781238e-18 1958:2.6781238e-18 1959:2.6781238e-18 1960:2.6781238e-18 1961:2.6781238e-18 1962:-0.0050855693 1963:-0.017979413 1964:-0.0050855693 1965:-0.0050855693 1966:-0.0050855693 1967:2.7562359e-18 1968:2.6781238e-18 1969:2.6781238e-18 1970:-0.0021565361 1971:2.6781238e-18 1972:2.6781238e-18 1973:2.6781238e-18 1974:-0.0070608426 1975:-0.0022426296 1976:-0.0022426296 1977:-0.0019803732 1978:2.6781238e-18 1979:2.6781238e-18 1980:2.6781238e-18 1981:5.0995941e-18 1982:2.6781238e-18 1983:2.6781238e-18 1984:2.6781238e-18 1985:2.6781238e-18 1986:2.6781238e-18 1987:-0.014155997 1988:-0.014155997 1989:-0.023310324 1990:-0.0046902085 1991:-0.0046902085 1992:-0.009167037 1993:2.6781238e-18 1994:2.7562359e-18 1995:-0.0023465496 1996:-0.0023465496 1997:2.6781238e-18 1998:-0.0023465496 1999:-0.0023465496 2000:2.6781238e-18 2001:2.6781238e-18 2002:-0.0034947048 2003:2.6781238e-18 2004:2.6781238e-18 2005:2.6781238e-18 2006:2.6781238e-18 2007:2.6781238e-18 2008:2.6781238e-18 2009:2.6781238e-18 2010:2.6781238e-18 2011:2.6781238e-18 2012:2.6781238e-18 2013:2.6781238e-18 2014:2.6781238e-18 2015:2.6781238e-18 2016:-0.0041799396 2017:-0.0041799396 2018:-0.0041799396 2019:-0.010036862 2020:-0.010036862 2021:-0.010036862 2022:-0.010036862 2023:-0.010036862 2024:-0.010036862 2025:-0.011572563 2026:-0.010781 2027:2.6781238e-18 2028:-0.001435417 2029:2.6781238e-18 2030:2.6781238e-18 2031:-0.0062357122 2032:-0.0062357122 2033:-0.0022842172 2034:2.7562359e-18 2035:-0.0023148733 2036:2.6781238e-18 2037:2.6781238e-18 2038:2.6781238e-18 2039:2.6781238e-18 2040:2.6781238e-18 2041:2.6781238e-18 2042:2.6781238e-18 2043:2.6781238e-18 2044:2.6781238e-18 2045:2.6781238e-18 2046:2.6781238e-18 2047:2.6781238e-18 2048:2.6781238e-18 2049:2.6781238e-18 2050:2.6781238e-18 2051:2.6781238e-18 2052:2.6781238e-18 2053:2.7562359e-18 2054:2.6781238e-18 2055:2.6781238e-18 2056:2.6781238e-18 2057:2.7562359e-18 2058:2.6781238e-18 2059:2.6781238e-18 2060:2.6781238e-18 2061:2.6781238e-18 2062:2.6781238e-18 2063:2.6781238e-18 2064:2.6781238e-18 2065:2.7562359e-18 2066:-0.00059847732 2067:-0.00059847732 2068:-0.00059847732 2069:-0.00059847732 2070:-0.00059847732 2071:-0.00059847732 2072:2.6781238e-18 2073:2.6781238e-18 2074:2.6781238e-18 2075:2.6781238e-18 2076:2.6781238e-18 2077:2.6781238e-18 2078:2.6781238e-18 2079:2.6781238e-18 2080:2.6781238e-18 2081:2.6781238e-18 2082:5.0995941e-18 2083:2.6781238e-18 2084:-0.0026841506 2085:-0.0026841506 2086:-0.0026841506 2087:-0.0026841506 2088:-0.012451901 2089:-0.012451901 2090:-0.012451901 2091:-0.0086453306 2092:-0.0086453306 2093:-0.0086453306 2094:-0.0086453306 2095:2.6781238e-18 2096:-0.00830983 2097:2.6781238e-18 2098:2.6781238e-18 2099:2.6781238e-18 2100:2.6781238e-18 2101:2.6781238e-18 2102:2.7562359e-18 2103:2.6781238e-18 2104:2.6781238e-18 2105:2.6781238e-18 2106:2.6781238e-18 2107:2.6781238e-18 2108:2.6781238e-18 2109:2.6781238e-18 2110:2.6781238e-18 2111:2.6781238e-18 2112:2.6781238e-18 2113:2.6781238e-18 2114:2.6781238e-18 2115:2.6781238e-18 2116:2.6781238e-18 2117:2.6781238e-18 2118:-0.01415971 2119:2.6781238e-18 2120:2.6781238e-18 2121:2.6781238e-18 2122:2.6781238e-18 2123:2.6781238e-18 2124:2.6781238e-18 2125:-0.0031586252 2126:-0.0031586252 2127:-0.0031586252 2128:-0.0031586252 2129:2.7562359e-18 2130:2.6781238e-18 2131:-0.0022842172 2132:2.6781238e-18 2133:2.6781238e-18 2134:2.6781238e-18 2135:2.7562359e-18 2136:2.6781238e-18 2137:2.6781238e-18 2138:2.6781238e-18 2139:2.6781238e-18 2140:2.6781238e-18 2141:2.6781238e-18 2142:2.6781238e-18 2143:2.6781238e-18 2144:2.6781238e-18 2145:2.6781238e-18 2146:2.6781238e-18 2147:-0.0026782968 2148:2.6781238e-18 2149:2.6781238e-18 2150:2.6781238e-18 2151:2.6781238e-18 2152:-0.0043719392 2153:-0.0043719392 2154:-0.0043719392 2155:-0.0043719392 2156:2.6781238e-18 2157:2.6781238e-18 2158:2.6781238e-18 2159:2.6781238e-18 2160:2.6781238e-18 2161:2.6781238e-18 2162:2.6781238e-18 2163:2.6781238e-18 2164:2.6781238e-18 2165:2.6781238e-18 2166:2.6781238e-18 2167:2.6781238e-18 2168:2.6781238e-18 2169:2.6781238e-18 2170:2.6781238e-18 2171:-0.013789774 2172:2.6781238e-18 2173:-0.014547794 2174:2.6781238e-18 2175:2.6781238e-18 2176:2.6781238e-18 2177:2.6781238e-18 2178:2.6781238e-18 2179:-0.00830983 2180:-0.0089199543 2181:-0.0089199543 2182:-0.0035957766 2183:-0.0035957766 2184:2.7562359e-18 2185:2.6781238e-18 2186:2.6781238e-18 2187:2.7562359e-18 2188:2.6781238e-18 2189:2.6781238e-18 2190:2.6781238e-18 2191:2.6781238e-18 2192:2.6781238e-18 2193:2.6781238e-18 2194:2.6781238e-18 2195:2.6781238e-18 2196:-0.01572918 2197:-0.01572918 2198:-0.01572918 2199:-0.012648328 2200:-0.012648328 2201:-0.012648328 2202:-0.0022426296 2203:-0.0022426296 2204:-0.0022426296 2205:-0.0022426296 2206:-0.0022426296 2207:-0.0022426296 2208:2.6781238e-18 2209:2.6781238e-18 2210:2.6781238e-18 2211:2.6781238e-18 2212:2.6781238e-18 2213:2.6781238e-18 2214:2.6781238e-18 2215:-0.018088974 2216:2.6781238e-18 2217:2.6781238e-18 2218:2.6781238e-18 2219:2.6781238e-18 2220:2.6781238e-18 2221:2.6781238e-18 2222:2.6781238e-18 2223:2.6781238e-18 2224:-0.0017375062 2225:-0.0017375062 2226:-0.018088313 2227:-0.0030329777 2228:-0.0030329777 2229:2.6781238e-18 2230:2.6781238e-18 2231:2.6781238e-18 2232:2.6781238e-18 2233:2.6781238e-18 2234:2.6781238e-18 2235:2.6781238e-18 2236:2.7562359e-18 2237:2.6781238e-18 2238:2.6781238e-18 2239:2.6781238e-18 2240:2.6781238e-18 2241:2.6781238e-18 2242:-0.0080455262 2243:-0.0080455262 2244:-0.0080455262 2245:-0.0080455262 2246:2.6781238e-18 2247:2.6781238e-18 2248:-0.029549673 2249:-0.029549673 2250:-0.029549673 2251:-0.002233112 2252:-0.002233112 2253:-0.002233112 2254:-0.0015631845 2255:2.6781238e-18 2256:2.6781238e-18 2257:2.6781238e-18 2258:-0.020306349 2259:-0.0056775734 2260:-0.0035957766 2261:-0.0035957766 2262:-0.0035957766 2263:-0.0035957766 2264:-0.016383417 2265:-0.016383417 2266:2.6781238e-18 2267:2.6781238e-18 2268:2.6781238e-18 2269:2.6781238e-18 2270:2.6781238e-18 2271:2.6781238e-18 2272:2.6781238e-18 2273:2.7562359e-18 2274:-0.0017455084 2275:-0.0017455084 2276:-0.0017455084 2277:-0.0018736671 2278:2.6781238e-18 2279:2.6781238e-18 2280:2.6781238e-18 2281:2.6781238e-18 2282:2.6781238e-18 2283:2.6781238e-18 2284:2.6781238e-18 2285:2.6781238e-18 2286:-0.037728351 2287:-0.0050855693 2288:-0.0050855693 2289:-0.0050855693 2290:-0.0089107864 2291:-0.0032365459 2292:-0.0032365459 2293:-0.0032365459 2294:-0.0032365459 2295:-0.0032365459 2296:2.6781238e-18 2297:2.6781238e-18 2298:2.6781238e-18 2299:2.6781238e-18 2300:2.6781238e-18 2301:2.6781238e-18 2302:0.044135209 2303:0.044135209 2304:0.044135209 2305:0.038832143 2306:0.1168877 2307:-0.011553398 2308:-0.011553398 2309:-0.011553398 2310:-0.011553398 2311:-0.036548257 2312:-0.0098401001 2313:-0.0098401001 2314:2.6781238e-18 2315:2.6781238e-18 2316:2.6781238e-18 2317:2.6781238e-18 2318:2.6781238e-18 2319:2.6781238e-18 2320:2.6781238e-18 2321:2.6781238e-18 2322:2.6781238e-18 2323:2.6781238e-18 2324:2.6781238e-18 2325:2.6781238e-18 2326:2.6781238e-18 2327:2.6781238e-18 2328:2.6781238e-18 2329:2.6781238e-18 2330:2.6781238e-18 2331:2.6781238e-18 2332:2.6781238e-18 2333:2.6781238e-18 2334:2.6781238e-18 2335:-0.011572563 2336:2.6781238e-18 2337:2.6781238e-18 2338:2.6781238e-18 2339:2.6781238e-18 2340:2.6781238e-18 2341:2.6781238e-18 2342:2.6781238e-18 2343:2.6781238e-18 2344:2.6781238e-18 2345:2.6781238e-18 2346:2.6781238e-18 2347:2.6781238e-18 2348:2.6781238e-18 2349:2.6781238e-18 2350:-0.013635025 2351:2.6781238e-18 2352:2.6781238e-18 2353:-0.0015308739 2354:2.6781238e-18 2355:2.6781238e-18 2356:2.6781238e-18 2357:-0.0058649667 2358:2.6781238e-18 2359:-0.0036868076 2360:2.6781238e-18 2361:2.6781238e-18 2362:2.6781238e-18 2363:2.6781238e-18 2364:2.6781238e-18 2365:2.6781238e-18 2366:2.6781238e-18 2367:2.6781238e-18 2368:2.6781238e-18 2369:2.6781238e-18 2370:2.6781238e-18 2371:2.6781238e-18 2372:2.6781238e-18 2373:2.6781238e-18 2374:2.6781238e-18 2375:2.7562359e-18 2376:2.6781238e-18 2377:2.6781238e-18 2378:2.6781238e-18 2379:-0.00050074916 2380:2.6781238e-18 2381:2.6781238e-18 2382:2.6781238e-18 2383:2.6781238e-18 2384:2.6781238e-18 2385:2.6781238e-18 2386:-0.0062723737 2387:-0.0062723737 2388:-0.0058433437 2389:-0.0026841506 2390:-0.0026841506 2391:-0.0026841506 2392:-0.0026841506 2393:-0.0026841506 2394:-0.0026841506 2395:2.6781238e-18 2396:2.6781238e-18 2397:2.7562359e-18 2398:5.0995941e-18 2399:-0.00033760074 2400:2.6781238e-18 2401:2.6781238e-18 2402:2.6781238e-18 2403:2.6781238e-18 2404:2.6781238e-18 2405:2.6781238e-18 2406:2.6781238e-18 2407:2.6781238e-18 2408:2.6781238e-18 2409:2.6781238e-18 2410:-0.011572563 2411:-0.011572563 2412:-0.011572563 2413:2.6781238e-18 2414:2.6781238e-18 2415:-0.0054696579 2416:-0.0054696579 2417:2.7562359e-18 2418:2.7562359e-18 2419:-0.012453672 2420:-0.012453672 2421:-0.012453672 2422:-0.013803146 2423:-0.013803146 2424:-0.013803146 2425:2.6781238e-18 2426:-0.00033760074 2427:2.6781238e-18 2428:2.6781238e-18 2429:2.6781238e-18 2430:2.6781238e-18 2431:2.6781238e-18 2432:2.6781238e-18 2433:2.6781238e-18 2434:2.6781238e-18 2435:-0.01421393 2436:-0.01421393 2437:-0.01421393 2438:-0.0035957766 2439:-0.0035957766 2440:2.6781238e-18 2441:2.6781238e-18 2442:2.6781238e-18 2443:-0.040203031 2444:-0.0019772726 2445:-0.0019772726 2446:-0.0063265725 2447:-0.0063265725 2448:2.6781238e-18 2449:2.6781238e-18 2450:2.6781238e-18 2451:2.6781238e-18 2452:-0.029549673 2453:-0.029549673 2454:-0.029549673 2455:2.7562359e-18 2456:2.6781238e-18 2457:2.6781238e-18 2458:2.6781238e-18 2459:2.6781238e-18 2460:-0.0054972628 2461:-0.006389909 2462:-0.006389909 2463:-0.006389909 2464:-0.006389909 2465:-0.0040433593 2466:2.6781238e-18 2467:2.6781238e-18 2468:2.6781238e-18 2469:2.6781238e-18 2470:2.6781238e-18 2471:2.6781238e-18 2472:2.6781238e-18 2473:2.6781238e-18 2474:2.6781238e-18 2475:2.6781238e-18 2476:2.6781238e-18 2477:2.6781238e-18 2478:2.6781238e-18 2479:2.6781238e-18 2480:2.6781238e-18 2481:2.6781238e-18 2482:2.6781238e-18 2483:2.6781238e-18 2484:2.6781238e-18 2485:2.6781238e-18 2486:2.6781238e-18 2487:2.6781238e-18 2488:2.6781238e-18 2489:2.6781238e-18 2490:2.6781238e-18 2491:2.6781238e-18 2492:2.6781238e-18 2493:2.6781238e-18 2494:-0.002451929 2495:-0.002451929 2496:-0.002451929 2497:-0.002451929 2498:-0.002451929 2499:-0.002451929 2500:2.6781238e-18 2501:2.6781238e-18 2502:2.6781238e-18 2503:2.6781238e-18 2504:2.6781238e-18 2505:-0.0066935509 2506:2.6781238e-18 2507:2.6781238e-18 2508:2.6781238e-18 2509:2.6781238e-18 2510:-0.00059847732 2511:-0.0039575007 2512:-0.0039575007 2513:-0.0039575007 2514:2.6781238e-18 2515:2.6781238e-18 2516:2.6781238e-18 2517:2.6781238e-18 2518:2.6781238e-18 2519:2.6781238e-18 2520:2.6781238e-18 2534:2.6781238e-18 2561:2.6781238e-18 2634:2.6781238e-18 2645:2.6781238e-18 2775:2.6781238e-18 2828:2.6781238e-18 2856:2.6781238e-18 2857:2.6781238e-18 2858:2.6781238e-18 2859:2.6781238e-18 2860:2.6781238e-18 2861:2.6781238e-18 2862:2.6781238e-18 2863:2.6781238e-18 2864:5.0995941e-18 2903:2.6781238e-18 2904:2.6781238e-18 2905:-0.0078264652 2906:-0.0018822028 2907:-0.0018822028 2908:-0.0078264652 2909:2.6781238e-18 2910:2.6781238e-18 2911:2.6781238e-18 2912:2.6781238e-18 2913:-0.0026841506 2914:2.6781238e-18 2915:2.6781238e-18 2916:2.6781238e-18 2917:2.6781238e-18 2918:2.6781238e-18 2919:2.6781238e-18 2920:-0.00063464401 2921:-0.00063464401 2922:-0.00063464401 2923:-0.00063464401 2924:2.6781238e-18 2925:-0.0065188976 2926:2.6781238e-18 2927:2.7562359e-18 2928:2.6781238e-18 2929:2.6781238e-18 2930:2.6781238e-18 2931:2.6781238e-18 2932:2.6781238e-18 2933:-0.0034962262 2934:-0.00059847732 2935:-0.015615922 2936:2.6781238e-18 2937:2.6781238e-18 2938:2.6781238e-18 2939:-0.0062021678 2940:2.6781238e-18 2941:2.6781238e-18 #
