SVM-light Version V6.20
0 # kernel type
3 # kernel parameter -d 
1 # kernel parameter -g 
1 # kernel parameter -s 
1 # kernel parameter -r 
empty# kernel parameter -u 
376 # highest feature index 
45 # number of training documents 
2 # number of support vectors plus 1 
0 # threshold b, each following line is a SV (starting with alpha*y)
1 1:-0.37437758 3:-0.084333226 4:0.027870225 6:-0.08107385 10:-0.020850727 11:-0.029180929 12:-0.038653616 15:-0.080078848 22:-0.074167341 23:-0.012066986 24:-0.029445851 25:-0.0090201553 26:-0.059791021 27:-0.061052985 28:-0.0013841722 29:-0.0081599718 30:-0.01122657 31:-0.0013841722 32:-0.0013841722 33:-0.0013841722 34:-0.0019803008 35:-0.053547241 36:-0.0013841722 37:-0.0013841722 38:-0.0013841722 39:-0.067207552 40:-0.014417569 41:-0.012923626 42:-0.049234327 43:-0.012923626 44:-0.012923626 45:-0.012923626 46:-0.012923626 47:-0.0219108 48:-0.012923626 49:-0.012923626 50:-0.053062893 51:-0.029714324 52:-0.0010860867 53:-0.014004366 54:-0.0069501703 55:-0.022500735 57:-0.024132647 58:-0.061732613 59:-0.058151383 60:-0.0010860867 61:-0.014389787 65:-7.8287016e-11 68:-7.8287016e-11 69:-0.026282411 70:-0.036416952 71:-0.027986171 72:-0.067964926 73:-0.040851425 74:-0.015858451 75:-0.015858451 76:-0.015858451 77:0.0078454064 78:0.0099190911 79:-0.056241933 80:-0.022410577 81:-0.018013172 82:-0.018013172 83:-0.019418584 84:-0.024685182 85:-0.031814162 86:-0.045716524 87:-0.026090786 88:-0.018181505 89:-0.018181505 90:-0.018181505 91:-0.018181505 92:-0.018181505 93:-0.022285879 94:-0.02477348 95:-0.018014617 96:-0.022285879 97:-0.022919247 98:-0.020032002 99:-0.022919247 100:-0.0082599306 101:-0.011659951 102:-0.0079519097 103:-0.0079910094 104:-0.0079910094 105:-0.0079519097 106:-0.0079519097 107:-0.0079519097 108:-0.0079519097 109:-0.0079519097 110:-0.017548099 111:-0.020980151 112:-0.019546984 113:-0.017548099 114:-0.0030197497 115:-0.0063549113 116:-0.0010408389 117:-0.0063549113 118:-0.0020204887 119:-0.0011908567 120:-0.0011908567 121:-0.0022506404 122:-0.0011908567 123:-0.0070787929 124:-0.0010408389 125:-0.0010408389 126:-0.00091175886 127:-0.0013841722 128:-0.0013841722 129:-0.0013841722 130:-0.0010860865 131:-0.016463811 132:-0.014004366 133:-0.016463811 134:-0.016463811 135:-0.016463811 136:-0.015599588 137:-0.016463811 138:-0.016463811 139:-0.044270568 140:-0.044270568 141:-0.044270568 142:-0.025222613 143:-0.03450606 144:-0.028857987 145:-0.028857987 146:-0.028857987 147:-0.0043250839 148:-8.9570656e-11 149:-0.011372456 150:-8.9570656e-11 151:-0.0090456037 152:-0.0090456037 153:-8.9570656e-11 154:-8.9570656e-11 155:-8.9570656e-11 156:-8.9570656e-11 157:-8.9570656e-11 158:-8.9570656e-11 159:-0.026282411 160:-8.9570656e-11 161:-8.9570656e-11 162:-8.9570656e-11 163:-0.0012098018 164:-0.0012098018 165:-0.0090456037 166:-0.030070538 167:-0.028033188 168:-0.028033188 169:-0.032073654 170:-0.028033188 171:-0.032073654 172:-0.032073654 174:-0.013616252 179:-0.0017765461 180:-0.0060379538 184:-0.0063255336 189:-0.054306515 190:-0.051391836 191:-0.051391836 192:-0.012422048 193:-0.012422048 194:-0.012422048 195:-0.012422048 196:-0.012422048 197:-0.013111061 198:-0.012422048 199:-0.012422048 200:-0.041552871 201:-0.0068027801 202:-0.0068027801 203:-0.0068027801 204:-0.034854554 205:-0.0068027801 206:-0.0068027801 207:-0.0068027801 208:-0.0068027801 209:-0.014396343 210:-0.014396343 211:-0.014396343 212:-0.016083408 213:-0.014396343 214:-0.014396343 215:-0.016083408 216:-0.016083408 217:-0.033277906 221:-0.033277906 229:-0.0051818858 230:-0.0051818858 231:-0.0051818858 232:-0.0051818858 233:-0.0051818858 234:-0.0051818858 235:-0.0051818858 236:-0.0051818858 237:-0.0051818858 238:-0.0051818858 239:-0.004529099 240:-0.0051818858 241:-0.0051818858 242:-0.0051818858 243:-0.0051818858 244:-0.31784096 245:-5.1389683e-18 246:-0.027986171 247:-0.032019865 248:-0.032019865 249:-0.010741963 250:-0.010741963 251:-0.010741963 252:-0.010741963 253:-0.010741963 254:-0.010741963 255:-0.010741963 256:-0.0022641344 257:-0.0019789108 258:-0.0022641344 259:-0.0022641344 260:-0.0022641344 261:-0.0022641344 262:-0.0022641344 263:-4.4878428e-18 264:-4.4878428e-18 265:-0.010237133 266:-0.0069082142 267:-0.0069082142 268:-0.0069082142 269:-0.0069082142 270:-0.0069082142 271:-0.0069082142 272:-0.0069082142 273:-0.0069082142 274:-0.0069082142 275:-0.0069082142 276:-0.0069082142 277:-0.0069082142 278:-0.0069082142 279:-0.0012098016 280:-2.3158332e-18 281:-2.3158332e-18 282:0.037082847 283:-2.3158332e-18 284:-2.3158332e-18 285:-2.3158332e-18 286:-2.3158332e-18 287:-2.3158332e-18 288:-2.3158332e-18 289:-2.3158332e-18 290:-2.3158332e-18 291:-2.3158332e-18 292:-2.3158332e-18 293:-0.0083157718 294:-0.018254232 295:-0.0083157718 296:-0.0083157718 297:-0.016134372 298:-0.0083157718 299:-0.0083157718 300:-0.0083157718 301:-0.0083157718 302:-0.0083157718 303:-0.041079313 304:-0.041079313 305:-0.041079313 306:-0.00075171341 307:-0.00075171341 308:-0.007237243 309:-0.0025787319 310:-0.0025787319 311:-0.0025787319 312:-0.0025787319 313:-0.0025787319 314:-0.036640756 315:-0.036640756 316:0.042427659 317:0.035873048 318:0.042427659 319:0.042427659 320:0.042427659 321:0.042427659 322:0.042427659 323:0.042427659 324:0.042427659 325:-0.0013841722 326:-0.0013841722 327:-0.0013841722 328:-0.0013841722 329:-0.0013841722 330:-0.0013841722 331:-0.0013841722 332:-0.0013841722 333:-0.0013841722 334:-0.0013841722 335:-0.0013841724 336:-0.0013841724 337:-0.0013841724 338:-0.0013841724 339:-0.0013841724 340:-0.0013841724 341:-0.0013841724 342:-0.0013841724 343:-0.0013841724 344:-0.0013841724 345:-0.0013841724 346:-0.0013841724 347:-0.0013841724 348:-0.0013841724 349:-0.0013841724 350:-0.0013841724 351:-0.0013841724 352:-0.0048044142 353:-0.0048044142 354:-0.0048044142 355:-0.0048044142 356:-0.0048044142 357:-0.0048044142 358:-0.0048044142 359:-0.0048044142 360:-0.0048044142 361:-0.0048044142 362:-0.0048044142 363:-0.0038475397 364:-0.0038475397 365:-0.0038475397 366:-0.0038475397 369:-0.030961458 370:-0.030961458 371:-0.030961458 372:-0.010144074 373:-0.010144074 374:-0.010144074 375:-0.010144074 #
