SVM-light Version V6.20
0 # kernel type
3 # kernel parameter -d 
1 # kernel parameter -g 
1 # kernel parameter -s 
1 # kernel parameter -r 
empty# kernel parameter -u 
515 # highest feature index 
54 # number of training documents 
2 # number of support vectors plus 1 
0 # threshold b, each following line is a SV (starting with alpha*y)
1 1:-0.60069019 3:-0.033148322 4:-0.027812416 5:-0.033148322 6:-0.047497828 7:-0.02347484 8:-0.047497828 9:-0.11348096 10:-0.063749276 11:0.03516838 12:0.051370855 13:-0.032092649 14:-0.12266367 15:0.03516838 16:0.076380275 17:0.051370855 18:-0.12266367 19:-0.010551916 20:-0.018510619 21:-0.016731722 22:-0.041603915 23:-0.012285437 24:-0.018510619 25:-0.012285437 26:-0.01331652 27:-0.011622194 28:-0.0034046457 29:-1.4458378e-17 30:-1.4458378e-17 31:-0.011622194 32:-0.0034046457 33:-1.4458378e-17 34:-1.4458378e-17 35:-0.12702091 36:-0.030956686 37:-0.0063262875 38:-0.013685603 39:-0.022339035 40:-0.0081487037 41:-0.0069988915 42:-0.0081487037 43:-0.019256931 44:-0.017429965 45:-0.010987531 46:-0.010987531 47:-0.012182148 48:-0.0099316128 49:-0.010987531 50:-0.010987531 51:-0.010987531 52:-0.18080619 53:-0.11516351 54:-1.4458378e-17 55:-1.4458378e-17 56:-0.011255795 57:-1.4458378e-17 58:-0.032136656 59:-0.00048642908 60:-1.4458378e-17 61:-1.4458378e-17 62:-1.4458378e-17 63:-1.4458378e-17 64:-1.4458378e-17 65:-1.4458378e-17 66:-1.4458378e-17 67:-1.4458378e-17 68:-1.4458378e-17 69:-1.4458378e-17 70:-1.4458378e-17 71:-1.4458378e-17 72:-1.4458378e-17 73:-0.038633645 74:-0.050161086 75:0.054567777 76:-0.022805179 77:-0.026486892 78:-0.022569979 79:-0.033207066 80:0.071446583 81:-0.033207066 82:-0.18245375 83:-0.025126152 84:-9.9814189e-19 85:-0.012511871 86:-9.9814189e-19 87:-1.4458378e-17 88:-6.4350794e-17 89:-6.7110361e-17 90:4.6531027e-18 91:4.6531027e-18 92:4.6531027e-18 93:-0.024897529 94:-0.016740592 95:-0.024897529 96:-0.024897529 97:-0.024897529 98:-0.014165795 99:-0.0082454095 100:-0.008162383 101:-0.0082454095 102:-0.0082454095 103:-0.0082454095 104:-0.0082454095 105:-0.0082454095 106:-0.00071074761 107:-0.0092797838 108:-0.01388026 109:-0.00071074761 110:-0.00071074761 111:-0.00071074761 112:-0.00071074761 113:-0.00061045849 114:-0.00061045849 115:-0.015640197 116:-0.0081487037 117:-0.0081487037 118:-0.011506362 119:-0.011506362 120:-0.011506362 121:-0.011506362 122:-0.011506362 123:-0.0092661986 124:-0.024682341 125:-0.0092661986 126:-0.0092661986 127:-0.020178774 128:-0.020178774 129:-0.017203456 130:-0.020178774 131:-0.020178774 132:-0.020178774 133:-0.020178774 134:-0.020178774 135:0.10305397 136:-0.020178774 137:-0.020178774 138:-1.7730749e-17 139:-1.7730749e-17 140:-0.0066924342 141:-0.014945455 142:-0.0063963081 143:-0.0063963081 144:-0.0066924342 145:-0.0063963081 146:-0.019547727 147:4.6531027e-18 148:-0.0017010346 149:-1.4458378e-17 150:-1.4458378e-17 151:-1.4458378e-17 152:-0.0017010346 153:-0.0017010346 154:-0.026702037 155:-0.024083093 156:-0.018637782 157:-0.026702037 158:-0.011778414 159:-0.019261375 160:-0.014132546 161:-0.014132546 162:-0.038254429 163:-0.038254429 164:-0.050393611 165:-0.045003764 166:-0.050393611 167:-0.058672521 168:-0.058672521 169:-0.0043854234 170:-0.0040076016 171:-1.4458378e-17 172:-1.4458378e-17 173:-0.0071860221 174:-0.0071860221 175:-0.0071860221 176:-0.0071860221 177:-0.0071860221 178:-0.0064144395 179:-0.0045266887 180:-0.0045266887 181:-0.0040231463 182:-0.0040231463 183:-0.0083708353 184:-0.0097460374 185:-0.0097460374 186:-0.0097460374 187:-0.0097460374 188:-0.0097460374 189:-0.008981294 190:-0.0097460374 191:-0.018437875 192:-1.4458378e-17 193:-0.0061889235 194:-1.4458378e-17 195:-1.4458378e-17 196:-1.4458378e-17 197:-1.4458378e-17 198:-1.4458378e-17 199:-0.0061889235 200:-0.0046659899 201:-0.010712566 202:-0.0046659899 203:-0.0046659899 204:-0.0046659899 205:-0.0046659899 206:-0.0046659899 207:-0.0046659899 208:-0.0046659899 209:-0.0046659899 210:-0.0046659899 211:-1.4458378e-17 212:-1.4458378e-17 213:-1.4458378e-17 214:-1.4458378e-17 215:-1.4458378e-17 216:-0.0085899355 217:-0.0085899355 218:-0.0085899355 219:-0.00096827681 220:-1.8182057e-17 221:-0.011034213 222:-0.011034213 223:-0.0094772447 224:-0.0031916937 225:-0.0031916937 226:-0.0031916937 227:-0.0031916937 228:-0.0031916937 229:-0.002741334 230:-0.0031916937 231:-0.0031916937 232:-0.0031916937 233:-0.0031916937 234:-0.0031916937 235:-0.0031916937 236:-0.0031916937 237:-0.0031916937 238:-0.002741334 239:-0.0031916937 240:-0.0031916937 241:-0.0031916937 242:-0.0011183324 243:-0.0011183324 244:-0.0011183324 245:-0.0011183324 246:-0.0011183324 247:-0.0011183324 248:-0.0011183324 249:-0.0011183324 250:-0.0011183324 251:-0.0011183324 252:-0.0011183324 253:-0.012814694 254:-0.012814694 255:-0.0059912801 256:-0.0059912801 257:-0.0059912801 258:-0.0059912801 259:-0.0059912801 260:-0.0059912801 261:-0.0043854234 262:-0.0043854234 263:-0.0043854234 264:-0.033986956 265:-0.033986956 266:-0.008629702 267:-0.023196394 268:-0.008629702 269:-0.008629702 270:-0.081246488 271:-0.0025140401 272:-0.0029270588 273:-0.019941598 274:-0.0025140401 275:-0.0029270588 276:-0.0022724369 277:-0.0029270588 278:-0.011659486 279:-0.011715324 280:-1.5498493e-17 281:-1.5498493e-17 282:-0.0015375626 283:-0.042563919 284:-0.04547362 285:-0.00125793 286:-0.00125793 287:-0.0070040184 288:-0.00125793 289:-0.00125793 290:-0.00125793 291:-0.00125793 292:-0.0070040184 293:-0.00125793 294:-0.00125793 295:-0.031312291 296:-0.0092456024 297:-0.0079410132 298:-0.0092456024 299:-0.0092456024 300:-0.0092456024 301:3.0381076e-18 302:3.0381076e-18 303:-0.0012472087 304:-0.0024542648 305:-0.0012472087 306:-0.0012472087 307:-0.0012472087 308:-0.0012472087 309:-0.0012472087 310:-0.0012472087 311:-0.0012472087 312:-0.0012472087 313:-0.00061045861 314:-0.00071074773 315:-0.00061045861 316:-0.00071074773 317:-0.00071074773 318:-0.00071074773 319:-0.00071074773 320:-0.00071074773 321:-0.0091318032 322:-0.00072344404 323:-0.00072344404 324:-0.00072344404 325:-0.00072344404 326:-0.00072344404 327:-0.00072344404 328:-0.00072344404 329:-0.095920108 330:-1.4458378e-17 331:-1.4458378e-17 332:-1.4458378e-17 333:-1.4458378e-17 334:-1.4458378e-17 335:-1.4458378e-17 336:-0.081246488 337:-0.0067049637 338:-0.0014336086 339:-1.4458378e-17 340:-1.4458378e-17 341:-1.4458378e-17 342:-0.0014336086 343:-0.0016691289 344:-0.0016691289 345:-0.03061362 346:-0.0096104899 347:-0.001113442 348:-0.0014341916 349:-0.0014341916 350:-0.011096636 351:-0.0014341916 352:-0.0014341916 353:-0.001231822 354:-0.0014341916 355:-0.081246488 356:-1.4458378e-17 357:-1.4458378e-17 358:-1.4458378e-17 359:-9.9814189e-19 360:-0.0067049637 361:-1.4458378e-17 362:-1.4458378e-17 363:-0.032945737 364:-0.016476218 365:-0.0029918945 366:-0.0029918945 367:-0.0029918945 368:-0.0029918945 369:-0.0029918945 370:-0.0029918945 371:-0.0029918945 372:-0.0029918945 373:-0.0029918945 374:-0.0029918945 375:-0.0029918945 376:-0.0029918945 377:-0.0029918945 378:-0.0029918945 379:-0.0029918945 380:-0.0099212723 381:-0.0099212723 382:-0.0099212723 383:-0.11348096 384:-1.4458378e-17 385:-0.0050525684 386:-0.0050525684 387:-0.00072344404 388:-0.00072344404 389:-0.0012472087 390:-0.0010712229 391:-0.0012472087 392:-0.0012472087 393:-0.0012472087 394:-0.0012472087 395:-0.095315732 396:-0.018377509 397:-1.4458378e-17 398:-1.4458378e-17 399:-1.4458378e-17 400:-9.9814189e-19 401:-0.0016691289 402:-0.0016691289 403:-0.0068967431 404:-0.0068967431 405:-0.0068967431 406:-0.0068967431 407:-0.0068967431 408:-0.0068967431 409:-0.012570055 410:-1.4458378e-17 411:-1.4458378e-17 412:-1.4458378e-17 413:-1.4458378e-17 414:-1.4458378e-17 415:-9.9814189e-19 416:-1.4458378e-17 417:-1.4458378e-17 418:-0.01541912 419:-1.4458378e-17 420:-1.4458378e-17 421:-1.4458378e-17 422:-1.4458378e-17 423:-0.01541961 424:-0.01541961 425:-1.4458378e-17 426:-1.4458378e-17 427:-1.4458378e-17 428:-1.4458378e-17 429:-1.4458378e-17 430:-9.9814189e-19 431:-1.4458378e-17 432:-1.4458378e-17 433:-1.4458378e-17 434:-1.4458378e-17 435:-1.4458378e-17 436:-1.4458378e-17 437:-1.4458378e-17 438:-1.4458378e-17 439:-1.749974e-17 440:-1.749974e-17 441:-1.749974e-17 442:-1.749974e-17 443:-1.749974e-17 444:-1.749974e-17 445:-1.749974e-17 446:-1.749974e-17 447:-1.749974e-17 448:-1.749974e-17 449:-1.749974e-17 450:-1.749974e-17 451:-1.749974e-17 452:-1.749974e-17 453:-1.749974e-17 454:-1.749974e-17 455:-0.01390649 456:-1.749974e-17 457:-1.8411919e-17 458:-1.8411919e-17 459:-1.8411919e-17 460:-0.081246488 461:-0.0016102546 462:-0.0016102546 463:-0.022759123 464:-0.022759123 465:-0.022759123 466:-0.00071074761 467:-0.00071074761 468:-0.00071074761 469:-0.00071074761 470:-0.09543813 471:-1.4458378e-17 472:-1.4458378e-17 473:-0.016191116 474:-0.016191116 475:-0.081246488 476:-0.027210826 477:-0.027210826 478:-0.0019804889 479:-0.0019804889 480:-0.0019804889 481:-0.0019804889 482:-0.0019804889 483:-0.0019804889 484:-0.0019804889 485:-1.4996124e-17 486:-1.4996124e-17 487:-1.4996124e-17 488:-1.4996124e-17 489:-1.4996124e-17 490:-1.4996124e-17 491:-0.01541912 492:-0.017952248 493:-1.4458378e-17 494:-1.4458378e-17 495:-1.4458378e-17 496:-1.4458378e-17 497:-1.4458378e-17 498:-1.4458378e-17 499:-1.4458378e-17 500:-1.4458378e-17 501:-1.4458378e-17 502:-1.4458378e-17 503:-0.0078064883 504:-0.0078064883 505:-0.0078064883 506:-1.4458378e-17 507:-1.4458378e-17 508:-1.4458378e-17 509:-1.4458378e-17 510:-1.4458378e-17 511:-1.4458378e-17 512:-1.4458378e-17 513:-1.4458378e-17 514:-1.4458378e-17 #
