SVM-light Version V6.20
0 # kernel type
3 # kernel parameter -d 
1 # kernel parameter -g 
1 # kernel parameter -s 
1 # kernel parameter -r 
empty# kernel parameter -u 
684 # highest feature index 
2 # number of training documents 
2 # number of support vectors plus 1 
0 # threshold b, each following line is a SV (starting with alpha*y)
1 1:0.015180569 4:0.0064718798 14:0.0072090849 18:0.025743568 25:0.025743568 27:0.0026180146 28:0.0048611481 34:0.0031720076 35:0.0056560077 46:0.0046958728 108:0.0068142181 211:0.008248142 212:0.008248142 213:0.008248142 214:0.008248142 220:0.0076762117 324:0.040369693 326:0.008248142 345:0.0076762117 437:0.008248142 551:0.008985348 608:0.049362238 609:0.049362238 610:0.049362238 611:0.049362238 670:0.010024148 671:0.010024148 672:0.010024148 673:0.010024148 674:0.010024148 675:0.010024148 676:0.010024148 677:0.010024148 678:0.010024148 679:0.010024148 680:0.010024148 681:0.010024148 682:0.010024148 683:0.010024148 #
