SVM-light Version V6.20
0 # kernel type
3 # kernel parameter -d 
1 # kernel parameter -g 
1 # kernel parameter -s 
1 # kernel parameter -r 
empty# kernel parameter -u 
181 # highest feature index 
1 # number of training documents 
2 # number of support vectors plus 1 
-0.029079783 # threshold b, each following line is a SV (starting with alpha*y)
1 2:0.0057202922 8:0.0057202922 177:0.096899785 178:0.096899785 179:0.096899785 #
